0.133478209376335, 0.114689879119396, 0.099275134503841, 0.398077040910721, 0.010009827092290, 0.057923696935177, 0.134194374084473, -0.083770059049129, -0.131082922220230, 0.056285042315722, 0.071547888219357, 0.132332175970078, -0.003910368774086, -0.017038628458977, 0.069414451718330, 0.048587158322334, -0.064371757209301, 0.215785548090935, 0.144863262772560, -2.281899929046631, 0.276425272226334, 0.062708429992199, 0.081831209361553, -0.113354526460171, 0.024943238124251, 0.029996836557984, 0.063003443181515, 0.385345518589020, 0.104773297905922, 0.037472188472748, 0.352600336074829, 0.066832475364208, 0.066295236349106, 0.042984351515770, 0.151324734091759, 0.092700794339180, -0.062671445310116, 0.133854731917381, -0.058157697319984, -0.059583894908428, 0.043250475078821, 0.130265608429909, 0.222385466098785, 0.003526499960572, 0.156726628541946, 0.323761820793152, -0.164857983589172, 0.301446735858917, -0.048633351922035, 0.460584461688995, 0.092188514769077, -0.164973288774490, 0.381004303693771, 0.287841379642487, -0.243257284164429, 0.056796010583639, -0.069650918245316, -0.024072410538793, 0.018532551825047, 0.094757661223412, 0.036002673208714, -0.087496571242809, 0.128232106566429, 0.075830370187759, 0.237204030156136, -0.046399321407080, 0.225288063287735, 0.044494807720184, 1.583978056907654, 0.227364122867584, 0.033714380115271, -0.014278342016041, -0.046149298548698, 0.069525778293610, 0.079695783555508, 0.008412592113018, 0.071740552783012, 0.017602324485779, 0.201130568981171, -0.030727697536349, 0.005547986831516, 0.279202222824097, -0.013072771951556, 0.056647196412086, -0.027380241081119, 0.077179789543152, 0.064549319446087, 0.046650543808937, 0.169486597180367, 0.084640517830849, 0.003464356530458, -0.149169117212296, -0.193323284387589, 0.014608737081289, -0.123215809464455, 0.011079471558332, 0.090175338089466, 0.233029320836067, 0.074165828526020, 0.021871188655496, -0.066256538033485, 0.025475393980742, -0.022430403158069, 0.075505562126637, -0.080466158688068, -0.255022913217545, 0.125569045543671, -0.054842073470354, -0.022394698113203, -0.080653265118599, -0.228769496083260, 0.000562489265576, 0.022459357976913, -0.027520323172212, 0.061907660216093, 0.031411293894053, 0.015221606008708, 0.050529468804598, 0.073650479316711, 0.087402015924454, 0.000207064367714, 0.006901535205543, -0.114724792540073, -0.074460573494434, 0.046636428683996, 0.008941150270402, 0.105448640882969, 0.022357899695635, 0.008062982000411, -0.094827368855476, -0.234636217355728, 0.021002871915698, -0.003419449552894, -0.053041700273752, -0.054994188249111, -0.066081441938877, -0.117463558912277, -0.373423039913177, -0.048052985221148, 0.018980421125889, 0.041001163423061, -0.096256747841835, -0.146435871720314, 0.459251105785370, -0.032523564994335, 0.055009063333273, 0.031875543296337, 0.167974337935448, -0.182152837514877, -0.065936133265495, -0.032899152487516, 0.021416012197733, -0.058579139411449, -0.033705901354551, 0.008804736658931, 0.019429933279753, -0.002990968758240, 0.049038238823414, -0.097354061901569, 0.088330924510956, -0.047081481665373, 0.021574774757028, 0.041835296899080, -0.096904784440994, 0.050280839204788, -0.048918146640062, -0.458705216646194, -0.054623793810606, 0.045367136597633, -0.021962713450193, -0.010298520326614, -0.017777556553483, -0.034433867782354, -0.053064469248056, -0.027783552184701, 0.081394463777542, 0.036296393722296, -0.093530841171741, -0.738156616687775, -0.035996679216623, 0.035246673971415, 0.255417197942734