//Numpy array shape [182]
//Min -0.121440283954
//Max 0.573885619640
//Number of zeros 0

#ifndef BIAS9_H_
#define BIAS9_H_

#ifndef __SYNTHESIS__
layers_0_norm1_bias_t bias9[182];
#else
layers_0_norm1_bias_t bias9[182] = {0.05008482187986374, 0.04727803543210030, 0.03801550343632698, 0.05805302783846855, 0.05479519814252853, 0.03365625441074371, 0.05318976938724518, 0.04545459151268005, -0.02270166389644146, 0.04347244277596474, 0.04739366471767426, 0.04076207801699638, 0.04502145946025848, 0.04030003026127815, 0.04973666742444038, 0.05549389123916626, -0.02249561622738838, 0.03534450754523277, 0.04805466532707214, 0.03995336592197418, 0.04941157251596451, 0.04781758412718773, 0.04851244017481804, -0.03923806920647621, 0.04332332685589790, 0.03863840550184250, 0.01651912368834019, 0.03852387890219688, 0.01988655701279640, 0.04222290962934494, 0.04163499176502228, 0.04360899701714516, 0.02592321671545506, 0.03250356018543243, 0.04683115333318710, 0.03558710962533951, 0.04572246968746185, 0.00725515512749553, 0.02572688087821007, 0.01842865347862244, 0.05694792792201042, 0.04185131937265396, 0.04666444286704063, -0.00452304445207119, 0.04972407221794128, 0.03099948912858963, 0.06129280105233192, 0.02687592245638371, -0.01980533450841904, 0.06268061697483063, 0.05820863321423531, -0.01831868849694729, 0.05856902897357941, 0.01003458350896835, -0.00381782674230635, 0.07755518704652786, 0.00278270058333874, -0.00721621373668313, 0.04500073194503784, 0.05740632489323616, 0.05566979199647903, 0.02502195164561272, 0.05359512940049171, 0.04517053440213203, 0.06320921331644058, 0.04196702688932419, 0.04499680921435356, 0.06340220570564270, 0.03734327852725983, 0.09587267786264420, -0.00952039565891027, 0.08830186724662781, -0.04108166322112083, 0.08046691864728928, -0.01502591092139482, 0.07156588882207870, -0.01592680066823959, 0.03501478955149651, -0.02264427579939365, 0.06646747142076492, -0.06068427860736847, 0.05796999484300613, -0.03265037760138512, 0.02788014151155949, -0.08326193690299988, 0.01050247251987457, -0.06218077614903450, -0.03315117955207825, -0.04312365502119064, -0.03153306990861893, -0.03874839469790459, -0.01664721593260765, -0.07979753613471985, -0.00858247280120850, -0.02351020649075508, -0.01691967807710171, -0.05198279023170471, -0.02525817044079304, -0.06087022274732590, -0.03838084265589714, -0.00942366942763329, -0.04775983840227127, 0.00358801195397973, -0.05626422539353371, -0.04183540120720863, -0.07964610308408737, -0.04913758859038353, -0.05713617429137230, -0.00172296608798206, -0.11140909045934677, -0.06136266514658928, -0.07161969691514969, -0.00414961343631148, -0.04684865102171898, 0.01138557121157646, -0.05770822986960411, 0.01521343644708395, -0.08111573755741119, 0.04738271236419678, -0.05580922216176987, -0.00313575868494809, -0.05515614524483681, 0.04834223166108131, -0.04275238513946533, 0.06142659857869148, -0.04973874986171722, 0.01681178808212280, -0.08018066734075546, 0.02802711911499500, -0.02905706316232681, -0.00605257693678141, -0.04407544806599617, -0.01526808086782694, -0.08355071395635605, -0.04996676370501518, -0.12144028395414352, -0.07387910783290863, -0.00784327555447817, 0.20082721114158630, -0.00363980419933796, 0.18716165423393250, -0.01270041707903147, 0.20011290907859802, -0.02034510299563408, 0.19786092638969421, -0.01578430645167828, 0.21373368799686432, -0.02170809358358383, 0.18436138331890106, -0.00822903402149677, 0.17567893862724304, -0.01626036316156387, 0.16950114071369171, -0.00839778967201710, 0.12593764066696167, -0.01601407490670681, 0.11325628310441971, -0.02002421021461487, 0.05503801256418228, -0.00978961773216724, 0.00382231292314827, -0.01553518231958151, 0.00274672289378941, 0.00733349658548832, 0.00365000916644931, -0.02488283440470695, -0.01495019346475601, -0.00775605859234929, 0.00925776921212673, -0.01169161219149828, 0.04465091601014137, -0.00982970558106899, 0.12642133235931396, -0.00573208276182413, 0.30900633335113525, -0.01665205135941505, 0.38438162207603455, -0.00805837847292423, 0.47953489422798157, -0.01290981564670801, 0.57388561964035034, -0.00403258157894015};
#endif

#endif
