//Numpy array shape [182]
//Min -4.045417308807
//Max 3.181581735611
//Number of zeros 0

#ifndef BIAS18_H_
#define BIAS18_H_

#ifndef __SYNTHESIS__
layers_1_norm2_bias_t bias18[182];
#else
layers_1_norm2_bias_t bias18[182] = {-0.97525000572205, 0.91963368654251, 0.57819312810898, 1.47082519531250, -0.62374907732010, 0.48559358716011, 1.60226452350616, -1.93722057342529, -0.86720103025436, -0.31216645240784, 0.22076007723808, 0.51098972558975, -0.48844704031944, 0.25115141272545, -1.24545967578888, -0.17774146795273, -0.07865231484175, 0.60370773077011, -0.14794890582561, 0.43165254592896, -0.25360447168350, -4.04541730880737, -0.31078782677650, -0.18609338998795, 0.69022786617279, 0.11327099800110, 0.26340079307556, -1.29084253311157, 0.05061279237270, -0.62630003690720, 0.01277881115675, 0.37948265671730, 0.03330360352993, -0.43010860681534, -0.03139993548393, -0.75357139110565, -0.44268822669983, 0.03691527619958, -0.84995460510254, -1.75222611427307, -0.03310383111238, 0.20880645513535, -0.08422169089317, -0.04131664335728, 0.81763947010040, -1.13242888450623, -0.11046648025513, -0.18002766370773, -0.25115734338760, 0.03109565936029, -0.91198652982712, -0.17959707975388, 0.12108813971281, -0.39130967855453, 0.03345232456923, -0.84299004077911, -0.10077832639217, 0.32740965485573, 1.16849672794342, 2.36457872390747, -0.80615061521530, -1.22765636444092, 0.54389905929565, -0.10891348123550, -0.78075367212296, 0.45281934738159, -0.69885104894638, 0.25415676832199, 1.54016876220703, 1.22090613842010, -0.15979254245758, -0.06566763669252, -0.17594932019711, -0.59099698066711, -0.00841103494167, -0.58883607387543, -2.01216387748718, -0.06689901649952, -1.52163982391357, 0.02265092171729, 0.01488592196256, 1.34253180027008, -3.55571413040161, -0.68718755245209, -0.53921365737915, -0.89842575788498, -1.34854960441589, 0.80808895826340, 0.55241715908051, -0.45584672689438, -0.05891113728285, -1.15718328952789, -0.11365047097206, 0.05040387064219, -1.04578363895416, -1.25144231319427, 0.54119217395782, 0.57828730344772, -0.29811489582062, 0.17529103159904, -0.25353065133095, 0.31754580140114, -0.34843200445175, 0.84711164236069, 0.05713407695293, -0.00914753135294, 0.31267806887627, -0.15496988594532, -0.97303867340088, -0.33286875486374, -1.07867121696472, 0.19901926815510, 0.07552796602249, -3.05008053779602, -0.31650084257126, -0.59353083372116, -0.84859389066696, -0.29631131887436, 0.92214882373810, -0.25582283735275, -0.26496419310570, 0.39002043008804, -0.70325976610184, -3.07252216339111, 0.02762825228274, -0.22213816642761, -0.51822471618652, 0.20558245480061, 0.01056161522865, -1.87059676647186, -2.04264330863953, 0.19739946722984, 0.31529307365417, -1.97399306297302, 0.11748549342155, -0.09544307738543, -0.60733127593994, -2.12833666801453, -0.11581592261791, -0.26443609595299, 0.22726166248322, -0.12344036996365, 1.03722715377808, 1.95443689823151, -0.38272276520729, -0.27473542094231, 0.80915904045105, -0.51959067583084, 1.16008818149567, 0.08779113739729, 0.92230021953583, -0.14728638529778, -0.14621882140636, -0.59194451570511, 0.34471353888512, -0.29019296169281, 0.89697003364563, -0.26271012425423, -0.47301939129829, 0.11023766547441, -0.11920817941427, -0.25587612390518, -0.02842689864337, -0.38459333777428, 0.11918400228024, -0.10573592036963, -0.05305005237460, -0.22682553529739, 0.21151909232140, -0.85173368453979, -0.14639131724834, 0.20497497916222, -0.66691648960114, -0.24024692177773, 0.26262581348419, -0.22045327723026, 0.24333056807518, 0.26977962255478, 0.03456277027726, 0.01492826640606, 0.31983989477158, 3.18158173561096};
#endif

#endif
