-0.003481068415567278862, 0.015366577543318271637, -0.006151706911623477936, -0.004139660391956567764, -0.004811387974768877029, 0.001306352671235799789, -0.008455242030322551727, 0.000951063644606620073, -0.001509580761194229126, -0.003880541771650314331, 0.004829709883779287338, -0.000389883061870932579, 0.001728749601170420647, 0.005870595574378967285, -0.000825872528366744518, -0.001596362330019474030, -0.002388013293966650963, 0.008668323047459125519, 0.004536020103842020035, 0.005631419364362955093, 0.002042264677584171295, 0.003582224017009139061, 0.003769266651943325996, -0.011406538076698780060, -0.007758666295558214188, 0.001736884820275008678, 0.001976072089746594429, -0.004007446579635143280, 0.007053016219288110733, 0.012125536799430847168, -0.000298609462333843112, -0.005121188703924417496, 0.008713601157069206238, 0.003107958007603883743, 0.003255169373005628586, 0.005214871838688850403, -0.000214666404644958675, -0.000125207909150049090, -0.003301299409940838814, -0.005601874552667140961, 0.001100685098208487034, -0.001072101644240319729, 0.004594377707690000534, -0.001882994547486305237, -0.001978009939193725586, 0.005177100654691457748, -0.004065962508320808411, 0.005813192576169967651, -0.004550196230411529541, -0.001766838249750435352, 0.000142360862810164690, -0.004340261220932006836, -0.002175193745642900467, 0.004200245719403028488, 0.001188783207908272743, -0.004586731549352407455, 0.001470207702368497849, 0.004777492024004459381, -0.016874521970748901367, -0.009796200320124626160, -0.008306421339511871338, 0.000330238981405273080, -0.006203199271112680435, 0.000735360896214842796, -0.009437061846256256104, -0.002197109628468751907, -0.004243487026542425156, -0.001071358914487063885, -0.001063301810063421726, -0.002027432899922132492, -0.004844157956540584564, 0.006414908915758132935, -0.001453567412681877613, -0.000476425309898331761, -0.006456092465668916702, 0.003846019739285111427, 0.000323871325235813856, -0.004777123685926198959, 0.019121868535876274109, 0.005923565477132797241, -0.002156337257474660873, -0.000422259850893169641, -0.008909702301025390625, -0.002633246360346674919, 0.002020012820139527321, -0.001269791042432188988, -0.002231040270999073982, -0.002979342592880129814, -0.001656032633036375046, -0.009740772657096385956, -0.001625621342100203037, 0.006008477415889501572, -0.004153808578848838806, 0.001472812262363731861, -0.002442079829052090645, -0.005194592289626598358, 0.001251825364306569099, -0.000582474283874034882, -0.003230264177545905113, 0.003110115882009267807, -0.006140702404081821442, 0.003433973295614123344, -0.002246174030005931854, -0.005049471743404865265, -0.002208848018199205399, 0.003743553068488836288, 0.000773196283262223005, -0.001425782102160155773, 0.005073634907603263855, -0.004505171906203031540, 0.000244429742451757193, -0.000326571258483454585, 0.005870893131941556931, 0.002697520889341831207, -0.002222902840003371239, -0.004394586198031902313, 0.002446501748636364937, 0.000924567459151148796, 0.001050643739290535450, 0.004416177049279212952, -0.004170807544142007828, 0.001139147207140922546, -0.005114017054438591003, -0.011797543615102767944, 0.000489010999444872141, -0.007463189773261547089, 0.006004200782626867294, 0.001711239689029753208, -0.001171606592833995819, 0.017172923311591148376, 0.003843256272375583649, 0.001013410626910626888, 0.005952918436378240585, 0.000397754280129447579, -0.003396215848624706268, 0.000386279047233983874, -0.000114871319965459406, -0.003774279728531837463, 0.007032759487628936768, 0.000997016089968383312, 0.002499869558960199356, -0.003257569856941699982, -0.004649572074413299561, -0.001001333119347691536, 0.008619684725999832153, -0.003224290907382965088, -0.000447596452431753278, 0.002164938487112522125, 0.019860837608575820923, 0.000092437316197901964, -0.006403293460607528687, -0.004627882968634366989, 0.003018660936504602432, -0.001512465765699744225, 0.004255315288901329041, 0.000778499350417405367, 0.004236961249262094498, 0.003581273369491100311, 0.002399473916739225388, 0.001538940821774303913, 0.001432864810340106487, 0.000711829809006303549, 0.003773763542994856834, -0.002175081754103302956, 0.006525296252220869064, 0.005232443567365407944, -0.000314820295898243785, 0.000734447676222771406, 0.003531295107677578926, -0.001471636816859245300, -0.003550898982211947441, -0.001196070690639317036, -0.003275344613939523697, -0.003418607870116829872, -0.002808220218867063522, 0.001083106501027941704, -0.005085780285298824310, 0.006052592303603887558, 0.039671327918767929077, 0.005706915631890296936, -0.003459053812548518181, -0.015218261629343032837