-0.00110124063212424517, 0.00976928416639566422, 0.02700310200452804565, 0.03017192892730236053, -0.00248585361987352371, 0.02450946718454360962, -0.00897435937076807022, -0.01369111984968185425, 0.01523238513618707657, 0.01005261857062578201, 0.00348942214623093605, -0.01243017241358757019, -0.00422187289223074913, -0.01632449589669704437, 0.01596617512404918671, 0.00368691422045230865, 0.01948746107518672943, 0.02407932654023170471, 0.01211638841778039932, -0.01879042200744152069, 0.01955669373273849487, 0.05215856805443763733, 0.00212127016857266426, 0.00586686050519347191, -0.03568466752767562866, 0.02994094975292682648, 0.02726978436112403870, 0.08032106608152389526, 0.02103134803473949432, 0.11736620962619781494, -0.00661607412621378899, 0.03087547048926353455, 0.00534358154982328415, 0.01532014179974794388, 0.02068044990301132202, 0.01894129998981952667, 0.00481923390179872513, 0.03556584566831588745, -0.00601230375468730927, -0.00651608547195792198, 0.01704278029501438141, 0.01248074974864721298, -0.00507157994434237480, -0.00238393479958176613, -0.04560600966215133667, 0.00145318615250289440, -0.09735043346881866455, 0.01237040665000677109, -0.00888929795473814011, 0.01848427206277847290, 0.00675895437598228455, 0.01835877262055873871, 0.01327610667794942856, 0.00579180521890521049, 0.00488363113254308701, 0.00784363597631454468, 0.04484376683831214905, -0.00504026096314191818, -0.02581783197820186615, -0.01596490293741226196, -0.02084968611598014832, 0.03042590245604515076, 0.01005745958536863327, 0.04084885120391845703, -0.02473050355911254883, -0.08185137808322906494, -0.00439753755927085876, 0.00357189681380987167, -0.07280742377042770386, -0.02149525471031665802, 0.01216089446097612381, 0.01671534217894077301, 0.01802496425807476044, -0.01071464270353317261, -0.00434566009789705276, 0.01608520187437534332, 0.00604016007855534554, 0.01565023325383663177, -0.00604163575917482376, 0.04874698072671890259, 0.00242836773395538330, 0.02493411488831043243, 0.00546654965728521347, 0.01256248634308576584, 0.01858971454203128815, 0.01513492409139871597, -0.01378149259835481644, -0.00990827847272157669, 0.01663265377283096313, 0.02975127846002578735, -0.03005589544773101807, 0.00315468967892229557, 0.00753341801464557648, 0.00959668029099702835, -0.02331446297466754913, -0.03757244348526000977, 0.00792088452726602554, 0.01653991639614105225, 0.01936692371964454651, 0.01003199536353349686, -0.02499907091259956360, 0.01842661201953887939, -0.01097712386399507523, 0.00750477099791169167, 0.01080302149057388306, -0.00547182466834783554, 0.00338646816089749336, -0.03290168195962905884, 0.01994454301893711090, -0.00392621429637074471, -0.04951681941747665405, 0.00430147862061858177, -0.01780557446181774139, -0.02181671001017093658, -0.03177117928862571716, -0.00359666952863335609, -0.00396683765575289726, -0.00943677127361297607, 0.02477869763970375061, 0.01035685557872056961, -0.00353306601755321026, -0.00732062850147485733, -0.02446184307336807251, -0.05949799343943595886, 0.00720116309821605682, -0.01707814447581768036, 0.03944806009531021118, 0.01949617825448513031, -0.00358346453867852688, 0.03354621306061744690, 0.00568652106449007988, -0.02537205256521701813, -0.01325943507254123688, -0.01597221754491329193, -0.01244213618338108063, 0.00289412750862538815, -0.00468882545828819275, -0.03235784173011779785, 0.01324197649955749512, -0.01077390555292367935, 0.03476462513208389282, 0.00385355064645409584, 0.01124286279082298279, -0.08415944129228591919, 0.05994146689772605896, -0.01339640375226736069, 0.02177250944077968597, 0.04394790157675743103, 0.00348062301054596901, -0.00792716909199953079, 0.00088430085452273488, -0.02615105733275413513, 0.03342572972178459167, -0.05173294618725776672, 0.00835129618644714355, 0.01419220212846994400, 0.03545255586504936218, 0.01611668430268764496, 0.03573653101921081543, -0.02141247503459453583, 0.02047155052423477173, -0.03763396292924880981, 0.04247200861573219299, 0.00608626101166009903, 0.01934865489602088928, -0.01318126078695058823, 0.00770426867529749870, -0.01359807793051004410, 0.01643778569996356964, -0.01634782180190086365, 0.04598248377442359924, -0.00238340836949646473, -0.02602963522076606750, -0.01425865851342678070, -0.02573453262448310852, 0.01033767964690923691, 0.00556650944054126740, -0.01218017935752868652, -0.01502584666013717651, -0.01535582076758146286, 0.02093433216214179993, -0.11607392877340316772