//Numpy array shape [182]
//Min -0.161710619926
//Max 0.114383511245
//Number of zeros 0

#ifndef BIAS27_H_
#define BIAS27_H_

#ifndef __SYNTHESIS__
layers_3_norm1_bias_t bias27[182];
#else
layers_3_norm1_bias_t bias27[182] = {0.0188939385116100311, -0.0026021432131528854, -0.0237672701478004456, -0.0289186593145132065, 0.0120523329824209213, -0.0367121025919914246, -0.0296727325767278671, 0.0035785613581538200, 0.0388239510357379913, 0.0360984168946743011, -0.0047886273823678493, -0.0577516630291938782, 0.0286892894655466080, -0.0225683301687240601, 0.0559955723583698273, 0.0260775890201330185, 0.0311996322125196457, -0.0175843127071857452, 0.0350376404821872711, -0.0407230556011199951, 0.0070777647197246552, 0.0374648943543434143, 0.0344886705279350281, 0.0143948132172226906, -0.0511622056365013123, 0.0011668298393487930, -0.0109251122921705246, 0.0816455334424972534, -0.0008208776125684381, 0.1143835112452507019, -0.0446828454732894897, 0.0327910929918289185, -0.0084952590987086296, -0.0079790726304054260, 0.0220913644880056381, 0.0224029924720525742, 0.0030080450233072042, 0.0572617650032043457, 0.0283847395330667496, 0.0032383273355662823, 0.0249854046851396561, -0.0235712565481662750, -0.0207774247974157333, -0.0116444947198033333, -0.0488043464720249176, 0.0007801075698807836, -0.1220024377107620239, 0.0214550755918025970, 0.0019740893039852381, 0.0399147681891918182, 0.0438856184482574463, 0.0510119274258613586, -0.0000697545838193037, 0.0330321229994297028, 0.0185740124434232712, 0.0119078680872917175, 0.0716781243681907654, -0.0370582118630409241, -0.0143675589933991432, -0.0714868828654289246, 0.0125802410766482353, 0.0612366050481796265, -0.0063661420717835426, 0.0395548567175865173, 0.0070887682959437370, -0.0770872682332992554, 0.0116490684449672699, -0.0248372405767440796, -0.0712008923292160034, -0.0266220252960920334, 0.0459469743072986603, 0.0372944362461566925, 0.0384031720459461212, 0.0258376784622669220, -0.0306474082171916962, 0.0159868802875280380, 0.0507501959800720215, 0.0258215479552745819, 0.0010996315395459533, 0.0555978193879127502, -0.0076694167219102383, -0.0346726365387439728, 0.0234745293855667114, 0.0560840740799903870, 0.0225504525005817413, 0.0470361895859241486, 0.0064600780606269836, -0.0424927845597267151, -0.0073556816205382347, 0.0296358782798051834, -0.0200186856091022491, 0.0208484213799238205, -0.0498915389180183411, -0.0346515104174613953, -0.0390276238322257996, 0.0063742822967469692, -0.0197681020945310593, -0.0364091135561466217, 0.0595153272151947021, -0.0380949974060058594, -0.0402110181748867035, -0.0081946635618805885, -0.0284807756543159485, -0.0382191874086856842, 0.0004793462867382914, -0.0206893645226955414, -0.0542233884334564209, -0.0442694611847400665, 0.0290624834597110748, -0.0381182879209518433, -0.0031386357732117176, -0.0352543853223323822, -0.0492898672819137573, 0.0236865933984518051, -0.0505353510379791260, 0.0092349015176296234, 0.0182120483368635178, 0.0274785123765468597, -0.0344177633523941040, -0.0494774915277957916, -0.0325070098042488098, -0.0494789779186248779, -0.0218164771795272827, -0.0187313705682754517, -0.0554269701242446899, -0.0262281540781259537, 0.0592202246189117432, -0.0294305216521024704, -0.0522811450064182281, 0.0607438869774341583, 0.0410051643848419189, -0.0797996520996093750, -0.0313348285853862762, -0.0161471534520387650, -0.0533715747296810150, -0.0229075979441404343, -0.0090613160282373428, 0.0255680046975612640, 0.0301505830138921738, 0.0114709427580237389, 0.0190476104617118835, -0.0006783392746001482, -0.0065017398446798325, -0.0784058645367622375, 0.0536044090986251831, 0.0163329150527715683, -0.0077677969820797443, 0.0476128235459327698, -0.0673428177833557129, -0.0234538912773132324, -0.0484939403831958771, -0.0274346563965082169, 0.0413007326424121857, -0.0324568152427673340, -0.0433012768626213074, 0.0598983280360698700, 0.0063368808478116989, 0.0596035234630107880, 0.0379957705736160278, -0.0386349037289619446, 0.0377437360584735870, -0.0661045908927917480, 0.0652682632207870483, 0.0220380108803510666, 0.0610217265784740448, -0.0006146306404843926, 0.0073269982822239399, -0.0011288211680948734, -0.0145160974934697151, -0.0080480650067329407, 0.0374248810112476349, 0.0025842513423413038, -0.0209231432527303696, 0.0291095133870840073, -0.0110577354207634926, 0.0351488701999187469, 0.0113751767203211784, 0.0060465368442237377, -0.0930910184979438782, -0.0007768409559503198, 0.0379720777273178101, -0.1617106199264526367};
#endif

#endif
