0.54411393404007, 0.48864153027534, 0.60787796974182, 0.58870095014572, 1.09531772136688, 0.68479925394058, 0.70373892784119, 0.00711750984192, 0.16600534319878, -0.09564144909382, 0.21081343293190, 0.66356801986694, -0.40357518196106, 0.07086860388517, 0.03423110395670, -0.00016111589503, -0.03294770047069, 0.50806516408920, 0.00360907264985, 3.12841558456421, 0.27211129665375, -4.37534189224243, -0.23425123095512, 0.30398696660995, 0.27246654033661, 0.14183583855629, 0.29408484697342, 0.31511372327805, 0.12021676450968, 0.59521263837814, 1.15615320205688, 0.28823393583298, -0.01088669616729, 0.86383461952209, 0.59857225418091, -0.00922415219247, 0.30444690585136, 0.51776951551437, -0.23807398974895, -0.32140982151031, 0.09954254329205, 0.41595497727394, -0.84818351268768, 0.03397930413485, 0.36259722709656, -0.35866919159889, 1.53845167160034, -0.05899860337377, 0.05815620347857, -0.28141868114471, -0.57510465383530, 0.25662031769753, 0.01127887982875, 0.15359862148762, 0.13156078755856, 0.20702207088470, -0.10151850432158, 0.32166218757629, -0.02482387982309, 0.33163383603096, 0.10032219439745, -0.27288797497749, 0.08979404717684, 0.38754534721375, 0.11585716903210, -0.11193706095219, -0.15842977166176, 0.23085509240627, 0.74639004468918, 0.33599364757538, 0.14907589554787, 0.22689007222652, 0.47088107466698, 0.05459270253778, 0.46670743823051, 0.16097642481327, 0.09952916204929, 0.20147103071213, 0.55865734815598, 0.20087744295597, 0.10775176435709, -0.12788023054600, -0.16937337815762, -0.08940494805574, 0.05084600299597, 0.22476407885551, 0.22736479341984, 0.21466249227524, 0.14770324528217, -0.16976980865002, 0.32721880078316, -0.09091733396053, 0.21033617854118, 0.09736204892397, 0.03299101814628, 0.30007663369179, 0.64632678031921, 0.03113154321909, 0.25394675135612, -0.18678274750710, 0.52584779262543, -0.05098979175091, 0.29668495059013, 0.16513213515282, 0.13874980807304, 1.68614435195923, 0.45101982355118, 0.20174427330494, -0.27434551715851, 0.46191385388374, 0.06351677328348, 0.17695030570030, 0.11721459031105, -0.09978846460581, -0.02385423704982, 1.69649517536163, -0.07901017367840, 0.11419398337603, 0.01660658605397, 0.39253899455070, 0.47019010782242, 0.28456965088844, 0.20937760174274, 0.11762905865908, 0.58225351572037, -0.11287500709295, 0.13186518847942, 0.21449428796768, -0.12616513669491, 0.85834646224976, -0.30273750424385, -0.10070980340242, -0.06193667277694, -0.16432215273380, -0.00653038732708, 0.10166990011930, 0.00294769625179, -1.23348224163055, 0.30924412608147, -0.01590073294938, 1.03138935565948, 1.11152482032776, 0.37950897216797, 0.29673206806183, -0.05427269265056, 0.34561607241631, 0.61881750822067, -0.25682026147842, 1.76519286632538, -0.00501082278788, 0.83402621746063, 0.00671172374859, 0.21749247610569, -0.11517907679081, 0.27785953879356, 0.17568802833557, 0.43169909715652, 0.35745584964752, 0.64881336688995, -0.25192093849182, 0.12988810241222, 0.25431048870087, 0.36791360378265, -0.01852740347385, -0.07336302846670, 0.30201873183250, 2.77639436721802, 0.84724742174149, -0.15066058933735, -0.30681282281876, 0.35910522937775, -0.06371441483498, 0.05915889143944, 0.18864753842354, -0.00532164331526, 0.28181749582291, 0.32250934839249, -0.09411325305700, 1.20794200897217, -0.12712848186493, 0.11465714126825, 0.33685708045959