//Numpy array shape [182]
//Min -3.006562232971
//Max 2.152520418167
//Number of zeros 0

#ifndef BIAS24_H_
#define BIAS24_H_

#ifndef __SYNTHESIS__
layers_2_norm2_bias_t bias24[182];
#else
layers_2_norm2_bias_t bias24[182] = {-0.290226340293884, 1.000529050827026, 1.214687347412109, 0.538558006286621, -0.122938625514507, 0.782985568046570, 0.662479996681213, -2.382093191146851, -1.435389995574951, -0.362769484519958, 0.063855744898319, 1.294565081596375, -1.170954585075378, 0.361687242984772, -1.161862373352051, -0.734531939029694, -0.938923418521881, 0.902392804622650, -0.454772591590881, 0.701363325119019, 0.290844112634659, -3.006562232971191, -0.875854492187500, -0.233615294098854, 0.546727359294891, 0.177440091967583, 0.573418557643890, 0.277435839176178, 0.130114033818245, 0.063624024391174, 1.614789962768555, 0.121891170740128, 0.011388596147299, 0.301126807928085, -0.399232208728790, -0.391377866268158, -0.201725646853447, -0.219383433461189, -0.854136526584625, -1.178772568702698, -0.367873102426529, 0.669092714786530, 0.252516001462936, 0.515154302120209, 0.097457818686962, -0.585995018482208, -0.709527313709259, -1.625782251358032, 0.270939141511917, -0.851831316947937, -1.793766021728516, -0.562368869781494, 0.194839894771576, -0.032957345247269, -0.275000452995300, 0.034657530486584, -0.583042204380035, 1.195622682571411, 0.300491422414780, 0.897638857364655, -0.792638719081879, -1.824311137199402, 0.450719565153122, -1.265374779701233, -0.464516639709473, -1.257910132408142, -0.826496183872223, -0.067608200013638, 2.152520418167114, 1.080774426460266, -0.306821376085281, 0.048584312200546, -0.382556289434433, -0.967496514320374, 1.055901646614075, -0.557632923126221, -0.891962051391602, -0.513839244842529, -0.604086279869080, 0.010354356840253, 0.508181631565094, 1.104528307914734, -0.996791839599609, -0.910798966884613, -0.612806677818298, -0.561710238456726, -1.068623900413513, 1.508670330047607, 0.400223881006241, -1.275383353233337, 0.588799357414246, -0.945172369480133, 0.344422787427902, 0.376157402992249, -0.251694381237030, -0.345669001340866, 0.869480729103088, 0.993062555789948, -0.648700296878815, -0.066726528108120, 0.105711624026299, 0.126508608460426, -0.027733560651541, 1.113094568252563, -0.274369329214096, 0.046174138784409, 0.820319175720215, -0.039122432470322, -0.948019444942474, 1.463134169578552, -0.728840053081512, 0.520693898200989, 0.216544240713120, -1.170813679695129, 0.114594727754593, -0.267348974943161, -0.073537893593311, -0.541595935821533, 0.529009282588959, 0.234729573130608, 0.941122174263000, 0.518289208412170, -0.045870609581470, -0.829034566879272, -0.003419425105676, 0.079636819660664, -0.444367915391922, 0.567663371562958, 0.649962186813354, -0.516956031322479, -1.918355345726013, 0.776699841022491, -0.587715208530426, -2.342220544815063, -0.686302721500397, 1.465949892997742, -0.012691582553089, -2.346441745758057, -0.161065265536308, -0.260708063840866, 0.144352525472641, 0.051322333514690, 0.768865048885345, 0.704712271690369, -1.653532743453979, -0.942148983478546, 0.346584856510162, -1.352993130683899, 0.976689636707306, -0.302429199218750, 1.583536744117737, 0.360821902751923, -0.334063321352005, -0.463651239871979, 1.063297152519226, -0.254190146923065, 0.773714840412140, -0.234919950366020, -0.606300652027130, -0.279507935047150, -0.198186948895454, 0.306313574314117, -0.626824259757996, -1.711608886718750, -0.627862453460693, 0.012651368975639, -0.145568668842316, -0.237681522965431, 0.120045699179173, -1.164518952369690, -0.338533222675323, 0.217100277543068, -0.846710860729218, -0.627384424209595, -0.461380898952484, -0.841854691505432, -0.039917111396790, 0.144863978028297, 0.163728013634682, -0.238901704549789, -0.217588722705841, 0.172396406531334};
#endif

#endif
