//Numpy array shape [182]
//Min -0.114520385861
//Max 0.086797393858
//Number of zeros 0

#ifndef BIAS15_H_
#define BIAS15_H_

#ifndef __SYNTHESIS__
layers_1_norm1_bias_t bias15[182];
#else
layers_1_norm1_bias_t bias15[182] = {0.04041485860943794250, 0.03761203214526176453, 0.03886119276285171509, -0.02076338790357112885, 0.01728285290300846100, 0.03050472959876060486, 0.00344959320500493050, -0.00277214660309255123, -0.01782379671931266785, 0.01072685047984123230, 0.04332233220338821411, 0.04035899043083190918, 0.02020673640072345734, 0.01591413468122482300, 0.02724686823785305023, 0.02735489420592784882, 0.00372688705101609230, 0.04238574951887130737, 0.02503552474081516266, 0.04084056615829467773, 0.05854528769850730896, 0.06014117971062660217, 0.03602224588394165039, -0.01524183433502912521, 0.03598656505346298218, -0.00044393909047357738, 0.03596293553709983826, 0.05468885228037834167, 0.01550959236919879913, 0.08679739385843276978, -0.01358977239578962326, 0.04398078098893165588, 0.04584265872836112976, 0.01919456943869590759, 0.01389561966061592102, 0.00891101080924272537, 0.02950728312134742737, 0.01362195331603288651, 0.00754318758845329285, 0.01528275199234485626, 0.01604080200195312500, 0.07139125466346740723, 0.00700435740873217583, -0.00748610682785511017, 0.02530443668365478516, -0.00730226747691631317, -0.02820537798106670380, 0.00655445037409663200, -0.02156606875360012054, 0.06472943723201751709, 0.01359249837696552277, 0.00478813983500003815, 0.01606137864291667938, -0.01240314915776252747, 0.00810422468930482864, -0.00502560101449489594, 0.02345298230648040771, -0.00838032644242048264, 0.03103911690413951874, -0.01452468428760766983, 0.02700061351060867310, 0.02753883041441440582, 0.04748974740505218506, 0.05040506646037101746, 0.02253585681319236755, -0.00638986425474286079, 0.01358087826520204544, 0.04774844646453857422, -0.00235328543931245804, 0.07594209164381027222, -0.01254428364336490631, 0.06251317262649536133, -0.03552836924791336060, 0.04011607915163040161, -0.00978857092559337616, 0.03334616869688034058, -0.01235284842550754547, 0.03068786673247814178, -0.02053687721490859985, 0.05260244756937026978, -0.00592879951000213623, 0.05015028640627861023, -0.04052738100290298462, 0.00025953154545277357, -0.02759527415037155151, 0.01670049875974655151, -0.00225823302753269672, -0.01535257138311862946, 0.00275088893249630928, 0.00756637426093220711, 0.00531634222716093063, -0.00277235591784119606, -0.03907711803913116455, 0.01412952970713376999, -0.06184808537364006042, -0.06665950268507003784, -0.00727588729932904243, 0.00748612405732274055, -0.00403218297287821770, 0.00698662269860506058, 0.00608263816684484482, 0.01153529435396194458, -0.00365233398042619228, -0.00022544121020473540, -0.01955677755177021027, -0.03871007636189460754, -0.01549514755606651306, -0.00450276536867022514, -0.03408766165375709534, -0.05106484517455101013, -0.05638031288981437683, -0.02219817042350769043, 0.00358449504710733891, -0.01804815977811813354, 0.01054143067449331284, 0.00281984847970306873, 0.01825161650776863098, -0.02187716029584407806, 0.03093985840678215027, 0.01966287009418010712, 0.01059736590832471848, 0.01131201256066560745, 0.02411492727696895599, -0.01655919291079044342, 0.00452412106096744537, 0.00041574728675186634, 0.02233664132654666901, -0.00940684136003255844, 0.03291530162096023560, 0.00370150501839816570, -0.03485440090298652649, -0.00337713351473212242, -0.00659184390679001808, -0.03038734756410121918, -0.01171387080103158951, -0.03874145448207855225, -0.04107630252838134766, -0.10688366740942001343, 0.00686211325228214264, -0.03796979412436485291, 0.02358355745673179626, -0.02984580211341381073, 0.03257795795798301697, -0.06132058054208755493, 0.01103876344859600067, -0.04524948820471763611, 0.01679713837802410126, 0.06420521438121795654, 0.02474395185708999634, -0.04338848590850830078, 0.04509425535798072815, -0.04267796128988265991, 0.01184528600424528122, -0.02214320376515388489, -0.00569545011967420578, -0.02832667157053947449, 0.03178117424249649048, -0.01813120208680629730, 0.01861656457185745239, -0.02357491478323936462, 0.01552939414978027344, -0.04029297083616256714, 0.01697177067399024963, -0.02220060117542743683, 0.01310715731233358383, -0.03124626912176609039, 0.03043115139007568359, -0.01780897378921508789, 0.03514628484845161438, -0.03700164332985877991, 0.02773178555071353912, -0.02925723791122436523, -0.01182128582149744034, -0.01950752176344394684, -0.00186245271470397711, -0.03231683373451232910, 0.00725006312131881714, -0.01825767196714878082, 0.03164809942245483398, -0.02608595602214336395, 0.02091998606920242310, -0.11452038586139678955};
#endif

#endif
