-0.058414664119482, -0.009432656690478, 0.000023144124498, 0.000011963288671, 0.100135974586010, -0.012952173128724, 0.005407881923020, -0.022930903360248, 0.000123746547615, -0.000017193066014, 0.110544107854366, -0.019754018634558, 0.200999125838280, -0.059699613600969, -0.000078220327850, -0.000127504710690, 0.119820021092892, 0.028031591325998, -0.002702361438423, 0.048384357243776, 0.000088924614829, -0.000015727979189, 0.231287926435471, -0.008771274238825, -0.021312961354852, 0.031228883191943, -0.000073462331784, -0.000019231991246, 0.129082649946213, 0.030679840594530, 0.153076812624931, -0.058095995336771, -0.000045989498176, 0.000017389549612, 0.025429245084524, -0.000353879993781, -0.038267776370049, 0.020601140335202, -0.000082590908278, 0.000039688493416, -0.016451146453619, 0.138369366526604, -0.037507809698582, -0.024067729711533, -0.000067963424954, 0.000068023713538, -0.027878444641829, 0.042395383119583, -0.879175901412964, -0.057360827922821, 0.000024679753551, 0.000080815450929, 0.024795817211270, 0.041399516165257, 0.079781755805016, -0.006609767209738, 0.000089330766059, -0.000000292225337, 0.081732854247093, 0.008221401832998, 0.028197314590216, -0.021530566737056, -0.000115996685054, -0.000044034139137, 0.112884610891342, -0.047161538153887, 0.030469490215182, 0.517111301422119, -0.000010107046364, -0.000084662598965, 0.084370329976082, 0.044104911386967, 0.063148528337479, 0.008982028812170, 0.000014878540242, 0.000085278872575, 0.090284928679466, 0.022094009444118, -0.025092422962189, 0.028088457882404, -0.000006736817795, 0.000026562438507, -0.015047294087708, -0.055986039340496, -0.058996409177780, -0.032799623906612, -0.000019281447749, -0.000035572371416, -0.063003152608871, 0.053126275539398, -0.004528957884759, 0.056861162185669, 0.000081069352746, -0.000107704458060, -0.081664338707924, 0.009731491096318, 0.026472752913833, 0.066150613129139, 0.000005232870080, -0.000153325221618, -0.093981504440308, -0.026739781722426, 1.535071253776550, -0.060631126165390, -0.000005198853160, -0.000000015693699, -0.066529653966427, -0.022835312411189, 0.004924883134663, -0.001510051428340, -0.000080544523371, -0.000074007795774, -0.058248545974493, -0.020282037556171, -1.615231633186340, 0.024672007188201, -0.000077180578955, -0.000019925617380, -0.082094505429268, 0.043618120253086, 0.500778317451477, 0.671480774879456, -0.000001920283694, -0.000039709047996, 0.013837713748217, 0.000609265058301, -0.049287922680378, -0.010831184685230, 0.000051449664170, 0.000069619964052, -0.011924232356250, -0.074075646698475, 0.008819352835417, -0.039679642766714, -0.000040365928726, 0.000031135830795, 0.269027352333069, 0.020449459552765, -0.003200729843229, -0.280650824308395, 0.000002324440402, 0.000002327057700, 0.089841514825821, 0.032546382397413, 0.005753125064075, 0.040232945233583, 0.000096403942734, -0.000056201355619, 0.031450565904379, -0.025822520256042, -0.085030816495419, -0.003875594818965, 0.000094294038718, -0.000050567719882, -0.207898512482643, 0.026555765420198, 0.005076410248876, 0.004052630160004, 0.000012740710190, -0.000067071436206, 0.080892413854599, -0.031638119369745, 0.101519025862217, -0.003895156318322, 0.000034207190765, -0.000013841825421, -0.081261977553368, -0.023265110328794, 0.000961589103099, -0.005891976878047, 0.000071657457738, -0.000002960946404, -0.070605069398880, -0.086613379418850, 0.000129611391458, 0.021094849333167, -0.000019811111997, -0.000049515871069, -0.053821209818125, 0.038598790764809, -0.009460527449846, -0.010545679368079, -0.000000104376397, 0.000049980488257, -0.107508979737759, -0.054165016859770, 0.041359782218933, -0.028096931055188, -0.000047613859351, -0.000027654910809, 0.078639477491379, 0.040692728012800, -0.089978389441967, -0.000032188749174, 0.000008726543456, -0.000073202834756, -0.012497905641794, -0.483837455511093, -1.871669888496399, 0.154741138219833, 0.000017805012249, -0.000023335063815, 0.157484635710716, -0.008330103009939, 0.020782100036740, -0.008165823295712, -0.000037945861550, -0.000027124378903, -0.079668708145618, -0.007034288253635, 0.000664888415486, -0.014052737504244, 0.000032880892832, -0.000014265925529, 0.008689390495420, -0.006099717225879, -0.014601873233914, 0.027983447536826, -0.000020897910872, 0.000034951437556, -0.044875957071781, 0.045222587883472, -0.036203477531672, -0.043065864592791, 0.000053143943660, -0.000025864414056, -0.018982434645295, 0.064805656671524, 0.078959144651890, -0.008765159174800, 0.000045796925406, -0.000068926972745, 0.011471392586827, -0.035743538290262, 0.016112133860588, -0.037414282560349, 0.000041020164645, 0.000002151277613, -0.141647860407829, -0.028395866975188, 0.002909787232056, 0.005268550012261, -0.000050050723075, -0.000042653886339, 0.004513977095485, 0.067645333707333, -0.180110171437263, -0.010702376253903, 0.000027576876164, -0.000027115724151, -0.009528810158372, -0.093003407120705, -0.021087534725666, -0.110340759158134, 0.000104048362118, -0.000027108171707, -0.065554931759834, 0.036865334957838, -0.006160629447550, -0.012491049245000, 0.000063603030867, 0.000040713326598, 0.034335974603891, 0.004011583980173, 0.038027536123991, 0.030430484563112, -0.000152563909069, 0.000039290087443, 0.139909476041794, 0.028252901509404, -0.028553595766425, -0.021233877167106, 0.000074308365583, -0.000033154956327, -0.078517466783524, 0.023491144180298, -0.005081016104668, -0.037850875407457, -0.000144252713653, -0.000007062988516, -0.048582382500172, -0.062244180589914, -0.075287818908691, -0.006521628703922, 0.000000439844456, -0.000211012142245, 0.000440284726210, 0.040807206183672, -0.074869893491268, 0.028966935351491, 0.000000721463209, -0.000048863799748, 0.164227768778801, 0.005860107950866, -0.065400555729866, 0.048134490847588, 0.000022140240617, -0.000037241650716, 0.002412019995973, -0.096479356288910, 0.017317982390523, -0.062691688537598, 0.000095516392321, -0.000105213694042, -0.125232577323914, 0.024715954437852, -0.012142058461905, 0.003714188467711, 0.000059503261582, 0.000006439080607, -0.014662423171103, -0.046246431767941, 0.019106786698103, 0.018459133803844, 0.000050125410780, 0.000056107841374, -0.039593216031790, 0.000041453484300, 0.000328511872794, -2.163566827774048, 0.000054667027143, 0.000281311251456, -0.029752576723695, -0.017055228352547, -0.056005965918303, -0.011293031275272, 0.000056694698287, 0.000034433502151, -0.056437369436026, 0.067636340856552, 0.004818456713110, -0.025002000853419, 0.000044776919822, -0.000067097091232, -0.054878246039152, 0.060458753257990, 0.035442799329758, 0.005763589870185, 0.000103981132270, 0.000073005583545, -0.080539830029011, -0.036013789474964, -0.054324675351381, 0.062376737594604, -0.000061428661866, -0.000021823108909, -0.062275618314743, -0.055280528962612, -0.000364496896509, 0.008627056144178, 0.000096070994914, -0.000131276858156, 0.009932464919984, -0.092535503208637, -0.022541426122189, -0.032213822007179, -0.000008888976481, -0.000056698441767, 0.152054816484451, 0.015308002941310, 0.004390463232994, -0.025169787928462, -0.000081462407252, 0.000024127752113, 0.061986010521650, 0.015936546027660, 0.011754436418414, -0.008714151568711, 0.000011403372810, -0.000006935376859, 0.011798815801740, -0.014832181856036, -0.037897288799286, 0.004844446666539, 0.000080602279922, 0.000027916028557, -0.034698657691479, -0.065025128424168, -0.002788745798171, -0.020118154585361, 0.000015424016965, 0.000001451159960, -0.089656941592693, 0.003364667529240, 0.034048076719046, 0.071442164480686, 0.000078062039393, 0.000022749050913, 0.017780678346753, 0.116726681590080, -0.041231300681829, 0.166455641388893, 0.000055634176533, 0.000125999213196, 0.073664426803589, -0.088513612747192, -0.006267485208809, 0.040093537420034, -0.000090068118880, -0.000063557039539, -0.005336441099644, -0.037057660520077, -0.013471744023263, 0.047407470643520, 0.000005504386991, 0.000011536956663, -0.105743050575256, -0.024142444133759, -0.244075432419777, 0.058715775609016, -0.000002061784244, 0.000017756010493, 0.028835371136665, -0.017113197594881, 0.025907834991813, 0.007774806115776, 0.000029377801184, -0.000074424817285, -0.156606271862984, -0.008322719484568, -1.396423101425171, 0.005352707114071, -0.000094518880360, 0.000050378137530, -0.118191488087177, 0.040227808058262, -0.424930244684219, 0.009556032717228, -0.000110201144707, 0.000018327375074, -0.096599735319614, 0.024522654712200, -0.100167773663998, -0.001378682325594, 0.000091368034191, 0.000058250167058, -0.019555941224098, -0.001114896731451, -0.173729926347733, -0.019250892102718, 0.000015093905859, -0.000006691423550, 0.082502976059914, -0.026710834354162, -0.025769911706448, 0.012844995595515, 0.000079419216490, -0.000037531095586, -0.024162422865629, -0.020696908235550, -0.051121354103088, -0.063670970499516, 0.000005801286079, -0.000039129412471, 0.014754352159798, 0.114000111818314, 0.017742656171322, 0.464249014854431, -0.000156997717568, 0.000058524186898, -0.115675128996372, 0.021324248984456, 0.018945129588246, -0.010784724727273, -0.000109210406663, 0.000033026302845, -0.075056284666061, 0.010728213936090, 0.039261903613806, -0.182766199111938, -0.000009530947864, 0.000004042739420, 0.009533385746181, -0.038320507854223, 0.034221485257149, 0.190986454486847, -0.000004331674972, -0.000067327404395, 0.026599781587720, 0.070265084505081, -0.027309983968735, -0.006102668121457, 0.000002330344842, -0.000061208040279, -0.030073910951614, 0.057286977767944, 0.033499386161566, -0.646175861358643, 0.000062627448642, 0.000040843398892, -0.001624624943361, -0.018330626189709, -0.007159020286053, -0.016092630103230, -0.000061287748395, -0.000074451585533, 0.064801573753357, -0.037234868854284, -0.043746285140514, -0.057045046240091, -0.000093409682449, -0.000064873267547, 0.009881097823381, -0.011925058439374, 0.029253961518407, 0.138723149895668, 0.000011526326489, 0.000021858673790, -0.014520582742989, -0.010328540578485, -0.005705896299332, 0.007042081560940, -0.000066332628194, 0.000028392698368, 0.073056653141975, 0.005123579408973, -0.040672410279512, -1.147349834442139, 0.000136747854413, -0.000006261471299, 0.017520807683468, -0.046937890350819, 1.186440110206604, 0.062744855880737, -0.000198058580281, -0.000026547731977, 0.058969233185053, 0.017652245238423, -0.044047307223082, -0.107110545039177, -0.000096321753517, -0.000018758082660, -0.089869484305382, 0.003414495382458, 0.011437448672950, -0.016279075294733, 0.000010389303498, 0.000082812322944, 0.007581810001284, -0.009743081405759, 0.025635302066803, -0.041165113449097, 0.000151301370352, 0.000016530915673, 0.159278228878975, 0.082579746842384