//Numpy array shape (99372,)
//Min -7.158484458923
//Max 5.635127067566
//Number of zeros 0

#ifndef IN_PROJ_WEIGHT22_H_
#define IN_PROJ_WEIGHT22_H_

#ifndef __SYNTHESIS__
layers_2_self_attn_in_proj_weight_t in_proj_weight22[99372];
#else
layers_2_self_attn_in_proj_weight_t in_proj_weight22[99372] = {0.05438604950905, -0.08415596932173, -0.05087167024612, 0.03164852038026, -0.24508428573608, 1.75335562229156, -0.49545112252235, -0.15535506606102, -0.11829609423876, -0.02973720803857, 0.54601424932480, -0.77858984470367, -0.07888113707304, 0.02692661248147, 0.42008167505264, 0.04534465447068, -1.09004306793213, -0.63539767265320, 0.32082632184029, 0.11767141520977, 0.26543322205544, 0.04975435510278, 0.85243600606918, -1.21624839305878, 0.05337738245726, 0.09663578122854, 0.08022923022509, 0.21886156499386, 0.51526874303818, 0.47524592280388, 0.14352604746819, -0.04718516021967, -0.15037944912910, -0.10898413509130, -1.12061822414398, 1.66637432575226, 0.07638446241617, -0.22499556839466, 0.05639313906431, -0.10903613269329, -0.07153747230768, 0.61018472909927, 0.02182092517614, 0.29644361138344, -0.07994409650564, -0.05276341363788, -1.13684260845184, 2.16025829315186, 0.01005760114640, -0.16130068898201, 0.32686188817024, -0.11881493031979, -0.41550472378731, -1.93112707138062, -0.15634737908840, 0.05859435722232, -0.00948742032051, -0.09498658776283, -1.04035329818726, 1.84493362903595, -0.20977257192135, -0.12620201706886, -0.24763877689838, 0.18145252764225, 0.41641989350319, 2.73949098587036, 0.04728889092803, -0.19858831167221, 0.10233337432146, -0.08265172690153, -1.29081904888153, 0.86736643314362, 0.24334737658501, -0.04319477081299, -0.33396348357201, -0.16602963209152, -0.27171003818512, 1.83339738845825, -0.29201668500900, -0.44753438234329, 0.55526489019394, 0.24092939496040, -1.39771556854248, -2.18106317520142, -0.30251982808113, 0.34840196371078, 0.01112457644194, -0.26553571224213, 0.19551534950733, -1.31442546844482, 0.20066775381565, -0.35876855254173, 0.12273772060871, -0.06281813234091, 1.72796654701233, 0.47160643339157, -0.21886181831360, 0.09337348490953, 0.29813048243523, -0.06113395839930, 0.00899718049914, 0.73104894161224, -0.12103414535522, 0.03629912808537, -0.00229970528744, 0.15470777451992, 0.76711237430573, 1.17686891555786, 0.46762356162071, 0.10310953110456, -0.08025669306517, -0.03110066801310, 1.52052950859070, 1.05324196815491, -0.02110637724400, -0.39195346832275, -0.66803044080734, 0.21099850535393, 0.49284806847572, 0.16042323410511, 0.15745298564434, 0.03343312814832, -0.10176707804203, -0.11892978847027, 1.04079973697662, 0.03854508697987, 0.19143423438072, 0.03399595245719, -0.09674511104822, 0.21483393013477, -0.61062061786652, -0.78816998004913, -0.07503358274698, -0.26855260133743, -0.35436019301414, 0.39418041706085, -1.49525105953217, 0.55558413267136, -0.19387261569500, 0.06685803830624, 0.13063384592533, -0.17374947667122, 1.61189377307892, 1.26628971099854, 0.36182570457458, -0.21025763452053, -0.00366761721671, 0.21678026020527, 0.29619908332825, 0.43264600634575, 0.16954571008682, -0.11226508766413, -0.20183235406876, 0.19945663213730, 0.08289515972137, -2.34219908714294, 0.06861630827188, 0.12062543630600, -0.16695068776608, -0.07208847254515, 0.28405225276947, 0.93655455112457, -0.17545725405216, -0.39989143610001, 0.12255525588989, 0.33491572737694, -0.46978253126144, -0.56730586290359, -0.09827797114849, 0.19908930361271, 0.27340790629387, 0.01176494266838, 0.49479967355728, 0.49291011691093, 0.07143663614988, 0.29182016849518, 0.23784089088440, 0.25130105018616, -0.34608486294746, 1.17404174804688, -0.00899198185652, -0.65424424409866, -0.08933761715889, -0.07262731343508, -0.88500630855560, 1.76235270500183, 0.00223428872414, 0.11011119186878, -0.26013436913490, -0.02749523520470, 2.24360442161560, 0.82101744413376, -0.07066562771797, 0.15619885921478, 0.12855872511864, 0.11086831241846, -1.02145063877106, 1.40195178985596, -0.24525108933449, -0.45352417230606, 0.03910952061415, 0.12521018087864, 0.58191543817520, -0.42872965335846, -0.11361681669950, -0.04275404289365, -0.15685158967972, -0.06185324490070, -0.39841747283936, -1.93182921409607, 0.31785893440247, 0.09683737158775, -0.14256520569324, -0.35411208868027, 1.26073014736176, -0.61103099584579, 0.02816039510071, -0.12827122211456, -0.32546108961105, 0.49257454276085, 2.33641338348389, -1.11878883838654, -0.30857169628143, 0.25313898921013, 0.13872419297695, -0.16856385767460, -0.88575422763824, 1.29770207405090, 0.17237213253975, 0.11316464096308, 0.34988018870354, -0.23533309996128, -1.95207166671753, -0.52423280477524, -0.24810793995857, 0.16415165364742, -0.26057633757591, -0.12836711108685, -1.70852661132812, -2.13772654533386, -0.10412247478962, 0.12972909212112, 0.13947567343712, 0.01620927825570, 1.42211461067200, -1.34882235527039, -0.07393982261419, -0.10839432477951, 0.19940449297428, -0.09863042086363, -0.46445873379707, 0.72349727153778, -0.03319023922086, -0.07071547210217, 0.33842369914055, 0.07750311493874, 1.22986674308777, -1.59418332576752, 0.19672140479088, -0.00272705964744, -0.23680198192596, 0.07342291623354, -0.46349266171455, -1.49689066410065, -0.02078591100872, 0.07767972350121, 0.06277619302273, -0.16740263998508, 1.02690553665161, -0.44562837481499, -0.16145175695419, -0.45194512605667, -0.13049146533012, 0.22619910538197, -0.03368467465043, 1.96949172019958, -0.07594591379166, 0.07543809711933, 0.20175312459469, 0.01994228176773, -1.77847433090210, 0.13931824266911, 0.13455975055695, -0.02525678835809, 0.05527362972498, -0.43007212877274, -1.80504381656647, 0.83362638950348, -0.25963538885117, -0.19382442533970, 0.29249873757362, -0.17501533031464, -2.43497586250305, -0.94169104099274, -0.15249375998974, -0.20248450338840, -0.31078714132309, 0.08843047916889, 0.01700559444726, 1.56992805004120, 0.01852727495134, 0.08388958126307, -0.02992426045239, -0.20936889946461, 2.55046582221985, -1.06950283050537, 0.01793598569930, -0.31985911726952, 0.05457432568073, 0.02190525643528, -0.55709666013718, -0.75780957937241, -0.21997112035751, -0.17405550181866, -0.02541774325073, -0.01524627767503, -0.05173321440816, 0.56078350543976, 0.09128560125828, 0.16201785206795, -0.00334566482343, 0.00910635013133, 0.15985761582851, -1.47394800186157, -0.28987038135529, -0.02095887996256, 0.17910099029541, -0.00408988399431, 0.36472654342651, 1.33561825752258, 0.04613815620542, -0.10093364864588, 0.57504338026047, 0.03176394850016, -0.51302355527878, 1.68939757347107, -0.06523357331753, -0.14770311117172, -0.02924942038953, 0.07881169766188, -0.31401416659355, -2.42376208305359, -0.41350162029266, 0.00538382492959, -0.01852122135460, -0.16249683499336, 0.92026406526566, -2.09448575973511, -0.03597899898887, 0.36758419871330, 0.06706061959267, 0.00273165246472, -0.76625841856003, -0.30191478133202, -0.30077484250069, -0.09694091975689, -0.04459004849195, 0.02530924603343, 0.11947828531265, -1.56722092628479, 0.13645240664482, 0.18599104881287, 0.00331822736189, -0.16786533594131, -0.45138782262802, -0.51855719089508, 0.09021659195423, -0.06835410743952, 0.11466618627310, -0.01618198677897, -2.51702237129211, 0.78096306324005, -0.12597674131393, -0.08214761316776, 0.08262515813112, -0.28972637653351, -1.21161675453186, 0.72931975126266, -0.21432578563690, -0.10956512391567, 0.08895710110664, -0.33127659559250, 0.50515413284302, -0.84630507230759, 0.10018760710955, -0.10883801430464, -0.11165649443865, 0.33064436912537, 2.34875345230103, -1.60749042034149, -0.27930146455765, -0.01042101811618, 0.16625440120697, 0.05073586106300, -1.14617824554443, -0.07636801898479, 0.13582581281662, 0.13067749142647, -0.12464395910501, 0.18666039407253, -0.39259472489357, 1.21189677715302, -0.09543742239475, -0.12459208816290, 0.07700703293085, 0.02821075916290, -0.13012053072453, 1.52990651130676, -0.31593665480614, -0.10958743095398, 0.07114756107330, 0.12589833140373, 1.35218584537506, -0.09239929914474, -0.09454061090946, -0.15778610110283, 0.23669900000095, -0.07020591199398, 0.18627798557281, -1.10861718654633, -0.03505336493254, 0.07448036968708, 0.23351339995861, -0.05981450900435, -1.19095468521118, 0.46371155977249, -0.03953617811203, -0.40377321839333, 0.22026640176773, 0.33001917600632, -0.43798568844795, 1.17549860477448, -0.06177553161979, 0.13297331333160, 0.10180141031742, -0.19739820063114, 0.05527841299772, -1.56565833091736, -0.29331701993942, 0.16780999302864, -0.15855963528156, -0.02680777013302, 1.67567181587219, -0.73450899124146, -0.02021141164005, -0.73622757196426, 0.20400623977184, 0.14596249163151, -0.63448369503021, 0.05332399159670, 0.03368072956800, -0.06989985704422, -0.20223687589169, 0.20255921781063, -2.00176572799683, 1.36645126342773, 0.16188620030880, -0.52659684419632, -0.05697824433446, 0.03727530688047, 0.01667046174407, -0.02713615261018, -0.00118699786253, 0.37184616923332, 0.21830432116985, -0.03445665165782, -0.51603358983994, -0.22055639326572, -0.20033675432205, 0.03255063667893, -0.07555975019932, -0.19450925290585, 0.14023946225643, -1.30748903751373, -0.05410896614194, -0.08107532560825, 0.28264716267586, -0.12391992658377, -0.53980118036270, -0.32958039641380, 0.25887221097946, -0.08643207699060, -0.04862715303898, -0.31030032038689, 0.41344147920609, -1.13749253749847, -0.00520172249526, -0.13207910954952, 0.03892317786813, 0.02983103878796, -0.48205119371414, -1.88604843616486, -0.02564779296517, -0.15405371785164, 0.51753550767899, -0.01253854110837, -0.89677578210831, 0.15606255829334, 0.00460561178625, 0.04274218901992, -0.22440573573112, -0.28755471110344, -1.19075858592987, 0.92516660690308, 0.11872999370098, 0.03653911128640, -0.09511989355087, -0.23465782403946, -2.59927415847778, 0.52126485109329, 0.23624365031719, 0.14299963414669, 0.00803180877119, 0.00226713041775, -0.79740726947784, 0.65259367227554, 0.13494740426540, 0.44916433095932, 0.19850146770477, -0.08275873959064, -0.62620651721954, 0.10380995273590, -0.34743565320969, -0.09079398214817, 0.26510560512543, -0.05223437398672, -0.67007923126221, -1.69167423248291, -0.06066922470927, -0.18594352900982, -0.20187298953533, 0.06839851289988, 1.62210655212402, -0.97575056552887, 0.02378922700882, 0.18912509083748, 0.21713912487030, -0.31785666942596, -0.43479073047638, -0.35187575221062, 0.00581224076450, 0.47251239418983, -0.34678977727890, -0.09561143070459, -2.08003497123718, -1.43247246742249, 0.04329089820385, 0.21278385818005, -0.24507707357407, 0.91417342424393, -0.28824967145920, -0.45998018980026, -0.25604614615440, 0.11041336506605, 0.83388453722000, -0.07015893608332, -0.36290967464447, -0.36355856060982, -0.11940973997116, 0.27735477685928, 0.18945370614529, 0.25913435220718, 0.25476473569870, 0.58725267648697, 0.56558287143707, 0.13043239712715, -0.12848439812660, -0.55416637659073, 0.33324790000916, -0.32494223117828, 0.01618677936494, 0.59519994258881, 0.03386996686459, 0.20182490348816, 0.37836757302284, -0.22047114372253, 0.71157956123352, -0.15162098407745, -0.13987448811531, -0.08784081786871, 1.07677757740021, 0.08223688602448, 0.22137242555618, -0.07698973268270, 0.30859312415123, 0.14517298340797, -0.20182269811630, -0.04564164206386, 0.36722004413605, -0.03468360751867, 1.05605864524841, -0.38053825497627, 0.33122175931931, -0.56767821311951, -0.03769230097532, -0.28910082578659, -0.78278470039368, 0.41171029210091, 0.44121479988098, 0.04490679502487, -0.11434855312109, -0.09056574851274, 0.44719165563583, 0.45091441273689, 0.09405735135078, -0.14552129805088, 0.09498908370733, 0.16666074097157, 0.08021578192711, 0.20048591494560, 0.42859429121017, 0.13308908045292, -0.05097176134586, -0.20578406751156, -0.25985765457153, -0.85448521375656, 0.22009298205376, -0.78059709072113, 0.51932454109192, -0.03328327834606, 0.11617629230022, -0.06430597603321, 0.08937045931816, -0.13834847509861, -0.03859319165349, -0.31451627612114, 0.21519398689270, -0.03763221576810, -0.18203444778919, 0.07421296089888, 0.32530891895294, 0.01354515459388, -0.45353436470032, -0.22783623635769, 0.71071696281433, 0.65639430284500, -0.01713024638593, 0.41456612944603, -0.10214351862669, 0.06457906216383, -0.69355100393295, 0.50243353843689, 0.02717866562307, -0.27030369639397, 0.43289309740067, 0.15840081870556, 0.14326775074005, -0.70043444633484, 0.02860612049699, -0.85554867982864, 0.20103274285793, 0.03954756632447, 0.48433968424797, -0.13149707019329, -0.01966751553118, -0.17221863567829, -0.02911277674139, -0.09281025081873, -0.09094139933586, -0.05075956508517, -0.43348667025566, 0.12956182658672, 0.23176476359367, 0.33112454414368, 0.21018086373806, 0.10716713964939, -0.32167494297028, 0.31596606969833, 0.23030276596546, -0.39764091372490, 0.38929373025894, 0.09187017381191, -0.13435983657837, 0.28076052665710, -0.11748337000608, -0.25084677338600, -0.19102089107037, -0.51899075508118, 0.22295100986958, 0.22461503744125, -0.57122337818146, -0.19447658956051, -0.96439927816391, -0.15887245535851, 0.25513640046120, -0.00267406296916, -0.38071849942207, 0.17936471104622, -0.67969095706940, -0.90889328718185, -0.33911567926407, 0.22564506530762, -0.20910462737083, -0.63498157262802, -1.57104003429413, 0.05850844830275, 0.15811926126480, -0.09286716580391, -0.08759714663029, -0.29115656018257, -0.09917239844799, 0.15653684735298, -0.25862321257591, 0.12457582354546, 0.43351826071739, -0.14834848046303, -0.09573683142662, 0.06178275123239, -0.12570767104626, -0.03128259629011, 0.27667480707169, -0.23254133760929, -0.38508239388466, 0.28291395306587, 0.75844788551331, -0.46729686856270, -0.38173720240593, -0.92055869102478, 0.86848336458206, 0.24088019132614, 0.62168514728546, -0.15227586030960, -0.02446489594877, 0.03183510899544, -0.15292251110077, 0.23503603041172, -0.43967515230179, -0.17487154901028, 0.01703795790672, -0.40246501564980, -0.18409250676632, -0.82662177085876, 0.10622711479664, -0.10562462359667, 0.18693712353706, -0.42177951335907, 0.59477621316910, -0.50417941808701, 0.07549638301134, -0.43528562784195, 0.47510436177254, -0.41842743754387, 0.15714447200298, -0.47571206092834, 0.56728643178940, 0.70358026027679, 0.18126806616783, -0.26831427216530, 0.54051584005356, 0.10075438767672, -0.28920012712479, 0.30223539471626, -0.24962803721428, 0.14232152700424, 0.24232313036919, -0.19616527855396, -0.18990814685822, 0.43559110164642, 0.32784676551819, -0.27456009387970, 0.15181317925453, 0.16739700734615, 0.01893344894052, 0.24314123392105, 0.21950232982635, 0.33806246519089, 0.36224922537804, 0.04088953509927, 0.23303224146366, 0.06673208624125, 0.03145522624254, 0.00425257580355, 0.20629224181175, 0.31346577405930, 0.74357968568802, -0.15170504152775, -1.68101775646210, 0.20352175831795, -0.49870103597641, 0.54274922609329, 0.38645845651627, -0.24327000975609, 0.43936911225319, 0.50319373607635, -0.43643432855606, 0.47704902291298, -0.16708123683929, 0.07199023663998, -0.13851916790009, 0.36991727352142, -0.89465028047562, 0.18696677684784, -0.02827430516481, -0.47242939472198, -0.39047923684120, 0.65268844366074, 0.27440580725670, 0.07586225867271, 0.09727434068918, -0.19871258735657, 0.18280743062496, -0.08744549751282, -0.58082145452499, 0.30884981155396, 0.00133035110775, -0.13100315630436, 0.17152427136898, -0.47215729951859, -0.23036260902882, 0.12460003048182, -0.56062221527100, -0.29091453552246, 0.82422506809235, 0.11213858425617, 0.23720851540565, -0.17238375544548, -0.20257586240768, -0.17498974502087, 0.16860200464725, 0.57605719566345, 0.58036321401596, 0.31253150105476, 0.20076321065426, 0.01983273774385, -0.30651590228081, 0.65067386627197, -0.21700908243656, -0.29938882589340, 0.22005471587181, 0.21036870777607, 0.37769547104836, 0.29118558764458, 0.18034861981869, -0.29534760117531, 0.17136117815971, -0.04849483072758, -0.15788403153419, 0.11360773444176, 0.05875219777226, -0.32254791259766, -0.05381722748280, 0.10818869620562, 0.55011785030365, -0.07077948749065, -0.13507354259491, 0.78387427330017, 0.25156584382057, -0.44397845864296, -0.45335450768471, 0.06598762422800, -0.64102244377136, 0.01090726722032, -0.02460579387844, -0.05657177790999, -0.44327977299690, -0.27564156055450, 1.25219881534576, -0.36243054270744, 0.59627485275269, 0.00015799219545, -0.10494732856750, 0.11485029757023, -0.22611196339130, 0.28203359246254, -0.00451150070876, 0.34869176149368, 0.11010346561670, 0.50345379114151, 0.46522134542465, -0.43364280462265, 0.00694369338453, 0.06105000898242, 0.10462902486324, 0.22489501535892, -0.35908055305481, 0.43272668123245, 0.02043087594211, -0.51304465532303, -0.14962896704674, -0.68796813488007, -0.67419624328613, 0.09719946235418, 0.04172170162201, 0.12706018984318, -0.37526071071625, -1.21759784221649, 0.93063002824783, -0.53338992595673, -0.13304857909679, -0.01212873775512, -0.05049489811063, 0.11651259660721, -0.34561577439308, 0.05334433168173, -0.00422183237970, 0.01002118177712, 0.21438872814178, 0.60931688547134, -1.25575661659241, -0.64761340618134, -0.47164624929428, -0.04235439747572, 0.53685259819031, 0.01255701947957, 0.78913801908493, 0.98347795009613, -0.09338199347258, 0.04084867984056, 0.00654582679272, 0.44344639778137, 0.17100086808205, 0.43895870447159, -0.05558902770281, 0.12300124019384, 0.00841058604419, 0.11547220498323, 0.33152550458908, -0.22471635043621, -0.12942506372929, -0.09921633452177, 0.13121207058430, -0.32446536421776, 0.59497332572937, -0.20891098678112, 0.41415277123451, 0.53835815191269, -0.20127584040165, -0.48928689956665, 0.53909391164780, 0.00135533697903, -0.00561063829809, -0.32802549004555, 0.43362420797348, -0.69889253377914, -0.39558658003807, 0.39258956909180, -0.14690607786179, -0.24736431241035, 0.40249031782150, 0.33199557662010, 0.14821687340736, -0.03500281646848, 0.39162084460258, -0.50412184000015, 0.12589877843857, -0.95335870981216, -0.21412150561810, -0.22334395349026, -0.28059375286102, -0.39836627244949, 0.25724402070045, -0.64517951011658, 1.04205608367920, -0.15680648386478, -0.07534307986498, -0.51211339235306, 0.17232187092304, -0.67341405153275, 1.11489415168762, 0.52017688751221, 0.20466613769531, 0.22906243801117, 0.12250858545303, 0.19268095493317, 1.14286088943481, -0.14097489416599, 0.13267499208450, 0.16272306442261, -0.18254557251930, -0.01992206461728, -0.53030717372894, 0.20585130155087, -0.59693628549576, 0.34902426600456, 1.03185367584229, 0.11116029322147, 0.86937630176544, 0.91658264398575, -0.34595930576324, 0.04104292392731, -1.10461509227753, -0.46437543630600, 1.09976267814636, -0.40162396430969, 0.44630533456802, 0.34779849648476, 0.17111405730247, 0.19208624958992, -0.06656502187252, -0.39614138007164, -0.07120332866907, 0.53794062137604, -0.11794340610504, 0.64866518974304, 0.08819499611855, 0.30422741174698, -0.56992787122726, 0.06731735914946, 0.14255267381668, 0.46880581974983, -0.31401276588440, 0.02260910533369, -0.04925570636988, 0.06466991454363, -0.09288690984249, -0.82137846946716, 0.33842533826828, 0.98045206069946, -0.25152280926704, -0.26396268606186, 0.06057700514793, 0.60775738954544, 0.85758686065674, 1.01637578010559, 0.07424700260162, -0.03744747862220, 0.25982776284218, -0.16034112870693, 0.31549796462059, 0.86529427766800, -0.55641067028046, -0.24018448591232, 0.44211038947105, -0.41222861409187, 0.56345415115356, -0.89859557151794, -0.55842906236649, 0.04936861246824, 0.04965398460627, -0.28925487399101, -0.19524018466473, -0.43703988194466, -0.20745047926903, -0.12439014762640, -0.19284366071224, -0.12318307906389, 0.05057885125279, -0.24163730442524, 0.40565341711044, 0.21314914524555, -0.36504119634628, 0.10306823998690, 0.54706609249115, -0.57395172119141, 0.23740412294865, -0.03716930747032, 0.09781323373318, 0.05840039625764, 0.03587917983532, -0.08398876339197, -0.10007953643799, 0.56061625480652, 0.24415393173695, 0.20191648602486, 0.84100925922394, 0.17446750402451, -0.12757691740990, 0.48800840973854, 0.49353316426277, 0.16076995432377, 0.01602042280138, 0.17558990418911, -0.18734318017960, -0.26791718602180, -0.66813933849335, -0.24621817469597, -0.15321977436543, -0.98180758953094, -0.27399349212646, 0.14608925580978, -0.18509504199028, -0.26927298307419, 0.48312795162201, 0.27985328435898, -0.10466157644987, 0.32892456650734, -0.47642597556114, -0.03835019469261, 0.25332975387573, -0.23005452752113, -0.06386043131351, 0.26502084732056, -0.05961088091135, 0.00409548031166, 0.14324232935905, 0.91465866565704, -0.20335011184216, -0.27290043234825, -0.70635563135147, 0.41250053048134, -0.20174440741539, 0.32471427321434, -0.14170473814011, -0.18799279630184, -0.30172508955002, 0.21330532431602, -0.94129651784897, -1.39141154289246, 0.36346399784088, 0.10789236426353, -0.35649558901787, -0.33549916744232, 0.02356200106442, 0.84003853797913, -0.00463695032522, 0.15373697876930, 0.12654885649681, 0.00068077084143, 1.03742909431458, 1.59588050842285, -0.00120072287973, -0.15142723917961, -0.14125733077526, 0.11594634503126, -0.54169118404388, -0.61273884773254, -0.32269906997681, -0.07530979067087, 0.13155239820480, -0.16663619875908, 0.56991052627563, -0.28825512528419, -0.07467975467443, -0.13813772797585, 0.12021509557962, 0.04484771564603, 1.35513138771057, -2.10363483428955, 0.13345316052437, -0.09568373858929, 0.24063509702682, 0.13035814464092, 1.12886977195740, -0.50904452800751, 0.06209415197372, 0.09930190443993, 0.27679321169853, -0.26201990246773, -0.08205361664295, -0.81011521816254, -0.01505139842629, 0.04106038063765, 0.06719466298819, 0.30118456482887, -1.05668807029724, 1.45492911338806, 0.01556026283652, 0.21692527830601, -0.00334883970208, 0.30214411020279, 1.93380761146545, 0.88248872756958, 0.06058225408196, 0.18171736598015, -0.16206341981888, 0.01721600256860, 0.22330845892429, -0.40120446681976, -0.22259631752968, 0.25908648967743, 0.12113846838474, -0.25822150707245, 2.17402434349060, -2.07641959190369, 0.16779084503651, -0.02088694460690, -0.01395549904555, -0.03880366683006, -0.35522234439850, -0.07429912686348, -0.06758774816990, 0.02082108892500, 0.08351191878319, -0.49122491478920, -0.95106333494186, -0.46021759510040, 0.02693620324135, 0.33966830372810, -0.07811788469553, 0.26922577619553, -0.58193409442902, 1.09738135337830, 0.18731042742729, 0.11955962330103, -0.01696972362697, 0.13500395417213, 1.55331432819366, 2.56654739379883, 0.03858493641019, 0.06166564673185, 0.08105035871267, -0.36808940768242, -0.79029875993729, -0.41654041409492, -0.15224653482437, -0.17686977982521, -0.06632961332798, 0.36805063486099, 0.82452917098999, -0.47974789142609, -0.19084152579308, -0.18750678002834, 0.06964227557182, -0.14698438346386, 1.09500932693481, -0.43399703502655, -0.39165037870407, 0.15559855103493, 0.08333343267441, -0.06947501003742, -2.06830477714539, 2.47245573997498, 0.18591204285622, -0.04067341238260, -0.09161705523729, -0.24508583545685, 0.21609294414520, -1.84937453269958, 0.09756450355053, -0.19388912618160, 0.12984608113766, 0.09568257629871, -1.90105128288269, -0.04060084372759, 0.17857274413109, -0.29775157570839, -0.01820188574493, 0.05251712724566, 1.08618152141571, -0.12162554264069, -0.01448214985430, 0.23897171020508, 0.18667645752430, 0.14733307063580, 1.26442956924438, -1.54605376720428, -0.13720020651817, 0.05738126114011, -0.10195409506559, 0.01247537788004, -0.73455315828323, -0.53833490610123, 0.10751833021641, 0.06565020233393, 0.33829346299171, -0.19037699699402, 1.07812690734863, -2.46029162406921, 0.04500803351402, 0.06637998670340, 0.32769361138344, -0.11923207342625, 0.07979755848646, 0.54359066486359, -0.11785853654146, -0.01883733831346, -0.06243569403887, -0.27507784962654, 0.13554301857948, -0.08126717805862, -0.04778871685266, -0.02225054986775, 0.00762144103646, -0.47131466865540, 0.54356354475021, -0.12503404915333, -0.09591318666935, 0.01712287962437, -0.26730510592461, -0.01782614737749, 0.32516625523567, 1.32577776908875, 0.09240383654833, 0.00919970311224, -0.09064254909754, 0.58456355333328, -1.62928402423859, 1.18833172321320, 0.05464643612504, -0.08517412841320, 0.00204599788412, -0.02686418034136, 0.35490450263023, -0.19045628607273, 0.05182165652514, -0.11701359599829, 0.27496170997620, -0.22486837208271, -0.82852035760880, -2.28790283203125, -0.02578169852495, -0.29674139618874, -0.06937345117331, 0.24491430819035, 0.31213706731796, -1.98549199104309, 0.04118164628744, -0.16339214146137, 0.13865037262440, 0.15948028862476, -0.41381698846817, -0.09143121540546, 0.06737297773361, -0.30622833967209, 0.00780791463330, -0.22620838880539, 1.18899261951447, 0.26999574899673, -0.30602100491524, -0.00008191270899, 0.07318644225597, 0.14513884484768, -0.24635146558285, -0.73356789350510, 0.56199926137924, -0.07308878749609, -0.09003893285990, 0.35266339778900, -1.09358346462250, -0.18914961814880, -0.21537114679813, -0.13030493259430, -0.14038206636906, 0.03535196557641, 0.38004165887833, -0.08644453436136, 0.03358411043882, 0.25299942493439, -0.21390451490879, -0.21104097366333, 2.46282005310059, 2.19420409202576, -0.01672139950097, 0.14834706485271, 0.28703680634499, -0.14621250331402, -0.59960591793060, 1.67253351211548, 0.37590759992599, 0.10294123739004, 0.02388333901763, -0.23530715703964, 1.05619323253632, 0.66677069664001, -0.11329778283834, 0.07125844806433, -0.11710121482611, 0.01740261726081, -0.49239259958267, -0.00843093823642, -0.25993147492409, 0.16000699996948, 0.20079223811626, -0.16902241110802, -2.29555034637451, 0.26731961965561, -0.31391260027885, 0.04580913484097, 0.22823542356491, 0.05510679632425, 0.64115589857101, -0.06229234859347, -0.24174100160599, 0.24981671571732, -0.02786064893007, 0.13269156217575, -2.03491640090942, -0.04420188441873, 0.32320830225945, -0.08814653009176, -0.19803638756275, 0.05168412998319, 3.19537591934204, -2.43829536437988, -0.27054145932198, -0.01195820327848, 0.19706779718399, 0.04098431393504, 0.07634779810905, 0.24310499429703, -0.18654076755047, -0.28761753439903, -0.33581167459488, -0.01542683877051, 2.46354103088379, 1.50862288475037, -0.24196663498878, -0.19381308555603, -0.16208752989769, 0.17688143253326, 0.04765323922038, 0.36612209677696, 0.30693992972374, 0.04423855990171, -0.00261230464093, -0.06864338368177, 0.49480670690536, 0.70784431695938, 0.06793888658285, -0.11350763589144, -0.01466850377619, -0.30948534607887, 0.80043596029282, -2.06547260284424, -0.09197913855314, 0.00361834489740, 0.20156393945217, -0.12806463241577, -0.02588008344173, 0.49849230051041, 0.03997289761901, 0.08345814794302, 0.07731926441193, 0.00551796192303, -0.51661449670792, 1.51526796817780, -0.06525381654501, -0.03965541720390, -0.23649941384792, -0.11204797029495, -0.38838770985603, 1.22708630561829, -0.12358807772398, -0.10092826187611, 0.10161905735731, -0.14452755451202, 1.03282451629639, 0.52347773313522, 0.14852598309517, -0.06034959852695, 0.03439484909177, 0.03199929371476, -0.85709869861603, 1.45653438568115, 0.27489751577377, 0.01198096387088, -0.06929415464401, -0.14004075527191, -0.27226579189301, 2.01073932647705, -0.11217358708382, 0.12326568365097, -0.10197003185749, -0.34570541977882, -3.08733963966370, -0.96046882867813, -0.20427966117859, -0.42486494779587, -0.15702347457409, -0.28847891092300, 0.98339742422104, 0.83552634716034, 0.08237202465534, 0.11817819625139, 0.14024335145950, 0.08989848941565, 1.62893295288086, 0.30485171079636, -0.32827162742615, 0.09517075121403, -0.17986927926540, 0.06132905557752, -0.52347671985626, -2.27790880203247, -0.04789283499122, 0.05800827965140, -0.00636848853901, 0.03337099030614, 2.53024554252625, -0.16489842534065, 0.12970253825188, 0.31261187791824, 0.08358636498451, 0.42353722453117, 1.76106882095337, 0.22256141901016, 0.04248248785734, -0.04202613607049, -0.20281356573105, 0.24855649471283, -0.10042680799961, -1.19610202312469, -0.36010742187500, 0.08858002722263, 0.28680318593979, -0.35623782873154, -0.32822054624557, -1.39235424995422, 0.01897462084889, -0.23089927434921, -0.07045415788889, -0.21235288679600, 0.75460273027420, 0.65957129001617, -0.19319297373295, -0.05033364519477, -0.10947021842003, 0.10255293548107, 0.07191569358110, 0.39235723018646, -0.08282321691513, -0.09812945872545, 0.13067397475243, -0.04412474483252, -0.46020439267159, 1.38470530509949, -0.02043781243265, 0.09856649488211, -0.04624101519585, -0.14619354903698, -1.03246617317200, 1.17623066902161, 0.02476883679628, -0.33866426348686, -0.04286763817072, -0.10774598270655, -1.85758996009827, -2.82892870903015, 0.20958593487740, -0.08781754225492, 0.13001111149788, 0.02865469269454, -0.16638693213463, -0.87127292156219, 0.06626509875059, 0.17940357327461, 0.10830385237932, 0.20542755723000, 1.93533873558044, 0.24443985521793, 0.04982691258192, -0.06323568522930, 0.21325622498989, 0.05449710786343, -0.12480261176825, 1.58867609500885, 0.16827011108398, -0.33783453702927, 0.01139359269291, -0.27413237094879, 2.49086546897888, 0.11878325790167, 0.29259914159775, -0.12298686057329, -0.04794579371810, -0.38417816162109, -1.17684090137482, 0.97964781522751, -0.00547165516764, -0.06548280268908, -0.04402386769652, 0.13055962324142, -1.57317972183228, -0.59368216991425, -0.33524399995804, -0.17802076041698, 0.03895536065102, 0.07820483297110, 0.86829316616058, 0.18384905159473, -0.06432092934847, -0.11206933856010, -0.09064728021622, -0.00011239398009, 0.84182918071747, -0.22548618912697, 0.01982353813946, 0.18048293888569, -0.34645602107048, -0.01659522950649, -0.73686325550079, 1.22785246372223, -0.00202609179541, -0.06973280757666, 0.32574561238289, -0.30798438191414, 0.08044790476561, 0.11932926625013, 0.08605855703354, 0.03309190645814, -0.12489523738623, 0.24204516410828, 1.00075268745422, -0.91077387332916, -0.03130438178778, -0.29476282000542, -0.00060328043764, -0.11334493756294, 0.12357268482447, -1.72997999191284, -0.44696339964867, -0.02936019003391, 0.14055560529232, -0.17978322505951, -1.43695616722107, -0.73572486639023, 0.10740363597870, -0.05721946433187, 0.09953004121780, -0.41393026709557, -0.74064719676971, 1.40376865863800, 0.25855588912964, 0.02270456403494, 0.02123123034835, -0.30347251892090, 0.37018504738808, 0.82767480611801, 0.05998800322413, 0.28740870952606, -0.07192372530699, -0.00479896180332, 0.40159395337105, -1.06636917591095, -0.03630901873112, -0.07880631089211, 0.11908894777298, -0.25117048621178, -0.17536120116711, 0.77094835042953, -0.00408323062584, 0.00714703043923, -0.02572482265532, 0.20026235282421, 1.43459081649780, 0.96927469968796, -0.16263020038605, 0.11190579086542, -0.10109282284975, 0.06729604303837, -0.16037030518055, -0.66851830482483, -0.12654073536396, -0.10816120356321, 0.03795082494617, 0.19625429809093, 0.43439677357674, 1.23671209812164, 0.28802639245987, -0.18980519473553, -0.10569240897894, -0.18689547479153, 0.68802690505981, -1.12959122657776, 0.12562200427055, 0.27055636048317, 0.00979349669069, -0.12129441648722, -0.13910821080208, 0.82570862770081, -0.05041578039527, 0.06459571421146, 0.00643043918535, 0.12690488994122, -0.73030370473862, -0.62444412708282, 0.30319085717201, -0.20135182142258, 0.32463252544403, -0.07737874239683, -0.16264915466309, 0.28057539463043, -0.33219391107559, -0.22530017793179, -0.01288528833538, -0.13152836263180, 1.28023684024811, 1.33897423744202, -0.00561134098098, 0.15355099737644, 0.43700093030930, 0.18256431818008, -0.23779761791229, -0.58514881134033, 0.01183711085469, 0.23489938676357, -0.33850178122520, -0.24554832279682, 0.73885136842728, -0.38371112942696, 0.99514383077621, -0.36531108617783, -0.03932747244835, -0.15611706674099, -0.34609940648079, 0.34631356596947, 0.14836376905441, -0.29144749045372, -0.11073408275843, 0.09359034150839, 0.49243351817131, -2.30179190635681, -0.06293849647045, -0.15413591265678, -0.00690880231559, 0.15250940620899, -0.83698880672455, -1.04798507690430, -0.05390193313360, -0.12931753695011, -0.15603938698769, -0.18006454408169, -0.09315782040358, -0.44707432389259, -0.08701989799738, 0.22523832321167, 0.34521305561066, 0.08398175984621, 1.12606084346771, 0.21484272181988, 0.22817188501358, 0.08894856274128, 0.01589843071997, 0.04096847772598, 0.73274779319763, 0.68984752893448, -0.00213224021718, -0.09185226261616, 0.62134760618210, -0.07732600718737, -0.68618142604828, 1.29704999923706, -0.31902852654457, 0.37024968862534, -0.35948750376701, -0.15391473472118, -1.35451424121857, 1.01021265983582, 0.09289719909430, -0.04184576869011, 0.16233643889427, -0.18442800641060, -0.37560003995895, -0.74966591596603, 0.21376334130764, -0.29006364941597, 0.11903855204582, 0.20044714212418, -0.15330624580383, -1.15223228931427, -0.30705085396767, 0.12142553180456, -0.34504571557045, -0.06952331960201, -0.70855230093002, -1.13301122188568, 0.35468804836273, 0.12738424539566, -0.36851796507835, -0.03254248946905, -1.03518819808960, -0.98665124177933, 0.05879611894488, -0.15392921864986, 0.34092026948929, -0.11435445398092, 0.27158743143082, -1.29613542556763, -0.21171690523624, 0.08703698217869, 0.18057522177696, 0.04378267750144, 0.00470419740304, -1.42295157909393, -0.09500096738338, 0.25730034708977, 0.00751267746091, -0.04710220173001, 0.78291720151901, 1.84955656528473, -0.01101269014180, -0.22405384480953, 0.09398552030325, 0.02245344035327, 0.68720817565918, 0.67151385545731, -0.01216698065400, 0.59718054533005, -0.12103009968996, -0.50100439786911, 0.09172713756561, 0.64396333694458, -0.33453238010406, -0.01539268810302, 0.10893374681473, -0.14917270839214, 0.79338937997818, 1.34120571613312, -0.02060191705823, 0.06880454719067, 0.30457705259323, 0.23947441577911, -0.43869325518608, -0.52036595344543, -0.24236838519573, 0.19344775378704, 0.25818559527397, -0.57106977701187, -0.15744201838970, -2.90592551231384, -0.18123771250248, 0.20263285934925, 0.07836590707302, -0.22996371984482, 0.90369820594788, -0.16638725996017, -0.07993654161692, 0.06272272765636, -0.05814105644822, -0.01630595326424, 0.29009968042374, 0.73912578821182, 0.20321947336197, -0.12577214837074, -0.14005829393864, -0.11606049537659, 0.91210579872131, -0.32985728979111, -0.37009629607201, 0.13139566779137, -0.11379934102297, 0.41882249712944, 0.36893671751022, -1.98526835441589, -0.38023731112480, 0.19057923555374, -0.13898281753063, -0.07375667989254, -0.93978834152222, 0.85593396425247, 0.00202049268410, -0.12773071229458, 0.17140235006809, -0.27212771773338, -0.48357325792313, 0.97918373346329, -0.35891515016556, -0.32556390762329, -0.23230837285519, -0.26061740517616, 0.22418074309826, -0.90057772397995, -0.51312571763992, 0.04165494441986, 0.02645783685148, 0.27368858456612, -0.70474064350128, 0.62710160017014, 0.21610508859158, -0.00848374888301, -0.09344217926264, 0.05463419482112, 0.86220461130142, -1.19154095649719, -0.26108658313751, -0.24915808439255, 0.48493579030037, 0.20548620820045, -0.51371264457703, -1.04963195323944, -0.42237126827240, -0.15608680248260, -0.25604757666588, -0.06840912997723, 0.33004024624825, 0.39642247557640, -0.15289527177811, 0.06274924427271, 0.25717619061470, 0.09061873704195, 1.40521872043610, -1.00659418106079, -0.09053350239992, 0.06357046961784, -0.12318073213100, -0.07039659470320, -0.54598677158356, 0.40903243422508, -0.11261119693518, -0.11270618438721, -0.29347148537636, -0.02629240229726, -2.22536492347717, -1.34984421730042, 0.24373097717762, 0.13150686025620, 0.10366588085890, -0.25499033927917, -1.45700991153717, -0.64831113815308, 0.20352338254452, 0.12491603195667, -0.26920610666275, -0.02358107641339, -0.94112169742584, -0.37968590855598, -0.57452464103699, 0.01004856731743, 0.05099996551871, 0.24162593483925, 0.61817318201065, 1.18280231952667, -0.38196703791618, 0.01607375964522, -0.05983351543546, -0.20176829397678, 0.23700870573521, 2.48984289169312, 0.07714441418648, -0.01645562611520, 0.05167724564672, 0.05003605037928, -0.66074651479721, -1.01721513271332, 0.04940035566688, -0.53193777799606, 0.11375277489424, -0.39205935597420, -0.51445603370667, -0.51195287704468, 0.03200007602572, 0.21258257329464, 0.50762194395065, -0.35631436109543, -0.04844203218818, -0.41636341810226, -0.01634327322245, 0.35159289836884, 0.09071700274944, -0.12278484553099, 0.21938954293728, -0.83814024925232, -0.06863750517368, 0.08831594884396, 0.15295529365540, -0.00364847015589, -0.35038015246391, 0.35104599595070, 0.04826743155718, 0.16760709881783, 0.00434166286141, 0.13628029823303, -0.49563300609589, 1.42127835750580, 0.16189882159233, -0.16705304384232, -0.06925299018621, -0.00370006053708, -0.78279972076416, -0.40804737806320, -0.03665179386735, 0.16288085281849, 0.20919640362263, -0.15363560616970, 1.08318769931793, 1.70294249057770, -0.16234134137630, 0.22373221814632, -0.09463182091713, -0.15833915770054, -0.52881008386612, -1.91433429718018, 0.09197088330984, 0.23022168874741, -0.24836046993732, 0.29974383115768, -0.16099552810192, 1.04551458358765, 0.06899616122246, -0.12648421525955, -0.02991186082363, -0.54514372348785, 0.31725096702576, -0.74536168575287, 0.09432942420244, 0.28778374195099, -0.02408141829073, 0.31941404938698, 0.40448921918869, 0.39338418841362, 0.11961293965578, -0.12297850102186, -0.01975736580789, 0.25880289077759, 0.00813605170697, -0.62675189971924, 0.42429593205452, 0.52987396717072, -0.07342936843634, -0.00604069698602, 0.07157722860575, -0.08590025454760, -0.26918163895607, 0.09448932111263, 0.09630206972361, 0.02429123409092, 0.94432085752487, 0.50978446006775, 0.06314183771610, 0.11013977229595, 0.09680457413197, 0.05463239178061, -1.23210573196411, -1.75266265869141, -0.06567490845919, 0.26555660367012, 0.34021970629692, -0.28348088264465, 0.45373824238777, -0.33075144886971, 0.07013861089945, 0.01757819391787, 0.18656387925148, 0.00381867424585, 0.61397123336792, 0.17029094696045, 0.19709716737270, 0.46189942955971, -0.26727762818336, 0.44166979193687, 0.62047624588013, 1.08916842937469, -0.20490449666977, 0.07225997000933, -0.17613941431046, 0.50262361764908, -0.00351596670225, 1.63410067558289, -0.16548214852810, 0.12821386754513, 0.39713481068611, -0.20126920938492, -0.56666994094849, 1.76924097537994, 0.38660821318626, 1.00015389919281, -0.14299622178078, -0.18188099563122, 1.03213214874268, -0.85320818424225, 0.10233557224274, 0.04067370295525, 0.07247138768435, 0.34982109069824, -0.56139332056046, 1.98061490058899, -0.21814940869808, -0.11007133126259, 0.01648563891649, 0.03558135405183, 0.25961443781853, 1.16656970977783, -0.03326407447457, -0.24027946591377, 0.18950630724430, -0.04391632974148, -1.10714268684387, 0.17785203456879, 0.33462041616440, 0.04826122522354, -0.28751996159554, -0.07240915298462, -0.65990018844604, 0.14813241362572, 0.00197117100470, -0.09431811422110, 0.66512918472290, 0.13782832026482, -0.41249692440033, -2.33818531036377, -0.46595573425293, -0.09694368392229, -0.19593565165997, -0.26291301846504, -0.43750062584877, -2.08364844322205, 0.05101612210274, 0.18692199885845, -0.26279231905937, -0.11036004126072, 0.19989600777626, 0.63967978954315, -0.10715372860432, 0.06439172476530, 0.06181677803397, 0.13361686468124, -0.27998796105385, 0.46925213932991, -0.28631100058556, 0.04682223126292, -0.57246124744415, 0.03889190033078, 2.14561486244202, -1.20344173908234, -0.24010820686817, 0.06555238366127, -0.00058964703931, 0.08715972304344, 0.20060877501965, -1.17361605167389, -0.36464262008667, -0.14762665331364, 0.43679562211037, 0.17417792975903, -1.78877103328705, 0.54445457458496, -0.40325087308884, -0.20351497828960, -0.01637823507190, 0.03636563941836, 1.38435721397400, 0.91514629125595, -0.19618213176727, -0.30787992477417, -0.29373091459274, -0.03943131864071, -0.75580400228500, 0.48595848679543, -0.18289180099964, 0.18591265380383, 0.37284511327744, 0.34283924102783, 0.52838790416718, -0.56082260608673, -0.09793120622635, -0.21580702066422, -0.38319805264473, 0.03118156455457, -1.06244850158691, 0.19027946889400, -0.21262419223785, -0.09899550676346, 0.28352060914040, 0.00252322875895, 0.08625932037830, 0.31526163220406, -0.15181292593479, -0.30673357844353, 0.13720200955868, -0.13687831163406, 0.53355658054352, 0.40244388580322, 0.03771338984370, 0.04905286803842, 0.16857150197029, -0.04039566218853, -1.08432197570801, 0.45014941692352, 0.23527039587498, 0.26954510807991, 0.04719911515713, -0.03551727160811, 0.14308507740498, 0.12582808732986, -0.18567077815533, -0.58340179920197, -0.04307708516717, -0.15388838946819, -0.70120674371719, 0.83792716264725, -0.05838550999761, 0.11538789421320, -0.40127059817314, 0.01334585342556, -0.23836459219456, 1.87152969837189, -0.01201057992876, 0.04620284959674, -0.13032825291157, -0.06323012709618, 0.13859948515892, -0.11605826765299, 0.09968087822199, 0.11884351819754, 0.12085913121700, -0.09145673364401, 0.92507225275040, 0.17657677829266, -0.67278152704239, -0.30976998806000, -0.12795335054398, 0.47443169355392, 0.04560534656048, 0.63089811801910, -0.11668100208044, 0.11762668192387, -0.16987749934196, -0.28268066048622, -0.26600152254105, -0.78077691793442, 0.18137936294079, 0.22375176846981, -0.23665092885494, 0.06331270933151, 0.15647646784782, -0.32709926366806, -0.04376243427396, 0.16701331734657, -0.07682704180479, 0.01249225903302, 0.35619628429413, 2.01326775550842, 0.12812846899033, -0.52009373903275, 0.30094078183174, -0.10311497747898, -0.62251794338226, 1.75410139560699, -0.12767980992794, 0.18197138607502, 0.15268968045712, -0.27796831727028, -1.21571087837219, 0.33171075582504, -0.03071283176541, -0.43790167570114, -0.18731103837490, 0.15079094469547, 0.14789736270905, 0.05085828527808, -0.13897804915905, -0.09603250026703, 0.06287472695112, 0.02316130697727, 1.83282184600830, 0.10296461731195, -0.02407623454928, 0.06157897785306, -0.14714756608009, 0.01272798050195, 0.13007555902004, 0.27086520195007, -0.16070890426636, 0.22582745552063, 0.04611715674400, -0.31385570764542, 1.25112545490265, 1.40913140773773, 0.01359189767390, 0.23050945997238, 0.09116684645414, -0.04486140981317, 1.16058135032654, 1.01434075832367, 0.20464475452900, -0.17745107412338, -0.15606610476971, -0.22889319062233, 0.28684845566750, 0.04741821810603, 0.09136182814837, 0.32309380173683, -0.01226087193936, 0.24718609452248, 0.63005703687668, -0.35530620813370, -0.08070433884859, -0.07173519581556, 0.31397220492363, -0.23796159029007, -0.80552148818970, -1.93933832645416, 0.06854286044836, 0.07750794291496, 0.02339647151530, -0.70857709646225, 1.21951568126678, -2.02399063110352, -0.17383342981339, 0.37686461210251, 0.01255391724408, -0.39396882057190, 0.41590642929077, -0.75320363044739, 0.03902212157845, 0.08630703389645, -0.18588998913765, -0.39337000250816, 0.56177073717117, 1.14619839191437, -0.17535996437073, 0.06395872682333, -0.18503427505493, -0.20655333995819, -0.46131843328476, -0.90010625123978, -0.07542406022549, -0.20491045713425, 0.18848243355751, 0.56758481264114, 1.43891286849976, 0.61361014842987, -0.06705535948277, 0.19983430206776, 0.13380101323128, 0.27495148777962, -0.95304763317108, -0.93224984407425, -0.42177334427834, -0.01649675518274, 0.04262891411781, 0.12583886086941, 0.23865810036659, -1.15208983421326, -0.06298163533211, -0.01619237847626, 0.06197421997786, -0.09446957707405, 1.21740794181824, -0.66075956821442, -0.36038020253181, 0.40354520082474, 0.32152840495110, -0.08685921877623, 0.52650570869446, -0.83916103839874, 0.06125684082508, -0.10304018110037, -0.18676376342773, 0.20098532736301, -1.09766805171967, -2.44075870513916, -0.07292749732733, 0.30453640222549, 0.15720650553703, -0.59044826030731, -0.74832797050476, 0.90974086523056, 0.01344487816095, 0.35926795005798, 0.05270897597075, 0.25165697932243, -0.30380967259407, 2.80897212028503, 0.04941547289491, -0.00855109561235, 0.13131541013718, 0.00101315218490, 0.16455355286598, -0.20783965289593, -0.02322009578347, 0.20957209169865, 0.12312941253185, -0.13876609504223, 0.33507448434830, -0.99916094541550, -0.20818525552750, 0.64080041646957, 0.21662856638432, 0.16236180067062, 0.44782641530037, 1.49301552772522, 0.07911878079176, -0.20414796471596, -0.00744343455881, 0.43208596110344, 0.15031793713570, -0.46109008789062, -0.30494058132172, -0.16603787243366, 0.33449572324753, -0.02764399349689, 0.91954469680786, -0.24194757640362, 0.09160371869802, 0.35584837198257, -0.01455923262984, 0.04770480468869, 0.11390107125044, -0.73551148176193, 0.31841972470284, 0.04605227336287, 0.00933305546641, 0.15849845111370, 0.02560446783900, 0.78589051961899, 0.23785810172558, 0.28476801514626, -0.41975739598274, -0.06869662553072, 0.29797568917274, -0.05862420797348, -0.21435552835464, -0.31484058499336, -0.21268300712109, -0.03485466167331, 1.21262192726135, 1.15920150279999, 0.32492929697037, 0.32423800230026, 0.22723105549812, -0.24116973578930, -1.38746333122253, 1.60743641853333, 0.04593552649021, 0.09291610866785, 0.29236561059952, 0.13101941347122, 0.63477927446365, 0.42811322212219, -0.33093979954720, 0.13099586963654, 0.12954892218113, -0.15325732529163, 0.05579908564687, 1.51133716106415, 0.04313397035003, -0.07596753537655, 0.08500093966722, -0.10896805673838, -1.48906946182251, 1.41297817230225, 0.01372618414462, 0.08336602151394, -0.42468973994255, -0.00113316858187, 0.02679638378322, -1.55976283550262, -0.47766101360321, 0.06650325655937, 0.23828697204590, -0.09861306846142, 0.40048289299011, -0.13204205036163, -0.24170264601707, -0.08726768940687, 0.29292219877243, -0.08437298983335, -0.07158909738064, 0.51670753955841, -0.25824713706970, 0.25164529681206, 0.14205503463745, -0.25483870506287, 0.31867387890816, 0.22356419265270, -0.02823110297322, -0.10439341515303, -0.16981939971447, 0.36985465884209, 0.47168892621994, -0.80603170394897, -0.00569445732981, -0.13067652285099, -0.06129441410303, -0.28080332279205, 0.19902847707272, -0.55111771821976, -0.21303327381611, 0.17783166468143, 0.15070185065269, 0.32643690705299, -0.65098011493683, -0.08812351524830, 0.47460669279099, -0.14570967853069, -0.11987081915140, 0.21625323593616, -0.00308569357730, -3.57955455780029, -0.16385228931904, -0.19848588109016, 0.02136148139834, -0.24067151546478, 0.38285380601883, -0.30378350615501, 0.21444675326347, 0.19019050896168, -0.14032897353172, 0.04716052114964, 0.75339084863663, -0.68990606069565, -0.14434163272381, 0.08565330505371, 0.03744974732399, 0.17219235002995, -0.76557922363281, 0.83964854478836, -0.00435349205509, -0.26771295070648, -0.34426948428154, 0.09519338607788, 0.35464587807655, -0.53884011507034, -0.02022305503488, 0.13769894838333, 0.13100104033947, -0.05676306039095, 0.87225419282913, -0.68121337890625, 0.28223890066147, 0.00286091351882, -0.21376636624336, 0.39807680249214, -0.24662019312382, -0.30790904164314, -0.07205071300268, -0.49367192387581, 0.16524343192577, -0.37973687052727, 0.48663595318794, -0.94266539812088, 0.17628610134125, 0.12146071344614, 0.01171955186874, -0.17791900038719, -2.74764800071716, 0.83360737562180, 0.24875038862228, 0.23378315567970, 0.11293675005436, 0.20143556594849, 1.20373356342316, 0.20746485888958, -0.24228687584400, 0.05035937950015, 0.25774005055428, 0.16965374350548, 0.16355748474598, -0.43813753128052, 0.00328861083835, 0.27979156374931, 0.22703014314175, 0.53126603364944, -0.78239768743515, 0.21074162423611, -0.11531468480825, 0.16364517807961, -0.04061733931303, 0.17452020943165, 0.89476358890533, 0.54456478357315, -0.10501418262720, -0.06644497066736, 0.01335005369037, 0.14048522710800, 0.18286259472370, 1.07740688323975, -0.08696807920933, -0.03704666346312, -0.35474309325218, 0.23797881603241, 0.98083907365799, 0.32465344667435, 0.03130923956633, 0.25786677002907, 0.31622964143753, -0.07096987962723, -0.41727456450462, 1.11949634552002, 0.21089850366116, 0.31608489155769, -0.07953348755836, 0.09681935608387, -0.91492170095444, 0.30269181728363, 0.31406575441360, -0.19907857477665, 0.24274693429470, 0.12648060917854, -0.79317319393158, -1.95503139495850, -0.17710961401463, 0.23054255545139, -0.25062495470047, -0.06812541186810, 0.38273295760155, 0.08590329438448, -0.10573190450668, -0.25378200411797, 0.09272544085979, 0.04136549308896, -1.45663201808929, 0.38228639960289, 0.34825053811073, -0.19144426286221, -0.59805345535278, -0.21187898516655, -1.16029715538025, 0.25012308359146, 0.12208758294582, -0.11596626043320, -0.23776541650295, -0.10247913748026, -0.92731851339340, 0.96367764472961, 0.16607207059860, 0.44583746790886, -0.27798345685005, 0.17136737704277, -0.16498385369778, -0.38194048404694, 0.17991204559803, -0.26445871591568, -0.11670601367950, 0.04299265518785, -1.04825484752655, -0.74475294351578, -0.16767963767052, 0.30211532115936, 0.00737956166267, -0.03056840226054, -0.92951959371567, -0.13527955114841, 0.03366722911596, 0.08228489011526, -0.28252497315407, -0.26103165745735, -0.41318994760513, 2.93595576286316, 0.03940602764487, -0.16139000654221, -0.09654393047094, 0.03262275084853, 1.06572818756104, -0.77080166339874, 0.13304075598717, -0.34438470005989, 0.36140233278275, -0.02182688750327, 0.21564057469368, 0.30163851380348, -0.24041135609150, -0.21613337099552, -0.24241504073143, -0.10722456127405, -1.36264514923096, -1.27433979511261, 0.12089346349239, 0.02659001015127, -0.20686668157578, -0.18888579308987, -0.11001339554787, 0.56013315916061, 0.21912114322186, 0.21143621206284, -0.34995320439339, -0.12153327465057, -1.38557541370392, 0.18412834405899, 0.08627780526876, 0.00436429725960, -0.18663148581982, -0.11199745535851, -0.51614379882812, 1.21323299407959, 0.14625617861748, 0.08442283421755, -0.51418089866638, -0.19275985658169, -0.21493904292583, -1.00168704986572, -0.28390210866928, 0.09308448433876, -0.26093754172325, -0.11052467674017, 0.34646540880203, -0.68225765228271, 0.05034452676773, -0.06431511044502, -0.10185590386391, -0.06465237587690, -0.49136939644814, -1.43152844905853, 0.22340640425682, -0.39476144313812, 0.00153163494542, 0.02933045290411, -0.91629582643509, -0.45858857035637, -0.05393092334270, 0.34334918856621, -0.01160279661417, -0.52918177843094, 1.98261308670044, 0.26328092813492, -0.06898517161608, -0.04184975102544, -0.00298015004955, -0.21108944714069, -0.22751167416573, 2.78023910522461, -0.14957307279110, 0.00233338377438, -0.16225419938564, 0.46097013354301, 0.98439157009125, -0.43785703182220, -0.13496038317680, -0.03816072642803, 0.05965353921056, -0.11608923971653, 1.30744516849518, 0.21717301011086, 0.00144274008926, -0.22487626969814, 0.12869985401630, -0.12908816337585, -1.61479890346527, -1.27815783023834, -0.23895068466663, -0.00243952288292, 0.01140389777720, 0.00147648586426, -0.48339173197746, -1.09676945209503, 0.10003963857889, -0.13509058952332, -0.15689912438393, -0.11156591773033, -0.53606265783310, -1.40791571140289, -0.07441277801991, 0.44852939248085, 0.21590866148472, 0.46776118874550, -0.25171166658401, -0.33423930406570, -0.36878377199173, 0.02184692770243, 0.39269563555717, -0.11128045618534, 0.60904622077942, 0.38342282176018, -0.02528145909309, 0.20032285153866, 0.03676345944405, 0.04748303070664, -1.46699607372284, -2.21142983436584, -0.02408963814378, -0.14827740192413, 0.09428909420967, -0.30148670077324, 1.17243683338165, -0.14006653428078, -0.47898077964783, 0.19681762158871, 0.32433274388313, -0.16943053901196, -1.17430353164673, 1.19795668125153, -0.02878347411752, 0.18856850266457, -0.19597120583057, 0.03947530314326, -0.63130211830139, -0.76617705821991, 0.12482319772243, -0.06117173656821, -0.08180056512356, -0.03963269665837, 1.27164089679718, -0.85481011867523, 0.11528740078211, 0.22712135314941, -0.25097706913948, -0.18492892384529, -0.36255893111229, 0.28365746140480, 0.15455406904221, 0.18542550504208, -0.29840826988220, 0.25167253613472, -0.47657507658005, 0.87305599451065, 0.23717461526394, -0.10008790344000, -0.10142830014229, -0.04145715385675, -0.34911677241325, 0.27866351604462, -0.31062832474709, 0.35866433382034, 0.51490616798401, -0.08691732585430, 0.19485229253769, 1.48363924026489, 0.09359929710627, 0.20288206636906, -0.08673506975174, -0.12224362045527, -1.78175711631775, -0.73467260599136, -0.29000917077065, 0.26252505183220, -0.03936635330319, -0.49810239672661, -0.19343224167824, -0.15987935662270, 0.07837158441544, -0.54016768932343, -0.08728416264057, -0.32263010740280, -0.37268427014351, 0.79681336879730, 0.06892383843660, -0.20898196101189, 0.07349959015846, 0.24414798617363, -0.95972472429276, 1.12225878238678, 0.13652911782265, 0.35445323586464, -0.62635850906372, -0.02624821290374, 0.64908820390701, -1.23422467708588, -0.15193592011929, -0.22165995836258, 0.59341824054718, 0.39371392130852, 0.97015213966370, 0.63799655437469, -0.03046892583370, -0.07330165058374, 0.16255475580692, -0.04377118498087, -0.17163589596748, 0.92895299196243, 0.04124835878611, 0.37936648726463, -0.23165339231491, -0.06333923339844, 0.33866828680038, 0.52618575096130, 0.16845385730267, 0.24232649803162, -0.17338892817497, 0.59508472681046, 0.47042107582092, 1.56496345996857, -0.29658177495003, 0.00278767361306, -0.00978271756321, -0.05128685757518, -0.32407236099243, 2.71896028518677, -0.30008918046951, -0.18255907297134, 0.17493647336960, -0.13048121333122, 0.62179732322693, 0.12628029286861, 0.25039702653885, 0.38407137989998, -0.23779720067978, -0.29618081450462, -0.85119420289993, -1.95306777954102, -0.18636913597584, -0.10102859884501, 0.00874576624483, 0.20007273554802, 0.57867640256882, 1.55708265304565, -0.15137904882431, -0.25501671433449, 0.02249471843243, 0.09297323971987, 0.85898053646088, -0.89052200317383, -0.21059250831604, 0.29851680994034, -0.10741681605577, -0.33604875206947, -0.23735843598843, -1.47209024429321, -0.21688695251942, -0.08500123023987, 0.12529471516609, 0.10332043468952, -0.32105502486229, 0.54463267326355, -0.25727772712708, 0.42760008573532, -0.03565326333046, -0.35190755128860, 1.26184642314911, -1.17189478874207, 0.07778152823448, -0.11388128250837, -0.34014585614204, -0.27020454406738, 0.46437948942184, 0.08154712617397, 0.40787681937218, 0.15949559211731, 0.25678393244743, -0.43221059441566, 1.29711079597473, -0.49098348617554, 0.16849103569984, -0.14231386780739, -0.23265056312084, -0.37804311513901, 0.00250409799628, 0.42835292220116, 0.01906654983759, 0.12897473573685, -0.02052549645305, -0.35143116116524, 1.52556955814362, 1.20102941989899, -0.37703812122345, 0.25254327058792, 0.07146953791380, 0.00917892251164, 0.69519460201263, 1.07225561141968, 0.02962737344205, -0.07309681922197, -0.07296289503574, 0.05222251638770, -0.86313980817795, -0.01483369804919, -0.15830904245377, -0.05897087231278, -0.02935785241425, -0.12650972604752, -0.31504872441292, 0.81071448326111, -0.09821785986423, -0.20999391376972, 0.08585564792156, -0.22846853733063, -0.32795655727386, 2.39916300773621, -0.06518527120352, -0.24686728417873, -0.29550623893738, -0.08175064623356, -0.30696263909340, 1.94480204582214, -0.70098257064819, 0.27796652913094, 0.30388808250427, 0.09542903304100, 2.18082261085510, -1.73818516731262, 0.01476623676717, 0.13700661063194, -0.11412563174963, -0.11513372510672, 0.24986042082310, -2.29447913169861, 0.09989967942238, 0.23042500019073, 0.11917843669653, -0.15922465920448, 0.45588377118111, 0.02003513090312, -0.03309217840433, 0.49856004118919, -0.00483161769807, -0.00339457439259, 0.56629991531372, 1.86009049415588, -0.09437917172909, -0.16106086969376, 0.14469783008099, -0.36664780974388, 0.30169364809990, -0.47626659274101, -0.39720475673676, 0.00435324665159, 0.04556342959404, -0.02116937376559, -0.36231333017349, -0.98360013961792, -0.05100091546774, 0.32218328118324, 0.13666376471519, -0.10524955391884, -0.67518442869186, -1.19968318939209, 0.43361937999725, -0.11457096785307, -0.01834302768111, -0.11132433265448, 0.27811819314957, -0.14377439022064, -0.03677663952112, -0.47589197754860, 0.29636600613594, 0.00530676357448, 0.06320897489786, -0.15872846543789, 0.22440105676651, 0.17848882079124, -0.37201470136642, -0.06368095427752, -0.84905499219894, 0.96140915155411, -0.20586824417114, 0.17822341620922, 0.09525002539158, 0.26472568511963, 1.00566589832306, -0.41968783736229, 0.12804920971394, -0.02271447330713, -0.02838103473186, -0.15669167041779, -1.71308887004852, -0.74483114480972, -0.13931007683277, -0.29211124777794, -0.17786747217178, -0.16527678072453, -0.40504100918770, -1.45158827304840, 0.13217666745186, -0.28387063741684, 0.19716256856918, -0.21527960896492, 0.25580134987831, 1.58702325820923, -0.11052061617374, 0.68218833208084, -0.19849194586277, -0.29355168342590, -0.86480790376663, -1.33354330062866, -0.02579580061138, 0.27802440524101, 0.19718441367149, -0.04492029175162, 0.42838582396507, -0.43621712923050, -0.29251521825790, 0.31043985486031, 0.08513471484184, 0.10178923606873, -0.40844845771790, -2.06813192367554, -0.17882885038853, 0.19834285974503, -0.37045684456825, 0.01804766617715, 0.91546046733856, -2.08701014518738, 0.30978313088417, 0.09653527289629, 0.13778030872345, 0.01628881692886, 0.23144692182541, 1.67629599571228, -0.25967741012573, -0.08855890482664, -0.16347710788250, -0.24684420228004, -0.37233254313469, -0.72377228736877, 0.23311443626881, 0.02463484369218, -0.53920102119446, 0.08040726929903, -1.66292023658752, 1.47348594665527, -0.06811298429966, 0.01758370548487, 0.03606143966317, -0.25877538323402, 0.48110377788544, 0.32547146081924, -0.01381051074713, -0.36658206582069, 0.01668806932867, -0.12938368320465, 0.92783522605896, 0.65445137023926, 0.33771586418152, 0.33102694153786, -0.06672586500645, -0.03291290253401, 0.39248901605606, -1.83940243721008, -0.26543602347374, -0.16694803535938, -0.13434526324272, 0.17035186290741, -0.71262300014496, -1.06131088733673, -0.29961779713631, 0.15822511911392, 0.09692730754614, 0.18908666074276, -1.06896007061005, -1.23015213012695, 0.37793579697609, 0.16953335702419, 0.04917042702436, -0.10824630409479, -0.58142679929733, 0.06049618870020, 0.26155203580856, 0.14299775660038, -0.00543885305524, 0.11251628398895, -1.04874622821808, -0.19958879053593, -0.13009168207645, 0.33131104707718, -0.01190214790404, -0.15289226174355, 1.35057544708252, 0.91605401039124, -0.09977898001671, -0.22177685797215, 0.01320903375745, 0.20713913440704, 0.87709230184555, -1.75106537342072, 0.31521818041801, -0.24257156252861, 0.01899729296565, -0.26155313849449, -2.07301187515259, 0.45716688036919, -0.14783786237240, -0.12369154393673, -0.13703826069832, 0.06157629564404, -0.51280444860458, -0.78745251893997, -0.10432440042496, -0.33787897229195, -0.05722690746188, 0.01619534939528, -1.22603762149811, -0.93647307157516, 0.18501724302769, -0.08482319116592, -0.22976851463318, 0.00729094957933, -1.49995625019073, 1.34363412857056, -0.12395781278610, -0.36561056971550, -0.18143540620804, 0.18123465776443, 0.37751948833466, -0.00505359750241, 0.13898801803589, -0.23775920271873, 0.27726528048515, 0.28951975703239, 0.12311252206564, 1.75450110435486, -0.28310218453407, -0.23761202394962, -0.07880159467459, 0.10134689509869, 2.83651041984558, -0.44637674093246, 0.11584296822548, -0.06585877388716, 0.37311035394669, 0.04629435762763, -0.25067573785782, -1.05770814418793, 0.42091235518456, -0.04435094445944, 0.12375117093325, -0.00072060734965, 0.42115351557732, 0.04064841195941, -0.16715459525585, 0.34056463837624, 0.07401604950428, -0.24055652320385, -0.32670798897743, -0.64979314804077, 0.15646287798882, 0.31814712285995, 0.27253335714340, 0.15750695765018, -1.01168239116669, -0.46109327673912, -0.35042068362236, 0.16362789273262, 0.04443958774209, 0.13703526556492, 0.64663529396057, -0.22741770744324, 0.00428851926699, -0.06969314068556, 0.05327456071973, 0.20181998610497, -0.52666628360748, 1.15145540237427, -0.07464085519314, -0.26709789037704, 0.13679943978786, -0.03120589442551, 0.20300512015820, -0.99447429180145, -0.00017185238539, 0.65530496835709, -0.10577077418566, -0.00219559972174, 1.90348970890045, 0.08701214194298, 0.02226082794368, -0.22993287444115, -0.15277200937271, 0.00337690976448, -2.12418270111084, -0.26118811964989, 0.02169966511428, -0.16777497529984, 0.18840947747231, -0.44675999879837, -0.63468778133392, -2.31217002868652, 0.12915445864201, 0.26838201284409, -0.42683079838753, -0.26080384850502, -0.26663711667061, 1.99106943607330, -0.21948087215424, 0.07070749998093, -0.29139885306358, 0.12955127656460, -0.26359650492668, 0.61336505413055, 0.18268252909184, -0.15598280727863, -0.12984503805637, 0.00857827905566, -1.36857020854950, -1.56122064590454, 0.01042248588055, -0.15866200625896, 0.16062565147877, 0.23366005718708, -0.04559859260917, -0.83873611688614, 0.10822844505310, 0.07550611346960, -0.03504385054111, -0.12658067047596, -0.67826783657074, -2.91036272048950, -0.02559094503522, -0.24076105654240, -0.39778950810432, 0.19445464015007, -0.14404283463955, -1.41863369941711, 0.21031971275806, 0.26317197084427, -0.30550566315651, -0.14012071490288, 1.34365987777710, -0.85800319910049, -0.42452535033226, -0.19308155775070, 0.45319610834122, -0.11249488592148, -0.35673379898071, 0.78829759359360, 0.08032879978418, 0.61983352899551, 0.13707393407822, 0.52720296382904, -0.70817703008652, -1.13700735569000, 0.07340301573277, 0.22543315589428, 0.00617961632088, 0.33031678199768, -0.04424266889691, 0.21854868531227, 0.19591817259789, 0.05663263425231, 0.27855181694031, 0.21097563207150, 0.10141154378653, -0.54461789131165, 0.58921450376511, 0.34755569696426, -0.08304955810308, -0.10589943081141, 1.00097000598907, -0.61792206764221, -0.18681053817272, 0.03089931793511, 0.13211953639984, 0.22399587929249, 0.41024518013000, -0.19161321222782, 0.41403582692146, 0.06674040853977, -0.55651789903641, 0.41144976019859, -0.98376315832138, -2.05574464797974, 0.13663715124130, 0.15240928530693, -0.05332426354289, -0.25325036048889, 0.52464556694031, 1.38314449787140, -0.13132914900780, 0.06811703741550, 0.00591696379706, 0.26822358369827, -0.27393352985382, -1.03607976436615, -0.10881878435612, -0.03349681571126, -0.16987812519073, 0.22968433797359, 0.87296026945114, 0.15064342319965, -0.05408063903451, -0.12674830853939, 0.61535471677780, -0.30517464876175, -0.46378645300865, 0.37043085694313, 0.00886440556496, -0.12545958161354, -0.23418377339840, 0.07404058426619, -1.80945289134979, 0.97769385576248, -0.05623882263899, 0.04344660788774, 0.25965887308121, 0.04506544396281, -0.09024386107922, 2.25331139564514, -0.19811157882214, 0.15312947332859, 0.05408954247832, -0.01467994134873, 0.56546574831009, 1.88416171073914, 0.04532165825367, 0.08402428030968, 0.22304962575436, -0.09711838513613, 0.46618351340294, -0.91258835792542, 0.25387507677078, -0.02986568957567, 0.05981530994177, -0.14478643238544, 0.81069743633270, -0.85335075855255, -0.08665871620178, 0.04606684297323, 0.33127301931381, -0.23694995045662, 0.30534169077873, 0.99838119745255, -0.00144269119482, 0.01606715098023, 0.33534142374992, -0.11929776519537, 1.11323034763336, -0.77940082550049, -0.13422365486622, 0.11620882153511, -0.06737600266933, -0.23057590425014, -0.82508879899979, 1.32557415962219, 0.15743745863438, 0.12218512594700, -0.25708928704262, 0.67896831035614, 0.06066315248609, 0.16439886391163, 0.30627718567848, 0.02333272062242, -0.01953368261456, 0.06738717854023, 0.76873058080673, 0.70870673656464, 0.06385578215122, 0.01916462182999, 0.28914389014244, -0.06153356283903, 0.15678560733795, -0.51564860343933, 0.14140571653843, -0.16729713976383, 0.18155820667744, -0.04984252899885, -1.99716985225677, 1.89757525920868, -0.66847145557404, 0.05690272897482, -0.48425081372261, 0.31662407517433, -0.47464242577553, 1.01874601840973, -0.55954968929291, 0.06382369250059, 0.26774522662163, 0.22950541973114, 1.14327776432037, -2.19796228408813, -0.08919911086559, -0.02837395854294, 0.11885357648134, -0.14879758656025, 1.48611044883728, -0.25578111410141, -0.02599561959505, 0.00969291850924, -0.02341494709253, 0.06471034884453, 0.11464473605156, 0.01446527335793, 0.35821557044983, -0.03730971738696, -0.17023603618145, 0.29570659995079, -0.04058802127838, 0.98986792564392, 0.02073477581143, 0.13355563580990, -0.13332785665989, 0.03242217004299, 0.24208226799965, -0.20889388024807, -0.03604253754020, -0.05231422558427, -0.14637783169746, -0.09196233004332, 0.26491197943687, 0.62863874435425, -0.08493842184544, 0.10123179852962, 0.27363938093185, 0.44939640164375, 0.70961815118790, 0.66980522871017, -0.21295268833637, 0.14569920301437, -0.21550570428371, 0.72474300861359, -0.34371134638786, -0.57393318414688, -0.03648564964533, -0.12763088941574, 0.08447185158730, 0.24463839828968, 0.19695360958576, -1.94260811805725, -0.09659782052040, -0.17111669480801, 0.05984117090702, 0.65943056344986, -2.67583155632019, 1.08256912231445, -0.00832927972078, -0.10304602980614, -0.25559681653976, -0.16976869106293, 1.12466800212860, -0.57715952396393, -0.02415025047958, -0.14417767524719, 0.09837068617344, -0.30001226067543, -1.24757361412048, 0.25476309657097, -0.29033613204956, -0.00832818448544, -0.13063772022724, -0.65730786323547, -0.82373577356339, 0.36595773696899, 0.25456476211548, 0.10327208042145, -0.02597090601921, 0.19685842096806, -0.53014624118805, 1.25170481204987, 0.48238328099251, -0.09020233899355, -0.36247968673706, 0.67743110656738, 0.10843352228403, 0.53838461637497, -0.13599589467049, 0.37949779629707, -0.06176168471575, -0.25180503726006, 0.23571474850178, 0.39241281151772, 0.13418547809124, -0.06854960322380, 0.11390287429094, 0.53995656967163, 0.07544976472855, 0.63155329227448, -0.63334178924561, 0.03615574911237, 0.15817274153233, -0.03117329068482, 0.28160101175308, 0.87755227088928, -0.01539364922792, -0.04385779052973, 0.24501137435436, 0.27644863724709, 0.47998571395874, 0.80868244171143, -0.06537228077650, -0.01478428021073, -0.13715657591820, -0.09820968657732, 1.51320576667786, 2.42512512207031, -0.42090135812759, 0.04942849650979, 0.28921461105347, 0.12366675585508, -0.77993190288544, 2.15089941024780, -0.00368626788259, -0.14420495927334, -0.02128371410072, 0.19761148095131, -0.95622813701630, -0.46445864439011, -0.03373052179813, 0.00729799410328, 0.13148227334023, 0.32132253050804, 0.32539770007133, -0.27581608295441, -0.19080701470375, -0.02830846607685, 0.25357994437218, -0.36680549383163, -0.32154548168182, -2.01027679443359, -0.17264039814472, 0.08482775837183, 0.20019869506359, 0.28477469086647, 0.33691093325615, 0.89220482110977, -0.23219841718674, 0.62144899368286, -0.08633999526501, -0.67989093065262, -0.16506683826447, 0.84815829992294, 0.11659345775843, -0.00630338722840, -0.10856819897890, 0.03332535177469, 0.73941117525101, -0.66601228713989, -0.35651952028275, 0.02340284734964, -0.30291745066643, -0.23875983059406, 1.29641532897949, 0.57506150007248, 0.12684684991837, 0.13675872981548, -0.35778248310089, -0.70443743467331, 1.21990764141083, 0.57565861940384, -0.04992485418916, 0.08372514694929, -0.22872182726860, -0.14723962545395, 0.94988328218460, -0.18403002619743, 0.10582146793604, -0.20363418757915, -0.00998675636947, -0.16346502304077, 0.54977178573608, -0.99643439054489, 0.14168709516525, 0.16540002822876, 0.24509534239769, -0.22154620289803, -0.49213328957558, 0.22849190235138, 0.07379072159529, 0.01573250256479, -0.11400584876537, 0.25222632288933, 0.34124198555946, 0.41275131702423, -0.61895442008972, -0.01101391576231, -0.40707579255104, 0.23872148990631, -1.01547396183014, 1.42581033706665, -0.17119506001472, 0.09542959183455, -0.29973047971725, 0.63275462388992, 0.40056475996971, 0.23007397353649, -0.04251098260283, 0.30381008982658, -0.23531000316143, 0.86316287517548, -1.75656211376190, -1.53880023956299, -0.22271309792995, -0.05569399893284, -0.33088576793671, -0.29028847813606, -1.44620692729950, -0.80746513605118, 0.01740899495780, -0.03645663708448, -0.10848543792963, 0.53451234102249, -1.38110554218292, 1.06621897220612, 0.02742734923959, -0.13442851603031, -0.12037973105907, 0.27214697003365, -1.43203806877136, 0.11827831715345, -0.28901118040085, -0.00700032617897, 0.00770923076198, 0.03216116875410, 0.95543730258942, -1.35405445098877, -0.17930850386620, 0.22196997702122, -0.15830871462822, -0.38088732957840, 0.76849812269211, -0.10107354819775, -1.04651474952698, -0.02539332583547, 0.25503268837929, 0.14993575215340, 0.01914769224823, 1.66169333457947, -0.18853494524956, 0.16121914982796, 0.09799169749022, 0.28318801522255, 0.58925729990005, -1.34439468383789, 0.18678112328053, -0.04261096194386, -0.18764474987984, -0.47960880398750, -0.10486018657684, -1.96460938453674, 0.16065716743469, 0.32279068231583, -0.19426104426384, 0.16211387515068, 3.01019644737244, -1.02021646499634, 0.30002853274345, -0.29423081874847, 0.34631493687630, -0.18757718801498, -1.74788427352905, -0.66920423507690, 0.23054887354374, 0.05049516260624, -0.07812294363976, 0.25930500030518, -1.75960743427277, -0.33500802516937, -0.40226545929909, -0.11067862063646, 0.04888582602143, 0.33836081624031, -1.08384811878204, 1.58997619152069, 0.05213006585836, 0.03791153430939, -0.02252459526062, -0.29684323072433, 0.64703637361526, 1.61275136470795, 0.14386321604252, -0.08410651236773, -0.31298831105232, -0.01495392434299, 0.66535353660583, -0.66579389572144, -0.02185426652431, 0.21259416639805, 0.22038644552231, 0.05162364989519, -0.87213313579559, -1.33917534351349, 0.11611791700125, -0.16569812595844, -0.04742472991347, 0.17714270949364, 0.25846004486084, 1.46123886108398, -0.20571747422218, -0.00449239183217, 0.19728073477745, -0.35501787066460, -0.69862794876099, 1.61677801609039, -0.07897789776325, 0.21138192713261, -0.01887492649257, -0.14519746601582, 1.51122248172760, 0.53703707456589, -0.05326248332858, 0.05827178061008, -0.10565315186977, 0.24515295028687, 0.96677714586258, 1.07474136352539, -0.51961648464203, -0.09149125963449, 0.15255025029182, 0.39413639903069, 0.69519996643066, -0.71927064657211, 0.42684713006020, 0.04026319831610, -0.05179477483034, 0.47776541113853, -0.73696482181549, 0.02842177450657, 0.10538548976183, -0.01987162046134, 0.14620220661163, 0.16507509350777, -0.85648822784424, -0.25850898027420, -0.16070933640003, 0.05830324813724, 0.22259032726288, -0.18691174685955, -0.56342595815659, 1.57831907272339, -0.31043830513954, 0.15946863591671, -0.12873348593712, 0.07480093836784, -0.14300625026226, 0.42340040206909, 0.23515658080578, 0.02170091494918, -0.15781925618649, 0.07335644960403, 0.03003241680562, -0.76443803310394, -0.00828486122191, -0.33468714356422, 0.04308650270104, 0.26546990871429, 0.49908655881882, -0.35977756977081, -0.10649322718382, -0.08759920299053, 0.16101664304733, 0.27478685975075, 0.41421917080879, 1.38171565532684, 0.38062280416489, 0.02229800634086, 0.04246381670237, 0.14865265786648, 1.04143929481506, 1.32670974731445, -0.01681125909090, 0.14731986820698, -0.16668899357319, -0.10040502995253, 0.21670907735825, -0.89897018671036, 0.00411258079112, 0.23109567165375, -0.09531960636377, 0.14721079170704, 1.20446717739105, -0.79508799314499, 0.13626664876938, -0.08284974843264, 0.01836350373924, 0.27944168448448, -0.01868239045143, -0.75111687183380, -0.00042637443403, -0.00694294972345, -0.28117039799690, -0.08801594376564, 0.83787524700165, -1.33259654045105, 0.12926895916462, 0.02547200955451, 0.13669201731682, 0.15061035752296, -0.54960137605667, -2.02885556221008, -0.41291415691376, -0.21673673391342, -0.03083238564432, 0.00503826420754, 0.24552978575230, -1.42534852027893, -0.35540056228638, -0.02922946214676, 0.22206245362759, 0.09601225703955, -0.04218560084701, 1.42390823364258, -0.16591948270798, -0.37919819355011, 0.05612963438034, -0.47086453437805, -0.46649107336998, -0.34721323847771, 0.11249052733183, -0.10549049079418, -0.28330969810486, -0.36630567908287, 0.19734300673008, 1.38615822792053, -0.12647795677185, 0.00141504476778, 0.10184700787067, -0.14863012731075, 0.80980598926544, 2.39542889595032, 0.50912255048752, -0.30772364139557, 0.17748516798019, 0.11449038982391, 0.46145242452621, 0.07781311124563, -0.00554539822042, 0.12152400612831, -0.16012825071812, 0.18503315746784, 0.46592605113983, 1.53369748592377, -0.23573046922684, 0.13422898948193, 0.27327165007591, 0.13441261649132, -1.35254609584808, -0.25083908438683, 0.55196404457092, 0.14039818942547, -1.85360765457153, 0.14327789843082, 0.94584423303604, -0.11146497726440, -0.02073682472110, -0.18154141306877, 0.83801132440567, -0.26695504784584, 1.17338383197784, -0.43958708643913, 0.17503342032433, -0.08932220935822, -0.04509270936251, -0.19929377734661, -0.53321617841721, -1.97835147380829, -0.12244690954685, -0.10542986541986, 0.20032690465450, 0.06553669273853, -1.12903606891632, -1.23803782463074, -0.19115319848061, -0.14739283919334, -0.50168448686600, 0.26284804940224, 0.30287861824036, 0.74662286043167, 0.02616928517818, -0.07206972688437, 0.20378521084785, 0.05941563099623, -2.04947710037231, 1.26390743255615, 0.04724778607488, -0.61280119419098, 0.53181606531143, 0.91052317619324, -1.24558782577515, 0.23271690309048, -0.11051998287439, -0.25698199868202, 0.07060227543116, -0.05966538190842, -0.49082350730896, -0.38288164138794, -0.41881829500198, -0.13089504837990, 0.17991694808006, -0.08295906335115, 1.54930615425110, -0.23113328218460, -0.03416674956679, 0.20478060841560, 0.43417304754257, 0.14892978966236, 0.00194105005357, 1.19619607925415, -0.12124783545732, 0.25242832303047, -0.07165744900703, -0.06289769709110, -0.28510650992393, -0.23139794170856, 0.41842502355576, 0.09444297850132, 0.55466049909592, 0.20500147342682, -1.15359556674957, 0.73240727186203, -0.20111648738384, -0.17310212552547, 0.29425632953644, 0.36674910783768, 0.37486150860786, -0.21641910076141, 0.55177837610245, 0.15876683592796, -0.04609076306224, 0.15809230506420, -0.44251734018326, 1.08109235763550, 0.03800834715366, -0.09212645888329, 0.00156945514027, 0.07130613178015, 0.27638128399849, 1.55129861831665, -0.45658960938454, -0.19185201823711, 0.43596529960632, -0.03967618942261, 0.53251576423645, 0.07406241446733, 0.25896686315536, 0.23508304357529, -0.48612931370735, 0.38629391789436, 0.11147763580084, 0.37962484359741, -0.05119318515062, 0.13748277723789, -0.30242979526520, 0.17482802271843, -0.43547713756561, 0.89400249719620, 0.05375700443983, 0.47392618656158, 0.03579378128052, -0.13670393824577, 0.14929360151291, 1.09339797496796, 0.06927987933159, 0.07598128169775, 0.21920764446259, -0.25819072127342, -2.05256104469299, -0.12422399967909, 0.29945337772369, 0.06518448144197, 0.09577707946301, -0.27044603228569, -0.11143609881401, 0.79355293512344, -0.08018500357866, -0.06914423406124, -0.18008638918400, -0.20076230168343, 0.05488554760814, 0.38617780804634, 0.03793158754706, 0.10891205072403, 0.11517166346312, -0.68699598312378, 1.13749134540558, -0.29610505700111, 0.27168697118759, 0.06958718597889, -0.11254999786615, 0.21982093155384, 1.80270063877106, -0.10093845427036, 0.28372618556023, -0.09166580438614, -0.08075948804617, -0.14682263135910, -0.10664352029562, 0.66349780559540, 0.07953732460737, -0.25343838334084, -0.04740938171744, 0.28975272178650, 0.10979077219963, -1.85425603389740, 0.01702579297125, -0.03179672732949, 0.32839116454124, -0.01544069498777, -0.43091836571693, 0.09360533952713, -0.39938795566559, -0.21273750066757, 0.11470254510641, 0.32420179247856, 0.75112044811249, -0.28798371553421, 0.08723105490208, 0.05844768881798, -0.51823848485947, -0.19475860893726, 0.96973574161530, -0.30059325695038, 0.33498391509056, -0.44490388035774, 0.01044793706387, 0.21155232191086, 0.32786598801613, -0.27317023277283, -0.21579781174660, -0.14451003074646, 0.48364099860191, -0.16030095517635, 0.62768334150314, 0.70710092782974, 0.23215329647064, -0.08089713752270, 0.04885800555348, -0.23450678586960, 0.33916166424751, -1.04834318161011, -0.22443500161171, -0.15897032618523, 0.22632507979870, 0.13911350071430, 0.43537819385529, -0.16161371767521, -0.04646543413401, -0.32241311669350, 0.24704560637474, -0.41510775685310, -0.91933101415634, -1.44322061538696, -0.40275973081589, 0.04017335548997, 0.46647894382477, 0.15269863605499, 0.53583163022995, -1.37313675880432, 0.13633783161640, 0.07824917882681, -0.02748863957822, 0.14980790019035, -0.31348830461502, 1.77099180221558, 0.36152336001396, -0.03622676059604, -0.03376105800271, 0.28381782770157, -0.42343333363533, -2.07635784149170, 0.07330856472254, 0.07365481555462, -0.01575824804604, 0.08654991537333, 0.20950512588024, 1.40858519077301, 0.11477446556091, -0.04194300994277, 0.12707701325417, 0.05108489841223, -0.02088459767401, -0.64367407560349, -0.17544496059418, -0.93134605884552, -0.31784513592720, 1.33896708488464, 1.27233803272247, 0.61972677707672, 0.17877425253391, 0.13381940126419, 0.18687529861927, -0.02972355298698, -0.85803472995758, 0.46481141448021, -0.32343634963036, -0.08506363630295, 0.18022713065147, 0.43791207671165, -0.25192093849182, -0.42058169841766, -0.05415819957852, 0.12842963635921, -0.34351271390915, -0.14008489251137, -0.88145059347153, -0.80837768316269, 0.15872889757156, -0.22970008850098, -0.00233322149143, 0.06016173958778, 0.28108373284340, -0.17196439206600, 0.02173131518066, 0.24624052643776, 0.15332928299904, 0.35310459136963, -0.42721277475357, 1.98317575454712, -0.23612341284752, 0.01396447233856, 0.33211681246758, 0.20699647068977, 0.30306851863861, -0.09026039391756, -0.35946089029312, -0.18594275414944, 0.21890835464001, -0.17628173530102, -0.18729786574841, -2.00520420074463, -0.18978908658028, 0.10344627499580, 0.00661129504442, -0.25498321652412, 0.66255682706833, -1.08765757083893, -0.20479467511177, -0.14471811056137, -0.22561568021774, -0.71914398670197, -0.46767944097519, 2.12007355690002, -0.06010526046157, -0.53636598587036, -0.07689563184977, 0.37524539232254, 0.93204128742218, 1.33640205860138, 0.05957263708115, 0.01678029075265, -0.02555062808096, -0.34867295622826, 0.93323552608490, -0.18495921790600, -0.21633148193359, 0.26508200168610, 0.41773840785027, -0.33995115756989, 1.37826681137085, -1.94769442081451, 0.50173872709274, 0.11576647311449, 0.17159965634346, -0.00133296393324, 0.78029674291611, 0.54610013961792, 0.10070507228374, -0.08216421306133, -0.03403104841709, -0.55235099792480, 0.00248330668546, -0.28959381580353, -0.07770463079214, -0.09379598498344, -0.33482319116592, -0.05391685292125, -0.07328957319260, -1.61027050018311, 0.13686983287334, -0.18864791095257, -0.05237610265613, 0.17679974436760, -0.73147559165955, -1.62837851047516, -0.04316585883498, 0.16741503775120, -0.10479573905468, -0.12041991949081, -0.55529576539993, 0.10658939182758, 0.17554487287998, 0.16442471742630, 0.16726447641850, 0.08224363625050, -1.30206727981567, 1.70047569274902, 0.55888289213181, 0.10018175840378, -0.09655670076609, 0.04940721765161, -2.40624570846558, 0.71559464931488, -0.03866359218955, 0.67497825622559, 0.01494325418025, 0.40185534954071, 2.59233808517456, -0.23064708709717, 0.02608809992671, -0.03809989243746, 0.23070475459099, 0.58501207828522, 1.18211388587952, 0.52479875087738, 0.11296284943819, 0.10163251310587, -0.37677061557770, 0.24869242310524, 1.29317665100098, -0.45761385560036, -0.10829094797373, 0.03095512650907, -0.06820139288902, -0.35185253620148, 0.10474408417940, -1.05693864822388, 0.19423061609268, -0.19453519582748, -0.38356143236160, -0.01596734113991, -0.71074932813644, 0.80429136753082, 0.29273226857185, -0.20993018150330, -0.10167539864779, -0.07109266519547, -0.40338301658630, 0.88033992052078, -0.19751311838627, 0.26541578769684, 0.18634577095509, -0.38013830780983, -0.80670464038849, -1.06459665298462, 0.02882510982454, -0.07025471329689, 0.11691781878471, -0.04856172949076, 2.07856345176697, -1.31379747390747, -0.38705196976662, -0.01791778951883, 0.20286624133587, -0.78649950027466, -0.00293218670413, 2.11535620689392, 0.00352465175092, 0.24038650095463, -0.09494091570377, -0.06797581166029, -1.01339554786682, -0.44917505979538, -0.06636237353086, 0.00980465672910, -0.06024344265461, 0.01678712107241, -1.13770031929016, -0.50765401124954, -0.12658846378326, -0.05520598590374, 0.17823408544064, -0.00136581854895, 0.02903005294502, -0.24866341054440, 0.05599398538470, -0.24065212905407, 0.16852936148643, -0.15665459632874, 1.02426338195801, -1.92351031303406, 0.48336195945740, 0.02405060641468, -0.10903570801020, 0.63195562362671, 0.71452164649963, 0.12758807837963, 0.20336163043976, 0.07704768329859, 0.34361201524734, 0.55883091688156, -1.89978146553040, 0.24556089937687, -0.09461823105812, -0.03021038137376, 0.13681605458260, 0.08549661189318, 0.26469457149506, -0.16927596926689, -0.34484937787056, 0.21279734373093, 0.05002326518297, 0.02885078825057, -0.70518487691879, 0.02447403408587, -0.08823275566101, 0.13979355990887, -0.03370234370232, -0.08971865475178, 0.05863833054900, -1.27899813652039, 0.11092840135098, -0.00097863422707, 0.01040310412645, -0.47751998901367, -0.74842911958694, -1.73756742477417, 0.02536368183792, -0.11327268183231, 0.01089907065034, -0.12820237874985, -0.76042276620865, -0.88408684730530, -0.00859035179019, -0.27348303794861, 0.15314699709415, -0.51285058259964, -0.38107761740685, 0.30468338727951, -0.16870196163654, -0.04666496440768, -0.01843414083123, -0.20761668682098, -1.23325705528259, 0.93554514646530, 0.45860096812248, -0.10416316241026, 0.29393622279167, 0.33729240298271, -0.22178512811661, -0.79206079244614, 0.40049058198929, -0.30256021022797, 0.35816308856010, 0.49472916126251, 0.45494562387466, 0.81947606801987, 0.18478901684284, 0.20978099107742, 0.74938601255417, -1.08538889884949, 0.06762465089560, -0.12234012037516, -0.38369935750961, 0.28792881965637, 0.30549016594887, 0.01794577576220, 1.83731997013092, -2.83948826789856, -0.20514951646328, -0.22017723321915, 0.18322515487671, -0.05341953039169, 1.99405956268311, -0.07787497341633, 0.51980638504028, 0.01083966623992, 0.27739030122757, 0.04989844933152, -0.95230436325073, 0.48679456114769, 0.09696525335312, -0.14842127263546, -0.00853728689253, -0.19239477813244, -1.08072996139526, -0.17864683270454, -0.09907939285040, -0.23849678039551, -0.12437317520380, -0.05375688523054, -1.43747425079346, -0.42438560724258, 0.38179555535316, -0.11268625408411, 0.06875600665808, -0.38407909870148, -0.40521183609962, 1.32317841053009, 0.03527776151896, 0.01559727173299, 0.03618575260043, 0.01324473880231, 1.54563844203949, 2.83877277374268, -0.30238306522369, 0.09107972681522, 0.01843528635800, -0.05563649162650, -1.49019789695740, -0.47718870639801, 0.18767812848091, 0.04208966344595, 0.01762051507831, -0.12425175309181, 0.31733763217926, 1.46810209751129, 0.26123052835464, 0.14617992937565, -0.07437659054995, -0.01554871443659, 0.83731693029404, -2.00442695617676, -0.15038980543613, 0.04640755802393, 0.25446203351021, 0.10685417056084, -0.09906888008118, -1.86002767086029, -0.03753210604191, 0.13974443078041, -0.08040662854910, 0.19211484491825, 1.10002088546753, -0.50727057456970, -0.08227452635765, -0.03505771979690, -0.11842203140259, -0.00503080151975, -0.32597720623016, 0.27857410907745, 0.45634678006172, -0.17678153514862, -0.04811549931765, 0.52377426624298, 0.27432543039322, -0.75358796119690, 0.16061358153820, -0.11006724089384, 0.13390649855137, 0.03913458809257, -1.09259152412415, 1.48449575901031, 0.31280317902565, 0.14902958273888, -0.14616389572620, -0.12958590686321, -0.33509778976440, 0.18212550878525, 0.03986672684550, -0.31042924523354, -0.00592210795730, -0.09668148308992, -1.21782553195953, 1.26195645332336, -0.43005928397179, 0.09248715639114, 0.23578056693077, -0.30478948354721, -0.37457507848740, -0.22386406362057, 0.20122212171555, 0.10255801677704, 0.28366687893867, 0.04648587107658, 0.82323741912842, 1.27974033355713, -0.22640763223171, -0.01743753440678, 0.11154528707266, 0.31099647283554, -1.07406723499298, -1.92803192138672, -0.19212786853313, 0.07713089883327, 0.01576719991863, -0.02310015819967, 0.94745230674744, 2.90271997451782, 0.26818317174911, -0.02702689915895, -0.12519584596157, -0.13513810932636, 0.06949002295732, 0.84296143054962, 0.05676119402051, -0.00834237132221, 0.15466921031475, 0.05690672248602, -0.21980890631676, 0.09946222603321, -0.20717142522335, -0.07185737788677, -0.21919894218445, 0.14101143181324, 0.26722037792206, 1.07147431373596, 0.16163176298141, 0.22861008346081, -0.09392438083887, 0.16349640488625, -2.47378420829773, 0.97952938079834, 0.08150680363178, -0.11868429929018, -0.19845901429653, 0.20646473765373, 0.75220692157745, 1.55596995353699, -0.29175004363060, 0.05244782567024, -0.23300376534462, 0.01021017599851, 0.26392808556557, 0.39248740673065, 0.07815653830767, 0.06488153338432, 0.12713158130646, 0.29776901006699, -1.04021489620209, 1.15306401252747, -0.12057007849216, 0.18368647992611, -0.20816722512245, -0.22222796082497, 2.57589888572693, 2.68116617202759, -0.02341809123755, -0.29313614964485, 0.31077417731285, -0.22453905642033, -0.57983493804932, -1.81530475616455, 0.05886745080352, 0.06231492012739, 0.15640908479691, 0.29850718379021, 0.51737534999847, -0.59174889326096, 0.06000054627657, -0.08486474305391, -0.25151216983795, -0.07343581318855, -0.19582855701447, -2.98592019081116, -0.12367239594460, 0.08375820517540, -0.16801673173904, -0.14593864977360, -0.24179849028587, 1.66669094562531, 0.27645796537399, -0.19372777640820, 0.38513955473900, -0.44208177924156, 0.67056000232697, -1.40608394145966, -0.44407838582993, 0.08512473106384, 0.07414687424898, 0.25104814767838, 0.72046500444412, 0.21605536341667, -0.15370371937752, 0.51649779081345, 0.08362144231796, -0.50384885072708, -0.15339981019497, -1.33881211280823, 0.49414244294167, -0.22978244721889, -0.02525460161269, 0.42273369431496, -0.68312060832977, 0.27012777328491, -0.23134100437164, -0.13736398518085, -0.25647675991058, -0.17400097846985, -2.65352582931519, -1.25551342964172, -0.17938189208508, -0.21207983791828, 0.06052177399397, -0.10448436439037, -0.48313951492310, -0.47144445776939, 0.16830936074257, -0.06251607090235, -0.15361015498638, -0.54588228464127, 0.07538766413927, 0.47481691837311, 0.04496757313609, -0.01909920573235, 0.06479264050722, -0.04020453244448, -0.43206691741943, 2.39993929862976, -0.46377885341644, -0.31702274084091, 0.19341145455837, 0.58079028129578, 0.99068117141724, 3.13325572013855, 0.29671630263329, -0.14933457970619, 0.22687675058842, -0.04657954722643, -0.58789491653442, 0.21942222118378, 0.30820935964584, 0.26025301218033, 0.19299185276031, 0.10594435036182, 0.69291126728058, -0.17173248529434, 0.32683920860291, -0.33734464645386, -0.29086631536484, 0.19040924310684, 1.91958749294281, 0.71686661243439, -0.15197379887104, -0.11567962169647, -0.12264318764210, 0.22784055769444, 0.89658510684967, 3.10813021659851, -0.14340071380138, 0.12139587104321, -0.18351653218269, 0.32327896356583, -1.61647987365723, -0.78844606876373, 0.05777866765857, 0.06719314306974, 0.06965584307909, 0.04384901002049, -0.34072682261467, 0.20363733172417, 0.19831326603889, 0.07846256345510, -0.31573826074600, 0.26698774099350, 0.76006400585175, -1.57903623580933, -0.16402216255665, 0.09438325464725, 0.23827764391899, -0.17499037086964, 0.15122845768929, -0.16833262145519, 0.17546938359737, 0.09491405636072, -0.17627067863941, 0.25857901573181, -1.60063850879669, -1.55733931064606, 0.08278186619282, -0.01428023818880, -0.21836903691292, 0.16170242428780, 0.50952005386353, 0.37184894084930, -0.12656666338444, 0.20181149244308, 0.12705904245377, -0.14314992725849, -1.21081590652466, 1.56354916095734, -0.04200382158160, 0.13891057670116, 0.23514859378338, -0.31304427981377, 0.27441120147705, -0.68721681833267, -0.32226175069809, -0.27237758040428, 0.22971811890602, 0.11134085804224, 1.12276530265808, 1.62030529975891, 0.01574809849262, 0.10904018580914, 0.26848372817039, -0.19341078400612, 1.74010789394379, 1.86182451248169, -0.18282176554203, -0.01309727504849, -0.13829514384270, -0.32249155640602, -0.97777217626572, 2.86231684684753, 0.25531753897667, 0.08159012347460, 0.00157111021690, -0.11851196736097, 2.93893694877625, -0.39353719353676, -0.52641743421555, -0.27492398023605, 0.10604725033045, 0.22598096728325, -0.64122730493546, 0.14647656679153, 0.10921229422092, 0.04784674942493, 0.28843760490417, -0.13076567649841, -0.26199710369110, 0.26818233728409, -0.21986526250839, -0.15181647241116, 0.35260218381882, 0.38151350617409, 0.97132086753845, 0.55601590871811, -0.26302075386047, -0.35582163929939, 0.26586428284645, 0.03423887491226, -0.21074253320694, -1.77080655097961, -0.11870998144150, 0.12058363854885, 0.31210809946060, -0.11377348005772, 0.97798407077789, -1.79468321800232, -0.15713354945183, -0.16142314672470, 0.13012753427029, 0.24528063833714, 0.17656074464321, 0.44364911317825, 0.01456048991531, 0.13968168199062, -0.16116420924664, -0.34673011302948, 0.16582407057285, -0.08395671844482, 0.22459734976292, -0.11433190107346, -0.04384028166533, 0.13352765142918, -0.98254990577698, 1.02050054073334, -0.42396938800812, 0.09726240485907, 0.01357001345605, -0.45173797011375, -1.70881319046021, -0.32102149724960, 0.06336069852114, 0.42981669306755, 0.24738137423992, 0.08272456377745, 1.75236546993256, 0.02615574374795, 0.08760762959719, 0.33672836422920, 0.05037397891283, 0.30538168549538, 0.52257299423218, -0.06254498660564, -0.16116791963577, -0.31442436575890, 0.15287421643734, -0.20419037342072, 2.28211641311646, -0.27121526002884, 0.10738714784384, -0.21125602722168, -0.15221087634563, 0.09703712165356, -0.26915770769119, 1.02438712120056, 0.00110689434223, -0.19680652022362, -0.12177643924952, 0.31511539220810, 0.88870108127594, -0.38219875097275, -0.03123155236244, 0.05274784564972, 0.08034422993660, -0.15563064813614, -0.77294570207596, -0.95018362998962, 0.08815747499466, -0.04200407490134, -0.11906240880489, 0.09067288786173, 0.14244019985199, -3.42148375511169, -0.09103792160749, -0.29537147283554, -0.04574935883284, 0.43194955587387, 0.26804476976395, -0.61505150794983, -0.01870444975793, -0.24175827205181, 0.18068836629391, 0.08393751829863, -0.30765900015831, 0.74350023269653, -0.23114548623562, -0.13775978982449, -0.16586704552174, -0.02201661653817, -2.83477759361267, 0.84421730041504, 0.01867825910449, 0.17531061172485, 0.25681921839714, -0.04246003180742, 0.75408422946930, -0.80697995424271, 0.08670210838318, 0.02500897273421, 0.01453856285661, 0.01955987885594, -0.52026718854904, -0.83972340822220, -0.27224513888359, 0.33585917949677, -0.01730516739190, -0.00301039661281, 0.24114708602428, -0.14104795455933, -0.36360859870911, 0.12390574812889, -0.21899011731148, 0.06792773306370, 1.11566579341888, -1.32532930374146, 0.06813388317823, 0.09948863089085, 0.21453168988228, 0.18551507592201, 0.85943722724915, -1.00392043590546, 0.12336386740208, -0.19579280912876, 0.09599167853594, -0.43139153718948, 0.92096948623657, 1.77031850814819, -0.00380240054801, -0.07706411927938, -0.25170367956161, 0.06002455204725, 1.15102910995483, -0.45123255252838, -0.14768867194653, -0.12239973247051, -0.24032615125179, -0.02305623702705, -0.18468302488327, 1.96514153480530, -0.05386722832918, 0.11210896074772, 0.27641725540161, -0.16250167787075, -0.92354023456573, 0.70885217189789, 0.02644639462233, -0.07142551243305, 0.26355299353600, -0.52509403228760, -0.18124878406525, -1.98998391628265, 0.26832029223442, -0.11162115633488, 0.47735637426376, 0.22646442055702, 0.14503648877144, 1.09572255611420, 0.10289470851421, -0.01879992708564, -0.11424585431814, 0.14032171666622, -1.67816352844238, -1.33453261852264, -0.10315995663404, 0.04275645315647, 0.04918074980378, 0.11088100820780, -1.80341672897339, 1.81882977485657, -0.18063145875931, -0.20071837306023, -0.14285963773727, 0.12735702097416, 2.01081037521362, -2.19022655487061, -0.06719760596752, -0.67969697713852, 0.05941260978580, -0.08885944634676, -0.80626511573792, -1.50555574893951, 0.57028025388718, -0.00621759379283, -0.77973204851151, 0.10607410222292, 0.21664254367352, -0.60975837707520, 0.05661876872182, -0.15904395282269, -0.10602694004774, -0.19648280739784, 1.99610233306885, 0.80867427587509, 0.28716909885406, 0.01310636755079, -0.61298221349716, -0.41880324482918, 0.06022763997316, 0.91421735286713, 0.64220774173737, -0.69600832462311, 0.09504488855600, -0.70837509632111, -0.56166833639145, -1.35059571266174, -0.38785904645920, -0.13752983510494, 0.14131088554859, -0.18417701125145, -0.73346805572510, 0.16568225622177, -0.10921220481396, -0.37084880471230, 0.13831187784672, 0.14910933375359, -0.28241339325905, -0.71642673015594, 0.01311742886901, -0.02261943742633, -0.23807902634144, 0.24965779483318, 0.19988940656185, 2.56945466995239, 0.13857130706310, 0.00710983434692, -0.09151975810528, 0.27304744720459, 0.42835196852684, -0.83190184831619, -0.02763283066452, 0.40725764632225, 0.67905902862549, -0.14347635209560, -0.09639631211758, 1.09487891197205, 0.22506617009640, 0.11780416965485, 0.00432323198766, 0.33284181356430, -0.48392423987389, 0.95496559143066, 0.05059005320072, 0.12646368145943, 0.17828451097012, 0.07610617578030, -0.00346629135311, 1.31120228767395, 0.34546878933907, -0.56517350673676, -0.40425071120262, 0.50556671619415, 1.29690790176392, -0.09581746160984, 0.33155676722527, 0.21942868828773, 0.34651312232018, -0.27165514230728, -0.68480181694031, -0.01170541159809, -0.31216177344322, -0.14063382148743, 0.45423930883408, -0.23179081082344, 0.75761359930038, 0.69528812170029, -0.16734054684639, 0.18293103575706, -0.16843456029892, 0.06446333229542, 0.64345103502274, -1.25303483009338, 0.35820147395134, 0.03181456774473, -0.09761355072260, -0.00912508834153, -0.83984506130219, 2.01496982574463, -0.08762229233980, -0.39580330252647, 0.19684349000454, -0.04270146414638, 0.47823062539101, -0.69076627492905, -0.21766418218613, -0.11111367493868, 0.17249341309071, 0.22013486921787, 0.57298237085342, 0.83559244871140, -0.39918428659439, -0.28848251700401, 0.72766858339310, -0.01234295405447, 1.46116542816162, 0.21327722072601, 0.08159010112286, -0.21019871532917, -0.02356834895909, 0.15779517591000, -0.82464045286179, -1.24577009677887, 0.20128378272057, -0.29547703266144, -0.11286129802465, 0.11388713121414, 0.14284658432007, -0.75951570272446, -0.55919808149338, -0.00305395713076, 0.43504977226257, 0.14428305625916, 2.67514705657959, 0.74769175052643, 0.23146644234657, 0.10787166655064, -0.10307382792234, 0.19050914049149, 0.58872032165527, 2.15569257736206, 0.00467745214701, 0.18688315153122, -0.12360167503357, 0.03274697065353, 0.03631490468979, -0.21507240831852, -0.08498938381672, 0.17827266454697, 0.48222789168358, 0.20198838412762, -0.75595688819885, 0.08318376541138, 0.15090288221836, 0.14851929247379, -0.24996867775917, -0.45615062117577, -0.67148888111115, 0.92546451091766, -0.24326731264591, -0.20028649270535, -0.11238370835781, 0.17220008373260, -0.56681114435196, 0.06504575163126, 0.06815209239721, -0.23977617919445, 0.02573409490287, 0.02609751373529, -0.31740960478783, 0.29736888408661, -0.06420528888702, -0.43238627910614, 0.43903401494026, 0.18445037305355, -0.50676310062408, -1.58617269992828, -0.46338728070259, 0.05171206220984, 0.22150638699532, 0.13028106093407, 0.22373215854168, 0.06905300915241, -0.44987848401070, 0.25676038861275, -0.02146199531853, 0.37938645482063, -0.50408512353897, 0.04858627542853, 0.31424373388290, 0.00281744706444, -0.10428358614445, 0.28110110759735, 1.68755960464478, -0.50819158554077, 0.60322707891464, -0.01104096323252, -0.21566425263882, 0.34920796751976, 0.56993162631989, 0.99459069967270, 0.04562651365995, -0.15166601538658, -0.18698225915432, 0.22599484026432, 1.27448809146881, -0.32374760508537, 0.45739245414734, -0.03836641088128, -0.40352693200111, 0.14474213123322, 0.96628963947296, -0.75847393274307, 0.30725738406181, 0.10890927165747, -0.00839689746499, -0.36395323276520, -0.48444491624832, 0.38556572794914, -0.33690002560616, 0.43843543529510, 0.17678874731064, -0.24240463972092, 0.16105972230434, 0.00539432745427, -0.08025152981281, 0.23952521383762, -0.04156204685569, -0.07188601046801, 2.42203021049500, 0.06441190838814, -0.12336521595716, -0.13488721847534, -0.07338105142117, -0.00996501091868, -1.59327185153961, 0.45914158225060, 0.42571648955345, 0.09897883236408, -0.12846300005913, -0.35754701495171, 0.58449012041092, -0.86283677816391, -0.10056758671999, 0.01227649394423, 0.10096355527639, -0.03080898337066, -0.20742978155613, 0.93750208616257, 0.14790576696396, 0.08206648379564, 0.08404865115881, -0.13448341190815, 0.72811323404312, 0.32158687710762, -0.08685234189034, -0.12835739552975, 0.34916430711746, 0.10853063315153, -0.18750341236591, 0.49319419264793, 0.53257733583450, 0.41100722551346, 0.52432191371918, 0.06475578248501, -0.33887425065041, 0.44182059168816, 0.02036600746214, -0.11045583337545, -0.21630476415157, 0.15936638414860, 0.29581251740456, -2.48494744300842, -0.40850141644478, 0.21190279722214, 0.19047942757607, -0.26552996039391, 0.26110368967056, 0.94218081235886, 0.26404702663422, -0.16759103536606, -0.30977344512939, 0.29767793416977, -1.13487660884857, 1.55715441703796, -0.19398957490921, 0.77562803030014, 0.31260165572166, -0.49708035588264, 1.40980327129364, 0.09801109880209, 0.05426952615380, 0.17183943092823, -0.13400717079639, 0.08052340894938, -0.45084547996521, -1.00673270225525, -0.06286363303661, -0.18713095784187, -0.21951431035995, -0.15847074985504, -0.06802614778280, 1.14398837089539, 0.03993622213602, -0.04445214197040, -0.21846637129784, 0.35189524292946, -0.77571058273315, -0.01533532049507, 0.31349086761475, -0.18484766781330, -0.23180417716503, -0.12021382898092, -0.14729323983192, 0.30507776141167, 0.32405906915665, 0.27494359016418, 0.06426492333412, 0.04263056069613, -0.66837912797928, 1.34727871417999, -0.17785523831844, -0.33638924360275, -0.21412953734398, -0.11015207320452, -1.06472980976105, 2.05218291282654, -0.18224750459194, -0.04470283538103, 0.07741457968950, 0.22991208732128, 0.51211196184158, 0.52864980697632, 0.05226822942495, -0.12496536970139, 0.07839471101761, 0.29812651872635, 0.89034229516983, -1.93453049659729, 0.19803507626057, 0.41595542430878, -0.00666615180671, 0.07760521769524, 0.51188224554062, 0.54902309179306, -0.08434458822012, 0.49026870727539, -0.47642743587494, -0.07447268813848, -0.76432430744171, -1.61490309238434, 0.77935260534286, 0.38073000311852, -0.42608481645584, -0.14361256361008, 0.80364996194839, -0.09356092661619, 0.17948986589909, -0.26815527677536, -0.02009502984583, -0.02489476278424, 0.97142720222473, -0.89778840541840, -0.04300884529948, 0.10724469274282, 0.11917584389448, 0.41576820611954, 0.12184098362923, 1.23671030998230, 0.00061987387016, 0.11293708533049, -0.04737785831094, -0.00603966927156, -1.50610673427582, 0.25161865353584, -0.14391273260117, 0.04365437850356, 0.54831528663635, 0.43878838419914, -0.46270164847374, 0.09567766636610, -0.25165933370590, 0.72500354051590, 0.28638362884521, 0.34585446119308, -1.01271355152130, 1.09226691722870, 0.30118519067764, 0.03300861269236, -0.09856935590506, -0.43162715435028, 0.46764463186264, 0.26005417108536, -0.43123456835747, 0.58431035280228, -0.11479309201241, 0.33070439100266, -0.16899667680264, -0.20727173984051, -0.07173871248960, 0.31334826350212, 0.40985694527626, -0.28245514631271, 0.63156062364578, -0.38173407316208, -0.26155239343643, -0.14074641466141, -0.17772801220417, -0.23822034895420, 0.26050478219986, -0.84135830402374, -0.09536049515009, 0.06328447908163, 0.01821940578520, 0.15357528626919, -0.78315550088882, 3.26878261566162, -0.02547018416226, -0.07406106591225, 0.03511129692197, -0.24765819311142, 0.54796850681305, 0.25738310813904, 0.29658266901970, 0.12636682391167, -0.44131281971931, -0.28844720125198, -1.94656431674957, 0.35196098685265, -0.03137764334679, -0.27949112653732, 0.01992509886622, -0.23399919271469, -0.31770578026772, -1.28417527675629, -0.08342126011848, -0.65320664644241, 0.14689566195011, 0.14235246181488, -0.65261572599411, 0.31107690930367, -0.37591150403023, -0.56606531143188, -0.06848840415478, -0.04641879349947, -2.00378966331482, -0.02569581568241, -0.02841272391379, 0.08538959175348, 0.01994960010052, 0.37009209394455, 0.60781234502792, -2.21165633201599, -0.06534811109304, -0.12983265519142, 0.27540224790573, -0.30683007836342, 0.96322387456894, -0.97020387649536, 0.25064656138420, 0.28211221098900, -0.26496142148972, -0.20695608854294, 1.06804549694061, -1.55078303813934, -0.60189205408096, 0.10069537907839, 0.39748001098633, 0.10960350185633, -0.61008638143539, -0.34917789697647, 0.38687711954117, -0.09132447838783, 