//Numpy array shape (23296,)
//Min -8.462546348572
//Max 2.941949129105
//Number of zeros 0

#ifndef IN_PROJ_WEIGHT13_H_
#define IN_PROJ_WEIGHT13_H_

#ifndef __SYNTHESIS__
layers_0_ffn_in_proj_weight_t in_proj_weight13[23296];
#else
layers_0_ffn_in_proj_weight_t in_proj_weight13[23296] = {0.3118911087513, -0.4823328852654, 0.2654303908348, -0.2742797434330, -0.4958655536175, -0.0244188886136, -0.3096360564232, 0.3845437765121, 0.1346755772829, 0.5257658362389, 0.2645320892334, 0.1099808663130, -1.5206879377365, -0.0737158209085, 0.3919230103493, 0.1956555694342, -1.1950494050980, 0.2498424202204, -0.5268531441689, 1.8844380378723, 0.7851134538651, 0.4670011997223, -0.2257072329521, 1.3587895631790, 0.2818854749203, -0.6127080917358, -1.0534582138062, 0.2170045077801, 0.0846079066396, 0.9501149058342, 0.4544018805027, -0.7774613499641, 0.4935949742794, -0.2968207001686, 1.6740067005157, -1.1679277420044, 0.6127640008926, -0.0587070249021, 0.9941716790199, -0.2261959165335, 0.0549232326448, 1.3314379453659, 0.5495200157166, 0.0617206804454, 0.0881283953786, -0.4331067800522, -0.9072796106339, -0.7186198234558, 0.0567804463208, 0.0898226723075, -0.1026515886188, -0.1292986273766, 0.1099391058087, 0.3320284485817, 0.0728187710047, -0.7243221998215, 0.5570495724678, 0.3460767865181, -0.4627773761749, -0.2640885710716, 0.2231557816267, -0.7328538894653, -0.3630676865578, 0.1716596037149, -0.4366761147976, -0.9293771386147, -0.3711120486259, -0.1487767696381, -1.0245710611343, 0.3975751996040, -0.2011767327785, 0.9807112216949, -1.4319313764572, 0.7857636213303, 0.1643966138363, -0.4211023747921, -0.6293901205063, -0.1481288522482, -0.5461324453354, 0.0830443874002, -0.5936149358749, 0.2722094953060, -0.6424011588097, -0.1930103152990, -0.6670334339142, -0.1202238872647, -0.1352898329496, -1.2255249023438, 0.0992632284760, -0.3235684037209, -0.1877615451813, -0.1129416823387, 0.7055150866508, 1.2706696987152, -0.7818289995193, -0.6218326091766, 0.0214059893042, -0.1192332431674, -1.5058569908142, -0.1303103119135, 0.2111365497112, -1.2941070795059, -0.8648872971535, -0.4755575358868, -0.3090271949768, -1.1247152090073, -0.2500323057175, -0.1552653014660, -1.0645966529846, -0.0260906461626, 0.2279555052519, 0.4762452244759, -0.1390026807785, -0.7961573004723, -0.9997161626816, 1.2735576629639, 0.6004196405411, -0.2437967509031, 0.5732192993164, -0.0954082235694, -1.2399529218674, -0.7044462561607, 0.0012730029412, -0.5238742828369, 0.4233600199223, -0.0523064397275, -0.2693677246571, -0.6816158294678, 1.3411184549332, -0.4305970072746, -0.4612267911434, -1.0074982643127, -0.8184081912041, 0.3170050084591, -1.0775141716003, -0.2871944010258, 0.5965420603752, 0.2990150749683, -0.0399162471294, 1.1422246694565, 0.2311661541462, -0.1373223066330, 0.2312901467085, -0.2907608151436, 0.2797397971153, -1.2416374683380, -0.6466603875160, -0.6685014963150, 0.7724133729935, 0.4261358678341, -0.1550016105175, -0.7489214539528, -0.4975578486919, 1.0721390247345, -0.2790073156357, -0.2303544133902, -0.8905709981918, -0.9592404365540, 0.4255812466145, -0.9408602714539, -0.2935659885406, 0.0341118276119, -0.7100581526756, 0.9816086888313, 0.6255742907524, -0.0468133054674, 0.2219849824905, -0.4029296636581, -0.9413272738457, 0.5538609027863, -0.8510296940804, -0.1311862170696, 0.2679355442524, -0.0530424006283, -0.8506377935410, 1.0678074359894, 0.7337060570717, -0.1344577074051, -1.0382016897202, -0.2628365755081, -0.1485271155834, -0.0116889476776, 0.5842615365982, 1.0834963321686, 0.6676729917526, -0.3405522704124, 0.0857550203800, -0.7335302233696, 1.0425022840500, -0.6894597411156, 1.1774936914444, -0.2678501605988, 0.8170788288116, -0.8478572368622, 0.9847134351730, 0.4735409915447, -0.2771287858486, -0.9901309013367, -1.1676622629166, 0.3636720776558, -0.7828421592712, 0.9553695321083, 0.2139132469893, 1.5435782670975, -0.7633708119392, 0.3754240870476, 0.0470561049879, 0.2147864550352, 0.4197970628738, 0.3396853804588, -1.1236407756805, -0.3252432048321, 0.9038411974907, -0.0207629334182, -1.5777748823166, 0.0337167307734, -0.5229192376137, -0.2860228121281, -0.5321868062019, -0.8618831634521, -0.7532383203506, 0.7130343914032, -0.2574324607849, -0.7853644490242, 0.6631569266319, 0.1825002729893, -0.9136152267456, -0.5226017832756, 0.1298419684172, 1.5711565017700, 0.0829521641135, -0.0051645878702, -0.4827088117599, 1.4643995761871, -0.8606025576591, -0.4571368694305, -0.2432964891195, -0.3746988773346, -0.0776693075895, 0.0422099120915, 0.8136525750160, 0.6758830547333, -0.5131682157516, 0.3729873001575, 0.0670771747828, -0.4084854424000, 1.0401872396469, -0.2007058113813, 0.9968986511230, 1.2753950357437, 0.3559200167656, -0.3525192737579, 0.9883406758308, 0.3686137497425, -0.2456386089325, 0.4844994544983, 0.7795301079750, -0.0160709302872, -0.0720565393567, -0.1094112172723, -0.6149517297745, 0.3227054178715, -0.1817208081484, 0.6063770055771, -1.7241963148117, -0.9271164536476, 0.4846092462540, -0.6199150085449, 0.0679717734456, 0.3045300841331, 0.2183627188206, -0.4890587329865, -0.7915975451469, -1.2278349399567, -0.9182619452477, 0.2105080336332, 0.1891809403896, 0.6187733411789, 0.2803129851818, 0.1258644014597, 0.2959992587566, -0.2804412245750, 0.6696325540543, 0.3308914005756, -0.8765476346016, -1.1758522987366, 0.4783852398396, 0.6659768223763, 0.2904262244701, -1.1221556663513, -0.1490962207317, 0.4771567285061, 0.0877374857664, -0.2595138847828, -0.0133677152917, 0.6993029713631, 0.2561987340450, -0.4243862330914, -0.8968000411987, 0.2075515687466, 1.0416966676712, 0.2425022572279, -0.9730455875397, 0.2111718058586, 0.3164632022381, -0.1914567500353, -0.5624061822891, 0.3154616951942, 0.1030373647809, 0.2677528560162, 0.7970024347305, 0.4289289116859, 1.0191780328751, 0.2236847877502, 1.1948924064636, -1.1138657331467, -1.6500806808472, -0.4304871857166, 1.0287210941315, 0.6967235803604, -0.0885965004563, 0.2076763510704, -0.2276680916548, 0.7928279042244, 0.7023588418961, -0.9943142533302, -0.3090435564518, 0.5906068682671, -1.0006692409515, -0.6937182545662, -0.3352436721325, 0.9851242303848, -1.1606838703156, -0.6489500403404, 0.9159221053123, 0.3456283509731, -1.4571735858917, 0.5687766075134, -0.3981064856052, -0.2479764372110, 0.0745256021619, -0.2226952016354, 1.6481810808182, -0.1751717776060, 0.4263144433498, 0.1221366077662, 0.4861217439175, 0.0846540704370, 0.7849828600883, 0.2131880521774, 0.1708252280951, -0.5196974277496, -0.1705777347088, -0.2769966423512, -0.9093469977379, -0.2169701606035, -0.3411406576633, 1.5106561183929, -0.7709532976151, 0.9196034073830, -0.1792433112860, -0.2297663390636, -0.1059181168675, -1.2220189571381, 0.8454432487488, 0.2655199170113, 0.2718169689178, -0.7694141864777, 0.2455381751060, -1.3316284418106, 0.0367066673934, -0.2964760363102, 0.6390628218651, 0.1611759215593, 0.0811599716544, -0.7617588043213, 0.5345837473869, 1.2861362695694, -1.0769102573395, 0.5767774581909, 0.8193905353546, 0.1096401065588, -1.6779882907867, 0.6356586813927, -0.2065941840410, -0.2826488614082, -1.4459056854248, 0.0570558458567, -0.2452067881823, -0.1470440477133, -0.1961126476526, 0.1316044330597, -1.0754996538162, -1.2288283109665, 0.0678613185883, 0.2471867650747, -0.3810858428478, -0.9863582253456, 0.0327243730426, 0.1727364659309, 0.1402259618044, -0.8038691878319, 0.2157233953476, 0.3657346069813, -0.6774954795837, -0.7728193998337, -0.2859109938145, -0.5677552819252, -1.2080059051514, -0.2239176034927, -1.1050162315369, -1.1122815608978, 0.3767619132996, -1.4335222244263, -0.6307534575462, 0.0334810577333, -1.4047728776932, -0.2020591050386, 0.1733313500881, -0.6874010562897, -0.8570387959480, -1.0274676084518, 0.2167031615973, 0.4872670173645, -0.1691889613867, -0.2436438649893, 0.0759022757411, -1.6556037664413, -1.0479631423950, -0.9769701957703, 0.3942683935165, 0.2971744537354, -0.3570243418217, -0.2514157891273, 0.2891314327717, -0.8741407990456, -0.1383318156004, -1.1378153562546, -0.9543928503990, 0.2696146368980, -0.5203413367271, -0.1171776205301, -1.0087157487869, -0.3010156452656, 0.1536530107260, -0.9311193823814, -0.2163113951683, -1.2634134292603, 1.0147871971130, -1.3409645557404, -0.9116414189339, -0.7818049192429, -1.3552972078323, -1.2288137674332, 0.3891534209251, -1.5300387144089, -0.3347730040550, 0.1059311777353, -0.1110801026225, 0.2442041635513, -1.7843818664551, -0.1520054340363, -0.6440732479095, 0.6263309717178, 0.0037835100666, -0.0696525871754, -1.2617506980896, -1.4856449365616, 0.0959444791079, -0.5228202939034, 0.1156797185540, -0.7592818140984, -1.2698057889938, -0.0901906341314, -0.8868438601494, -0.0830807536840, 0.1366960555315, -1.1299409866333, 0.2304179519415, 0.3493264317513, 0.1066801548004, -0.0883100926876, -1.0139055252075, -1.1857792139053, -0.5689257979393, -0.0865828469396, -0.2950860261917, 0.1001473441720, -1.0553898811340, -1.2778761386871, -1.8139957189560, -1.0221514701843, -1.1241036653519, 0.2552959024906, -1.2433255910873, -1.8100277185440, -0.3604313135147, -0.1725204735994, -1.4332797527313, 0.0299278050661, -1.0542618036270, -0.1830791682005, 0.2154953330755, -0.1187022477388, -0.2823685705662, 0.2036362141371, -0.1676980406046, 0.2528536319733, -0.1772588938475, 1.2087639570236, 0.3067134022713, -0.9818180203438, -0.3878003358841, 0.3304938673973, 0.3384127914906, -0.9293740987778, 0.6198036074638, 0.3377845883369, 0.1914807856083, 1.1248342990875, -0.1915345042944, -1.0224843025208, 0.4676411747932, 0.0118538709357, -0.2655532956123, -0.0343805216253, 0.1908072233200, -0.1393593847752, 0.0293136201799, -0.1287775486708, -0.0461921766400, 0.0358563214540, -0.3130428791046, -0.3201427459717, -0.2655665278435, -0.5084698200226, 0.2506092786789, -1.0412225723267, -0.8322043418884, 0.0489856265485, 0.0291969235986, -1.5429892539978, 0.3183434307575, 0.6971840858459, 0.1613742113113, -1.7663767337799, 0.8491341471672, -0.8917855024338, 0.0573299601674, -0.6960808634758, -1.2373362779617, 0.0196714792401, 0.4708724021912, 0.2427558004856, 1.2490670681000, 0.5060352683067, 1.4386230707169, -0.2915648519993, 0.9739859104156, -1.0718280076981, -1.5919811725616, -1.3783074617386, -0.3908158838749, 0.2657108306885, 0.0502184368670, 0.4618353843689, -0.2850689589977, 0.4547795653343, -0.5219214558601, 0.2568497359753, 1.2751255035400, 0.0720668956637, -0.4154295027256, 0.2324156165123, -0.0837146490812, 0.3492156565189, -0.8726104497910, -0.6284678578377, 0.4410995841026, -0.6284009814262, 0.0589640140533, -0.3073345422745, -0.2373872846365, -0.4041949212551, -0.3326494693756, -0.6849259734154, 0.0276188179851, -0.5006282329559, 0.8051904439926, 0.3909475505352, -0.1771622151136, 0.3830053210258, 1.3960598707199, 0.3907146155834, -1.0573520660400, 0.4851219058037, 0.2616806030273, 0.6807804107666, 0.2882165014744, 1.0950515270233, -0.1940839737654, -0.2144589722157, 0.2047803103924, 0.7389882802963, 1.4871726036072, 1.3956943750381, -0.1865241378546, 0.3999730646610, -0.2975168824196, -0.3985137641430, 1.0589358806610, 0.4673986136913, 0.6859964132309, 1.2300928831100, 0.5739104151726, 0.0233538076282, -0.6329930424690, 1.2198131084442, 0.4601534307003, -0.0131838265806, 0.0937309488654, 0.0559947155416, -0.0721457600594, -0.9214043617249, 0.6369494795799, -0.5072429776192, -0.7148466706276, 0.4038684368134, 0.2142085880041, 0.1513462662697, 0.1394834667444, -0.5448261499405, -1.2399089336395, 0.1039884611964, 0.0018245390384, -0.7472942471504, 0.3903277218342, 0.0854292511940, 1.1189056634903, 0.0283899195492, -0.6563794612885, 0.6175630688667, 0.2188355773687, -0.4806800186634, 0.2486430257559, 0.2758773267269, 1.2085179090500, -0.9681441187859, 1.8689134120941, 1.0681023597717, 0.0167546011508, 1.0096334218979, -0.3360977172852, 0.0479656346142, 0.1049933806062, -0.6860991716385, 0.4743984043598, -0.2863795459270, -0.1479994058609, -0.5207375288010, -0.4569561183453, 0.5263733863831, 0.2832191884518, 0.5863566994667, -0.5154692530632, -0.2975175678730, 0.4116120040417, 0.3144261837006, 0.6921142339706, -0.2906801700592, 0.3486332595348, -0.1511519402266, -0.0388061292470, 0.5983717441559, -0.4492633640766, 0.0967390686274, 0.0905169248581, 0.5486915707588, 1.3564791679382, -0.3880367875099, -0.8307813405991, -0.5378811955452, -0.0988921001554, 0.1858279407024, -0.8759099841118, -1.0233089923859, -0.5447146296501, 0.8687146902084, -0.6973520517349, 0.6668273210526, -0.3310199677944, 0.5356745123863, -0.0795750394464, 0.2585311233997, 0.0271166879684, 0.1304691284895, 0.0834313854575, 0.3843981921673, -0.8607698082924, -1.1322580575943, -0.6021460294724, 0.4523834288120, 1.3142287731171, -0.2415503710508, 0.6865253448486, 0.2647332251072, -0.6427272558212, 1.1321412324905, -1.1261163949966, 0.2732404470444, -0.8341737985611, -0.4541645646095, 0.4667424559593, 1.0317304134369, 0.1495846658945, 0.3182254433632, -1.5069315433502, 0.2803742587566, -0.5432353615761, -0.8472934961319, 0.4805817008018, 0.1118400692940, 0.8830670714378, -0.0185199100524, 0.1374289542437, 0.8875029683113, 1.7558789253235, 0.2451604604721, 0.7539634704590, -0.3687922954559, 0.7929392457008, 1.1558331251144, 0.4883046448231, -1.3655276298523, -0.1767234355211, 0.1929790526628, -0.3351555466652, 0.0612671114504, 1.2305634021759, -0.7065501809120, -0.4393089413643, -1.2018406391144, -0.2051370739937, -0.5469104647636, 0.3044294714928, -0.9017602205276, 0.6349937915802, 1.1658935546875, -0.1216557770967, -0.2223406881094, 0.1723517477512, -0.5063384175301, -0.8968214392662, -0.9302185773849, 0.2788296937943, 1.2239553928375, 0.2952422499657, -0.0338715836406, 0.2323776483536, -0.5547592639923, 2.1574602127075, -0.8873605728149, 0.5576823353767, 0.5648819804192, 0.4284112751484, -0.0236573126167, -0.2962427139282, -1.3627235889435, -1.2621345520020, -1.0429426431656, 0.7383474707603, -1.6298056840897, 0.6518772244453, -0.3589715957642, 0.7091987729073, -1.3061861991882, -0.6632768511772, 0.6691608428955, -0.0607906207442, -0.8923207521439, 0.3914535045624, 0.3573611676693, -0.2786093652248, -1.5653123855591, -1.0993561744690, -1.1234475374222, -1.2219469547272, -1.8219029903412, 0.1257062256336, -0.4459611773491, 0.0848858952522, -0.4087096154690, 0.3985528349876, -0.5751101970673, 0.3706707656384, 0.2414754927158, 0.6649146080017, 0.4569949209690, -0.8168751001358, 0.0743617713451, 0.0579881817102, -0.2159645408392, -0.8267782926559, 0.3715069591999, -0.2619806826115, 0.0579563528299, -0.6149254441261, -0.5876625776291, 0.5021567940712, -0.6103365421295, 0.0087116593495, 0.0983167514205, 0.0447635576129, 0.7839482426643, -1.6514669656754, -0.1587302982807, -1.0263921022415, -0.6815323829651, -1.1080321073532, 0.1404081583023, -0.2163509130478, 0.2490336894989, 0.5613104701042, -1.4356673955917, -0.5447241067886, -0.0610283948481, 0.1747930049896, -1.1000260114670, -1.6350330114365, 0.4366636872292, -0.8987000584602, 0.4382716715336, -1.0270502567291, -0.1290082633495, 0.4937967658043, 0.4098078012466, 0.3649262785912, -0.0866415873170, -0.8572375774384, 0.6702857017517, 0.3746308982372, -1.1239155530930, -0.8632198572159, -1.3135474920273, 0.3019461929798, -1.1420944929123, -0.0301911570132, -0.7334174513817, -0.5816714167595, -0.4718512594700, -0.7553802132607, 0.3088964521885, -0.4834395349026, -1.1320954561234, 0.0082545196638, 0.2046827375889, -1.4550820589066, -0.3701656162739, 0.4778597950935, -0.8810486793518, -2.0413429737091, 0.3984336555004, -0.5893150568008, -0.8894516229630, 0.2469943314791, -0.3268763124943, 0.2486877441406, -0.8354489207268, -1.9706224203110, 0.1257092803717, -1.7179596424103, -1.3218185901642, 0.4912153184414, 0.3064952492714, 0.4629101753235, 0.1617238074541, 0.4767316877842, -0.3597867786884, 0.1688017100096, 0.1946384012699, 0.2425766885281, -0.9478947520256, 0.5576910972595, -0.6703495383263, -0.5877209901810, 0.1233577877283, -1.3395073413849, -0.6937399506569, 0.1594157218933, -0.2818379700184, 0.3545137643814, -1.1063842773438, -1.7592799663544, -2.2672462463379, -0.8967301845551, 0.4130681157112, 0.3401222527027, 1.0586484670639, -1.1816860437393, 0.1000821813941, 1.2827372550964, 0.1722430884838, -0.0034558468033, 0.5591359138489, 1.4463664293289, -0.0705994144082, -0.1017426624894, 0.9537466764450, -0.0141873359680, -0.6305788755417, 0.3372395038605, 0.8395826816559, 1.3051017522812, 0.7680503726006, 0.4563280344009, 1.1668694019318, -0.1305619776249, 0.0431713759899, -0.1450730562210, 0.5484234094620, -0.6331421136856, 0.8388428092003, -0.5376245379448, -0.5966572761536, 1.6113494634628, -0.9182004928589, 0.5395337343216, 0.2639833688736, -0.7196824550629, 0.4741387069225, 0.7151136398315, 0.1116013899446, -0.1418224871159, -0.2838577330112, 1.1724900007248, -0.0747701749206, -0.3763929009438, 0.3423965275288, 1.1950781345367, -0.7604775428772, -1.2982096672058, -0.4818229377270, 0.6953114271164, 1.1153088808060, -0.8185407519341, -0.3191216289997, 0.5015410184860, -0.2476241737604, 0.0904086083174, -0.6986922025681, -0.4235602021217, 0.2470250427723, 0.7696344852448, -0.2789767682552, -0.6533928513527, 1.0279855728149, 0.6589177250862, -0.6562326550484, 0.1916126608849, -0.5500243902206, 0.7004739046097, -0.3811508417130, -0.4349265992641, -0.4326299428940, -0.6785157918930, -0.3477169275284, 0.8029075264931, -0.9559034109116, 0.9527152180672, 0.3009685277939, 0.9037196636200, 1.0451760292053, -0.4948756992817, -0.0464884042740, -0.2608774900436, 0.6079686284065, -0.1206238493323, 0.0742261037230, -0.1432883441448, -0.6145942807198, 0.4096044898033, 0.0939478278160, 0.1321575194597, 0.3793343603611, 0.7786803245544, 0.5805849432945, -0.4580292403698, 0.5970911383629, 0.6735101938248, -0.6124278903008, -0.0377400182188, -0.0901332572103, 0.6064705252647, 0.4611715078354, -0.2415062189102, 0.6483201980591, 1.0095709562302, 0.7104567885399, 0.4910890758038, 1.3535518646240, -0.6011075377464, -0.3186212182045, -0.9629572033882, -0.3251774013042, -0.6497765183449, -0.2268604338169, -1.0514558553696, -0.3059693574905, 0.1100378856063, 1.1590197086334, -0.7957737445831, 1.0131891965866, 0.5029544830322, -0.2941351830959, 0.1769709289074, 2.0647072792053, 1.0841330289841, 0.7768441438675, 0.8063803315163, 1.3085471391678, 0.3963379859924, 1.6066691875458, 0.8530328869820, -0.6126418113708, -0.5851828455925, 0.0252532195300, -0.0608514659107, 1.3251090049744, -0.2101081609726, 0.0676776543260, -0.2375128269196, 0.9655271768570, -0.5165113806725, 0.2515555918217, 0.0666596293449, -0.0393698960543, 0.6215139627457, 0.2504780590534, 0.1995124220848, -0.2632026970387, 0.5498281717300, 0.6800327301025, -0.0246391054243, 0.6764824986458, 0.0943024829030, 0.4213663041592, 0.3337183296680, -0.1388494819403, -0.0786004811525, 1.0040212869644, 0.0744396895170, 0.3948956429958, 0.9750523567200, -0.3970766961575, 0.4150844514370, 0.6264439821243, 0.6938015818596, -0.3169260621071, -0.0374008379877, 0.1439956873655, 0.5645365715027, -1.1145113706589, 2.0384533405304, -0.1172277852893, 0.6804956197739, 0.7359430789948, 0.4937068820000, 0.5007188916206, 0.5708799362183, 0.1388837844133, 1.6846390962601, 0.3126249909401, 0.2077772468328, -1.0218589305878, -0.1636731177568, 0.3687810301781, 0.1687425971031, -0.0394865572453, 0.3133697807789, -0.1639650911093, 0.5330496430397, 0.4686254262924, 1.0282870531082, -0.4261719286442, -0.6524667143822, 0.3322324156761, -0.0871349424124, 0.5502712726593, 0.0843565613031, 0.1333672106266, -0.1920362561941, 0.1795157939196, 0.4983277618885, -1.4363223314285, 0.6123900413513, 0.5145872831345, 1.0357118844986, 0.2121398746967, 0.3589436709881, 0.6059019565582, -1.1084132194519, -0.2598567008972, -0.2147771120071, -1.0330154895782, -0.3577086031437, 0.4255647659302, 0.5484684705734, 0.2762617766857, 1.1601991653442, -0.5047132968903, 1.0385396480560, 1.0428099632263, 0.5468009114265, 0.0839919820428, 0.1166678816080, 1.1770335435867, 0.9213464260101, 0.6200444698334, -0.0874162465334, -0.3042996525764, 0.8402436375618, -0.0631491914392, 0.7069782614708, -0.3119252622128, -0.9137108325958, 0.1558196097612, -0.3567782342434, 0.4588232040405, -0.2395496815443, -0.2312521636486, 0.6553503870964, -0.8056390285492, 0.5902137756348, 0.1881203651428, 0.3123827874660, 0.4072920978069, 1.6058059930801, 1.6886159181595, 1.2334066629410, 1.1545718908310, -0.3961747288704, 0.8627260327339, -0.7405791282654, 0.3731086552143, 0.7973517179489, -1.1694653034210, 0.7155693769455, 1.3318834304810, 0.4258128404617, 0.0317921265960, 0.1040277555585, 0.2087122052908, -1.0512366294861, -0.3637883067131, -0.0119677996263, -0.5137476921082, -0.4941269755363, 0.2271461933851, 0.1742741316557, -0.9823029041290, -0.6329596042633, -0.2407456338406, 0.2591907978058, 0.0561641231179, -0.2968191504478, 0.0774380341172, 0.1360934525728, -0.5638671517372, 0.3145672976971, -0.1938847005367, 0.9865526556969, -0.5145472288132, 0.4159467816353, -0.3668791651726, 0.1263091117144, 0.0271405857056, -1.0456520318985, 0.2733927071095, 0.2400811463594, 0.1809733361006, 0.7413691878319, -0.9557058215141, -0.1562941223383, 0.6219652295113, -0.1473928987980, 0.1993260979652, -0.0170705989003, 1.3123785257339, 0.0210239626467, 0.1150136068463, -0.6526295542717, 0.0869250297546, 0.7779284119606, -1.1830227375031, -0.8227096199989, 0.3139257729053, 0.9952503442764, -0.1874444633722, 0.4843548536301, -1.4581241607666, -0.1451238691807, -0.6817709207535, 0.9717744588852, -0.4710396528244, 0.3174417316914, 0.4007695615292, -0.9134613275528, -1.8668689727783, -0.0699305012822, 0.3555103242397, 1.3994941711426, 0.6094439029694, 0.8701586723328, 0.9177415370941, -0.6099603176117, -0.1597867906094, -0.4706101715565, -0.7411444783211, -0.7004888057709, -0.1340801417828, -0.9005439877510, -0.0521767251194, 0.4678676128387, 0.4948822855949, 0.1460140943527, -0.5123293399811, -0.0931572914124, 0.6176862716675, -0.9470286965370, 0.5085203051567, -0.8490874767303, -1.0381543636322, -0.0524379350245, -0.1297094970942, 1.0376743078232, -0.0953530222178, -0.3243323564529, 0.9107704758644, -1.3547394275665, -1.1369637250900, -0.2741517722607, 0.9060043096542, 0.4817788600922, -0.4255233407021, -1.3603571653366, 0.4379997253418, -0.0788926929235, -0.5071939826012, -1.0201120376587, 0.3389710783958, -0.1314048767090, 1.3652539253235, 0.1987441182137, -0.8522455096245, -1.0903477668762, -0.6957705616951, 0.4693546593189, 1.5873639583588, 0.3883926868439, 0.9618263244629, -0.6557375788689, -0.0868919491768, 0.0595641024411, 0.0746650844812, -0.5854038000107, 0.1543378382921, 0.3150580227375, 0.4730646312237, -0.7201461791992, -0.2117926627398, -0.3870253562927, -0.0737808272243, -0.2692532539368, 0.7696858048439, -0.0883875563741, -0.2205643504858, 0.4530545771122, 0.2531825900078, 0.3151166141033, 1.2483975887299, -0.4238339066505, 0.1369190961123, -0.1910147815943, -0.6065716147423, -0.4752760231495, 1.0751321315765, -0.3560840785503, 0.1507412195206, -0.6344527602196, 0.7533669471741, 0.5113207697868, 0.7337931394577, -0.3269219994545, 0.3151821792126, 0.8764734268188, -0.8945263028145, -0.9368947148323, 0.0532189533114, -0.2903307974339, 0.5234062671661, -0.5044617652893, 0.3653779327869, -0.2141572386026, 0.2833724617958, -0.5563949942589, -0.1565929800272, 0.2267933487892, 0.0556744709611, 0.1164604276419, 0.5710321068764, 0.2560176849365, 1.3047238588333, 0.3848137259483, -0.0168083887547, 1.0412869453430, -0.1911221146584, 0.4370810389519, -0.5301932692528, -0.5679893493652, -0.7102651596069, -0.5603033304214, 0.0553834028542, 1.8372942209244, 0.4270382225513, 0.4311284124851, 0.0241702403873, -1.0779312849045, 0.4221617877483, 0.8417141437531, -0.6386020779610, 0.1172942221165, 0.7312487959862, 0.0891321152449, 1.0510238409042, -1.1363432407379, 0.9153066873550, 0.3227578997612, 0.1565213650465, 0.5176977515221, 0.0342334322631, -0.2365107238293, 0.7574588656425, -0.1126953735948, 0.1793825328350, -0.2184377759695, -0.2061723768711, -0.4355701804161, 0.1688176244497, -0.8938146233559, -0.2023242115974, -0.6728215813637, -0.1232347413898, 0.3674912750721, 0.1813238412142, -0.2262216359377, 0.4827486872673, -1.3747097253799, 0.3487116396427, 0.0507569387555, -0.5773278474808, -0.4259055256844, 0.9151290059090, 0.2255575358868, 0.0831237882376, 0.2581252157688, 0.4679445624352, -1.7270783185959, 0.7694999575615, 0.2431414425373, 1.1720992326736, -0.1391650289297, 0.1351442337036, -0.3203440010548, -1.4445158243179, 0.0456343553960, -0.5487416982651, 0.3110447824001, -0.0556876137853, -1.4431786537170, -0.1687119007111, -0.5255456566811, -0.7454345822334, 0.7492722272873, -0.1675823777914, 0.5148290395737, 0.7485584020615, 0.2546337246895, -0.6025004386902, 0.1733977049589, -0.2638952434063, 0.7038453221321, 0.3365645408630, 0.7463929653168, -1.1948382854462, 0.5080749392509, -1.3793120384216, 0.3857876956463, -0.3278086483479, -0.6539043784142, -0.6140124201775, 0.1613957732916, -0.5483625531197, -1.0611827373505, -0.6264640092850, -0.2468086034060, 0.2348911166191, -0.9102290272713, -0.1759367287159, -1.0428135395050, -0.1069565117359, -0.3070883154869, -0.3790860474110, -0.4459882080555, 0.7083928585052, -0.6579945683479, -0.4140968918800, -0.5042768120766, -0.7836992740631, 0.3673694133759, -1.3618130683899, -0.4269263744354, 0.0390930511057, 0.6440103650093, 0.2855368256569, -0.4869081079960, -0.5796286463737, -0.5596293807030, -0.5896061062813, 1.4220216274261, 0.1831768155098, -0.1792257130146, -0.6659535169601, -0.8624699711800, 0.6795213818550, -0.2220681309700, 0.3224436938763, -0.3757862150669, 0.3549051284790, 0.1781021356583, -0.3123880028725, 0.3766954839230, -0.4443303346634, -0.0702244713902, -0.3118278682232, 0.4694976210594, -0.0258025377989, -0.4795056879520, -0.2561640143394, -0.0695955976844, 0.4756605923176, -0.2077146023512, 0.0004282839946, 1.5875734090805, 0.1402043551207, -0.7031391859055, 1.6639406681061, 0.1552621871233, -0.2246885150671, -0.1470391303301, -0.4721689820290, 0.2260352522135, 0.5578490495682, 0.0160656627268, -0.4778742194176, 0.0004934563767, -0.1424243897200, -0.5242102146149, 0.1633460074663, -0.6618906259537, -0.6953320503235, 0.9540048241615, -0.1237756982446, -0.5513799190521, -0.4977269768715, -0.7077909708023, -0.6233493089676, -0.3377618491650, 0.1787888854742, 0.2519353628159, 1.1557655334473, -0.5962156057358, -0.5869648456573, -0.1354544311762, 0.2661297917366, -0.8803786635399, -2.2987377643585, 0.6869496107101, 0.2860738337040, 0.4679364860058, 0.8577368855476, 0.3660651147366, 1.1047333478928, 0.2750034630299, -1.0754084587097, -0.6041800975800, 0.0597082152963, -0.1962172985077, 0.6134952306747, 1.0889335870743, 0.0378388576210, -1.0210514068604, -0.1676970124245, 0.6347044110298, -0.7659328579903, 0.3825034499168, 0.0308044217527, -0.9035684466362, 0.3727139234543, -0.6986740827560, -0.7316588163376, -1.9743450880051, 0.1916808187962, -0.4598802626133, 1.3119646310806, -0.6554704308510, -0.5768265128136, -2.0968358516693, -0.0405721105635, 0.2912795245647, 0.3977370858192, 0.2849887907505, -0.1315749585629, -0.4392003715038, 0.9094739556313, 0.0771093368530, -0.7754023075104, -0.5510179996490, 0.2776530981064, 0.9400303363800, -0.9808374047279, -0.0114293843508, -0.8348662853241, -0.7995429635048, 0.0364125631750, 0.0515166819096, 0.4089746475220, 0.1722213923931, 0.5121318697929, -0.2623266875744, 0.5539807677269, -0.0265644118190, -0.0537461452186, 0.0583696775138, 0.9548683762550, -0.1902751922607, 0.2057115435600, -0.0203064773232, -0.3088120818138, 1.0850630998611, 0.1170261353254, -0.1416482180357, 0.4656881988049, 0.5680680274963, 0.0838229358196, 0.7275280356407, 0.7859066724777, -0.6511753201485, -0.3416578471661, 0.6477934718132, 1.5317786931992, 1.2125093936920, -1.0255037546158, -0.8884071707726, -0.3497023284435, -1.2019568681717, -1.2488898038864, 0.8050473928452, -0.8273388743401, -0.1271812170744, -0.2393207401037, 1.2609229087830, -1.0845140218735, -0.5448464155197, -0.1582989692688, -0.4337091743946, 0.5267378091812, 0.3828210830688, 0.3378374278545, 0.3700982034206, 0.4676267802715, 0.9987427592278, -0.0867941677570, -1.1915707588196, -0.0182573497295, 0.4130328297615, 1.3776497840881, -0.5884549021721, -1.1491264104843, 0.1260943710804, 0.8171004056931, 1.2568455934525, 0.0749694555998, -0.0265836995095, 0.3603841662407, -0.2357160151005, 0.5799013376236, -0.3983374536037, -0.0737142711878, 1.0674169063568, -0.0854350626469, 0.5717473626137, -0.5912115573883, 0.0565837770700, 0.8727724552155, -0.2034679055214, -0.5895628333092, -0.5385787487030, -0.7208577990532, 0.6192213892937, -0.2776896059513, -0.0141468485817, 0.6664057970047, 1.0581270456314, 0.3588157892227, -0.3180566728115, 0.2637286484241, 0.8730289340019, -0.3625376224518, 0.6399465799332, -0.6446369886398, 0.0701112672687, -0.2137679755688, 1.0995899438858, -0.1748221665621, 0.7966940999031, -0.2084404528141, -0.5649398565292, 0.8646457791328, 0.0825173184276, 0.2297616899014, -0.2556004226208, -0.0072967754677, -0.8167124390602, -0.6172862052917, 0.6422216296196, -0.2135663330555, 0.5463504791260, 0.6722412109375, 0.0993708521128, 0.6701902151108, 0.3322866857052, 1.6145176887512, 0.1124541163445, -1.0548113584518, -0.9207581877708, -0.1188536509871, 0.2080936580896, -0.3129777014256, -0.6291969418526, 0.6761205196381, -0.2629604339600, 1.4890553951263, 0.0309461876750, 0.5999920964241, -0.5451756119728, 0.7849372625351, -1.1168173551559, 0.5099493265152, 0.0212347786874, 0.3308753669262, 0.5902237296104, 0.1272879689932, 0.0770887508988, -1.7579127550125, 0.5978873372078, -0.1869410723448, -0.3556459546089, 0.0736707299948, -0.1907717138529, 0.2899248898029, -0.3256875276566, -0.3567826449871, 0.0791867151856, -0.3276492357254, 0.1396034210920, 1.5732660293579, -0.1219497099519, -0.0059232786298, 0.3834123611450, 0.5175121426582, 0.1556256413460, 0.1173043623567, -0.2665707767010, 0.7075189352036, -0.2745873332024, 0.7295520901680, 0.0928840637207, 0.6111579537392, -0.6746163368225, -1.1267751455307, -0.6499643921852, 0.0748035982251, -0.4679308235645, 0.5143868327141, 0.1692303419113, 1.2198855876923, 0.1874544769526, -0.8309586644173, 0.3122689127922, -0.7234406471252, 0.5827334523201, 0.1255481541157, -0.1371630281210, -0.3817923963070, 0.5441315770149, 1.3567274808884, 0.7583345174789, 0.5282068848610, 0.2874017357826, -0.1312446147203, 0.0892385318875, -0.2631709873676, -0.9662806391716, -0.4676794707775, -0.8484798669815, -0.0980717539787, 0.0894077271223, 0.6090299487114, 0.1605678051710, -0.4081983864307, 0.1913947761059, 0.1775777637959, 1.6856958866119, 0.9445787072182, 1.7173863649368, 0.9035180807114, -0.8477104306221, -0.4769320785999, 0.6420851349831, -0.7716537714005, -0.0151400957257, 0.1651369035244, 0.9133827686310, 0.9998803138733, 0.0654583275318, 0.2950738072395, -0.1138862445951, -1.1134518384933, 0.2387087196112, 0.1033620536327, -0.5893244147301, -0.1044484749436, 1.1370478868484, 1.0920608043671, -0.2152122110128, 0.5155373811722, -0.9325823187828, 1.1306359767914, -1.2611619234085, -0.7610052824020, -1.0868301391602, -1.0781496763229, 0.3617425560951, -0.2171086221933, 0.6326706409454, -0.3321606516838, 0.5467635393143, -0.4432332813740, 0.0393778234720, 0.5594174265862, 1.3905097246170, -0.1316723376513, -0.1649902909994, -0.2024155259132, 1.1385297775269, 0.5974491238594, 1.0232053995132, 0.2139571905136, -0.4395966827869, 0.8875802159309, 1.1018176078796, -0.0264246277511, 1.4580110311508, -0.1810999661684, 0.3398320078850, -0.5360065102577, 0.5623181462288, -0.2079171985388, -0.3636556267738, -0.7997636198997, 0.5934461355209, -0.3410525619984, 0.5040794610977, 0.9006001353264, -0.0480188317597, 1.1383872032166, -0.3533975481987, 0.0935993418097, 0.4524016082287, 0.2214564830065, 0.9994667768478, 0.9789394140244, 0.5701453089714, 0.0000614583842, 0.1146934628487, -0.1303669363260, 0.5255795717239, 0.2917597293854, 0.8480731248856, -0.7566700577736, -0.7110105156898, 0.6520086526871, 0.2931339442730, 0.1496888250113, -0.2686970829964, -0.0028770437930, 0.1530515253544, -0.0331471860409, -0.3861581683159, -0.2838935256004, 0.2241961658001, 1.8380151987076, 0.9842240214348, -0.0556694120169, -0.0683207735419, 1.3205184936523, 1.0631237030029, -0.5212019085884, -0.1826442927122, 0.0951741039753, 0.5855009555817, 0.8394454717636, 0.5165713429451, -0.9114362001419, 0.0419321171939, -1.7294263839722, 0.8393397927284, 0.4524997174740, -0.2678937315941, 0.9594416022301, -0.6565909385681, 0.3517476618290, -0.3302762508392, 0.3343543708324, 0.1478004455566, -0.0827271044254, -0.3581866919994, 0.2897274196148, 0.1477302312851, -0.4098405539989, -1.9485467672348, -0.3913606405258, 0.5585021972656, -0.2566741406918, 0.0528565719724, -0.0763969942927, 1.0336638689041, -1.3063617944717, -0.1855754405260, 0.5775084495544, -0.1242756992579, 1.1418517827988, -1.1278818845749, -0.0435452014208, -1.1341279745102, -0.3964143395424, -0.0275720395148, -0.3910904526711, 0.7367989420891, 1.0811069011688, -0.5671430826187, -0.3563154935837, 0.3413845598698, 0.0520859435201, 0.9875131845474, -0.7819733619690, 0.2769811451435, 0.8164013624191, -0.7737948894501, 0.5897089242935, -0.4843207597733, 0.5959162712097, 0.6168537735939, 0.1994562745094, -1.1899218559265, -0.8838206529617, 0.2921206951141, -0.5486531853676, 0.8116191029549, 0.1282412856817, 0.6789431571960, 0.9962977766991, -0.5061310529709, 0.6957337260246, 1.0933640003204, 0.7844890356064, 0.0170564297587, -0.7627824544907, 0.5778284668922, 0.1741748601198, -0.2201441377401, -0.3883162438869, -0.9484410881996, -0.6506842374802, 0.2150480449200, -0.6093414425850, -0.2973235249519, -0.6892931461334, -0.7947543859482, 0.2582964599133, -0.6532343626022, -0.2073782682419, 0.0607371032238, 1.1669579744339, 0.5604899525642, 0.4566411077976, -0.2689166367054, -0.0665046721697, 0.4738809168339, -0.1009988188744, -0.2714074552059, -0.3934030234814, -2.3163776397705, 0.5048968195915, 1.2517861127853, 0.2071655392647, -1.0376819372177, 0.4093184471130, 0.7626519203186, -1.0187990665436, -0.3963463306427, 0.0203133523464, 0.5528584122658, -0.8238266110420, -0.0011954744114, 0.1180624663830, 0.1007032170892, 0.2656618952751, -0.2651457488537, -0.4989665150642, 0.3927932679653, -0.7819670438766, -0.6089907288551, 0.0757345035672, 0.3334271907806, 0.3413375318050, 0.2978964447975, 0.8661627769470, 0.0584700629115, 1.1004954576492, 0.4982526600361, 0.4482957124710, 1.0033770799637, -0.5167917609215, 1.1191734075546, -0.7128452658653, -0.2970692217350, 0.2000177502632, -0.4213501214981, -0.6978281140327, 0.4135413467884, -0.3638247549534, -0.1204811036587, 0.0963374748826, 0.8660675287247, -0.5054568648338, 0.4060784876347, 1.0022748708725, -0.0606121644378, 0.1172873973846, 0.5997686386108, 0.1606688201427, 0.6883922815323, 0.2373171150684, 1.4328780174255, -0.4635857939720, -1.0613847970963, -0.5146786570549, -0.3629081249237, 1.5468277931213, 0.3477566242218, 0.1905696541071, -0.1439581662416, -0.5440012812614, 1.0801047086716, 1.1449909210205, 0.3188558816910, -0.5681180357933, -0.3841016292572, 0.1846944838762, -0.4194061458111, 0.6581207513809, 0.3886156678200, -0.2228733748198, 0.5617406368256, -0.4103006422520, 0.9840550422668, -1.2243853807449, 0.2414886057377, 0.0257180724293, -0.0476396419108, 0.3871227204800, 0.2455199956894, -0.3033850789070, 0.3629864454269, 0.9797637462616, 1.4561642408371, -0.3148716688156, 0.0929231569171, -0.0771620720625, 0.6057920455933, 0.5403222441673, 0.0555572025478, -0.2199179083109, -0.3764352500439, -0.5097225308418, 0.8656400442123, -0.2235177308321, -0.6022078394890, 2.3272662162781, -0.5572878718376, 0.8953723907471, -0.0651415586472, -0.6369264125824, -0.3238919079304, -1.3446583747864, 1.2443103790283, 0.3140493929386, -0.4718649685383, 0.7723556160927, -0.1535891294479, -0.0550136379898, -1.1688566207886, 0.4246837794781, 1.4949166774750, -0.4957511425018, -0.2924333512783, 0.6938112378120, 0.1731833964586, -0.1688068211079, 0.0426097251475, 0.8231092691422, -0.2174755632877, -0.8970522284508, -0.2826184928417, 0.8175066709518, 0.6260856986046, 0.3289374113083, -0.0674392953515, -1.5367512702942, -0.5029159188271, -0.7346720099449, 0.3614915013313, 0.5632557272911, 0.1655327528715, 0.2283483892679, 0.1459288746119, -0.2031490504742, -0.4545717835426, 0.5286587476730, 0.3786134421825, 0.5390289425850, 1.6845053434372, -0.0319975651801, -0.5893583893776, -0.4688023626804, 0.8702210187912, 0.4719184637070, 0.2582445442677, 0.4078357815742, 0.0615730956197, 0.0393798127770, 0.0003298643860, -0.2206909358501, 0.1460805237293, 0.3639794588089, 0.6254711747169, 0.6822293996811, -1.3382227420807, 0.2345415502787, 1.0488431453705, 1.4357960224152, 0.6653654575348, 0.5226481556892, -0.4168633520603, 0.2602378129959, 0.3202865123749, 0.7660582661629, 0.7707995176315, 0.7384730577469, 0.3472346067429, -0.5493371486664, 0.1633555293083, -0.4051539897919, 0.0056787542999, 0.0255608167499, 0.1628113985062, 0.1938897967339, -0.8805350661278, -1.1381173133850, 0.0620780698955, 0.4959004819393, 0.8190315365791, 0.9928321838379, 0.2508399188519, -0.7539471983910, -0.7623837590218, -1.0984385013580, 0.3871925771236, 0.1031704917550, -0.1270008236170, 0.7682600021362, -1.0517519712448, 0.2401264309883, 0.9347319602966, 0.7564638257027, 0.3383215665817, 1.0538271665573, -1.4400690793991, 0.5133875012398, 0.1751842200756, 0.7380810379982, -0.0038847129326, -0.0992450043559, -0.9319007396698, 0.5231410264969, 1.5647823810577, 0.5143454670906, 1.3904411792755, 0.5709294080734, 0.3843085467815, 0.1559600383043, 0.4736357927322, 0.1904768198729, 0.5804359912872, -0.1960216164589, -0.6600259542465, -0.3381071090698, -0.0100333942100, 0.3166178464890, 0.0143928453326, 0.8620254993439, 0.4164821803570, -0.3596166968346, -0.4166346788406, 0.1399011164904, 0.2041553556919, 0.1064791828394, -0.4749380052090, 0.5008722543716, 1.2772815227509, -0.5283591151237, 0.0742001160979, 0.4869236648083, 0.0049126292579, 0.2272399365902, 0.5436257719994, -0.4464616775513, 0.9784389138222, -0.0275989808142, 0.7348361015320, -0.1899560689926, -0.2331545501947, 0.8847377896309, 0.3694381713867, 0.1224220767617, 0.6072354316711, 0.5325618982315, 0.1399284601212, 0.8015164136887, -0.4358547925949, 1.4232681989670, 1.6896159648895, 0.1150080189109, -0.0307903829962, -0.0343895517290, -0.4156079888344, 0.3891775310040, 0.1895016282797, 0.6221671104431, -0.6448404788971, -0.1264590173960, 0.4450097382069, 0.0389450117946, 1.5870852470398, 1.1716456413269, -0.5947014093399, -0.0390216112137, 0.1147925704718, 0.8948835134506, -1.4833316802979, 1.0426781177521, -0.0923311263323, 0.1295715868473, -0.8916652202606, -0.0174729544669, 0.4199016094208, -0.2191280126572, -0.3330826759338, 0.1432633101940, 0.8480824828148, 0.6890220642090, -1.6281511783600, 0.3561098277569, 0.6603752374649, -0.9925917983055, 0.2856630384922, -0.5263615846634, -0.5996376276016, -1.5135253667831, -0.2028518170118, -0.4018656909466, -0.2312647700310, 0.1905504763126, 0.5194078087807, -0.2879538238049, -0.2790272235870, -0.0519803725183, 0.3281169235706, -0.4247418642044, -0.8170486092567, -0.5338720679283, -0.5222384333611, -0.3593195378780, 0.0077599436045, -0.4745928943157, -0.3420852124691, -0.8512389063835, -0.7362387776375, 0.2098771035671, -0.2923465073109, -0.4274592697620, 0.8301902413368, -0.3054098188877, -0.4280976355076, -0.5666378140450, 1.0316544771194, 0.4173998832703, 0.1622759252787, 0.2287723422050, -0.5498496294022, -1.4645203351974, -0.2272828370333, 0.1501832604408, -0.7313474416733, -0.3803047835827, -1.0856485366821, 0.0332528539002, -0.4942353367805, -0.0183382593095, -0.1253316998482, 0.6493275165558, 0.1764281541109, -1.1127688884735, -0.6803760528564, -1.1021020412445, -1.5833709239960, -0.6207875013351, 1.0117064714432, 0.2196964025497, -0.3678385317326, -0.2847653031349, -0.3302925825119, -2.5106952190399, 0.4023998081684, -0.7270634770393, 0.3507165610790, 1.0104295015335, 0.8616954684258, -0.2756107747555, -1.6263151168823, -0.3934427797794, 0.8357616066933, 0.1595856249332, -0.1482464671135, -0.1106286570430, -0.3581824898720, 0.4996159374714, -0.9485790133476, -0.9728111624718, -0.3731138110161, 0.5678272843361, -0.3193916380405, 0.0673969238997, -0.9982242584229, -1.9302506446838, -1.0336046218872, -0.0709269866347, 0.2944894731045, -0.7454105019569, -0.8978775739670, -1.4838614463806, 0.3280581533909, 0.8035295605659, -0.4964257180691, -0.3056624829769, -0.0881082117558, 0.0688074231148, -0.4826597273350, -0.0592190548778, 0.3259562253952, -1.2336328029633, 0.1263399720192, -0.6730513572693, -0.4059234261513, -0.8327313661575, -1.9122084379196, -1.1460300683975, -0.0827014073730, 0.6922098398209, -1.0165073871613, 0.1115359589458, 0.4830935597420, -1.1319863796234, -1.2692977190018, 0.1505897939205, -0.5438732504845, 0.5749133825302, 0.8817327618599, 0.7008206844330, -0.2705219388008, -1.1050723791122, 0.8300444483757, -1.2464040517807, 0.3876813948154, -0.4187634289265, 0.3708228766918, 0.3542990982533, 0.7727776765823, -0.5462586879730, 0.6041203141212, 0.0789329484105, 0.1842183172703, -0.4168764054775, -0.2224656343460, 0.0816145464778, -0.5588536262512, 0.1754693239927, -0.7238914370537, 0.2281940728426, -0.0766923651099, 0.2973716557026, -0.8582515120506, -0.9409800767899, 0.0318651050329, -0.2398723661900, 0.0420426651835, 0.0592356808484, -1.1786981821060, -0.6185089349747, -0.0826451405883, 0.0692111700773, 0.0185916703194, -0.4424729049206, -0.2248590290546, -0.4089127779007, -0.3462425470352, 0.1268925368786, 0.0838535428047, -0.6771947145462, -1.0320335626602, 0.4780084490776, -1.3130974769592, -1.3207535743713, 0.1338248252869, 0.1749055236578, 0.1559812575579, -0.7128093838692, 0.1922029256821, -0.5618327260017, -0.2668968737125, 0.0919203162193, -0.3696572780609, -0.5400467514992, -1.6499477624893, -0.1595602780581, 0.3179111480713, 0.7837463617325, -0.1367098838091, -0.9367177486420, -0.7431827187538, -0.9431396126747, 0.0368040502071, 0.5806230902672, 0.9127802848816, -0.5751286149025, -0.7423052787781, 0.1637778431177, 0.0248188525438, 0.5175951719284, -1.8709259033203, -0.4736443758011, 1.2858409881592, -0.1713178902864, -0.1516140699387, 0.4498035609722, -0.6549097299576, -0.3242571949959, -1.1664057970047, -0.7020699381828, -1.0850557088852, -0.1955456435680, -0.1738236844540, -0.7160545587540, -0.9009408354759, -0.1268217563629, 1.4186512231827, 0.0596515461802, -0.1453686505556, -0.3757342994213, -0.8925167918205, -0.6308450698853, -0.7212421298027, 0.6811555027962, 1.0430467128754, -1.2413015365601, -0.6855764389038, -0.5277585983276, -0.8664804100990, -1.0413572788239, -0.8959760069847, 0.5214675664902, -0.5154912471771, 0.0624291561544, 0.2466981410980, -0.1270044296980, -1.2182377576828, 0.1270340830088, 1.2246744632721, -0.2852062284946, -0.6009162664413, 0.4015665650368, 0.6994134783745, -0.4477977156639, 1.2353361845016, 0.1763385087252, 0.0401283465326, -0.3167434036732, 0.7556932568550, 0.3227532505989, -0.3015482425690, 1.1352876424789, 0.8309247493744, 0.0974664986134, 0.6750181317329, 1.0710134506226, 0.9704536795616, 0.6214488148689, 1.0529383420944, 0.8425951004028, 0.7764706015587, 0.9187545776367, 0.0697566270828, 1.1734277009964, 0.1472843736410, 0.2791091799736, 0.3223331570625, 0.5807615518570, 0.7844153642654, 0.8050775527954, 0.3201552927494, 1.0519671440125, 0.8163707256317, 0.8380120992661, 0.6067331433296, 1.1009860038757, 0.8350366950035, 1.0000278949738, 0.9183387160301, 0.5043843388557, 0.6130366325378, 0.8780660033226, 0.7654244899750, 0.7307412028313, 0.5738986134529, 0.5331223011017, 1.0166525840759, 1.1226799488068, 0.7947980761528, 0.7558217644691, 1.0662971735001, -0.1516801863909, 0.9801490306854, 0.8777311444283, 0.8716843128204, 0.7174518108368, 0.9616817831993, 0.3381934165955, 0.5797093510628, 0.9549448490143, 0.8148950338364, 0.9501510262489, 0.9950385689735, 0.5355412960052, -0.2766124904156, 0.4775345921516, 1.2303529977798, 0.5264628529549, 0.2421981394291, 0.5264948606491, 0.6223528981209, 0.8998890519142, 0.7706316709518, 0.7793561220169, 0.8933210372925, 0.9486947655678, 0.8399979472160, 0.4726007580757, 0.9502184391022, 0.6729970574379, 0.7515486478806, 0.7926787734032, 1.0342916250229, 1.5350323915482, 1.0591833591461, 0.7863603830338, -0.4724608361721, 0.7842351198196, 0.9736745953560, 1.1060656309128, 0.6016243100166, 1.0592789649963, 0.7541568279266, 0.7263371348381, 0.8452252745628, 0.4370279908180, 0.9844480156898, 0.7456324696541, 0.6798239350319, 0.4597205519676, 0.5859795212746, 0.5261468887329, 0.6190881133080, 0.4456464648247, 1.2501504421234, 0.9676386117935, -0.0070465449244, 0.6179556846619, 0.6629007458687, 0.1440612077713, 0.7379168272018, 0.9380131363869, 0.6995420455933, 0.8282570242882, 0.8781468272209, -0.0795027613640, 0.9773048162460, 0.8363549709320, 0.7833583354950, 0.6995684504509, 0.7578222155571, -0.2440699785948, 0.7089799046516, 0.9750025868416, 0.8598299622536, 0.8573909401894, 0.8585243225098, 1.1862317323685, 0.8674755692482, 0.0737259984016, 1.1980139017105, 0.6862053871155, 1.2646903991699, 1.2590668201447, 0.8851202130318, 0.9030175209045, 1.0185853242874, 0.1937052607536, 0.8965890407562, 0.4916390180588, -0.2746829688549, -0.6411210298538, 0.1248530149460, -0.8606010675430, -0.3836373686790, 0.9992439746857, -0.3764516711235, -0.5890376567841, -0.2174476683140, -0.4571132063866, 0.4022122025490, -0.8732350468636, -0.9712617397308, 0.2775270938873, 1.0962142944336, -1.3440706729889, -1.1165983676910, -1.3982813358307, -0.9796651005745, -1.1206673383713, -0.4008670747280, 0.3777568340302, -0.7155546545982, 0.0230306088924, -0.5048756599426, 0.9093973040581, 0.7770537734032, 0.4080274403095, -0.6041933894157, 0.3221105337143, -0.2209436744452, -0.9829744100571, 0.3104020059109, -1.1756694316864, -0.4520612061024, -1.1859972476959, 0.1275591552258, -0.4939632117748, -1.1644732952118, -0.5277216434479, 0.2193719595671, -0.5135630369186, -1.1052132844925, 0.2268699109554, -0.5780589580536, -0.4899277687073, 0.7378188371658, -0.5003821849823, -0.3497742116451, -0.3035599589348, -0.2393447905779, 0.1585739254951, 0.1976282000542, -0.2816235721111, -0.6330582499504, -0.6983512639999, -0.1912250965834, 0.8282405734062, -0.6945151686668, -0.6140487194061, 0.4122779965401, 0.0121423071250, -0.6989619135857, 0.1734184175730, -0.8560393452644, -0.8950648903847, -0.2838462889194, 0.2830041646957, -0.5694350004196, -0.4893269836903, -0.3389548957348, -0.2666450738907, -0.5666671395302, -1.2529743909836, -0.2172120660543, -0.5534101128578, -0.4382224678993, -0.4283315241337, -0.6746765375137, 0.4507760107517, -0.2727125883102, 1.1378402709961, 0.0370482280850, -1.2034816741943, -0.5493797063828, 0.1849154680967, -1.2263623476028, -0.6994156241417, 0.2229246646166, -1.0638620853424, -0.4430660605431, -0.5531947612762, -0.3595567643642, -0.0595808885992, -0.5953340530396, -1.4370340108871, -0.8449788093567, 0.2089292258024, 0.5734946727753, -1.5075265169144, -0.7166295647621, 0.7615384459496, -0.4745395779610, -1.0917379856110, -1.3526514768600, -0.6427050232887, -0.3108289539814, 0.6684594750404, -0.5778890848160, -0.6994159221649, 0.2322988659143, -0.8912296295166, -0.1300788074732, -0.5739315152168, 0.4200804233551, -0.0064215972088, -0.0119534255937, -0.2893401682377, 0.0156834591180, -0.4584247767925, -0.7131578326225, -0.2296603918076, -0.3909490704536, -1.2639465332031, 0.2182773202658, 0.1399079263210, -0.6988859176636, -0.3933064639568, -0.2525664567947, -0.3971153497696, -0.2480979859829, 2.5344166755676, 0.1349303871393, 0.2344824969769, -0.2151999026537, -0.1078923121095, 1.3731766939163, -0.5087620615959, -0.0210563112050, 1.3873301744461, -0.0309652257711, 0.2923991680145, 0.5142872929573, 0.3002633154392, -0.7476413249969, 0.9362177848816, 0.9745408296585, -0.6170959472656, -0.2997758686543, 0.2518055140972, 0.2491939216852, -0.4450943470001, 0.0595054626465, -0.7641981840134, -0.8805834650993, 0.2600575387478, -0.2207059264183, -0.0977236703038, 0.1960662603378, -0.8626492619514, 0.1889174431562, -0.8588758111000, -0.5793561339378, -0.6086689829826, 0.6532086133957, 0.1520553678274, -0.5560892224312, -0.4735043346882, 0.0689767152071, -0.5699738264084, -0.3926217257977, 0.5489349961281, -0.3150103688240, -0.2588995099068, -0.1587328612804, -0.0673178359866, 0.1710734516382, -0.5335384011269, 1.7818382978439, 0.3110392987728, -0.0575384609401, -0.1799111813307, 0.5800953507423, -0.8286402821541, -0.7019572257996, -0.4290908277035, -0.7505120038986, 0.1798449903727, -0.7633621692657, 1.0840315818787, -0.0102338083088, 0.7183257937431, -0.4045588374138, 2.4363102912903, 0.5598306059837, 0.9992656111717, 0.8492905497551, 0.4222984313965, -0.6096217632294, 0.0590552575886, -1.0641192197800, -0.1950322985649, -0.0077523188666, -0.4950691163540, 1.2020224332809, 0.3266485929489, -0.0742106363177, -0.3169322013855, 0.6070808172226, 0.4839734137058, 1.2841519117355, 0.2376907914877, -0.8267415761948, 0.4623140096664, 0.4136917889118, 0.4397725760937, 0.1233446151018, -0.9662451744080, 0.5769893527031, 0.2009878307581, -0.1441927254200, 0.1345981508493, -0.3299815356731, 2.3369262218475, -0.0530908666551, -0.0838737487793, 0.5902312994003, -0.1301122903824, -0.1436079591513, 0.6322592496872, -0.3973552882671, -0.0546506755054, 0.4802070260048, 0.6025660634041, -0.2012678384781, -0.4637815356255, 1.4296402931213, -0.4305197596550, 0.7788243293762, -0.2894124388695, -0.5611574649811, 0.8131163716316, 1.1461594104767, -0.4268023669720, 0.6811733841896, -0.6517487168312, -0.4838566780090, 0.3746938407421, -0.5147475004196, -0.1174851432443, -0.3064000904560, 0.0751679390669, 1.5590491294861, -0.3863413631916, 0.0841576606035, 0.6442031264305, -0.5184352993965, -1.1310379505157, -0.4821155071259, 0.7474338412285, -1.2611988782883, 0.6113120317459, -0.7799066305161, -0.0689356401563, -0.5569258928299, -0.3662158548832, 0.3905806243420, 0.9517202973366, -0.1039470955729, 0.4443599581718, 0.3875237107277, 0.2604511678219, 0.0475331470370, -0.2923597097397, 0.8056045174599, -0.7561657428741, 0.3189665675163, -0.4948300123215, -0.3289912045002, -0.4296345412731, -0.8136436939240, 0.0292352028191, -0.1937125325203, -0.1604450047016, 0.2083939462900, -0.1732954233885, -0.3147567510605, -0.5566950440407, -0.0422399677336, -0.2593767344952, -0.0359767712653, -1.1619838476181, -0.5798462629318, -0.0727504491806, -0.4855892062187, -0.8046405315399, -0.7951588630676, 0.1013487055898, 1.3649642467499, 0.5203179121017, -0.4488496184349, -0.2465482950211, 0.5699927806854, -0.5724010467529, 0.5920701622963, 0.1938222646713, 0.5357238054276, 0.2134938985109, 0.1073274910450, 0.9214165210724, 0.1814954876900, 0.7883477807045, 0.2343533188105, 0.0866573229432, -0.7769091129303, 0.0618918277323, -1.4375858306885, 0.3030551373959, 0.0049890941009, -1.3344202041626, 0.5620574951172, 1.7017213106155, -0.9394270777702, -0.1054870337248, -0.3611866533756, -0.3204114437103, 0.1335280686617, 0.9932844042778, 0.8067340254784, -0.2654974162579, 0.1276170164347, -0.9494405984879, 0.4260574877262, -0.6578700542450, -0.1150496974587, -0.1731756329536, 0.3029505908489, 0.4389873445034, -0.5783473849297, 0.3168647587299, -0.5531401634216, -0.6402491927147, -1.2928656339645, 0.9997762441635, 0.3741713762283, -0.0704557523131, 0.5314445495605, -0.0333695597947, 0.6695566773415, 0.2501119375229, -0.1090314164758, 0.3423315584660, -1.3492482900620, -0.3868865668774, -0.5110390186310, 0.3956358730793, -0.4008066654205, 1.0370396375656, -0.9248665571213, -0.6828770041466, 0.6248454451561, 1.2260377407074, 0.5364937782288, -0.0931629613042, 0.6064426302910, -0.5061487555504, 0.1494301557541, -1.0067452192307, -1.0377099514008, 0.4420722723007, 0.7631722688675, 0.0835630744696, -0.1327003389597, -0.0693802312016, -0.3736172914505, 0.0764436051250, -0.9064965844154, -0.6664750576019, -0.0311401188374, 0.0442824177444, 2.0713725090027, 0.0357615575194, 0.0836117416620, 0.0770810097456, -0.8305019736290, -0.3019514679909, -0.0604946427047, 0.2404088228941, -0.8923211693764, -0.0518940277398, -0.4930403530598, 0.0486299954355, 0.4936050474644, 0.1139755100012, -0.4658375680447, 0.1196817383170, 0.4239448308945, 0.0145568111911, -0.1055470556021, -1.0060254335403, 1.0998600721359, -0.3181188702583, 0.0040691341273, -0.1698019355536, 0.6656531095505, -0.0617285557091, -0.4048444926739, -0.9568133950233, -0.5073289275169, -0.1574527323246, -0.1195729896426, 0.3104837238789, -0.6070047020912, 0.1292118877172, 0.0688143149018, -0.4898985028267, 0.1483981162310, 0.5084525346756, 0.0127188852057, -0.1894469708204, -0.0266002174467, 0.5015987753868, -1.1632294654846, 0.2127780020237, 0.9201642870903, 0.1681606918573, 1.1417224407196, 0.1436206102371, -0.5033313632011, 0.6156082749367, -0.9442323446274, -0.6430209279060, 0.2199690341949, 1.0819208621979, -0.2180950492620, -0.2200489640236, 0.3686114251614, 1.3271826505661, -0.6000502109528, 0.2548066377640, -0.6998485922813, 0.0013669361360, 0.1793774366379, 0.0324738137424, 1.2552706003189, -0.2502787113190, 0.5295798182487, 0.5394563674927, -0.9872437119484, 0.9374964833260, 0.0073567461222, 0.1962049454451, 0.5442041754723, 0.7004433870316, -0.3307892680168, -0.1473014354706, -0.1765293031931, 0.8607063889503, 0.4512537121773, -0.4200567901134, 0.1445162594318, 0.3823064565659, 0.9950543045998, -0.6611550450325, -1.9344152212143, 0.1442427486181, 0.2389661669731, 0.9451632499695, 1.1846311092377, -0.5926079750061, 0.4511761963367, 1.0366861820221, 0.5853707194328, 1.3785654306412, -0.4462900161743, 0.4144027531147, -0.3871257007122, 0.1236977651715, 0.2891824543476, 0.5938662290573, 0.9613994956017, -0.0728720426559, 1.2630418539047, 0.8247714638710, 0.6672710776329, 0.0694227367640, -0.4333324730396, 0.1073129996657, 0.1949939876795, 0.1941726058722, -0.1068886220455, 0.1744261533022, 0.5620446801186, 0.8863470554352, 0.0010277747642, 0.0135687282309, 1.2221493721008, 0.4548730850220, 1.0206226110458, 0.5990169644356, 0.1976503878832, 0.8531941175461, -0.5523494482040, -0.2567158639431, 1.2632459402084, 1.5955288410187, -0.7581397294998, -0.3447347879410, -0.3490777909756, 0.1064528301358, -0.3899385929108, 1.0181177854538, -0.5700863599777, -0.2085305899382, 0.2254357933998, 0.8561215400696, -0.2516617476940, 0.4944004714489, 0.3655641376972, -1.1677043437958, 0.6360392570496, 1.3389718532562, 0.5540598630905, 1.4104769229889, -1.0118135213852, -0.4805145561695, 0.4822424352169, -0.7390727996826, -0.1087010875344, -0.1031891852617, -1.1773511171341, 0.3936664760113, 0.8193194270134, 0.5608984827995, -0.4533724784851, 0.2766203582287, 0.0015669028508, -0.0768350213766, 0.4756983816624, -0.0022537529003, -0.7973192930222, 0.9794776439667, 0.2824073433876, 0.0034183678217, 0.5213063955307, 0.3221331238747, -0.9671824574471, -0.7637042999268, 0.3332140147686, -0.0144646456465, -0.2860224843025, -0.4125218093395, 0.0927870571613, 0.9117043018341, 0.2099518030882, 0.5596747994423, 0.9877426028252, 0.0991934463382, -0.3957586884499, -0.6773443222046, -0.1257407814264, 0.5722075700760, -0.6866007447243, 0.5259170532227, -0.2375845462084, 1.0932924747467, -0.4613425135612, -0.1316434144974, -0.6432645916939, 0.2414432317019, -0.5642492175102, 1.0412652492523, -0.0815412625670, 0.5471239686012, 1.0402003526688, 0.3288624584675, 0.3593530058861, 1.2541209459305, -1.0966153144836, -0.1109752357006, -0.4236196875572, 0.2392221242189, -1.0550626516342, -0.2935877740383, 1.2331105470657, -0.8150004744530, 0.2012996226549, -0.2493505328894, -0.8987818360329, 0.7483372092247, 0.0365217626095, -0.2518039345741, 0.6314963698387, 0.5926321148872, 1.0577925443649, 0.0422222763300, 0.4070971310139, -0.1318923383951, 1.3714798688889, -0.0373228788376, 0.0827767476439, 0.6087308526039, 1.3260372877121, 0.3858948051929, -0.7309776544571, -0.1350616365671, -0.7750146389008, -0.3221870958805, -0.5500982403755, 0.7225201129913, -0.6192488670349, -0.6709221005440, 0.5797843337059, -0.8782505989075, -1.2967705726624, 0.4172741472721, 1.2846108675003, -0.4685145914555, 0.0045262561180, 0.7028404474258, -1.0893887281418, -0.1336671113968, 0.3893888592720, 1.4541890621185, 0.6793045401573, -0.5242358446121, 0.7284595370293, 0.0265247747302, 0.5169884562492, -0.0974059626460, 0.2793110311031, 0.6435789465904, -1.1335570812225, -0.4182164072990, 0.2200653403997, 1.3533034324646, 0.1129280105233, 0.0852557346225, -0.0780132785439, 1.0978775024414, -0.3761086165905, 0.2991869747639, -0.5542728304863, -1.2202591896057, 0.4630832374096, 0.2488080412149, 0.6818168163300, 1.5890119075775, -0.3971187770367, -0.4201522767544, 0.5555606484413, -0.8956598043442, -0.3568404912949, 0.1892220675945, 0.3118187785149, -0.6912901997566, -0.0428456924856, -0.7162654399872, -0.3923751711845, 0.7154106497765, 0.2942291200161, 0.0993652120233, -0.2190054357052, 0.6909444928169, -1.3436344861984, 0.8379499316216, 0.7645712494850, -0.2087962031364, -0.4888353049755, -0.2515945136547, -1.2527066469193, -0.8076333403587, 0.2533663511276, -0.1587699353695, -0.6772087216377, 0.3923658132553, -0.0172847881913, -0.2282007485628, -0.9173465967178, 0.2168339937925, 0.4548613727093, -0.9741416573524, -0.7966537475586, 0.5599576830864, -0.6519171595573, 0.5277013778687, 0.5990561842918, 0.7434542775154, 0.5053595304489, -0.7082666158676, 0.9606724381447, -0.2079781293869, 0.1300996392965, 0.6869045495987, 0.6858055591583, 0.0338208712637, 0.1910449415445, 0.7037162780762, 0.3473809361458, -0.7949722409248, -2.5222339630127, -0.8352854251862, 0.5076160430908, 0.1789450794458, 1.0923479795456, 0.1680233925581, 0.1258102506399, 0.3853411972523, -0.9970500469208, 0.1471609473228, 1.0276110172272, -0.4225499331951, 0.6018241643906, 0.7122804522514, 0.2829714715481, -0.5114113688469, -0.2287750393152, 0.1305662840605, 0.5058428049088, 0.2629056274891, 1.0855352878571, 0.0998521447182, 0.8192608356476, 0.4288823604584, 0.7356572151184, 0.0600132569671, 0.3889757096767, 0.1404372453690, 1.1221195459366, 0.7524386644363, -0.4591333866119, 0.7000400424004, 0.2673634886742, 1.2236605882645, -0.6337723731995, -0.2424623519182, -1.2120937108994, 0.1475303024054, 0.5108449459076, 0.5319440960884, -0.9895344972610, 0.6119965314865, -1.1896735429764, -0.8831534981728, -0.2496846169233, -0.2650708854198, 0.0002816798224, -0.8896861672401, -1.1881262063980, -0.4821322858334, -0.0567949451506, -0.3361708819866, 0.5041406154633, 0.0774509757757, 0.8441697359085, 0.1634166687727, -0.0838198587298, -0.0597623363137, -1.2224190235138, -0.6991880536079, -0.6883575916290, -0.7996647357941, -0.6859845519066, -1.2960119247437, -0.5881765484810, -0.1214962825179, 0.6500868797302, 0.3166292011738, 0.2401089966297, 0.5064868330956, -0.1357359588146, 0.6456323266029, -1.3224978446960, 0.2598994970322, 0.0914354473352, -0.1001008078456, -1.0512787103653, 1.1797527074814, 0.1247137412429, -1.0466480255127, -0.8599703907967, 0.2910392582417, 0.4719511270523, -0.5289973616600, -0.1167210489511, -0.7932696938515, 0.7808219194412, 0.2578804492950, 0.3912053704262, 0.4272150397301, -0.7694897055626, 0.1173035278916, -0.3731671273708, -1.4342864751816, -0.4003918766975, 0.3765798211098, -0.3610457777977, -0.3967689871788, -0.3965063691139, 0.6805231571198, 0.3588347136974, 0.4564786255360, 0.7008909583092, 1.0193766355515, 0.2539455890656, 0.6388732194901, -1.0474803447723, -0.1249018833041, 1.0430995225906, -1.8617249727249, 1.3276813030243, 0.3188463449478, -0.9390938282013, -0.6829695701599, 1.3203167915344, -0.8997335433960, 0.6996169686317, 0.0706575512886, -0.0002466593578, 0.2615132629871, 0.1598041504622, -0.0679364949465, 0.2867068648338, -0.5786153078079, 0.3430016636848, -0.0198439043015, 0.2163822799921, -0.1674016267061, 0.1269810050726, -0.0299223922193, 0.1198692470789, 0.2857044637203, -0.6498059630394, 0.7663354277611, 0.7276481986046, -1.1082037687302, 0.8406469225883, 0.3529632091522, -1.2152582406998, -0.0756844207644, 0.2002295106649, 1.5261588096619, -0.1444748342037, 0.1624991744757, -1.1011240482330, 1.2523803710938, 0.9009009599686, 0.2959059178829, -0.8991367220879, 0.1764379888773, 0.4480378925800, -0.3637949824333, 0.5954588055611, -0.6710824966431, -0.0989905074239, 0.2704303860664, -0.6872129440308, -1.5654380321503, -0.1357426941395, -0.0510694533587, -1.3346130847931, 0.5459418892860, -0.2798297405243, -0.1297100037336, -0.3247328102589, -0.4177268743515, 0.2051266729832, 0.6457996368408, -1.0290615558624, 0.0976524204016, -1.7616105079651, -0.1569047421217, 0.0920310690999, -0.0419031530619, -0.9869999885559, 0.6808546781540, 1.2517570257187, -0.0954967513680, 0.6074501872063, -1.4029074907303, -0.6364080309868, -0.3849550783634, 0.7770386338234, 0.2016815096140, 0.0679631382227, 0.3517033457756, 0.4496309757233, 0.1327838450670, -0.7016469240189, -1.0773887634277, 0.2787594199181, 1.1488437652588, -0.7551931142807, 0.0559115186334, -0.0361839942634, -0.8004769086838, -0.8105817437172, -0.5585254430771, 0.7621318101883, -0.9310079216957, -0.3408002555370, -0.1146566420794, -1.1627818346024, -0.9469396471977, -1.1466248035431, 0.7028632760048, -0.0991357117891, -0.8388156890869, -0.6610370278358, 0.0790159404278, 0.0156939644367, -1.1064059734344, -0.8063862323761, -1.3715937137604, -0.6925365328789, -1.1292872428894, 0.4580373466015, -0.6126551032066, -0.5083066821098, 0.5299343466759, 0.7884183526039, -0.7529323697090, 0.4895604848862, 0.2486219108105, -1.1672471761703, 0.7578184008598, -0.4015739262104, -0.9766997098923, 0.4466246664524, -0.7802476882935, -0.9637197852135, 0.3780587017536, -0.7515413761139, 0.3877451419830, -1.2693544626236, -0.5043587088585, -0.3220433592796, -1.0500724315643, -1.2453163862228, 0.6062958836555, -1.3666205406189, 0.7140344977379, -0.7993005514145, -0.8308351039886, -0.1296877563000, -0.8832114338875, -1.4682449102402, 0.2632856965065, -0.1302124708891, 0.3473526537418, 0.8812970519066, -0.7060987353325, -0.6917602419853, 0.0570729412138, 0.6840111613274, -0.9999083280563, -0.9959694147110, 0.7312251329422, -1.1254552602768, 0.6964044570923, -1.2002959251404, 0.2084217965603, 0.6316833496094, 0.2065645754337, 0.8502780795097, -0.2579428553581, -0.7717250585556, 0.4630033969879, -0.3129756748676, -1.2183945178986, -0.0151446685195, -0.7993018627167, 0.4934063255787, -1.3028594255447, -0.7196669578552, -0.7813535928726, -0.6172131299973, 0.0491880066693, 0.2997678220272, 0.2133775353432, -1.3578486442566, -0.3747566938400, -0.8584123253822, 0.3118064701557, -0.7527359724045, -1.2259913682938, 0.6740251183510, -0.5447234511375, -1.0624399185181, 0.7398908138275, -0.4710982739925, -1.1426757574081, -0.4492702186108, -0.3020107448101, -0.3714120090008, 0.7000911235809, -0.7113289237022, 0.0402278453112, -0.7009076476097, -0.4786111116409, 0.9353753924370, 0.6373066306114, 0.7644081115723, -0.3151341676712, 0.3720751404762, -0.4872715473175, 0.3510196805000, 0.5281271934509, -0.9123589992523, -1.4651064872742, 0.5708799958229, -1.1193088293076, -0.5914374589920, -0.6449171304703, -1.1439154148102, -1.3676789999008, -0.9000248908997, -1.3177113533020, -0.4970476925373, -1.6512718200684, -0.6540343761444, -1.1889145374298, -0.9149227142334, 0.5313662290573, 0.2766494750977, -0.3290950953960, 0.1716613769531, -0.0534104555845, -0.7509145140648, 0.5007614493370, -0.6590411067009, 0.1200328618288, -0.2172852903605, -0.6063538193703, 0.4208832681179, -1.1471849679947, -0.7513392567635, 0.2344492524862, 0.5181149840355, -0.9022893905640, -1.3454102277756, -0.5690262913704, -0.7370254993439, 0.8114192485809, 0.4028480947018, 0.7209804058075, -0.3787590265274, 0.1699148416519, 0.2839755117893, -0.6609740853310, -0.4147590398788, 0.5111901164055, -0.9815273880959, -0.6323633790016, -0.1774487793446, 1.1084623336792, 0.3486613035202, -0.6693282723427, 0.6370420455933, 0.5620736479759, 0.3922596573830, 0.4198506176472, -0.2931778132915, -0.3803029954433, 0.5611650943756, 1.2787942886353, 1.5359653234482, 0.0442595295608, -0.1626414954662, -0.6605525016785, -0.5607065558434, 0.4527997672558, -0.3668712377548, 0.8342835903168, -0.5191093087196, 0.1717474609613, -0.0868581458926, -0.2423813343048, -1.2313492298126, 0.3525373041630, 0.0946627482772, -0.5554500818253, -0.1130371913314, -1.1833726167679, -0.5344258546829, -0.2963843345642, -1.2610526084900, 0.6111616492271, -0.5168344974518, 0.1280530840158, -0.2250980138779, 0.3687371611595, 0.5457206368446, -0.9698511958122, 0.5544723868370, 1.1906412839890, -1.0541694164276, 0.6704905033112, -0.0078012305312, 0.2782416045666, -0.2948167622089, 0.2819019556046, -1.7949122190475, 0.9665167927742, -0.3153090775013, 0.8153543472290, -0.0114738550037, 0.2455506175756, 0.0094971200451, -1.3948968648911, -1.7934018373489, -2.0367345809937, 0.4060005843639, 0.3215957283974, 0.0666451454163, -0.5255546569824, -0.1346944719553, 0.5340138673782, -0.2369539737701, -0.1849410980940, -0.9957482218742, 0.4525231420994, 0.4548377990723, 0.8109359145164, 0.4363300204277, 0.2663651704788, -0.5711309313774, 0.3134944438934, -1.3983304500580, 0.6369515657425, 0.0229349825531, -0.0681437849998, 0.0039543937892, -0.5223572254181, 0.4738567173481, 0.2154714912176, -1.6142513751984, 0.4068295061588, 0.4832033216953, 0.3500162363052, -0.0957573354244, -0.1732298284769, -0.8904096484184, -1.3928717374802, -0.9062757492065, -0.0774690136313, 0.5697783231735, -0.3833895623684, 1.0088768005371, 0.0408533699811, -0.6861279606819, -0.9239582419395, -0.4916761219501, -0.0399272404611, 0.6934409141541, -0.7291542291641, -0.5486442446709, 1.1017887592316, -0.8475098013878, -0.3433125019073, -0.4953373372555, 0.3928974270821, 0.5189732313156, -0.2383526861668, -0.9116213321686, -0.1009786874056, 0.9603628516197, -0.5743719339371, 2.1714591979980, -0.6360493302345, -0.6253651380539, -0.4945138096809, -0.2939587831497, -0.4202859103680, 0.2385314553976, 0.8726702332497, 0.7621967196465, 0.0379508174956, 1.9449555873871, 0.3631684184074, -0.3565563261509, 0.6022129654884, -0.0356065891683, -0.4443798661232, 0.9670520424843, 0.4340346455574, 0.0935194045305, 1.5029481649399, -0.4642019271851, 2.9419491291046, -0.6371840238571, -0.5341614484787, -0.2592774927616, -0.6036350727081, -0.6721593141556, 0.8419632911682, -0.6891533732414, 0.0191260613501, -0.4515112340450, -0.2413866817951, -0.3450310826302, 0.2324535697699, -0.3821286857128, 0.1734797805548, 0.4042373299599, 0.1603156775236, -0.1111322715878, -0.1950744092464, -0.3156425952911, 0.2587803006172, -0.6790050864220, -0.5360238552094, 1.4313356876373, 0.4456433653831, -0.5153896212578, 0.6130858659744, -0.4043350517750, 0.8559117913246, 1.7958093881607, 0.2384602874517, 0.1522752195597, 1.2086862325668, -0.4312877953053, -0.1875828504562, -0.2948005199432, -0.3765759468079, 0.3830248713493, -0.0199238676578, 1.6479321718216, -0.7642590403557, 0.1193813532591, -0.4490256309509, -0.4837572872639, 1.2875299453735, 1.0202387571335, 0.2918468713760, -0.3553296327591, 1.5587172508240, -0.6187496781349, 0.2530959546566, -0.3799184262753, -0.5078530907631, 1.0461335182190, -0.2705886065960, -0.5975672602654, 1.1336374282837, -0.6238292455673, -0.4521930813789, -0.6663927435875, -0.2481895387173, 0.4830325841904, 0.5638503432274, 2.3274726867676, 0.2762469947338, -0.6729587316513, -0.1302267014980, -0.2891563475132, 0.5812941789627, 0.8787600994110, -0.0156970117241, 0.5730569362640, -0.2698006629944, 0.5952253937721, 0.4327008426189, 0.0135233672336, -0.3714688420296, -0.7938754558563, -0.3553987443447, -0.4349330365658, -0.7713449001312, -0.2371838390827, 0.0025370998774, 0.1187611594796, 0.4949091672897, 0.1163120791316, -0.1789001226425, -0.3717743456364, -0.7845535874367, -0.5583679676056, -0.4227586388588, 0.1380588114262, -0.0239940565079, -1.6813843250275, 0.1705882400274, -0.1985384523869, -0.0311885308474, -0.7409852147102, -0.6342177987099, -0.4904685616493, -0.8400511741638, 0.4180570840836, 0.0298839155585, -0.9089424610138, -0.1118574887514, 0.0401833727956, 0.2413542717695, 0.0140413017944, -0.2288060486317, 0.4685154855251, 0.2362411916256, -0.6160454750061, -0.1207729429007, -0.5026041865349, -1.2476371526718, -1.1542459726334, -0.3614332675934, -1.1873798370361, -0.8183998465538, 0.2709957063198, -1.1279762983322, -0.3033254444599, -0.9343528747559, -0.8152821063995, 0.0175454616547, 0.1225858405232, -0.3757187128067, -0.0776534751058, -1.1571829319000, 0.4015794396400, 0.3214873671532, -0.3603194355965, -0.7678683400154, -0.4997671544552, -1.1184200048447, -2.2392935752869, -1.1780122518539, 0.2995942831039, 0.7036196589470, -1.1236928701401, -0.1625987887383, 0.5650907158852, -0.2158532887697, -0.0930131897330, -0.5663492083549, -0.5071609616280, 0.0466438233852, 0.0661850497127, -0.2422682344913, -0.9924203157425, 0.1423095613718, 0.3139101266861, -0.6506512165070, -0.8499843478203, -0.9352197051048, 0.7958514094353, -1.1106787919998, -0.6346908211708, -0.9745386242867, -0.9689376950264, -0.5452339053154, 0.7114346623421, 0.0091409636661, -0.6930134296417, -0.0157344546169, -0.5123224854469, 0.0953474938869, -1.8307622671127, 0.1524827927351, -0.3211238384247, 0.4048371911049, 0.6698318719864, 0.0399195328355, -1.1653745174408, -0.1901575773954, -0.1768004596233, -0.7762711644173, -0.8445800542831, -0.8324050307274, -1.3624094724655, -0.2716666162014, -0.9437557458878, -0.5556599497795, 0.1451112180948, -0.8383674025536, 0.2612716257572, 0.3380104303360, 0.4667936563492, 0.1172185987234, -1.5656716823578, -0.3160305023193, -0.3142037689686, -0.9745532870293, -0.2287729680538, -0.7465445995331, -1.1424500942230, -1.1355905532837, -0.5300368070602, -0.9628297090530, -1.1970455646515, 0.3251349031925, -1.0207518339157, -1.0255241394043, -0.1783692985773, -0.2702750265598, -0.9705021381378, -0.3501743674278, -0.5130803585052, 0.0639969184995, 0.2072386741638, -0.0895184203982, -0.1751316189766, 0.4710969626904, -0.6771250963211, 0.0904647409916, -0.6813640594482, 1.2054616212845, 0.4853797852993, -0.4990279078484, -0.2668008804321, 1.3387876749039, 0.0938794165850, -0.3727094829082, -0.1434023678303, 0.6870366930962, -0.0296640973538, -0.3185418546200, -1.2441514730453, -0.2915018498898, 0.4624574482441, -0.9007485508919, -0.5633558034897, -0.0188505854458, 0.3610231280327, 0.1039121896029, -0.7565833926201, 0.6886277198792, 1.1002961397171, 0.2600963413715, 0.4161823987961, 0.4387635290623, 0.7087240219116, 0.3141187131405, -0.8441338539124, -0.0991017222404, -1.3580873012543, 0.3238025605679, -0.1375488191843, -0.4749322831631, -0.3332372009754, -0.0527323037386, 0.4251765012741, -1.2999905347824, -0.2608622610569, -1.6223794221878, 0.8696051239967, -1.2568182945251, -0.3803094029427, 0.2208886146545, -0.0857945010066, 1.5941423177719, 0.0045113726519, 0.5202626585960, 0.8455142378807, -0.6223149895668, 0.3811346888542, 0.5250064730644, 0.1460683941841, -0.1065977960825, 2.2607805728912, 0.1994649469852, 0.1231148242950, 0.0136482482776, -0.2509530186653, -0.1265325844288, 1.4057078361511, 0.7738427519798, -1.3150990009308, -0.1868538260460, 0.2178440690041, -0.6225194334984, 0.8788484930992, -0.1242435202003, -1.1325935125351, -0.9079643487930, -0.5833521485329, 0.3801325857639, -0.7571035623550, -0.3402654528618, -0.5479882359505, 0.1528797447681, -0.3803116083145, -0.5954921245575, -0.2748929262161, -0.3745883405209, -0.1925666928291, 0.6985791921616, -0.2661299407482, 0.2043855786324, 1.2307006120682, 0.4895813763142, -0.8964656591415, -0.3297889530659, 0.4499045312405, -0.5126176476479, -0.2877508997917, 0.7646381855011, -0.2575807869434, -0.0575184151530, -0.3509646356106, -0.2593086659908, -0.3977047502995, 0.6244339942932, 0.4547250866890, -0.9315367341042, -0.2193675190210, 0.8669328689575, 0.9257099032402, -0.2892785668373, 0.0286148451269, 0.0487971045077, 0.1324500292540, 0.4752420485020, 0.1472053229809, -0.7290874719620, 0.5832066535950, 0.3846517801285, 0.1945152729750, -0.2831386625767, 0.6998403072357, 0.8656538128853, 1.3203740119934, -0.8307487964630, -0.2063428163528, 1.3195909261703, -0.2066554874182, -0.5340793132782, -1.0150786638260, -0.0620474778116, 0.6234998106956, -0.3388760983944, -0.0985898077488, -0.3082599937916, -0.7603129148483, 0.2147828340530, -0.3241842687130, -0.7986738681793, 0.2046599239111, -0.6063790321350, -0.9854952692986, -0.4064714908600, 0.7433965802193, -0.2172513306141, -0.4347734451294, -0.0812342092395, -0.4384386241436, -1.0649271011353, 0.3140840530396, -0.6206475496292, -0.4449814856052, 0.9328576326370, 0.4172123670578, 0.8340201973915, -0.3533078730106, -0.3192864358425, -1.0626730918884, -1.1782572269440, -0.2469847947359, 0.6294365525246, -1.5067476034164, 0.0358788408339, 0.1575056612492, 0.5379450321198, 1.0782413482666, 0.5868652462959, -0.1436127573252, 0.4860649108887, 0.2238857448101, 1.1692539453506, 0.4684562087059, -0.2303342968225, 0.1717263907194, 0.4125827252865, 0.0307334288955, 0.7773088812828, 0.2311952114105, 0.3949742317200, -0.7371305227280, -0.3883398771286, -1.4769260883331, -2.6176555156708, -0.0305554233491, 1.2304140329361, 0.9617123007774, -0.5884914398193, 1.1797285079956, -0.0870520099998, 0.6621874570847, -0.1859502494335, 0.4822115600109, 0.8012272715569, -0.5593641400337, 0.5632200241089, -0.3486095368862, 0.7834840416908, -0.5142608880997, 0.8185210227966, -0.9480640292168, 0.7444395422935, -0.3038973212242, 0.1002908721566, 0.3760715723038, 0.1224059090018, 0.1428751498461, -0.9947479963303, 0.0173066090792, -0.5840411186218, -0.9147917628288, 0.3610873818398, 0.2172354608774, 0.0732422769070, 0.5098797678947, -0.1011397987604, 0.3512271940708, 1.0078345537186, -0.0053982976824, 0.1899539530277, 0.3421184420586, -0.5477830767632, -0.7159025669098, 0.0711458101869, -0.9267519116402, -0.4895283877850, -0.9845163822174, 0.6193500757217, -0.0415489859879, -0.4219074547291, 0.8799905180931, 0.5458790063858, -0.3544282317162, 0.0564089901745, -1.9144045114517, 0.0153361270204, 0.0551773980260, -2.1280736923218, -1.1804833412170, 0.4120922386646, 0.2928593754768, -1.5183752775192, 0.5659385919571, 0.3017944991589, 0.4160507917404, 0.9364241361618, 0.3641344308853, 0.0175985991955, 0.5113108158112, -0.7279023528099, 0.3405374586582, 0.6573889255524, 0.4714543223381, -0.8862771391869, -0.1212161928415, -0.3861387670040, 0.7485437393188, 0.4997124969959, 0.3863596022129, 0.9747148156166, 0.0986229777336, -0.3583041429520, 0.5550378561020, 0.2403156012297, -0.5609606504440, 0.1810224056244, 1.0730670690536, -0.5200187563896, -0.7316201925278, -0.2147084325552, 0.4683964252472, 0.3069574832916, 0.7467949390411, 0.5773401260376, 1.0034661293030, 0.7030733227730, -0.1151648983359, -0.9148287177086, -0.1019309312105, -0.8695094585419, 0.1246168464422, 0.3043823838234, 0.4784378409386, 1.4459731578827, 0.6574594378471, -0.0017867563292, 0.2107603698969, -0.1522919982672, 1.0805482864380, -0.5731620192528, -0.3256916105747, 0.6827001571655, -0.1597436666489, -0.7973322868347, 0.4878753721714, 0.6729134321213, 0.0730716362596, -0.5903091430664, 0.2232899665833, -0.3896570503712, 0.3178971707821, 0.0531336665154, 0.1191363558173, -1.3449472188950, -1.2610192298889, 0.9191803932190, 0.1036391630769, -0.5405739545822, -0.1882700771093, 0.2881373167038, -0.1336640715599, -0.0515011101961, 0.2479779422283, -1.1314706802368, -0.6476358175278, -0.2172688543797, -0.8682420253754, -0.1556556224823, 0.4031195640564, 0.5294642448425, -0.1647949218750, -1.0664629936218, 0.6380631923676, 0.3905696570873, -0.9258883595467, 0.0802056118846, -1.6832224130630, 0.9652597308159, -0.2226190716028, 0.7088845372200, -0.5709776878357, 0.1442297548056, 0.3013518750668, 0.8728100657463, -0.2237394750118, 0.8673812150955, -1.1096547842026, 0.2203034013510, -0.5831550955772, 0.7059467434883, 0.3783884048462, -0.9013983011246, -0.2360284477472, 0.3445068001747, 0.8097329139709, 0.7641875743866, 0.6940277814865, 0.4500927031040, 0.3796207606792, 0.6960412263870, -0.8795056939125, -1.1006283760071, -0.1956119686365, 0.9330639839172, 0.4539783298969, 0.6617271304131, -0.3278542160988, -0.5203392505646, 1.5302575826645, -1.5395516157150, 0.5758352875710, 0.2025827020407, -0.0503474585712, -1.2733651399612, -0.6453930139542, 0.4130102396011, 0.0223063640296, 0.8314127922058, 1.0614930391312, -0.8410856127739, -0.1407582014799, 0.0486821755767, -1.2260844707489, 0.1317878961563, 0.0026622610167, -0.7967365384102, -0.6806189417839, -0.1297833174467, 0.8508356809616, -1.3057264089584, -0.1861948370934, -0.0543766282499, 0.3375606536865, -0.9461748003960, -0.0274349153042, 0.6697933077812, 1.0671343803406, 1.7130261659622, -1.2973800897598, -1.4955430030823, 0.5144824385643, 0.0317504517734, 0.0114090703428, 0.0083477394655, -0.7298626303673, 0.3615805506706, 0.3403546214104, 0.9049324989319, -0.4091638326645, -1.0476922988892, -1.1435856819153, 0.3761774599552, -1.7349556684494, 0.0914952680469, -0.3323877155781, 0.0940987467766, 0.3953472971916, 0.5498577952385, -0.5285043120384, 0.3549693822861, 0.5367641448975, 0.2445960342884, -1.7228336334229, -0.3078469932079, 0.2529241740704, -1.1722923517227, 0.1497515290976, -1.6555209159851, -0.2202871143818, -1.3077009916306, -0.0933223143220, 0.5042863488197, -0.3655571937561, 0.4361523091793, -0.9903198480606, -0.4031190276146, 0.0925153642893, 0.2151591628790, -5.4352335929871, -0.5850471258163, 0.2334162592888, 0.5950436592102, -0.5069284439087, -1.0594328641891, 0.7555381655693, -0.3278603255749, -1.8019095659256, -1.9598261117935, -0.2829979658127, 0.2002994865179, -1.3827325105667, 0.0287500284612, -0.9375762939453, 0.0349906757474, 0.3406607210636, -0.8169921040535, -0.9101958870888, -0.0576216541231, 0.1068138033152, 0.6655559539795, -0.0404307954013, 0.5218191742897, 0.7116672992706, -1.1372756958008, -0.0612638741732, 0.2904942929745, -0.0725975930691, 0.3858407437801, -0.0678860619664, 0.3643608689308, -0.0505772195756, 0.0114596448839, 0.0105650015175, -0.3949625194073, -0.9535990357399, -0.6408764719963, 0.5155233740807, -0.0323599390686, -0.7164163589478, 0.8883195519447, 0.2613063454628, -0.2872666120529, -0.1786862164736, -2.6748161315918, 0.0588614605367, -0.0463381186128, 0.3514020144939, 0.3327945470810, 0.6180481910706, 0.2474354505539, 0.4413804113865, -1.7403999567032, -0.0442134812474, -0.9773291945457, 0.2634160518646, 0.3125121295452, 0.1801834702492, 0.2236388176680, -0.7314022779465, 0.0985198244452, 0.2019000053406, -0.4453390240669, 0.1095638871193, 0.2557687759399, -0.9006599783897, -0.1243991851807, -0.4244630634785, -1.0292160511017, 0.1675983518362, 0.1848274618387, -0.1856684833765, 0.7005013823509, 0.2443027496338, -1.3388431072235, -0.2386218011379, -0.4558791518211, 0.3118670880795, 1.0431525707245, 0.1838195174932, 0.5161600708961, -0.1634372472763, 0.2819103002548, -0.3569619059563, -2.5964798927307, -0.9573676586151, 0.0737979933619, -0.1667089611292, -0.8907075524330, -0.6817934513092, 0.2061497122049, -1.1896754503250, -0.7619380950928, 0.3923819363117, -0.8048403859138, 0.7827907204628, 0.4529052376747, -0.8586661219597, 0.2591316998005, -1.4021085500717, 0.6868491172791, 0.4815281331539, 0.0336230099201, 0.1157720759511, 0.8114925026894, -0.2075842022896, -0.9086385965347, 0.1388156861067, 0.5164223909378, 0.3782332241535, 0.0153109403327, -0.0569336973131, 1.2754426002502, -0.6750990152359, 0.6103451251984, -1.4931412935257, 0.0225621964782, -0.7316043972969, 0.8511431217194, 0.3393180668354, -0.8462814092636, -1.2243570089340, 0.7438760995865, 0.4814803898335, -0.5698704719543, -0.7568695545197, -1.2471299171448, 0.5464858412743, 1.2869883775711, 0.1059098988771, -0.1248868629336, 0.6569496393204, -0.5252925753593, 0.9141013026237, 0.3865617811680, -0.4512989223003, -0.6400369405746, -0.7725022435188, -2.6981823444366, -0.2325582206249, 0.1334726810455, 0.8364173173904, -1.0073177814484, -0.3895238041878, -0.4629155993462, -0.1296056210995, 0.4618149697781, 0.4453496336937, -0.4484220147133, -0.4260104000568, 0.4354136586189, -0.1311302930117, -0.1390903294086, 0.5181289911270, -0.2080708593130, 0.8909748792648, -0.2181625217199, -0.3414443135262, 0.4912395179272, 0.4970510005951, -0.7664790749550, 0.1917955726385, 0.1894906461239, 0.8799724578857, 0.8364009261131, -0.1647201329470, 0.7263740897179, -0.3335132002831, -0.6374489665031, 0.4196595847607, -1.2508709430695, 0.3536679148674, -2.2712388038635, 0.2343998253345, -0.0291943196207, -0.3548627793789, 0.1376472264528, -0.1844194829464, -0.9096121788025, -0.5318178534508, 0.1551258713007, 1.1569631099701, -0.0428783968091, 0.8004943132401, -0.3200195431709, -0.5059232115746, 0.5635955333710, -0.5080273747444, 0.4065009951591, -0.8930360078812, 0.3772092759609, 0.0938105732203, -2.5237369537354, 0.8242852091789, 0.2902511060238, -0.4258807003498, -0.3547416329384, 0.0759806036949, -0.0708394572139, 0.1872046142817, -0.7661446928978, -0.2045642733574, 0.4232804179192, -0.4579806029797, -0.4260025322437, 0.7417687773705, 0.2224868386984, 0.4050139784813, 0.0530168227851, -0.9948617219925, -0.8037032485008, -0.4905816614628, 0.1089700162411, 0.4686401188374, 0.3553211390972, -0.2764195799828, -0.9940663576126, -0.7288883328438, 0.0538467541337, -0.4423694908619, -0.0361695326865, -1.8048694133759, -0.0092087760568, 0.5908278226852, -0.9087446331978, 0.6997087597847, 0.1739218384027, 0.2363731265068, 0.4492733478546, 0.8234149217606, 0.6334352493286, 0.4533730447292, -0.3521781563759, 0.3757088482380, 0.6075321435928, 0.3872566819191, 0.3884191215038, 0.0811760947108, 0.9509319067001, 0.6233617663383, -0.7959890365601, 0.3690858781338, -0.7906063795090, -0.0124162221327, 0.6138370037079, 0.8923981189728, 0.2941201329231, 1.3125144243240, -0.2786670327187, -0.1230369061232, 0.3168676793575, 1.0129495859146, -0.2959733903408, 0.6094118356705, 0.6369408369064, 0.5323393940926, -0.4746605157852, -0.5430046319962, 1.2517553567886, 0.0201773624867, -0.0859686583281, 0.6107357144356, -1.1391860246658, 0.7538695335388, -0.1667769551277, 1.5633144378662, 0.6053253412247, 0.3043079972267, -0.2492555975914, 0.6125137805939, 0.0666384622455, 0.7167115211487, -1.1589857339859, 0.6051553487778, 0.5001211762428, 0.1146870180964, 0.4593037962914, -0.8677305579185, 0.7298743128777, -0.1346521079540, -0.8009614348412, 0.0491460151970, 0.4996886551380, 0.4027199149132, 0.2625653743744, 0.3760660290718, 0.2251961678267, 0.8204599022865, 1.1160876750946, 0.3698024749756, 0.0674721524119, 0.6061305403709, 0.0158111918718, 0.4235679209232, 0.5607493519783, 0.9913105964661, 0.2871587574482, -1.2016999721527, 0.3570049405098, 0.5466470718384, 1.0921627283096, 1.1795492172241, -0.7823823094368, 1.1289836168289, -0.2688277661800, -0.5214343070984, 0.6701801419258, 0.7027387619019, 0.5444772243500, -0.6150267124176, 0.6460521817207, -0.7287176251411, -0.1535824984312, -0.8181878328323, 0.9346402287483, 0.6683445572853, 0.4967803359032, 0.9372912645340, 1.2424297332764, 0.6644892692566, 0.7147908806801, 0.1277721226215, -0.0156385991722, 0.2078660577536, 1.0356560945511, 0.3970516622066, 0.2094529420137, 1.0917987823486, 0.5440857410431, -0.0081766406074, -0.4076689779758, 0.6042149066925, -0.3269319534302, -4.3609757423401, 0.2464879304171, 0.3704443573952, 0.1483831107616, 0.3062448501587, -0.3708225190639, 0.6917695403099, 0.5032065510750, 0.4844724535942, -0.0765925869346, -0.0808038786054, -0.7890227437019, -0.2987711131573, -0.3106792271137, 0.2710307240486, 0.3918841481209, 0.0867185592651, 0.0383537374437, -0.9331753849983, -0.0721812993288, -0.4623607397079, 0.1018073782325, -0.4360192120075, 0.5106174349785, -0.4253761768341, -0.3646470308304, 0.5562285184860, -1.1862360239029, 0.0623269006610, 0.8239697813988, 0.1179124116898, 0.7899160385132, 0.5981239676476, -1.5374091863632, 0.4675363004208, -0.2929210960865, 0.1132370010018, -1.0107406377792, 0.8125984668732, -0.5516154766083, -0.5891108512878, -1.4431444406509, -0.7883021831512, 0.4037573337555, -0.3536775708199, 0.4440962970257, -0.0472327545285, -0.9020716547966, 0.5965303182602, 0.5207515954971, -0.0885095447302, 0.5452626943588, -1.3805567026138, -0.3305886685848, -1.6507589817047, 0.1888514459133, 1.0415321588516, -0.4511408209801, 0.0212900992483, -1.3690620660782, -0.6325507164001, -0.5606348514557, -1.2498977184296, -1.2601116895676, 0.0594911240041, 0.3822096586227, -0.0459538251162, -2.3411803245544, -0.6236986517906, 0.2460563927889, 0.1411517709494, 0.6959108710289, -0.9001380205154, 0.2026808708906, 0.5802187919617, -0.0707918927073, -1.7074412107468, -2.1885406970978, -1.4864220619202, 0.5329510569572, 0.6882826685905, -0.6172215938568, -0.3061468899250, 0.4496628940105, -0.6023679375648, 0.1106360629201, -1.1179269552231, -0.1221859231591, 0.4029609262943, 0.2512771785259, -1.4529896974564, 0.0510669834912, 0.1900009512901, -0.7629119753838, 0.5650275945663, 0.5239572525024, -1.0481934547424, -1.1458640098572, -0.1976532042027, 0.7932000160217, 0.8964533209801, -0.3311343193054, -2.1605536937714, 0.1576160788536, 0.8489211201668, 0.8092705011368, 0.6803117394447, -0.3551805615425, -1.2091919183731, 0.2390300482512, 0.3515779376030, -1.0819164514542, -0.0656124949455, 0.0350565165281, 0.7725955843925, -0.3786910474300, 0.2280918806791, -1.2711493968964, -2.3069839477539, 0.0587573200464, 0.5812617540359, 0.4573651254177, 0.1464747786522, -0.4703730344772, 0.9500176906586, 0.7132573127747, 0.2681196928024, -0.3996609151363, 0.2919085621834, -0.2263638228178, 0.0013858537422, 0.5187237858772, 1.0929992198944, 0.2005888521671, -0.1052661240101, -1.6879621744156, -1.0984815359116, -0.8587204813957, -0.0600122399628, -1.0062887668610, 0.2877808511257, -1.6232064962387, 0.7673560380936, -0.0285559911281, -0.1922828704119, 0.3462410569191, 0.4585489332676, 0.9262546300888, 0.1052188351750, 0.9096506237984, 0.1530297547579, 0.5373694300652, 0.8255881071091, 0.4783972799778, 0.3868243098259, -0.7388497591019, 0.4637291133404, 0.5830067992210, 0.0412583425641, 0.2389822751284, 0.3275962471962, 1.0721287727356, -0.2083072513342, -0.5178925991058, -0.7718344330788, -1.0832442045212, 0.1614622622728, 0.0241634361446, 0.4998857676983, -1.2170211076736, 0.1857449710369, 0.5814359784126, 1.1584620475769, -1.0778678655624, 0.5209453701973, 1.0009999275208, -1.1152994632721, 1.8037354946136, 0.1429370045662, -0.1051673591137, -0.7215261459351, -0.1137611791492, 0.9118596315384, -0.6123780608177, -0.0509267076850, -0.0717413276434, 1.0049465894699, 1.2009785175323, 1.4213962554932, 0.6771073937416, 0.6190637946129, -0.3391929268837, -0.9020087122917, -0.1010873466730, 0.8000004291534, 0.6445002555847, 0.9588282108307, 0.6521536111832, 0.1666575670242, 0.5210594534874, -0.5649027228355, -0.7115494608879, 0.5608440041542, -0.1965837925673, -0.0538777336478, 0.7842793464661, 1.6474560499191, 0.6165740489960, 0.0351270548999, -0.0284034609795, 0.1101901531219, -0.6187456250191, -0.2507618069649, 0.5079004168510, -0.2499893605709, -0.1402459591627, 0.0429784767330, 0.8859679102898, 0.3993891179562, -0.0312658362091, 0.0967077091336, -0.8238577842712, 0.2654087245464, 0.8795118331909, 1.2893004417419, -0.0173945464194, 0.8914298415184, 0.5468665361404, 0.3675562143326, 1.1955118179321, 0.2122784256935, 0.5815308690071, 0.6376605033875, -0.1217563599348, 0.4880438446999, 0.4382621347904, -0.1499208211899, 0.4469488561153, -0.4848199784756, -0.6631279587746, -0.9890356659889, -0.9274656176567, -0.2149597108364, 0.2894735932350, 0.7728928327560, -1.9116204977036, 0.3600620925426, 1.0152282714844, -0.9999346137047, 0.3352693319321, 0.1312126815319, 0.3986450433731, -0.0807518362999, 0.5159903168678, 0.0949258059263, -0.1425492912531, -0.1425194144249, 1.1499344110489, -0.5555450916290, 0.9566985368729, -0.0179650560021, -0.5677778720856, -0.2101330906153, 0.5438275933266, -1.4370532035828, 0.2181899249554, 1.5853228569031, -0.1988073140383, -0.0017855346669, -0.2904839515686, 0.1712351739407, 0.1470183432102, 0.5688130259514, 0.8657933473587, -1.3054343461990, -0.6083732843399, 0.2489682883024, -0.2104634046555, 1.0459215641022, 0.5312240719795, -0.0778983831406, -0.5335965156555, 0.6150771379471, 0.4344825744629, 0.2263682186604, -0.9937345981598, -0.7884102463722, 0.4542224109173, 0.1876479983330, 0.7831286787987, 0.8267441391945, 1.8708983659744, 1.2713510990143, 0.7095694541931, -0.5695265531540, 0.6057407855988, 0.8261073231697, 1.3018826246262, 0.3468890190125, -0.7016227245331, 0.5852617025375, 0.7905542254448, -0.7900885343552, 0.6543723344803, -0.3884475529194, 0.1285383999348, 0.1668641269207, 0.0037134804297, 0.5307956337929, -0.2172652631998, 0.1773692667484, 0.8950705528259, -0.2261855155230, -0.5744425058365, -0.2377620190382, -1.5122926235199, 0.0709015727043, 0.0553855225444, -0.6011298298836, 0.0527063831687, 0.0374454669654, -0.7771610021591, 0.2510833144188, -0.5003336668015, 0.8424113392830, 0.6050080060959, 0.1569838076830, 0.4950037300587, -0.4303598701954, -0.1267055124044, -1.2346661090851, -0.1112383306026, 1.1605337858200, 0.5060781240463, -0.1831277757883, 0.8778017163277, -0.8755798339844, 0.8262442946434, 0.4300142824650, 0.0677750855684, 0.5845701694489, 0.4808321297169, 1.0055675506592, 0.3568201959133, 0.6814854741096, 0.3823670148849, -0.5558796525002, 0.1175827905536, -0.2009340524673, -0.8376895785332, 1.3752485513687, -0.7226471304893, 0.7747230529785, 1.2719131708145, -1.2167410850525, 0.4971208870411, 1.3079868555069, 0.3623531758785, -0.0882594063878, 0.2879443466663, 1.0691324472427, 0.4189307093620, -0.5618684291840, -0.3715519607067, -0.8821875452995, 0.7779295444489, -0.1391201466322, -0.3233549594879, 0.0486672408879, -0.2706271111965, 0.0355033017695, 0.6237040162086, 1.2893846035004, 1.1039897203445, 0.1996343582869, -0.0527631938457, 0.6180869936943, -0.0562986657023, 0.5874577164650, -0.4469640851021, -0.1448059529066, 0.2680647373199, 1.0950261354446, -0.2770812213421, 0.2260442823172, 1.4063491821289, -0.2793374359608, 0.5711535811424, -1.0852099657059, 0.8810427784920, 0.4676895737648, 0.5896557569504, 0.7448598146439, -0.4284967482090, 0.8391751646996, 1.0921676158905, 0.6587400436401, 1.0928158760071, -0.3224988877773, 0.0831150636077, 0.5542958974838, 0.1707877963781, 0.6270304918289, 0.8402579426765, -0.3715103268623, -1.0452048778534, 0.9298158288002, 0.1653897315264, -1.3420109748840, -1.0368728637695, 0.1514918208122, 0.3735534548759, 0.6478201746941, 1.4347901344299, 0.0461376681924, -5.3201284408569, 0.3804435431957, -0.8508491516113, -0.6648132205009, 0.8755751848221, -1.7030524015427, 0.1132965609431, 0.4262357056141, 0.0859363600612, -1.1505583524704, -0.0634185522795, -0.2679521143436, 0.4010033011436, 0.3298299908638, -0.0356433391571, 0.1452264785767, 0.2576926648617, 1.0130383968353, -0.2641457617283, 0.3326366245747, 0.7543066740036, -0.2451906800270, 0.5691071152687, -1.0417543649673, 0.1759968250990, 0.6883276700974, 0.5185114741325, 0.2116838842630, -1.0870003700256, -0.4834316372871, 0.5789052844048, -0.0504722446203, -0.2270241379738, -1.0126852989197, -0.1593157947063, 0.5823546051979, -0.3713622093201, 0.9629166722298, 0.2166772484779, 0.0467412024736, -0.1489116847515, 0.1245107054710, -1.0729664564133, 1.1794424057007, 0.0314851514995, 0.2196198552847, -0.6884095072746, 0.2689730525017, 0.6392976641655, 0.8154464364052, 0.7455357909203, -1.1555501222610, 0.5588545799255, 0.0927670001984, -0.5180116891861, -0.1619587391615, -1.2003477811813, 0.2793446183205, -1.4910608530045, -0.7274781465530, -1.0370169878006, 0.3607095777988, 0.3098393976688, -0.0960760936141, -0.1403052806854, -0.0326135307550, -0.1564034074545, -0.7241780161858, 0.2731211483479, -0.2728597521782, -0.0562148876488, 0.0074962461367, -0.1901673674583, -0.1148561909795, 0.0937188714743, 0.8817240595818, 1.1809847354889, -0.5745504498482, 0.1921468079090, -0.0237738154829, -0.0566106103361, -0.3038660287857, 0.2395913749933, -0.5168075561523, -1.8638712167740, -0.4359811544418, 0.0869552493095, -0.7945694923401, -0.1208091676235, 0.1666025668383, 0.4999155104160, 0.9909492135048, -0.6146034002304, 0.2098483145237, -0.3587238490582, -0.5131409764290, -0.3443828821182, 0.1153000444174, 0.8871685266495, 0.4734448492527, 0.0542219989002, 0.8572837710381, 0.2025690227747, 0.6521058678627, -0.2081493288279, 0.3528803884983, -0.4477554261684, -0.5288619995117, -0.0719620361924, -1.0942621231079, 0.0735614746809, -0.3999081254005, 0.4927819669247, 0.0441028028727, -0.1081607639790, 0.3272943794727, 0.5457291007042, 0.2436808794737, 0.0915461182594, 0.1590710133314, -2.0624308586121, 0.2577731907368, -0.6312351226807, 0.6549044251442, 0.4413847923279, 0.2682154178619, -0.2597401142120, 0.1835826039314, 0.3098019659519, 0.0005307001411, 0.4752492606640, -0.0444828085601, 0.2458532899618, -1.4572541713715, 0.3713307082653, 0.2284971773624, -1.4298918247223, 0.5858951807022, 0.1116112023592, 0.0420551449060, -0.0423365384340, -0.3450203239918, 0.1592925637960, 0.2440885603428, -0.0095758987591, -0.3159855008125, -0.7700068354607, -6.1492877006531, 0.4392061233521, 0.4203012883663, -0.1882754713297, -0.2086129933596, -1.1769278049469, -0.3576610386372, 0.1958201527596, 0.4971650838852, 0.3129479587078, -0.1609773486853, -8.4625463485718, -0.9465316534042, 0.2460586726665, 0.0901539996266, 0.7484129667282, -0.1664025038481, 0.2068124860525, 0.0576309077442, 0.2207622826099, -1.3676512241364, 0.2562194764614, 0.2372451722622, 0.1146772727370, 0.4857302308083, 0.3961586356163, 0.1696590483189, 0.4452248811722, 0.1040670052171, 0.1816902756691, 0.3893803954124, 0.0009044797043, 0.3603525161743, 0.0531552396715, 0.0702603161335, 0.2624287307262, 0.1335912197828, 0.1935916841030, -0.0107491137460, -0.0048204143532, 0.3087148666382, 0.0193882025778, 0.0906905978918, 0.4504106640816, 0.0121679399163, 0.1239657551050, -0.2641809284687, 0.0225011352450, 0.3959297239780, 0.0124045209959, -0.0903199538589, 0.1222619116306, -0.2867502868176, 0.2178349792957, -0.2363984733820, 0.3660995364189, 0.5323815345764, 0.3832783699036, -1.1768001317978, 0.0701077356935, 0.4880467355251, 0.3153763413429, -2.4616270065308, 0.2411308884621, 0.3036523163319, 0.1170829758048, -0.3233330249786, 0.1039710417390, 0.2811909615993, 0.0188308022916, -0.3285585641861, 0.7287926673889, 0.3671584129333, -0.2717856168747, 0.3117137849331, 0.3187763988972, -0.1240874975920, 0.3430445194244, -4.0890545845032, -0.0097915055230, 0.4224639832973, -0.0570663325489, -0.1150598749518, 0.6160956621170, -1.1883627176285, 0.5299873948097, -0.2285576909781, -0.1479927152395, 0.0411773808300, 0.2281971722841, 0.2542868554592, -1.2287560701370, 0.2783159613609, 0.2579903304577, 0.5883314013481, 0.0826429352164, -0.3929914236069, -1.5404298305511, -1.4335916042328, -0.5641144514084, 0.3424790501595, -0.1553946584463, -2.1502223014832, 0.1973348259926, -1.4523618221283, 0.4203613996506, 0.0590679310262, -0.4450519382954, -0.1099182292819, -4.2601366043091, 0.4589968621731, 0.3394558727741, 0.4664089083672, -0.5999224781990, 0.3211215138435, 0.3137187659740, -0.2145988196135, 0.3483308851719, -1.6051108837128, 0.1372488290071, -0.3032076060772, -2.0511467456818, -0.7975590229034, -4.2698979377747, 0.0292054805905, -0.2014988213778, 0.3184127509594, 0.0298322886229, 0.1999264955521, -1.1955860853195, -0.0236081779003, 0.2022114992142, 0.3278831541538, 0.1321142017841, 0.1722026169300, -0.0444982536137, -1.4992214441299, -0.2233178019524, -0.6568963527679, 0.1049199402332, -1.4490169286728, -0.2917071282864, -0.2357091158628, 0.2327332794666, -0.5868658423424, 0.1863592565060, -0.6275270581245, 0.4799345135689, 0.1340562701225, -2.5479822158813, -0.3562513589859, 0.2624069452286, -0.7828146219254, -0.5917994976044, -0.4802577197552, -1.4483087062836, -1.0593165159225, 0.2807509601116, -1.4764485359192, 0.1375008523464, -0.5645403265953, 0.0337658189237, -0.1165066510439, -0.1401090472937, 0.0868803784251, -1.7441358566284, 0.5706937313080, 0.1755442768335, -1.1986895799637, 0.9544989466667, 0.3883762359619, 0.1787614822388, -0.0345803275704, 0.3171974122524, -1.0444849729538, -0.1887590140104, -0.5767641067505, 0.4165013730526, -1.3169201612473, -0.2145099192858, -2.1952266693115, -1.0844770669937, -0.5045797824860, -0.4912628531456, -1.0647623538971, 0.0849519595504, -0.0589630529284, -0.8669669032097, 0.0311348270625, -0.6758235096931, 0.6238713860512, -0.9131873250008, -0.0923971384764, -1.2915767431259, -0.8835178017616, 0.6186912059784, 0.2208890169859, -0.7515241503716, -0.9299249053001, -1.2885358333588, 0.1976378858089, -0.1609198898077, 0.2527295053005, -0.9409375786781, -0.8048822879791, -0.5973453521729, 0.3026472926140, -0.0395969860256, -0.2972942590714, -0.3732377886772, -0.5332816243172, 0.1935381144285, 0.2261612564325, -1.7443944215775, -0.3985041975975, -0.1022056639194, 0.0090090567246, -0.2652208805084, 0.4703183770180, -0.3402389883995, 0.1316814273596, -1.4159445762634, -0.2503579556942, 0.3657375276089, 0.1705946773291, 0.6326281428337, 0.3485329747200, 0.9638656377792, 1.0066107511520, 0.3152097165585, -0.3001108765602, 0.7252680063248, -0.5395221710205, -0.6430026888847, 0.3407873213291, -1.0990998744965, 0.0413780212402, 0.4569615125656, 0.1796836256981, 0.9148759245872, 0.3125424087048, 0.7306997179985, 0.8259678483009, 0.7704597115517, -0.4445675015450, 0.7325900793076, 1.1450262069702, -0.2461437284946, 0.2193330675364, -0.0471639409661, 0.6069027185440, -0.2167312055826, -0.6098362803459, -0.0702920481563, 0.9812852740288, -0.9598248600960, 0.0622436366975, 0.0342621095479, 0.5616023540497, 0.6470010876656, -0.2133910357952, -0.5299015045166, -0.8087117671967, 0.3482772707939, 0.4698477089405, -0.4014992713928, 1.0206050872803, -0.0607759244740, 1.0399836301804, 0.2177470922470, 0.4745161533356, 0.6039505004883, 0.0390215441585, -0.2631395161152, -0.4664383232594, 0.2473100721836, -0.1535873115063, 0.5200092792511, -0.6442503929138, -0.7005012631416, 0.8145703077316, 0.6883650422096, 0.6832417845726, -0.8422648310661, 1.2071141004562, 0.1733418554068, 0.7809854745865, 0.5894405841827, -0.1077778637409, -0.6326943635941, -0.2139073610306, 0.3057540059090, 0.4361185729504, 0.0622057765722, 0.7062122821808, -0.6270701289177, -0.2615382075310, -1.2212443351746, 0.2909545600414, -0.4031253159046, 0.0651424601674, -0.1729719340801, 0.5126551985741, 0.3919145464897, 0.1136691495776, 0.6770827770233, 1.2226692438126, 1.2424615621567, -0.5599437355995, 0.6189622282982, -0.2645846903324, 1.2212978601456, 0.0591676905751, -0.2877268791199, -0.8460329174995, -0.5740779638290, -1.1716299057007, -0.3520127236843, 1.0732693672180, 1.0771956443787, 0.7200530767441, -0.1282926648855, 0.9466215372086, 0.3302870392799, -0.9198875427246, 0.1847124993801, 1.4848628044128, -1.1881259679794, -0.9109089970589, 0.5343301892281, -1.0085700750351, 0.1473364830017, -0.7026044130325, 0.8218055367470, 0.4360229671001, 0.3943884074688, -0.8560555577278, -0.4340214133263, 0.3692565858364, 0.5358861088753, 1.1113195419312, 0.3351926207542, 0.7363165020943, 1.3364533185959, 0.4879604578018, 0.0927696004510, -0.5055556893349, 0.2566912770271, 0.4898938834667, 0.2925011217594, -0.0979861617088, -1.1028090715408, 0.1806257963181, 0.3795587718487, -0.7730298042297, -0.2306875139475, -1.3814270496368, 0.4774208664894, -0.5686991810799, 0.3084867894650, -0.2810260057449, 0.5371044278145, 0.0518717356026, 0.5233784914017, 0.2709341347218, -0.2633001804352, 0.6921352148056, 0.5413513183594, 0.7042924761772, -0.1752340942621, 0.5640377998352, 0.1333953738213, 0.0190570615232, 0.4150563180447, 0.4696720838547, 0.1258070915937, -0.7094293236732, -0.4961685538292, -1.3582804203033, 0.4582275450230, -1.1057182550430, -0.3072068989277, -0.2929118573666, 0.7203993201256, 0.4022428989410, -1.5735855102539, -0.6271430253983, 0.4528145790100, 0.6357097029686, 0.2546953558922, -0.7140617966652, -0.6247085928917, 0.3031496405602, -0.7191296219826, 0.9009507298470, 0.2681457698345, 0.4499976933002, -0.7611349821091, 0.3321587741375, 0.3026356697083, 0.0558637604117, -0.0697411298752, 0.6240613460541, -4.1468586921692, 0.4197089672089, -3.0291242599487, -0.9103624820709, -0.0703198760748, -0.1614181846380, -0.2822252810001, -0.7437738776207, 0.6041491627693, 0.7022229433060, 0.0348622985184, 0.9353920221329, 0.0532636530697, 0.8157749772072, -0.0452970229089, -2.2662575244904, -0.5599443912506, -0.7140096426010, -0.7628473639488, -0.0777555629611, -0.6030033826828, 