//Numpy array shape (546,)
//Min -2.646472930908
//Max 2.481881618500
//Number of zeros 0

#ifndef IN_PROJ_BIAS16_H_
#define IN_PROJ_BIAS16_H_

#ifndef __SYNTHESIS__
layers_1_self_attn_in_proj_bias_t in_proj_bias16[546];
#else
layers_1_self_attn_in_proj_bias_t in_proj_bias16[546] = {0.011671544052660, -0.016904570162296, -0.000005652344043, 0.000006944681445, -0.044885359704494, -0.077669344842434, 0.039320394396782, -2.446293830871582, 0.000011599550817, 0.000046537243179, 0.097843222320080, 0.150611683726311, 0.049357522279024, -0.077570557594299, 0.000003260242693, -0.000001540974040, -0.175326794385910, 0.004712973721325, -0.045828342437744, -0.013327500782907, 0.000005331867669, -0.000003924707016, -0.392075091600418, 0.051320962607861, 0.001428175950423, -0.006988309323788, -0.000008911454643, -0.000005721537036, -0.038856390863657, 0.028642669320107, 0.036336574703455, 0.037737939506769, 0.000006061599834, -0.000002137595402, -0.335655331611633, -0.142027094960213, -0.068264655768871, 0.036494500935078, -0.000001014859549, -0.000002491109626, -0.614073693752289, 0.107466690242290, 0.023732652887702, 0.081643909215927, 0.000006113657037, -0.000011764856936, -0.138821899890900, -0.231234848499298, -0.008739567361772, 0.015746168792248, 0.000011835637451, -0.000000338765858, -0.134088262915611, -0.274015575647354, 0.044197544455528, -0.025445703417063, -0.000009240759937, -0.000002784382104, -0.147610366344452, 0.275809884071350, -0.011110961437225, 0.022846693173051, 0.000012392615645, 0.000009561261322, -0.337540835142136, -0.450265705585480, -0.071628913283348, -0.014606057666242, 0.000003527027047, 0.000003676321967, -0.006973641458899, 0.001180988387205, 0.032995928078890, -0.065838642418385, -0.000012352873455, 0.000008173856259, -0.156373187899590, 0.256689488887787, 0.092439271509647, -0.039065878838301, 0.000013564365872, -0.000001602850944, -0.569782674312592, -0.236509069800377, 0.033816557377577, 0.010291432961822, 0.000004531465947, 0.000000202613350, 0.332263290882111, -0.468781441450119, 0.000277695973637, 0.056744728237391, -0.000005627565770, 0.000001534065746, 0.383323341608047, 0.015606892295182, 0.015657402575016, 0.146377280354500, -0.000012851483007, -0.000000826878249, 0.056764882057905, -0.113265700638294, -0.065082550048828, 0.027440300211310, -0.000012430378774, -0.000007705308235, -0.103561140596867, 0.266383618116379, 0.034823942929506, 0.007718245033175, 0.000003184684601, -0.000003152671979, -0.233063906431198, 0.083764262497425, 0.067122839391232, 0.022045211866498, -0.000016609079466, -0.000006985902473, 0.522763669490814, -0.323505938053131, 0.067447945475578, -0.056894443929195, -0.000019647077352, 0.000002620309715, 0.025607075542212, -0.270472347736359, 0.007945214398205, -0.046624969691038, -0.000001952764478, 0.000008061560038, 0.158027514815331, 0.417457699775696, -0.037318494170904, 0.063407540321350, -0.000002901893822, 0.000001604499971, 0.171128496527672, -0.110023416578770, 0.017004637047648, 0.088987268507481, -0.000019261802663, 0.000001956464985, 0.400732129812241, 0.286930799484253, 0.000655487412587, 0.026251090690494, -0.000005458041869, 0.000004979407549, -0.132858738303185, 0.142754361033440, -0.041141286492348, -0.097319550812244, 0.000007895246199, 0.000003653819704, 0.462177693843842, -0.142574280500412, 0.002061499515548, -0.020990639925003, 0.000016431826225, 0.000000624525796, -0.166763156652451, -0.051359668374062, -0.017904818058014, 0.043998245149851, -0.000016030297047, -0.000004926325801, 0.314472615718842, 0.076920032501221, -0.199851289391518, 0.009198840707541, -0.000052944502386, 0.000000030728156, 0.688021183013916, 0.396692067384720, 0.515078485012054, -0.026675377041101, 0.000000451243324, -0.000001546710791, 0.024107540026307, -0.148162275552750, 0.032210271805525, 0.123738162219524, -0.000005115487511, 0.000002374438736, -0.394085943698883, 0.004703379701823, -0.089902035892010, -0.016686778515577, 0.000003954075510, -0.000002541041113, -0.181046783924103, 0.152228936553001, -0.031125552952290, -0.035944961011410, -0.000001660529279, -0.000000334551089, -0.514171063899994, 1.097967147827148, -0.012743413448334, -0.428967267274857, -0.000015158937458, 0.000025240655305, 0.135857030749321, -0.059492379426956, 0.121417351067066, -0.046240635216236, -0.000007414851552, -0.000007964921679, -0.169350564479828, 0.130379647016525, 0.032824084162712, 0.044381540268660, -0.000009431032595, 0.000004307243216, 0.146753892302513, 0.237337201833725, 0.061163201928139, 0.012427100911736, -0.000000624652387, -0.000004667811936, 0.306383877992630, -0.174022555351257, 0.032167818397284, 0.010626399889588, -0.000006364959063, 0.000009763990420, 0.503007590770721, 0.002580115105957, 0.059986989945173, 0.033713296055794, 0.000006310277058, -0.000009169508303, 0.000123461912153, -0.497331738471985, -0.011396926827729, -0.150999426841736, 0.000003142236665, 0.000003959165042, -0.169629991054535, -0.254415363073349, -0.096650153398514, -0.032148938626051, 0.000001588296641, -0.000000129880362, -0.357942044734955, 0.191214084625244, -0.091008819639683, -0.036405824124813, -0.000012519556549, 0.000001580511935, -0.162945151329041, -0.406096279621124, 0.005423699971288, 0.071253955364227, 0.000009172230421, -0.000013872176169, 0.040159706026316, -0.009125955402851, 0.041825216263533, -0.010490722022951, -0.000007899493539, 0.000003003684697, -0.091730535030365, 0.146371021866798, 0.002590243238956, 0.008774480782449, -0.000002439473974, -0.000011844936125, 0.080002635717392, -0.758831322193146, -0.004044876899570, 0.008643779903650, 0.000006190822660, -0.000010806030332, 0.606072783470154, -0.186631217598915, 0.024265130981803, 0.058048438280821, -0.000020609875719, 0.000008214963600, -0.003689610632136, -0.232234448194504, -0.002517513697967, -0.037686340510845, 0.000004178645668, 0.000004214922228, -0.281650006771088, -0.022188303992152, 0.014136454090476, -0.007171986158937, -0.000016909669284, -0.000003176736300, -0.141370788216591, 0.158929929137230, 0.087317213416100, 0.055216621607542, 0.000008181275916, 0.000007187269148, -0.131257444620132, -0.148951187729836, 0.004437137395144, -0.002185510471463, -0.000011129483028, -0.000008933609024, 0.418611049652100, 0.121573515236378, 0.330726623535156, -0.028344040736556, -0.000002674899633, 0.000004528173577, 0.477887123823166, 0.173983857035637, 0.138429462909698, 0.037239011377096, 0.000022603737307, -0.000001328352369, -0.147728189826012, 0.225628688931465, 0.032429717481136, -0.041626762598753, -0.000004459546290, -0.000003689184041, -0.471622347831726, -0.548905134201050, -0.015807222574949, -0.047847237437963, -0.000012867916666, 0.000006015370218, -0.337056577205658, 0.131374031305313, 0.009502128697932, 0.003501534461975, 0.000006826277968, -0.000011315079064, 0.023273035883904, 0.061986077576876, -0.022096443921328, -0.026238800957799, -0.000003267706461, -0.000005342983513, -0.882434606552124, 0.805373489856720, 0.002281103050336, 0.004591145552695, -0.000007215139249, 0.000003947460755, -0.224305346608162, 0.018273016437888, 0.084720760583878, -0.024948345497251, 0.000015200558664, 0.000001942809149, -0.037168774753809, 0.043830323964357, 0.027113221585751, 0.015923621132970, -0.000003072084837, 0.000005565123956, -0.135194048285484, 0.295407950878143, 0.009624616242945, -0.025116581469774, 0.000006211522759, 0.000000263233545, 0.496366232633591, 0.649262070655823, -0.007018794305623, 0.012513204477727, -0.000007075791018, -0.000009533919183, -0.067553788423538, -0.098871514201164, 0.018409634009004, 0.017566101625562, 0.000005723106824, 0.000004505106062, 0.253874540328979, 0.045076642185450, 0.026564875617623, 0.118091307580471, 0.000012476373740, 0.000016858319213, -0.047576703131199, 0.107578411698341, -0.024260235950351, 0.032598607242107, 0.000003759923175, 0.000010629992175, -0.175890430808067, -0.700188636779785, -0.044463232159615, -0.021426813676953, -0.000000492198808, 0.000012126353795, 0.442896157503128, -0.196341320872307, 0.071166172623634, 0.011245504952967, -0.000030021143175, -0.000006367859442, -0.179688394069672, -0.163577467203140, 0.003601040225476, 0.028235383331776, 0.000005350554602, 0.000005179876098, 0.029343476518989, -0.402604103088379, 0.059279736131430, -0.004280713852495, 0.000002330657708, -0.000003931040737, -0.063398323953152, -0.411931037902832, 0.009081353433430, -0.036590896546841, -0.000005822189451, 0.000007468462627, 0.002242876682431, -0.325842231512070, -2.646472930908203, 0.059163656085730, -0.000043380601710, -0.000003524920658, 0.140678584575653, 0.046730767935514, -0.016212755814195, 0.003982378635556, 0.000000844448323, 0.000012329524907, -0.238850712776184, 0.293819457292557, 0.049184367060661, 0.146077394485474, 0.000000816273086, 0.000009207025869, -0.870817065238953, -0.202551841735840, 2.481881618499756, 0.019314721226692, 0.000099554490589, -0.000011667507351, 0.233581036329269, -0.253127634525299, 0.011731658130884, -0.018084334209561, 0.000000834616628, -0.000000080591704, -0.457171797752380, 0.049315676093102, 0.054428845643997, -0.024131767451763, 0.000020288356609, 0.000003669710622, 0.180991098284721, -0.093381911516190, 0.046514615416527, -0.041911777108908, -0.000004531395916, 0.000010402271982, 0.290946364402771, -0.138487607240677, -0.053103957325220, 0.302943348884583, 0.000006266055152, -0.000048261292250, -0.101817972958088, -0.166592374444008, -0.081973418593407, 0.063855215907097, -0.000003570106173, 0.000013087835214, -0.278164118528366, 0.116474360227585, 0.023567752912641, 0.037436980754137, 0.000019201428586, -0.000007782898138, -0.463778138160706, -0.051440384238958, -0.002115895040333, -0.030578576028347, 0.000003032916311, 0.000002707689191, 0.789736270904541, -0.127397671341896, 0.032451864331961, -0.031819712370634, 0.000002844315986, -0.000001643768428, 0.033318735659122, -0.135525211691856, 0.010130689479411, -0.024062888696790, 0.000000302770758, 0.000013295137251, -0.142166122794151, 0.172280982136726, 0.130400598049164, 0.004031780641526, 0.000013915243471, -0.000003703441735, -0.237696126103401, -0.082553133368492, 0.007010605186224, 1.225949168205261, 0.000007490769804, 0.000016924741431, 0.225645527243614, -0.018137374892831, 0.054307002574205, -0.055400889366865, -0.000011031368558, -0.000005177082130, -0.195487037301064, -0.267041802406311, -0.029999479651451, -0.982864499092102, 0.000010211430890, 0.000003725376246, -0.085073456168175, -0.101606436073780, -0.022806482389569, -0.020869944244623, 0.000000734540492, 0.000010219874639, 0.238997325301170, 0.408382415771484, 0.017527915537357, 0.041999738663435, -0.000004120186532, -0.000003165138651, 0.479398876428604, 0.261732608079910, -0.015818329527974, 0.053899098187685, -0.000016534579117, -0.000001221306547, -0.181917175650597, 0.046067431569099, 0.076154343783855, 0.009360424242914, -0.000017564701920, -0.000002199220717, 0.474515825510025, -0.155063509941101};
#endif

#endif
