0.10104916989803, 0.05101224407554, 0.21796865761280, 0.06004518643022, -0.88928633928299, 1.91992211341858, 0.38740360736847, -0.02417581714690, -0.59019881486893, 0.09313855320215, -0.18333521485329, 0.58369845151901, 0.13267993927002, -0.42484045028687, -0.00852541998029, 0.24594756960869, -2.11734271049500, -1.05421626567841, 0.20273149013519, 0.01438808254898, 0.16335053741932, 0.10563586652279, 0.69975221157074, -0.26430681347847, 0.07411392033100, 0.17841568589211, -0.18932192027569, 0.31775245070457, -0.44904223084450, 0.61570215225220, 0.29672774672508, 0.27248007059097, -0.14189349114895, -0.29543954133987, 0.82890605926514, 1.79770493507385, -0.35651043057442, 0.02666629105806, -0.20234754681587, -0.18957611918449, -0.50314801931381, -0.04934113472700, -0.25107535719872, -0.22911742329597, 0.43143150210381, 0.20986352860928, -0.30956855416298, 0.52776354551315, 0.27127030491829, -0.01054591685534, -0.00697256065905, -0.11413690447807, 1.68568003177643, 0.09510662406683, -0.11987613886595, 0.43593621253967, -0.02476896904409, -0.28601863980293, -0.95463788509369, -1.76423776149750, 0.04324694350362, 0.12547557055950, 0.32119607925415, -0.14259152114391, 1.14501392841339, 1.48127126693726, -0.14651197195053, 0.06308094412088, 0.00835221447051, -0.52305483818054, -0.05476382002234, -0.33352059125900, -0.40468347072601, -0.75294971466064, 0.30206876993179, 0.26084643602371, -1.38675022125244, -0.50877410173416, -0.12451685965061, 0.16084559261799, -0.51172292232513, -0.15316607058048, 0.67594951391220, 1.17935276031494, 0.26190701127052, 0.03559193015099, 0.08177993446589, -0.28890034556389, 1.70069396495819, 1.24024677276611, -0.12058145552874, -0.04358083382249, 0.32893618941307, -0.16210474073887, 0.07035028189421, -1.28479588031769, 0.22269709408283, 0.43017557263374, -0.18428035080433, -0.30959281325340, -1.25210189819336, 0.85544532537460, -0.36126631498337, 0.01661486178637, 0.34592896699905, 0.40605631470680, 0.41608217358589, 0.23795369267464, -0.49057799577713, -0.11479921638966, 0.19000507891178, 0.22717072069645, -1.37503051757812, 3.03587102890015, 0.04886117950082, 0.00486738840118, -0.05948060378432, 0.00052682950627, 0.37200793623924, -0.58618396520615, 0.10707230865955, 0.65390694141388, 0.04171788692474, -0.45329752564430, 1.25702595710754, -1.74027442932129, 0.00858794432133, 0.31711587309837, 0.30498996376991, -0.11266070604324, -0.18895007669926, -1.42804944515228, -0.12119451910257, 0.07785087078810, 0.10492680966854, 0.46944499015808, -3.15330076217651, -0.65367722511292, 0.11010806262493, 0.09410584717989, -0.04049371555448, 0.40207439661026, 1.41524779796600, 2.58345031738281, -0.25815227627754, -0.42403990030289, -0.03767395392060, 1.02544677257538, -1.16039466857910, -0.11905186623335, 0.40006855130196, -0.27800521254539, 0.02260102704167, 0.18757481873035, -0.66278344392776, 0.20512312650681, 0.18256829679012, 0.17517460882664, 0.03298692777753, -0.20501258969307, -1.11879062652588, -0.54745936393738, -0.04323367029428, -0.13644132018089, 0.33948335051537, -0.53621828556061, 0.40827947854996, -0.12280785292387, 0.11961252242327, 0.17722980678082, 0.22463895380497, -0.00361456046812, 0.08347856998444, -0.69755566120148, 0.10072346031666, -0.49211886525154, -0.34663474559784, 0.51663172245026, -2.00890207290649, 0.64197260141373, 0.13940829038620, -0.22267219424248, 0.21148376166821, 0.44711956381798, 1.24068379402161, 0.19057497382164, 0.53164291381836, 0.27041050791740, -0.68349450826645, -0.27110788226128, -0.54296326637268, 0.39510852098465, 0.00240539503284, -0.03782327845693, -0.11665221303701, 0.35116434097290, -0.64433169364929, -0.89610028266907, 0.16086374223232, -0.32298263907433, 0.00052947789663, 0.19574019312859, 0.30568853020668, 0.22247420251369, 0.32115429639816, 0.17851622402668, 0.12731395661831, -0.24806587398052, 1.78206884860992, -0.72294509410858, -0.57605803012848, 0.16923098266125, -0.13121634721756, 0.26733639836311, 0.80772179365158, -0.05444790050387, -0.28955498337746, 0.50497525930405, 0.30411359667778, 0.33102384209633, 0.96592438220978, 0.77753257751465, 0.09354735910892, -0.32912230491638, 0.00721206935123, 0.30818819999695, 0.22815990447998, -0.17927861213684, 0.38400033116341, 0.00525196362287, 0.13797730207443, -0.31934395432472, 1.38487088680267, 0.50871777534485, -0.16074326634407, 0.06091137602925, 0.27356415987015, 0.16608260571957, 0.73861384391785, 1.19521892070770, 0.05985093116760, 0.02264747954905, -0.01591056212783, 0.26451712846756, 0.15417417883873, -3.64269328117371, -0.00186124187894, -0.29330784082413, -0.17898541688919, 0.12388145178556, 1.07972419261932, 1.78339076042175, -0.23601834475994, -0.15857973694801, 0.18748261034489, 0.19258697330952, 1.61253213882446, 0.18941773474216, -0.31682112812996, 0.27941000461578, 0.23089158535004, -0.54474931955338, -0.79559659957886, -0.49145433306694, 0.28681024909019, 0.19351658225060, -0.24585743248463, -0.02320094406605, 1.66328489780426, 1.21019971370697, 0.34058949351311, 0.05196202546358, -0.10107547789812, -0.29539018869400, -0.19552363455296, -0.77399951219559, -0.07979114353657, -0.00190522277262, 0.11061589419842, 0.18410633504391, -0.19604863226414, 0.72999936342239, 0.38724353909492, 0.03909111768007, -0.09473477303982, -0.30420035123825, -0.42412421107292, 1.56674838066101, -0.46691307425499, -0.07975772768259, -0.32849127054214, -0.11845204234123, -1.06708598136902, 0.99720239639282, -0.04920101165771, -0.12854844331741, -0.14469531178474, -0.13570827245712, -1.53602778911591, -0.19781625270844, -0.22761599719524, 0.22630091011524, 0.19394013285637, -0.72478538751602, 0.58697921037674, 0.55518597364426, -0.43295121192932, -0.07240889966488, 0.25875619053841, -0.21126104891300, -1.15603303909302, -1.22035753726959, 0.44981169700623, 0.02822042442858, 0.12246143817902, 0.06135095283389, -0.16190874576569, -0.30596551299095, 0.04194907844067, -0.34240186214447, 0.13437150418758, 0.76013487577438, -0.21085818111897, -0.13698402047157, -0.11946082860231, -0.29695191979408, 0.31796461343765, -0.17166361212730, -0.35183602571487, -0.21528527140617, -0.21943727135658, 0.17908795177937, -0.13575713336468, 0.62143385410309, -0.99419945478439, 0.47400870919228, 0.03137653321028, -0.13847129046917, -0.24533481895924, 0.02564583532512, -1.21561360359192, 1.03889620304108, 0.01295593939722, -0.19063317775726, -0.24974414706230, -0.50576573610306, 0.39431169629097, -0.83200514316559, 0.09990900009871, -0.26525819301605, -0.20045390725136, 0.40926423668861, 0.07591540366411, -0.89003902673721, -0.22185082733631, 0.15514361858368, 0.04114861041307, 0.09342646598816, 0.50879257917404, 0.16836333274841, 0.07650114595890, -0.32900163531303, -0.13659931719303, 0.11790317296982, -1.12538444995880, 0.41474452614784, -0.17023493349552, -0.47532588243484, -0.02349557913840, -0.18102334439754, -0.14606362581253, 0.58411145210266, 0.00880180019885, 0.36159002780914, -0.24831664562225, 0.07813616842031, -0.62363970279694, -1.69645547866821, -0.05734149366617, 0.05415886268020, 0.00666462583467, -0.62686115503311, 1.76926088333130, 1.99006557464600, 0.44808831810951, -0.21857710182667, -0.19234423339367, 0.30699220299721, 0.19045196473598, -1.38939976692200, -0.17650198936462, 0.04795559868217, 0.13168776035309, 0.12494340538979, 0.21253310143948, -1.26691997051239, 0.23659200966358, -0.09546453505754, -0.09816807508469, 0.29975870251656, -0.75310170650482, 0.35535684227943, -0.41723382472992, 0.04517931118608, 0.05719432607293, 0.28719243407249, -0.00704240798950, -1.56605625152588, 0.03880351781845, 0.08909847587347, 0.00410001445562, 0.17702051997185, 0.39593055844307, 2.68336200714111, 0.08082819730043, -0.08471996337175, -0.18571488559246, -0.22255948185921, 0.87971591949463, 1.00404822826385, 0.36134147644043, -0.36759996414185, 0.23539181053638, 0.10660225898027, -2.13290739059448, -0.86433589458466, 0.11341351270676, 0.07822097837925, 0.29912933707237, -0.19266322255135, -0.16269859671593, 2.62805795669556, -0.26062339544296, -0.17135262489319, 0.46661230921745, 0.02521778643131, 0.20136888325214, -1.59769272804260, -0.03375862166286, 0.02373709157109, 0.49271959066391, -0.34753733873367, 1.40873336791992, -2.12650918960571, -0.24897898733616, -0.03914734721184, 0.64952999353409, -0.30311495065689, 0.13996137678623, 1.20524501800537, -0.41543224453926, 0.28217151761055, -0.18797989189625, -0.25114843249321, 0.55570769309998, 0.08886303752661, -0.19885540008545, -0.10793443769217, 0.15634852647781, 0.02404043637216, 0.46546691656113, -1.11815750598907, 0.01877230219543, 0.24472299218178, 0.03617701306939, -0.05076523497701, 0.11012068390846, 0.47976693511009, -0.09599777311087, -0.03234338387847, 0.20864292979240, 0.12447146326303, -1.52319407463074, -0.48536595702171, -0.12956273555756, -0.18036401271820, -0.40167272090912, 0.09358859807253, -2.26600217819214, -1.40415239334106, 0.08526799082756, -0.06591161340475, 0.08069685101509, 0.35738655924797, 0.11860308051109, 1.07272505760193, -0.11371886730194, -0.10513891279697, 0.24510173499584, -0.25522243976593, 0.35551252961159, -0.18434146046638, 0.41806980967522, 0.10370568186045, 0.23094186186790, 0.09199389070272, -2.11195755004883, -0.76062160730362, -0.34893634915352, -0.12576428055763, -0.49946314096451, 0.10794004797935, -1.18656730651855, 1.34533953666687, -0.56193417310715, 0.47820764780045, -0.03163975477219, -0.47612598538399, 1.01494002342224, 2.24324393272400, 0.19193205237389, -0.30405312776566, -0.23331660032272, -0.04251487553120, -1.26220345497131, 1.26521706581116, 0.48503670096397, -0.22055876255035, 0.47290131449699, 0.44816005229950, -0.15237127244473, 0.83577376604080, 0.48954707384109, 0.36059862375259, 0.07253273576498, -0.27524170279503, -0.75861656665802, 1.99841547012329, 0.25772958993912, 0.26488721370697, -0.47046607732773, -0.13931338489056, 0.54867315292358, 0.33371034264565, -0.56355845928192, 0.08273575454950, 0.12170916050673, -0.05078370496631, -0.61368554830551, 1.76194524765015, 0.34735426306725, -0.28632315993309, -0.28300821781158, -0.12052758783102, -2.40144324302673, 0.24582490324974, -0.14887587726116, -0.26409596204758, 0.23477269709110, -0.31392005085945, 0.13691316545010, -0.39297184348106, 0.21659934520721, -0.45871499180794, 0.09972900897264, 0.31432908773422, -0.57668846845627, 0.32770133018494, 0.19702680408955, 0.08821353316307, -0.43077045679092, -0.05982362851501, 0.45310828089714, -0.09261754900217, -0.38620036840439, 0.71084690093994, 0.55619072914124, -0.55121576786041, -0.80688261985779, 0.15023289620876, 0.10863751173019, -0.08945901691914, -0.02122883126140, -0.26909711956978, 0.66013276576996, 0.03612253814936, 0.30635529756546, 0.54930633306503, -0.32948419451714, -0.61554723978043, 0.07522821426392, 0.41180673241615, -1.04883849620819, 0.16766184568405, 0.69508224725723, 0.08845329284668, 0.20222285389900, 0.32144355773926, -0.00610010977834, -0.13996477425098, -0.01507221907377, -0.44862559437752, 0.76898550987244, -0.16945008933544, -0.14829725027084, -0.15860353410244, 0.76007038354874, 0.31737008690834, 0.46751898527145, 0.33995285630226, -0.23019729554653, -0.42532968521118, 0.17107762396336, 0.40101861953735, -0.51905488967896, -0.26289799809456, -0.26297912001610, -0.65543586015701, 0.04645182192326, 0.25271126627922, -0.24553149938583, 0.38185116648674, -0.30798041820526, 0.47839689254761, 0.42777985334396, -0.45991188287735, 0.47579467296600, -0.57468992471695, -0.18542163074017, 0.23172336816788, 0.20784150063992, 0.45574033260345, -1.09287691116333, -0.24549922347069, 0.23441337049007, 0.41546660661697, -0.51179927587509, -0.08323137462139, -0.25619435310364, 0.36681538820267, 0.18708543479443, -0.59244954586029, -0.23012366890907, 0.97454619407654, 0.23654472827911, -0.43604010343552, 0.49461317062378, 0.85888755321503, 0.13251416385174, -0.36246758699417, -0.90721708536148, 0.44175758957863, -0.16871160268784, -0.65884578227997, -0.39257103204727, -0.80204790830612, 0.13662955164909, -0.27942577004433, 1.17860162258148, -0.03151357173920, 0.11482542753220, 0.04622642323375, 0.98942458629608, 0.33985930681229, 0.09619278460741, -0.48451998829842, 0.46665057539940, 0.10917389392853, -0.25937029719353, -0.49918439984322, 0.15983295440674, -0.74212610721588, 1.45225465297699, -0.03816344961524, 0.02352464757860, -0.05822650343180, 0.52857720851898, -0.24011263251305, 0.09567700326443, 0.37225022912025, 1.35910427570343, 0.17983847856522, 0.00052341178525, 0.56123203039169, -0.26083478331566, -0.80552852153778, -0.56106555461884, -0.23437449336052, 0.31481757760048, -0.27175399661064, -0.35531383752823, 0.04796304926276, -0.60518950223923, 1.45500719547272, -0.57046812772751, -0.74136918783188, -0.59073847532272, 0.02151159755886, 0.21659970283508, -0.25126463174820, -0.53940856456757, -0.15222786366940, -0.01246697735041, -0.61160665750504, -1.12102973461151, 0.23602241277695, -0.15740354359150, 0.24570524692535, -0.20810943841934, -0.40775778889656, -0.41933870315552, -0.44998070597649, -0.07662353664637, 0.28448954224586, -0.51205575466156, 0.04243523627520, 0.09823656082153, 0.38013201951981, -0.46266055107117, -0.14229501783848, 0.20981602370739, -0.08016391098499, -0.41831558942795, -0.41076532006264, 0.14531701803207, -0.02664508298039, 0.28066214919090, 0.08272050321102, -0.30882075428963, 0.45309421420097, -0.21655774116516, -0.34108954668045, 0.18507704138756, 0.15664899349213, 0.91052460670471, -0.39168635010719, 0.11343638598919, 0.03277149051428, 0.00724967848510, -0.22337427735329, -0.45132398605347, -0.41305008530617, -0.08622630685568, -0.28402620553970, 0.71051484346390, 0.17889305949211, 1.16960406303406, -0.50754708051682, -0.46603086590767, 0.41911762952805, 0.69939291477203, 0.10788109898567, 0.45856922864914, -0.24221351742744, 0.33164808154106, 0.27334737777710, 0.65940815210342, -0.30086675286293, 1.24436235427856, 0.16103915870190, -0.22638857364655, -0.06444974243641, -0.38997867703438, 0.45394876599312, 0.93826186656952, -0.43311133980751, 0.10373719036579, -0.34753659367561, 0.17329698801041, 0.69800972938538, 1.35613048076630, -0.23693336546421, -0.07003208994865, 0.08701038360596, -0.30495429039001, 1.34937572479248, -0.48645183444023, -0.36983942985535, 0.06808325648308, -0.73690181970596, -0.10944343358278, 0.04670300334692, 0.32020741701126, 0.15416210889816, 0.58923363685608, -0.16560019552708, -0.09801969677210, -0.48412725329399, -0.69742882251740, -0.72104036808014, 0.18903522193432, 0.82315754890442, -0.70894783735275, -0.25420993566513, 0.10063388943672, 0.02389070205390, 0.24013617634773, -0.19076120853424, -0.78054481744766, -0.03560114651918, -0.57521051168442, 0.35402780771255, 0.68331974744797, -0.00153982616030, 0.46829065680504, 0.07401810586452, 0.91731905937195, -0.65486496686935, -0.47367686033249, -0.16210496425629, 0.75266802310944, 0.19874422252178, 0.26275447010994, 0.53795367479324, -0.27018678188324, -0.02907620556653, -0.52226948738098, -0.63552707433701, -0.01982707902789, -0.03145768865943, -0.03606558963656, -0.71545189619064, 0.54886835813522, -0.15087577700615, 0.03980133682489, -0.20535127818584, -0.11057136207819, -0.34259745478630, -0.39022785425186, 0.63037955760956, -0.65785485506058, -0.09218034893274, 0.13517925143242, 0.20896776020527, 0.20444168150425, 0.21377868950367, -0.01004187576473, 0.03309695422649, -0.07300648093224, 0.07532955706120, 0.43104565143585, -0.50449740886688, 0.01193325780332, -0.07665260136127, 0.11204199492931, -0.62349545955658, 0.01081675384194, 0.16245995461941, -0.54302084445953, 0.26791980862617, 0.04226218163967, 0.05501150339842, -0.30474102497101, -0.00467579625547, 0.40647825598717, 0.64088255167007, -0.11978710442781, -0.08541861921549, -0.76509648561478, -0.17545878887177, 0.68953025341034, -1.45564651489258, 0.18943595886230, -0.16049228608608, 0.27153623104095, -0.26783069968224, -1.16532111167908, 0.93774545192719, 0.33746138215065, -0.22844727337360, -0.86673325300217, 0.10823348164558, 0.17658147215843, -0.12283462285995, -0.01719481311738, -0.02082303352654, -0.65642267465591, -0.37624862790108, -0.55186820030212, -0.10345375537872, -0.48635715246201, -0.06556624919176, 0.82242339849472, -0.26112681627274, 0.04356333613396, 0.20613555610180, 0.02781190350652, -0.76464319229126, -0.17945389449596, 0.32177537679672, -0.22191932797432, 0.39658612012863, 0.28932201862335, -0.41770064830780, -0.55915045738220, 0.07824871689081, -0.57122665643692, 0.12619000673294, 0.10291945189238, 0.88518279790878, -0.27615895867348, 0.44621685147285, -0.02987992949784, 0.60286259651184, 0.26282688975334, -0.38199871778488, 0.32304742932320, -0.50518512725830, -0.75327610969543, -0.27751573920250, -0.22046761214733, -0.25758963823318, 0.22831897437572, -0.50663399696350, -0.70801097154617, -0.58454811573029, 0.21370257437229, -0.13776545226574, 0.12515935301781, 0.07369427382946, -0.08783821761608, -0.24929392337799, 0.22413422167301, -0.05928264185786, 0.15388156473637, -0.08940570801497, 0.01427428424358, -0.40178900957108, -0.18822526931763, 0.08257423341274, -0.85498696565628, 0.62816876173019, -0.87885093688965, -0.79850465059280, -0.00173883873504, -0.44718760251999, 0.23087421059608, -0.16332228481770, 0.45915681123734, 0.37191101908684, -0.37002700567245, 0.53808158636093, -0.03748205676675, 0.44324812293053, 1.04217898845673, -0.04241767153144, 0.12207088619471, -0.26374608278275, 0.02603908814490, 0.42010509967804, 0.41861981153488, -0.27763825654984, 0.27613779902458, -0.09365717321634, -0.18750800192356, -0.46999347209930, 0.94320464134216, 0.41935196518898, 0.53144139051437, -0.57860928773880, -0.06310750544071, 0.80652475357056, -0.52356761693954, 0.53756499290466, 0.39340585470200, 0.59400361776352, 0.30980098247528, -0.04051581025124, 1.12335348129272, 0.23693726956844, -0.13275942206383, -0.05167627334595, -0.03181575238705, 0.20312532782555, 0.74178141355515, 0.19097036123276, -0.33883482217789, -0.29887527227402, 0.05065832659602, 0.17427922785282, 0.11829108744860, 0.07283267378807, -0.35559099912643, -0.04579498246312, 1.10163688659668, -0.18464209139347, -0.12742315232754, -0.75658607482910, -0.08904618024826, -0.17370983958244, -0.85165750980377, 0.27156737446785, 1.87286138534546, -0.13207018375397, -0.49097630381584, 0.29332146048546, -0.52521252632141, -0.61421769857407, 0.29380732774734, -0.68042463064194, 0.00491292774677, -0.77517533302307, -0.34325450658798, 0.20095244050026, 0.23525309562683, -1.26319110393524, 0.02876026183367, -0.20001490414143, 0.31602084636688, -0.18129879236221, -0.27539479732513, -0.56279784440994, -0.02401829510927, 0.16286316514015, 0.02455756440759, -0.29231783747673, -0.40588253736496, -0.12548606097698, -0.27600592374802, 0.03791916370392, -0.20377098023891, -0.59175640344620, -0.43942037224770, -0.12506745755672, -0.63548159599304, -0.02894917130470, -0.05705067887902, 0.60193955898285, -0.29905670881271, -0.29707056283951, -0.77965080738068, -0.65164905786514, 0.15504159033298, 0.22595758736134, -0.48018935322762, -0.28014314174652, 0.36708056926727, 0.38283336162567, -0.04517519846559, -0.23537807166576, -0.92439949512482, -0.77474009990692, -0.34489825367928, 0.04527641087770, -0.04321830347180, 0.61159348487854, -0.15917068719864, 1.08761537075043, 0.24869926273823, 0.16625283658504, -0.60565441846848, -0.08570095896721, 0.19422474503517, 0.17952306568623, 0.27526953816414, -0.63407683372498, 0.24187718331814, 0.10307383537292, -1.31310987472534, -0.07161644846201, 0.33919760584831, -0.36928892135620, -0.13497143983841, -0.11273344606161, -0.30028709769249, -0.22617471218109, -0.00849876273423, -0.39499482512474, 0.74910283088684, -0.52207273244858, -1.86010301113129, -0.27896481752396, -0.59935402870178, 0.41172018647194, 0.48941266536713, -0.08259178698063, -0.45794531702995, 0.37310326099396, -0.56126201152802, 0.74673557281494, 0.02016540430486, 1.01765024662018, -0.85565412044525, -0.42702984809875, 0.27936732769012, 0.28538736701012, -0.47594341635704, -0.17864245176315, 1.55783069133759, -0.90327560901642, 0.11651090532541, -0.20185264945030, -0.39429223537445, -0.06426660716534, -0.35333353281021, 0.30341669917107, -0.01806056872010, 0.04867367446423, -0.24584902822971, -0.16409422457218, -0.64533239603043, -0.05575141683221, -0.16783469915390, 0.05566494539380, 0.34128564596176, 0.18671129643917, -0.70476073026657, -1.13368117809296, 0.03757720813155, 0.09887594729662, -0.11042550951242, -0.07292161136866, 1.46215415000916, -0.03349284082651, 0.02947567217052, 0.49357083439827, 0.11151412874460, -0.04857857152820, 1.10215389728546, -0.35220620036125, 0.05377293750644, -0.44477066397667, 0.00659348210320, 0.22296383976936, 2.14131331443787, -2.01143741607666, -0.08361369371414, 0.16437828540802, -0.19097459316254, -0.06948878616095, -0.81125241518021, 0.44773799180984, 0.18375404179096, -0.09026984870434, 0.00495948921889, 0.15341024100780, -1.84370982646942, -0.32144877314568, 0.20585985481739, 0.26164063811302, -0.03898365795612, 0.08200635761023, -3.69094419479370, -0.44961130619049, 0.14138486981392, -0.07604221254587, -0.12638281285763, -0.31499969959259, -0.44199395179749, 2.08640265464783, 0.06510706245899, 0.06715703010559, -0.14581438899040, -0.18654936552048, -2.02032709121704, -0.27727735042572, 0.17801915109158, 0.14551034569740, -0.26593920588493, 0.06338679790497, 0.23391492664814, 0.51571089029312, -0.04172654449940, 0.04339928179979, -0.30442431569099, -0.26760545372963, -0.89130467176437, -0.44520851969719, 0.03338623419404, 0.03807621076703, -0.02023381739855, 0.09520120918751, 0.06187358126044, -0.55642580986023, -0.01718098856509, 0.17095309495926, -0.07364799827337, -0.15154443681240, 0.69052171707153, 2.23991560935974, -0.01147772744298, 0.19606134295464, 0.65257650613785, 0.21436646580696, 0.45681837201118, -0.27492490410805, -0.13915991783142, -0.19996097683907, 0.07172062247992, 0.11127597838640, 1.19431567192078, 0.66939926147461, -0.09062447398901, 0.34969279170036, 0.04996852204204, -0.61674970388412, 1.12792754173279, -0.23689170181751, -0.05957136303186, -0.06337024271488, 0.25652289390564, 0.37743765115738, -0.28984224796295, -0.23296715319157, -0.01769872009754, 0.11935165524483, -0.19597986340523, -0.13848297297955, 0.03936874121428, -0.26973852515221, -0.04156342148781, -0.07678433507681, -0.38332501053810, 0.16542455554008, -0.17993465065956, -0.43626993894577, 0.00476649450138, -0.05139749124646, 0.10349944233894, 0.04053285345435, -0.72195696830750, 0.24432587623596, 0.20355132222176, 0.07355903089046, -0.26533976197243, 0.06439645588398, 1.91735911369324, 0.24222457408905, -0.09092209488153, 0.06819538772106, -0.07447827607393, 0.34991949796677, 0.80929261445999, 2.74390959739685, -0.01016657706350, -0.02378819324076, -0.09517411887646, -0.29496064782143, 0.93874055147171, -1.77146399021149, -0.04935871064663, 0.07110658288002, 0.05729357898235, 0.11335970461369, -0.26034045219421, 1.32410299777985, -0.06095108389854, 0.05417312309146, -0.05525719374418, -0.48361173272133, -2.80947160720825, -1.09222984313965, 0.07687139511108, 0.12532635033131, -0.07677537947893, 0.22954848408699, -0.94177705049515, 1.42628288269043, -0.08928326517344, -0.15680915117264, -0.00978294853121, 0.20221078395844, 2.79916834831238, -0.00099381175824, -0.02038070186973, -0.04323245957494, 0.06288895010948, 0.30328112840652, 1.38055014610291, -2.33627390861511, 0.00059572706232, -0.03870184347034, -0.02941904962063, 0.05425929650664, -0.90302205085754, 0.90330052375793, -0.09887694567442, -0.20573367178440, 0.07781445235014, 0.11240351945162, 1.18724083900452, -1.50068390369415, -0.01055633928627, 0.00944710802287, -0.01237098965794, -0.42709711194038, -0.71865582466125, 0.28577610850334, 0.14180645346642, -0.12274202704430, -0.13207980990410, 0.02882899343967, -1.34708929061890, -0.67729938030243, -0.10941705107689, -0.04971837997437, -0.04879352450371, 0.04475008696318, 0.87473374605179, -0.11358551681042, -0.29119229316711, -0.20232991874218, 0.00124084251001, -0.04645682498813, 0.91616487503052, -1.01982462406158, -0.25023272633553, -0.03758565708995, -0.31703260540962, 0.09334257990122, -0.26290738582611, 0.73952209949493, -0.09296221286058, 0.19303691387177, 0.10785485059023, 0.44958204030991, -1.13084304332733, -1.23438835144043, -0.10334292799234, 0.29071471095085, -0.21547506749630, -0.05015046522021, -0.82186502218246, -1.07885539531708, -0.04700754582882, -0.18358388543129, 0.07031960040331, -0.08358255028725, 0.04029355198145, 0.20129190385342, 0.10242437571287, 0.33199310302734, -0.33559694886208, -0.06212045997381, -0.32645139098167, 0.12435453385115, -0.09923800081015, 0.12677875161171, 0.38901105523109, 0.08235424757004, -0.03033510595560, 2.12933969497681, 0.00945739913732, 0.03111341036856, -0.17166419327259, 0.36367562413216, -0.34482657909393, 1.97113227844238, 0.04908003658056, 0.05804650858045, 0.04983790963888, 0.14777052402496, -0.99521613121033, 0.34787905216217, -0.02739619091153, 0.13464429974556, -0.10524537414312, 0.24641782045364, -0.54104608297348, 0.23835700750351, -0.21236151456833, -0.10683531314135, 0.04971943050623, -0.31303369998932, 0.04285016283393, -1.74317884445190, -0.23524476587772, -0.20133945345879, -0.23924133181572, -0.20034691691399, -2.48246121406555, -0.04075182601810, 0.11936342716217, -0.37304940819740, 0.08525924384594, 0.26180079579353, -4.80907154083252, 1.92896354198456, 0.18204927444458, 0.17195698618889, -0.00013912082068, -0.11108030378819, 1.59668350219727, -0.83181393146515, -0.00724673829973, 0.31108158826828, 0.31530430912971, -0.33366450667381, -3.29641985893250, -0.36719059944153, -0.32711410522461, -0.01481248810887, 0.21951892971992, 0.26295837759972, 2.08123517036438, -1.02624547481537, 0.03917191177607, -0.21673798561096, -0.07841152697802, -0.00216031330638, -0.52602738142014, 0.39126932621002, 0.15862639248371, -0.01008695829660, 0.13185958564281, 0.19065068662167, -1.30651831626892, -0.41756668686867, -0.07076441496611, 0.03369777277112, -0.25083604454994, -0.05047449469566, 0.58090883493423, 1.91396927833557, -0.11782744526863, 0.02765388973057, -0.09145218133926, 0.15150651335716, 1.71589136123657, -0.44114348292351, -0.07500959932804, -0.04681369289756, -0.12627297639847, -0.00828700233251, -1.56827127933502, 0.88999366760254, 0.25287497043610, 0.04417723789811, -0.06226029992104, 0.15194799005985, 0.08526773005724, 1.71385526657104, 0.19272375106812, -0.18495142459869, -0.15674979984760, 0.05852593481541, 0.96970391273499, 0.62756454944611, -0.06471171975136, 0.01315108034760, -0.04007251188159, -0.14825831353664, -0.17481702566147, 0.41320595145226, 0.01471869461238, -0.00796115864068, 0.03347974270582, 0.35584971308708, 0.72056680917740, 0.30837073922157, 0.12528678774834, -0.09259311109781, -0.04899399727583, 0.11615945398808, -0.07804135233164, 0.33836701512337, -0.03091074526310, -0.08033690601587, 0.09754528850317, -0.20296494662762, -1.62305164337158, 0.89991056919098, 0.18450611829758, 0.08933033794165, 0.22803474962711, -0.17474555969238, 0.87471365928650, -1.70579969882965, 0.10240799188614, -0.04310894012451, 0.00561030535027, 0.19951421022415, -1.53844952583313, -0.65157973766327, 0.07859732955694, -0.09996274858713, -0.03133205696940, 0.10962798446417, 0.69216364622116, 0.78539079427719, -0.02243966609240, -0.06453582644463, 0.10864316672087, -0.28678768873215, -0.93541502952576, 0.62477266788483, 0.18395884335041, 0.16272027790546, -0.01279621664435, -0.18000675737858, -0.99571496248245, 0.88731366395950, -0.00626344699413, -0.10072546452284, 0.07197078317404, -0.06992159038782, 0.11409700661898, -1.23583102226257, -0.05645231530070, 0.10043144971132, -0.01396016869694, 0.08277853578329, 0.00744245480746, -0.60253834724426, -0.04065765440464, -0.11963094770908, -0.06916081160307, 0.24625273048878, -0.58231616020203, 0.54100555181503, 0.08430688828230, -0.10650744289160, 0.06470526754856, -0.09150188416243, -0.74083918333054, -0.21618604660034, -0.10304407775402, -0.02734741196036, 0.07564014941454, -0.06135129556060, 0.18192514777184, 1.06604564189911, -0.10795249789953, 0.05248602479696, -0.01996362209320, -0.15256178379059, -0.44585096836090, -0.50071036815643, 0.18421390652657, 0.17618873715401, -0.09607392549515, 0.04578549414873, 0.61987018585205, -1.20469892024994, 0.14286349713802, 0.17826472222805, -0.02328276820481, 0.16539789736271, 1.53780770301819, 1.08534133434296, 0.20587247610092, 0.00947964843363, -0.38391906023026, 0.02373256161809, -0.50485259294510, -1.31375801563263, 0.15269657969475, 0.09731179475784, 0.00382160441950, -0.13452731072903, -0.49069699645042, 2.16802477836609, 0.04994565248489, 0.00178614561446, 0.07977315038443, -0.14383322000504, 1.59786331653595, -1.96652781963348, 0.01056881900877, 0.17777454853058, -0.04165847972035, -0.08224187791348, 1.67444670200348, -0.95848077535629, 0.11306896060705, 0.03151675686240, -0.11238319426775, 0.24844917654991, 1.10349082946777, 0.13902465999126, -0.22564202547073, -0.02947624772787, 0.08794549852610, 0.26026538014412, -3.53448295593262, -0.50129175186157, -0.12681776285172, 0.18564130365849, 0.06585790961981, -0.48681896924973, 1.43149936199188, -1.49856126308441, -0.13999676704407, -0.04228653386235, 0.07868713885546, -0.09808142483234, -0.35588863492012, 0.26598837971687, 0.03809247538447, 0.07664039731026, 0.08218713104725, 0.37321692705154, -0.18212287127972, 0.62493515014648, -0.06794223189354, -0.06276968121529, -0.15728007256985, 0.16227380931377, -2.02895975112915, -0.20234489440918, 0.28428009152412, -0.06918678432703, -0.43690112233162, 0.08958930522203, 0.13550020754337, -1.56238269805908, 0.05663447454572, 0.07486314326525, -0.33633863925934, -0.07546718418598, 1.37321484088898, 1.28531610965729, 0.19982250034809, 0.17958627641201, 0.02137069404125, -0.06174707412720, 0.34273996949196, -0.09244873374701, -0.04876155033708, -0.15035736560822, 0.27634432911873, 0.01565474085510, 1.53050839900970, 1.45812737941742, -0.05194957181811, 0.19245882332325, -0.04104731976986, 0.01535112131387, -1.62048959732056, 1.71862685680389, -0.20225235819817, 0.19391328096390, -0.08586690574884, -0.03972576931119, 2.06114649772644, 0.30855554342270, -0.01492216903716, 0.05358843132854, -0.20474664866924, -0.19342973828316, 2.27297782897949, -1.27091085910797, 0.03707017749548, 0.20835264027119, -0.01153244357556, -0.05035186558962, -2.04402470588684, -1.17149662971497, -0.20256957411766, -0.17398810386658, 0.09454059600830, 0.13822592794895, 0.25728100538254, 0.09801499545574, -0.16321350634098, 0.25732946395874, 0.01550720166415, -0.23981408774853, 1.48458576202393, 0.42891108989716, -0.18830104172230, 0.11833861470222, -0.05629846453667, 0.36780861020088, -0.19638511538506, 0.30441728234291, 0.24174205958843, 0.20245781540871, -0.17935974895954, -0.01295031048357, -0.53657293319702, -0.32853543758392, 0.02904264442623, -0.12823604047298, -0.21032235026360, -0.27954259514809, 0.15427288413048, 1.04933607578278, -0.08692429959774, -0.22478565573692, -0.61909997463226, -0.14384517073631, -1.31454706192017, 0.24968375265598, 0.00024969290826, -0.29152300953865, -0.43009805679321, -0.11661984771490, 0.32637757062912, 1.94433283805847, 0.29546493291855, -0.34879040718079, -0.11705980449915, 0.25813144445419, -1.74779474735260, 0.13976380228996, -0.24343343079090, 0.24398395419121, -0.27125605940819, -0.42487710714340, 1.77276933193207, -1.14336323738098, 0.01049024984241, -0.22970685362816, -0.16721142828465, 0.48781764507294, -1.50586986541748, -0.13234461843967, -0.13943681120872, 0.21663057804108, 0.29700347781181, -0.13041426241398, -0.58952623605728, 0.16508924961090, -0.18960852921009, -0.15944889187813, -0.05615326017141, -0.24495884776115, 1.09690153598785, 0.12951304018497, 0.51774495840073, -0.10484915971756, 0.12281396985054, -0.55321609973907, -0.80120742321014, -0.58834964036942, 0.29355740547180, 0.11341645568609, -0.08005320280790, -0.14275519549847, 0.50232416391373, 0.17263612151146, -0.37257516384125, -0.47262364625931, 0.16015024483204, 0.07646834850311, 0.32671308517456, -0.03750798851252, 0.50230973958969, 0.09411314874887, -0.30707645416260, -0.42733648419380, 0.89897793531418, -0.95035451650620, 0.06860720366240, 0.27119040489197, -0.41244941949844, 0.25897762179375, -1.52583849430084, -0.09471142292023, 0.20913511514664, -0.36196646094322, -0.17501962184906, -0.73839104175568, -0.82530570030212, 1.02505826950073, -0.33324381709099, -0.26499840617180, 0.07236356288195, 0.50920718908310, 0.16039474308491, -0.64206838607788, -0.19438223540783, 0.16805310547352, -0.06556116044521, -0.04246276617050, -1.48794925212860, -0.72720670700073, 0.03640741854906, 0.11928580701351, -0.31354203820229, 0.02644365094602, -1.80395579338074, -0.58722436428070, 0.10024167597294, 0.33604377508163, -0.30608913302422, 0.02928523533046, 1.94711410999298, 0.03094376437366, 0.04492044076324, -0.14637228846550, -0.36314910650253, -0.00618064496666, 0.27125886082649, -0.24062477052212, -0.15567114949226, 1.04141306877136, 0.01311369333416, -0.38365557789803, 0.67197495698929, 0.09161089360714, -0.28699079155922, 0.00691145099699, -0.09430924057961, 0.14383949339390, -0.72124350070953, -0.33352139592171, -0.05681467428803, -0.50177866220474, 0.11383393406868, 0.15577581524849, -0.65243464708328, 0.22122687101364, -0.00197106460109, -0.03361721709371, -0.32384726405144, 0.18954241275787, -1.53979837894440, 0.67317956686020, 0.22561177611351, 0.51077139377594, -0.30636233091354, 0.22396074235439, 0.40262109041214, -0.19816021621227, 0.25940901041031, 0.06464788317680, -0.04355954378843, -0.19025801122189, -0.36168578267097, 0.65468573570251, -0.12408307939768, 0.24650110304356, -0.06823754310608, 0.09910285472870, -1.81580400466919, 0.03428207337856, -0.06605390459299, 0.27723842859268, -0.01867298036814, 0.06685449928045, 0.81172108650208, 0.14442604780197, -0.12901468575001, 0.01987281069160, -0.53742605447769, 0.20761643350124, 0.34083774685860, 0.37030571699142, 0.06155724078417, -0.50794321298599, -0.11715072393417, -0.52420634031296, 1.84967088699341, 0.34974038600922, -0.03568130731583, -0.82204192876816, 0.14924223721027, -0.22135435044765, -0.07664878666401, 0.69844132661819, -0.23963865637779, 0.10856253653765, 0.10975193232298, -0.04766139760613, 1.43070220947266, -2.09629988670349, 0.04549983888865, 0.34080013632774, -0.08172172307968, 0.25628179311752, -0.87335443496704, 1.55556178092957, -0.04425397515297, 0.41059219837189, 0.06472485512495, -0.26767560839653, -1.30960571765900, -0.87006533145905, -0.00173741986509, 0.36410695314407, -0.33486419916153, 0.24087168276310, 0.87862342596054, 0.53647285699844, -0.28648105263710, -0.24268881976604, -0.07685467600822, 0.51114064455032, -1.69117426872253, -0.32460749149323, -0.05779472365975, 0.02397139742970, 0.23725941777229, -0.32841649651527, 0.50034850835800, 0.00619163131341, 0.05389202386141, 0.27217501401901, 0.15242499113083, 0.15381336212158, 0.12336718291044, 1.19771945476532, 0.02015394531190, 0.34702584147453, -0.15034753084183, 0.34737348556519, -1.60266506671906, -0.58599549531937, -0.07463309168816, 0.06728236377239, 0.18475496768951, 0.12992072105408, -0.37606135010719, 0.43748205900192, 0.33215546607971, -0.58620768785477, -0.53384548425674, 0.18978545069695, -0.12123981118202, -0.22394225001335, -0.02190814912319, 0.04720790684223, 0.03603578358889, -0.05240578204393, 0.24127158522606, -0.02932993322611, 0.31435224413872, -0.95983815193176, -0.11256360262632, 0.45378047227859, 0.70715516805649, 0.01481627859175, -0.19389626383781, -0.56846290826797, 0.09294274449348, -0.05417266488075, 2.11032438278198, 0.38284826278687, 0.08286552876234, 0.07074681669474, -0.12585712969303, 0.22486969828606, 0.87004834413528, 1.17995297908783, -0.12273861467838, 0.14520300924778, 0.02384972386062, 0.17757655680180, 1.33702957630157, -0.89550733566284, -0.00937000662088, 0.38488203287125, -0.18561869859695, -0.43554684519768, 0.40653526782990, 0.21165750920773, 0.14057418704033, -0.31222364306450, -0.09047859162092, 0.29029422998428, -2.79581761360168, 0.83559840917587, 0.10940892994404, 0.17058415710926, 0.12202520668507, 0.01365133468062, 2.20661425590515, 0.57817900180817, -0.00222186255269, -0.12998315691948, 0.36624857783318, 0.03008840605617, 0.16100147366524, -0.00304126134142, 0.39722886681557, 0.02304299548268, -0.14233304560184, 0.31549727916718, 1.90724813938141, -0.19307994842529, 0.90934222936630, 0.05930904671550, -0.08479581028223, -0.03074676357210, -0.88594305515289, -0.22792057693005, -0.44109213352203, 0.80352234840393, -0.05838856846094, -0.15559695661068, 1.98691463470459, 0.29936024546623, -0.02979877032340, 0.06963786482811, -0.12534165382385, 0.46435809135437, -0.49999412894249, -0.14993415772915, -0.00006234904140, 0.36404955387115, -0.30193439126015, 1.17050623893738, 0.22211959958076, 0.25960907340050, -0.05281454324722, 0.52524298429489, -0.01736557297409, 0.28310853242874, -1.57697081565857, 0.54972165822983, -0.13079190254211, 0.42040762305260, 0.16570062935352, 0.23391534388065, -1.02233338356018, 0.83667969703674, 0.08513855934143, 0.04365959390998, 0.01709543541074, 0.18687561154366, -1.86396098136902, -1.09873819351196, 0.70131367444992, 0.32985174655914, -0.29001498222351, -0.02021712437272, 2.08892869949341, 0.34297937154770, -0.06451364606619, -0.25982442498207, -0.41740846633911, -0.26484993100166, 0.67322915792465, -0.67031025886536, 0.23982651531696, -0.06728865951300, 0.16435016691685, 0.12550693750381, 0.24477751553059, 0.29703441262245, 0.01997013762593, 0.24636711180210, -0.07010770589113, -0.06630470603704, 0.18043012917042, -0.24943566322327, 0.09892258048058, 0.07139122486115, -0.22060176730156, 0.06379004567862, -0.12300047278404, 0.14201107621193, 0.05401026085019, -0.14618030190468, -0.07566002756357, -0.32100877165794, 0.96640425920486, -0.65719789266586, 0.48527392745018, -0.23486620187759, 0.17647413909435, -0.37070897221565, 0.67980724573135, -0.98441988229752, -0.35554125905037, -0.52415710687637, 0.20384483039379, 0.10890800505877, 0.26918047666550, -0.98419779539108, -0.17753551900387, 0.23577389121056, -0.24855609238148, -0.18765830993652, -1.89552021026611, -0.22961039841175, 0.02664221636951, 0.28680741786957, 0.14338861405849, -0.02256358787417, -0.93744915723801, 0.56949317455292, 0.11662933975458, -0.27573114633560, -0.59768998622894, -0.30390807986259, -0.70138275623322, 0.17918556928635, 0.85631090402603, 0.09846858680248, -0.13180176913738, 0.01589119806886, 0.02643460221589, -2.40416240692139, 0.21712601184845, 0.02878342196345, -0.64160108566284, -0.33759289979935, 0.09689899533987, 0.27822640538216, 0.00695489207283, -0.03645835444331, -0.01982636004686, 0.18781977891922, -1.95675373077393, 0.81478291749954, -0.12296866625547, -0.69183820486069, 0.34752556681633, 0.07680370658636, 2.40216732025146, 0.05113968625665, -0.11192016303539, -0.55991470813751, 0.20738859474659, 0.16694411635399, 0.57728254795074, -0.17561180889606, -0.38092461228371, 0.38260000944138, 0.22934535145760, -0.75194585323334, -1.50826811790466, -0.32125163078308, -0.08433112502098, 0.23596370220184, 0.03184472024441, -0.23096978664398, 1.65474033355713, 0.17079246044159, 0.26924449205399, 0.36688610911369, 0.32574194669724, -0.20447663962841, -0.49507024884224, 0.39137300848961, -0.03430419787765, 0.25867077708244, 0.25653159618378, 0.06143846735358, -0.66134911775589, -0.52290302515030, 0.07159785181284, -0.58576536178589, 0.38218972086906, 0.60524237155914, -0.06084848940372, -0.43880245089531, -0.01463191397488, -0.06501622498035, 0.31882542371750, 0.22696872055531, 0.09174787253141, 0.70812845230103, -0.31930628418922, 0.18736442923546, -0.14641830325127, 0.20667330920696, 2.17066550254822, 0.61027038097382, -0.45682090520859, -0.52261918783188, 0.18694803118706, 0.06807197630405, -0.09988805651665, 0.73876190185547, 0.43237060308456, -0.27639955282211, 0.32402247190475, -0.08267781138420, 0.30311986804008, -0.14441993832588, -0.03182082623243, 0.33904328942299, 0.01470047887415, -0.26715251803398, -0.64977872371674, 1.11211156845093, 0.19025695323944, 0.13855135440826, 0.06909855455160, -0.07902336120605, 0.00003115572326, -1.64133596420288, 0.13454733788967, -0.30894112586975, 0.30077022314072, -0.11585951596498, -0.17284984886646, 1.81041109561920, -0.01734954863787, 0.51726108789444, 0.67117565870285, -0.26272609829903, 0.47698569297791, -0.27161425352097, -0.26074630022049, 0.03767867758870, -0.24491000175476, -0.36561477184296, 0.49595826864243, -0.39977940917015, -0.04028765112162, -0.16641221940517, -0.71171313524246, 0.23265241086483, -0.12234926223755, -0.68096041679382, 0.01718823798001, -0.49332162737846, -0.38670441508293, -0.22119237482548, 0.49173912405968, -1.90263092517853, 0.15675149857998, 0.50588810443878, 0.01512776222080, -0.54139143228531, 0.28843399882317, 0.77368205785751, -0.03454503044486, -0.23268544673920, -0.15074881911278, -0.02019936963916, -0.96224820613861, 0.89975106716156, 0.10448244214058, -0.37177976965904, 0.38265764713287, 0.27159649133682, 0.16675888001919, 1.92639935016632, 0.06613509356976, -0.42589938640594, -0.15158933401108, 0.14071533083916, -1.42419266700745, -0.81772595643997, 0.43997216224670, -0.07124197483063, -0.42767047882080, -0.26249477267265, 0.16041171550751, -1.38228631019592, -0.19606484472752, -0.25071638822556, 0.07492934167385, -0.36575812101364, -0.63049411773682, 1.15359115600586, -0.11589137464762, 0.42636471986771, -0.22118152678013, 0.04730572924018, 1.93952155113220, -1.32600009441376, -0.48817244172096, -0.05403987690806, 0.36367005109787, -0.26475101709366, -1.13348686695099, -0.00238967244513, 0.31027334928513, -0.51630967855453, 0.22619551420212, 0.49379950761795, -1.32238006591797, 1.29662799835205, 0.06602799892426, -0.19437323510647, 0.05629325658083, 0.53165799379349, 0.09046928584576, 0.45097866654396, 0.00809342507273, -0.28410312533379, -0.09949631243944, -0.29641425609589, -0.56533092260361, -0.48161616921425, 0.03983100503683, -0.70111203193665, 0.45629930496216, -0.21878062188625, -0.40112620592117, -0.97036975622177, -0.40659025311470, 0.03775336593390, -0.11725779622793, 0.19225272536278, 0.95878988504410, 0.63841354846954, -0.08960951119661, -0.77438950538635, -0.60186886787415, 0.18035785853863, -1.11395883560181, -0.05348185449839, -0.10914418101311, 0.14333043992519, -0.10497565567493, 0.11946537345648, -0.91653043031693, -0.39291810989380, 0.06252713501453, -0.51724314689636, -0.60136413574219, 0.26873293519020, -0.48684725165367, 0.29442420601845, 0.97719258069992, 0.45856225490570, 0.33128872513771, -0.47300890088081, 2.43778109550476, 0.94319576025009, 0.10784685611725, 0.00010355463746, 0.21947352588177, -0.22893947362900, 1.25861728191376, -0.66157501935959, 0.05009797587991, 0.21211105585098, 0.02642929553986, 0.37247559428215, 1.14937472343445, -1.17776453495026, -0.04993290081620, -0.16620479524136, 0.04530166834593, -0.24409858882427, 1.07787978649139, -0.26405200362206, 0.08807094395161, 0.58078128099442, -0.21954153478146, 0.05461567640305, 2.04729318618774, 0.08872695267200, -0.38130781054497, -0.31119260191917, 0.42919120192528, 0.50502943992615, -1.11598300933838, 1.72278141975403, 0.17219640314579, 0.56943309307098, 0.04776576906443, -0.41527843475342, -1.04394173622131, -0.00995487160981, -0.08621670305729, 0.40360462665558, -0.38969421386719, -0.16859851777554, -1.84979128837585, 1.03996598720551, -0.00271291122772, 0.05608634278178, 0.12485404312611, 0.19471174478531, 0.05076733604074, -0.20004500448704, 0.23501606285572, 0.39810296893120, 0.31842541694641, 0.01524848863482, -0.47048982977867, -0.21462698280811, 0.13113857805729, -0.32774180173874, -0.13733379542828, -0.03517825156450, -2.14435982704163, 1.30811047554016, -0.00228581577539, -0.14543150365353, 0.48342555761337, 0.09139949083328, 0.30449900031090, 0.24077707529068, -0.11642608791590, 0.14005337655544, -0.02799847908318, 0.18694648146629, 0.36892753839493, 0.89162802696228, -0.15060740709305, 0.16476251184940, 0.01671992801130, -0.07472023367882, -0.95708417892456, -0.02224224060774, -0.06162228062749, -0.70452445745468, -0.02834708988667, 0.13490162789822, 2.52222156524658, 0.61523932218552, 0.34536990523338, -0.20195780694485, -0.40455371141434, -0.37124580144882, 1.16273105144501, -0.38134804368019, -0.23550038039684, -0.49601131677628, -0.44415980577469, -0.07649849355221, -0.81366395950317, 1.27014768123627, -0.34198507666588, -0.08142041414976, -0.25421577692032, 0.08252957463264, -0.16786661744118, 0.38727429509163, 0.06583414226770, -0.07729800045490, -0.15642170608044, -0.32394859194756, -1.21329736709595, 1.28575241565704, 0.14701324701309, 0.61586713790894, 0.20023755729198, 0.25009551644325, -1.69838762283325, 0.93236166238785, -0.26159715652466, 0.07355051487684, -0.10801895707846, -0.73202502727509, -1.27946066856384, -1.70234143733978, -0.32696855068207, 0.13890033960342, -0.20341058075428, 0.10740205645561, -1.12195050716400, 0.86290979385376, -0.06843777000904, 0.20660258829594, -0.24578762054443, -0.28052827715874, 1.93404817581177, 0.69239604473114, -0.32119703292847, 0.05662258714437, 0.30736887454987, -0.11287526786327, -1.07492339611053, -1.05593085289001, -0.15987642109394, 0.86162769794464, 0.29347914457321, -0.18329106271267, -2.29789590835571, -0.53827697038651, -0.01471325103194, -0.61543715000153, 0.13089826703072, 0.27217465639114, -0.50149458646774, -0.68449908494949, 0.12766914069653, -0.10038417577744, 0.47130069136620, -0.13550148904324, 0.72107404470444, 0.55779886245728, -0.04937285184860, -0.15646861493587, -0.07826168090105, 0.77034312486649, -0.44485244154930, -0.77345997095108, -0.00671236449853, -0.04338761419058, -0.03868245333433, 0.04180144146085, -0.02471330203116, -1.44602406024933, -0.19091519713402, 0.15962228178978, -0.79767453670502, -0.05452356860042, 0.74998497962952, 0.12276239693165, 0.06440597027540, -0.31331348419189, -0.40749451518059, 0.12547682225704, -1.74948823451996, -0.84178984165192, -0.00773797696456, -0.14218406379223, -0.16402018070221, -0.21973143517971, -1.21207499504089, 1.94298577308655, -0.17638343572617, -0.31596878170967, 0.06877348572016, 0.15155780315399, 2.26751112937927, -0.52484089136124, -0.11253879219294, 0.20754246413708, 0.11814725399017, -0.14729626476765, 1.16931092739105, 0.34691154956818, 0.13692930340767, -0.58560860157013, -0.01685465686023, 0.02361790277064, -0.06121801212430, 1.61365175247192, 0.11493342369795, -0.10241957753897, -0.03785172849894, -0.15528444945812, 0.07772369682789, -0.71018606424332, -0.22601962089539, -0.36281728744507, 0.06765100359917, -0.28391021490097, 0.32516229152679, -0.93389016389847, 0.09855661541224, -0.46335741877556, -0.35781648755074, 0.31538203358650, 1.07437241077423, -0.07648988068104, 0.11197814345360, 0.20861728489399, 0.14223611354828, -0.36290815472603, -0.48730850219727, 0.47640585899353, 0.06640154123306, 0.06370747834444, -0.08669312298298, 0.11882592737675, -0.24488380551338, 0.44991084933281, 0.47768014669418, 0.00729884672910, -0.08656478673220, 0.11268478631973, 1.42166709899902, -2.39060783386230, 0.22611780464649, -0.43938344717026, -0.24832125008106, -0.20679226517677, 0.03327837958932, -1.40940165519714, 0.01160482130945, 0.04913353174925, -0.05986785516143, 0.35088446736336, 0.72800058126450, -0.83385533094406, 0.10673481225967, 0.39515402913094, -0.33845496177673, -0.03571467101574, -0.74970823526382, 0.58838713169098, 0.02926764637232, 0.26406255364418, 0.31257000565529, 0.10445299744606, -1.09519648551941, 0.81177175045013, 0.00328762549907, 0.26370164752007, 0.18823567032814, 0.26310020685196, -1.88454735279083, 1.28824746608734, -0.19959941506386, -0.26824307441711, 0.06425319612026, -0.26447874307632, 0.60442584753036, -0.28676104545593, -0.03681883215904, 0.06962804496288, 0.13098804652691, 0.04503329843283, 0.18449223041534, 0.95490336418152, 0.03304043039680, 0.06213406100869, 0.05615581944585, 0.36071953177452, 0.18523161113262, 0.10208974778652, -0.14385494589806, -0.14769637584686, -0.77575224637985, -0.41654688119888, -0.42083501815796, 0.84210419654846, 0.09860336035490, -0.04332374408841, 0.02899426221848, -0.15947042405605, -0.05391736701131, 0.09814543277025, 0.09445295482874, 0.19133681058884, 0.15498116612434, 0.01173251029104, -0.86966115236282, -0.13056041300297, 0.02923864312470, -0.02767829969525, -0.00414649769664, 0.25974813103676, 1.84144270420074, -0.74170958995819, 0.31217798590660, -0.40112271904945, -0.21610882878304, -0.01728990115225, 1.67978072166443, -3.07713103294373, 0.59165358543396, -0.20901004970074, -0.62312114238739, 0.15443725883961, -1.60016381740570, -0.01868517138064, -0.35640019178391, -0.13144662976265, -0.15264151990414, -0.02386368438601, -1.14828228950500, -0.33097302913666, -0.33147820830345, 0.65924841165543, 0.38482198119164, 0.18628729879856, 0.40499216318130, 0.88188940286636, -0.13855987787247, -0.52184712886810, 0.12609025835991, -0.13842354714870, -1.16314828395844, -0.00876782555133, -0.02888027951121, 0.20311395823956, -0.08840773254633, -0.43552571535110, 0.90295445919037, -0.28742995858192, 0.17732982337475, 0.78425216674805, -0.45925521850586, -0.05551701411605, -0.24877372384071, 0.56689643859863, -0.09703806787729, -0.26719427108765, -0.38839384913445, 0.01099959760904, 0.36070275306702, 0.41823244094849, -0.13177864253521, -0.20355603098869, 0.14965206384659, -0.03935222327709, 0.09994802623987, -0.69614911079407, 0.18275985121727, -0.14380165934563, -0.06985511630774, -0.24967840313911, 0.16286307573318, 0.34683972597122, 0.10206366330385, -0.46231809258461, 0.04890629649162, -0.51404958963394, 0.20456632971764, -2.03548550605774, -0.20590707659721, -0.01197926048189, -0.66155374050140, -0.17288218438625, 0.73945397138596, -0.07402847707272, 0.13545724749565, -0.42884039878845, -0.26019150018692, -0.26964864134789, -0.45422339439392, -0.74322563409805, 0.43134057521820, -0.61220014095306, 0.23982650041580, 0.31112837791443, -1.00995373725891, -0.57098776102066, -0.00390295265242, 0.09844508022070, 0.57746851444244, -0.31136316061020, 0.27686101198196, 0.79278343915939, -0.17459329962730, -0.19812144339085, 0.22161188721657, 0.09154031425714, -1.30601310729980, 2.05448961257935, 0.82717514038086, 0.18091545999050, -0.30911970138550, 0.39383757114410, 0.08298014849424, -0.59145015478134, 0.04511120170355, 0.44033253192902, -0.30952262878418, -0.02816493809223, 1.75109422206879, -0.14636187255383, 0.24412813782692, -0.50912922620773, -0.24392256140709, 0.29677915573120, 1.21812236309052, -0.58354675769806, -0.14290398359299, 0.28101202845573, 0.29319423437119, -0.19419339299202, 0.54128050804138, -1.20623469352722, 0.20239995419979, -0.11444461345673, -0.27244442701340, 0.27173283696175, 1.19700336456299, 2.37746739387512, -0.17173629999161, 0.16788358986378, -0.17738643288612, 0.18769907951355, 0.32965308427811, 0.99856066703796, 0.12190935015678, -0.11724326014519, 0.24772591888905, -0.09924694895744, -0.59850627183914, -1.47032225131989, -0.02366659231484, 0.26199465990067, 0.38205713033676, -0.38127586245537, 0.92852473258972, -0.39535310864449, 0.00420694425702, -0.03720277547836, -0.13364788889885, 0.04362898692489, -0.79093641042709, 2.08077645301819, -0.09550281614065, 0.00176184624434, 0.29754683375359, 0.05678199231625, 3.74730420112610, 2.93135952949524, -0.51997852325439, 0.03042211197317, 0.03697137534618, -0.38842907547951, -0.03911456465721, -1.88639259338379, -0.25443896651268, -0.01682239584625, 0.22805613279343, 0.53306078910828, -0.25306627154350, -0.98057687282562, -0.01437089126557, 0.20996564626694, 0.16196832060814, 0.05920060351491, -0.72540473937988, 0.87550842761993, 0.25543713569641, 0.17814312875271, -0.02158934623003, -0.38984933495522, 1.07097971439362, -1.33056795597076, -0.12527491152287, 0.29607415199280, -0.05156819894910, -0.52906352281570, 0.08235708624125, -1.39314746856689, -0.29612240195274, -0.37893971800804, 0.04402531310916, 0.17625366151333, 0.94575804471970, 0.59913283586502, 0.18249405920506, 0.30500319600105, 0.30111408233643, 0.01846857555211, 2.19808554649353, -0.10253079980612, 0.48748484253883, -0.14420105516911, -0.33079940080643, -0.15400652587414, 0.95000636577606, 0.81616914272308, -0.14686115086079, 0.08995151519775, 0.09906074404716, 0.18815784156322, 1.28438234329224, 1.85407066345215, -0.51022070646286, -1.13583755493164, -0.23745502531528, 0.30316695570946, 0.43737468123436, -1.16527378559113, 0.13114830851555, -0.08240869641304, 0.40965029597282, -0.07003621757030, 0.74220341444016, 1.57178688049316, -0.11093373596668, 0.60683429241180, 0.70474213361740, -0.40252640843391, -0.28386166691780, 0.05865406617522, -0.08605168014765, 0.06036609038711, 0.26665559411049, 0.03307500854135, 0.95710718631744, 0.09306316822767, 0.48260661959648, 0.16003021597862, -0.43325409293175, -0.16849792003632, -0.05836981907487, 0.78731882572174, 0.17366924881935, -0.06772217154503, 0.10627350211143, -0.22540464997292, -1.03996396064758, 1.19835686683655, -0.02536606602371, -0.29974550008774, 0.08367618173361, 0.37013107538223, -0.55367469787598, -1.96745717525482, 0.10807535797358, 0.18391530215740, 0.21522240340710, -0.41310158371925, -1.56245744228363, -1.06920588016510, 0.31484189629555, 1.12617111206055, -0.43563354015350, -0.28136503696442, 0.71245294809341, 0.08853274583817, -0.12464994937181, -0.44699722528458, -0.27255219221115, 0.10411741584539, 0.85073208808899, 0.45072469115257, -0.21435607969761, -0.39494538307190, -0.03137565031648, 0.08914033323526, -0.33363080024719, -0.06685229390860, -0.14157633483410, -0.05195470899343, -0.15475954115391, -0.15582247078419, 1.43014621734619, 1.12009453773499, 0.00047998400987, -0.26085281372070, -0.05477347597480, 0.03222655504942, 0.26765823364258, 0.63303726911545, 0.27843531966209, 0.07398786395788, 0.12596571445465, 0.30088078975677, -1.69602620601654, -0.86218076944351, 0.00621771579608, 0.18239338696003, -0.30299729108810, -0.36556985974312, 0.19244019687176, -0.63547074794769, -0.02558942511678, 0.07082686573267, 0.15976992249489, 0.23895204067230, -1.51071822643280, -0.06971309334040, 0.32747140526772, -0.01045746263117, 0.09251417219639, 0.24557015299797, 0.44595015048981, -0.17304050922394, 0.19538828730583, 0.10355547815561, -0.23370084166527, 0.45054984092712, -0.30967739224434, -0.37012234330177, -0.09887637197971, -0.26643571257591, 0.33807075023651, 0.10770916193724, 0.47807419300079, 1.50089728832245, -0.39039754867554, 0.36879730224609, 0.13826267421246, 0.32816880941391, -1.98150634765625, -0.42594513297081, -0.14475037157536, -0.14866216480732, -0.04559788852930, 0.31903058290482, -1.08548414707184, -0.58150154352188, 0.21635726094246, -0.04346361383796, -0.09410952776670, -0.12044187635183, 1.79806077480316, -2.03647422790527, -0.07102592289448, 0.16874656081200, -0.03596098721027, 0.00917513947934, -1.20078659057617, -0.14179402589798, 0.59358358383179, 0.19143292307854, 0.04900838807225, 0.26549229025841, 1.97614204883575, -0.41732874512672, -0.03171574324369, 0.07853130996227, 0.04774198681116, -0.19970606267452, 0.15749295055866, -0.74189811944962, 0.28559756278992, -0.12072549760342, -0.03159292042255, -0.14804741740227, -0.76168531179428, 0.66768342256546, -0.37273609638214, 0.51953899860382, 0.72463816404343, -0.67306959629059, 0.06441145390272, -0.11770664155483, -0.27368202805519, -0.26276984810829, 0.37505236268044, 0.27634975314140, -2.81744980812073, -0.47149670124054, 0.24136151373386, -0.00129401485901, -0.02913445420563, 0.14407500624657, 2.48678660392761, -1.70268940925598, -0.24913951754570, 0.19568273425102, -0.05512789264321, 0.70746892690659, 0.28748634457588, -1.36308133602142, 0.09950614720583, 0.26973161101341, -0.03095445968211, 0.22272963821888, -1.16097605228424, 0.39543101191521, 0.00465053319931, -0.66867423057556, -0.06592181324959, -0.23657451570034, 0.55794543027878, 0.00846939533949, -0.17852070927620, -0.14619740843773, 0.05052059516311, 0.26916086673737, -0.95647341012955, 2.02864170074463, 0.12039367109537, 0.22886165976524, 0.08217262476683, -0.19927597045898, 0.93355578184128, -1.43510627746582, 0.03041581250727, -0.01675841957331, -0.07719116657972, -0.12052431702614, 1.06325697898865, 2.58205151557922, -0.15585392713547, 0.04576808586717, -0.25396639108658, 0.37278664112091, -0.89027768373489, 0.46981370449066, -0.07068283855915, 0.12371411174536, -0.33477520942688, -0.23504978418350, -1.50224947929382, -0.40909370779991, -0.17174936830997, 0.00911922473460, 0.58395338058472, 0.30356100201607, 0.05198245123029, -1.19027268886566, 0.26478227972984, -0.26417526602745, 0.25465634465218, 0.01522484701127, -0.37747135758400, 1.51981663703918, -0.34673589468002, 0.25182685256004, -0.05170101672411, 0.24135425686836, -0.97792786359787, 2.53803062438965, 0.28216692805290, -0.26974907517433, 0.46030971407890, 0.32398009300232, 0.40518558025360, 0.75386255979538, 0.14477302134037, 0.39632910490036, 0.25095793604851, 0.32043367624283, 0.01572132296860, -0.16800676286221, 0.28283596038818, -0.20421954989433, 0.06496977806091, 0.05558968335390, 0.25221320986748, -0.80436360836029, 0.26250237226486, -0.26725280284882, -0.20444288849831, 0.02096981741488, -0.79239857196808, 1.11434149742126, 0.11386223137379, 0.12939696013927, -0.14460217952728, -0.62069374322891, 0.87762176990509, -0.36899250745773, 0.04821601137519, 0.52748560905457, 0.05116059631109, -0.49381777644157, -1.86346888542175, 0.99407196044922, -0.28543606400490, 0.08281084895134, 0.11792040616274, -0.15690277516842, 1.74701821804047, -0.48429748415947, 0.10409778356552, -0.22955343127251, 0.54505240917206, -0.26384636759758, -0.50800889730453, -1.03836607933044, -0.10710407048464, -0.06761265546083, 0.35825046896935, 0.04504121467471, 0.54690587520599, -0.98037838935852, -0.42949241399765, 0.37596479058266, 0.04880051687360, 0.04230248183012, -0.86203199625015, -1.69570243358612, 0.17457400262356, -0.15522144734859, -0.01438670232892, 0.45055389404297, -0.36388415098190, -0.58045327663422, -0.30704942345619, -0.42477169632912, 0.21166568994522, 0.19371135532856, -0.57710886001587, -1.64824020862579, -0.26001891493797, 0.17801183462143, 0.12921388447285, -0.21777774393559, -0.12019836902618, -0.22363829612732, 0.13412055373192, 0.23893231153488, -0.44297689199448, 0.35166469216347, -1.55016994476318, -2.52102565765381, 0.11238496005535, 0.16450986266136, -0.14848707616329, -0.08561155200005, 0.05022142454982, -0.13784512877464, 0.25338479876518, 0.04706464335322, -0.18781819939613, 0.22408060729504, 0.63926446437836, -1.32971704006195, -0.40335461497307, 0.29854035377502, -0.09982834011316, 0.05013168975711, 1.15567243099213, 0.22164747118950, -0.54820710420609, -0.13927978277206, 0.15857605636120, 0.05003506690264, 0.52679771184921, -0.83032518625259, 0.62573939561844, -0.18692837655544, 0.03627750650048, -0.31618082523346, 0.51433080434799, -0.10233208537102, 0.08551344275475, 0.21105825901031, 0.30840933322906, 0.04911888390779, 0.56372731924057, -0.54586994647980, 0.14720538258553, 0.03908029571176, -0.25311452150345, -0.11144378781319, 0.07168694585562, -0.61041659116745, -0.09188044071198, 0.02835014276206, -0.07554707676172, -0.14257316291332, 0.41404184699059, -0.10891357809305, -0.27988225221634, 0.26354867219925, -0.07678017020226, 0.15012153983116, 0.77845519781113, 0.10662012547255, -0.22361366450787, -0.09860417991877, 0.12647607922554, 0.19092079997063, 2.24067950248718, 1.41606783866882, -0.23822776973248, -0.10981266945601, 0.21402972936630, 0.35110899806023, -0.46090891957283, 0.98220932483673, 0.05958057194948, 0.12494465708733, -0.09380672127008, 0.04749103263021, 0.06224197521806, 1.31611108779907, 0.02964726835489, -0.10563648492098, 0.26567646861076, 0.11372192949057, -1.79167532920837, 1.13542699813843, -0.29680842161179, -0.09781163930893, -0.16455975174904, -0.69370412826538, 1.76265478134155, -1.12787163257599, -0.07790852338076, -0.35589173436165, -0.06735435873270, -0.09054753184319, -1.03623771667480, -1.85727250576019, -0.14813172817230, 0.07362631708384, -0.09222055226564, -0.26013702154160, 1.33073472976685, 3.25519394874573, 0.02445341832936, -0.43584996461868, 0.34136411547661, 0.01314995810390, 0.23054015636444, 1.40626752376556, -0.27972415089607, -0.25615328550339, -0.01186560466886, -0.07306232303381, -3.24828004837036, 1.14840281009674, 0.32186579704285, -0.53499293327332, -0.07497705519199, 0.09397456794977, 0.57595652341843, 1.28138983249664, 0.38928115367889, -0.11580720543861, 0.14042796194553, -0.07468859106302, 0.03663218393922, 0.39547482132912, -0.16635444760323, -0.26887831091881, -0.08242367208004, 0.16138404607773, 0.89691096544266, -1.44305610656738, 0.04905923828483, -0.01751455292106, -0.18044936656952, -0.15858517587185, 0.36430087685585, -1.40076065063477, -0.45581406354904, 0.08846602588892, 0.03404084220529, -0.27573755383492, -2.18383598327637, -0.80665165185928, 0.05278904363513, -0.11937516927719, 0.13547396659851, 0.26911762356758, 0.31411778926849, -0.08562446385622, -0.10162615031004, 0.60670763254166, -0.18251924216747, 0.05741290003061, 0.27984598278999, 0.17189331352711, -0.31766954064369, 0.24366936087608, 0.03339394927025, 0.08215974271297, -0.35045203566551, 0.16511613130569, -0.25561943650246, -0.37642788887024, 0.25190365314484, 0.07648064941168, 0.29829299449921, 0.25926741957664, -0.04620530083776, -0.05850155279040, 0.49630421400070, -0.40187159180641, -0.15818068385124, -1.93643450737000, 0.47297602891922, -0.09101777523756, 0.54441952705383, 0.84909141063690, 0.26888084411621, -1.33662569522858, -0.01632495597005, -0.38643443584442, 1.11650741100311, -0.09626215696335, -0.64729392528534, -0.63691031932831, 0.72539484500885, 0.57894659042358, -0.23477767407894, -0.60159391164780, -0.57180994749069, 0.53086286783218, -0.32712918519974, 0.57660913467407, -0.24328227341175, -0.42943695187569, -0.78939646482468, 0.15518908202648, 0.78526306152344, 0.13152542710304, -0.73838609457016, 0.86961913108826, 0.24496206641197, -0.26904878020287, 0.01534623000771, -0.50869232416153, 0.01183140464127, -0.54024708271027, -0.94376224279404, -1.19111096858978, 0.46108186244965, 0.40901225805283, -0.01532816700637, 0.15170744061470, -0.82956939935684, 0.03169413283467, 0.49550610780716, -0.25187790393829, 0.52962911128998, 0.32706418633461, 1.79447388648987, 0.25227430462837, 0.24387523531914, 0.25132811069489, -0.40271401405334, 0.17673529684544, 0.19789779186249, 0.19365012645721, -0.29972267150879, 0.26607668399811, -0.20401407778263, -0.46266788244247, 0.24762625992298, 1.78227770328522, -0.00485301762819, 0.38056483864784, 0.31635341048241, -0.08825998753309, -0.66745334863663, 1.65090882778168, 0.33165436983109, 0.19412562251091, 0.13950568437576, -0.47177180647850, -1.43022465705872, 1.86314964294434, -0.03855108469725, -0.06699530035257, 0.57956272363663, 0.61842745542526, -0.30835029482841, 1.18842852115631, 0.43984049558640, 0.11584144085646, 0.13840350508690, -0.57035756111145, -2.13257479667664, -1.45040023326874, 0.99022072553635, 0.44202741980553, 0.11259508877993, -0.14139294624329, -0.29638358950615, 0.29441842436790, 0.15760126709938, 0.58504980802536, -0.32112061977386, -0.46282359957695, 0.54642361402512, 0.00063369818963, -0.48558935523033, 0.01319353468716, -0.37120947241783, 0.03505220264196, -0.22592617571354, 0.53506386280060, -0.52700787782669, -0.27828317880630, 0.91467893123627, -0.19412192702293, 0.87281048297882, 0.41669592261314, -0.51233685016632, 0.50930678844452, -0.34919369220734, 0.78781199455261, 0.44998261332512, 1.88404631614685, -0.16603161394596, -0.07962456345558, -0.58978104591370, 0.35244637727737, -0.19902732968330, -0.22649662196636, 0.10139101743698, -0.06229637563229, 0.05693176388741, -0.72015374898911, -1.20578527450562, -1.34128367900848, 0.27281883358955, 0.55199289321899, -0.17520204186440, -0.22530521452427, 1.47597885131836, 0.01578380912542, -0.46229651570320, 0.01774000190198, -0.10234760493040, 0.00492381909862, -0.67580121755600, -2.68912196159363, -0.00965003762394, -0.31367507576942, -0.22655791044235, -0.57635301351547, -0.79003584384918, 0.67325758934021, -0.02232691273093, -0.18904623389244, -0.25724974274635, 0.75937229394913, 2.26151251792908, 1.14052700996399, 0.43789255619049, -0.52052801847458, -0.15621455013752, -0.26443502306938, -0.84983646869659, 0.39765334129333, 0.54779291152954, 0.06567274779081, -0.05968623608351, 0.32400229573250, -0.34108868241310, 0.10131211578846, -0.12673875689507, -0.00630773277953, 0.18397855758667, -0.49823874235153, -0.43649590015411, -0.14525151252747, -0.26018762588501, 0.05345446988940, 0.05847153067589, -0.14435462653637, -1.49376070499420, -0.86279922723770, 0.67029172182083, -0.44277575612068, 0.19313745200634, -0.07263675332069, 2.03375315666199, -0.78125709295273, 0.21381132304668, 0.23424242436886, -0.25560256838799, 0.22670157253742, 0.52322757244110, -1.36787950992584, 0.07176974415779, -0.18095980584621, 0.14064848423004, 0.20350350439548, 0.75687038898468, -1.35711097717285, 0.09828776121140, 0.16267681121826, 0.59740412235260, -0.15732951462269, 0.87129473686218, 0.16517849266529, -0.13753388822079, -0.01397175714374, 0.44782975316048, 0.88224506378174, 0.73770439624786, 0.71569001674652, 0.01867438107729, -0.10576435923576, -0.34141880273819, 0.36173060536385, 1.27641594409943, 0.18949860334396, -0.29828286170959, 0.03648309037089, 0.27180749177933, 0.35548740625381, 0.77262741327286, 0.89414787292480, 0.23892429471016, 0.49085035920143, 0.04327219724655, -0.80813020467758, -0.14971135556698, 0.28856503963470, -0.69344377517700, 0.28776142001152, 0.09041719138622, 0.03228416293859, 0.52543914318085, 0.61064910888672, -0.12949337065220, -0.14868590235710, -0.05561004206538, -0.31030964851379, -0.24930298328400, -0.84469527006149, -0.16597220301628, 0.33043688535690, 0.15536725521088, 0.44750604033470, 0.41312590241432, 0.01783291809261, -0.09524335712194, -0.30836412310600, 0.13824945688248, 0.68173706531525, 1.17467856407166, 0.14214855432510, 0.02168518491089, -0.15668234229088, 0.43868955969810, 0.08949332684278, -0.50010037422180, -0.12945766746998, -0.05624981597066, -0.16352817416191, -0.18021667003632, -0.50021630525589, -0.62442517280579, 0.41995942592621, 0.07738927006721, 0.21075810492039, -0.04845187067986, 0.32661435008049, -0.45998167991638, 1.14967298507690, -0.19174391031265, -0.17031672596931, 0.06113903224468, -0.10844425857067, 1.18595850467682, 2.09485220909119, 0.45673394203186, 0.17802269756794, -0.51904463768005, -0.34347277879715, -1.10910165309906, -0.01845588907599, -0.46696788072586, -0.51791244745255, 0.54867762327194, 0.04829439148307, 1.35581851005554, 1.37087833881378, -0.09521043300629, -0.00887699797750, 0.26709043979645, -0.57525986433029, -1.03711485862732, -0.11656267940998, -0.38467991352081, 0.66861599683762, -0.41775348782539, -0.53302216529846, -0.11179394274950, -0.81303435564041, 0.02353545092046, 0.35620519518852, 0.02659431472421, -0.03404365479946, -0.61468851566315, 0.15992289781570, -0.25758805871010, 0.28568232059479, -0.10663698613644, -0.23531112074852, -0.47644281387329, -0.31181970238686, -0.09948761761189, 0.19628609716892, -0.11393601447344, 0.27340170741081, -0.50302445888519, 0.14442250132561, 0.63937282562256, 0.03324239328504, -0.23170961439610, -0.33314496278763, 0.47958025336266, 0.44772773981094, -0.03173235058784, -0.03875851258636, 0.14442642033100, -0.33146807551384, -0.22374370694160, 0.14620025455952, -0.06791863590479, -0.45558425784111, -0.02962279133499, 0.27906730771065, 0.76458531618118, 0.01748979464173, -0.70497095584869, 0.05327153578401, -0.43855106830597, -0.56612062454224, -0.78789609670639, 1.16856610774994, 0.44240242242813, 0.04595685750246, -0.27364370226860, 1.09231030941010, 1.77161717414856, 0.59074896574020, -0.00696644047275, 0.27358454465866, -0.33647820353508, -0.07004743814468, -0.01222650893033, 1.61587154865265, -0.19238442182541, -0.61544835567474, 0.11685591191053, 0.35284879803658, 0.85082030296326, 0.46090486645699, -0.04410755634308, 0.03390048444271, -0.14786618947983, -0.44842329621315, -0.35370373725891, -0.01122119184583, -0.22864186763763, -0.21503050625324, 0.82515114545822, -0.17120639979839, -0.63293254375458, -0.45107349753380, 0.29519054293633, -0.42972433567047, -0.00499179679900, -0.06830385327339, -0.98618686199188, -0.20085912942886, -0.46941313147545, -0.22055032849312, 0.07502426952124, 0.22899934649467, -1.20716083049774, 1.50174164772034, -0.20500397682190, -0.64231497049332, 0.20156019926071, 0.23783259093761, 0.78527647256851, 0.65217232704163, 0.36287626624107, -0.25961410999298, -0.31793537735939, -0.24746574461460, -0.76107865571976, -0.47137916088104, 0.31566265225410, 0.30438414216042, 0.26776605844498, -0.20892570912838, 0.21598708629608, 0.14946992695332, 0.36497655510902, 0.05136419460177, 0.07339046895504, 0.75578802824020, -0.47880315780640, 1.42702901363373, 0.87862032651901, 0.23726506531239, -0.63494515419006, -0.04461273550987, -0.16384172439575, 0.36711034178734, -0.54096084833145, 0.47143629193306, 0.01900280453265, 0.13109055161476, 0.16592743992805, 1.94435465335846, -0.12554734945297, -0.16187712550163, 0.33714762330055, 0.41541302204132, 0.06329720467329, -0.53670406341553, -0.13006436824799, -0.10304277390242, -0.37583279609680, -0.65214383602142, -1.25540578365326, 0.48281955718994, 0.43456655740738, -0.31082770228386, -0.15472598373890, -0.18725925683975, -0.89835363626480, -0.47679507732391, 0.41913083195686, 0.26212766766548, -0.41566196084023, -0.46606105566025, -1.01050937175751, -0.29148516058922, -0.58551394939423, -0.10432476550341, -0.17232006788254, 0.03628960996866, -0.35298129916191, -0.91828209161758, 0.15057228505611, -0.60023313760757, -0.59434634447098, 0.17288908362389, 0.50252187252045, 0.40731003880501, -0.45495086908340, -0.14840774238110, 0.41158774495125, -0.46641570329666, -0.05903059989214, -0.55369454622269, -0.08114545792341, -0.22323863208294, -0.23230826854706, 0.16423062980175, 0.20696865022182, 1.38536477088928, 0.21867838501930, 0.39713439345360, -0.36502856016159, 0.17237238585949, -1.19161534309387, -0.27741947770119, -0.25163438916206, -0.21865794062614, -0.31092220544815, 0.05715843662620, -0.67938673496246, 0.42875862121582, 0.03143837675452, -0.11262889951468, 0.00463776383549, -0.03637369349599, 1.18646359443665, -0.97226101160049, -0.07304946333170, -0.25825530290604, -0.14637799561024, 0.12404599785805, 0.77081179618835, 0.78030401468277, -0.50528234243393, 0.13211393356323, 0.29228222370148, 0.13289196789265, -0.94075667858124, 1.47319757938385, 0.40114226937294, 0.33851000666618, -0.10125737637281, -0.02671944722533, 1.05254220962524, 0.61257457733154, 0.36064323782921, 0.20817282795906, 0.40152469277382, -0.21427100896835, 0.13404470682144, 0.10241376608610, -0.42531895637512, 0.13526076078415, 0.14655393362045, -0.28827235102654, -0.53750270605087, 0.33813065290451, -0.50333750247955, 0.10320921987295, 0.24769793450832, -0.10460044443607, -0.38664811849594, -0.43973797559738, 0.13330367207527, -0.03927477821708, -0.28276118636131, -0.26307395100594, 0.86272853612900, -0.90800994634628, 0.03913886472583, 0.09455899894238, -0.08550500124693, -0.09032116085291, 0.20025472342968, 1.95044612884521, -0.24393764138222, -0.06463282555342, -0.04915881529450, 0.68271923065186, -0.06918117403984, -0.52598679065704, 0.01212499197572, -0.24478681385517, 0.19363357126713, 0.77515375614166, 0.09185466915369, -1.28258740901947, 0.24597711861134, -0.07928731292486, -0.26340326666832, 0.15924775600433, -0.31589281558990, -0.25179716944695, -0.35948595404625, 0.04840392619371, -0.42025747895241, 0.38329991698265, 0.48065063357353, -0.17626979947090, 0.26025125384331, 0.19763065874577, 0.11614996939898, -0.39288461208344, -0.16868631541729, -0.38901710510254, 0.13728345930576, -0.67167764902115, 0.08372525125742, 0.07939930260181, -1.29786491394043, 0.03317704051733, 0.11874958872795, -0.64608556032181, -0.13741911947727, -0.03502532467246, 1.00454509258270, -1.18982028961182, -0.21641232073307, 0.33372378349304, 0.12867474555969, -0.00258531561121, -1.14922595024109, -0.10727429389954, -0.08941327035427, -0.44645929336548, 0.27951982617378, -0.23483021557331, -1.68516182899475, 0.02713038772345, -0.25466680526733, -0.13993047177792, -0.30694413185120, -0.39311334490776, -0.42384189367294, 0.73019552230835, -0.94173979759216, 0.09395869076252, -0.05275256931782, -0.38200092315674, -1.78165447711945, 0.51989042758942, -0.03452512249351, 0.20158593356609, 0.06613370031118, -0.15007790923119, -0.27628928422928, -0.06378068029881, -0.26524686813354, -0.29929581284523, -0.55645948648453, -0.59076410531998, 0.89540553092957, -0.96550512313843, -0.30721133947372, 0.05461569502950, -0.39148852229118, -0.53205013275146, -0.34150373935699, 0.61398416757584, -0.82972437143326, -0.40722766518593, 0.41562560200691, 0.45499905943871, 0.30738532543182, -1.07606530189514, 0.06722536683083, 0.13760688900948, -0.22376455366611, -0.12602849304676, 0.11290726065636, -0.91671854257584, -0.03821647167206, -0.01264065038413, 0.21079024672508, 0.16646158695221, 1.60251009464264, -1.47752439975739, -2.03598999977112, 0.00119403365534, -0.07694061100483, 0.25338265299797, 0.55167984962463, 0.11083138734102, 0.16299510002136, -0.10966598987579, -0.05979590490460, -0.13598881661892, 1.21698784828186, 2.76649498939514, -0.36007612943649, -0.05275398865342, 0.66447907686234, 0.14497810602188, -0.02218106016517, 0.15327440202236, 1.36423575878143, 0.48150825500488, -0.88565826416016, 0.79128819704056, -0.59341073036194, -0.39629882574081, 0.72291153669357, 0.10762102901936, 0.58751577138901, -0.48821955919266, 0.22494192421436, -0.20782072842121, 0.05074365809560, 0.26586031913757, 0.05629304796457, 0.11103957891464, 1.23946070671082, 1.65451610088348, 0.11307109147310, 0.14585164189339, 0.12543457746506, -0.27436900138855, -1.84907925128937, 2.70611548423767, 0.20170556008816, -0.20235756039619, 0.29630792140961, -0.81566828489304, 0.63481742143631, -0.84146666526794, -0.08612965047359, 0.19851888716221, -0.07508298754692, 0.39261052012444, 0.58137208223343, 0.15972976386547, 0.44037324190140, 0.33550730347633, -0.01106071285903, 0.46466439962387, -1.12177622318268, -0.13013955950737, -0.05971417203546, 0.31437376141548, 0.01381243765354, -0.24487252533436, 1.63842463493347, -1.06056165695190, -0.75168031454086, 0.19322735071182, 0.18684841692448, -0.06335990130901, 0.71949821710587, -0.08093884587288, -0.01345346588641, 0.46948480606079, 0.12214149534702, -0.01967435330153, -0.88675689697266, 0.29077115654945, -0.00250470894389, 0.22851808369160, 0.04778126254678, -0.43588700890541, 0.17201045155525, 1.73916602134705, -0.11782049387693, -0.15193389356136, 0.19382695853710, 0.18531379103661, -0.75137251615524, 1.17574799060822, -0.37392541766167, 0.18051242828369, -0.10758974403143, -0.49184247851372, 1.40545904636383, -0.51544266939163, -0.05889098718762, -0.19068127870560, -0.00198043137789, 0.03125095739961, 0.27978077530861, -0.47102785110474, -0.21552309393883, -0.40418240427971, 0.14172986149788, -0.30032408237457, -1.70522570610046, 0.49531841278076, 0.26151436567307, -0.00151837978046, -0.13599950075150, 0.22543083131313, 0.47144868969917, -2.09404110908508, -0.21468000113964, 0.29912447929382, -0.11497537791729, -0.20987634360790, 0.32476413249969, 0.87922918796539, 0.29960516095161, -0.08015050739050, -0.15930569171906, -0.60719919204712, -0.50528120994568, 0.34429734945297, -0.59057331085205, 0.46332293748856, -0.27823328971863, -0.20074447989464, -0.60012811422348, -0.99248784780502, -0.23735764622688, 0.66674840450287, -0.26741585135460, 0.47985598444939, 1.18965268135071, -0.19735594093800, 0.12306467443705, 0.13012023270130, 0.01299061533064, -0.25280666351318, -0.29011699557304, -0.58559817075729, 0.43689501285553, 0.01811697147787, -0.24704441428185, -0.61709076166153, -0.39206895232201, 0.24053776264191, 0.44483864307404, -0.15095695853233, 0.06766465306282, -0.48131537437439, 0.34541887044907, 0.21767063438892, -0.17046552896500, 0.33387592434883, 0.22003278136253, -0.52483469247818, 0.35440003871918, 0.08093845844269, -0.23036520183086, 0.15935772657394, -0.09644080698490, -0.31174570322037, -0.37006950378418, -0.02693862281740, 0.21599456667900, -0.18755018711090, 0.21788391470909, 0.35509204864502, -1.04737186431885, -1.26160526275635, -0.28757596015930, -0.01051310077310, 0.12095680832863, -0.08188276737928, -1.36879003047943, -0.58581626415253, -0.28985550999641, -0.52791762351990, 0.56182914972305, 0.64143431186676, -1.07306146621704, -0.09288642555475, -0.14400160312653, 0.09357122331858, 0.29339051246643, -0.15334217250347, 1.31955122947693, 0.41639700531960, 0.95314031839371, 0.05098472535610, 0.15304470062256, -0.27286911010742, -0.64620250463486, -0.97421795129776, 0.28106784820557, 0.26625731587410, -0.22600191831589, -0.17310258746147, -0.25277411937714, -0.05885112658143, 0.30488130450249, -0.60233336687088, 0.10672990232706, 0.29480755329132, -0.24441760778427, 0.54871016740799, -0.05747016146779, -0.02723131887615, -0.16154363751411, -0.89602345228195, 0.46829181909561, -1.27003204822540, 0.41182675957680, -0.61672884225845, 0.01863091625273, -0.16225537657738, 0.79686468839645, 0.34423840045929, -0.14607922732830, 0.00278554880060, -0.16319563984871, -0.35661429166794, -0.06769310683012, 0.24330767989159, -0.15490850806236, -0.37804645299911, -0.12529076635838, -0.08194853365421, -0.42238274216652, -1.09676253795624, 0.20787711441517, 0.26982721686363, 0.20373122394085, -0.11625923961401, -0.42746931314468, 1.07665312290192, 0.57075959444046, 0.02018287405372, -0.14215165376663, 0.03394852578640, 1.35771179199219, 0.48201712965965, 0.16917651891708, 0.05146519839764, -0.09820482879877, 0.63682067394257, 0.13213546574116, -0.55967652797699, -0.43662109971046, 0.12922711670399, -0.48419782519341, -0.77146238088608, -1.15359580516815, -0.00185096263885, -0.03433050215244, -0.10919762402773, 0.33352082967758, 0.02062935754657, 0.13033691048622, -1.87094283103943, 0.01818524114788, -0.67078995704651, -0.06246988847852, 0.50446295738220, -0.84777384996414, 0.19602361321449, -0.00488084880635, 0.07633856683969, -0.01067511737347, -0.10077901929617, -1.66515517234802, 2.01236796379089, 0.16033960878849, 0.17494046688080, -0.20144496858120, -0.00749465636909, 0.75770109891891, -0.28433340787888, 0.27823224663734, 0.25254067778587, 0.03244015946984, 0.30120345950127, -2.96741461753845, -0.15679813921452, -0.32321646809578, 0.08988003432751, -0.12122377008200, 0.45115050673485, 0.04647928103805, -0.59693014621735, -0.12694737315178, 0.15454313158989, 0.19618193805218, 0.09553172439337, -0.89263570308685, -1.51170957088470, 0.29796701669693, 0.09417555481195, -0.39435377717018, 0.23976981639862, 0.96962189674377, 0.77716386318207, 0.01002652756870, 0.10204073041677, -0.34529390931129, 0.09839335829020, -0.32835030555725, -0.70521461963654, 0.48182815313339, -0.24382990598679, 0.58472836017609, 0.37090337276459, -0.49061131477356, 1.07875549793243, -0.31222823262215, 0.09390634298325, 0.91054344177246, 0.12471496313810, -0.29893994331360, 0.70570772886276, 0.05319807305932, 0.54989808797836, -0.31885719299316, -0.55688816308975, 0.61227184534073, 0.81739395856857, 0.40587484836578, 0.19334419071674, 0.13232186436653, 0.19835971295834, -0.92239677906036, 1.11521875858307, -0.17741145193577, -0.22941854596138, 0.19878306984901, 0.49807652831078, -0.97327780723572, -0.72650247812271, -0.24195997416973, 0.13816632330418, 0.56597977876663, -0.01228007581085, 0.88099104166031, 0.66810679435730, 0.42454835772514, -0.23458224534988, -0.04926894232631, 0.40080237388611, 0.72306704521179, 0.45169609785080, 0.52546215057373, 0.12884770333767, 0.07094203680754, -0.37461224198341, 0.37283822894096, -0.87423235177994, 0.05236656218767, -0.24379427731037, -0.15579698979855, -0.00561005668715, -0.59043669700623, -0.54606717824936, 0.18235763907433, 0.41135409474373, 0.22244949638844, -0.61222696304321, 1.72604811191559, 0.82605707645416, 0.14124985039234, -0.01000530831516, 0.50057965517044, -0.38679561018944, -0.89957094192505, -0.53979027271271, -0.99311435222626, -0.10884310305119, -0.38767397403717, 0.06892630457878, 1.42339837551117, -0.22846838831902, 0.58242970705032, 0.32255747914314, -0.36385688185692, 0.03607758507133, 0.27528145909309, -2.24094700813293, 0.13301286101341, 0.37344416975975, 0.10487321019173, -0.05874301493168, 0.23511572182178, 0.53826844692230, 0.45891180634499, -0.04176167398691, 0.09747557342052, 0.01416710298508, -0.19534532725811, -1.04469382762909, 0.81002044677734, 0.46249449253082, -0.58850622177124, 0.08643833547831, -0.00686425063759, 1.09065318107605, 0.20797210931778, 0.12081452459097, -0.22521150112152, -0.43965148925781, 0.77064716815948, -0.47051343321800, 0.00631636288017, 0.26008763909340, 0.17216256260872, 0.10639472305775, -1.85039663314819, 0.17989251017570, 0.26638436317444, 0.09252889454365, -0.09382059425116, 0.13470476865768, -1.18452346324921, -1.68789672851562, 0.02388935908675, -0.08277288824320, -0.40749087929726, 0.22276261448860, 0.49849376082420, 0.98711842298508, 0.15336816012859, -0.12236075103283, 0.04305088892579, -0.06618203222752, 0.79271107912064, 0.54136931896210, 0.17493934929371, 0.09725332260132, -0.16588473320007, -0.48055216670036, -0.84374505281448, -1.15410017967224, -0.04668477177620, 0.03228354454041, -0.13728024065495, -0.17034004628658, 0.46827915310860, 0.43181759119034, 0.16417016088963, 0.16836586594582, 0.22664748132229, 0.25790783762932, 0.60183352231979, -0.13218793272972, 0.34386721253395, 0.13248053193092, 0.35443064570427, -0.03147290274501, -0.76256728172302, -0.85599976778030, 0.05983986333013, 0.06845266371965, 0.08938901126385, 0.27436691522598, -1.35179460048676, -0.32768177986145, -0.77877235412598, -0.09696858376265, 0.13526436686516, 0.36139544844627, -0.30979356169701, -2.73630332946777, -0.22540684044361, 0.11811887472868, -0.29050481319427, -0.44446149468422, -0.42794212698936, -0.65662980079651, -0.28549811244011, 0.13267110288143, 0.13062562048435, -0.04914024472237, -1.17040491104126, -1.08318591117859, -0.06828530877829, -0.17433533072472, 0.15423120558262, 0.16802355647087, 0.64423251152039, -0.58322882652283, 0.14739045500755, 0.24807423353195, -0.15423156321049, -1.31322515010834, -0.98892515897751, -1.09743750095367, -0.05804481357336, 0.00915889162570, -0.12925800681114, -0.19313757121563, -1.00601410865784, 2.35360312461853, 0.39482247829437, -0.06851300597191, -0.11557848751545, -0.09539371728897, 0.31401407718658, 0.38196912407875, 0.02171688713133, 0.20508456230164, -0.13263991475105, -0.39337766170502, -0.40262433886528, -3.22578048706055, -0.26897141337395, 0.14289636909962, -0.01978403888643, -1.06845831871033, -1.52729463577271, 1.39064383506775, 0.22341378033161, 0.07788959890604, -0.11815574020147, 0.27686104178429, 1.75802576541901, 1.32414686679840, -0.02986378222704, -0.11291132867336, -0.24709813296795, 0.06027507036924, -0.44501122832298, -0.25102123618126, -0.04016405344009, 0.16303883492947, -0.59047770500183, -0.17297366261482, 0.99713194370270, 1.39262545108795, -0.42340287566185, 0.14429405331612, 0.14767976105213, 0.14114719629288, -0.14797820150852, -1.30482447147369, -0.00191317545250, 0.20614971220493, -0.33792406320572, 0.29975584149361, -0.07488735765219, -0.18997794389725, 0.18472008407116, 0.47142645716667, 0.11776631325483, -0.45383715629578, -0.47587442398071, 1.49105191230774, 0.20924486219883, -0.38485825061798, -0.31305858492851, 0.40345457196236, -0.41143208742142, -1.47058415412903, 0.48472771048546, -0.17583255469799, -0.28779625892639, 0.45410415530205, -0.17552377283573, 1.30853331089020, 0.21097622811794, 0.35507386922836, 0.17222921550274, -0.13624763488770, -1.07390153408051, 2.54795503616333, 0.63916838169098, 0.21213422715664, 0.20536279678345, 0.15190087258816, 0.66163605451584, 1.33774423599243, -0.04370945692062, -0.05507850274444, -0.01654205843806, 0.07914558053017, 0.84509545564651, -1.05840408802032, -0.05096700415015, -0.28318908810616, -0.00066534575308, 0.14239676296711, -1.03799164295197, 1.26153743267059, 0.09929277002811, -0.25012862682343, 0.16235968470573, 0.01870333030820, -0.72191995382309, -2.66134929656982, 0.39561787247658, 0.08434062451124, -0.36791220307350, 0.24481947720051, -0.41928941011429, 2.55000281333923, 0.22777467966080, 0.08310914784670, 0.07069294899702, -0.12436798214912, 0.44015306234360, -1.22233974933624, 0.25440508127213, 0.15023300051689, 0.20017792284489, 0.00748385256156, 0.71543550491333, -1.32267677783966, 0.22928728163242, -0.04693366214633, -0.22379724681377, 0.66236394643784, -0.68032294511795, 2.09448671340942, 0.14537781476974, 0.26456537842751, 0.00700243329629, -0.17257331311703, 1.98880648612976, -1.20824980735779, 0.16242209076881, -0.12577360868454, -0.06178490817547, 0.22552916407585, 0.02804165519774, -0.13984499871731, -0.07160731405020, 0.23094747960567, -0.35826936364174, -0.03745920583606, 0.32394623756409, 1.06776309013367, 0.11653489619493, -0.02997259236872, 0.01781258359551, -0.83805298805237, -2.65409970283508, -1.91100609302521, 0.30035221576691, 0.06144543364644, -0.03356533497572, -0.53735065460205, -2.28075218200684, 1.01596856117249, -0.03176500275731, -0.21857300400734, 0.36808279156685, 0.28008928894997, -0.76252096891403, -1.18881893157959, -0.08916885405779, 0.01877782307565, -0.15355145931244, -0.02154187299311, 0.38163056969643, -0.46081283688545, -0.01605097763240, -0.29946234822273, 0.10844814777374, -0.22007966041565, -1.06654012203217, -0.49748301506042, -0.26495051383972, 0.03666031733155, -0.07056221365929, 0.74507147073746, 1.29887592792511, 1.88763856887817, 0.37568274140358, -0.05230998992920, 0.11866847425699, -0.08233021199703, -0.61405134201050, 4.42038488388062, -0.13921344280243, -0.12201660126448, 0.24203294515610, -0.15020982921124, 0.22991497814655, -0.44074800610542, 0.37528240680695, -0.10167523473501, -0.15698091685772, 0.15593007206917, 0.27803614735603, 0.50565797090530, 0.03510183840990, 0.23214814066887, -0.01417516451329, -0.01216513756663, -2.20590472221375, -0.44475033879280, 0.06825193762779, -0.20688635110855, -0.10872780531645, -0.05827686190605, -0.71950876712799, -0.88407230377197, 0.29828640818596, -0.10646566748619, -0.30869910120964, -0.12569741904736, -0.31770822405815, -1.15515339374542, -0.07673014700413, 0.17829063534737, -0.23257961869240, 0.01048032846302, -0.75699073076248, 0.43523854017258, -0.02012317627668, 0.03465578332543, -0.09525249898434, -0.29631674289703, 0.66548204421997, 2.07127499580383, 0.23462995886803, -0.12341461330652, 0.30510279536247, -0.42741078138351, -0.75323015451431, 1.04694652557373, 0.09760064631701, 0.16778784990311, -0.06899579614401, -0.08191374689341, 0.00560992676765, 1.61895418167114, 0.81100153923035, 0.33723682165146, -0.24004104733467, -0.73667788505554, 1.24274861812592, 1.61641526222229, -0.16831281781197, 0.12160680443048, 0.04889972135425, 0.30843320488930, 0.52690863609314, -1.01279437541962, -0.23643104732037, -0.17725379765034, 0.11940392106771, -0.23903994262218, 0.92281943559647, -2.93632888793945, 0.03031289763749, 0.39340901374817, -0.32572558522224, -0.22831448912621, -1.24238443374634, 1.83399486541748, 0.17921084165573, -0.10335700213909, -0.12963165342808, 0.51200956106186, 0.47032073140144, 0.51158934831619, -0.08360379189253, 0.39684781432152, 0.32548704743385, -0.29469066858292, -0.79295426607132, -0.21317802369595, -0.01810892112553, -0.06222144886851, 0.19324478507042, -0.24894516170025, -0.19323927164078, 1.34429895877838, -0.15702141821384, -0.05280423536897, 0.02470175921917, -0.10059998184443, 0.16435031592846, 2.56239581108093, -0.06214788183570, -0.01787567138672, 0.00270347832702, -0.08621708303690, 0.08825085312128, -1.03751993179321, -0.54481625556946, -0.13351039588451, 0.19176961481571, -0.31796321272850, 0.61842763423920, 0.18818159401417, -0.07279657572508, -0.33250343799591, -0.41510218381882, -0.14776799082756, -0.25887039303780, -0.99474757909775, 0.14088094234467, -0.00777293834835, 0.09295009076595, 0.18095304071903, -0.44030150771141, -0.31403163075447, 0.07784990966320, 0.12369244545698, 0.17560769617558, 0.41284590959549, 0.66555535793304, 0.92255985736847, 0.27929496765137, -0.16029071807861, -0.13287842273712, 0.16668577492237, -1.06036305427551, 2.88074207305908, 0.16892795264721, 0.44227707386017, 0.12736584246159, -0.32690662145615, 0.08843170106411, -0.09899194538593, -0.33120292425156, -0.01451828330755, -0.00470590032637, -0.59946364164352, -1.62187314033508, 1.85373711585999, -0.18505646288395, 0.08552523702383, 0.32835152745247, 0.11510156840086, -0.30371350049973, 0.71864807605743, 0.02796728536487, 0.09767646342516, 0.14486062526703, 0.37077656388283, -0.29261860251427, 0.60146784782410, -0.01026871427894, 0.12785020470619, 0.12727299332619, -0.37225773930550, 1.67094886302948, 1.58420407772064, 0.49390992522240, -0.03923003748059, 0.27549400925636, 0.09216868877411, 1.44274485111237, -1.11946785449982, 0.28199622035027, -0.28216141462326, 0.20062278211117, -0.10667699575424, -0.92278653383255, 2.11560034751892, -0.16435182094574, -0.10079878568649, 0.32525128126144, 0.05934150516987, -0.69279897212982, -1.18230676651001, 0.11819250136614, 0.66546416282654, -0.39674040675163, 0.20693600177765, 1.64547181129456, -0.05211651325226, -0.25155475735664, -0.03042583353817, 0.05001542344689, -0.52344501018524, -0.73357403278351, -0.53231161832809, -0.09266672283411, 0.22852607071400, -0.02167549915612, 0.15541891753674, -0.80173879861832, -1.15967667102814, -0.13017816841602, 0.24226292967796, -0.19243991374969, -0.00124003214296, -0.84207510948181, 0.03830115869641, 0.03367522731423, -0.01928541623056, 0.04615340754390, -0.11457217484713, -1.29393672943115, -0.25979360938072, 0.16834157705307, -0.04229629784822, 0.03265970200300, -0.47258549928665, -0.09438028186560, -0.17408868670464, -0.01661517098546, 0.29349806904793, -0.12325266003609, -0.20479559898376, -0.66936486959457, -0.96101945638657, 0.12970510125160, 0.09478631615639, 0.15367998182774, -0.43779936432838, 0.19696922600269, 0.13057789206505, -0.10525014996529, 0.01925272867084, 0.28762587904930, 0.09113078564405, 0.72922182083130, 3.37522721290588, -0.03398524224758, 0.09181066602468, -0.46447762846947, 0.10863750427961, 0.76043254137039, -0.46312022209167, -0.00985704828054, 0.38559487462044, 0.13211989402771, -0.37016597390175, -0.20443516969681, 1.69843089580536, 0.03505511581898, -0.05079087242484, -0.10831452161074, 0.12936751544476, -1.01727366447449, -2.39858198165894, -0.25245222449303, -0.30628371238708, 0.12402357161045, 0.10925946384668, -0.78039789199829, -0.61246234178543, 0.10293582081795, 0.02010708302259, -0.06228518858552, -0.11655885726213, 0.40911701321602, 2.40469717979431, -0.20047847926617, 0.07334262877703, -0.02389765903354, -0.04293461889029, -0.77272474765778, 0.34125733375549, 0.07401450723410, 0.17751257121563, 0.33612543344498, -0.13914917409420, -1.27203691005707, 1.68479347229004, -0.17832617461681, 0.20878021419048, 0.12396706640720, 0.08945114910603, -0.01173648983240, 2.34619402885437, -0.00682256603613, 0.24290515482426, 0.33276787400246, 0.00016404701455, 0.07013428211212, 0.50331872701645, -0.04138970002532, -0.48424333333969, 0.05890738591552, -0.09960394352674, 1.54043412208557, -1.26320874691010, -0.17948184907436, -0.09403522312641, 0.48177951574326, 0.00025947630638, -1.33638691902161, 0.64421367645264, 0.00379809667356, 0.01692237891257, -0.08812102675438, 0.38188910484314, 1.89656031131744, -0.62921559810638, -0.09315622597933, -0.27598986029625, 0.20818926393986, 0.32498952746391, 0.29094725847244, 1.44819462299347, -0.10734803229570, -0.12353523820639, 0.05876844748855, -0.05181862786412, 1.87307834625244, -1.50997102260590, 0.11990062892437, 0.30644050240517, 0.07404716312885, 0.03462747484446, -1.20735597610474, 0.13269071280956, -0.10173675417900, 0.04728041961789, -0.54280632734299, -0.02704454213381, -0.48780387639999, -0.32162940502167, 0.26475399732590, -0.13051749765873, 0.03179122135043, 0.42886120080948, 0.66498059034348, -0.34814745187759, 0.26368731260300, 0.24456982314587, 0.31181010603905, 0.04900993779302, 1.99578189849854, 0.08513496816158, 0.18666037917137, -0.04802142828703, -0.65220743417740, -0.17109997570515, -0.87791389226913, 0.19316081702709, 0.11775089800358, -0.07691016793251, 0.28300166130066, 0.66251140832901, -0.97929859161377, -0.60426324605942, -0.15440489351749, 0.31628537178040, 0.05435824766755, -0.00482430867851, 1.23111271858215, 0.54438954591751, -0.35783156752586, -0.26695746183395, 0.09381086379290, -0.23792800307274, -0.70639991760254, -2.67806196212769, 0.11056164652109, 0.16538546979427, 0.01192165631801, 0.19148725271225, -0.19970645010471, 0.46433335542679, 0.18401829898357, 0.14225117862225, -0.32767859101295, 0.25415566563606, 0.94688469171524, 0.26200884580612, -0.25925123691559, 0.21564288437366, -0.04019298404455, -0.63782691955566, -1.64499676227570, 0.07771378755569, -0.06112731993198, 0.11124844849110, 0.18305324018002, -0.23897150158882, -0.26015722751617, -0.32532894611359, -0.13340686261654, -0.01746260002255, -0.57755404710770, 0.03752063214779, -0.06149807944894, 0.73247492313385, 0.06558223068714, 0.09181797504425, 0.07511991262436, -0.02632889151573, -1.29921579360962, 0.44848161935806, -0.09686595201492, -0.24833257496357, 0.48019322752953, 0.34862020611763, -0.96511930227280, -0.84788191318512, -0.17318986356258, 0.12462742626667, 0.17650939524174, -0.16737464070320, -0.28837284445763, 1.11698698997498, 0.10885453224182, -0.32450282573700, -0.69334858655930, 0.24524648487568, -0.89377814531326, -0.46198126673698, 0.21914784610271, -0.11440895497799, -0.09889008849859, 0.08121895045042, -0.82417809963226, -2.10695862770081, 0.37497586011887, 0.65555453300476, 0.13963639736176, 0.10330427438021, 0.35762351751328, -0.65932297706604, 0.00467306561768, 0.13924212753773, 0.31048664450645, 0.00396096892655, 1.99762547016144, 0.86528742313385, 0.17586551606655, 0.39768201112747, -0.34978812932968, -0.01037399284542, -0.90452426671982, -0.60505735874176, -0.00734092248604, 0.00686802295968, 0.07268664240837, 0.02850168384612, 3.05880093574524, 0.83603775501251, 0.13346613943577, 0.31517967581749, -0.00120467529632, -0.10181894153357, -0.78345376253128, -0.85258007049561, -0.26336392760277, 0.22424538433552, 0.52716064453125, 0.14912782609463, -2.96208786964417, 0.04999581724405, 0.08598908036947, -0.50868022441864, 0.01966978795826, -0.03061398304999, -0.69899553060532, -1.27139878273010, -0.18067139387131, 0.40082785487175, 0.51285386085510, -0.31203919649124, -1.29035389423370, -0.66653215885162, -0.23841919004917, -0.08911038935184, -0.14470271766186, -0.38639900088310, 2.96596002578735, 0.00650040572509, -0.30230534076691, -0.21821032464504, -0.25278657674789, -0.40166836977005, 0.54085338115692, 0.24467328190804, 0.07499722391367, -0.35487461090088, -0.01849745959044, -0.00809797830880, -0.07423122972250, 0.16275686025620, 0.13820114731789, -0.12225367873907, 0.55050307512283, -0.14368596673012, -1.43012142181396, 0.28804096579552, -0.27613416314125, 0.02668471075594, 0.30996268987656, 0.16780726611614, -1.42659711837769, 0.37291395664215, 0.04156563058496, 0.09118348360062, -0.37485244870186, -0.05789699777961, -1.04816341400146, -1.30990433692932, 0.18961799144745, 0.02980672754347, -0.05173549428582, 0.61697357892990, 0.03801507130265, 0.69119626283646, -0.12327058613300, -0.09770893305540, -0.51358067989349, -0.03210275247693, 1.09017014503479, 0.50773960351944, -0.19742967188358, 0.02056768909097, -0.08306547254324, -0.20245070755482, 2.00473093986511, 0.66468793153763, 0.01474726665765, -0.25824391841888, 0.22949421405792, 0.01673724129796, 2.43627834320068, 1.23508334159851, 0.23963892459869, 0.36116021871567, -0.03366069123149, 0.15649269521236, 1.92158949375153, 1.08249020576477, 0.00252183014527, 0.52943640947342, 0.22619791328907, -0.11260767281055, 0.44587498903275, 0.74563127756119, -0.25483292341232, 0.22160083055496, 0.16626524925232, -0.20853048563004, 2.66366481781006, -0.65225565433502, 0.02612401731312, 0.08789555728436, 0.70173358917236, -0.17843638360500, -0.63221275806427, -0.50590223073959, -0.02781386859715, -0.18938383460045, -0.06389562040567, -0.14343723654747, 1.64318549633026, 0.51744431257248, 0.14380382001400, 0.08200448751450, -0.07340005040169, -0.05071895942092, -1.04005837440491, -0.23850475251675, 0.10808607190847, 0.11782089620829, 0.36581051349640, 0.00057016755454, 0.33876588940620, 0.40210214257240, 0.22511632740498, 0.18817237019539, -0.10201904922724, -0.18302148580551, 0.55629992485046, -0.46823388338089, 0.16644936800003, 0.13061468303204, 0.41415533423424, 0.10758592933416, -1.79588699340820, -0.07132044434547, 0.30054605007172, -0.09931382536888, -0.45324546098709, -0.21966427564621, 0.66770637035370, 0.04196119681001, 0.25880634784698, 0.60054773092270, -0.64491933584213, -0.19050554931164, 0.39460542798042, 0.86732202768326, 0.22270578145981, -0.01198692992330, 0.09150996059179, 0.08453582227230, 1.60660040378571, 0.12242839485407, -0.30800908803940, -0.32370564341545, 0.23464445769787, 0.23130688071251, -0.93307697772980, 0.61141866445541, -0.38562983274460, -0.20364944636822, 0.09669954329729, -0.13842265307903, -0.84689289331436, 0.69616830348969, 0.16186423599720, -0.25655975937843, 0.08886768668890, 0.12423442304134, 0.26858472824097, -1.40607607364655, 0.01633005402982, -0.31723538041115, 0.47562646865845, 0.31497254967690, 0.65681385993958, 0.20996591448784, 0.44262969493866, -1.01364684104919, -0.13178801536560, 0.06824012845755, 0.66965258121490, 0.06551843136549, 0.10689045488834, 0.12912711501122, -0.08015283942223, -0.11958304047585, 1.56889271736145, -0.03766696527600, -0.02246626652777, 0.12159045040607, -0.04034338891506, -0.07650212943554, -0.41884148120880, -0.02873418480158, -0.01689827442169, 0.04362934455276, -0.06254961341619, -0.08200883120298, 1.05903077125549, -0.63913315534592, -0.25089251995087, -0.27749085426331, 0.27338421344757, 0.13422255218029, -1.77940046787262, 0.22573745250702, 0.31396582722664, 0.05185637995601, -0.20132502913475, 0.03407450392842, 0.01625868305564, -0.00203422573395, -0.34163501858711, 0.01239100750536, 0.27134490013123, 0.05133635550737, -2.58176898956299, 1.39275264739990, 0.04623231664300, -0.31695735454559, -0.16922956705093, -0.12823364138603, 0.20068560540676, 0.86600518226624, -0.35164633393288, 0.19133064150810, 0.06245533749461, -0.63798040151596, -0.70895433425903, 0.56687361001968, 0.23917138576508, 0.15880520641804, 0.21689222753048, -0.24208474159241, -1.16842281818390, 0.81146669387817, -0.16114759445190, -0.00662704464048, 0.00204875925556, -0.00129453605041, -3.36728644371033, -0.46826165914536, -0.06571736186743, -0.08104745298624, -0.03012911044061, 0.02265150286257, -1.43762648105621, -0.19462673366070, -0.16752921044827, -0.28122156858444, 0.22248856723309, 0.12952937185764, -0.24396455287933, 0.43141809105873, 0.11001592129469, -0.21603785455227, -0.62690830230713, -0.38743820786476, -0.16180618107319, 0.22100074589252, -0.21607358753681, -0.45394399762154, 0.33945605158806, 0.10106806457043, 0.72459185123444, -0.79270273447037, 0.16997811198235, 0.42825198173523, 0.52852624654770, -0.45630618929863, -1.41793859004974, 0.16378840804100, 0.07342798262835, -0.43300408124924, 0.08624812960625, -0.04246024787426, -1.18407201766968, 0.34819844365120, -0.02138162590563, -0.28574517369270, -0.36632743477821, -0.43967887759209, 0.61101454496384, 0.16775420308113, 0.02689645625651, 0.10540924966335, 0.37799593806267, -0.04330889508128, 1.47405242919922, -0.83521318435669, -0.04282944276929, -0.31503716111183, 0.12169954925776, 0.12448790669441, 0.57281363010406, -0.39858409762383, 0.12007658928633, 0.16111475229263, -0.07287684082985, 0.40105339884758, -0.08173873275518, 0.18027453124523, 0.20849147439003, -0.27773493528366, -0.31730920076370, -0.01093064248562, 0.09411441534758, 0.72541677951813, -0.07471392303705, -0.20265576243401, -0.02807503379881, 0.30149480700493, 0.16668923199177, -1.58001720905304, -0.12912075221539, -0.11459463089705, -0.16663041710854, -0.35099405050278, 0.32442498207092, 