-0.039341036230326, 0.013365118764341, 0.000000287013023, -0.000000554327585, 0.508323132991791, -0.189316093921661, -0.136443123221397, -0.207784861326218, -0.000010921047760, 0.000006771296285, -0.258485108613968, 0.524068951606750, 0.091403588652611, -0.023682883009315, -0.000006930208656, -0.000000110936327, 0.503571748733521, -0.098587259650230, -0.183024883270264, -0.094999611377716, 0.000000975133503, -0.000004179427833, 0.531538367271423, -0.370966136455536, 0.032415524125099, -0.113521553575993, -0.000006226113783, 0.000013252290046, 0.028811540454626, 0.197157725691795, 0.126484453678131, -0.059124045073986, -0.000005559738838, 0.000000700797557, -0.429197430610657, -0.168834403157234, 0.051754005253315, 0.045249469578266, 0.000004230808372, 0.000000900077850, 0.182190224528313, -0.163906559348106, 1.930001616477966, -0.096718467772007, -0.000011914174138, -0.000014055473002, -0.581314325332642, 0.229108616709709, 0.010119911283255, -0.035066079348326, -0.000005513546512, -0.000001978614364, -0.205789014697075, -0.280711710453033, 0.007158144377172, 0.010753450915217, 0.000002118925977, 0.000022809907023, -0.313881516456604, -0.183353289961815, 0.046033583581448, -0.039795018732548, 0.000006121618298, 0.000004073677701, -0.091798394918442, -0.294247239828110, 0.043276097625494, -0.030742781236768, -0.000001928108759, -0.000009553102245, -0.093186818063259, -0.457778602838516, 0.018465174362063, 0.112042836844921, 0.000003462080258, -0.000006482155641, -0.385808885097504, -0.324122846126556, 0.101323246955872, 0.423687279224396, -0.000009523478184, -0.000001839014999, 0.327698826789856, 0.324839532375336, 0.047789793461561, 0.033360294997692, 0.000003897170700, 0.000008670375792, -0.302309483289719, -0.023281101137400, -0.030568422749639, 0.043737329542637, -0.000002342620746, 0.000003056245077, -0.634109258651733, 0.260800689458847, -0.062295950949192, 0.043775726109743, -0.000009968242921, 0.000002231028475, 0.453846871852875, 0.165375307202339, 0.008937044069171, 0.008468351326883, -0.000000009838057, -0.000006522173408, -0.468890786170959, -0.412334501743317, 0.100479103624821, 0.039190784096718, -0.000006760556516, 0.000004753626399, -0.240601480007172, -0.313715755939484, -0.033386040478945, -0.105107545852661, 0.000016668169337, -0.000000679802383, -0.154127344489098, -0.165098324418068, -0.152561143040657, 0.043429877609015, 0.000003333590485, -0.000006328423751, -0.097539879381657, 0.521696865558624, 0.042595695704222, 0.068978711962700, -0.000000723566700, 0.000002502866209, 0.298428237438202, -0.162993893027306, -0.006361548788846, -0.049046717584133, 0.000005972980944, -0.000009636493814, 0.025872325524688, 0.285342454910278, 0.010651044547558, 0.298974186182022, 0.000003516605602, -0.000012070969206, -0.038210697472095, -0.424149215221405, -0.003565319115296, -0.015190744772553, 0.000000343453166, 0.000001061286866, 0.171197995543480, 0.315234392881393, 0.008638018742204, -0.017725707963109, -0.000000624159213, 0.000004794751931, -0.473576217889786, 0.311179220676422, -0.065081670880318, -0.197304353117943, -0.000003678533631, 0.000004586367595, -0.366705954074860, -0.340941369533539, -0.004288312513381, 0.642871081829071, -0.000001413482664, 0.000009765871255, 0.774906218051910, -0.071455575525761, 0.035880301147699, -0.032109968364239, 0.000001513667144, -0.000013447664969, -0.528005182743073, -0.093966148793697, 0.059189032763243, 0.034965343773365, -0.000005638910352, 0.000000404500980, 0.073722958564758, -0.428102046251297, 0.045136675238609, 0.085897848010063, -0.000001827694518, 0.000005243326086, -0.302509158849716, -0.719497859477997, -0.005350786261261, -0.055706847459078, -0.000005934199180, -0.000010166217180, 0.054317951202393, -0.159157723188400, -0.035749223083258, -0.124260358512402, 0.000007243547770, -0.000003645578772, -0.251602202653885, 0.384740382432938, 0.006730677559972, -0.167359650135040, -0.000006185200164, -0.000004023067504, -0.210259065032005, -0.472046405076981, 0.544947862625122, 0.100809313356876, 0.000011527522474, -0.000004998212262, 0.062110044062138, 0.072570577263832, -0.021351654082537, -0.348407924175262, -0.000001198371933, -0.000000906512923, -0.146148249506950, 0.284984886646271, 0.010173134505749, -0.530606210231781, 0.000002182388698, -0.000037564128434, -0.189574658870697, 0.085061170160770, 0.032997675240040, 0.112164884805679, -0.000000984602366, -0.000021696538170, 0.450869441032410, -0.380073964595795, 0.058888725936413, -0.044364824891090, 0.000011141764844, -0.000003917772119, 0.003860890166834, -0.295615971088409, 0.015680987387896, 0.025459948927164, 0.000009269764632, -0.000003784454520, -0.061679087579250, 0.196328952908516, -0.031583826988935, -0.028465226292610, -0.000002128699634, 0.000004397195426, -1.209865450859070, -0.290416508913040, 0.031334474682808, -0.098543755710125, -0.000008391996744, -0.000003017914196, 0.118516989052296, -0.003565083490685, 0.019032629206777, -0.017799276858568, 0.000007544058008, 0.000008177188647, -0.634424448013306, 0.213020592927933, -0.006709331180900, -0.031301319599152, -0.000004564029041, -0.000002174865813, 0.046927366405725, -0.352547287940979, -0.052839167416096, 0.001009832136333, 0.000000291912301, 0.000000656441784, -0.085504412651062, -0.002733621746302, -0.002961824648082, -0.143365070223808, 0.000004076615824, -0.000005377459729, -0.184261232614517, -0.597983419895172, -0.004744538106024, -1.565595746040344, 0.000004506437108, -0.000009175148080, 0.609839498996735, 0.632342100143433, 0.057486876845360, -0.040709219872952, -0.000006049269359, 0.000003161100722, -0.101353704929352, -0.111927732825279, -0.134963095188141, -0.213664069771767, -0.000000881461744, 0.000000080705576, 0.279349029064178, -0.128728568553925, -0.087807096540928, -0.021117506548762, 0.000002441377774, 0.000004631859156, -0.233430504798889, 0.276104331016541, -0.078234814107418, -0.022261818870902, 0.000001708150648, -0.000007956581612, -0.128385901451111, 0.192334979772568, 0.028599675744772, -0.046611130237579, -0.000001028776865, -0.000003607529834, 0.044405829161406, -1.587470412254333, -0.006245376076549, 0.014229052700102, -0.000003892342193, 0.000003763858558, 0.417878419160843, 0.985270678997040, -0.032040875405073, 0.034782677888870, -0.000000531583794, 0.000001704292913, -0.042514376342297, 0.400785297155380, -0.000653951778077, 0.010761402547359, -0.000003235852546, 0.000002175369673, 0.828786730766296, 0.497338294982910, -0.033856559544802, -3.315923213958740, 0.000002802358949, -0.000036564462789, 0.004081220831722, -0.147804915904999, -0.027347946539521, -2.065011262893677, -0.000004948335572, -0.000024133205443, -0.101608335971832, -0.238745331764221, 0.080598428845406, 0.061453972011805, 0.000002852057378, 0.000000172170786, -0.280049324035645, 0.190116807818413, -1.907589435577393, -0.155823469161987, 0.000011426552192, 0.000023573895305, -0.979923069477081, 0.190701425075531, -0.191894516348839, -0.296199202537537, 0.000002279669161, 0.000013553093595, 0.286116212606430, -0.083008594810963, -0.017702979966998, -0.006058637518436, 0.000000669171072, -0.000007049562555, -0.247335016727448, -0.310133844614029, 0.018885476514697, -0.091221809387207, 0.000002282768264, 0.000009570927432, 0.057617418467999, 0.067348115146160, 0.222524285316467, -0.164043024182320, 0.000009178270375, -0.000007976536835, -0.139770463109016, 0.289406329393387, 0.103524334728718, 0.270588517189026, 0.000013939793462, 0.000000834066668, 1.666600465774536, 0.067747183144093, -0.004834311082959, 0.019438639283180, -0.000000348488925, -0.000010390361240, 0.599117398262024, -0.599909722805023, -0.257215827703476, -0.027028480544686, -0.000003219189011, 0.000000406659325, 0.586146235466003, 0.232083410024643, 0.004953363444656, 0.030612831935287, 0.000006146387022, 0.000004288091077, 0.028681950643659, -0.399269521236420, -0.051023140549660, 0.029272368177772, -0.000001656277732, 0.000004012048976, 0.589660465717316, 0.177416771650314, 0.049617987126112, 0.069240815937519, -0.000001717930900, 0.000005080116352, 0.238894984126091, 0.954269349575043, -0.044918403029442, -0.154303908348083, 0.000003188515393, -0.000000502984676, 0.244519621133804, 0.830613315105438, -0.003029968822375, -0.013681848533452, -0.000001915247367, 0.000007503284905, -0.875094056129456, 0.302999466657639, -0.188381135463715, -0.000864733185153, -0.000010022289644, -0.000000320583894, 0.089163012802601, -0.313202679157257, 1.497713088989258, 0.021094180643559, 0.000003918384664, 0.000003630381116, 0.412629514932632, -0.445594787597656, -0.056322284042835, 0.147337526082993, -0.000004073990567, -0.000014022218238, -0.045424852520227, -0.234644696116447, -0.095305636525154, 0.019991433247924, -0.000000987825842, -0.000000501363900, -0.094034783542156, 0.139753580093384, -0.354300171136856, -0.027022428810596, 0.000017817748812, -0.000001703387625, -0.145968034863472, 0.989930331707001, 0.115134336054325, -0.037195183336735, 0.000005912986580, -0.000004350706149, 0.297560095787048, 0.378213554620743, -0.069232746958733, 0.118671752512455, -0.000008011276805, -0.000002504453050, -0.431436270475388, -0.060781009495258, -0.048396628350019, 0.022437609732151, -0.000002950784392, 0.000005914049780, -0.511464595794678, 1.170524120330811, 0.008629390969872, -0.042682904750109, 0.000000536826121, 0.000000730671957, 0.455900281667709, -0.178118646144867, 0.051809705793858, 0.045282367616892, -0.000003000724291, 0.000004276948857, -0.014551455155015, -0.130612641572952, 0.006998065859079, 0.014468532055616, -0.000003330959316, 0.000016728488845, -0.263772308826447, 0.104964241385460, -0.007547047454864, 0.044422205537558, -0.000010854407265, 0.000003380210956, 0.032130818814039, -0.172313302755356, 0.072550684213638, 0.000790239311755, -0.000010064609341, -0.000004726444786, 0.719061195850372, 0.458042532205582, 0.011859193444252, 0.042648877948523, 0.000000600865178, 0.000004794853339, -0.290609508752823, -0.619327843189240, 0.000594523909967, 0.026824463158846, -0.000000609311201, -0.000004179680673, 0.373203456401825, -0.090910263359547, 0.037551105022430, -1.271992325782776, 0.000006690445389, -0.000007366621048, 0.493646442890167, 0.448663562536240, -0.062184024602175, 0.081132963299751, 0.000004776216429, -0.000000175198792, -0.057275604456663, 0.379367232322693, -0.057444047182798, -0.076691962778568, 0.000000037620605, -0.000005118868557, 0.584620475769043, 0.397746175527573, 0.046617273241282, -0.033540789037943, 0.000003902594926, 0.000014891279534, -0.177222311496735, 0.209266588091850, 0.053002495318651, -0.105465471744537, -0.000005455331575, -0.000005566955679, -0.404785513877869, -0.005074930842966