//Numpy array shape (23296,)
//Min -3.967179059982
//Max 3.638752698898
//Number of zeros 0

#ifndef IN_PROJ_WEIGHT19_H_
#define IN_PROJ_WEIGHT19_H_

#ifndef __SYNTHESIS__
layers_1_ffn_in_proj_weight_t in_proj_weight19[23296];
#else
layers_1_ffn_in_proj_weight_t in_proj_weight19[23296] = {0.297744035720825, -0.424301475286484, 0.058262132108212, 1.173307538032532, 0.254986703395844, 1.134609937667847, -0.166780248284340, 0.985731005668640, 1.147571325302124, 1.242397308349609, -0.467876970767975, 1.149567008018494, 0.007704703137279, -0.961316406726837, -0.058848757296801, 1.472137331962585, 0.056811735033989, 0.635465264320374, 0.857851147651672, 0.909596800804138, 0.370946377515793, 0.869489073753357, 1.483886003494263, -1.057385921478271, 1.415426731109619, 0.635004878044128, -0.759121358394623, 0.086158804595470, 1.505660057067871, 0.921456992626190, 1.496489763259888, -0.214736193418503, -0.672920823097229, 0.935301244258881, -0.928646087646484, 1.423962354660034, 1.034583330154419, 1.291187524795532, 0.297004103660583, 0.983813285827637, -1.270453572273254, -0.141416639089584, -0.958847403526306, -0.519549310207367, -0.436892569065094, 1.087819814682007, 0.382188647985458, 1.315629482269287, 1.050381064414978, -0.291597038507462, 1.011981368064880, 0.704053461551666, 0.512579500675201, -0.311363160610199, -0.413553059101105, 0.693456351757050, 0.203647077083588, -0.716199636459351, 0.404476970434189, -0.925092756748199, 0.971407234668732, 0.233749553561211, -0.224467664957047, 1.023855090141296, -0.026696283370256, 0.844138622283936, -0.576735556125641, -0.416555076837540, 0.086527757346630, -0.268462926149368, 0.089908935129642, 0.378212243318558, 1.117616653442383, 0.058390974998474, -0.004446924198419, 1.556809306144714, 0.285287380218506, 0.717517137527466, 0.375010371208191, 0.919955015182495, 0.810918867588043, 0.371605604887009, 1.146812915802002, 1.442882180213928, -0.253499090671539, -0.354135841131210, 1.227010846138000, 1.621350526809692, 1.170941472053528, -0.236690551042557, 0.850161910057068, -0.256825000047684, 1.227666378021240, -0.173160955309868, -0.555335462093353, -0.054128576070070, -0.130182579159737, -0.250302761793137, 1.775465369224548, 1.325081467628479, 0.375166088342667, -1.207136869430542, -0.807502508163452, 0.848740935325623, 1.383704662322998, -0.024525420740247, 0.150278002023697, 0.359358280897141, -0.590508103370667, 1.021039843559265, 1.420160293579102, -1.030504584312439, -0.003747314680368, 1.222567200660706, 0.336433976888657, 0.085081063210964, -0.587528884410858, -0.339364647865295, 0.160005345940590, -0.872726619243622, 1.402641296386719, 1.381587862968445, 0.457799255847931, -0.934482991695404, 1.013620734214783, 0.954043865203857, -0.048910323530436, -0.223057717084885, 0.933829545974731, -0.576822936534882, 0.515491902828217, 0.332777202129364, 0.423093378543854, -1.111066818237305, 0.660383224487305, -0.976403236389160, -0.712077975273132, -0.933105826377869, -1.008973002433777, -0.886222541332245, 0.103710830211639, -0.914397716522217, 1.030156970024109, -0.866124272346497, 0.586822509765625, 0.768436610698700, 0.879730224609375, -0.493819802999496, 0.266541004180908, 0.421215027570724, -1.026864528656006, -1.171528458595276, 1.278471946716309, 0.926112830638885, -0.157201379537582, -0.222243592143059, -1.149618268013000, -0.555743694305420, -0.600130915641785, -0.547149002552032, 0.480902194976807, 0.806791841983795, -0.345229208469391, -0.674150526523590, -1.012396574020386, -0.579678595066071, 0.707821726799011, -0.384026288986206, -0.779693067073822, -0.806437909603119, -0.992044508457184, 0.735862672328949, -0.141433745622635, -1.031729936599731, 0.127479538321495, 1.037524819374084, -0.458803743124008, 0.089670747518539, -1.122731804847717, 0.943001329898834, -0.772386550903320, -0.251135438680649, -1.178934335708618, -0.613493859767914, 0.661881089210510, 0.988665342330933, -0.503452003002167, 0.019208252429962, 0.726927876472473, 0.757517039775848, -0.543427288532257, -0.607929289340973, 0.969037353992462, -0.951338052749634, 0.840512335300446, 0.306647807359695, 0.863953053951263, -0.211885124444962, 0.782528400421143, -0.038373209536076, -0.997215092182159, 0.743342220783234, 1.009232521057129, -0.884587168693542, -0.761185228824615, 0.878100812435150, -0.919599652290344, 0.879389345645905, -0.873009085655212, 1.160048007965088, -0.733169734477997, 0.716625392436981, -1.145877361297607, -1.021888613700867, -0.889609754085541, 1.024051666259766, -0.905148446559906, -0.930567264556885, -0.754707574844360, 0.981993377208710, 0.882607161998749, 1.225829005241394, 0.769369721412659, -0.876964390277863, 0.888867676258087, 0.795424938201904, -0.984227895736694, -1.097064733505249, 0.474144101142883, -1.103674888610840, 0.394192427396774, 1.134521245956421, -0.603769540786743, -0.369274377822876, -0.648379683494568, 0.372975647449493, 1.003258824348450, 0.900277853012085, -0.350350469350815, -1.005474090576172, 0.885324478149414, -0.793465912342072, -0.366617292165756, 0.717295944690704, -0.531560719013214, -0.941299319267273, 0.487140893936157, 0.587917387485504, -0.864964246749878, -0.894095122814178, 0.726022720336914, 0.453910052776337, -0.821479916572571, -0.905474126338959, 0.005340951494873, 0.625528097152710, -0.891788482666016, 1.296198129653931, -0.228918969631195, 0.947029531002045, 0.797119379043579, -1.432448267936707, -0.892476320266724, -1.120003938674927, -0.670059263706207, 0.735582530498505, 0.391895622014999, 0.089250661432743, 0.171289503574371, 0.357880860567093, -0.870484590530396, -0.700955867767334, -0.349251419305801, 0.632030546665192, -0.031366322189569, 0.864779531955719, -0.039227198809385, -0.820165693759918, 1.644786119461060, 0.829670011997223, -0.115420728921890, 0.304179549217224, -0.378223747014999, 0.193366765975952, -0.404383897781372, -0.284324169158936, -0.730925559997559, 0.983813405036926, 0.404878228902817, -1.719427943229675, -1.701511263847351, -0.494114220142365, 0.927487075328827, -0.403222292661667, 0.422838419675827, 1.064319729804993, 0.498442649841309, 0.082211546599865, 0.048799701035023, -0.605280637741089, -0.175305739045143, -0.175837174057961, -0.880219519138336, 0.717297732830048, -0.270579487085342, -0.072591252624989, -0.802462399005890, -1.313056468963623, 0.188702642917633, -0.181696102023125, 0.731547534465790, -0.498760461807251, -0.382710307836533, -1.800456166267395, -0.439746022224426, -0.656515002250671, 0.902936935424805, -0.850169003009796, 0.323633790016174, 1.091354250907898, -0.352469474077225, -0.198311507701874, 0.163095042109489, -1.281618118286133, -1.348160386085510, 0.494558483362198, 0.504428684711456, 0.419093519449234, -1.284296989440918, -0.044739745557308, -1.094990015029907, -1.071825027465820, -0.286712765693665, -0.134387344121933, -1.693123817443848, 0.521924197673798, -0.759226500988007, -0.748058497905731, -0.314424991607666, 0.372393906116486, 0.981300294399261, -0.740648210048676, -0.531047046184540, 1.373010158538818, -0.415530264377594, -0.431938409805298, -0.753402709960938, 0.035166367888451, -0.685636162757874, 0.346065819263458, -1.058766603469849, 0.590404808521271, 0.895576477050781, -2.442741155624390, -0.384977132081985, -1.072672009468079, -1.295115828514099, 0.656209111213684, 0.220553219318390, -0.621591925621033, 0.416989445686340, 0.237013235688210, 0.136010244488716, -1.418226957321167, -0.826200067996979, -1.251134514808655, 0.752415716648102, -0.302729308605194, -0.007175815291703, 0.855854034423828, -0.052925694733858, -0.263637691736221, -0.279613107442856, -0.229058295488358, -1.407315373420715, -0.674544751644135, -0.051398571580648, -0.948166847229004, 0.214781895279884, -0.624009549617767, -0.308743715286255, 0.529449045658112, -0.101112820208073, -0.827436566352844, -1.184417247772217, -0.268171995878220, -1.081675887107849, -0.538052916526794, 0.180140793323517, -2.325873374938965, -0.217024296522141, 0.498936533927917, -0.911593556404114, 0.234382450580597, -0.119852609932423, -1.202417731285095, -0.239963665604591, -1.697506427764893, -1.813168525695801, 0.291580647230148, -0.088090389966965, -0.910849750041962, -0.475422322750092, 0.134065046906471, -1.147270679473877, -1.445937752723694, 0.129119962453842, 0.475631237030029, -1.920167922973633, -0.552286207675934, 0.049043893814087, -1.691496491432190, -0.771339833736420, -0.135885789990425, 0.506087839603424, 0.105594590306282, -1.628458976745605, -0.176627740263939, -0.704651892185211, -1.625576257705688, -0.996227025985718, -1.244078040122986, -0.584860384464264, -0.594420611858368, 0.626269578933716, 0.451720446348190, -0.298198729753494, -0.785984933376312, 0.016055146232247, -1.999525547027588, -0.320830017328262, -0.043244704604149, -0.574656963348389, -0.410887241363525, 0.356760740280151, -1.562495350837708, -0.333579629659653, -0.258265465497971, -2.143606662750244, 0.193803995847702, -0.544811308383942, -1.124238610267639, -0.208607956767082, -1.426694273948669, 0.047891501337290, -0.157928809523582, 0.123869672417641, -1.077167749404907, -0.467287868261337, -2.286629676818848, -1.860058307647705, -1.325345396995544, -2.276664733886719, -0.814330995082855, 0.121236003935337, -0.305566787719727, -0.392423510551453, 0.166438907384872, 0.289752095937729, -0.223352253437042, 0.164338424801826, -0.563406407833099, -0.251965135335922, 0.090315990149975, -1.585835576057434, -0.024545557796955, -2.590150356292725, -2.237141609191895, -1.708214879035950, 1.021495580673218, -0.475853502750397, -1.847346067428589, 0.239661067724228, 0.329274237155914, 0.204916715621948, 0.176889851689339, -0.412804424762726, -2.011487722396851, 0.328955888748169, 0.399241149425507, 0.152880176901817, 0.273639202117920, -0.510285019874573, -1.410662293434143, -0.219182431697845, 0.420963615179062, -0.524335920810699, -0.115142725408077, -1.663907051086426, -1.005646467208862, -0.244214996695518, -0.306224912405014, -2.631753444671631, -0.195208057761192, -0.707826197147369, -0.653989732265472, -0.122838839888573, -0.138133034110069, -0.921166539192200, -0.504700362682343, -2.302745580673218, 0.514709413051605, -0.759052574634552, -2.495920896530151, 0.569105207920074, 0.336405575275421, -0.166965171694756, -0.278652071952820, 0.387560218572617, -1.697535872459412, 0.049302786588669, -0.811191380023956, -0.346092641353607, 1.565263986587524, 1.102090358734131, -0.818063139915466, 1.083851099014282, -0.666421651840210, 0.569168508052826, -0.943841338157654, -0.767695724964142, -0.303183317184448, 0.875500023365021, 1.858580708503723, 0.026933681219816, -1.015405774116516, 1.559917092323303, -0.017053801566362, 0.346258819103241, -0.029906302690506, 0.092221185564995, 1.004899501800537, 0.773459494113922, 0.038250811398029, -0.241788342595100, 1.586262464523315, 2.010659456253052, 1.229864835739136, 0.446515530347824, -0.096678070724010, -0.739029109477997, 0.857400953769684, 1.015779852867126, 0.246654838323593, 1.034557819366455, 0.791864156723022, 1.872729897499084, -0.023276314139366, 1.128424167633057, -0.284353435039520, 0.549553334712982, 0.935003578662872, 0.846408069133759, 1.003553628921509, 1.244696497917175, -1.461740493774414, 0.595366597175598, -0.907597959041595, -0.251060962677002, -0.441702783107758, -0.520429193973541, -0.139944717288017, 1.268137454986572, -0.737836182117462, 0.107248656451702, 0.526865959167480, 1.281625628471375, -0.949645102024078, -0.058774549514055, -1.153516888618469, -0.384342491626740, 0.966488182544708, 0.709268331527710, 1.098342537879944, 0.540193915367126, 0.113935969769955, 0.289788454771042, 1.302984476089478, -0.429996550083160, 0.948433578014374, 0.635499954223633, -0.145109459757805, 0.689227581024170, 0.774009823799133, -0.284144759178162, -0.217303857207298, 0.041150610893965, -0.266591429710388, -0.211545258760452, 0.544672131538391, -0.724201381206512, -0.893612444400787, 0.140288889408112, 1.201658129692078, -0.656288623809814, -1.427820205688477, 0.604080200195312, 0.956514537334442, 0.472083806991577, -0.408291757106781, -0.651822745800018, 0.202400609850883, -0.473613590002060, 0.828919708728790, 0.527925133705139, 1.198942422866821, 1.020427823066711, -0.061540529131889, 1.710152149200439, 0.976273655891418, 1.522935748100281, -0.868696689605713, -0.518712222576141, -0.347761690616608, 0.258507579565048, 0.994077920913696, -0.179971531033516, 0.334042906761169, -0.423280388116837, 0.519443273544312, -0.145651236176491, -0.574636101722717, -1.079281330108643, 0.674034595489502, -0.259411066770554, -0.450638979673386, 0.392926543951035, 0.495023131370544, 1.223181247711182, 0.756107985973358, -0.216056391596794, 1.189429759979248, -0.470696508884430, -0.574946939945221, 0.780430495738983, 0.062418129295111, -0.993210017681122, -0.260018497705460, 1.308227777481079, 1.357522010803223, -1.697203636169434, -0.016005989164114, -0.758855998516083, 0.176496490836143, -1.244968652725220, -0.162344262003899, 0.420825332403183, -1.851156115531921, -0.329323142766953, -0.740858674049377, 0.212221696972847, -1.817976951599121, 0.222698301076889, 0.806602597236633, 0.634042620658875, 0.225450947880745, -0.612473130226135, -1.426144123077393, -0.083502702414989, -0.397551178932190, 0.073648676276207, -1.747414946556091, -1.534835934638977, -0.594501793384552, 0.628703951835632, 0.036599174141884, -0.002156178234145, 0.248716369271278, 0.747150599956512, 0.127884581685066, -0.274542391300201, -0.353212267160416, 0.430158555507660, 0.650253534317017, 0.338959366083145, 0.203098714351654, -1.509736776351929, -0.454727709293365, -0.722719013690948, 0.861561357975006, 1.245715737342834, 0.052906077355146, 0.234271004796028, 0.009533571079373, -0.784458696842194, 0.232601031661034, 0.190362989902496, 0.312692493200302, -1.580246806144714, -0.252776831388474, 0.926668226718903, -1.504394769668579, 0.615054726600647, 0.034042876213789, 1.178698778152466, 0.733810126781464, 1.452308297157288, 0.810715496540070, 0.092737860977650, -0.119229666888714, -0.482131868600845, -0.603867948055267, -0.581856191158295, 0.722185790538788, -1.727770566940308, 0.468988895416260, 0.073402643203735, -0.148200839757919, -0.337273538112640, 0.781168222427368, 0.262190848588943, -0.949604988098145, -1.025728821754456, -0.446370780467987, -0.891779303550720, -1.322293639183044, -0.380339801311493, 0.736746966838837, 0.543739676475525, -1.113836884498596, 0.933570027351379, 1.083072781562805, -1.407633662223816, 0.408108025789261, -0.788663446903229, 0.402809739112854, -0.505732953548431, 0.498134851455688, -0.918035745620728, 0.091727718710899, -0.314764022827148, 0.043314006179571, -0.297637492418289, 0.796012341976166, 0.765893816947937, -0.072093270719051, -0.385698825120926, 0.257999658584595, 0.978108823299408, -0.448036134243011, -1.904399156570435, -0.033699166029692, 0.724239706993103, -0.442640125751495, -0.675572991371155, -0.494658559560776, 0.602932333946228, -1.794142842292786, -0.394955575466156, -0.484178155660629, -0.006362583488226, 0.855313658714294, 0.112105324864388, -0.345952153205872, 0.337516367435455, 0.165957704186440, 0.549423277378082, 0.617648959159851, -0.817163467407227, -1.039234399795532, -1.037838578224182, -0.829189658164978, -0.407309710979462, -0.864022254943848, -1.304030299186707, -1.203130006790161, 0.364651978015900, -0.024799693375826, -0.146950393915176, -1.857456445693970, 0.558063983917236, -1.610589981079102, -1.443899035453796, 0.290152311325073, -0.178297504782677, -1.187834024429321, 1.041823148727417, 0.179394051432610, -0.414296299219131, -0.142168000340462, -0.016514465212822, 0.997863411903381, -0.164907068014145, -1.820302963256836, -0.344226539134979, -0.134230509400368, -0.140030786395073, -0.779670000076294, -0.475295633077621, -0.041853725910187, -0.234365954995155, -0.974860012531281, 0.798229277133942, -1.223567008972168, 0.237950846552849, 0.440952390432358, 0.016484174877405, 0.202984675765038, -1.583848237991333, 0.010393900796771, 0.923436641693115, -1.408406853675842, -2.193334579467773, 0.765197217464447, 0.529918670654297, 0.748691141605377, -0.422085136175156, -0.104957021772861, -1.461251258850098, -2.320805549621582, -0.201653614640236, -0.045808680355549, 0.488803178071976, -0.543021738529205, -0.128512635827065, -0.834752082824707, -0.583111941814423, -0.426922231912613, -1.776540040969849, 0.569246470928192, -0.233655735850334, -0.028874687850475, 0.147740647196770, -1.616301536560059, -0.640848636627197, -0.248001858592033, 0.836895883083344, 0.755877554416656, 0.020250948145986, 0.178164586424828, 0.461888074874878, 0.685802757740021, -0.610992431640625, -0.021006517112255, 0.972135722637177, -0.151132225990295, -0.067901082336903, 0.434825897216797, -0.981106996536255, -1.448053002357483, -0.902289092540741, -0.853111326694489, -1.355510950088501, -1.646431207656860, -1.327104806900024, -0.850379645824432, -0.505790293216705, -0.096357718110085, 0.688720941543579, -0.371613800525665, 0.812947511672974, 0.853826165199280, 0.790022552013397, -1.065681099891663, -1.828196287155151, 0.393976360559464, -0.943402767181396, -1.774977445602417, -1.048419833183289, -1.678743243217468, -0.314309358596802, 0.441622287034988, -0.212609782814980, -0.477924197912216, -0.765166103839874, -1.682858228683472, -1.544009685516357, 1.024970054626465, -0.282295167446136, -0.098150178790092, -0.077446945011616, -1.222098231315613, -0.557334542274475, 0.240865841507912, -0.090255022048950, -1.191344499588013, 0.324864834547043, -1.152079105377197, 0.412973642349243, -0.664717018604279, -0.744458198547363, 0.354005038738251, -0.037460248917341, -0.724607348442078, -0.499001920223236, -1.385403871536255, -0.072778284549713, 0.639329791069031, 0.687610149383545, -1.016892790794373, -1.269221305847168, -1.471142649650574, 0.799592077732086, 1.174729108810425, -0.691499948501587, 0.302030831575394, 0.192104488611221, 1.182787060737610, -0.343398094177246, 1.218629837036133, 1.401639103889465, 0.038276374340057, 0.524282217025757, 1.691320896148682, -0.782654941082001, 1.550153255462646, -0.261499762535095, 0.436967223882675, -0.032860964536667, -0.865500688552856, -0.036638844758272, 1.822241187095642, 1.184011816978455, 0.061701200902462, 0.932417511940002, 2.218137979507446, 0.172243118286133, -0.329745531082153, 1.566715240478516, 1.623345494270325, -0.604960501194000, 1.724106669425964, -0.135764732956886, -0.572923183441162, 0.879804790019989, 0.913643658161163, -0.189154967665672, 2.152706146240234, -0.736113429069519, 1.338433742523193, 1.926688551902771, -0.761147618293762, -0.408380001783371, -0.894667208194733, 0.378789186477661, 0.697200417518616, 1.097238659858704, 0.830593049526215, 0.743806123733521, 0.213788792490959, -0.399529278278351, -0.203846544027328, 0.417526036500931, 0.922610998153687, 0.057585578411818, -0.060429412871599, 0.601278841495514, -0.565144181251526, -0.319119244813919, 0.264001816511154, -0.614288270473480, 1.334379196166992, 1.058106303215027, -0.219073504209518, -0.454585582017899, -0.642153024673462, 0.705010890960693, 2.095836877822876, -0.201869800686836, -0.643635630607605, 1.355982661247253, -0.843992173671722, -0.970321118831635, 0.756035804748535, 0.206046700477600, -0.300976604223251, 0.168924614787102, 1.020379781723022, 0.900040805339813, 0.517127692699432, 0.029490370303392, 1.070606827735901, 0.317441314458847, 0.725587785243988, -0.293740421533585, 1.807445764541626, -0.956275284290314, 1.722944617271423, -0.730747282505035, -0.700922787189484, 1.305227160453796, 1.489420533180237, 0.428301423788071, -0.730510771274567, 1.140203356742859, 1.714620590209961, 1.715677261352539, 0.671788096427917, -0.416563928127289, -0.945725202560425, 0.387408435344696, 1.317207336425781, 0.867638647556305, 1.025434017181396, 0.135545492172241, 0.122143171727657, 1.167011976242065, 1.005374550819397, 0.312344342470169, 1.432052373886108, -0.231960475444794, -0.203955262899399, -0.018201213330030, 1.584976911544800, -0.134819224476814, 1.183897495269775, 0.543028473854065, -0.562841713428497, 1.044296503067017, 1.420624971389771, 0.446203231811523, 0.298279553651810, -0.498677372932434, 0.271655052900314, 0.116924837231636, 0.096152961254120, 1.114299297332764, 0.671893119812012, 0.872669219970703, 0.590758681297302, 1.672149300575256, -0.682182848453522, -0.488799840211868, -0.198388636112213, 0.498238623142242, -0.270333617925644, 0.302483588457108, -0.551698029041290, 0.731550216674805, 0.288017034530640, -0.104426525533199, 1.120617985725403, -0.246129289269447, -0.632406771183014, 0.114605888724327, 0.043258134275675, 0.100467517971992, 1.541005492210388, 1.033100605010986, -0.337251126766205, 0.258086085319519, -0.692708849906921, 1.522524833679199, -0.350772112607956, 0.601870596408844, 0.555439412593842, 1.054271459579468, 0.319411456584930, 1.100790143013000, -0.027666091918945, -0.198474332690239, 0.183770999312401, 0.700801074504852, 0.672848343849182, -0.425469815731049, 1.772361397743225, -0.055334210395813, 0.539055824279785, 0.224798336625099, 0.526622891426086, 0.571312844753265, -1.188740968704224, -0.056410998106003, 1.404485225677490, 1.705432653427124, 1.328986763954163, 0.521705567836761, -0.536215007305145, -0.381333917379379, 0.945328712463379, 0.597204387187958, 0.975385844707489, 0.359562456607819, -0.110405214130878, -0.249895736575127, -0.265664905309677, 0.176849231123924, -0.448180079460144, 0.260531783103943, -0.128485456109047, 0.142534598708153, 0.011871610768139, 0.160893797874451, 0.179074794054031, 1.017166614532471, 1.546337127685547, 0.782885670661926, -0.762260377407074, 0.765576601028442, 0.784320473670959, -0.293387532234192, -0.955160975456238, 1.332871437072754, 0.608959436416626, -0.223872378468513, 0.361528962850571, -1.258462190628052, 1.116084337234497, -0.727177083492279, 0.651511609554291, -0.544369935989380, -0.563294887542725, -0.732725322246552, -0.027833301573992, -1.057368993759155, 0.161257967352867, 0.011517980135977, 1.325233221054077, 0.885597109794617, -0.370342552661896, 1.220429778099060, -0.243427202105522, 0.686303138732910, 2.422366142272949, 0.539380192756653, 0.626233518123627, -0.430000066757202, 0.468066036701202, 1.102044820785522, 0.813663959503174, 0.564492404460907, -0.035330094397068, 2.551226854324341, 1.657616138458252, 0.198957100510597, 0.966151118278503, -0.099614776670933, 1.572942137718201, -0.632255434989929, 0.079530686140060, 0.311489433050156, 1.716509461402893, 0.402556866407394, 0.002743157790974, 1.300051450729370, 1.619273066520691, 0.358231455087662, 1.288728713989258, 0.202076584100723, 0.085313312709332, 0.534248769283295, 0.358908087015152, 0.495729953050613, 0.644277989864349, 1.647356629371643, 1.621572136878967, 0.499811351299286, -1.062358975410461, -0.316871196031570, 1.044426679611206, -0.334755480289459, -0.142294555902481, -1.013256192207336, 0.932439506053925, 0.738526701927185, 0.788088321685791, 0.406053960323334, -0.997483015060425, -0.840470850467682, -0.633777260780334, -0.672134399414062, -0.833788990974426, 1.402060151100159, 0.889288961887360, -0.203861281275749, 0.136115938425064, -0.078154288232327, 1.470060586929321, 0.519187271595001, 0.866134285926819, 0.144463732838631, 0.810706675052643, -0.342697858810425, -0.028051678091288, 0.964234948158264, 1.673346757888794, 1.355209231376648, 1.638826251029968, -0.387822359800339, 0.404227644205093, 0.920939326286316, -1.171178340911865, -0.222393393516541, 1.159981369972229, -0.128498151898384, 0.506495535373688, -0.332648724317551, 0.825424373149872, 0.207777157425880, -0.495465666055679, -0.493165791034698, -0.357764005661011, 0.398160457611084, 0.269820064306259, 0.963492810726166, -0.678823888301849, -0.742871820926666, -0.295676827430725, -0.038515407592058, -0.450631409883499, -0.242761865258217, 0.383167564868927, 0.860347926616669, -0.676092386245728, 1.447374343872070, -0.323068827390671, 0.618713438510895, 0.360571533441544, -0.516522467136383, -0.643338322639465, -0.114444725215435, 0.679725408554077, 0.849493920803070, 1.200375080108643, 1.058166623115540, 0.259272873401642, 0.786211431026459, 1.620432257652283, -0.070434577763081, 0.302778363227844, 1.406450986862183, 0.532636165618896, -0.184694290161133, 0.273272246122360, -0.144120365381241, -0.497154027223587, -0.595480680465698, 1.100039482116699, -0.742958068847656, 0.061377853155136, -0.903133630752563, 1.146886110305786, -0.773856222629547, 0.186793252825737, -1.021525859832764, 0.333588749170303, 1.210911750793457, 1.219732642173767, 1.436853408813477, -1.126695156097412, -0.866837561130524, 0.726189911365509, -0.944478392601013, -0.793564856052399, -0.728396236896515, 0.268180638551712, -0.310897767543793, 0.444769442081451, -0.256549596786499, -0.051529049873352, 1.457689523696899, 0.565330326557159, -0.788530051708221, 1.206585884094238, -0.698431670665741, -0.191320702433586, -0.536678671836853, 0.361118018627167, 1.198633193969727, -1.234532952308655, 1.230322122573853, -0.323646306991577, -1.499592304229736, -0.122788757085800, 0.887763142585754, 0.611018717288971, -0.182397693395615, -0.383085042238235, 0.201966509222984, 0.321409255266190, -0.399184942245483, 0.983639776706696, -1.243340134620667, -0.038934428244829, -0.153287932276726, 0.582231640815735, 1.331855893135071, -1.057416796684265, 0.426563143730164, -0.649276494979858, -0.777874708175659, 0.991849958896637, -0.189313098788261, -1.575114727020264, 0.810377359390259, 1.321015715599060, -0.405651271343231, -0.243545949459076, 0.058262750506401, -1.260750412940979, -0.454771131277084, 2.089792966842651, -0.757928431034088, 1.167134523391724, 0.992082893848419, 0.819246053695679, 1.447043895721436, -0.060497276484966, 0.731152296066284, 2.271257400512695, 0.427784115076065, -0.539774835109711, 1.069404840469360, -0.446109473705292, -0.100552685558796, -0.259085416793823, 0.133432701230049, -0.223884403705597, 0.282861232757568, -0.349625349044800, -0.843809008598328, 0.814754903316498, -0.741510331630707, -1.222487926483154, -1.165271639823914, 0.545253694057465, -0.986045300960541, -0.371667563915253, -0.186824962496758, 0.261731475591660, 1.251292586326599, -0.499762803316116, 0.102525278925896, -0.022630300372839, 0.019447494298220, 0.551574468612671, -0.006920271087438, -0.630806386470795, 0.269306004047394, 0.077365025877953, 0.622090816497803, -0.873610913753510, 0.893052041530609, 0.061103787273169, 0.399836987257004, 0.684730172157288, 1.153745174407959, -0.729046225547791, 0.885645270347595, -1.056732654571533, 0.999907970428467, -1.169514060020447, 0.421017467975616, 0.945717513561249, 1.042878150939941, 1.130966305732727, -0.045680422335863, -1.306799888610840, -0.028716061264277, -0.053616102784872, -0.290752232074738, -0.593156516551971, -0.029748056083918, -1.820610404014587, -1.607041478157043, -1.148518800735474, -1.247104883193970, 0.454630911350250, 0.426897704601288, -0.082482360303402, -1.150188088417053, 0.159442111849785, 0.405609577894211, -0.169777736067772, 0.365778535604477, 0.367996662855148, -0.204642489552498, -0.686743438243866, 0.579047560691833, 1.122251987457275, 0.559360682964325, -0.388420909643173, 0.687937796115875, -0.972303807735443, -0.332623839378357, -0.371691405773163, -1.323848366737366, -0.678039789199829, -1.381993770599365, 0.856063723564148, 0.076300390064716, 0.930338859558105, 0.149682372808456, 0.767400622367859, 0.359263837337494, 0.202774792909622, 0.670956134796143, 0.214396059513092, 0.421225488185883, 0.233271047472954, -0.019129347056150, 1.082895755767822, -0.264730036258698, -0.129476249217987, -0.027959559112787, -0.042562566697598, -0.293075472116470, 0.131730467081070, -1.239912748336792, -0.112256996333599, -1.731507062911987, -0.491600930690765, 0.075161293148994, 0.493710309267044, -0.412927448749542, -1.145419120788574, -0.620498776435852, 0.325160592794418, 0.197728782892227, 0.399131953716278, 0.348059296607971, -2.021372556686401, -0.202700421214104, 1.526530504226685, -1.361857414245605, -0.642431795597076, -0.345713943243027, -1.462662696838379, -0.916983127593994, -2.558310985565186, 0.420091629028320, -0.454376459121704, -0.526753365993500, 0.669995367527008, 0.215028449892998, 1.438777685165405, 0.036416858434677, 0.192968800663948, -0.188290864229202, 0.071442455053329, 0.199846863746643, -0.811815917491913, -0.649772584438324, 0.690431892871857, -0.221241548657417, -0.168724730610847, -1.714969873428345, -1.799135923385620, 0.160219028592110, -1.110069513320923, 0.901502192020416, 0.248478338122368, -2.372789144515991, 0.112942695617676, -1.550657391548157, 0.725390017032623, -1.310557246208191, -1.313019633293152, -1.491241574287415, 0.362779974937439, -0.978814065456390, -0.238581657409668, -0.635621964931488, -0.183398693799973, -0.221168369054794, -1.495208144187927, 0.057265896350145, 0.137797966599464, -0.038756050169468, -0.411393374204636, 0.524328231811523, -0.736364901065826, 0.329623758792877, 0.409399956464767, -0.627708792686462, 0.087079308927059, -0.090373553335667, 0.507203340530396, -0.181077525019646, 0.517583668231964, 0.095092646777630, 0.215578496456146, -0.413898587226868, 1.300905704498291, -0.717102944850922, 0.386741936206818, 0.506009161472321, 0.699029862880707, -0.392566502094269, -0.046818889677525, 0.110207691788673, 0.115025125443935, -0.248639047145844, 0.266640663146973, -0.742751479148865, 0.162968888878822, -0.981330931186676, -0.362006813287735, -0.263478308916092, -0.212401479482651, 0.896034836769104, -0.551693260669708, -1.365086197853088, 0.398366719484329, -0.767207682132721, -0.425812572240829, 0.053110130131245, -2.224713325500488, 0.345595419406891, -0.009567475877702, -1.193641543388367, 0.607158422470093, 0.364751160144806, 0.218910709023476, -0.016341146081686, -0.784679591655731, 0.614194869995117, -0.940822839736938, -0.416369467973709, -0.869891405105591, -1.586949229240417, 0.183591037988663, 1.140919804573059, 0.303500205278397, -0.309273093938828, 0.052440769970417, -0.180050164461136, 0.887043714523315, -0.517963290214539, -1.937394738197327, -0.753931105136871, -0.477997720241547, -0.153316497802734, 0.717590034008026, 0.796201646327972, -0.817137241363525, 0.290384113788605, 1.220268249511719, -0.305276423692703, -0.458935141563416, 0.998093545436859, 0.092208869755268, -0.926202893257141, -0.299733042716980, -0.063787192106247, -0.409756213426590, 1.405860185623169, -0.241660058498383, 0.372027873992920, -0.262820512056351, -0.289872705936432, 0.077436983585358, 0.020646279677749, -0.318491965532303, -1.026871085166931, 0.908631622791290, 0.247429803013802, -1.224566578865051, 0.201280683279037, 1.776837348937988, 0.861250340938568, 0.301936864852905, -0.092567086219788, 0.644735515117645, 1.674279093742371, 0.166925907135010, -0.552014946937561, 0.453567862510681, -0.786832630634308, 1.159040927886963, 1.504083633422852, -0.458003014326096, -0.289170205593109, 0.344851911067963, 1.473873615264893, 0.783969938755035, -0.520813703536987, -0.032782729715109, 0.799636244773865, 0.364423215389252, 2.601915359497070, 1.255211114883423, -0.454908192157745, -1.057094931602478, -0.236249312758446, -0.610341489315033, 0.170707330107689, -0.222188428044319, -0.623666524887085, 0.406527280807495, -0.843509554862976, 0.948287546634674, -0.253355532884598, -0.956076443195343, 0.168332695960999, 0.480312108993530, 0.526394546031952, 0.190333589911461, 1.048818469047546, -0.077849976718426, 1.048485636711121, 1.459467887878418, 0.780103623867035, 0.602501928806305, -0.032603427767754, 0.250517666339874, 0.378249526023865, -1.133067011833191, -0.655824542045593, 0.955924034118652, 0.474857568740845, 1.542575240135193, 0.627777576446533, -0.445808559656143, 0.786964535713196, 0.402912586927414, -0.714817404747009, -0.347194790840149, -0.890804290771484, -0.567795932292938, 1.231619715690613, -0.155360415577888, -0.443010300397873, 0.592927277088165, -0.842211842536926, 0.174419239163399, 0.327720075845718, 1.324201345443726, 0.734472095966339, 0.879683196544647, 1.111206531524658, -0.951572299003601, 0.572005271911621, 0.617625057697296, -0.261683702468872, -1.377898812294006, 0.262013912200928, 0.195126995444298, -0.506905913352966, 0.815536975860596, -0.486616790294647, 0.489953279495239, -0.655490696430206, 0.322048783302307, 0.653420150279999, 0.515538752079010, 0.807259559631348, 2.087874650955200, 1.010622978210449, 0.572623550891876, 0.374795854091644, -0.330998003482819, -0.322835683822632, -0.562860906124115, 0.662479817867279, 0.527698814868927, 0.951494276523590, 1.014058828353882, 0.682283997535706, 1.178189754486084, -0.616570830345154, -0.181128606200218, 0.142902225255966, 0.173145771026611, -1.156422376632690, -0.404680103063583, 0.969819545745850, 0.076256670057774, -1.216127038002014, 0.957944929599762, 0.619292199611664, 1.414539933204651, -0.251458078622818, -0.169280096888542, -1.060796618461609, -0.006696822121739, -0.243039131164551, 1.384834647178650, 1.071787595748901, 0.855595648288727, -0.497287392616272, -0.651368319988251, -0.825188040733337, -0.698272228240967, -0.235883176326752, 1.493585944175720, 0.040809392929077, -0.843499958515167, 0.646122932434082, 1.200245976448059, 0.198239952325821, -0.375024229288101, -0.788954854011536, -0.446699947118759, 0.804058611392975, -0.161209374666214, -0.836483657360077, 0.430358171463013, -1.216183543205261, 0.444714814424515, -0.091389805078506, -0.487319529056549, 0.440565526485443, -0.176935344934464, 0.030792478471994, -0.884253144264221, -0.858529984951019, 0.773185133934021, -0.334795296192169, 1.201074361801147, -0.236905291676521, 0.107061237096786, -0.002618763130158, 0.533275187015533, 0.631378293037415, 0.951903223991394, 1.075409889221191, -0.636285841464996, 0.272264063358307, 1.395506024360657, -0.202396661043167, -0.460751265287399, 0.275995403528214, 0.163088813424110, 0.581303954124451, -0.571236610412598, 0.814332246780396, -0.353823184967041, 0.951859652996063, 1.066271781921387, -0.036769829690456, -0.956133008003235, -0.422443270683289, 0.909976065158844, 0.315889865159988, -0.414863467216492, -0.144890815019608, 1.310757398605347, -1.258765220642090, 1.187732696533203, -0.085741527378559, -0.619636237621307, 1.169485330581665, 0.135566979646683, 0.144960656762123, -0.266900986433029, 0.627842783927917, -0.737527608871460, -0.867906630039215, 0.898051321506500, -1.296464800834656, 0.610873043537140, -0.881311416625977, -1.077455282211304, -1.174532890319824, -0.939148783683777, -0.205864846706390, -0.834289908409119, -0.495352894067764, 1.211743116378784, 0.388378620147705, 0.101059593260288, 0.252746939659119, -0.949765264987946, -0.057221334427595, 0.835913479328156, 0.526860594749451, 1.052515864372253, -1.514546275138855, -0.968852877616882, 0.267015039920807, 0.526102066040039, 1.227385282516479, -0.677424192428589, -0.394665539264679, -1.017178654670715, 0.092040546238422, 0.197084307670593, 0.236877888441086, -0.288955479860306, 0.365169942378998, -1.631258606910706, -0.897338747978210, -0.660258471965790, -0.730155646800995, -1.326641321182251, 0.005001873243600, -0.813195168972015, 0.030476123094559, -0.208627924323082, 0.800142586231232, -1.490533471107483, -1.064581394195557, -0.256191253662109, 0.058934800326824, 0.816990494728088, 0.599787056446075, 0.368027150630951, 0.153080031275749, -0.703529179096222, 0.161322250962257, 0.085901588201523, 1.229784131050110, 0.136414915323257, -0.484400272369385, 1.038194894790649, 0.406306296586990, 0.513039052486420, -0.708155632019043, 1.019842505455017, -0.057540260255337, 0.980981886386871, 1.686327219009399, -0.174584940075874, -0.122575856745243, 0.899583578109741, 0.618106722831726, 0.120896257460117, 0.569624483585358, 0.595373272895813, 1.058357000350952, 2.210728883743286, -0.065463833510876, 1.362843394279480, 0.987845301628113, 1.124411821365356, 1.619093298912048, 1.157017350196838, -0.056148096919060, 0.614110410213470, 2.003514051437378, 1.190366148948669, 0.469672530889511, 0.040628828108311, 0.053526513278484, 0.834936380386353, 0.377008348703384, -0.054640896618366, 0.978208184242249, 1.209341287612915, 0.214036449790001, -0.464020818471909, 0.650862634181976, 1.128488421440125, 1.131106019020081, -0.557914018630981, -0.387338876724243, -0.488120138645172, -0.033126439899206, -0.744534671306610, 0.776629149913788, 0.095748782157898, -0.784611463546753, -0.248907387256622, 0.790597498416901, -0.074530936777592, 1.134809017181396, -1.255315303802490, 0.013340941630304, -0.739593863487244, -0.453118771314621, 0.704082489013672, 0.453965038061142, -0.671650350093842, -0.397933423519135, 0.270852476358414, 1.582603931427002, -0.476055413484573, -0.409911125898361, -0.940922975540161, 1.357024431228638, 0.370286494493484, -0.926186263561249, 0.438884466886520, 1.590179920196533, -0.727864086627960, -0.606333315372467, 0.801370859146118, 0.689734995365143, 0.248426124453545, 2.164627552032471, 1.173632860183716, 1.330874681472778, 1.351617336273193, 0.551561534404755, 1.650395035743713, 1.044449567794800, 0.750540077686310, -0.922884345054626, -0.305019825696945, 1.194084405899048, 1.759636759757996, -0.082335285842419, 0.825073480606079, -0.733566105365753, 1.429579973220825, -0.116213366389275, 1.124914050102234, -0.362660765647888, 1.271298289299011, 0.022727878764272, 1.464796423912048, -0.623660564422607, 1.495923042297363, -0.450152039527893, -0.362165153026581, 1.628390431404114, -0.403047412633896, 0.624878942966461, 0.786354660987854, 1.557667613029480, 0.307204276323318, 1.240199327468872, 1.345436930656433, 1.344337105751038, 0.430865108966827, -0.436024159193039, -0.250440776348114, 0.933977127075195, 0.496306836605072, -0.557647943496704, -0.357912927865982, 1.099677443504333, -0.307272046804428, -0.059478655457497, 0.865393161773682, 0.835926651954651, 0.984535872936249, -0.145350545644760, -0.569277524948120, 1.414946794509888, 0.901045501232147, 0.313666492700577, 1.593842148780823, 0.578242301940918, -1.196912765502930, -0.350952863693237, -0.292617529630661, 0.079854525625706, -0.879674613475800, -1.005900025367737, -0.786009907722473, -0.232544794678688, 0.408903390169144, 0.280953437089920, -1.739219665527344, -0.809847295284271, 0.018460813909769, -0.908852815628052, -0.140295833349228, 0.071280442178249, 1.278535723686218, 0.253015697002411, 0.394839882850647, 0.485338151454926, -0.259259998798370, -0.613833785057068, 0.264726608991623, -0.640443384647369, -0.844578862190247, -0.887801468372345, -0.073320835828781, -0.427918821573257, 1.723016500473022, -1.400112032890320, 0.106667198240757, 0.296478390693665, 0.152171671390533, -0.027745762839913, -0.276701539754868, -0.514272451400757, 0.517474710941315, 0.000639500794932, 0.110126137733459, 0.263514071702957, 0.507913291454315, -0.067909121513367, -1.254985332489014, 0.089356407523155, -0.607182204723358, 1.582116842269897, 0.845415890216827, -0.530425548553467, -0.352079570293427, 0.336611270904541, -0.641175389289856, 0.285916835069656, -0.283586353063583, -0.094596303999424, -0.065682433545589, -0.392373383045197, 0.562940299510956, 0.145438805222511, 0.079552002251148, -0.703405618667603, 0.487748056650162, 0.533146023750305, 0.328053504228592, -0.079211346805096, -0.266201853752136, -0.512664735317230, 1.538725376129150, -1.516879081726074, 0.271266102790833, 0.163547575473785, 1.069525003433228, -0.190168395638466, 0.584541797637939, 1.540765404701233, -0.262983173131943, -0.755580008029938, -0.586817145347595, -0.169490188360214, 0.650903284549713, 0.210560262203217, 0.789123296737671, 0.288663238286972, -0.220530942082405, 0.692984580993652, 1.730821967124939, 0.037918820977211, -0.154129236936569, 0.079149551689625, 0.982463836669922, 0.402512222528458, 0.962117254734039, 0.718726217746735, -1.095050573348999, 1.977284431457520, 1.612823724746704, -0.106292627751827, 0.400877594947815, -0.077733419835567, 0.600120246410370, 1.609270334243774, 0.602288782596588, 0.467060416936874, -1.637048840522766, 0.964148044586182, 0.212617442011833, -0.271549284458160, -0.254664927721024, 0.554971277713776, 0.549135327339172, 0.108372114598751, 0.520907461643219, -0.177871257066727, -1.150715708732605, 0.318413466215134, 0.505209147930145, 1.879209637641907, 0.748240292072296, -0.164121791720390, -0.263361841440201, 0.431463867425919, 0.784984886646271, 0.643219709396362, 0.486216098070145, -0.842542409896851, 0.456284523010254, -0.828238248825073, -0.372906327247620, -0.383698284626007, -0.303489685058594, 1.169210433959961, -0.684059441089630, 0.674000501632690, 0.565705478191376, -1.478021860122681, 0.494740277528763, -0.283960789442062, -1.569232225418091, -0.080149531364441, 1.774210572242737, 0.228885009884834, -0.166141763329506, 0.328096717596054, 0.523706972599030, -0.058044150471687, 0.860788762569427, -0.930990278720856, 0.298250079154968, -0.396884053945541, 1.549320101737976, 0.280323833227158, -0.441772162914276, 1.387274742126465, 1.686469197273254, -0.125181853771210, 1.238426089286804, -0.026481378823519, -0.537280142307281, -0.489852219820023, 0.784961163997650, -1.093263864517212, -0.378026366233826, -0.491982400417328, 0.885049462318420, -0.510853826999664, 0.375624537467957, 1.272591710090637, 0.191316485404968, 0.306693494319916, -0.160642102360725, 0.617450952529907, -0.587377130985260, 0.120357580482960, -0.584572255611420, 0.668143033981323, -0.619780123233795, -1.013581514358521, 0.465215116739273, 0.367281198501587, 0.486375093460083, 1.273007869720459, -0.500115454196930, 1.163306832313538, 0.133514478802681, 0.672730505466461, 0.484344631433487, 0.224375620484352, 0.478006094694138, -1.923032641410828, 0.884654402732849, -0.401469677686691, -0.375532656908035, 1.470152854919434, -0.224971368908882, -0.364221781492233, 0.398615032434464, 0.516066789627075, 1.365231871604919, -0.858711063861847, -1.512716412544250, 0.350955516099930, -0.559569716453552, 0.529475986957550, -0.866538882255554, 0.334396541118622, -0.543826818466187, 0.261167436838150, 1.219822168350220, 0.994323611259460, 0.989277780056000, 0.092439763247967, -1.030666947364807, -0.163272485136986, -0.701329112052917, -0.333142787218094, 0.386302292346954, 0.047165125608444, 0.342668473720551, 0.532299220561981, 0.760982573032379, 0.918171107769012, 0.918230950832367, 0.070939242839813, 0.479908645153046, -1.283505201339722, -0.478697717189789, -0.204040095210075, -1.223822593688965, -0.606608629226685, 0.061225615441799, 0.325981467962265, -0.384635567665100, -0.106389343738556, -1.223275303840637, 1.758634805679321, -0.560050368309021, 0.285585224628448, 0.967363417148590, 1.120846152305603, -0.058846876025200, 0.407408148050308, 0.287267804145813, -0.076572865247726, -1.131060004234314, 0.535651087760925, 0.046716760843992, -1.079420924186707, 0.253774523735046, 0.884433269500732, 1.660783410072327, 0.315815716981888, 0.318732053041458, -0.458441972732544, 0.083770364522934, 0.135891526937485, -1.091524839401245, -0.088158436119556, -1.209559082984924, 0.832322597503662, -1.328430414199829, -0.403749525547028, -1.032609462738037, 0.672760605812073, -1.056543946266174, -0.090142033994198, 0.548742949962616, 1.288178443908691, -0.435210913419724, -0.189621731638908, -0.818893790245056, -0.936290740966797, -0.502138197422028, -0.113406419754028, -0.406112223863602, -0.997170746326447, -0.996083736419678, -0.561179041862488, 0.839393019676208, -0.235210925340652, -0.279928535223007, -1.304142832756042, -0.638827443122864, 0.996230185031891, -0.364567279815674, 0.667936444282532, 0.704261302947998, 1.202384233474731, -0.730274975299835, -1.219368696212769, -0.721115469932556, 0.422505885362625, -0.143328219652176, 1.198049902915955, -0.569916605949402, -0.323892056941986, 0.695447921752930, -0.380823165178299, -0.770572960376740, 0.360681474208832, 0.065736450254917, -0.064444765448570, -0.029171694070101, 1.005094051361084, -0.837635695934296, 0.104786142706871, 0.333585292100906, -1.244023323059082, -0.480444729328156, 0.342061817646027, 0.569875061511993, -0.282791912555695, -0.084048010408878, -0.250614941120148, 1.152835369110107, 0.233139917254448, -0.401235014200211, -0.598619520664215, 0.812757134437561, 0.643943011760712, 0.845431506633759, 0.660865247249603, 0.203163936734200, 0.286119967699051, 0.596129715442657, -0.089918769896030, 0.499392509460449, 0.056917056441307, -0.888174712657928, 0.285949707031250, 0.848926007747650, 1.007585525512695, -1.092369914054871, 1.087706327438354, -0.167969733476639, -0.878120303153992, -0.878207564353943, -1.242733478546143, -0.677510499954224, 0.946487009525299, -0.008176410570741, -0.983334004878998, 1.103711128234863, -0.736941218376160, 1.015086531639099, 0.589104354381561, 1.027370452880859, 0.908606231212616, -1.161859035491943, 0.844878971576691, 0.758848547935486, 0.728815972805023, -0.968882381916046, -1.118323922157288, -0.370310664176941, 0.303254365921021, 1.053872227668762, -0.524658799171448, -0.254363417625427, -0.409375876188278, 0.790479898452759, -0.885868906974792, -0.531740486621857, -0.321419805288315, 1.212012410163879, -1.113823413848877, -1.155963897705078, 0.678726971149445, 0.564851760864258, -0.056810438632965, 0.981729388237000, 0.761577665805817, 1.141820907592773, -1.166224002838135, -0.890080571174622, 0.286269962787628, 0.117661021649837, -0.882290184497833, -0.878997206687927, 0.619368910789490, -0.190245538949966, 1.443704128265381, -0.169914335012436, 0.692069292068481, 2.114700794219971, 1.649634957313538, 0.222140192985535, 0.148848056793213, -0.532160401344299, 0.923477888107300, 0.764012277126312, 0.289927423000336, -1.950089454650879, 0.248710930347443, -0.812193274497986, 0.945124506950378, -0.652119278907776, 0.233336970210075, -0.732654690742493, 0.389226496219635, 2.940377473831177, -0.574057877063751, -0.903838157653809, -0.198038458824158, 1.610829710960388, 0.309692293405533, 1.248767256736755, 0.628949284553528, -0.175893306732178, 0.335132896900177, -1.382128715515137, 0.986921429634094, 0.050459474325180, 0.325849622488022, 0.768505692481995, 0.406982898712158, -0.334933280944824, -1.504390239715576, 0.593728244304657, 0.131009086966515, -0.815044581890106, -1.372388243675232, -0.399738550186157, 0.593204319477081, -0.610306024551392, 0.391980141401291, -0.748054265975952, -0.871439933776855, -0.579883337020874, 0.940778315067291, 0.830493450164795, -0.298157930374146, -0.747596979141235, 0.450617879629135, -0.586363554000854, 0.903548896312714, -0.555034637451172, -0.427509605884552, 0.049551669508219, -0.263000369071960, -0.127411186695099, 0.725403010845184, 0.420039087533951, -0.202711567282677, -0.981552779674530, 0.738798141479492, -1.177598476409912, 0.988195359706879, -0.166380539536476, 0.107254967093468, 0.929875016212463, -0.225101590156555, -0.313332617282867, 2.188385486602783, -0.433022767305374, -0.295821279287338, 1.896352171897888, -0.698714137077332, 0.708613991737366, 0.521320939064026, 0.257883399724960, 0.717753171920776, -0.097033612430096, 0.261142730712891, 0.186917215585709, 0.182214230298996, 1.116528391838074, 1.040527105331421, 0.032583195716143, -0.724312603473663, -0.372272223234177, 0.047978088259697, 1.151655793190002, -0.640432596206665, 0.352371633052826, 0.615237295627594, 0.282256692647934, -0.842276334762573, 0.346947699785233, -0.268415600061417, -0.639138817787170, -0.528329610824585, -1.189971446990967, 0.519782066345215, 0.970050871372223, 1.620981216430664, 0.375495105981827, -0.160920023918152, -0.504516601562500, 0.345318764448166, 0.080234885215759, -0.356402665376663, -0.971218824386597, 0.599657237529755, -1.228484988212585, -0.579626023769379, 1.045076251029968, 0.362425446510315, -0.219718307256699, 0.151381403207779, 0.242757320404053, -0.239533603191376, -0.967973113059998, 0.197112306952477, 0.428779333829880, -0.968444406986237, -0.225193530321121, 0.935198247432709, 0.515139818191528, -1.214729547500610, -0.403432041406631, 0.044425100088120, -0.367461681365967, 0.071867488324642, -0.797111868858337, -0.919554769992828, -0.876709580421448, 0.132032379508018, -0.168211877346039, -0.914572536945343, -0.702961027622223, -0.188600301742554, 1.018671870231628, 0.108255058526993, 0.832286953926086, -0.044201552867889, 0.616264045238495, -0.931279540061951, -0.190594851970673, 0.417926728725433, 0.071969933807850, 0.941678285598755, 0.462760061025620, -0.094211071729660, -0.499989002943039, 0.772259593009949, -0.059438332915306, -0.103425592184067, -0.928139507770538, 0.105957202613354, 1.335989475250244, 1.376959919929504, 0.324283748865128, -1.456910133361816, -1.051396608352661, 0.610479235649109, -0.413942456245422, 0.933992922306061, 1.304212570190430, -0.119721330702305, 0.775377690792084, 0.991676092147827, 0.666421115398407, 0.238479748368263, -0.316180884838104, 1.116991281509399, -1.456962227821350, 1.011199712753296, -0.948156654834747, -1.667759656906128, -1.210989832878113, -1.768310785293579, 0.988130271434784, 0.759936690330505, -0.132079049944878, 1.293242216110229, -0.162666544318199, 0.854094088077545, 0.309361249208450, -1.444036722183228, 0.042133357375860, -0.270717680454254, -0.114301688969135, -1.244552850723267, -1.382998585700989, -0.264863699674606, 0.459790736436844, -0.415217697620392, -0.153931543231010, 0.299066334962845, 0.055336777120829, -0.627106845378876, 0.194047480821609, -1.332139134407043, -1.493098020553589, -0.027536282315850, 0.032268915325403, -0.389918833971024, 1.370249152183533, -0.562879562377930, -1.673889398574829, 0.173014909029007, -0.328474193811417, -0.655359387397766, 0.439574539661407, 0.310859948396683, -0.467228978872299, 0.968587279319763, -0.489651024341583, 0.326078325510025, 0.023327102884650, 0.636029839515686, 0.309791892766953, 0.168370142579079, -0.411341130733490, 1.174238443374634, 1.686546325683594, -0.868619680404663, 0.224358677864075, 0.739716768264771, 0.608112156391144, -0.824193835258484, -0.463748127222061, -0.617469370365143, 0.054167032241821, -0.053839389234781, -0.865940034389496, -0.836998462677002, 0.038050875067711, 0.617940306663513, 0.092402912676334, -0.772230327129364, 0.720172107219696, 0.377856791019440, -0.080043822526932, 1.089362025260925, -1.178409218788147, -0.868056297302246, 0.222589775919914, -0.852432429790497, 0.154645085334778, -1.544246912002563, -0.349630028009415, 1.776994228363037, 0.000132242828840, 0.831561148166656, -0.324605911970139, -0.656654834747314, 0.233766168355942, -0.371335178613663, -1.649226069450378, 0.489321947097778, 1.341265320777893, 0.594716012477875, 0.162456259131432, 0.864199221134186, -0.877878606319427, 0.329124957323074, -1.265071511268616, 0.099898427724838, 0.910836935043335, -0.618793845176697, 0.775994002819061, -0.862189292907715, -0.557262063026428, -0.888943612575531, -0.821317136287689, 0.091334290802479, -0.487815797328949, -0.668744862079620, -0.961639642715454, -0.940874814987183, -0.720700740814209, -0.158808812499046, -0.267940253019333, 0.719664037227631, -0.244111329317093, 1.163230895996094, -0.791600704193115, 0.885913074016571, -0.958247005939484, 0.102736525237560, 0.538898289203644, -0.931712031364441, 0.963703691959381, -0.307918876409531, 0.318530112504959, 0.523629486560822, 0.153644427657127, 0.035451319068670, 1.071002364158630, 0.892228424549103, 1.111048460006714, -0.173629269003868, 0.803710401058197, 0.850399613380432, 0.315834939479828, 0.981090009212494, 0.695541024208069, 0.704724311828613, 0.066045038402081, 0.523128211498260, 0.917985320091248, 0.082835450768471, 0.812833428382874, 1.158602952957153, -0.264641106128693, -0.659164369106293, 0.681893885135651, 0.441348105669022, 0.817795574665070, -1.137952923774719, 1.406329154968262, 0.329340338706970, 0.154965162277222, -0.885980844497681, 0.531276881694794, 0.797965526580811, 0.093884445726871, 0.744139492511749, 0.865691244602203, 0.433273583650589, 0.596714258193970, 0.242844656109810, -0.161179497838020, 1.315510392189026, -0.967083692550659, 0.442274242639542, -1.030805349349976, 0.528522014617920, -0.609421074390411, -1.156702995300293, -0.351897418498993, 0.522061705589294, 1.062250614166260, 0.920149922370911, 1.191760897636414, 0.943092823028564, -0.841609835624695, 1.273196339607239, -0.802978396415710, 1.131137847900391, 0.652452409267426, 1.474426150321960, -0.163658902049065, 1.335626125335693, 0.622524440288544, 0.531968533992767, -0.614780843257904, -0.309383302927017, -0.804526031017303, -0.051333330571651, 0.219339862465858, 0.219783172011375, 0.746819972991943, -1.102235555648804, 0.459382742643356, -0.778868794441223, 0.641765892505646, -0.734247505664825, -1.012548923492432, 0.324567854404449, -0.040509894490242, 0.393029421567917, -0.173932567238808, 0.204561859369278, 0.502052009105682, 0.526416182518005, 1.430483698844910, 0.180039346218109, -0.018726123496890, 0.060664776712656, -0.347422659397125, 0.273275613784790, -0.686783194541931, 0.589400708675385, 0.436315447092056, 0.980623662471771, 1.178460121154785, 0.848203837871552, 1.692038774490356, 1.152593493461609, 0.837450206279755, 2.159615516662598, 0.530007183551788, 1.215763449668884, 2.387058496475220, 0.078712835907936, 1.361698865890503, 1.181659340858459, 0.835031449794769, 0.610639333724976, 0.431384086608887, 0.355333447456360, 0.996669888496399, 0.207840800285339, 0.846948862075806, 1.104113817214966, 0.705586731433868, 1.571886539459229, 0.333414018154144, 1.447010397911072, 0.643604516983032, 0.559117019176483, 0.751243472099304, 0.904088139533997, 0.761091351509094, 0.792358934879303, 0.402390122413635, 1.442304015159607, 1.315834045410156, 0.261531025171280, 1.709090471267700, 0.538966715335846, 1.551739931106567, 0.741584539413452, 0.397282809019089, 0.697239875793457, 0.391691327095032, 1.456159472465515, 1.689149141311646, 0.040009055286646, 0.628674924373627, 1.053560495376587, 0.098158031702042, 2.043461561203003, 1.149015784263611, 0.271893411874771, 0.223276615142822, 1.550997972488403, 0.804976224899292, 0.518951177597046, 0.832823038101196, 1.613007068634033, 0.911236345767975, 0.239418327808380, 0.921484649181366, 0.220280230045319, 1.074885964393616, 0.756904363632202, 2.246263980865479, 1.668541908264160, 0.615215599536896, 0.771761178970337, 0.962521910667419, 0.347009629011154, 0.408264219760895, 1.152414917945862, 0.006456365343183, 0.493765145540237, 0.649538159370422, 0.530485749244690, 0.535090029239655, 1.246837735176086, 0.936105012893677, 1.712261319160461, 0.441384464502335, 1.410267353057861, 1.354949951171875, 1.245424151420593, 0.366697669029236, 1.475337266921997, 0.841812491416931, 0.548424780368805, 0.748655796051025, 0.480964124202728, 0.349618971347809, 1.439490914344788, 1.501806616783142, 0.607360661029816, 0.293138325214386, 0.951356768608093, 0.414234727621078, 1.011064887046814, 1.373867154121399, 1.360512852668762, 0.296253830194473, 0.569302737712860, 0.518284916877747, 1.492659449577332, 0.972944676876068, 0.515189468860626, 0.751826286315918, 1.791144132614136, 0.634253740310669, 1.053519606590271, 1.735480427742004, 0.393409430980682, 0.219325944781303, 0.765912532806396, 0.306337863206863, 0.453789591789246, 1.258442878723145, 0.283485859632492, 1.848237872123718, 0.096380949020386, 0.003751221345738, 0.596273005008698, 0.368707239627838, 0.376615673303604, 1.503071188926697, 0.539811730384827, 1.312468290328979, 1.586915612220764, 1.178507328033447, 0.156715273857117, -1.194009423255920, -2.170634508132935, -0.544642806053162, 0.560076475143433, 0.372845023870468, 0.339810997247696, 0.838835239410400, -0.093497328460217, 1.134124875068665, -0.101533107459545, -0.229901850223541, -0.210297212004662, 2.393373012542725, 0.012070842087269, -1.007608175277710, 0.269709587097168, -0.617667019367218, -0.495614081621170, 0.308813542127609, -0.067180685698986, -1.376617193222046, -0.762727141380310, -0.263384819030762, 0.061589144170284, 0.127161815762520, -1.073262453079224, 1.349969148635864, 1.135169267654419, 0.598138928413391, 0.237534761428833, -0.040542375296354, 1.121915578842163, -0.526111364364624, 0.126735344529152, 0.004008806310594, 0.208854585886002, 0.430688381195068, -0.065649755299091, 0.952593624591827, -0.926960051059723, -0.089646123349667, 0.680232048034668, -0.766425430774689, -0.049689285457134, 0.927108824253082, 0.935800552368164, -0.088783405721188, 0.908425271511078, -0.077280707657337, -0.795953571796417, 0.304854005575180, 0.052390154451132, -0.642005383968353, 0.192922428250313, -1.057537317276001, 0.691024839878082, 0.208108976483345, -0.846274793148041, -0.620390951633453, -0.154818162322044, 0.135426029562950, 1.548519849777222, -0.283829748630524, 0.971374571323395, 0.805784702301025, -0.585597634315491, 0.950381457805634, 0.614337265491486, 1.118004441261292, -0.626940071582794, -0.040625277906656, 0.622924447059631, 0.276429057121277, 0.635264933109283, -0.355481207370758, 0.527462899684906, 0.425654590129852, 1.536444783210754, -1.300801515579224, -1.058782339096069, 0.524512887001038, -0.683125853538513, -0.059227149933577, -0.285066157579422, 1.284114122390747, -0.753909647464752, 0.834602594375610, 0.487419366836548, -0.562249183654785, 1.292912006378174, 0.097839005291462, 0.208166062831879, -0.015553662553430, 0.021048728376627, 0.978741884231567, 0.539764285087585, -0.282835811376572, -1.129982709884644, 1.307136654853821, 0.463396161794662, 1.773223280906677, 0.363018035888672, 0.596207797527313, -0.699087917804718, 0.427622199058533, 0.637088894844055, -1.342371940612793, 1.524792194366455, -0.561728358268738, 0.968024194240570, 0.286580413579941, 0.633167862892151, -0.044743288308382, -0.686986327171326, 0.377214521169662, -0.133017420768738, -0.930776834487915, -0.239875048398972, 0.271880239248276, 0.119904167950153, 0.431109488010406, -0.284278303384781, 0.159655183553696, 0.584012806415558, 0.900430440902710, 1.255103826522827, 0.834174394607544, -0.675369441509247, 1.185404181480408, 0.235695496201515, -0.674118638038635, 0.555002987384796, -0.417186021804810, 0.474247932434082, 0.410575181245804, 0.920670270919800, 1.490863323211670, 0.053207710385323, -0.683111488819122, -0.976440131664276, 0.358593821525574, 0.754657983779907, -2.512228250503540, 0.584288716316223, 0.931329011917114, -0.163922667503357, 0.353184401988983, -1.827853918075562, 1.062589049339294, 0.739071547985077, -0.156689405441284, 0.817166805267334, 0.472635775804520, 0.115999124944210, -0.730890512466431, -0.562510430812836, 1.040679216384888, -0.870575308799744, -0.002500205533579, -0.416146218776703, -0.525824069976807, -1.564212679862976, 0.102876462042332, 0.178067207336426, 0.321565538644791, 0.129242464900017, 1.150557637214661, -0.594502866268158, -0.217770084738731, 0.955278158187866, 0.669239878654480, -0.009478116407990, -0.607852876186371, -0.325851827859879, 0.469665169715881, 1.033615231513977, 1.292873620986938, -1.417149782180786, -0.229276701807976, 0.081196524202824, 0.369283467531204, -0.424737066030502, -0.085056789219379, 0.662022709846497, -0.477201759815216, 0.891721546649933, 0.712066054344177, -0.135667532682419, 1.133517503738403, 1.001525759696960, 0.806019365787506, 0.921542048454285, -1.490660190582275, -0.200312331318855, 1.095830082893372, 0.387680292129517, -0.588860452175140, 0.001041055307724, -0.524102449417114, 0.627382397651672, -0.346098899841309, 0.479342520236969, -0.960758447647095, -0.416809022426605, 1.685400724411011, 0.177697464823723, 1.433094263076782, -0.331599771976471, -0.648353695869446, 0.168166682124138, -0.218485087156296, 2.036972045898438, 0.072270706295967, -1.039851069450378, 0.840235114097595, 0.058025322854519, -0.406025677919388, 0.882988929748535, -0.511915445327759, 0.135776758193970, 0.847495794296265, -1.324373960494995, 0.180841520428658, 1.267620563507080, 0.995961904525757, -1.202774882316589, -0.219423934817314, -1.055835366249084, -0.426363319158554, 0.715715169906616, -0.069249346852303, 0.413669377565384, -0.514716506004333, 0.812612354755402, -0.518153071403503, -1.559486508369446, 0.436611771583557, 0.048279676586390, -0.017383245751262, -0.642033100128174, -0.793911814689636, 1.101497411727905, 0.743293762207031, 0.975258767604828, 1.571981310844421, 0.111162252724171, 0.877780020236969, 0.647725820541382, -0.684429347515106, -0.575183928012848, -0.391873121261597, 0.313024580478668, -0.138191893696785, -0.571062266826630, 0.064424395561218, 0.576118052005768, 0.828472077846527, -1.202275276184082, -0.141477122902870, -1.535404801368713, -1.107321500778198, 0.386689394712448, 0.066690415143967, -1.238448500633240, -1.168407201766968, 0.221422687172890, 0.589632451534271, -1.491690635681152, -1.027265191078186, 0.931953191757202, -1.369217157363892, 0.509521842002869, 1.443602919578552, 0.525135934352875, -0.781882762908936, 0.544862687587738, 1.031215548515320, 0.364916563034058, 0.702025055885315, -0.055508598685265, -0.503167629241943, -0.810849487781525, -0.652083039283752, -0.102743826806545, 0.463364273309708, -0.187789648771286, 0.797998130321503, -1.009444832801819, -0.545660018920898, 0.639936745166779, -0.657970845699310, -0.540457189083099, 1.179122805595398, -0.253666222095490, -0.732787013053894, -1.552774906158447, -0.777136385440826, 0.634695470333099, -1.052692174911499, 0.454152733087540, -1.211126446723938, 0.298545151948929, 0.683385372161865, -0.389139235019684, -0.796843588352203, -1.230985045433044, 0.299935191869736, -0.762253880500793, -0.812759876251221, -1.032089114189148, 1.250408053398132, 0.992208003997803, 0.223407983779907, 0.952136933803558, -0.613517999649048, 0.317081391811371, -0.577555119991302, -0.461242318153381, -0.565287470817566, -0.742817938327789, 1.024342417716980, 0.672371506690979, -0.334336876869202, 0.405740886926651, -0.521072447299957, -1.002807617187500, -0.408308118581772, -1.011798381805420, 0.239558309316635, -0.155138149857521, 0.632471263408661, -1.161853194236755, -0.586493849754333, -0.074649378657341, 0.710225105285645, -0.996976375579834, -0.626694679260254, 0.984882831573486, -0.903209805488586, 1.239576935768127, -0.139523908495903, -1.259309887886047, -0.598318517208099, -0.231792166829109, 0.681316375732422, -1.156325817108154, 0.145288616418839, -0.409283876419067, 0.754360198974609, -0.813233613967896, -1.257557392120361, -0.119550481438637, -1.070806145668030, -0.469284981489182, 0.499410212039948, -0.643950164318085, -0.636684060096741, -1.358850955963135, 0.518110930919647, -0.726528525352478, -1.182188034057617, -0.554426968097687, 0.375185489654541, 0.758757412433624, -0.865720152854919, -0.835462272167206, 0.499475210905075, 0.801058471202850, 0.417461931705475, -0.841490566730499, 0.653450369834900, -0.483517915010452, -0.902392327785492, -0.053067214787006, -0.907625019550323, -1.783859133720398, -0.523789286613464, -0.557481825351715, 0.671293318271637, 0.360936373472214, 0.818660259246826, -0.665673494338989, -1.173639416694641, 0.747033119201660, 0.751196801662445, -0.429791212081909, -0.673736572265625, -0.386862367391586, -0.560944080352783, 0.354633897542953, 0.580468773841858, -0.469618797302246, -1.281305193901062, -1.295624494552612, 1.179947972297668, -1.165025115013123, 0.323825865983963, 1.152301192283630, -0.123342253267765, 0.456503182649612, -1.007927894592285, -0.441426306962967, -0.031945887953043, -0.728621423244476, -0.865674555301666, 0.576817750930786, 0.290158420801163, 0.940734267234802, 0.159139320254326, -0.268816351890564, 1.283414363861084, 0.999336898326874, -1.392163395881653, -0.148998469114304, 0.478412508964539, -0.805505812168121, 0.691660940647125, -1.538606643676758, 0.677135050296783, -0.508351027965546, -0.623829960823059, 1.304595828056335, 0.020823087543249, 0.022017007693648, 0.069291524589062, 1.142434597015381, -0.091620422899723, -0.012105488218367, 0.380205929279327, 1.451031804084778, 1.601166844367981, 0.992764532566071, 0.495621740818024, 1.584347844123840, -0.219652801752090, -1.200607895851135, -0.730915904045105, 0.258965849876404, -0.194138199090958, 0.459439933300018, 0.156542941927910, -2.128872394561768, -0.094727002084255, -0.963796377182007, -0.165391311049461, -0.928727865219116, 1.064290165901184, 0.301017820835114, 0.893316447734833, 0.409737676382065, 0.339343518018723, 0.076443552970886, -0.003142922418192, 0.058458145707846, -0.724637746810913, -0.115252479910851, -0.093265861272812, -1.099021315574646, 1.271717905998230, 0.443001985549927, -0.788057804107666, 0.299887865781784, 0.415184468030930, -0.955523788928986, -0.052396222949028, -0.543158650398254, -0.327002137899399, 1.263806104660034, 0.452250540256500, -1.007090210914612, 0.562048673629761, -1.008817195892334, 0.754532814025879, 1.715505838394165, 1.206386208534241, -0.655606031417847, 0.350271791219711, 0.054848324507475, 0.148441582918167, -0.585534572601318, 0.743285596370697, -1.214897394180298, 1.351921439170837, -0.640361249446869, -0.587166309356689, -1.298645853996277, -0.476075917482376, -0.589836299419403, 0.511828303337097, -0.280144810676575, 1.783053278923035, -1.575034618377686, 0.329031348228455, -0.688663542270660, -0.549022436141968, -0.582678914070129, 0.429188162088394, 0.121406532824039, -0.529089927673340, -1.258045077323914, -0.447620004415512, 0.219237551093102, -0.345642775297165, -0.277331560850143, 0.588177621364594, 0.973626792430878, 0.362192302942276, 0.005958464927971, 1.152470111846924, -1.027131319046021, 0.114445120096207, 0.266934663057327, -2.131623268127441, -0.223818868398666, -0.965700566768646, -0.407515108585358, 0.010973119176924, -0.159606412053108, 1.376484274864197, 1.151941180229187, 1.597700119018555, 0.247133478522301, -0.470493882894516, 0.522837698459625, -0.664099514484406, -0.338630378246307, 0.232863128185272, -0.567562818527222, 1.055575966835022, 0.243290990591049, -1.469625115394592, 0.752084136009216, -1.358150243759155, -1.654327869415283, -0.614391148090363, -1.280814886093140, 0.043842200189829, -0.212385281920433, -0.754663765430450, 0.867798984050751, 0.078827127814293, 1.238326072692871, -0.920949101448059, -0.385795682668686, -0.134833648800850, 0.411713153123856, 0.651254296302795, 0.074406437575817, -0.188422143459320, 0.421032547950745, -1.074609875679016, -0.600772202014923, 0.024914236739278, -0.074295595288277, -0.451710462570190, -0.547317743301392, -0.416739434003830, -0.093974262475967, -0.176496997475624, 1.404294013977051, 0.263869345188141, 1.092572689056396, 0.069477513432503, -1.556797981262207, -0.288570642471313, -0.193316608667374, 0.559011936187744, -0.076831832528114, -1.004721641540527, -0.995200693607330, 0.387497752904892, -0.239370673894882, -1.279284119606018, -0.071505635976791, -0.162169054150581, -0.265246093273163, -0.356005877256393, -0.687013745307922, -0.276840984821320, -0.050912056118250, -0.005334962625057, 0.616109013557434, 0.068523190915585, -0.986693799495697, -0.100860975682735, 0.066917486488819, -0.546641886234283, -0.365277439355850, 0.283391505479813, 0.601905345916748, -1.409320712089539, -0.194473162293434, -0.184986442327499, -0.153106704354286, -0.342115908861160, 0.219161853194237, 0.186259478330612, 0.154149591922760, 0.253686398267746, -0.674260973930359, 0.222755163908005, 0.224882781505585, -0.254045397043228, 0.375490546226501, 1.345062136650085, 0.938911616802216, 0.889795899391174, -0.276931703090668, 0.531714141368866, 0.508366823196411, 0.303716987371445, -0.463754594326019, 0.626762151718140, 1.263717532157898, 1.848290205001831, -0.052474468946457, -1.576070308685303, -0.321768403053284, -0.629041254520416, -0.852663755416870, 0.854181945323944, -0.654877007007599, 1.131754755973816, 0.397188097238541, -0.026372060179710, -0.521804213523865, 0.356141358613968, 0.856868922710419, -1.201113700866699, 1.486591815948486, -1.627482175827026, 1.802411079406738, 0.371856957674026, -0.565956294536591, -0.266573458909988, -0.159642532467842, -0.323212116956711, 1.376947522163391, -0.393168628215790, 1.211091518402100, 1.355917334556580, 0.093270689249039, 0.970649361610413, 1.106806755065918, -0.557326555252075, 1.663829326629639, 0.379932433366776, 1.606207966804504, 1.184540152549744, -0.066506348550320, 2.372238874435425, 1.378952860832214, -0.253978967666626, 0.243691921234131, 0.574682354927063, 0.470416277647018, -0.093739829957485, -0.263705730438232, 0.471643000841141, 0.269800186157227, -0.305608749389648, 2.143513917922974, 0.140874311327934, -0.276787877082825, 0.829803287982941, 0.183290094137192, 1.221977949142456, -0.230630487203598, -0.253925174474716, 0.996709585189819, 0.396677881479263, 0.524903357028961, 1.205338239669800, -0.100539207458496, 1.732823252677917, 0.441013932228088, 0.138848736882210, -0.325537949800491, -0.499111860990524, 0.196718245744705, 0.490453362464905, 0.296430498361588, 2.357177495956421, 0.107763655483723, 0.477960348129272, 0.280466198921204, 1.115248560905457, 0.708202898502350, 2.060295581817627, 0.604593873023987, -0.070083335042000, 2.374383211135864, -0.346783369779587, -0.790416777133942, 1.286475062370300, 0.601581394672394, 1.643881559371948, 0.435548096895218, -0.230757117271423, 0.026482056826353, 1.423499107360840, 0.253884822130203, 2.765811681747437, 1.709489941596985, 0.467126071453094, 1.716215968132019, 1.114256620407104, -0.429194211959839, -0.561695039272308, 1.260783791542053, -0.592277824878693, 0.739000678062439, -0.256922334432602, -0.339048713445663, 0.361439377069473, -0.091913871467113, -0.360911130905151, 1.832426548004150, 0.708419322967529, 1.772126078605652, 1.894082665443420, 1.853802800178528, -0.756828784942627, 0.068428188562393, 1.011064648628235, -0.414329439401627, -0.048768572509289, -0.761874437332153, -0.213864266872406, 1.116628766059875, 1.725923418998718, -0.028178112581372, -0.349289387464523, -0.602675437927246, -0.532209753990173, 1.390499472618103, 2.346570253372192, 0.422435969114304, -0.237620711326599, 0.580057322978973, -0.358001500368118, 0.990654289722443, 1.063862919807434, 0.688549518585205, 0.371249496936798, 1.970242977142334, -0.090464301407337, 1.721002578735352, 1.582750558853149, -0.195276767015457, 0.327305883169174, 0.593782961368561, 0.345249235630035, 1.387525200843811, -0.237532347440720, 1.627752304077148, 1.728335022926331, -0.014013277366757, -0.198050498962402, -0.188371762633324, -0.102623872458935, -0.080494686961174, 2.475080251693726, 0.589024901390076, 1.042687058448792, -1.238999485969543, 0.433600902557373, 0.743744611740112, -0.353927761316299, -0.321381986141205, -1.311681389808655, 0.065399132668972, -0.887402594089508, 0.332840353250504, 0.999206900596619, -0.887577116489410, 1.111665368080139, -0.623719632625580, -1.497256278991699, 0.311516702175140, 1.171666026115417, 0.216017886996269, 0.229539677500725, -0.700753569602966, 0.826093137264252, 0.019086360931396, -0.885060787200928, -0.707515537738800, -0.473166912794113, 0.997211754322052, -1.090029239654541, -0.062197443097830, -0.415090650320053, 1.035180807113647, -0.976879835128784, 0.791090428829193, 0.941980659961700, 0.824101269245148, -0.244540989398956, 0.268214523792267, 0.382540673017502, 1.436050534248352, 0.447395980358124, -0.464355289936066, -0.049533277750015, -0.959715187549591, -0.510751307010651, 0.615996241569519, 0.130589097738266, -0.342554956674576, 0.988517224788666, 0.108349576592445, 0.728913068771362, 1.283373951911926, -0.090449139475822, 0.739117145538330, 0.583624064922333, -0.039641097187996, 0.443942636251450, -0.379182845354080, 1.159314393997192, 0.206670701503754, 1.286936640739441, 0.044681631028652, -0.308386057615280, -0.973455250263214, 0.721459031105042, -0.267742812633514, 0.402349323034286, -0.711172580718994, 0.617583930492401, 0.143095627427101, 1.485476016998291, -1.054738521575928, -0.834474325180054, -0.933625817298889, 0.025933573022485, 0.131141051650047, 0.811219513416290, 0.313986659049988, -1.535733819007874, -0.673661172389984, -0.526753783226013, 0.223838657140732, -0.253312766551971, 0.418956249952316, 0.905668258666992, -0.707101762294769, -0.185549542307854, 0.142871811985970, 1.828344225883484, 1.169427275657654, 0.450050741434097, 1.104472398757935, 1.706157445907593, -1.423362016677856, -0.180933311581612, -0.477167695760727, -0.277369678020477, 0.458254396915436, -0.917543649673462, 1.080745935440063, -0.758502900600433, 0.525478601455688, 0.058947712182999, -1.066096544265747, -0.883387684822083, 0.752275109291077, 1.221487522125244, -2.046949863433838, 0.288255125284195, 0.856776356697083, -0.443264454603195, -0.498276799917221, -0.267340213060379, -0.646843075752258, -0.330077528953552, -0.268737554550171, -0.132713288068771, 0.811145603656769, 0.503630161285400, 0.310741275548935, -0.628729283809662, 0.859688758850098, 0.647613286972046, -1.340190172195435, -0.745220601558685, 0.948697805404663, -0.520626604557037, 0.008851097896695, -0.446460187435150, 0.779306709766388, 0.344130665063858, 0.508505046367645, -1.013438820838928, 1.842716097831726, -0.102497898042202, 0.116260550916195, 0.922281622886658, 1.268665909767151, 0.881416857242584, 0.898537695407867, 0.318730354309082, -0.217579886317253, 0.574969351291656, -0.346996873617172, 1.243316650390625, 1.331289768218994, 0.139350891113281, 1.225255370140076, 0.672917783260345, 0.478059530258179, 0.123885549604893, -0.064557991921902, 0.288805335760117, 0.652684330940247, -0.448577135801315, 1.977363824844360, 0.611783862113953, -0.208820134401321, 0.617342531681061, 0.445517301559448, 1.153975725173950, -0.356415003538132, 0.723088622093201, 1.442025184631348, 0.149070426821709, -0.391353607177734, 1.358639121055603, -0.080034963786602, 0.559785008430481, 1.329767823219299, 1.240118741989136, -0.167973101139069, 0.073462173342705, 0.594673991203308, 0.867692172527313, 0.790397047996521, 0.699620485305786, 0.334636509418488, 0.522771477699280, 0.669268488883972, -0.262797117233276, 0.274098366498947, 0.932422280311584, 0.381661772727966, 0.934233605861664, 0.976619958877563, 0.541437983512878, -1.060415625572205, 1.042934060096741, 2.024182796478271, 2.028130769729614, 1.150532007217407, 0.125743493437767, 0.455829083919525, 0.724251747131348, 0.304672449827194, 0.029837992042303, 0.295963466167450, 1.953688144683838, 1.216200113296509, 0.300982207059860, 0.259413272142410, -0.868706941604614, 0.618316173553467, -0.606781423091888, 0.380375891923904, -0.506558477878571, 0.014468668028712, 1.845620751380920, 0.385905414819717, 0.118848368525505, 0.189415663480759, 1.689815759658813, 0.493212550878525, 1.693579792976379, 0.582380533218384, 0.309714823961258, -0.087653897702694, 0.662278234958649, 0.203076690435410, 0.286906898021698, 0.199667870998383, 0.269894123077393, 0.587222874164581, 1.846566796302795, 0.393879950046539, -0.059098161756992, 0.370858550071716, 0.218090340495110, 0.483640015125275, 0.792384266853333, 0.359858185052872, -0.173268750309944, -0.003964735660702, 0.260539799928665, 0.775972664356232, 2.022551536560059, 0.518771231174469, 0.535365760326385, 1.389801263809204, 0.496493935585022, 1.831610560417175, -0.021761391311884, 0.456962645053864, 0.842253446578979, 1.981880068778992, 1.049700021743774, 0.265255242586136, -0.059261739253998, 0.958116173744202, 0.718564033508301, 0.020037574693561, -0.428529828786850, 0.532363355159760, -0.487705409526825, 0.465158849954605, 1.770178318023682, -0.353120744228363, 2.560521125793457, -0.475533276796341, 0.095299825072289, 0.667571842670441, 0.382015854120255, 0.471599549055099, -1.011148214340210, -0.202337771654129, 0.831115603446960, 1.220173954963684, 0.331544816493988, -0.346842437982559, 0.304664582014084, -0.146060958504677, -0.781796276569366, -1.671929836273193, 1.392638683319092, 0.255093365907669, -0.343533009290695, -0.203326910734177, -0.012477299198508, -0.192056372761726, 0.192755743861198, 0.707824707031250, 0.110538609325886, -1.514185547828674, 1.036070227622986, -0.544588804244995, -1.618954896926880, -0.256415337324142, 0.040705364197493, 0.777388811111450, 0.560400485992432, -1.332433104515076, 0.359598755836487, -0.191439017653465, -0.043746888637543, 1.295283317565918, -0.985731899738312, 0.512478649616241, 1.310506224632263, 1.081619858741760, 1.004468083381653, 0.818865835666656, 0.171337425708771, -1.467039823532104, -1.269062757492065, 0.256233155727386, 0.230204313993454, -0.189685463905334, -0.115066446363926, 0.174434527754784, -0.845122277736664, -0.537719011306763, 0.705030679702759, -1.016377329826355, -0.073634780943394, -0.374200493097305, -1.754250884056091, -0.258258759975433, 0.276018828153610, -0.775051593780518, 1.194969296455383, 0.400092035531998, -0.222547933459282, 0.921907484531403, -1.168668270111084, -0.803633868694305, 0.346580058336258, -1.420385599136353, -0.079123355448246, 0.285330027341843, 0.355974107980728, 0.195373922586441, 0.874528110027313, -0.358858019113541, 0.363933145999908, 0.666476905345917, -0.360809713602066, -0.029589563608170, 0.730974674224854, -1.693914294242859, -0.901426851749420, -1.410868167877197, -1.206575751304626, -1.417962908744812, 1.027971982955933, 0.498544752597809, -1.806882619857788, 1.125034213066101, 0.863381385803223, 0.753451824188232, 1.007138729095459, 0.267828106880188, -0.526235997676849, 0.049981843680143, 0.716083347797394, 0.832429349422455, 0.714292764663696, 0.906733810901642, -1.455841422080994, 0.624733865261078, 0.635461151599884, -0.272268325090408, 0.446104824542999, -1.406686782836914, 1.074407458305359, -1.460505604743958, 0.268917739391327, -1.625631690025330, 0.523932933807373, -0.967784285545349, -1.943105697631836, 0.246797278523445, 0.051348075270653, 1.657017946243286, -1.125742912292480, -1.716154217720032, 0.730313718318939, -0.685601472854614, -1.217991590499878, 0.975013077259064, 0.775534033775330, 0.584483921527863, 0.448809355497360, 0.243855074048042, -0.798384726047516, 0.153998523950577, -0.844528853893280, 0.987396001815796, -1.380224823951721, -0.107880376279354, 0.910386204719543, -1.430454850196838, 0.402708023786545, -1.033848285675049, -0.860916018486023, -0.675518691539764, -0.106724314391613, 0.038977295160294, 1.643427848815918, -0.426781743764877, -0.898186087608337, -1.074582338333130, 0.703013718128204, 1.634887337684631, -0.231386050581932, 1.065517663955688, -0.500546276569366, 0.553407251834869, -0.246501043438911, -1.084372043609619, 0.830737471580505, -0.078243158757687, -1.297883152961731, -1.137203097343445, -0.453103631734848, -1.524861097335815, 0.830053627490997, -1.284819841384888, 1.860193848609924, 0.052263546735048, -1.016867160797119, -0.866305291652679, -0.322919517755508, 1.223071336746216, 0.164231821894646, 0.680089116096497, -0.021045742556453, -1.064207553863525, -0.576668262481689, -0.741113841533661, 0.011629453860223, -0.203573197126389, -0.202276259660721, -0.518565595149994, -1.664222717285156, 0.922437548637390, 0.754846215248108, -0.319706141948700, 0.254451245069504, -0.987175405025482, -0.583632707595825, 0.630245029926300, -0.446852087974548, -0.330563694238663, 0.556596577167511, 0.044685829430819, 1.248920917510986, -0.271803915500641, -1.067910194396973, -0.086467072367668, -1.037014245986938, 0.637712717056274, -0.117570884525776, -0.417819291353226, 0.201488077640533, 0.475684046745300, 0.570209980010986, 0.493321508169174, -0.612839937210083, 1.099328279495239, 0.039286907762289, 0.676328063011169, -0.339402228593826, -0.190518200397491, -0.015252761542797, -0.668724060058594, 1.802444696426392, -1.513876676559448, 0.070152454078197, -1.074263215065002, -0.296926468610764, 1.039745092391968, -0.316290229558945, -0.252829581499100, -0.745365202426910, -0.257300347089767, -0.454722195863724, -0.058301150798798, 0.118413768708706, 0.142086118459702, 0.943439304828644, -0.093779854476452, -0.246767550706863, -0.308509081602097, 1.870149254798889, -1.557225942611694, -1.583760380744934, -1.005659937858582, 0.349240303039551, -0.339411288499832, -0.086247600615025, 0.967396318912506, 0.778278946876526, 0.053187251091003, 1.299285292625427, 0.953139722347260, 0.789751946926117, -0.630997955799103, -0.565793633460999, 0.130899339914322, 0.372504830360413, 0.444629997014999, 0.674190700054169, 0.062218930572271, 0.689319789409637, -1.037731409072876, -0.961251914501190, -0.055843587964773, 0.905222415924072, -0.450211286544800, 0.285939097404480, -0.397624075412750, 0.565590083599091, 0.153927341103554, 0.734082937240601, -1.306389570236206, 0.227916076779366, -0.458739370107651, 0.445190966129303, -0.087397910654545, -1.101555347442627, -1.158319234848022, -0.205387368798256, -0.184819683432579, 0.545530021190643, -0.279611676931381, -0.447885423898697, 0.202485784888268, 1.185817480087280, -0.882379889488220, 1.098696589469910, -0.471046507358551, -0.506404221057892, 0.836625218391418, 1.963423967361450, 0.212466806173325, 0.620266854763031, 0.142095908522606, 0.656076073646545, -0.093163795769215, -0.786298453807831, 0.505203366279602, -0.208359524607658, 0.797746241092682, 0.728767156600952, -1.375765085220337, 0.846199154853821, 1.331172108650208, 0.123893141746521, -0.295083165168762, 1.190687417984009, -0.547637879848480, 0.441086322069168, -0.618627130985260, 1.546698808670044, 0.741031289100647, -0.600335657596588, -1.118633985519409, -0.980811893939972, -0.158071264624596, 0.146572709083557, -0.501839935779572, -0.125492259860039, 0.743797957897186, -0.082349538803101, -0.908582031726837, -0.349871814250946, 1.363524794578552, 1.100478887557983, -0.573016762733459, 0.764071464538574, -0.625502109527588, 0.596320509910583, -0.180924251675606, -0.503472685813904, 0.197587564587593, 1.658453583717346, 0.407485157251358, 0.300534009933472, 1.309303402900696, -0.340130984783173, -1.057434320449829, 0.706005513668060, -0.714006304740906, 0.195288270711899, -0.318951219320297, 0.585544884204865, -1.628789901733398, 0.158056899905205, -1.181713581085205, 1.769278645515442, -0.205548629164696, 0.175075113773346, 0.333466291427612, -1.174247503280640, -0.193311542272568, -0.249566987156868, -0.122155651450157, 0.490097373723984, 1.039048671722412, -0.262787908315659, 0.577301084995270, 0.017490185797215, 0.493916958570480, -0.342017412185669, -0.205802708864212, -0.724409759044647, 0.180288508534431, -0.154857531189919, 0.779563009738922, 0.918128490447998, 0.724036991596222, -0.359745264053345, -0.898646175861359, -1.550170898437500, 0.467364132404327, 1.770004510879517, -1.249117255210876, -0.828896522521973, -0.538075268268585, -0.498591840267181, -0.254626274108887, -1.616909384727478, 1.129448413848877, 0.137261286377907, -0.335240662097931, -0.768769025802612, -0.037167005240917, 0.787423133850098, 0.697411477565765, -0.337333232164383, -0.043116979300976, -0.578358948230743, -0.855935931205750, 0.623530924320221, -0.715467572212219, 0.977226912975311, -0.115481488406658, 0.674411892890930, -0.490426242351532, 0.654639363288879, -0.134679973125458, -0.500812351703644, -1.464634299278259, -0.393885850906372, 0.466217786073685, 1.646018028259277, -1.562218546867371, 1.018587708473206, 1.045982837677002, 1.599269390106201, 0.792123675346375, 0.532226026058197, 0.469708442687988, -0.807683408260345, 0.058417804539204, 0.399564325809479, -0.238280802965164, 0.008386922068894, 0.055484630167484, 0.404995858669281, -1.888279795646667, 0.264547348022461, -0.820515990257263, 0.917822957038879, 0.346302598714828, 0.084758862853050, 0.370649576187134, 0.717371344566345, -0.437090694904327, 0.289346933364868, 0.510358452796936, -1.129580020904541, -0.621200859546661, -0.487134844064713, 0.598800361156464, 0.357465922832489, 0.958473563194275, -0.190780401229858, -1.578236460685730, -0.404885679483414, 0.387289375066757, -0.112823151051998, 0.561429619789124, 1.277624011039734, 0.657808184623718, 1.486742496490479, -0.866302669048309, 0.184357643127441, 0.365583240985870, 0.635422825813293, 0.559978127479553, -0.883712112903595, 1.131627678871155, -0.188674703240395, 0.751938998699188, 0.068749420344830, 0.078453779220581, 0.953232705593109, -0.275648504495621, 0.505487442016602, 0.261584430932999, 1.507397651672363, 0.455770939588547, 0.286983668804169, -0.143021568655968, 0.549926996231079, 0.454100906848907, -0.374817788600922, 1.013513326644897, 1.946797013282776, 0.298271209001541, -0.574128687381744, 0.641824662685394, -0.862470328807831, 1.363835930824280, -0.282554656267166, -0.478040665388107, 1.125665307044983, 0.996594130992889, 1.273844361305237, 0.034597594290972, -0.326987773180008, -0.316458582878113, 1.529820203781128, 0.938707172870636, -1.425994873046875, -0.803819656372070, -0.129145681858063, -0.334434270858765, 0.569700002670288, 1.412249684333801, 0.342058390378952, 0.615527987480164, 1.167791008949280, 0.605845212936401, 0.920933783054352, 0.221884191036224, 0.164866521954536, 0.555981218814850, 0.793060541152954, -0.535845458507538, -0.328921109437943, 1.249142765998840, 0.594167590141296, 0.246656358242035, 0.698117733001709, -0.084687039256096, 0.579981267452240, -0.850408136844635, -1.060441374778748, 0.639437973499298, 1.470362424850464, 0.233404263854027, -0.038088884204626, 0.275938212871552, -1.206393241882324, 1.242171287536621, 0.286972761154175, 0.939916849136353, 0.476558238267899, -0.820257961750031, -0.674754679203033, -0.977723777294159, 1.248012542724609, 0.458894044160843, 0.510343253612518, -0.276665031909943, -1.236195206642151, 0.818168222904205, 1.166233420372009, 1.264288663864136, 0.409424245357513, 0.673187255859375, 0.767210960388184, 1.449176430702209, 0.311240971088409, -0.547389984130859, -0.769070029258728, 0.773911952972412, -0.357747852802277, 1.511780023574829, 1.421050310134888, 0.112996153533459, -0.903524518013000, 0.327762782573700, -0.182534053921700, 0.336318582296371, -0.558276414871216, 1.476736426353455, -0.487943708896637, -0.019078237935901, 0.210570856928825, 0.084759332239628, 1.059897065162659, 0.999758481979370, 0.226191118359566, 1.097186088562012, 0.184052482247353, -0.556095778942108, 0.753742694854736, 0.516131758689880, 0.434854537248611, -0.021751204505563, 0.888613641262054, 0.398130297660828, 1.239088058471680, 0.894530057907104, 0.537006020545959, 0.617640554904938, 0.592745006084442, 0.978953123092651, -0.803675830364227, -0.322217404842377, -0.568910658359528, 0.286621868610382, 0.998039007186890, -0.964982867240906, -1.096501708030701, -1.078953623771667, 1.032667636871338, -1.194931387901306, -0.350816577672958, -0.287043899297714, 0.788128852844238, -1.445001006126404, -0.249575287103653, 0.859002649784088, -1.738206386566162, -1.230664968490601, -0.479979395866394, -0.118343584239483, 0.526230812072754, 0.165281221270561, -0.213213264942169, 0.921157181262970, -0.232247278094292, 0.910068869590759, 0.848064303398132, 0.606576263904572, 0.437093466520309, -0.492731183767319, -0.465488880872726, 0.838264226913452, -0.937094986438751, -0.386431872844696, -0.397034615278244, -1.015506625175476, 0.178654342889786, -0.345798462629318, -0.108559623360634, -0.690114557743073, -0.609006226062775, 0.725160539150238, 1.472300410270691, 0.501469194889069, -0.983483433723450, -0.887517452239990, 0.070278130471706, 0.338477969169617, -0.925154805183411, 0.962603449821472, -0.780815720558167, 1.135260581970215, 0.047464832663536, -0.532038867473602, -0.269910395145416, -0.267124980688095, 1.242997765541077, 0.827268660068512, -0.576998174190521, -0.968891620635986, 0.256365060806274, 0.238251402974129, 0.349145412445068, 1.599656939506531, -0.510498106479645, -0.354921311140060, 1.083573222160339, 1.041756033897400, -0.707949638366699, -1.827953100204468, 0.002208450576290, -0.042484909296036, -0.438222557306290, 0.181581377983093, 0.197405532002449, 0.450068622827530, -0.037003673613071, 0.923273503780365, 1.555080652236938, 0.177624121308327, 0.500477969646454, 0.543399751186371, 1.263429045677185, -0.714430809020996, -0.998443424701691, 0.161685809493065, 0.124402813613415, 1.588722229003906, 0.454601407051086, 0.651247978210449, -0.410528987646103, 0.793170452117920, 0.743755996227264, 0.989689469337463, -0.007689634338021, 1.055184364318848, 0.956532001495361, 0.652191758155823, 2.422074794769287, -0.178066939115524, 1.286120176315308, -0.956515312194824, -0.425452053546906, 0.493491649627686, 0.491765350103378, 1.074312806129456, -0.720617413520813, -0.085637331008911, 1.609239935874939, 0.482410281896591, 0.878168225288391, 1.222035765647888, -0.431508123874664, -0.246682509779930, 0.096880264580250, 0.424910217523575, 1.374718427658081, 1.050520896911621, -0.395955771207809, 1.419403553009033, -0.159522384405136, 1.673565149307251, 0.071616679430008, -2.081998586654663, 0.512459635734558, -0.571996450424194, -0.363057017326355, 1.110790252685547, 1.117281556129456, 0.565532743930817, 0.521467626094818, -0.183321967720985, -0.197015866637230, -0.299502581357956, -0.622070908546448, 2.026302099227905, 0.372946858406067, -1.405205607414246, 0.341745942831039, 0.718758583068848, 0.286449015140533, 0.647281348705292, -0.502640187740326, -0.206944122910500, -0.420230478048325, -0.463776201009750, 0.534847438335419, -0.262970179319382, 0.858237743377686, 0.128494963049889, -0.057424586266279, 1.114962697029114, -1.081339001655579, 1.294790387153625, -0.486081987619400, -0.391255170106888, 0.093849241733551, 0.814366042613983, 0.717074632644653, 0.462469369173050, 0.250799298286438, -0.435761123895645, -1.600944876670837, -0.293728888034821, -0.467851579189301, 0.026575986295938, 0.150265112519264, 0.419922053813934, 1.056264758110046, 0.239200964570045, 1.212827563285828, 1.116278290748596, 0.291755318641663, 0.890709280967712, 0.750176131725311, 1.283488512039185, 1.423291444778442, -0.341281086206436, -1.295336961746216, 0.831257402896881, -1.027131915092468, 1.286975622177124, 0.443717420101166, 1.051100134849548, 0.576919436454773, 1.268119692802429, 0.960658073425293, -0.571881175041199, 0.798591315746307, -0.267853826284409, -0.101379446685314, -1.709372639656067, 0.699954152107239, 0.724854528903961, 0.453390419483185, 0.623646378517151, -0.325898021459579, -1.665529012680054, 1.122638702392578, 0.982906341552734, -0.399138838052750, -0.052660048007965, -0.242695748806000, 0.952724754810333, 0.032693896442652, 0.351107031106949, 1.728209614753723, 1.041126489639282, -0.588526427745819, -0.406077116727829, 0.751717627048492, 0.718686044216156, 0.833874344825745, -0.301426708698273, -0.424269258975983, 1.916395902633667, -0.032081898301840, 0.138538509607315, -0.431177228689194, 1.121492266654968, -0.069437026977539, -0.064878836274147, 0.270087122917175, 0.649745106697083, -0.657139182090759, 0.603308141231537, 1.968753814697266, 0.506238043308258, 0.801694631576538, 0.424701482057571, 1.465079545974731, 0.405344158411026, 0.134907528758049, 2.427911996841431, 1.336296319961548, 0.124877914786339, 0.755227148532867, 1.210536956787109, 0.935723066329956, -0.428686380386353, 0.217224001884460, 0.257497847080231, 0.104233257472515, -0.852361500263214, 0.362716615200043, 1.638721942901611, -0.026222625747323, -0.950823962688446, 0.850220203399658, 0.394660890102386, 0.105640508234501, 1.402010679244995, 0.660352349281311, 0.589100718498230, 0.817577421665192, 0.370121300220490, -0.041519783437252, 1.530598044395447, -0.417552888393402, 0.169350653886795, 1.257181525230408, -0.365815073251724, -0.812634408473969, 0.500275194644928, 0.061634045094252, 1.807763218879700, -0.034584026783705, -0.052974913269281, 0.882805585861206, 0.998178839683533, 0.237819343805313, -0.040124822407961, -0.360278934240341, 0.190468266606331, 0.179679751396179, -0.096165657043457, -0.101273924112320, 0.439449697732925, 1.369087338447571, 0.862748026847839, 1.385874986648560, -0.609248101711273, 0.659658074378967, 0.019044309854507, 0.580546498298645, -0.282535076141357, 0.203025802969933, -0.066774629056454, 0.152677237987518, -1.127590656280518, 0.959798634052277, 0.882452905178070, -1.143209934234619, 0.307979613542557, -0.567464530467987, 0.875133335590363, -0.575746953487396, 0.471748679876328, -0.884611964225769, 0.679150104522705, 0.171501994132996, 1.234494209289551, -0.485344260931015, -0.986410081386566, -1.008084416389465, 0.308873265981674, 1.016384243965149, 1.021543264389038, 0.525414288043976, 0.010807475075126, 0.497610300779343, -1.079279780387878, 0.636566221714020, 0.492738008499146, 1.033914566040039, -0.769614636898041, 0.330101579427719, 0.421639561653137, 0.850780785083771, -0.254631370306015, -0.858887791633606, 1.081078767776489, -1.180016875267029, 0.963159859180450, -0.615260839462280, 0.953831851482391, 0.546448051929474, -0.533158838748932, -0.910643935203552, 1.055551171302795, 0.417791157960892, 0.052690342068672, 1.059654355049133, 0.088181145489216, -1.221934080123901, -0.145282924175262, 0.568675458431244, 0.297044485807419, -0.109974950551987, -1.474132895469666, -0.196673929691315, 0.589338779449463, -0.613908588886261, 1.448361396789551, 0.387500762939453, 0.647768974304199, 0.244748502969742, 0.933417797088623, -0.231204092502594, -0.902285933494568, -0.645654618740082, 0.659657299518585, 0.709912955760956, -0.347465038299561, -0.553401410579681, -1.009059786796570, 0.344914555549622, 0.988168895244598, -0.113167189061642, 1.169053196907043, 0.708011031150818, -0.373346298933029, -0.963749468326569, -0.152106061577797, 0.055768020451069, -0.081143066287041, 1.557658433914185, 0.275291204452515, -1.106382727622986, -0.612570881843567, -0.699451088905334, -0.326205283403397, -0.208873480558395, 0.070160821080208, 1.825887084007263, -0.098376020789146, 0.802672028541565, 0.856183171272278, -0.435472458600998, 1.672635555267334, -0.160851776599884, 0.470727086067200, -0.323041379451752, -0.211799308657646, 0.073805920779705, 1.277596235275269, 0.462945282459259, -0.748609364032745, -0.321658492088318, -0.427727609872818, 0.066266678273678, -0.087100826203823, 0.239840060472488, -0.858084738254547, 0.159656792879105, 0.528869867324829, 0.016758000478148, -0.057272281497717, -0.380543828010559, 0.520646393299103, 0.542443096637726, 0.072228804230690, 1.240834474563599, -0.376163274049759, 1.838462114334106, -0.217678174376488, 0.421943038702011, 0.729789018630981, 0.982849299907684, -0.590653955936432, 1.631052255630493, 0.609918117523193, 0.141667395830154, -1.491338729858398, -0.386043906211853, -0.417431145906448, 0.425244569778442, 0.873164713382721, -0.051965925842524, -0.402445524930954, 0.372163921594620, 0.060730267316103, 0.475360155105591, 0.212444782257080, 0.033341873437166, -0.336436361074448, -0.199127510190010, 1.310139894485474, 0.281902015209198, -0.257498145103455, 0.450921356678009, -0.328597187995911, -0.680739820003510, -0.558857440948486, -0.092823438346386, -0.880490422248840, -0.769616365432739, 0.561585724353790, 0.211555019021034, -1.834133028984070, 0.045263346284628, 1.642340183258057, -1.455388665199280, 0.368640929460526, 0.118014790117741, 1.621763825416565, -0.260325551033020, -0.480063527822495, 0.464053004980087, 0.353189706802368, -0.602486729621887, -0.508754491806030, -1.021955609321594, 1.908828139305115, -1.631824970245361, 0.070424288511276, 0.202412471175194, 1.177137374877930, 0.587683558464050, -0.205420508980751, -0.847454607486725, 2.187167167663574, -0.445528954267502, 0.100714080035686, -0.855140626430511, -0.193449288606644, 0.676412761211395, -1.046591401100159, -0.194370537996292, 0.556353032588959, 0.175719469785690, 0.705349981784821, -0.165586769580841, -0.247054412961006, 0.486847251653671, -0.363490313291550, 0.060931496322155, -0.291443794965744, 0.176638454198837, 0.224663272500038, -0.055026259273291, 1.980782389640808, 1.612177968025208, -0.436793386936188, -0.186187997460365, 1.140994668006897, -0.008855017833412, 0.735486924648285, 1.623776316642761, 0.440507918596268, 1.922393560409546, -0.098177485167980, 0.531255543231964, 0.344295024871826, 1.427102208137512, 0.283211976289749, 1.468098282814026, 1.264093399047852, 0.574378967285156, 0.455194830894470, 0.390323072671890, 0.723320126533508, -0.290100485086441, -0.146049499511719, 0.783423542976379, 0.832705497741699, -0.177636936306953, -0.127112239599228, 1.155175209045410, 0.340970516204834, 0.977282285690308, 0.642572999000549, 1.342430949211121, 0.843661844730377, -0.427806347608566, 0.639914929866791, -0.026265300810337, 0.431552767753601, 0.433469831943512, 1.741721630096436, 0.005201333202422, 1.377006649971008, 0.712401330471039, 0.892504692077637, 0.810502171516418, 1.223617911338806, -0.416804701089859, 0.660096347332001, -0.838638424873352, 1.015917897224426, 1.043282032012939, 1.434628486633301, -0.064260557293892, -0.242973804473877, -0.229567110538483, 0.489496409893036, 2.155923366546631, 0.024393634870648, 0.615741074085236, -0.009662234224379, 0.331943809986115, -0.154652982950211, 0.038892947137356, -0.848650336265564, -1.341248393058777, 0.765331506729126, 0.777039766311646, 1.048554897308350, 1.462608098983765, 1.569023847579956, 1.086103081703186, 0.711213052272797, 0.419842064380646, 0.446076214313507, 0.911721467971802, 0.111487999558449, 0.904798567295074, -0.311829984188080, -0.320481389760971, 0.621878504753113, -0.635104835033417, -0.236325681209564, 1.627870440483093, 0.593751132488251, 0.603191196918488, 0.681312859058380, -1.338644027709961, 0.388552069664001, 1.293906450271606, 0.881329298019409, 0.412686467170715, 0.777812898159027, 1.030646562576294, 0.961100459098816, 0.697999656200409, 0.665792405605316, -0.837335348129272, -0.237089604139328, 0.049523428082466, 0.655057609081268, 0.350004047155380, 0.594585835933685, 0.143591701984406, 0.816358983516693, -0.715770661830902, 0.029385808855295, 0.437561154365540, 0.715434372425079, -0.438090175390244, -0.193082228302956, 0.666533827781677, 0.348186045885086, -1.095529079437256, -0.504366636276245, 0.254451543092728, -0.039881519973278, -0.362059175968170, 1.198529958724976, 0.541555166244507, -0.460744827985764, 1.324854969978333, -0.517640173435211, 0.634624361991882, 0.260885745286942, 1.367630004882812, 0.557933330535889, 1.012191891670227, 1.179979205131531, 0.661746978759766, 1.542610406875610, 1.335593461990356, 0.087594844400883, 1.716735124588013, -0.800048410892487, 1.037470221519470, -0.558459162712097, -0.618703961372375, -0.660290122032166, 1.335212945938110, 0.196128353476524, -0.494211524724960, 1.665342450141907, 1.387446165084839, -0.957277595996857, -0.592707574367523, -0.407325804233551, -0.127862319350243, 1.506570100784302, 0.273843973875046, 1.297166347503662, 0.725223183631897, 1.419495105743408, -0.684248745441437, 1.790867567062378, 0.849541306495667, 1.332020998001099, 1.018288373947144, -0.458428770303726, 0.410072743892670, 1.661891937255859, 0.700852990150452, 0.582947611808777, 1.375373482704163, -0.288182914257050, 1.494843482971191, -0.007161640096456, -0.317778468132019, 1.167619228363037, 0.510105371475220, 0.890811324119568, 0.586601614952087, 1.496616482734680, 0.035653188824654, 1.285328030586243, 0.957513570785522, 0.222120180726051, 1.263378262519836, 0.186884984374046, -0.468163043260574, -0.283600717782974, -0.707693278789520, 0.502515912055969, 0.800570309162140, -0.887848019599915, 1.331152796745300, 1.070265531539917, 0.559120535850525, -0.664863824844360, 0.596735239028931, 0.758776605129242, 1.282704710960388, 0.627791106700897, 0.376248627901077, 0.796922445297241, 1.096208572387695, 1.269141912460327, -0.431301236152649, 1.680318117141724, -0.367967158555984, 1.608744621276855, -0.660472214221954, 1.350430250167847, -0.477072268724442, 1.274663925170898, 1.120840907096863, 0.859930992126465, -0.458330482244492, 1.473372936248779, 1.518859267234802, 1.103090643882751, -0.830079376697540, 0.296202570199966, -0.878752410411835, 1.270478248596191, 1.277387261390686, 0.752045392990112, -0.419863104820251, 0.709459245204926, 1.802054047584534, 1.373989582061768, 1.365240216255188, -0.012535988353193, -0.660578608512878, 1.002855181694031, 0.078433185815811, 0.873359978199005, -0.553705871105194, -0.958853185176849, -0.149847909808159, 0.633858382701874, 1.310155153274536, -0.501567363739014, 0.654096364974976, 1.206103563308716, -0.655449390411377, 0.329709261655807, 1.269496440887451, 0.088175907731056, -0.799820840358734, 0.979444742202759, 1.201817274093628, 0.192485690116882, 0.265700578689575, 1.188186407089233, 1.213319420814514, -0.098613098263741, -0.518311560153961, -0.304130792617798, -1.004084110260010, -0.157857045531273, 1.311068534851074, 1.136110305786133, -1.172216534614563, -1.305677056312561, -0.866961956024170, 