//Numpy array shape (546,)
//Min -2.279603481293
//Max 2.481771230698
//Number of zeros 0

#ifndef IN_PROJ_BIAS28_H_
#define IN_PROJ_BIAS28_H_

#ifndef __SYNTHESIS__
layers_3_self_attn_in_proj_bias_t in_proj_bias28[546];
#else
layers_3_self_attn_in_proj_bias_t in_proj_bias28[546] = {-0.089381068944931, 0.037205453962088, 0.000003658239848, -0.000006986998869, 0.744697213172913, -0.382448285818100, -0.027205388993025, -0.061994783580303, 0.000003543743105, 0.000007091832686, -1.093680143356323, -0.304818660020828, 0.010451951995492, 0.298087745904922, -0.000000107148537, -0.000020366096578, 1.072082757949829, 0.172480598092079, -0.026649894192815, 0.001812716014683, 0.000005356577731, -0.000007114967502, 0.443427860736847, -0.230904027819633, -0.034990642219782, 0.077276319265366, 0.000002590692247, -0.000005859999419, 0.048888280987740, -0.287951231002808, -0.041243571788073, 0.033964842557907, -0.000009248941751, -0.000005185647296, -0.774423003196716, 0.081297956407070, 0.108422033488750, -0.004917972721159, -0.000007202438610, 0.000001078965170, 0.276875585317612, -0.007789580617100, 0.039889108389616, 0.056665346026421, -0.000016086018150, -0.000001855602250, -0.515826463699341, 0.501986026763916, -0.062827177345753, -0.177859932184219, -0.000000443938461, -0.000005296483323, -0.230351567268372, -0.702661871910095, -0.061436671763659, -0.028471514582634, 0.000012524200429, 0.000004878342224, -0.345120698213577, -0.248109668493271, -1.933266401290894, 0.025283560156822, -0.000026123372663, -0.000001360174792, -0.575457990169525, -0.164305135607719, 0.079578801989555, -0.204008460044861, 0.000000879015545, -0.000012222812984, 0.073704555630684, 0.350906252861023, -0.017725324258208, -0.076133549213409, 0.000005567268090, -0.000002079063506, -0.230081856250763, -0.893358826637268, -0.286953896284103, 0.024460542947054, -0.000005927729489, 0.000001323172341, -0.313774883747101, 0.019215516746044, 0.000394064321881, -0.070623874664307, -0.000001193308549, -0.000006194371508, -0.327089160680771, 0.367302596569061, 0.108185447752476, -0.299575686454773, 0.000018573924535, -0.000015268054995, -0.955082833766937, -0.008029240183532, 0.051694601774216, 0.001878084964119, 0.000018304370315, 0.000006478315754, -0.337505728006363, 1.619628548622131, -0.130817055702209, -0.202360779047012, -0.000012792778762, 0.000014586093130, -0.922367870807648, 0.295427620410919, 0.106242232024670, 0.183580651879311, 0.000001962957413, -0.000022281799829, -0.492351561784744, 0.685710847377777, -0.157573804259300, -0.057681605219841, 0.000008681654435, 0.000008853321560, 0.152600973844528, 0.320693254470825, -0.103397496044636, -0.023596284911036, 0.000004414731393, -0.000001307163529, -0.211190938949585, 0.725172400474548, 0.009438635781407, 0.023389397189021, 0.000005625492577, 0.000000434066180, 0.515835165977478, -1.399114131927490, 0.031708635389805, 0.040613465011120, -0.000004565660220, -0.000009819906154, 0.028365010395646, 0.376196175813675, 0.392453551292419, 0.491727858781815, -0.000000419188638, 0.000006345065685, -0.200698941946030, -0.174055144190788, -0.068601608276367, 0.028937291353941, 0.000002289921440, -0.000004250660822, 0.469187080860138, -0.196488097310066, 0.058630295097828, -0.026508333161473, -0.000007974200344, -0.000000979128004, 0.222187951207161, 0.138089761137962, -0.021685587242246, 0.070955462753773, 0.000002210693992, 0.000010457491044, -0.781434953212738, -1.214408993721008, -0.002211854327470, -0.038076549768448, 0.000003236443945, -0.000001078511332, 0.946306467056274, -0.194529220461845, 0.075963638722897, -0.028964811936021, 0.000001806854243, 0.000001897823836, -0.663780510425568, 0.074368998408318, 0.153509750962257, -0.022705061361194, -0.000001481456593, 0.000002482105629, 0.170439749956131, -0.179490759968758, -0.003905142191797, 0.059391576796770, -0.000005214851171, -0.000004793449989, -0.087433718144894, -0.494467616081238, -0.064176961779594, 0.115247167646885, -0.000000353921877, 0.000003911234217, 1.405316591262817, -0.106869332492352, 0.011413527652621, 0.362784773111343, 0.000007077069768, 0.000007389580787, -0.466573148965836, 0.267492830753326, 0.048661105334759, -0.319965302944183, -0.000007499678759, -0.000002300037295, -0.390741676092148, 0.284060031175613, 0.006804657168686, -0.023568926379085, 0.000002397250455, 0.000008628825526, 1.664847135543823, 0.254645794630051, 0.022104689851403, 0.123260803520679, 0.000011009024092, -0.000013577289792, 0.055279582738876, -0.103381104767323, -0.032234568148851, -0.191163927316666, 0.000000074260711, 0.000006053951893, -0.308745920658112, -0.418300181627274, -0.078729331493378, 0.032587803900242, 0.000001481633149, 0.000006902210771, 0.351207107305527, 0.318863421678543, -0.130710810422897, 0.083358220756054, 0.000012916107153, -0.000000343517542, -0.160120874643326, -0.171805799007416, 0.036701347678900, -0.100416682660580, -0.000003091133749, 0.000000988352440, -0.277339160442352, 0.154773905873299, -0.016734482720494, 0.113231122493744, -0.000009253003554, -0.000003108025794, 1.769561529159546, 0.490552425384521, -0.267930567264557, 0.262252181768417, 0.000004204885045, 0.000008452817383, -0.326560616493225, 0.197027176618576, 0.060220282524824, -0.025516951456666, 0.000015539557353, 0.000007265404747, -0.461717098951340, 0.416024118661880, -0.075482949614525, -0.112883932888508, 0.000011375903341, -0.000012356238585, 2.310415983200073, -1.317227005958557, -0.053067285567522, 0.041863441467285, -0.000008764369340, 0.000007574719348, -0.297405660152435, -0.494850307703018, -0.091882556676865, -0.090870209038258, -0.000009092089385, -0.000003211792318, -0.108775086700916, 0.206328317523003, 0.005308861378580, -0.021019117906690, 0.000001766817604, -0.000002528699042, 1.336776852607727, 0.197289660573006, 0.036139719188213, -0.173846870660782, 0.000004330770480, -0.000008854295629, -0.064578741788864, -0.998953402042389, 0.040366567671299, 0.005107873119414, -0.000006287631550, 0.000009781388144, 0.557025313377380, -0.169446617364883, -0.001577401068062, -0.043472267687321, -0.000011034271665, -0.000002094608817, -0.053613383322954, -0.058913942426443, 0.057633422315121, 0.015356209129095, -0.000007703686606, 0.000002557134849, 0.210007518529892, 0.302193671464920, 0.028282055631280, -0.023634310811758, -0.000002925851732, 0.000001861030569, 0.391449302434921, -1.058579206466675, 0.245816498994827, 0.110879227519035, -0.000002149690545, -0.000001737737534, 0.439410448074341, 0.154827475547791, 0.052660729736090, 0.081703908741474, -0.000008324045666, 0.000001473607540, 0.604484200477600, 0.344188332557678, -0.084726721048355, -0.090557530522346, 0.000006600749202, -0.000002734268946, 1.280959844589233, 0.379121452569962, -0.000637100427411, -0.084765061736107, 0.000000072147031, 0.000011050427020, -0.118563100695610, 0.796864330768585, 0.043499302119017, 0.061710108071566, -0.000002389342399, 0.000005082866664, 0.085128203034401, 0.001430889242329, -0.015926614403725, 1.402362108230591, -0.000000642057159, 0.000018065620679, -1.061765789985657, -0.047899123281240, -0.034286979585886, -0.778114020824432, -0.000013248956748, -0.000023856679036, -2.279603481292725, 0.015810571610928, 0.063089668750763, -0.042036004364491, -0.000001455935376, 0.000005964844149, -0.190329149365425, -0.765568554401398, -0.008548950776458, -0.002605075482279, 0.000001914160748, 0.000001555031645, -0.239589199423790, -0.499152898788452, 0.034914538264275, -0.166657984256744, -0.000000705653179, -0.000007604518942, 0.139723807573318, 0.651167154312134, 2.481771230697632, -0.241524830460548, -0.000023667344067, 0.000000763257390, 0.879194200038910, -0.459579765796661, -0.001897142268717, -0.067682862281799, -0.000001085774329, -0.000013068853150, 1.670949578285217, 0.698086977005005, -0.055264800786972, -0.259154349565506, 0.000000042773770, -0.000000105270153, 0.325732499361038, -1.192474484443665, -0.015077714808285, 0.075871974229813, -0.000003396537068, 0.000004933867785, 1.191468834877014, -0.574027836322784, -0.018371438607574, -0.079080976545811, 0.000004569405064, -0.000001956057076, 0.909358501434326, -0.201505556702614, -0.040588211268187, 0.012854279950261, 0.000001946176098, 0.000000187179324, 0.297908246517181, -0.003430161625147, -0.014553592540324, 0.042299211025238, -0.000005251597486, 0.000000020692315, 1.051683664321899, 0.616702079772949, -0.020052323117852, 0.105368115007877, -0.000000154270069, 0.000004724502105, 0.793770313262939, -0.311192393302917, -0.033011335879564, 0.070785574615002, -0.000004755107511, -0.000006027969903, -1.290843963623047, 0.713312029838562, 0.789726138114929, -0.130832523107529, -0.000006595106242, 0.000001231111469, -0.300289899110794, 0.081088759005070, 0.250485360622406, 0.053028911352158, -0.000004788812021, -0.000017567150280, 0.181444346904755, -0.544894754886627, -0.948029100894928, 0.011847922578454, 0.000011045426618, 0.000000051279013, 0.604662358760834, -0.149863854050636, -0.049854949116707, -0.099256888031960, 0.000003899721833, -0.000001451747835, -0.066255398094654, 0.534254014492035, -0.008910912089050, 0.150191351771355, 0.000000490577804, 0.000001452628453, 0.421483606100082, -0.066197551786900, 0.024600861594081, 0.004554718267173, 0.000001260634463, -0.000003029914751, 0.259863525629044, 0.457887440919876, 0.019870858639479, -1.181703329086304, 0.000004709752830, 0.000000263498606, -0.856428265571594, 0.430647522211075, 0.016141824424267, 0.032403647899628, -0.000005862753824, 0.000000409190761, -0.578158855438232, 0.538675248622894, 0.099125981330872, -0.126104697585106, 0.000001998686912, -0.000000624347820, 0.882739245891571, 0.456803172826767, -0.000326946727000, 0.025674613192677, 0.000000330311508, -0.000002398835250, -1.093152403831482, -0.131925418972969, -0.001288768136874, 0.070607207715511, 0.000004100208116, 0.000001825301638, -0.059882149100304, -0.438756763935089, -0.095755353569984, 0.010115806013346, 0.000000331200056, -0.000004102733783, -0.173824384808540, -0.105592913925648, -0.382989943027496, -0.017831325531006, -0.000000239433575, 0.000000823906134, 0.217293351888657, 0.542760789394379, -0.053953506052494, 0.262689828872681, -0.000005257619705, 0.000003248935855, -0.725025117397308, 0.064761601388454, -0.121461518108845, -0.037546470761299, -0.000004160491699, -0.000008348401025, 0.475236535072327, 0.154520437121391, 0.126773610711098, 0.238752037286758, -0.000001701264409, -0.000018687196643, 0.780545830726624, -0.675702810287476, -0.075554423034191, 0.083143576979637, -0.000004353466011, 0.000009012841474, 0.681407928466797, 0.291522115468979, -0.043290328234434, -0.034478615969419, -0.000004019728294, 0.000007124405784, 0.842593908309937, 0.682810962200165, 0.012095749378204, -0.054633788764477, -0.000001707835054, 0.000000346380205, 0.247514158487320, 0.001261610770598, 0.023072170093656, 0.040681872516870, -0.000005355756002, 0.000004204983725, -0.093182347714901, -0.667408704757690};
#endif

#endif
