2.0411379337311, -1.0262787342072, -0.8484874367714, 0.3860205411911, -0.5188259482384, -0.1117313206196, 0.5537799596786, 0.4727503657341, -0.7972996830940, 0.3249001204967, -0.1732814460993, -1.8027024269104, -1.3452638387680, 0.7306513786316, -0.1107845753431, -0.8211359977722, -1.4127937555313, 1.1990411281586, 0.1408809274435, -1.0208374261856, -0.1752754896879, 0.3812355399132, 0.8546833395958, -1.2021988630295, 0.0388658642769, -0.6622704863548, 0.8689274191856, -0.4342961907387, 1.4468952417374, 0.1818646937609, 0.2204756289721, 1.1311039924622, -0.9159002900124, 0.5668991804123, 0.5272691249847, 1.1015312671661, 0.6505382657051, -0.1868113577366, -1.1219840049744, -0.0131873609498, 2.2182950973511, 0.6517779231071, -0.8443789482117, 2.0667622089386, -0.3897758424282, 0.1369135081768, -0.3377646207809, 1.4025585651398, -1.6290304660797, -0.3690372109413, 0.8811655044556, 0.0497012771666, 0.0360829234123, -0.1878311336040, -0.2125761657953, 1.2338232994080, -0.0392615571618, 0.7767184376717, 0.2069204747677, 0.1419422626495, 0.0221246499568, -0.0161273740232, -1.8364562988281, 1.3938426971436, 0.0221354849637, -0.6117227673531, -0.8785254359245, 1.8052126169205, 0.5489095449448, -0.9763778448105, 0.6308634281158, -1.5763834714890, -1.0172414779663, -1.5489450693130, 2.5130949020386, -0.6353849768639, -0.5803753137589, -0.2307394742966, -1.5641484260559, 0.6164309382439, -0.0228157620877, -1.0536707639694, -0.8827682137489, 1.1963268518448, -0.9452289938927, -3.2009704113007, 0.5906600356102, 0.3084276914597, -0.7468150854111, 1.5027551651001, -0.5161899328232, -0.7459156513214, -0.7895424365997, 1.8867115974426, -0.4058556854725, -0.4223292171955, -0.5109603404999, -0.5639168024063, 1.8394330739975, 1.3880925178528, -0.2892353236675, 0.1948253810406, 3.1888387203217, 0.4576609432697, 0.7754848599434, -0.6239981055260, 0.6739385128021, -0.7928860187531, 1.6211251020432, 1.2052791118622, -0.1389554888010, 1.4771614074707, 0.2817137539387, -0.1840836703777, -0.7256093025208, -1.4798824787140, 1.6524407863617, 1.0460563898087, -0.1940099447966, -0.8125361204147, 0.1332888305187, -0.1672241687775, -0.5655612349510, -2.2324528694153, -1.0226671695709, -0.9388803839684, 0.5066893696785, 1.4111094474792, -0.4902175664902, -0.1157185509801, 0.2037632018328, 1.1655086278915, -1.7919913530350, -0.3071293234825, -0.4695666432381, -2.1369452476501, -1.4461174011230, 1.1095627546310, 0.8367741107941, 1.2855718135834, -1.1473624706268, -1.8853108882904, 2.7413620948792, 0.2506784200668, -2.6751360893250, -0.0579708144069, 0.4418404400349, 0.0177492443472, 1.5940034389496, -0.3252416551113, 0.3397341966629, 0.6715956330299, -0.0255448296666, 0.3487927317619, 0.0479819439352, -0.9141520261765, -0.7430297136307, 1.8400822877884, 2.4653205871582, -0.2604524493217, -0.8128270506859, -0.8215852379799, -0.4311228394508, 0.6554238200188, -0.1885591745377, 1.8067218065262, 0.6884278655052, -2.1426157951355, -0.8681812882423, -0.1759804636240, -1.0946203470230, -0.2764768004417, 0.6566206812859, 0.1184151768684, 0.0724917203188, -0.2586862444878, 0.4613656997681, 0.2599813342094, 0.3848688304424, -0.1274573206902, -0.0355271734297, -0.3329649865627, -1.3804258108139, -0.1273975819349, -0.8271626830101, 3.0697636604309, 0.1969468295574, -0.2953069508076, 0.2746729254723, 0.2189103662968, -0.2871316373348, -0.3848621845245, -0.3004316985607, 0.2003903090954, 1.8805415630341, 1.4511696100235, 0.6228268146515, -0.4338046014309, -0.1043424904346, 1.0006227493286, 0.5159429311752, -0.6704575419426, 0.1462676227093, 0.0713242292404, 0.5988213419914, -0.0150578534231, 0.3113052546978, -0.0506540872157, 0.4466819465160, -0.4302460551262, 0.6618292927742, -0.3628393709660, 0.9723255038261, -0.4680809080601, 0.3791606128216, -1.2549427747726, -0.8112823367119, 0.3727556467056, -0.3269534707069, -0.2750652432442, -0.0441279709339, 0.3251703083515, -0.1605837494135, -0.2685873210430, -0.1339724361897, -0.0296001601964, -0.0822357013822, 0.3154128193855, 0.1897910684347, -0.6711071133614, 0.0871363580227, -0.2781618535519, -0.5423579216003, 0.7795848846436, -0.2895735502243, 0.8773155212402, 0.1880670636892, 0.5577065348625, 0.3708695769310, 0.5394381284714, 0.5605894923210, 0.7178359627724, -0.1298269182444, -0.7334924936295, 0.0833019986749, -0.7417659163475, -1.1766021251678, 0.1266020387411, -0.1918511688709, 0.2496934235096, 0.0481328479946, -0.2313974797726, -0.2418089061975, 0.9063186645508, 0.8584253191948, -0.1057552844286, -0.2533613145351, -0.1880692541599, -0.0369981974363, 0.0544067509472, 1.8542721271515, 0.1494112759829, -0.2223390638828, 0.7090239524841, -0.6016517281532, 0.6606876254082, 0.5911273360252, -0.0917906165123, 0.8142848610878, -0.0424209721386, 0.9371452927589, 0.2881799936295, -0.0637809634209, -0.8329812288284, -0.5210623145103, -0.2132297009230, 0.1206592842937, 0.6585041880608, 0.2141180783510, -0.3947340548038, -0.2388524562120, 0.1915610283613, -0.4675258100033, 0.6883314847946, 0.1704719364643, -0.2966388463974, 0.3366977274418, -0.1507410109043, 0.0293936096132, -0.0796317085624, -0.0420351400971, -0.6529164314270, 0.6201927065849, 0.0883282572031, -0.2466463297606, -0.1398576796055, 0.5682948827744, 0.5485872030258, 0.7801524400711, -0.1079791858792, -0.4135852158070, 0.1498129665852, -0.4595218300819, -0.0366688743234, 0.8218823671341, 0.0484395287931, 0.3150153756142, 0.3665730357170, -0.3023824095726, -0.1042555645108, 0.5833531618118, -0.2050840109587, -0.0903693735600, 0.3789111673832, 0.8351025581360, 0.3533609509468, -0.0548662990332, -0.1993575245142, -0.9907050132751, 0.2529307901859, 0.4996252357960, -0.3837832212448, 0.4742895066738, -0.5731527209282, -1.0062558650970, -0.4243048727512, -0.1567689180374, 0.9740482568741, -1.6170233488083, -1.3951586484909, 0.0947837755084, 0.1806673854589, 1.0792793035507, -0.0625037699938, -0.1018454134464, 0.5881003737450, -0.5943043828011, -0.2965411543846, -0.0920382067561, -1.1379524469376, 0.7370696663857, -0.4584877789021, 0.3007093071938, -0.8115340471268, 0.1142382919788, -0.0027376108337, 0.2915433645248, -0.4396461248398, -0.2605167627335, -0.0505184307694, -0.1195453181863, 0.2669574916363, 0.1875114291906, 0.5786064863205, -0.0396867841482, 0.3862999975681, 0.1043295785785, 0.0282913278788, -0.3921874165535, -0.3421874344349, -0.0447724126279, -0.5985083580017, -0.0899666398764, -0.0530097447336, 0.2252794355154, 0.0364362075925, -0.4894254207611, -0.0058940229937, -0.1596427261829, -0.1889220625162, 0.9447137713432, -3.7169828414917, -0.4521914422512, -0.0525373071432, -0.6603417992592, -0.0993337705731, 0.0263402462006, 0.4165376722813, 0.2598077058792, 0.4433651268482, 0.1751556694508, -0.4514709115028, 0.0124856894836, -0.1655537635088, 1.0729125738144, 0.1232494860888, -0.1073031947017, 0.2841692566872, -0.5568574666977, 0.3862343430519, 0.1172128990293, 0.2949936389923, -0.8852563500404, 0.2192897647619, 0.1251025795937, 0.6848872303963, -0.4209465086460, -0.0624180696905, 0.1767475754023, -0.0509678721428, 0.1902934461832, -0.1778358668089, -0.4155381023884, -0.8857601284981, 0.1090759709477, -0.0920825451612, -0.3407015502453, 0.0897408127785, -0.2300947904587, 0.5666960477829, -0.1211511418223, -0.2805535793304, -0.1562224328518, -0.2827340364456, -0.0075658583082, 0.0699704140425, 0.4315274953842, -0.1926992684603, 0.1379094272852, -0.1403009444475, 0.2455587685108, -0.0622494630516, -0.3448754549026, 0.0910200998187, 0.3712352216244, 0.1042928770185, -0.2145867049694, 0.2191104143858, 0.2317418903112, 0.0244471989572, -0.3130203187466, 0.8366089463234, -0.0146385943517, 2.1648917198181, 0.0705407932401, 0.6667312383652, 0.6771016716957, 0.5030680298805, 0.1523942500353, 0.8103463053703, 1.0811969041824, 0.2029570639133, 0.8932639956474, -1.1826078891754, 0.6028893589973, 1.0909297466278, 0.2180263251066, 0.0855737775564, -0.6455079317093, 1.0578987598419, -0.8110911250114, 0.5624204277992, 0.4141798019409, 0.1738385111094, -0.0547808110714, 0.8140527009964, -0.2198674976826, 0.0467219576240, 0.1694910526276, 0.1775236576796, -0.7058717012405, -0.3166017234325, 0.9485348463058, -0.7027137279510, -0.1753195375204, -0.6974269747734, -0.7020665407181, -0.1782692223787, -0.1591552644968, 0.3506087362766, 0.2658951580524, 0.0337902754545, -0.3518257141113, -0.1003557294607, -0.6932992935181, 0.3635988533497, 0.1667083501816, 0.2344515919685, -0.1139829233289, -0.9395567178726, -0.8608586788177, 0.2485680878162, -0.6144800782204, 0.1751827448606, 0.5004012584686, 0.0489112921059, -0.0717708468437, 0.5287674069405, -0.3901452422142, 0.5288782119751, 0.3138105273247, -0.1887114048004, -0.0664999112487, 1.8950066566467, -0.2812736630440, -0.1778211146593, -0.1184731498361, 0.4822296202183, -0.2553216814995, 0.2598787546158, -0.0536841005087, 0.1943174302578, 0.0013783520553, 0.3773289620876, -0.7016927003860, 0.2447862774134, 0.6962081789970, 0.2542273402214, -1.8869037628174, -0.2241414636374, 0.5481193661690, 0.1734006404877, -0.1586433649063, -0.1046982631087, 0.2128368914127, -0.6205066442490, -1.8212145566940, -0.1707788854837, -0.2158116996288, 0.6403818726540, 0.9730453491211, 0.1044084727764, 0.3675581514835, 0.2737149000168, 0.1404320299625, -0.1809344738722, -0.2328670173883, -0.3382593691349, -0.1230966299772, -1.1366244554520, 0.2307121157646, 0.1041995808482, -0.0272638313472, -0.7593048214912, -0.1435634791851, -0.1715930253267, -0.0544479563832, 0.2001676857471, -0.6858255267143, -0.3942458331585, 0.1361124068499, -0.1972090452909, 2.3902466297150, -0.2080952376127, 0.5785699486732, 0.0864044502378, -0.5829471349716, 0.0572195090353, 1.4275192022324, 0.9979782104492, -0.8814771175385, -0.6205039620399, -0.5955801606178, 0.2770960032940, -0.8075333237648, -0.5789030194283, -0.1279083937407, -1.6482809782028, -0.4949345290661, -1.0522398948669, 0.0180903952569, 0.6626101732254, -1.7034405469894, 0.3220084607601, 1.9294919967651, -1.4706888198853, 1.6612375974655, -0.2067622840405, -0.5074217915535, -0.6366116404533, -0.5567334294319, -0.3032458722591, -3.1055231094360, 0.0029650146607, 0.5855171680450, 0.0185212846845, -0.4946169257164, 0.4238100349903, 2.7045991420746, 1.3204032182693, 1.4205174446106, 0.3580613434315, 0.9672201275826, -0.0210798382759, 0.5114234089851, -0.5783843994141, -3.0874364376068, 0.0251277033240, 1.6871998310089, -0.2840529382229, -0.7321081757545, -0.4837166070938, -0.4379600584507, -0.9005993604660, 2.6051836013794, -2.1064219474792, -1.0273240804672, 1.1972318887711, -1.5262742042542, -0.8162308931351, 1.0698000192642, -0.3419033288956, 0.8318451046944, 0.7345144748688, 1.1318266391754, -0.4213573932648, -0.6233622431755, -0.2925699055195, -1.4827864170074, 0.5105624198914, -0.6968621015549, 0.2709426581860, 0.1274146586657, -2.2100853919983, -0.7589512467384, -0.4988253116608, -0.4598001539707, -0.1089425310493, 2.1175699234009, 0.3487178087234, 0.5235626697540, -0.0319484807551, 0.3591447174549, 1.1684188842773, -2.6280629634857, 3.2232043743134, 0.2919956743717, -1.2853547334671, 0.3216340541840, -0.0300778485835, 0.6416603922844, -0.8157606124878, 0.7915981411934, 0.5594263076782, 0.1351510584354, 0.5155995488167, 0.6530798077583, -1.8705307245255, -1.3871346712112, 1.0272177457809, 0.7935958504677, 0.8584250807762, 0.7648585438728, -1.2171396017075, 0.1951922327280, -0.9324942827225, -0.2804548740387, 1.0047726631165, 0.5200310945511, 0.3572642505169, -1.6992384195328, -0.3158412873745, 1.0658950805664, -1.5279947519302, -0.5329989194870, -0.0321910008788, 0.4429264068604, 0.1112959384918, -0.8941428661346, 0.7435940504074, 3.2784075737000, 0.3478684127331, 0.3520277440548, -0.1935339868069, 0.0383583530784, -0.3397424519062, 1.4561597108841, -1.3267006874084, 0.4416418671608, 0.7356198430061, 2.2220594882965, -0.7117504477501, 0.2761089503765, -0.2526200711727, 0.5772591829300, -0.6313055753708, 0.2506744563580, -0.1190438196063, 0.9586628675461, -0.3022069931030, 0.8399016857147, -1.4458748102188, 0.0871557295322, 0.5706495046616, 0.4164021611214, 0.3387117683887, -0.0604365654290, -0.1305012702942, -0.4486165642738, -1.2512216567993, 0.5885423421860, 0.3534318506718, -1.3842375278473, 1.4061114788055, -0.2033033072948, -0.1350931674242, -0.1562896966934, -1.7914533615112, 0.7102993130684, 0.6951122879982, -0.2114417850971, -0.1073424741626, -0.3630979657173, 0.7461474537849, 0.8893219232559, -0.0391606949270, 0.8268125653267, -0.4846725463867, 0.7672598958015, -0.1738884299994, 1.2330473661423, -0.8711543679237, 0.5976804494858, -0.3632191121578, -2.0235030651093, -1.6996259689331, 0.0196668040007, -1.6318005323410, 0.2407491058111, 0.3727189600468, 0.4965272545815, 0.0356070324779, 1.2012622356415, -0.2634518742561, 0.8850896358490, 0.0016133134486, 0.3728238940239, -0.1686358302832, 2.2981135845184, -0.0038241490256, -0.4441426098347, 3.2534074783325, 0.9135544300079, 0.1040157228708, -0.9665260314941, 0.3765902519226, 0.3170605599880, 0.5929359793663, 0.6323620080948, 0.1733155101538, -0.8443876504898, 1.0953490734100, -0.1196249499917, -0.8478053212166, 0.3827427625656, 1.1917876005173, 0.4465571045876, 1.5134642124176, -0.6930380463600, 0.9265135526657, 1.0496934652328, -0.3423180878162, 0.4270814359188, -1.2656204700470, 0.5044816136360, -0.0350846648216, -0.2952678203583, -0.3966173827648, -0.7130287885666, -0.6696901321411, -0.4253086149693, -0.4959726929665, -0.4894528388977, 0.7651806473732, 0.5483185052872, -0.0664880350232, -0.4422608613968, 0.1117748469114, -0.4008934795856, 1.1916568279266, 0.4064434766769, 0.0414895154536, -0.9386667013168, -0.0840775966644, -0.1394583582878, -0.7427957653999, -0.2751874029636, 0.3082853555679, 0.1358948051929, -0.8513275980949, 0.0309228058904, -1.4722818136215, 0.8191248178482, 0.3994472920895, -0.3705369234085, -0.0852786973119, 0.9705381989479, 0.7475578188896, -0.1055835932493, -0.1806593984365, -1.1424969434738, 0.2752000987530, -1.3196228742599, 0.0623442232609, -0.5603340864182, 1.9480847120285, -0.1921779513359, -0.0296045206487, 0.1191390976310, -1.1715087890625, 0.6727838516235, 0.8799764513969, 0.5486066341400, 0.5447486639023, -0.0148614207283, -1.0974303483963, -0.4046173393726, 0.0431389808655, -0.2315065413713, 0.6926366686821, 0.2950426042080, -0.3845621049404, -0.9021356701851, 0.2332087308168, 1.0722193717957, -0.1054797768593, -0.3500049114227, 1.1654033660889, -0.2973130941391, -0.6793878674507, 0.4511155486107, -0.6607798337936, 0.8491489291191, 0.1409817039967, -0.7210638523102, 0.5309283137321, 1.1480262279510, 0.0271104592830, -0.5506824254990, 1.0167887210846, 0.4837012290955, -0.2358653098345, -0.0384711027145, -0.0039284569211, -1.6851419210434, -0.4104039371014, -0.4050594568253, -0.8867468237877, 0.0741571560502, 0.9710394740105, -0.3536938726902, -1.8466567993164, -0.9845756292343, -1.0071029663086, 0.3959977924824, 1.1625499725342, 0.8864890933037, -0.0607920065522, -0.4106614291668, 0.8129612803459, -0.4650220572948, 1.5054304599762, -0.2551953792572, 0.1866201013327, 0.8308191895485, -0.6055377721786, 0.6905935406685, -1.9188590049744, 0.0318926051259, 0.3175613880157, -1.2711560726166, 1.4530481100082, 0.2811200320721, 0.2337144911289, -0.0801211595535, 1.7261365652084, 0.7807470560074, 0.2946904301643, -0.0890864878893, 0.0625950768590, 0.0865952670574, -0.4929381608963, 0.0931391194463, -0.4990943372250, 0.7014241218567, -2.8372964859009, 1.0446451902390, -0.3858380019665, -0.4421387612820, -0.4494398236275, -0.0642643645406, 0.5407058000565, 0.2276929616928, -1.3548867702484, 0.4607928395271, -2.9596424102783, 0.4516308009624, 0.3566106259823, 0.4574813544750, 0.0037925941870, -1.7929102182388, 0.2030558586121, 0.9082549810410, 1.6009464263916, -0.4069817662239, -0.2174521535635, 0.5565001964569, 0.2355194538832, 0.0316030085087, -1.0353333950043, -1.1770974397659, 0.5858493447304, -0.0933816432953, -0.5465512871742, 0.7008721828461, -0.6164842247963, -0.8689832091331, -0.4133570492268, -1.5460242033005, -0.4091736376286, -0.1990523189306, 1.3943420648575, -0.0168584082276, -0.2288013547659, -3.7967917919159, 0.3089020848274, 1.9421541690826, 0.3408818542957, 0.0219823252410, 0.6128513216972, 0.0148525880650, -1.3407521247864, -0.5931600928307, -0.0331492684782, 0.1202059835196, -1.3671705722809, -2.8522553443909, 0.7664355635643, -0.3457515537739, -0.2530435025692, -0.2267489880323, 0.2669602036476, 1.9816387891769, 0.4292454719543, -0.6457524299622, 0.7127690911293, -0.2460238635540, 0.4353546798229, 0.6626445055008, 0.0764218643308, 0.8290781378746, -0.6739231348038, 0.5091051459312, -2.1914255619049, -2.1568796634674, 1.2345446348190, 2.1066300868988, -0.3084681630135, 0.1927828192711, -0.7649147510529, 0.3751263618469, 0.6041808724403, 0.3215554654598, -0.4555952548981, -0.6505082249641, -1.0857322216034, 0.0110888881609, -0.3592750728130, 0.8403600454330, 0.4542567431927, 0.3384076356888, 1.3549971580505, -0.2891955673695, -0.0931492671371, -0.4117504656315, -1.2768007516861, 0.6729108095169, 0.3304986655712, -0.9102711081505, -0.2861971855164, 0.1608247309923, 0.3988378047943, 0.2880171537399, 1.9601510763168, -1.4352482557297, 0.1263536661863, -0.6693669557571, 0.1997721493244, 0.3005450069904, -0.1264014840126, 0.2162477076054, 0.5010456442833, 0.4708215296268, -0.3307008743286, 0.2162741869688, -0.6144191026688, -1.4836380481720, -3.5906591415405, -0.3300098180771, -0.2389688193798, 1.0206948518753, -0.7216048836708, 0.0338870957494, -0.2910709679127, -1.0245724916458, -0.5469428896904, -0.4287497997284, 1.4223276376724, 1.0140141248703, 0.0170238949358, -0.6116498708725, 1.2036892175674, -0.0605754628778, 4.2685170173645, 0.6277243494987, 0.9625747203827, 1.3056741952896, 0.3271835446358, -1.2450124025345, 0.4246394932270, 0.8568315505981, 0.0716116949916, 1.5769361257553, 0.1852573901415, -0.2122139632702, 0.0188425015658, 1.3777856826782, 0.1374813914299, -0.1497141271830, 2.3081250190735, -0.5145295262337, -0.1143791377544, -0.6568081974983, -0.3722169697285, -0.3023929893970, 0.6259164810181, -0.7659362554550, 0.5711573958397, 0.5792631506920, -0.1689883470535, -0.1528651863337, -0.4062371551991, 0.8387572765350, 0.0366768352687, -0.4528063833714, 0.8745542168617, 0.1939148306847, -0.3300555348396, -1.4103373289108, 0.0158337205648, 0.0391430594027, 0.0158785022795, 0.1538027822971, 1.1868262290955, 0.7365648150444, -0.2412506341934, 1.0298627614975, -0.3779154419899, -1.7490628957748, 0.2163825184107, -0.1943126767874, -0.2240346223116, 1.2137844562531, 0.2551242411137, 0.5084205865860, 0.2879244685173, 0.0699484720826, 0.3474574089050, -0.9856268763542, 0.4785246253014, -0.3439725041389, 0.1107014790177, 0.4755240380764, -0.4498939812183, -0.1774941831827, 0.0675547793508, -0.3544403612614, 0.5538390278816, -0.2302782088518, 0.3336625993252, -0.6618828773499, 0.4285263121128, 0.1434722840786, -0.7837696075439, -1.3366357088089, -0.2644583284855, 0.4296541213989, -0.1671146303415, -0.0038738681469, -0.3179904818535, -0.4112684726715, -0.4303640425205, 0.3601846694946, 0.0264485534281, -0.0849172100425, 0.1637406200171, -0.9284490346909, -0.4900586605072, 1.3078483343124, 0.8558145165443, -0.2168269008398, 0.0959268510342, -0.2512786686420, -0.5297152400017, -0.4187507927418, -0.8294955492020, 1.5426602363586, 1.9763326644897, 0.2964477837086, 0.3802049458027, -0.2383352667093, 0.0159798767418, 0.9328407645226, 1.0651917457581, 0.3311924934387, -0.0603766143322, -0.1800319850445, 0.1445726752281, 0.2799910008907, 0.7446736097336, 0.2880285084248, 0.1961789876223, 1.4553858041763, 0.2122596949339, -0.7258939146996, -0.8780282735825, -0.3617795109749, 1.1668142080307, -0.6162912249565, 0.0688665062189, 0.8652960062027, 0.2438151687384, -0.4658307433128, 0.5393059253693, -1.7418082952499, 0.0819231495261, -0.7968116998672, 1.0819872617722, 1.1289236545563, -0.8003524541855, 0.4380356371403, 0.5426212549210, -0.6546184420586, 0.5963997244835, -1.7116669416428, 0.2778052389622, -0.5612673759460, 0.3470454514027, -0.1245120242238, 2.5028252601624, -1.1803227663040, 0.9186551570892, -0.4321201145649, -1.2304799556732, -0.4149994254112, 0.0392144434154, 0.3253407478333, -0.1556009799242, 0.1749554127455, -0.2179113477468, -0.1631645858288, -1.0700656175613, -2.2100622653961, 0.2820227444172, 0.4497247338295, 0.5980173945427, -2.3525397777557, 0.5739331245422, 0.8174434304237, -0.6562194228172, 0.0311822518706, -0.3530556261539, 0.2010745257139, -2.2224349975586, -0.8611357808113, 0.0272126272321, -0.9748808741570, -1.2149531841278, -1.3183442354202, -0.2623296976089, -1.2404320240021, 0.5881043672562, 0.1825611591339, 0.4926896393299, -0.0789148062468, -1.8643385171890, -0.6706770658493, 0.8510788083076, 0.2851118445396, -0.4493473768234, 1.7093017101288, -1.8357775211334, -0.2580947577953, 1.6694933176041, -0.2911339700222, -0.0967046916485, 0.3430047929287, 0.2770765125751, -0.3593828678131, -0.6960741877556, 0.5156750082970, -0.6995471119881, 0.0183144807816, 0.6888000965118, -0.6278364062309, 0.4599904417992, 0.6645903587341, -0.2739863395691, -0.9921697378159, -0.6161752939224, -0.7115883231163, 0.2428903430700, 0.7640361189842, 0.6380602717400, -0.9056262373924, 0.6537827849388, -0.3706221282482, 0.5735585689545, -0.9145507216454, 0.3163899481297, 0.5342092514038, 2.6124770641327, -0.1511396765709, -0.2115435898304, 0.8414950966835, 1.2713382244110, 0.7576823830605, 0.1032841578126, 0.3573126196861, 1.2171214818954, -0.9606274962425, 0.1882677525282, -0.1086382418871, 1.5027390718460, -0.1176643520594, -0.3206069767475, 0.7611449956894, 0.4616169631481, -0.2631341516972, 0.4472245573997, -0.8371823430061, -0.1652010977268, 0.5585618019104, -0.8328393101692, -0.3322047889233, -0.8415014147758, -0.2734246551991, -1.5423229932785, 0.1011624336243, -0.2854713499546, 0.4464487135410, -0.9301973581314, 0.2107335478067, -0.1377644091845, 1.3863357305527, -0.3943107426167, 0.0993991270661, -0.3186696767807, -0.2580322027206, -0.2047781050205, 0.4573690295219, -0.1253080666065, -1.4059487581253, -0.8438646793365, -0.2937195897102, -0.4035789966583, 1.3788201808929, 0.3843182027340, 0.2878366708755, -0.2125635296106, 0.2360087186098, 1.2718732357025, 0.0771650746465, -0.1695795208216, -1.9606904983521, 0.2920242547989, 0.6164692044258, 0.3888105154037, 1.0327277183533, -0.3446369171143, -0.0176571439952, 0.2404944151640, 0.6744989156723, -0.2631968855858, 0.2337171137333, 1.3992521762848, -0.3714937567711, 0.4533337354660, -4.5091438293457, 0.4252327084541, 0.3929530978203, -0.1942952722311, -0.0053639234975, 0.9976168274879, 0.2404521107674, 0.6846665740013, -0.1201078146696, -1.0842097997665, -0.3238067030907, -1.2791112661362, 0.6130422949791, 0.9710873961449, -0.0157462954521, -0.1379281878471, 0.3920177221298, 0.0055263536051, -1.2964732646942, 0.0156408715993, -0.3454778790474, 0.2426487952471, 0.0388288795948, 0.0838130638003, -0.0577660426497, 0.0941604897380, -0.5040727257729, -0.2067991346121, 0.0445843860507, -0.4969567656517, -1.3546543121338, 0.1276658624411, 0.4427490830421, -0.2885607481003, -0.2462928444147, -0.1294873058796, -0.3377693891525, -0.4469878375530, 0.2338339835405, 0.2666393220425, -0.4245406985283, 0.3805857002735, -0.0429655052722, -0.5419362187386, 0.4109211862087, -0.0324740633368, -0.4569268822670, -0.1439983695745, 0.0923673361540, 0.3984239995480, 0.5388347506523, -0.1152470931411, 0.0184448976070, -0.3848763108253, -0.1655719429255, 0.5343046784401, 0.3757624924183, -1.8028894662857, -0.1712685823441, -0.0335396975279, -2.1101098060608, -0.0680544003844, 0.4912406802177, -0.7748405933380, -0.2396620810032, -0.2828154563904, -0.8052136898041, 0.3262719213963, 0.4462628066540, 0.6585634350777, -0.2421473264694, 0.2199323028326, -0.0526346564293, 1.2794194221497, 2.0226709842682, -0.1504091471434, -0.7391777038574, 0.9100165367126, 0.0591537095606, -0.0929716527462, -0.7774269580841, 0.4459791481495, 0.0190423335880, 0.7380213141441, 0.3018651306629, 0.7890341281891, 0.4653601944447, 1.7902648448944, 0.3776714503765, 5.8659386634827, -0.1985448002815, 0.1642681211233, -0.4518975317478, -0.2666301429272, 0.0546408146620, -0.7867854833603, 0.9292024374008, 0.9433764219284, 0.6988574862480, -0.2997791171074, -0.1382951736450, -0.4407576024532, 0.0486338138580, 0.0668633282185, 1.2206363677979, -0.4971060156822, -0.2452312409878, -0.9212716221809, -1.6625221967697, -0.1543997377157, -0.0946618393064, -0.6558114290237, -2.4348120689392, -1.0718134641647, 0.8783005475998, -0.3075414896011, -0.2094105482101, 0.0298908445984, -0.2350607067347, 0.5328392982483, 0.5680447816849, -0.2330628782511, -0.3916680812836, 0.2845625281334, -0.2685005664825, -2.3452992439270, 0.2078531980515, 0.1027666628361, -0.3490611314774, 1.4865839481354, -0.6805995702744, -0.8245021700859, -0.7519865632057, -0.1987548917532, -1.8963522911072, -0.4595700502396, 0.1399865001440, 0.0345608219504, 1.0808919668198, -0.9131498336792, -0.0424797013402, 0.8710337281227, -0.2667930424213, 0.1685638427734, -0.6078562140465, -0.7607336640358, 1.9752724170685, -1.0434697866440, 0.1864195764065, 0.6351252794266, 0.1719296425581, -0.0957836881280, 0.1016206443310, 0.5394224524498, 0.4984208345413, -0.0760923177004, 0.5464032888412, 0.6538057923317, -0.4764367043972, 0.1632155478001, -0.8226800560951, -0.5047877430916, -0.0933040082455, 1.0236041545868, -0.0441491007805, -0.4842674136162, 0.3748414218426, 0.8677560687065, 0.6340182423592, -0.3111665248871, 0.1736914813519, 0.2365363985300, 0.2476333826780, 0.1021317020059, 2.4773550033569, 0.6038899421692, 0.4585435092449, 0.2017934024334, -0.1970266699791, -0.4228123426437, 2.9447214603424, -0.4264923036098, -0.1754571199417, 0.4681119024754, 3.4520623683929, -2.0764567852020, -0.5578478574753, -0.2068298757076, -0.0341487117112, -0.1411082893610, -0.1065451502800, -0.4950147271156, 0.0379867926240, 0.0640370473266, 0.8584926128387, -0.4069533646107, 0.1304993629456, 0.1398872733116, -0.3914100527763, -0.0569896101952, 0.1794402450323, -0.1967122405767, 0.0944124609232, 0.6988174915314, -0.1426039189100, 0.0560259893537, -0.7552337646484, 0.1822383999825, 0.0130295837298, -0.0624339282513, -0.1590627729893, 0.1460155546665, -0.4842329621315, -0.1973512023687, 0.0643568634987, -0.2553498446941, -0.4943277537823, -0.0401552245021, -0.0362765341997, -0.3150577843189, -0.0018654880114, -0.0015027888585, 0.1778004020452, -1.3899340629578, -0.4025154709816, 0.1955244690180, -0.4263233840466, -0.3444796204567, 0.3731926083565, -0.7876526117325, 0.6333311796188, 0.1460195779800, -0.2799958288670, -0.0707957670093, -0.1789650619030, 0.4718606472015, 4.2541971206665, -0.0611558444798, -0.0990742892027, -0.1386716812849, 3.1029651165009, 0.4304433166981, 0.2371220737696, -0.3902960419655, -0.0596599355340, 0.0158798005432, 1.8736500740051, -1.2566597461700, -0.1861519515514, -0.1882011592388, -0.0127917565405, -0.2136615216732, 0.1390738338232, -2.2199151515961, -1.0696980953217, -0.3028112947941, -0.8567687869072, 0.0154096204787, 0.5014683604240, 0.2160429656506, -0.2023496031761, -0.2099107652903, -2.1368803977966, -0.0955254659057, 0.2270127832890, -0.0049852076918, 0.3102335631847, 0.1702323853970, -0.6952490806580, -0.5915530920029, -0.1467887163162, -0.0168687477708, -0.4461169540882, 0.0015820194967, 0.0647611469030, 0.4223803877831, -0.1690713018179, 0.6194470524788, 1.1806075572968, -0.6948467493057, -0.3218158185482, -0.6715224981308, 0.3826587200165, -0.0288250856102, -0.1681465357542, 0.0244810432196, 0.0423150658607, -0.7777581810951, -0.6130526065826, -0.2476426064968, 0.0817038714886, 0.0298533812165, -0.1756424307823, -0.1834243685007, -0.3038289844990, 0.1981617808342, -0.1586509048939, -0.2471299469471, 0.0635360702872, -0.3623429238796, -1.1541630029678, -0.0088724037632, -0.1131178662181, -0.9224354028702, 0.1802286207676, -0.3129709661007, -0.3577248156071, 0.1869267672300, -0.5242521762848, -0.0450541041791, -0.6575209498405, 0.0264214798808, -0.4254527688026, 0.0957294106483, 0.0878035947680, -0.1867537796497, 0.3269032239914, -0.4820704758167, 0.4568989276886, -0.0373594649136, -0.4685985445976, -0.0211098771542, 0.5073699951172, 0.5351912975311, -0.3632467389107, 0.0081598190591, -0.5041109919548, 0.4938386678696, -0.2379093617201, -0.2632428407669, 0.3480502665043, -0.1579953581095, -0.2979956269264, 0.0961408391595, -0.2102611213923, 0.1638743728399, 0.0621165484190, 0.2074749320745, 0.2289099097252, 0.0013529984280, 0.4049180746078, -0.0837337896228, 0.8559402227402, 0.0821734145284, -0.1687535047531, 0.2725644707680, -0.2324829250574, 0.1603613048792, 0.2552199661732, 3.0456011295319, -0.0976002439857, 0.6815341711044, 0.2425631135702, -0.2607148587704, 0.3871453404427, 0.3551216125488, 0.1532881259918, 0.0398342162371, -0.1019543707371, -0.1438358575106, 0.0782516524196, 0.1957390308380, -0.1297212541103, -0.3190488219261, 0.3914830684662, -0.5365421175957, -0.0026391558349, 0.0907590016723, -0.8397797346115, -1.4065058231354, -0.3402107656002, 0.2562225461006, -0.4727994501591, 0.2323854863644, 0.3098331987858, -0.9365968108177, -0.0319080799818, 1.1214580535889, -0.6375399827957, -0.3776649534702, -0.5680689215660, 0.7312108874321, 0.8212212324142, 0.3878384232521, 0.2035682499409, 0.9920987486839, -0.5190349221230, 0.3491216003895, -0.2527095377445, 0.0304756239057, 0.1525926142931, 0.6572944521904, 1.5450236797333, 0.4114903807640, 1.7223955392838, 0.2391660213470, -0.8015415072441, -0.2670064568520, -3.5743770599365, -3.0915412902832, -1.9773538112640, 1.4946471452713, -0.8668971657753, -0.4176256954670, -0.3848037719727, 0.2563840448856, -0.1701963692904, 0.3378215730190, 0.0831106603146, -0.6204796433449, 0.5224263072014, 0.8225149512291, -0.4189169406891, 0.2062977403402, -0.1815348714590, -0.4228219985962, 0.6639850735664, 0.2598461210728, -0.2236969321966, 0.0112282652408, -0.3033885955811, -0.1812936961651, 0.2097430527210, -0.3933110535145, 0.5540300607681, -0.0383088402450, 0.0025351683144, 0.0430719554424, -0.3536167442799, 0.0350807905197, 0.3667558431625, 1.5312206745148, 0.9921035170555, -0.5510279536247, 0.5841493606567, 0.4444577097893, 0.0261115916073, -1.4911806583405, -0.3992007672787, 0.4622083902359, -0.0587382875383, -0.7099043726921, -0.1673987656832, 0.0205221455544, -0.0007456433959, 0.3600267469883, 1.9757046699524, 0.1256090551615, 0.6123949885368, -0.1533560752869, -0.4513863921165, 1.5667164325714, -0.0697753131390, 1.7563209533691, -0.0816746652126, -1.7366105318069, 1.4152936935425, -1.1090760231018, 1.4181462526321, 0.3654520213604, 2.6777942180634, 0.7615587115288, -0.3744415342808, -0.3050339221954, 1.6828737258911, -0.2950519025326, -1.2834831476212, 0.1872709095478, 0.8823497891426, 4.8784523010254, 1.0481652021408, 0.5633504986763, 0.1262414455414, -0.6617723107338, 0.0881452709436, -0.5782615542412, -0.5734246373177, 1.0975656509399, -0.2901784777641, 0.3492759168148, 0.6419685482979, -0.3174065649509, -0.1183844730258, -0.7177231311798, -0.1822135448456, 0.4322214424610, -0.1328913569450, 0.6258183121681, 0.5471013784409, -1.6894779205322, 0.2497418522835, -0.2405417412519, -0.2223328053951, -3.3501324653625, -0.4020700454712, -0.2113648802042, -0.8317886590958, 0.2645384073257, 0.3721025288105, 0.3326779901981, 0.3377822935581, -1.2926980257034, -0.7319076657295, 0.2004968076944, 0.2224643975496, -0.2969352006912, 0.0176491979510, -0.6800690293312, -0.1873577833176, 0.2851425409317, -0.6198374032974, -0.6680432558060, -0.2138818651438, 0.0239258389920, -0.3807962834835, 0.0594870038331, -0.5090190768242, 0.7438832521439, 0.7532737255096, -0.0377012118697, -0.1069409921765, 0.3856772780418, 0.0183920729905, 0.0186110939831, -0.0900855660439, -0.4913033246994, -0.3214345276356, -0.8329038023949, -1.0749918222427, -1.5579094886780, 0.0924400463700, -0.4250561892986, -0.6462005376816, -0.2649929523468, 0.5864360332489, -0.7707085609436, 0.0802056789398, -0.0794806182384, 1.0022906064987, 0.9372164607048, -0.2568198442459, 0.2225666940212, 1.2022354602814, 0.0039160009474, 0.0189249869436, -0.3986236155033, -0.1110520586371, 0.7818012833595, -0.0845531001687, -0.1399156451225, 0.4686497151852, 0.2458940297365, -1.2208729982376, -0.3325681686401, -0.5107585787773, -0.6162045001984, 0.3984259665012, 0.6470302343369, -1.8281422853470, -1.0513066053391, 0.0364959165454, 1.1032494306564, -0.8314206600189, 0.6646078228951, -1.0164954662323, 0.5481185317039, -0.5052397251129, 0.6257849335670, 1.7614291906357, 0.1401408910751, -0.4007107317448, 0.2478001564741, -0.6700610518456, -0.6619277000427, 0.3937015831470, -0.5389593243599, -0.2820634543896, 0.3879497051239, 0.2817473709583, 1.9194633960724, 0.0445719733834, -0.7963823676109, 0.6998317837715, -0.2599445283413, 0.1850021034479, 1.0715750455856, -0.7350468039513, -0.6883152127266, -0.1084626838565, 0.6384325623512, 0.3454960584641, -0.8216835856438, 0.1135905683041, 0.2455908805132, -0.7048212289810, -1.6361510753632, 0.2934629321098, 0.0212913323194, 0.1134315356612, -0.3995601534843, 0.2691149413586, 0.1737444698811, -0.4316825270653, 0.5970068573952, 1.8081302642822, 0.3673599958420, 0.4722707569599, -0.3153031170368, -0.5602726936340, 0.7141267061234, -0.8834984302521, -0.3321140408516, -0.6320266127586, -0.1412972658873, 0.1572506278753, 0.2023550122976, -0.5464602112770, 0.4687567353249, -0.8272061944008, -0.0713155418634, 0.9180482625961, -0.9358911514282, 0.9828394055367, -0.3641766607761, 0.0360113084316, -1.2287968397141, -1.5425603389740, 0.2596592307091, -1.7586711645126, -0.5581644773483, -1.3250557184219, 0.4169985651970, -0.8657951354980, 3.4760279655457, -0.5629374384880, 0.6097510457039, 0.6823663115501, -0.9751809835434, 1.4692032337189, -0.3149814009666, 1.1024092435837, 1.2500758171082, -0.4892768263817, -1.0171213150024, 0.2211911231279, 0.1557414978743, -0.2086843401194, 0.2424348890781, 0.2590832412243, 1.2047952413559, -0.5035324096680, 3.2898197174072, 0.9868573546410, 1.3400247097015, 0.2252352386713, 0.7560201287270, 0.0360855646431, -1.6744067668915, -1.7989778518677, 0.9415870308876, 0.6043865084648, 0.1775926798582, -0.5792136788368, -0.3619956374168, -1.1507532596588, 0.1026086881757, -0.1840680092573, -0.5151314735413, 0.9110366106033, -0.3475921750069, 0.0072642681189, 0.0379648804665, 0.1696205139160, -0.0052186599933, -1.3160288333893, -0.2396551221609, -0.7277587056160, 1.9255168437958, -1.1967587471008, 0.4355914592743, -0.8547745943069, 0.0882761999965, -0.2588549852371, 1.4761650562286, 0.3382656574249, 0.0951615795493, -0.0969313532114, -0.2031805217266, 0.1513818502426, 0.2871851921082, -0.8692076206207, -0.1441666334867, -0.4013914465904, 0.5107199549675, -0.1979780495167, -1.4908751249313, 0.4742206037045, -0.8677220940590, -0.3724924027920, 1.7208491563797, -0.6465086340904, 0.0427913889289, -0.7832884192467, 0.1384173780680, 0.0267346240580, -0.3749209344387, 0.5219970941544, -0.5884989500046, -1.0388443470001, 0.5093808174133, 0.1436736732721, -1.4891114234924, -0.0891986638308, 1.5996081829071, 0.1141532957554, -0.8675984740257, 0.1432231068611, 0.2840747535229, 0.3407863676548, 0.0600307956338, 1.6432811021805, 1.2392778396606, 0.3550505042076, -0.5120452642441, 0.5613269209862, -0.5318744778633, 1.2262384891510, -1.0334371328354, -1.7321357727051, 0.3390442728996, 1.8146979808807, 0.0516531690955, 0.2078494131565, -1.7543606758118, -5.2581934928894, -0.1708077639341, -0.8742381930351, -0.4305423498154, -0.3628351092339, -1.7700796127319, 0.9763326048851, -0.8824436664581, -1.2436302900314, -0.0928780436516, 0.9582271575928, -1.1181347370148, 0.8832328915596, -0.0307567212731, -0.1238173618913, 0.3529087007046, -0.9912642836571, -0.0565304830670, 1.8976440429688, 0.1764523535967, -0.5570108890533, 3.8636851310730, -1.5615398883820, -1.4305750131607, -1.1218156814575, 0.0041962242685, 2.5262024402618, 0.2919272780418, -3.7030830383301, 0.3931824266911, 0.6647624373436, 0.5269454121590, -0.5424120426178, -1.2889040708542, 0.8943369984627, 1.9710092544556, -0.1892072856426, -0.6576310992241, 2.2052721977234, 1.0033798217773, 0.8606843352318, 0.8951984047890, 1.4431319236755, -0.7047449946404, 1.1450653076172, 1.5515536069870, 0.1440617889166, 0.9515866637230, -0.4762528538704, -0.4366584718227, -0.2993111908436, 1.3914653062820, 0.0736274272203, 1.0395363569260, 0.6971700191498, -0.4143832027912, -0.3813273012638, 0.0524281710386, -0.0665188357234, -0.2751319706440, 0.7903068065643, 0.6952731609344, 1.2528380155563, -0.1014882698655, -1.2936238050461, -3.5862171649933, 0.1898121833801, -1.6211732625961, -1.1284857988358, 0.3522744774818, -1.8172330856323, 0.6286099553108, 0.6006949543953, -0.2696602642536, -1.1082372665405, 0.9173578619957, -1.1174819469452, 1.3871572017670, -0.0371285155416, -0.3884258270264, -1.9822524785995, 0.4772531092167, 2.6522285938263, 0.1620918214321, 2.5241000652313, -0.1448765248060, 0.3647222816944, 0.7498583197594, 0.8340389728546, 0.2891994416714, -2.5076889991760, 1.3655076026917, -1.2087998390198, -0.9684024453163, 0.1011795625091, 0.9645927548409, 0.5208092927933, -1.0284940004349, -1.3874323368073, 0.9454764723778, -0.8912596106529, -1.5438385009766, -1.2539188861847, -0.6898443698883, -0.7492543458939, 2.3150327205658, 1.1564198732376, -1.2290081977844, -0.4974603056908, -0.9244327545166, 0.4848359227180, -2.0013289451599, 0.1226965636015, -2.8382840156555, -0.6484620571136, 1.2088478803635, 1.0629078149796, 0.5844250321388, -0.0067393020727, 1.1968988180161, 0.0662048906088, 1.0276063680649, -1.7691987752914, 0.9475753307343, -0.7383828759193, 0.1681945174932, 1.2142297029495, 0.2877169251442, 2.1918723583221, 1.6054983139038, 0.9395939111710, 2.1565289497375, 1.8990513086319, -4.5359921455383, 1.6283854246140, -2.1646983623505, 1.0299007892609, 0.4830742776394, 1.6386743783951, -1.9482508897781, -0.3801727294922, 0.3649926185608, 2.0319581031799, -3.0626266002655, 0.2421282976866, 0.9957360029221, -1.8389450311661, -1.0010337829590, 1.9119678735733, -0.7175717949867, 1.3114603757858, 0.3320675194263, 0.3792690038681, -0.4881701767445, -0.6520589590073, -0.0115480525419, 0.3694837987423, -0.5808474421501, 1.2891908884048, -1.0426656007767, 1.1915813684464, 1.1197540760040, 0.8307211995125, -1.5556581020355, -1.2129598855972, 1.1205078363419, -0.5050116181374, -1.3328920602798, -0.8923070430756, 0.2975450754166, 1.2048656940460, -0.3966850042343, 0.3780606389046, -1.0949302911758, -0.1230935677886, -0.1852452754974, 0.3470431268215, -0.1023684665561, -0.1218602135777, 0.4480832815170, -0.2385319769382, 0.0635976567864, 0.3992843925953, -0.3804322779179, -0.0685988888144, -0.6853397488594, 0.1172561571002, 0.2698639333248, 0.3696394264698, 0.0764586031437, -0.1519347876310, -0.0627510622144, -0.6896631121635, -0.0768131464720, 0.1158808544278, -0.1432584673166, -0.2079723179340, 0.4354137778282, -0.1961767226458, 0.1173169091344, 0.1173678115010, 0.0397366657853, 0.3099630475044, 0.3945665061474, -0.2732439637184, -0.0282231736928, 0.2438108175993, -0.1925285309553, -0.1956474184990, 0.0909918174148, 0.3662081658840, 0.6647716760635, 0.2540206909180, -0.2975369393826, 0.2302636951208, -0.0999394878745, 0.0112269511446, -0.1312565803528, -0.0432226508856, 0.0793523043394, 0.4528839886189, 0.1004817411304, -0.0532948672771, 0.1958086788654, -0.0507831647992, -0.0678519979119, 0.0403675399721, -0.0721418187022, -0.1759364902973, -0.0125537412241, -0.2057223618031, 0.1940735131502, 0.0784859210253, -0.1004137992859, -0.0163634307683, -0.3624022305012, 0.2349704056978, -0.0679184123874, 0.0851038768888, -0.3588246703148, -0.0311210639775, 0.4690710306168, -0.1369465738535, -0.0365470908582, -0.2510768771172, 0.3931257426739, -0.1983378529549, 0.2283059805632, -0.2942660450935, -0.2354256361723, 0.3328408300877, -0.3383763730526, -0.1133382469416, -0.0517741329968, -0.0710728913546, 0.1299440860748, 0.4002017974854, 0.2206509560347, -0.2916223108768, 0.1969858109951, -0.4411220252514, 0.0698080658913, -0.1640109270811, 0.0476232655346, 0.0668041333556, -0.0533723607659, -0.1704562753439, 0.1336960494518, -0.1180281639099, 0.0282128956169, -0.0540796332061, 0.1674530953169, 0.0812150239944, 0.3321278691292, -0.2986803054810, -0.1249108985066, -0.2759909629822, -0.2035461217165, -0.0963017866015, 0.0201524235308, -0.0907154232264, -0.1910506486893, -0.3960320055485, 0.4861942827702, -0.0714088976383, 0.0763909891248, 0.1263148486614, 0.5215280056000, 0.3660956025124, -0.0539032071829, 0.0166752859950, -0.2186715006828, 0.0377877317369, -0.3245735466480, 0.0140366796404, 0.0872518643737, 0.0993935391307, 0.0099782338366, 0.0944070741534, 0.2739302814007, -0.0938039869070, -1.1748963594437, 0.1134481802583, 0.0518283322453, -0.0304139852524, 0.1319238245487, -0.0262646079063, -0.3626132905483, 0.3129636645317, 0.0796396657825, -0.1002552211285, 0.0919436067343, -0.0768167674541, 0.1905016750097, -0.0002648192458, -0.2477116733789, -0.0813153088093, 0.3882811963558, 0.2505068182945, 0.0483618676662, -0.1928901374340, 0.9546484947205, 0.0010281325085, -0.0391646139324, 0.1818266361952, 0.2342283725739, 0.0224401205778, -0.3338706791401, 0.2386734038591, -0.0371999479830, 0.0982487201691, 0.1599117517471, 0.1787094324827, -0.0142294643447, 0.0145304054022, -0.0918004661798, 0.0889407917857, -0.2550119757652, -0.1147105321288, -0.1593757271767, -0.0531780458987, -0.1425224244595, 0.0228609628975, 0.4716984629631, 0.0848616138101, 0.1085919141769, -0.0875598788261, 0.0400221161544, -1.2156014442444, -0.2340158820152, 0.0963055416942, -0.0252551846206, -0.0115489969030, 0.0117759713903, -1.0592672824860, 0.6929561495781, 1.2976284027100, 0.7898098230362, 0.3626590371132, -0.2758636772633, 2.4484732151031, -0.3757025301456, 1.2598614692688, 0.4696475267410, 0.5805342197418, -0.6102534532547, 0.1893264800310, 0.4763630032539, 0.0215366482735, -0.8384248614311, -0.8467348217964, 0.7972499132156, 1.1917606592178, -0.0450200848281, -0.4549882709980, -0.0615535303950, 0.1903176456690, 0.1272928416729, 0.3051071166992, -0.8058484792709, -0.1936494708061, -0.4117054343224, 0.0089450292289, 0.1701751649380, 0.2630220353603, 0.0654211416841, 0.5170637369156, 0.8606632351875, 0.2553403973579, 0.4500977993011, -1.3010324239731, -0.7040848135948, -1.1512887477875, 1.0607118606567, 0.2566257417202, 0.5255026817322, -0.5765492916107, 0.0462693162262, 0.0553370565176, -0.1100571379066, -0.1261890828609, -0.7156082391739, -0.9677090048790, -0.3046672344208, 0.5645154714584, -0.2783205509186, 1.3077175617218, 0.6528944969177, -0.6291027665138, 0.1108619719744, 0.1543681919575, 0.5302566885948, 4.0225000381470, 0.1688026338816, 0.1252339333296, -0.0640245303512, -1.3576616048813, -0.1846925020218, -0.1822533458471, -0.0766929239035, -0.9379100799561, 0.7048569321632, 1.0075073242188, -0.0636232942343, 0.3353751897812, -1.0784627199173, -1.3079842329025, 1.3616329431534, 0.1298979371786, 0.6035277843475, -0.0075324969366, 0.8482580184937, -0.4578925371170, 0.8490605950356, 0.1524864286184, 1.2920449972153, -0.0325495190918, 0.4562886059284, 0.8213469982147, -0.9153350591660, -1.2174682617188, -0.6373770236969, 0.0840687006712, -0.3182917237282, -0.0942340418696, -1.5448441505432, 0.3530499637127, 0.0425841175020, -0.2256370484829, 0.0985199883580, 0.6250608563423, -0.2234352082014, 0.4349319636822, -0.6285688877106, 3.4069914817810, 3.2763233184814, -0.7624184489250, -0.0630848556757, 2.3759355545044, 0.0419730432332, 0.1498859077692, 1.2806986570358, -0.0679927766323, 0.6698407530785, 0.3894446790218, -0.8919275403023, -1.2525955438614, 0.0077408323996, -0.2516944110394, -0.7138565182686, 0.5951182842255, 1.3776317834854, 0.2305142283440, -0.6390894651413, 0.4530192017555, -0.0069146151654, -1.0720545053482, 1.1301609277725, -0.3507198989391, 1.5004346370697, -0.2628565132618, -0.1242196857929, 0.0340752825141, 1.6243593692780, 0.0970984324813, -0.6419193744659, 0.9640997648239, -0.4085876047611, -0.2502151131630, 0.5391305685043, -0.2030826061964, 0.7899507284164, -0.3588615059853, -0.1623912304640, 0.2393060624599, -0.7720244526863, -0.4791955649853, -0.0439826287329, -0.4557681679726, 1.0955120325089, 1.0769737958908, 0.3175766170025, -0.9169657826424, -0.2947067916393, -0.0030421540141, -1.0676144361496, 0.4823470115662, 0.0085574956611, -0.1124668642879, -0.1608330905437, -0.5685393214226, 0.0936373472214, 0.3372363448143, -0.1836999058723, -0.0856294780970, -0.2618725001812, 0.1311506181955, -2.6608583927155, -0.7399272322655, -1.3200553655624, -0.4989812970161, 0.4150156974792, -0.2762546241283, -4.5619115829468, -0.2147462517023, -0.7952626347542, -0.2002872526646, 0.0826815292239, 0.1342799812555, 0.3782244026661, -0.6944730281830, -0.3127942681313, 1.8248715400696, 0.0495659299195, -0.1421719938517, -0.0902719721198, 0.0728540644050, -0.8316639661789, -0.0706213563681, 1.2203240394592, -0.2015061080456, 0.0571270212531, -1.1004951000214, 0.4231936335564, 0.1803545802832, 0.3044032454491, -0.0217066332698, -0.1508227139711, 0.1047102585435, 1.2065005302429, -0.0565265230834, -0.8038040399551, -2.4796721935272, 0.4051162004471, 2.3097343444824, 0.3815059959888, 0.4599992036819, 0.3050399422646, 1.0627648830414, -0.1231412515044, -0.1224171444774, -0.4280284941196, 1.3039716482162, -0.2134836316109, -0.1119152605534, 0.2751487493515, -0.0694827884436, -0.2251056730747, -0.2834443151951, -0.5797030329704, -0.1040984243155, 0.1840227991343, 1.5925004482269, 0.5320146083832, 0.1485268026590, 1.0580699443817, 0.3425477743149, -1.0697689056396, -0.0821550562978, 0.3561147451401, 0.5435963273048, 0.9190041422844, 0.0145527776331, -0.0115487799048, 0.4469095766544, -3.0073444843292, 0.4214056432247, -0.3361447155476, -0.0913711935282, -1.6722956895828, -1.8374383449554, -0.2198041230440, 0.0113160274923, 0.6065417528152, -0.2022276222706, -0.0982818529010, -0.6111709475517, 0.4782906472683, 0.1391346901655, -1.3740622997284, -0.2883661985397, 0.1164532527328, -0.8770310878754, 0.4318881332874, 0.1780468821526, 0.7523369789124, 1.0491503477097, -0.8839221000671, -1.1009395122528, -0.3257550299168, 0.0140892863274, 0.8685216307640, -0.1354108601809, 0.4738965630531, -1.3404134511948, -1.4070012569427, -0.9659026861191, -1.1524261236191, 0.2100728452206, -0.9710339307785, 0.5252181887627, -0.3562885820866, 0.9452672600746, -0.9113971590996, 0.3630184233189, 0.3457621037960, 0.1594387739897, 0.3621801435947, -0.1376247107983, -1.2519369125366, -0.4718748927116, -0.8785691261292, -1.1168607473373, 1.1714206933975, -1.4774889945984, -0.9926561117172, -0.8834894895554, 0.3183882534504, 0.7721801996231, -0.1247640028596, -0.0161371976137, 0.3436467945576, 0.1855477392673, -0.4325456023216, -0.0971108675003, -1.0858672857285, 0.2485279142857, -0.8715309500694, -0.3995834290981, -0.3730182051659, -0.5982529520988, 0.2862865626812, -1.2370827198029, 0.7407810688019, -0.0373458825052, 0.7949935197830, 3.6223561763763, -0.0977988690138, -1.2300437688828, -0.2853049933910, 1.2197548151016, -0.4878498613834, 0.0408243909478, 0.2261035889387, 0.1710883229971, 2.9078104496002, 0.1117394194007, 1.0579693317413, -1.5288497209549, -0.0012254801113, 0.1953592896461, 0.8219316601753, 0.6618734002113, -0.1415407955647, 0.0325531288981, -0.1161933168769, -0.5085346698761, 0.2042070329189, -0.7630739212036, 0.0807163119316, -0.2571078836918, 0.8001357913017, -0.2989435791969, 0.4599875509739, 0.8690121173859, 0.1340361386538, -0.6822890043259, -0.3594084084034, -1.5986865758896, -0.7198854684830, 1.7725671529770, 0.8352247476578, 0.3309630155563, 0.3348587155342, -0.3839081823826, 0.1646736711264, 0.2277214229107, 0.3417420089245, -0.4033398926258, 0.3046814501286, 0.4294894039631, -0.4551516771317, 0.4885483682156, 0.4824766218662, 0.5933572053909, -0.1355919837952, -0.6687898635864, 1.7324079275131, 0.9245781898499, -0.2123267352581, 0.6368891596794, -0.4913090467453, 0.2417906820774, -1.9276127815247, 0.5039346814156, 0.1668042540550, 0.7443252801895, -0.0488193929195, -0.6833308935165, -0.5879557132721, -1.1395171880722, 1.4042334556580, -1.9156037569046, 0.3730607926846, 0.1051787883043, 0.1318467259407, -1.0811222791672, -0.5792209506035, -0.2265698164701, -1.9229023456573, -0.2492327690125, 0.9766135215759, 0.4251539111137, -0.9724322557449, 0.5068810582161, -0.8731989860535, 0.5290378332138, -0.6385039091110, -2.5918734073639, 0.7198742628098, 0.1763574331999, -0.0568013601005, -0.2981490194798, -0.7884564995766, -0.3644302785397, 0.4711546897888, -0.7863427996635, 0.0190105102956, -0.3321680426598, 1.6401917934418, 1.6208871603012, -1.6160532236099, -0.9301885366440, -0.5439330935478, -1.6961507797241, -1.5135130882263, 0.6206388473511, -2.0966265201569, 0.2791519165039, 0.4838374257088, 1.1325904130936, -0.8473218679428, -0.0126091986895, -0.6184897422791, -0.1000578925014, 0.0950147435069, 0.2831484675407, 0.7318272590637, -1.2131315469742, 0.5825113654137, -2.2556390762329, -0.4776105284691, -0.3333927094936, 0.4015633463860, 0.5235958695412, -0.2434744983912, -0.6148386001587, 0.1505930870771, -0.1484779566526, 0.7587490081787, -0.6338042020798, -1.9080718755722, -2.2104985713959, -0.0401982106268, 0.1031040027738, -1.0839246511459, -0.0497163273394, -1.2713257074356, -0.0752192214131, 0.6698508262634, 0.7799948453903, 0.4441300630569, 0.3014483749866, 0.7692638039589, -0.0208497233689, 0.9080924987793, -0.4747747778893, -0.2447212040424, 5.1093506813049, 1.2418683767319, -1.1070917844772, 0.4204218089581, -1.0522288084030, -1.1521952152252, 0.7580484151840, -0.4333024024963, 2.5751800537109, -0.2935274243355, -0.5783343315125, -0.5773056149483, -0.4255214929581, 0.1176712736487, 2.4743981361389, 0.7257550358772, -0.1308573633432, 1.0886762142181, 0.4650646150112, -0.3230717480183, -0.9828763008118, -0.0027610028628, -0.6526721119881, -0.4828205406666, 1.8489105701447, 0.7467550635338, -0.0148005718365, -0.1810717135668, 0.9238357543945, -0.0937190875411, -0.6027716994286, -0.1225840076804, 2.2174735069275, -0.8604061007500, -0.4289280772209, 0.9305649995804, 0.3272168934345, -0.2789769470692, -0.0386352911592, 0.4115821421146, 0.0532880909741, 0.0299806930125, -0.3523596227169, -0.1557235419750, -1.5110005140305, -2.7767190933228, 0.4732260406017, 0.8162833452225, 1.6715109348297, 0.3804617822170, 0.6986991167068, 0.1700537800789, -1.3731830120087, -0.0445062406361, 0.2765656113625, 0.5183219313622, -0.3434816002846, -0.1772413402796, 0.3750699460506, 0.5797891616821, 1.2794029712677, -0.2540838718414, -1.4243609905243, -1.8114423751831, 0.0713638588786, 2.1191654205322, 1.2288355827332, -1.0437827110291, 1.3562667369843, 0.0051891142502, 1.5414147377014, -0.9087486267090, 0.6776529550552, 0.6951618790627, 0.9396696686745, -0.3203687667847, 0.1394653469324, -0.1897589415312, -2.6814200878143, -0.4257377088070, 0.0531196072698, 0.0033407707233, -0.9267169833183, 0.1034295782447, 0.3235442340374, 1.0173449516296, -0.5718404054642, 0.2953555881977, -0.9340816736221, -0.5226939916611, 0.3762173056602, 1.0858924388885, 0.6450632214546, -1.6437095403671, 1.5406969785690, -0.1132283210754, 0.0953342095017, 1.0028560161591, -0.1870291680098, 0.4336590766907, 1.9116443395615, 0.2143184393644, -1.8899157047272, -0.3734840452671, -0.0944457948208, -0.1076793223619, 0.7379114627838, -0.6265760660172, -0.0365715995431, -0.0364226363599, 0.2872105240822, 0.5365205407143, -1.1137506961823, -0.1383112519979, -0.3100895583630, -0.1955609023571, 0.9330673813820, 0.1490754634142, 0.5823984146118, -0.1002374738455, 0.6876198649406, -0.2931990027428, 0.0655129924417, -0.4085463881493, -0.6944682002068, 1.2550406455994, -0.5556046366692, 0.4132960736752, -0.3685334324837, 0.0240756534040, -0.2228508591652, 0.3456312716007, 0.0364454649389, 0.5564647316933, 0.1380291432142, 0.4689559936523, 0.0921718776226, -0.4047861695290, -0.0251413546503, 0.1387120634317, -0.4722402095795, -0.5438144207001, 0.4268880784512, -0.0073272124864, 0.3284054100513, -0.3784174025059, -0.1367217302322, 0.0000069940070, -0.0382916368544, 0.5967457890511, -0.1542398035526, 0.0146588152274, -0.3505967557430, -0.6344913244247, -0.2071352750063, 0.5889605283737, 0.1306155472994, -0.4617138803005, -0.7211303114891, 0.0057290759869, -0.2759518325329, -0.3600545227528, -0.3694633245468, 0.8545684814453, 0.1925280541182, -0.6450276374817, 0.0644914284348, -0.0605889670551, -0.4216296970844, -0.7904104590416, 0.3533083200455, -0.4250123500824, 0.0239274930209, -0.1839047670364, 0.5335664153099, 0.9863781332970, 0.3451213836670, 0.2810982763767, 1.1215534210205, -0.5512617826462, 1.4201668500900, 0.3274258673191, -0.3081738352776, -0.0285069346428, 0.0361622646451, 0.7234859466553, 0.1815760433674, 0.8243119716644, 0.4389556944370, -0.5564901232719, 0.2801311016083, -0.7858999967575, 1.0169950723648, -0.6362358331680, 0.3850785791874, -1.0932825803757, 0.6530047059059, 0.6663820743561, -1.2674664258957, -0.8075776696205, 0.3160087168217, -0.1802786439657, 0.1119352132082, -0.9332703948021, 0.1547643244267, -0.3917624652386, -0.2869252860546, -0.1429028362036, -0.7566056251526, -0.3790246248245, -0.6497864723206, 0.4738064408302, 0.4030998647213, -0.5296229720116, -0.4745734035969, 0.4287606179714, 0.3692912161350, 0.3580586314201, 0.0018760153325, -0.3232672214508, 0.1236513257027, 0.2059724479914, 0.1897670626640, -0.0884131714702, 0.1507564336061, 0.1566249281168, 0.1380769908428, 0.8139414787292, -0.3761469721794, -0.3353813588619, 0.1368999332190, 0.5251705646515, 0.1829082220793, -0.2350391596556, -0.3158819973469, -0.5838783979416, 0.7002146840096, 0.7451773881912, -0.0425109118223, -0.0248820446432, 0.3196211159229, -0.4242753982544, 0.1489614695311, 0.0371596887708, -1.0860688686371, 0.5227332115173, 0.0567003674805, -1.0190949440002, -0.8967542052269, -0.4700224995613, -0.1948177367449, -1.1026744842529, -0.0910065844655, 0.1745929718018, 0.0025589347351, -0.6251530647278, -0.5818696618080, 0.3038886487484, -0.8709181547165, -0.4402157366276, 0.2893474400043, -0.1363778114319, 0.5256205201149, 0.6265418529510, 0.0810251086950, 0.4182753860950, -0.8430858850479, 0.7561082839966, 0.1599433422089, 0.7701016664505, -0.3041972815990, 0.7119381427765, 0.3832546472549, -0.7140641808510, 0.8366014361382, -0.9458023309708, -0.0591166242957, -0.2906661927700, 0.6786944270134, 0.2246457040310, 0.4849390685558, -0.4124742150307, 0.3292156755924, -0.1523337364197, 0.7565931677818, -0.2811418473721, -1.3164796829224, -0.5310964584351, -1.4031319618225, -0.5242152214050, -1.0856209993362, 0.7633563280106, 0.4686698019505, 1.1412408351898, -0.8494518995285, 0.0585485771298, 0.1877080947161, 0.8348163366318, 0.1643496006727, -0.2067780494690, -0.3407930731773, -0.3984790146351, -0.7970017790794, -0.6060087084770, 0.4202912747860, 0.1868070363998, 1.0717008113861, 0.0095287794247, 0.0671507641673, -0.3616655766964, 1.1211123466492, 0.5038622617722, -0.3446675240993, 0.2496517896652, -0.1797913461924, -1.4379454851151, -1.7649302482605, -0.7036927938461, -1.1690373420715, 0.2071579098701, -0.8440183997154, 1.5485730171204, 0.0690112411976, 0.7036119699478, -0.1546648293734, 2.2573099136353, 0.6693495512009, -0.3461540937424, 0.1964509338140, -1.1882658004761, -0.1107680499554, 1.0229377746582, -0.3665294945240, 0.6031930446625, 0.1231900304556, -3.2080051898956, -0.2609221637249, 0.4456365406513, -0.0807370617986, 0.5050681233406, -0.1178423911333, 0.7049784660339, -1.6164603233337, -0.1527710407972, -0.4456090033054, -0.1128446906805, 1.5966100692749, 0.4312621653080, 0.2455806881189, -0.1186361163855, 0.3857532441616, 0.0739755108953, 0.4138965010643, -1.9011166095734, -0.6780993938446, -1.5582699775696, -0.9632671475410, 0.3981350958347, -0.6829094886780, -0.1970165222883, 1.0370396375656, 0.5608951449394, 0.3691075146198, 0.6618471741676, 0.3975838422775, 0.3302561342716, -0.2653324007988, 0.8402313590050, -0.3085665702820, 0.8563052415848, -0.0352079682052, 0.9859864115715, 0.0821880176663, -0.9881851077080, -0.3763753473759, -0.4174024164677, 0.2032315284014, 0.6069450378418, -0.0627019181848, -0.2346759885550, 0.4630157947540, 0.5120773911476, -0.2456806451082, -1.1751234531403, 0.0140342041850, 0.5788496136665, -0.7136307358742, 0.7143454551697, -0.9884158968925, 0.9661296010017, -0.0461536198854, 0.7507871985435, -0.7460708618164, 0.0103677641600, 0.7984196543694, 0.4282117784023, 0.5307924151421, 0.3397152423859, -0.5629810094833, 0.7109817266464, -0.5909861922264, 0.1581360399723, 0.8528720736504, -0.5207380652428, -0.1727673262358, 0.0826224312186, -0.6423637866974, 0.6425327658653, -0.3298071920872, 0.3607009351254, -0.0304957292974, -0.3318649530411, -0.6283980607986, -0.1222900152206, 0.1203380823135, 0.4004711210728, -0.9228677749634, -0.0268137864769, 0.5331438183784, -0.0417684018612, 0.0734685212374, 0.8873700499535, 0.4051496088505, -0.6490113139153, 0.4832285642624, -0.7669193148613, 1.7479048967361, 0.2834163606167, -0.1709390133619, -1.4131906032562, -1.0223329067230, 0.3557938635349, 0.2619483470917, -0.3719077706337, -0.1477374732494, -0.2741092145443, 0.2675212323666, -0.3816881775856, 0.0322299189866, 0.7210021615028, 0.9774670600891, -1.0366586446762, 1.0882934331894, -1.5868309736252, 0.0703879520297, -0.0773573666811, -0.0848557054996, 0.2027959078550, 0.8088414669037, -1.3418538570404, -0.3990830481052, 0.3002669811249, 0.4265991449356, 0.3227538168430, 0.6688765883446, 0.1473736613989, 0.0471940003335, -0.0580155588686, -0.2966753244400, 0.5273718833923, 1.0667237043381, 0.1674636900425, -0.1065945550799, 0.2571157217026, -0.5350447297096, -0.0132858306170, -1.3561497926712, 1.2248945236206, 0.4897646903992, -0.7666983604431, 0.2598834931850, 0.0295727532357, -0.3994870781898, -0.7179249525070, -0.9755277037621, -1.5315097570419, 0.3665363490582, 0.0442996621132, -0.0417724214494, -0.4672682285309, -0.1065788492560, 0.1264835596085, -0.3700545430183, 0.5561116933823, 0.3723846673965, 1.6780400276184, 0.8014860153198, -0.3031781315804, 0.0383954271674, 0.5917498469353, 0.1260315924883, 0.5498051047325, -0.7244571447372, 0.2947675287724, 0.0637158378959, 0.2388943880796, -0.4092851877213, 0.8771076798439, 0.5207651257515, -0.7120756506920, -0.0961370766163, 0.3421953320503, -0.7890287041664, -0.2546056807041, 0.1147670224309, -2.8068201541901, -2.2212982177734, -0.7458891868591, 0.6497962474823, 2.1328151226044, 0.3727623820305, -0.4678241312504, 0.0178924910724, -0.7265233993530, -0.2313439995050, 0.2204971611500, -0.0660563781857, -0.0622890815139, -0.1931118965149, 0.4747308790684, -1.0012531280518, -0.4436069726944, 0.4954925775528, -0.0878240019083, 1.5511238574982, -0.5579022169113, -0.5082258582115, 0.3346284031868, -0.8530972599983, -0.7359567284584, -0.1539972871542, -0.1548065245152, 2.0151352882385, -0.8375302553177, 0.2072692364454, -1.2682511806488, 1.1293188333511, 2.2513368129730, 0.5934899449348, 0.8186498284340, -1.0012379884720, -0.1138456165791, -0.5252717733383, 0.5196400284767, -1.9984244108200, -0.2861459255219, -0.5062816143036, -0.1499462723732, 0.3156165182590, 1.4284284114838, -0.9995397329330, -3.9482004642487, 0.2318818569183, -0.3645829856396, 0.8718687295914, 0.8528072237968, 0.0239737220109, 0.8481712937355, 0.8984268307686, 0.7285888195038, 1.0249387025833, 0.3285067677498, -2.0574412345886, -0.4256781041622, 0.4645639061928, 1.7975814342499, 0.7382895350456, -1.0029823780060, 1.3448504209518, -0.2249391525984, -0.2031513303518, -0.5960974097252, 1.0180206298828, -1.1569962501526, -0.0805119350553, 0.2561362087727, -0.7284439206123, 0.5518997311592, -0.8612723350525, -0.9826551079750, -0.1940183937550, -1.6164460182190, 0.9581127762794, -1.0357608795166, 0.3254055678844, 0.5694436430931, 0.1495548337698, -0.0253192856908, -0.3533733189106, 0.8900431394577, 1.2412927150726, -0.0504655316472, 0.5964457392693, -0.5741715431213, 0.0163029357791, -0.4313919544220, 0.0678506419063, -0.2629773318768, 0.8733664155006, 0.1035019755363, -0.3343958556652, -1.0597121715546, 0.0645150095224, -0.1170444115996, 0.9816249608994, 0.3168001174927, -0.9913368225098, -1.9049769639969, 1.0464129447937, -0.5709593892097, 0.2318899482489, 0.4135768115520, -0.3102202117443, 0.0960713177919, 0.5442812442780, 0.2572974860668, -0.6902930140495, 2.1162259578705, 0.3816176056862, 0.3803173303604, 0.5667471289635, 0.0429562628269, -0.1277317106724, 2.5584671497345, -0.7449858188629, 0.4469255805016, 0.4273897111416, 0.1011618748307, -0.3658728599548, -0.1588711738586, -0.5889044404030, 0.9664969444275, -0.2421783208847, 1.1842658519745, -0.0435687601566, -2.0881774425507, 0.6682056784630, 0.6546221375465, 0.5577592849731, -0.6420621275902, -0.4629718661308, 0.1477623134851, -0.0434191450477, 0.4169854521751, 1.2016735076904, -1.4491916894913, -0.3337445259094, 0.1496013998985, -0.2238085716963, 0.0454066470265, 1.4020595550537, -0.3164316117764, 0.4122293591499, 0.1966341137886, 0.0973263382912, 0.8408535122871, 2.5779404640198, -0.3561027348042, -1.9100956916809, -1.7371159791946, -2.0812389850616, 0.3455023169518, -0.0581664703786, -3.7108538150787, 4.9020252227783, 0.6124749183655, -0.0491393022239, -0.1067061200738, -0.1537815928459, -0.0344800390303, 0.8319337964058, -0.9929445385933, -0.7498261928558, -0.3771566748619, -0.3139116168022, -0.0652098059654, -1.2670619487762, -0.1365945786238, -0.3779002130032, 0.5573697686195, 0.6462012529373, -0.0310789626092, 0.4618574976921, -1.1487876176834, 0.6377386450768, -2.5143964290619, -1.2314758300781, -1.3244678974152, -1.7340946197510, 1.5357735157013, -0.6287528276443, 0.0661005750299, 0.4418142139912, 2.6256766319275, 0.0864123851061, -0.7413257956505, 1.2776305675507, -0.6976168155670, 1.5987374782562, -0.5627141594887, 1.6893033981323, -3.0267455577850, -0.1852158010006, 1.3042081594467, 0.6572344899178, 0.9032216668129, 0.9536369442940, -0.9135022759438, -0.8220490813255, -0.7096511721611, 0.6149369478226, -0.1808084100485, 0.8355220556259, -0.2126797437668, 1.7618426084518, -0.9793370366096, -0.3395326137543, 0.6909379959106, 2.4796137809753, 0.2739095091820, 0.7932034134865, -1.2750142812729, 0.6546635627747, -0.0705524235964, -0.1858624964952, 1.6820768117905, -1.1681375503540, -1.5570365190506, 4.0626645088196, -1.3655557632446, -0.2518092691898, -1.3251647949219, 2.8527534008026, -0.0995932221413, 1.3358427286148, -1.7759163379669, 1.1957861185074, 0.6543609499931, -0.6909322738647, 0.1356042772532, 1.5057811737061, -1.5154412984848, -0.7439950108528, 0.4025824964046, 0.0710923373699, 1.2571499347687, 0.4476298391819, -0.3539076149464, -0.0830881893635, 1.4844244718552, -0.1768542826176, 0.5486664772034, -0.4166785478592, -0.2441757172346, -0.0565712749958, 0.2454176694155, 0.9291793107986, 1.1255601644516, 0.7499650120735, 0.5399687290192, -0.6575708985329, -1.4303827285767, -1.5591284036636, 1.4441971778870, 0.0933580249548, 0.4694390296936, -0.6224654316902, 0.4116645157337, 4.1776704788208, 0.2929001152515, -1.5239092111588, -3.1515254974365, -1.1937310695648, -1.3434916734695, 0.3780790269375, 1.9715799093246, 3.9084866046906, 0.9051648974419, 0.3522800505161, 0.5169818401337, -0.0642731264234, -0.4429250657558, 0.8723673820496, 1.4417386054993, 2.4355149269104, -0.1312967985868, 0.8984252810478, 0.7823678255081, -2.9359378814697, 0.0216237995774, -0.9758172631264, 0.5367212891579, 0.4921902716160, -1.0307811498642, 2.5302860736847, 0.9067797660828, 1.0278564691544, -0.0146089205518, -1.0444402694702, 0.1617920845747, -0.4168046116829, -1.5883816480637, -0.3088836073875, 0.7950077652931, -1.9305392503738, -0.7785168290138, 0.4793012440205, 0.0806768611073, -2.0095670223236, -1.6336308717728, -2.7007126808167, 0.4150989949703, -1.6886796951294, -1.3313113451004, 0.5101584196091, -0.5739434361458, -0.2892187535763, 1.0460225343704, -0.1330788880587, -0.1693957448006, 1.2640550136566, -1.7695981264114, -1.9127471446991, -0.3053017556667, 0.2763871252537, 3.0818529129028, 0.7875385880470, -1.0971548557281, -2.3639664649963, 0.4281622469425, 0.1360221058130, -0.4496142566204, 0.0298919361085, 0.1473490744829, -0.2981441020966, 0.1528501510620, 0.0914261490107, -0.2161034494638, 0.1639688014984, -0.1104209348559, -0.0856975540519, 0.1728666275740, -0.1554852128029, -0.3314948081970, -0.1547524631023, -0.0956182479858, -0.1653924435377, 0.1998704075813, -0.0167123880237, 0.2163786888123, -0.1859699040651, 0.0134642263874, 0.1090857312083, -0.1011261567473, 0.1928100734949, 0.1023475006223, -0.0705258175731, -2.2254881858826, 0.1197442412376, -6.0617098808289, 0.2116761952639, 0.0794678032398, 0.0854732692242, -0.1444535553455, -0.1706304550171, -0.0838239639997, -0.1052401214838, 0.1175150424242, -0.0992490798235, -0.0857424288988, -0.1244457587600, -0.1104430481791, 0.1807936578989, 0.0090173473582, 0.2690050899982, 0.1145591735840, 8.9026594161987, -0.0587835684419, -0.1514212936163, -0.1093433350325, -0.0701119005680, -0.0465248413384, -0.0949445590377, -0.0899200439453, 0.0394452437758, -0.1324170231819, -0.3895192146301, 0.4280689656734, -0.0394744798541, 0.1031249836087, -0.2183506488800, -0.3035538196564, 0.1919867247343, 0.0740110054612, 0.0573771595955, 9.4682874679565, 0.1333906501532, -0.2010252028704, 0.0222094953060, 0.2861402630806, -0.0622622594237, -0.1177887246013, -0.0940870791674, 0.1553042531013, -0.0391043350101, -0.0643319040537, 0.0234274342656, -0.0418930500746, -0.1339324563742, 0.1144663393497, 0.0260931067169, 0.0944385379553, -0.7733170986176, 0.1616209447384, 0.0248135495931, 0.1495806276798, 0.3101876974106, -0.0279617346823, 0.0626397803426, 0.1325651854277, 0.0246126875281, 0.0740798488259, -0.2034724205732, 0.0767284184694, -0.3152362704277, -0.0622925981879, -0.0213456396013, -0.1856607943773, 0.0836756229401, -0.0280605088919, 0.0400234423578, 0.0257360450923, -0.1089274212718, -0.1716135889292, 0.0343806110322, 0.2404872179031, -0.0091185215861, 0.0742485150695, -0.4548954963684, -0.0128104360774, -0.2081151008606, -0.1049612686038, 0.0014752801508, -0.1544539034367, 0.0163729786873, -0.1085810884833, -0.0629548728466, -0.0018065618351, 0.1251639276743, 0.0886569470167, 0.0264872405678, 0.2277542799711, -0.0823606774211, 0.0679740682244, -0.0326861068606, -0.1831202954054, -0.2234534621239, -0.0659624189138, -0.0423229560256, -1.9640856981277, 0.0379284434021, -0.0781357586384, 0.7535232305527, 0.0732452720404, 0.8735117912292, 0.0470745302737, -0.2994385063648, -0.0902220830321, -0.1899429410696, -0.0084583591670, 0.0790716931224, 0.1314878612757, 0.0432331636548, -0.1559001505375, 0.1585181504488, -0.1898164749146, -0.0104997046292, 0.4411529302597, 0.0332798212767, 0.0058417413384, 0.2539404332638, -0.0907765924931, 0.0834364518523, 0.2066002637148, -0.0489542894065, 0.0660871714354, 0.0030518120620, -0.1382344365120, 0.0026579275727, 0.2826693952084, -0.0250960346311, -0.0266450829804, -0.2601265907288, -0.0640242695808, 0.0872620567679, -0.0666536912322, 0.0945267900825, -0.0192548818886, 0.0700780972838, -0.0143225556239, 0.0278902817518, 0.0548987872899, -0.0413050390780, 0.0864580869675, -0.2333264797926, 0.0387562066317, 0.2255756109953, 0.0668882802129, -0.0426005944610, 0.1523551046848, -0.0714816823602, 0.9959868192673, -0.3142375349998, 0.3310171365738, -1.9712307453156, 0.0409614890814, 1.0947438478470, 0.3038709759712, -0.2786772549152, 0.3581889867783, 1.1613433361053, 0.8154394626617, -0.4120949804783, -0.1447674334049, -0.1243326514959, 0.3229844570160, 0.3360397815704, 1.2068802118301, -0.1944624930620, -0.2295267134905, -0.0993885472417, 0.4214656949043, 0.7664983868599, 0.4202032387257, -0.1117616295815, -0.9631739258766, -0.3819178640842, 0.6414003968239, 0.0686415210366, 0.5372451543808, -0.5771850347519, 0.2038414925337, 0.1196646317840, 0.9592483639717, -0.3122651278973, -0.1121885925531, -0.8908690214157, 0.0177769884467, -0.5347108840942, -1.1971335411072, -0.9170550107956, -3.3116738796234, -0.1507995873690, -0.4140023291111, -0.3920747935772, 0.7816829681396, -0.1845736950636, -1.4952439069748, -0.1344140172005, 0.1865393966436, -0.7687237262726, 0.0743783861399, 0.2779753804207, 0.3152382671833, 1.3925888538361, -0.0318070687354, -0.6013443470001, -0.1251809895039, 0.0763010680676, -0.0195096433163, -0.3465608656406, -0.4030074179173, 0.3462907671928, 0.0764021053910, -0.0008313129656, -0.3191638588905, 0.8899261355400, 0.0203241556883, -2.7643086910248, 0.0360185168684, -0.2549469470978, 0.7564845681190, -0.2530948519707, 0.4543337523937, 0.4530645906925, -0.8197239041328, 0.9477235078812, -0.8152065277100, -0.1560834348202, -1.5880343914032, -2.8158552646637, 0.5665788054466, -0.3911591470242, 0.2395729124546, -0.9731720685959, -0.2393437623978, 1.1677070856094, -2.3915600776672, -0.2586296200752, 0.3509618639946, 1.1747238636017, -0.1783614158630, 0.0093460036442, -0.2409154921770, 0.3974226415157, 0.3687635660172, -0.2801989316940, -0.9698285460472, -0.5468728542328, -0.0260091610253, -0.9550573229790, -0.5804132223129, 0.9912728667259, 2.3493480682373, -0.6004415750504, 0.2535510957241, 0.5271232128143, -0.1540114432573, 1.1379165649414, -0.2327651828527, 0.7927201986313, -0.1036288142204, 0.1465987861156, -0.6926595568657, 0.5578857660294, 0.1541344523430, 0.0784957334399, -0.2416083961725, -0.1530762910843, 0.7824368476868, 1.1352852582932, 0.1360290050507, 1.2565174102783, -0.6655388474464, -0.9805688858032, -0.0181587096304, -0.6776337027550, 0.0029748573434, 0.1561968028545, 0.1183835491538, 0.3516472280025, 0.5533720850945, 0.2028086930513, 0.1384826451540, -0.6537892222404, -0.0341554358602, -0.7682784795761, -0.5720745325089, -0.0242024324834, 0.4988361299038, 0.0150323603302, -0.8569353818893, 0.0015314836055, 0.0275069475174, 2.3963727951050, 0.7619649171829, 0.2773731350899, 0.4229938387871, -2.6447563171387, 0.0674396976829, 0.0382290780544, 0.5508955121040, 0.0689688846469, -0.4640608429909, -0.1844077408314, 0.8665312528610, -0.0342937894166, 0.0745251104236, -0.2746029198170, 0.8126574158669, 2.1160321235657, 0.3014789223671, -0.2149380147457, -0.3803441524506, 0.5054233074188, -0.4067747294903, 1.0707145929337, 0.1606043726206, 0.5694954395294, -0.3411882221699, 0.8370621800423, -0.6405821442604, -0.5999452471733, -1.1534281969070, 0.6339079737663, -0.0112725440413, 0.0036311808508, -0.4259481728077, -0.5924402475357, 0.2434771656990, 0.9804987311363, 0.1198636442423, -0.4352674484253, 0.1512929052114, -1.1809402704239, 1.0204528570175, 0.2676852345467, 0.6716667413712, -0.6873813271523, 0.9764541387558, -0.1641536802053, -0.4001593291759, 1.2695509195328, 0.5732156634331, -0.2661797404289, -2.5793700218201, -0.6744060516357, -0.9133178591728, 0.3166274726391, -1.6239190101624, -0.3168416023254, 0.8997382521629, 1.5263799428940, -0.6740710139275, 0.4167548418045, 0.3252475559711, -1.8482652902603, 0.0445539429784, 0.2516397237778, -1.2424237728119, -0.9544252157211, 0.0656950399280, -1.4807618856430, 0.3194366097450, -0.4890094697475, 0.0945163443685, 0.4033614695072, -0.1492336690426, -0.1339092105627, -0.1390078067780, 2.1306872367859, 0.1288463026285, -0.2775463759899, -1.3928463459015, -0.9585652947426, -0.1845735609531, 0.5074791312218, -0.5223348736763, 0.3884778618813, 1.4437088966370, -0.1638356745243, 0.0762803778052, 0.4000751376152, 1.0751032829285, 0.9724622368813, -0.3599060773849, 2.2624533176422, -0.9280949831009, -0.0508230142295, -1.0128426551819, -0.1840258389711, -0.5112332701683, -1.4135868549347, -0.9434593915939, 0.8029556274414, 0.4477983415127, 0.6616879701614, -1.3354920148849, -0.3864642977715, -0.0441858060658, 1.4753613471985, 0.6592757701874, -0.0980589613318, 0.0922797173262, -0.2824682891369, 0.6999933123589, -0.9822106361389, -0.9356234073639, 0.0235885325819, -0.7060748338699, 1.0327298641205, 1.0570269823074, -0.1678162068129, 0.1800875067711, -0.4380152821541, 0.5318892598152, 0.8110241889954, 1.1430691480637, 1.4306247234344, -0.9065897464752, 0.6558499336243, 1.3856899738312, 1.0596072673798, 0.4041501283646, -1.5651237964630, 0.8837690353394, 0.7544119358063, 0.4911601543427, -0.1807576417923, 0.3947216868401, 3.4530501365662, 0.3324308991432, -0.6160767674446, -1.8924559354782, -0.1906395405531, -0.0211353674531, 2.0558645725250, -0.1762087643147, -2.2278294563293, -0.5386428833008, 1.0591018199921, -0.4798064231873, -0.4349479079247, 1.4791386127472, -0.2368613779545, 0.9585191011429, -0.0919652655721, 2.4061133861542, -1.6410782337189, 0.3766486048698, -2.6992797851562, 0.1328556984663, 0.9234046936035, 1.8199367523193, 0.0100926002488, 0.7394453883171, -0.1085677146912, -0.7569909095764, -0.8096170425415, -1.9150793552399, -0.8203433752060, -1.4848062992096, 1.0475592613220, -2.2023420333862, 0.3454768955708, -0.3707733452320, 0.2665258347988, 1.3175138235092, 0.1779237240553, 0.4456145167351, -0.5696424245834, 0.6382548213005, 0.2997484207153, 1.2809687852859, -0.3735858201981, -0.2685602903366, 1.5799756050110, -0.5891129970551, 0.3036529421806, 1.0325946807861, -0.2206348925829, 0.0993087887764, 1.2195566892624, -1.7671128511429, 1.0441125631332, 1.7317842245102, -0.8218650817871, -1.1479537487030, 0.3351829051971, 0.1501744389534, 0.1479762047529, 1.3163819313049, -0.0438484847546, 0.1830580979586, 0.2185968309641, -1.1590001583099, -0.1667974442244, 0.6823915243149, -3.2882137298584, 0.3663631677628, 0.3928422629833, -1.2435059547424, 0.9153953790665, 1.6784096956253, -0.0720589980483, -0.3452997505665, -0.5629994869232, -0.0002392623283, -0.2783863544464, -0.5872176885605, 0.7460505366325, 0.9274608492851, 3.1310639381409, 0.8861390352249, 0.0007836766890, -0.3767481446266, -0.9830265045166, 0.2208432257175, 0.9740470647812, -0.3283398151398, 0.1539860367775, -0.9690327644348, 0.0653774142265, -0.0846161171794, -0.9495604634285, 0.1565006673336, -1.0764930248260, -0.2838892340660, -0.6599901318550, -3.0080504417419, 0.3774851858616, 0.1529563665390, 0.5440670847893, 0.9496653079987, 0.5266428589821, -1.5735204219818, -1.3814011812210, 0.2190237790346, -1.0465904474258, -0.4708452820778, -0.4148048162460, -0.1789746582508, 0.0306856352836, 0.5218754410744, 0.5567799210548, -0.0148859638721, -1.1699986457825, 0.2397240996361, -0.5113462209702, 0.6007373929024, 1.4934415817261, -0.7022258639336, -0.5005964040756, 1.3718812465668, -1.1588774919510, 0.1258766800165, -1.2906937599182, -1.8296056985855, 1.1498956680298, 0.2782171368599, -0.5678439736366, 0.2139301747084, -0.0789823830128, 0.0271082594991, 0.8819007277489, -0.4624962210655, -0.1091792583466, -1.3437995910645, -0.1378796696663, -0.2465096563101, 0.2274914830923, 0.7933458089828, -0.5492243766785, -1.0698753595352, 2.4492905139923, -0.3435762524605, 0.4615157842636, -0.5402364134789, 0.4751045703888, -2.4722898006439, 1.0228574275970, -0.1881660670042, 1.3127814531326, 1.2955983877182, -0.5345193147659, 0.7136427760124, -0.0560980364680, -0.5672433376312, -1.6148837804794, -3.0713102817535, 0.2490096241236, 1.2326700687408, -0.1355839371681, -1.5981266498566, -0.4931818246841, 0.0201581120491, 0.6359443664551, 0.1808192133904, 0.7554779648781, -3.5961549282074, -0.4261671304703, -1.4608554840088, 1.0970355272293, 0.3936139047146, -1.1712546348572, -0.3244080841541, -0.3318738937378, 0.5352051854134, -0.3040028512478, 0.0182020999491, 1.4621056318283, 0.2919714152813, -1.0624356269836, 0.4123820662498, 0.3693760633469, -0.7742294073105, 0.5919651985168, -1.1953144073486, 1.1929196119308, -0.0161411743611, -0.9343524575233, -0.2398811280727, -0.1218831241131, -0.9006635546684, 0.9848996996880, 0.3337393701077, 0.6814933419228, 0.7209854125977, -1.0602906942368, -0.9706639051437, -0.1155206337571, 1.1975132226944, 1.2639894485474, 0.8629497289658, -0.1323640495539, 2.5484561920166, 1.2136973142624, -1.0607692003250, -0.4429408609867, -0.5333930850029, 0.2618997097015, -0.3476963937283, -0.8652196526527, -1.1960169076920, 5.5727739334106, -0.4841938912868, -0.1796391159296, 0.1919343918562, -0.6640008091927, -0.0500430092216, -0.0508511401713, 1.6091828346252, -0.8729463815689, -0.5936047434807, 0.4643649756908, -0.4901140630245, 0.4645105302334, 0.9406757354736, -0.9774779081345, 1.3472255468369, -0.4829600155354, 0.4332285821438, -0.2555749714375, 0.2611405253410, -0.9491177797318, -0.4792282879353, 0.5559402704239, 0.9306008219719, 0.4864659309387, 0.0493692681193, -0.2395308762789, 0.7223432660103, -0.4173407554626, -0.1900642514229, 0.5318245291710, -1.0508327484131, -0.2857629060745, -1.0296123027802, 0.3494522869587, 0.7758548855782, -0.9354230761528, 0.6814606189728, 1.3592708110809, -2.1862213611603, 1.2965760231018, -1.0249935388565, 0.2208895385265, 0.6030099987984, 0.3411631286144, -2.1914181709290, -1.0455895662308, 0.5948374867439, 0.6406136155128, -0.2738389074802, 3.4395771026611, 1.3370534181595, 0.2279239147902, 0.4268504977226, -1.0935810804367, -0.4563586115837, -0.3121013343334, -0.1404659152031, 0.8782430291176, 0.6531050205231, -1.4660943746567, 1.1502906084061, 1.0425251722336, 0.1912729740143, -0.0775832161307, 0.5001958012581, 0.0825451314449, 0.2430128455162, 0.3466648757458, 0.4686835706234, 1.3693207502365, -0.2319963127375, 0.4184277057648, -0.0809142440557, -0.5896493792534, 0.0026254598051, -0.1894683390856, 1.2491461038589, 0.0579815320671, -1.7973603010178, 1.2988684177399, -0.9041714072227, -0.3153738677502, 0.3174141049385, 0.3063226640224, -1.8003417253494, -0.3078606426716, -1.1680264472961, -0.2159298509359, 0.5990245342255, 1.3023194074631, -0.5265451073647, -0.1495999097824, 1.1399600505829, -0.9945704936981, -0.6181848049164, -0.5308673977852, 1.3334878683090, -0.0952955335379, 0.5840259194374, 0.0660186782479, -2.3291509151459, -1.1653529405594, -1.2203580141068, 0.2797943651676, 1.1167001724243, -0.9492868185043, -0.1936607807875, -0.8415152430534, 0.4924798011780, 1.4955413341522, 0.0890707522631, 0.1389535963535, -0.5444504022598, -0.0725880786777, 0.9324703216553, 0.7091119885445, 0.3953860998154, -1.2691377401352, -0.2129697650671, 0.3354326486588, -0.0395531021059, 1.5910965204239, 0.1323523819447, 0.1367861628532, -0.8778454661369, -1.5088769197464, 0.1016980782151, -1.0695075988770, -0.2359156459570, -0.1156561151147, 0.7857938408852, -0.5299354791641, 0.3445041775703, -0.1692994982004, -0.4552761614323, -0.2316645830870, -0.0914871543646, 0.8467677235603, 0.5054439306259, -0.3037858307362, 3.0725979804993, 0.4209646880627, -0.5242550373077, -0.2143038958311, -1.2175760269165, 0.0685378611088, -0.1793446838856, 1.5225161314011, -1.0477775335312, 0.0722887963057, 0.9996783137321, 2.4630372524261, 0.0044820210896, 0.4700311422348, -0.4863981902599, -0.6167195439339, -0.2262163460255, 1.0614336729050, -0.3202058076859, -0.2485316395760, 0.4198396205902, 0.1364529728889, -0.4434681534767, 0.8997621536255, -0.9655354619026, 0.2566625177860, 0.5521332621574, -0.0595757588744, -0.3990231454372, 0.4081743955612, -0.1788968443871, 0.6844282150269, -0.4071451723576, 7.0311684608459, -0.6606850624084, 0.7602469325066, -1.7879681587219, 1.3660074472427, -0.5681726932526, 0.0718591436744, 0.9726681709290, -0.2284657061100, 1.2175953388214, 0.1074392721057, -0.5163100957870, -0.1091270744801, -0.0783250704408, 0.3807379007339, -0.5622246265411, -1.2326666116714, -0.6072688698769, 0.5690869092941, -0.6857277750969, -0.1562909483910, -0.4755372703075, -0.0329113863409, 0.0794269368052, -4.4254631996155, -0.6957558393478, 0.9561265707016, -0.0505876131356, 0.4996726512909, 0.1647849231958, 0.0239613093436, -0.1239475011826, -3.4351148605347, -0.7111399173737, 0.8949263691902, 0.0015460849972, 0.5136353969574, 1.8588298559189, 0.9791665673256, -0.8150900602341, -0.0257600359619, 0.1016163229942, 0.5637931823730, 0.4285291433334, -0.0872090980411, 1.4633412361145, 0.0116173755378, 1.0056729316711, 0.0319127924740, -0.0420730002224, -0.9654842615128, 0.8693591356277, 0.4907166659832, 0.6843445897102, -1.5885986089706, 0.3475976586342, -0.2732420861721, 0.0650288164616, 2.1827254295349, 0.8575170040131, 0.1904283016920, -0.1181228682399, -1.0096181631088, 0.8790034651756, 0.2957634627819, -0.5174233913422, -0.3792094886303, 0.0007602241240, -0.6694887876511, 0.3115908205509, -0.7251030802727, -0.5138406753540, -0.6177880167961, 0.5582239627838, -0.3095650374889, -0.4596962630749, 0.2620054185390, 0.6909810304642, -0.1329348832369, 1.1983821392059, -0.6496647596359, -0.5657716989517, 0.4474498331547, -0.2789102196693, -0.0439122579992, 1.6038403511047, -0.2299520969391, -0.6175138950348, 0.1622551530600, 0.4023423194885, -0.5469479560852, 0.0729160457850, -0.4198080897331, 0.4464301466942, 0.2555555701256, -0.2783906757832, 0.2329149395227, -0.2144246995449, -0.0573648214340, 0.9820443391800, -0.0999540165067, 0.7634783387184, 0.0343418642879, 2.4331591129303, 0.8417798876762, -1.3125475645065, -0.4312812983990, -0.5914226174355, -0.2409916222095, 0.1730828583241, -0.4886741042137, 0.2512677013874, -0.2972842752934, -0.1443446427584, -1.6676596403122, 0.4568639695644, 0.3287987709045, 0.2079770565033, 0.0863665565848, -0.1840725988150, 0.5829653739929, -0.6275448799133, 0.2405145317316, 0.5135333538055, -0.2944681048393, 0.0469004921615, -2.2268552780151, -0.1701420694590, -0.2129555940628, -0.3401157855988, -0.4344175755978, -1.3775309324265, 0.2229493707418, 0.5418736934662, 0.5381265878677, -0.2740551531315, 0.3835335373878, 0.5289745926857, 0.2338390499353, -0.1447844654322, 1.4282745122910, 0.1079492568970, -0.4959978461266, 0.0683996677399, -0.4587204158306, -0.2114734053612, -0.2785942554474, -2.4141166210175, 0.2248770743608, 0.6478475928307, -0.0178641043603, 0.2858607769012, 0.4026881158352, 0.1354629099369, 0.3485931754112, -0.3419857919216, -0.0209892224520, 0.1940561980009, -0.8842386007309, 2.0939157009125, -0.5042771697044, -1.9733753204346, 0.1629469841719, -0.5553970932961, -0.7667161822319, 0.0046117543243, 0.0555007830262, -0.0671151801944, 0.4855205416679, -0.2829941511154, -0.5164482593536, 0.2896339297295, 0.1375584006310, 1.0186371803284, 0.3445042371750, -1.0688104629517, 0.2754637002945, 0.8212977647781, 0.6161267757416, 0.1288394182920, 1.5628565549850, -0.1993585973978, 0.1155256778002, -0.0562052614987, -0.2824369072914, 0.3887232244015, 0.2041557133198, -0.0474413409829, 0.0984537452459, -0.6385548710823, 0.0799294561148, -0.8835359215736, 0.1399599611759, 0.1013843417168, 0.5152187347412, 0.2531115412712, 0.3835017383099, 0.7459792494774, 0.5821619033813, -0.0481807440519, -0.0463608652353, 0.0461776256561, -0.3642240762711, -0.6006087660789, 0.2076176553965, -0.0435183942318, 0.0278073903173, 0.7942749857903, -0.0344907641411, 0.7825471162796, 0.3047594726086, 0.0913165658712, -0.3018989562988, -0.1349391937256, 0.2600198686123, -0.8029913306236, 5.5384044647217, -0.4240924119949, -0.4585005342960, -0.1672234684229, -0.6922892928123, 0.3159906566143, -0.2958983778954, 0.1852536499500, 0.6578637957573, -0.1417527645826, 0.7441858053207, 0.7913389205933, 0.3121089637280, -0.1897899359465, -1.4655872583389, 1.3243665695190, 0.2431243956089, 0.3479804396629, -0.1710093766451, -0.1668701469898, -0.4499030709267, 0.2921302914619, -0.2659994363785, 0.2614163756371, 0.8998820781708, 0.1337201446295, 0.5525975823402, -0.1655946075916, 0.0037284833379, -1.3159505128860, 0.0969337746501, -0.2079482823610, 0.1333787292242, -0.1184382289648, 0.0357707366347, 0.5723105669022, -0.1981037259102, 0.1279160231352, -0.1858932226896, 0.2502603828907, 0.3252688050270, -0.1609533280134, -4.2727971076965, 0.1236868128181, 0.0273764040321, -0.1244401857257, 0.2025613486767, 0.0583223216236, -0.0205859877169, -0.1214363425970, 0.0115175805986, 0.0479347445071, 6.9165310859680, -0.1748720705509, -0.1650032699108, -0.4737808704376, -0.0200699716806, 0.1571895480156, -0.2130013257265, -0.0624676682055, 0.0493334792554, 0.0495214536786, 0.3553698956966, -1.0946782827377, 0.1500285267830, 0.1108525395393, 0.1709666252136, -0.2195321768522, 0.1498874127865, -0.1398217231035, 0.1114763095975, 0.0159410014749, 4.2655315399170, -0.0113435275853, -0.3090989291668, 0.1942088901997, -0.0695592463017, 0.0080059468746, 0.1376454383135, 0.3230550587177, -0.1137197539210, -0.3177111744881, 0.0912883505225, 0.0139553248882, -0.0799101218581, 0.2260174304247, -0.0003015229013, 0.0529634132981, 0.3390562534332, 0.3964890539646, 0.0528032407165, 0.2173860520124, 0.1503356099129, -0.3446317613125, -0.2226215600967, 0.2726884186268, 0.3027351796627, 2.6312322616577, -0.2456161826849, 0.0744648501277, -0.4148520231247, -0.0177129693329, -0.2242145091295, 0.1114222928882, -0.1858806759119, -0.1420649737120, -0.1780858784914, 0.5129341483116, -0.3989036977291, -0.3468759655952, -0.3793092072010, 0.1993632316589, 0.1496087610722, 0.2002273350954, -0.8493679165840, -0.0101716667414, -0.3529792428017, 0.4284392297268, -0.1305416226387, -0.7976022958755, -0.2003762274981, -0.2581424415112, -0.2754202485085, -0.7536771297455, 0.0513065233827, 0.1458280831575, -0.5037549734116, 0.0060079377145, -0.1766206175089, -0.1319134235382, 0.2520307302475, 0.5489013791084, -0.1405840963125, -0.1034637540579, 0.8340266942978, 0.2791607975960, 0.4591820538044, -0.0849867388606, 0.1874954700470, 0.0170083343983, 0.0256144870073, 0.0375310368836, 0.0295517537743, -0.0276591777802, -0.0086644841358, 0.1281263381243, 0.0831948965788, -0.0727653726935, 0.3780579864979, -0.0959768220782, -0.3262719213963, 0.3229607939720, -0.2362460792065, -0.0281363930553, -0.2211134731770, -0.1165048182011, -0.0548055581748, -0.6335621476173, -4.4833016395569, 0.4256168305874, -2.3873214721680, -0.1536504179239, -0.2880830764771, -0.1950723081827, -0.0115817328915, 0.0669453144073, -0.0271797776222, 0.0101031130180, 0.1458226442337, 0.1033895686269, 0.4510138630867, -0.0035405030940, 0.0384517982602, 0.1527305841446, -0.4020541310310, -0.1111072450876, 0.1420137882233, -0.0102563118562, 0.0867794230580, -0.0007996155182, 0.1886949688196, -0.3441049456596, -0.0884472802281, 0.2109389007092, -0.1983473449945, -0.0649293288589, -0.9068443775177, 0.0193576961756, -0.3106909692287, -0.0421525798738, -0.1197342574596, -0.1876038014889, 0.2209868878126, 0.5246710181236, 0.1015963703394, -0.2247855812311, -0.0034332296345, 0.6449761390686, 0.2147948294878, -0.0930383652449, 0.0401247516274, -0.1078894436359, -0.0142873367295, 0.1232304573059, -0.0597699806094, -0.2412937879562, 0.3441609740257, -0.0320363380015, -0.4012695848942, -0.2124665677547, -0.0906500369310, -2.4067621231079, -0.5084636807442, 0.1026261374354, 0.0642223209143, -0.1302047967911, -0.1460187733173, -0.0831996574998, 0.0879315510392, 0.3801594674587, 0.3793615102768, 0.0090669691563, -0.1141093075275, -0.2750075161457, 0.0303914137185, -0.3558767735958, 0.4541189074516, 0.1379474103451, 0.0595888830721, -0.1095514446497, -0.9923778772354, -0.2997555732727, -0.4385120570660, -0.1398123204708, 0.0798385217786, -0.2127968072891, -0.8163198828697, 0.0174056030810, 0.1751913130283, -0.0552917160094, 0.3171798288822, -0.2130738198757, 0.1660125255585, 0.2867387235165, 0.4083142280579, -0.5925267934799, 0.4559241831303, -0.3563955724239, 0.4050450921059, 0.8429456949234, 0.2010501325130, 0.5046135187149, -0.0780158638954, 0.0715540945530, 0.1485041081905, 0.2754248380661, -0.0372902154922, 0.2261405736208, -1.2250808477402, 0.3613144457340, -0.2074266076088, -0.1259695142508, -0.3015705049038, 0.4299712777138, 0.6661595106125, -0.2854529619217, -0.1574863493443, 0.0742433369160, -0.5161290764809, 0.1428378522396, 0.0485265366733, -0.0464371591806, -0.6603426933289, 0.0804313644767, -0.0196945313364, 0.3794831931591, 0.2385458648205, 0.0703806281090, 0.9763662815094, 0.3912332952023, 0.1125893816352, -0.0898077785969, -0.3640750944614, 0.1411873549223, -0.1668410301208, -0.6252303719521, -0.0514961369336, 0.1401896476746, -0.4524239599705, 0.3625047206879, 0.3233936429024, 0.3993016779423, -0.0281421896070, 0.0398612655699, 0.4474146962166, 0.3486312925816, -0.5049840807915, 0.1494155228138, 0.2993604838848, -0.4979455173016, 0.1010319367051, -0.5310872793198, -0.0971533283591, 0.3217310905457, 0.2250596433878, 0.4980264306068, -0.2829568684101, 0.0773451402783, 0.5916942358017, -0.0673451274633, -0.1134131029248, 0.1957995593548, -0.2365522086620, -0.1177204996347, 0.1687745600939, 0.1728082150221, -0.2149027884007, -0.2078662514687, -0.0124737992883, -0.1769533604383, 0.1004350185394, 0.8469281792641, 0.3757057487965, 0.5101391077042, -0.3580956459045, -0.4976820051670, 0.5825940966606, 0.1980604231358, -0.1359458714724, -0.1026294827461, -0.3521233201027, 0.0750205144286, -0.1154949292541, -0.0490602031350, -0.2454488724470, 0.5029917359352, 0.0450840406120, -0.1976669579744, 0.2584721148014, 3.2919962406158, 0.1042097359896, -0.0846851095557, -0.9005422592163, 0.8694301247597, 0.2083486765623, -0.0731167122722, -0.3074797689915, -0.0790026411414, 0.1566899269819, 0.4576389491558, 0.2602711617947, -0.0481857880950, -0.2468304187059, 0.1659825295210, -0.0157361682504, -0.2306495159864, 0.0959996357560, -0.0068228631280, -0.1555399000645, 0.0910471677780, 0.0641011521220, -0.4691107869148, 0.1948808580637, 0.1250402629375, -0.0312332026660, -0.3919456303120, -0.6149340271950, -0.6073355674744, -0.1481902450323, 0.0539234355092, -0.3826131522655, 0.0909620225430, -0.1277904510498, 0.1972449570894, -0.0900752842426, -0.2410222291946, -0.0448107346892, 0.0892220661044, 0.3075947463512, -0.3728016912937, 0.0398424677551, -0.3459773659706, -0.4410125911236, -0.1394806355238, -0.1366107016802, -0.1275006830692, 0.2309125512838, -0.2102784067392, 0.3661834895611, 0.0294613856822, -0.2440763115883, -0.1642939448357, -0.3270223736763, 0.5533658266068, 0.3711450994015, 0.6110008955002, 0.0620847530663, -0.1747145950794, -0.4059781134129, -0.1344050616026, 1.1438060998917, 0.2630240321159, -0.0870163664222, -0.0627925768495, -0.1245533823967, 0.0758013129234, 0.5309442877769, 0.1641610413790, -0.5501182079315, -0.0883093029261, 0.6345817446709, 0.2179086357355, 0.3121070265770, -0.6117044091225, -0.0891040787101, -0.7428527474403, -0.3550858497620, -0.9679017066956, 0.1656507551670, -0.3140411376953, -0.4147307574749, 0.1467438638210, -0.1904827356339, 1.4247785806656, -1.5783675909042, -0.0821087062359, -0.1173670515418, 0.3203737437725, -1.7897760868073, -1.9247753620148, -0.9850723743439, -0.1366599351168, -9.9872112274170, 0.3656180799007, -0.6781640052795, 2.7118554115295, -0.2828025817871, 2.1232974529266, -0.2031532377005, 0.5579123497009, 1.2616455554962, -0.0791322588921, 0.1127723827958, -0.3007189929485, -0.7169515490532, -1.3981093168259, -0.3194025158882, -1.4768816232681, 0.3695688247681, -0.2049218565226, 0.7411718368530, 0.0427453368902, 0.2477630376816, -0.0357607156038, -0.1464479267597, 1.3979301452637, 0.5450904369354, 0.0773144587874, -2.5667679309845, -0.1894534379244, -0.2800243496895, -0.1870614588261, -0.2235061973333, -0.0004695344251, -0.1501293927431, -2.9276094436646, -0.3533320128918, 0.7182819247246, 0.0295281540602, 0.3508141934872, 0.5023565888405, 0.7207753658295, 0.5522784590721, 0.3625614047050, -0.7649459838867, -0.2251061201096, 0.8907095193863, 0.4365118741989, -0.8222615122795, 0.7387008070946, -0.2155720293522, 0.0262416861951, 1.3222315311432, -0.3408186435699, -0.7290966510773, 0.6499345898628, 0.6774517893791, -0.5356606245041, 0.7655490636826, 1.5945452451706, -2.7339591979980, 0.0085677299649, 0.7434279918671, -0.6647664308548, -1.2855795621872, 0.1976950168610, 0.2269143611193, -0.0419630482793, 1.7953960895538, -0.0963486731052, 0.0627178028226, -0.1150097101927, 1.1000200510025, 0.3171358704567, -0.4479721784592, -0.3245049715042, -2.4516284465790, 0.6859713196754, -0.8975375890732, 0.3852336406708, 0.0700844824314, -0.9368610382080, -0.0217845626175, 0.3684711754322, -0.4529172182083, 2.8165192604065, 0.2845826447010, 0.4952333867550, 0.4887626469135, -0.4974876344204, 0.6975336074829, -0.3269046843052, 0.3944449126720, -0.4361290037632, 0.7914658784866, 0.1970084011555, 0.3026499450207, 0.2679518461227, -0.1609077006578, -1.0442820787430, 0.5807172060013, -0.1721335053444, 0.9598686695099, 0.1062950491905, 0.2115767449141, 0.5850090384483, -0.9955484271049, 1.6061288118362, -0.1018502414227, 0.6332853436470, -0.0928500145674, -0.5888160467148, -0.3440086245537, -0.9320117831230, -0.1892044097185, 0.3157399594784, -0.0080650998279, 1.7173439264297, 0.7399225234985, 0.3646261394024, 0.0036291750148, 0.0331093035638, 0.3452214300632, 0.2527629435062, 0.5778025984764, -0.4282710552216, 0.1703080683947, -0.7193846106529, -0.9612538218498, -1.6020249128342, -0.6168396472931, -0.0020840473007, 0.1174863576889, 0.7570985555649, -0.7913937568665, 0.6053923368454, 1.2219772338867, 0.9744843244553, -0.1166031435132, -0.0783281400800, -0.9770928621292, -0.7028601169586, 0.7128715515137, -0.3644881248474, -0.4121803939342, 0.3261420428753, 0.8913636803627, -0.6687100529671, 1.7179645299911, -0.6259897947311, 0.3954539895058, 0.1311916708946, 0.1231253743172, -0.1983538717031, 0.6154000759125, -0.3835924863815, 1.0020298957825, -0.1244135871530, -0.2182846516371, 0.0288442969322, 0.8972520232201, 0.3322657942772, 0.1612022817135, 0.5766822695732, -0.8042656779289, 0.5637074708939, -2.0276162624359, -0.4779768288136, -0.4406366050243, 1.7360991239548, -0.1853409707546, 0.1227269247174, 0.3323382735252, -0.0142528368160, 0.0892884880304, -0.2583304941654, -0.2301363348961, -0.1657857894897, 1.0758882761002, 0.3252956867218, 0.1561742126942, -0.4140180349350, -1.7093029022217, -0.7530134320259, -0.4054005146027, 0.4334374368191, 0.3773127198219, -0.7051582932472, -0.0010210620239, -0.5417335629463, -0.1300770491362, -0.0738867595792, 1.7118794918060, -0.0322846658528, -0.2499105632305, 2.1291692256927, -0.0429324172437, 0.7099919915199, 0.7453109622002, -0.3057569861412, -0.5635385513306, -0.2782063186169, 0.7654932737350, -0.6993228197098, -0.2439071536064, 0.0183119662106, 0.8999335765839, -1.7285910844803, 0.1775604486465, 0.0427987314761, -0.1237767711282, -0.8053776025772, -0.0446310341358, -1.3311840295792, 0.1627403944731, 1.6905710697174, -0.2772694826126, 0.7954443693161, -0.4038984775543, 0.0158862825483, -0.4196319580078, -0.6073610782623, 0.5355501770973, 0.6652908921242, -1.4777414798737, -0.2109169512987, 0.0661825984716, 0.2241793572903, 0.1340787112713, 0.0421692430973, 1.3238601684570, -0.3461225926876, 0.0902586206794, 0.7981853485107, -0.3667143881321, -0.1246254295111, -0.2219416648149, 0.2263452410698, -0.2914749383926, -0.0050698895939, 1.1090453863144, 0.4075791239738, -1.3475648164749, 0.5906318426132, -0.3698760867119, -0.6487504243851, 0.3369624018669, -0.4609702527523, -0.2390775233507, -0.1511545628309, -1.7479803562164, 2.2701027393341, -0.3923141956329, 2.9084239006042, -0.0101409694180, 0.5625873208046, -2.0487303733826, -1.1820330619812, 0.3547176122665, 2.2071657180786, -0.6357555389404, -1.4170273542404, 0.1731046438217, -0.0628184452653, 0.1182224079967, -0.2893175184727, 0.1092068850994, 0.5792741179466, -0.1914415806532, -0.2542885839939, 1.1158245801926, -0.7225357294083, -0.3652968406677, -1.6127068996429, 0.2219001054764, 0.5258448123932, 0.0846052020788, -0.1481834650040, 0.2059348076582, 0.2203902751207, 0.7010672092438, -0.1087238863111, -0.4686264395714, -0.4158993065357, -0.6865412592888, 0.3443214893341, -1.9980504512787, -1.2891349792480, 0.2966617643833, -0.2953344583511, -0.3015159964561, -0.3946437835693, 0.9625050425529, 0.1837939769030, 0.7595946788788, 1.0942265987396, -0.4093896150589, 0.6440079808235, 0.7360081076622, -1.1872974634171, -0.7944098114967, 0.8014111518860, 0.2400571703911, -0.5614195466042, 0.4879373610020, 0.5066955089569, -0.0761571824551, -0.2390057891607, -0.3113827705383, 0.6463543176651, -0.6376863121986, 1.0513265132904, -0.3115414083004, -1.3852291107178, 0.6197141408920, 1.1747989654541, -0.4124377369881, -1.7034146785736, 0.5085492134094, -0.2041982859373, -1.8271121978760, 0.8246523141861, 0.2503511011600, 0.0459991879761, 0.4951719641685, 0.0044046114199, -1.4459949731827, 0.5760022997856, 1.1708328723907, 1.9332977533340, -0.2354830503464, 0.3282868862152, -0.1835980415344, 0.0704438462853, -0.1092954054475, -0.0602655857801, 0.2300458252430, -0.4375025629997, 0.0679890662432, -0.2737286984921, 0.0052371011116, 0.4035814106464, 0.7128937840462, -0.3789584934711, 1.1604819297791, -0.8594942688942, 0.1082543060184, -0.0267715323716, -1.0422792434692, -0.1576973795891, -0.2340939193964, -0.0655056312680, 0.4576433300972, -0.2607809007168, 0.8469560742378, 0.2163023054600, 0.0671973302960, 0.1541097611189, -0.8121995925903, 0.0463244318962, 0.4110923707485, 0.5361691117287, 1.2788193225861, 0.5895521640778, -0.1503601372242, 0.1769564598799, -0.4884551763535, -0.7774817943573, -0.1280512362719, 0.1999961435795, 0.5861815810204, -0.1599950790405, -0.0617833100259, 0.7818801403046, -1.3734092712402, -0.1366433948278, 0.0291020665318, -0.4457262754440, 0.0074069648981, 0.8200445175171, 0.1053368970752, 0.4147227406502, -0.5591905117035, 0.5021873116493, 0.0920597985387, 6.4709582328796, -0.0299440864474, -1.5950161218643, 0.1299075633287, 1.5312517881393, 0.0488940812647, -0.0589646287262, -0.5694500803947, 0.1505176424980, 0.2890984117985, -1.4556270837784, -0.0849756374955, 0.4230695664883, 0.1936306357384, 0.2700906991959, -0.4116534590721, 0.7811796069145, -0.5387760996819, 0.7823774218559, 0.6945926547050, -0.0922574698925, -0.1389463245869, -0.2971140444279, 0.0130089912564, -0.1232687383890, -1.0840464830399, 0.1642199456692, 0.2641425132751, -0.2985160350800, 3.7482426166534, -0.1636911928654, -0.3571460545063, -0.2281667590141, -0.1599200218916, 0.3906718492508, -0.7220265269279, -0.0794583931565, -1.8928636312485, -0.5772558450699, 0.7649334669113, -0.2828001677990, -0.8082429170609, -1.2966192960739, -0.9450698494911, -0.1127472594380, -1.2893108129501, -0.4351988732815, -0.2118726372719, -0.0751013830304, -0.5545691251755, 0.4905240535736, 0.5375424623489, 0.3838251233101, 0.3615027666092, -0.4776280522346, 0.3402915894985, -0.2141169309616, 0.9320650100708, -0.3596043586731, -0.1126971542835, 1.0541249513626, -0.2486483752728, -0.4623266458511, -0.6631920337677, 0.7278627157211, -0.2496210187674, 0.2958808839321, -0.2625835537910, -0.6532438397408, 0.6983656287193, -1.5705667734146, -0.2318216413260, -0.1757325977087, -0.2721005082130, -1.3286929130554, 0.3959203064442, 0.6081710457802, 0.1108571141958, -0.1312844157219, -2.4216642379761, 0.2273421436548, 0.7118913531303, -0.5930492877960, -0.5220668315887, -0.4628020226955, 0.1869841814041, 0.0609226301312, 0.1819027662277, -0.5526841878891, -1.6991080045700, -0.1434751600027, 2.2160429954529, -0.5450143814087, 0.1405552476645, -0.0035784721840, -0.1513259708881, 0.1979058533907, 0.1198674067855, -1.6919527053833, -0.2599805593491, -0.4367697834969, 0.0524045526981, 0.0246047731489, 0.2774789035320, -0.2079339027405, -0.9305403232574, -0.4360551536083, -1.1984457969666, 0.8201256990433, 0.6248670220375, -0.3206827640533, 0.0812159404159, 0.4427483975887, -0.7187927961349, -1.1723315715790, -0.8569611907005, 0.2348140329123, 0.5014994740486, 0.7014153003693, 0.6395391225815, 0.0314415395260, 1.1112052202225, 0.0716869235039, 0.9387097954750, 0.1268635839224, 0.2970628142357, -0.0244979728013, -0.4051915407181, -1.1709320545197, -0.4923747777939, -0.0813623517752, 0.2035598307848, 0.1822139769793, -0.3614163100719, 0.7089142799377, -0.4502883851528, 0.7377514243126, 0.1122617647052, 0.0096349101514, 0.5354748964310, 0.7106535434723, -0.5197496414185, -0.2756690979004, -0.4314283430576, 0.5327366590500, 0.8505823612213, 0.9757720232010, -0.5159133672714, -0.3853648900986, -0.5423526167870, -0.0604064874351, -0.5550971031189, 0.3641023635864, -0.2772598564625, 0.4610945880413, 0.8656404018402, 1.6733152866364, -0.1262127310038, -0.2612653970718, 0.2168779820204, -1.0729501247406, 0.3589745759964, -0.1427572369576, 0.0966707915068, -0.9003950953484, -0.4056478440762, 0.1790242344141, 0.2276425957680, -0.2223909497261, 0.0488355942070, -0.5242267251015, -0.9613465666771, -0.2835573256016, -0.1290926337242, -0.9885783791542, 0.4655802547932, -1.0867180824280, 0.0483066290617, -0.3476323187351, -0.3841015696526, -0.2380873411894, -0.4507856965065, 0.6686672568321, -0.7847488522530, 0.6555724143982, -0.8382503986359, -2.2233188152313, -0.1968221068382, -0.0946353971958, 0.5805343985558, -0.6253794431686, -0.0433538816869, -0.8710750341415, -0.5263654589653, -1.4131501913071, 