//Numpy array shape (23296,)
//Min -8.301033973694
//Max 9.531585693359
//Number of zeros 0

#ifndef OUT_PROJ_WEIGHT25_H_
#define OUT_PROJ_WEIGHT25_H_

#ifndef __SYNTHESIS__
layers_2_ffn_out_proj_weight_t out_proj_weight25[23296];
#else
layers_2_ffn_out_proj_weight_t out_proj_weight25[23296] = {-1.0840526819229, -1.0936276912689, -0.2570825219154, 0.2359260916710, 0.3242417871952, -0.0506644807756, -0.4906536340714, 0.0573140420020, -0.2543088495731, -0.3269650936127, 0.3105607330799, -0.4512572884560, -0.3932584822178, 0.0577620342374, 0.0614750310779, -0.2898249328136, 0.7635889053345, -0.3690825104713, -0.5337600111961, -0.5708775520325, 0.2894405722618, 0.0082551585510, 0.6975968480110, 0.1273081600666, -0.2113529294729, 0.7339591383934, -0.0581637434661, 0.3882468938828, -0.4733998477459, -0.0697169825435, -0.0192442908883, 0.2269138693810, -1.0344487428665, 0.4155885577202, 0.5286711454391, 0.4920638501644, 0.6118380427361, 0.1688194125891, -0.5148156285286, -1.2104688882828, 0.0760785713792, -0.5322799682617, -1.3811156749725, 0.3371023535728, 0.0510629191995, 0.8549756407738, 0.0047237039544, 0.1662220358849, -0.0124234808609, -0.3207674324512, 0.0336933583021, 0.9911325573921, 0.6792992949486, 0.2029724568129, -0.1063213720918, 0.1621351987123, 0.2222180664539, -0.3376454412937, 0.9111121892929, -0.1113123223186, -0.1594165116549, -0.0726112276316, -0.3604174256325, 0.0323439724743, -0.3073551952839, 0.2114180177450, -0.2454374283552, -0.5002269744873, 0.2572390735149, 0.3267038166523, 0.1086957007647, 0.6279921531677, -2.5789568424225, -0.0939084887505, 8.4107599258423, -1.2345314025879, -0.0234005376697, 0.7394981980324, 0.4814616739750, 0.2833947241306, 0.3951311707497, 0.4987398684025, 0.4111254215240, 0.0040432447568, -0.3992043733597, -0.1428710222244, -1.7676544189453, 0.5942275524139, -0.0708816200495, 0.0862891077995, -0.4530545175076, 0.2902384102345, 0.2732697427273, -0.1469244807959, -0.0551874190569, 0.2010949552059, 0.0455686263740, -0.0759839788079, 0.5037977695465, -0.0055643310770, 0.3157709538937, -0.1138862892985, -0.1757442355156, -0.3253123164177, 0.7227266430855, -0.1788849830627, 1.7106802463531, 0.1760220527649, -0.0840726718307, 0.4937878549099, -0.1446372121572, 0.0524439215660, -0.2193273901939, -0.8053857684135, -0.1081196665764, -1.5174173116684, 0.7105904817581, -0.1275149285793, 0.0072977575473, -0.0810589417815, 0.2031662762165, -0.1724600493908, 0.7550442218781, -1.9513895511627, -0.1073179915547, 0.0158726032823, 0.3975144028664, 1.4628064632416, -0.0396211333573, 0.1709906905890, 0.1558602452278, 0.2378149032593, -0.2489914447069, 0.2004183679819, -0.4535692036152, -0.2961513996124, 0.1309836357832, -0.3622681200504, 0.3179138898849, 0.1570096462965, -0.4113357663155, 0.0258919633925, 0.6605672240257, -0.0830523893237, -0.7956312894821, -0.2823645174503, 0.8159710168839, 0.3916023969650, -0.4754088222980, 0.2774219810963, -0.1729811131954, -1.2468447685242, 0.4950732290745, -0.3144363462925, -0.2266654074192, -0.2392847687006, 1.0371044874191, -0.3115986883640, 0.1797456890345, -0.0358499698341, -0.8195264339447, -0.5672419667244, -0.4493905603886, 0.7537053823471, -0.4100055694580, -1.2446498870850, 0.0941957011819, -0.7913953661919, 0.0910654887557, -1.6526293754578, 0.4482077658176, -0.5136210918427, 0.3891339004040, -0.0969976857305, 0.4891107976437, 0.3503106832504, 0.0231526419520, -0.0235502477735, -0.1111103817821, -0.0580952093005, -0.0911437496543, 0.0216844417155, 0.1720643788576, 0.4592874646187, 0.1820988357067, -0.0557697787881, 0.0837188363075, -0.3020818233490, -0.1373930275440, -0.0739280059934, 0.0525933951139, 0.0191727671772, -0.7960741519928, -1.0670959949493, 0.2220831662416, -0.7471223473549, -0.2093401849270, 0.3509997427464, -0.0800455436110, -0.2403669953346, 0.1681799143553, 0.2020333856344, 0.2888481616974, -0.0060745207593, 0.2448269426823, 0.5984698534012, -0.0251204706728, -0.2538954615593, -0.1538299620152, -0.2147904336452, -0.1597351431847, -0.1782414466143, -0.4000432193279, 0.0146164102480, -0.1834459155798, -1.2292292118073, 0.1186476349831, 0.0917343720794, -0.0996105149388, -1.4565230607986, 0.1510497182608, -0.0042631095275, 0.0210009478033, 0.1305543780327, -0.1524996459484, -0.0178191233426, -0.0185198578984, -0.4625418186188, -0.0922174677253, -0.0523099601269, -0.4986830949783, 0.1728989630938, 0.3431075513363, -0.7434568405151, -0.1694066822529, -0.0768856704235, 0.0541913546622, 0.3570986390114, 0.0413167364895, 0.1051514297724, 0.2758108079433, 0.0496871322393, 0.0114657673985, -0.3253424763680, -0.0982998535037, 0.0988114476204, 0.0234181191772, -0.0671787336469, 0.2253414839506, -0.2436900734901, 0.0693558976054, -0.3033181726933, 0.0110780317336, 0.2832200825214, 0.5011935234070, 0.1271126419306, -0.3713360726833, 0.3408745527267, 0.3019878268242, -0.0511697791517, -0.2444527000189, -0.2531842589378, 0.1143259555101, -0.2150201797485, 0.0485096909106, 0.3622010052204, -0.3405931293964, 0.1862519234419, 0.2839300036430, -0.0719007179141, 0.0833163931966, 0.1151838377118, -0.2578867077827, 0.7326190471649, -0.2768588364124, -0.2078041583300, 0.0687190368772, 0.2800789177418, 1.1580910682678, 0.0703486800194, 0.0795013681054, -0.6607144474983, 0.0030203855131, -0.0650528669357, 0.2730433344841, 0.0090213473886, -0.4449406266212, 0.0276842284948, -0.0337310209870, -0.1955761909485, 0.3620994687080, -0.1047027334571, 0.0258917603642, -0.3691086471081, -0.0241470988840, -0.0039005584549, -0.1407566666603, 0.0057129901834, 0.3552655279636, -0.4314152896404, -0.0739793404937, -0.0643567889929, -0.0329041853547, 0.1021454110742, -0.2845062315464, 0.1389469653368, 0.2422291338444, -0.2375831007957, 0.0476338528097, 0.1921957135201, -0.1874864101410, 1.2612924575806, 0.1984075158834, 0.2450806498528, 1.4061546325684, -0.1409766674042, 0.4519524872303, 0.5975151658058, -0.2170038670301, 0.2435151636600, -0.0181014966220, -0.0082661956549, 0.0032472652383, -0.3293304145336, -0.2679221332073, 0.0605075471103, -0.1776336729527, -1.7174986600876, 0.2336552590132, -0.1762623786926, 4.6508846282959, -0.6249435544014, 0.2893017828465, -0.5790365338326, -0.0822526291013, 0.0890301391482, 0.1319957375526, 0.1567017883062, 0.4026437401772, -0.5875294804573, 0.2562400102615, -0.2649762034416, 0.1152692884207, -0.7274467945099, -0.1397039145231, 0.0044155982323, -0.0566644780338, -0.2783732712269, 0.1077730953693, -0.4207430481911, -0.5041183233261, 0.0836951807141, -0.0518786795437, -0.0195422321558, 0.5614073872566, -0.1075848490000, 0.3223451972008, 0.0337484590709, 1.8203823566437, 0.0717515274882, -0.2469794601202, 0.0938596129417, -0.0259549375623, -0.0384439826012, 0.4921521544456, 0.1458091437817, 0.4596484005451, 0.4969643354416, 0.0203972831368, 0.2892061173916, 0.7231556177139, 0.1215258464217, -0.3638045787811, 0.4341664612293, -0.0676352754235, 0.3656300008297, -0.2440145313740, 0.5997309088707, -0.2852064967155, 0.9907942414284, -0.4715452790260, 0.3270186781883, -0.4954970180988, 0.0408742167056, 0.2292746752501, 0.2827229797840, -0.1853911131620, 0.9438239932060, -0.2071184813976, -1.2079193592072, -0.2090466171503, -0.1700585633516, -0.2883710563183, -0.0031736008823, 0.6392031311989, 0.5675157904625, -0.4990836679935, -0.3157366812229, 0.5087537169456, 1.2378857135773, -0.6702215075493, 1.1952270269394, -0.4252236783504, -1.5449274778366, 0.0618676543236, 0.1989135593176, 0.2712881565094, -0.7644047141075, -0.1810023039579, 0.3825325667858, -0.0833555385470, 0.2110486924648, 0.1201456114650, 0.0917296558619, -0.4996178746223, 0.5787268877029, -0.4237041473389, -0.5172355175018, 0.0604238063097, 0.7724112868309, 0.0236735511571, -0.6134737133980, 0.3905885815620, 0.6990297436714, 0.0765978172421, -0.2041647434235, -0.4867433607578, -0.2580303251743, -0.3289888501167, 0.7215858697891, 0.0342246331275, 0.1878700256348, -0.0574455820024, 1.1313858032227, 0.7852898836136, -0.0856439694762, -0.4912598729134, -0.2070397138596, -0.1736466139555, -0.0958892107010, 0.8556555509567, -0.2170558422804, -0.6678023338318, 0.3078328967094, -0.4554116129875, -0.1316165924072, 0.6273055672646, 0.0271039288491, -0.8698687553406, 0.1585622429848, -0.6496164202690, 1.3091118335724, 0.5100634694099, 0.5911724567413, 1.0028696060181, -0.7599074840546, -0.4573996067047, 0.0888329222798, -0.1302468031645, 0.0225835666060, -0.9241733551025, -0.2206508964300, -0.4396062195301, -0.4782159924507, 0.6591106653214, -0.2547183930874, -0.8193734288216, 0.0687939375639, 0.7496147155762, 0.5141057968140, 0.1987201869488, -0.7190985679626, -0.5309821963310, -0.4242431223392, 0.7869451642036, -0.4983363449574, 0.5367593169212, 0.0989484190941, -0.4154144823551, -0.5093224048615, 0.0236567966640, -0.1379365921021, 0.1424949169159, 0.0893694683909, 0.1474687755108, 0.3274891078472, 0.7486769556999, -0.2949932813644, -0.0611426383257, -0.3639193177223, 0.1570494771004, -0.5761924982071, 0.4252374470234, -1.8266987800598, -0.4142262041569, 0.6151547431946, 0.3227726221085, 0.5579730868340, -0.5552364587784, -0.2620076537132, 0.1026843115687, 0.0136470543221, -0.3171413242817, 0.4476851820946, -0.0707143917680, 0.2793402969837, 0.9464227557182, 0.1150920093060, 0.3806464970112, -0.3703614473343, -0.2742901146412, 0.3789647519588, 1.0350379943848, 0.5226946473122, 0.0496694967151, 0.0052037690766, -0.0409486480057, 0.2252604216337, -0.1251192986965, 0.0578553713858, 0.9031237363815, -0.1763543933630, -0.0791481807828, -0.3459761440754, -1.0216871500015, -0.4891043007374, -0.2352482080460, 0.0568366907537, -0.3917469382286, -1.1457527875900, -0.0667248815298, -0.1507366001606, 0.3690293133259, 0.5006814599037, 0.1086505874991, -0.8701067566872, -0.2058257013559, 0.1320048719645, 0.2742373645306, 0.1505823135376, -0.3219509422779, -0.7962418794632, 2.7375972270966, -0.0093152131885, -0.2533557713032, -0.2050289660692, 1.3781650066376, 0.1942741870880, 0.0657937228680, 1.1061424016953, -0.9511563777924, -0.1994418203831, 0.5751512646675, 0.4344698190689, 0.0095237940550, 0.0741329267621, -0.4877719879150, 0.5055482983589, 0.1906797736883, 0.0075246426277, 0.1449976563454, -1.0723803043365, 0.3487089574337, 0.6148546338081, 0.0495851933956, 0.1929592490196, -0.8434385657310, -0.1417202949524, -0.5049574971199, -0.1418299823999, -0.3236352503300, -0.3920305371284, -0.2111691832542, -0.0929872915149, -0.3610068857670, -0.0305054020137, -0.1836703866720, 0.1745615750551, -0.1449796557426, 0.0792150646448, -0.1432874202728, 0.6847972869873, -0.0903098806739, -0.7796730995178, -0.0829485952854, -1.1225249767303, -0.1831575781107, 0.2715496122837, 0.2940815687180, 0.4817997813225, -0.2044640481472, 0.0587588772178, 0.0945010334253, -0.2346567064524, -0.0007317466661, -0.3082455992699, 0.3416560292244, -0.8563051223755, -0.0965426564217, 0.0829070955515, -0.0851019844413, -0.1743702441454, 0.3425797820091, -0.1144810840487, -0.1945979595184, 0.1175228953362, 0.1371114253998, 0.4658530950546, -0.2329106926918, -0.0343280136585, -1.1986823081970, 0.1030309423804, 0.3022520840168, -0.1334065496922, 0.0695354714990, 1.4007173776627, -0.4374890327454, 0.5203046798706, 1.0675594806671, 0.5375409722328, 0.1772405207157, 0.2929274439812, -0.1835628449917, -0.2084163278341, 0.5689915418625, 0.0150261037052, 0.0071138693020, -0.0960135459900, 0.1496797353029, 0.1326442509890, 0.3105390071869, -0.4045087993145, 0.0079026436433, -0.2152045518160, -0.2917331457138, -0.0324199050665, -0.1072251871228, 0.1005242615938, 0.1405629515648, 0.5187773108482, 0.3853983581066, 0.2618363201618, -0.2865877449512, 0.0845920369029, 0.1839456558228, -0.1793794780970, 0.7384624481201, 0.4901250004768, -0.0200832299888, -0.4191894233227, -1.2179901599884, 0.2561834454536, -0.0365281403065, 0.1060752272606, 0.2402335107327, 0.7011724710464, 0.1978140175343, 0.4473614692688, 0.1512153595686, 0.3116486370564, -0.0607786849141, 0.0818256661296, 0.8013491034508, 0.1469746679068, 0.1141411289573, -0.1978468596935, -0.3854681551456, -0.2072852700949, 0.2519852817059, 0.9691430926323, -0.4294146895409, -0.3812322914600, 0.2183433920145, 0.8105027079582, -0.2296679019928, -1.6792478561401, 0.2880032658577, -0.0621718093753, -0.7687728404999, -0.1488312631845, -0.2842526137829, -0.1550989896059, -0.0113027552143, 0.0414177291095, 0.2534454762936, 0.1696805804968, 0.2279901057482, -0.1367210149765, -0.3952762782574, 0.0248294044286, 0.1310745477676, 2.1142292022705, -1.4150487184525, -0.8730753660202, 0.5359573960304, -0.1185606494546, 0.2209726721048, -0.1984018385410, 0.1089870780706, 0.1775245666504, -0.0192686989903, 0.3115079998970, 0.0172415282577, -0.7899588346481, -0.5455988049507, 0.0041348501109, -0.1360706835985, 1.2740279436111, -0.0382310152054, -0.4612602293491, 0.4397264420986, -0.4754676818848, 0.0852005779743, -0.2366249561310, -0.1374381184578, -0.1735990196466, 0.2261078357697, -0.6014012694359, -0.0103856660426, 0.2244140356779, 0.0783377885818, -0.0357216484845, 0.2881929874420, -0.5369833111763, 1.6067521572113, -0.2313694655895, 0.3791386485100, 0.3933770954609, 0.6987307071686, 0.3461961746216, 1.1034928560257, -0.0752024129033, 0.1101355031133, -0.0403306558728, -1.1074230670929, 0.1375362575054, 0.0603912360966, 0.0940802544355, -0.6393094658852, 0.2124501913786, 0.1587853878736, 0.4492912888527, -0.2362547069788, 0.6310474276543, 0.1524265706539, -0.8733563423157, -0.0749692693353, 0.4237511157990, 1.7911998033524, -0.3555524051189, -0.4822283983231, 0.6701989769936, 0.1522667258978, 0.1680141389370, 0.0484873428941, -0.4384964108467, 0.5596193075180, -1.1226990222931, 0.8838853240013, -0.1913872510195, -0.0129484059289, -0.7799332737923, -0.3616313040257, 0.1831295341253, -1.2204933166504, 1.6763665676117, 0.2600836455822, -0.4584882855415, 0.1477334350348, -0.5113731622696, -0.6634112000465, 0.4017840325832, -0.0572470016778, -0.5901713967323, -0.0817954540253, 0.4184759855270, 0.2460848093033, 0.3140478134155, -0.7345747947693, -0.5090246796608, 0.4852550029755, -0.4003543257713, -0.1808499991894, -0.7582007050514, -0.6455498337746, 0.0045005595312, -2.0274808406830, 1.2735433578491, 0.4013434946537, -1.5208088159561, -1.0053176879883, -0.2359274178743, 1.0626430511475, 0.4621643424034, -0.4596752822399, 0.1165334656835, 0.1594278961420, -1.5526822805405, 0.0119400704280, 0.4766488671303, -1.2180517911911, 0.3942588269711, -0.0287202149630, 0.6413542032242, -0.5413609743118, 0.2458983361721, 0.3665928840637, -0.1716777384281, -1.3854284286499, 0.4604675471783, -0.2333125174046, 0.0985453352332, 0.0840877220035, -0.2388853281736, -1.0465687513351, 0.1840751767159, 0.1913524419069, -0.2482320815325, -0.0655351579189, -0.7003145217896, -0.3272315561771, -0.4525966346264, 0.4476535916328, -0.3009424805641, 2.0920031070709, 0.0707977563143, -0.0954424813390, -0.7532746195793, -0.5846714377403, -0.1473913788795, 0.5723196268082, 0.4694837629795, -0.1049722656608, -0.5295175909996, 0.3058326840401, 0.2088510245085, 0.0462482124567, -0.0705479457974, -0.5828693509102, -1.1606712341309, 0.2467026561499, -0.3349083065987, -0.0014639046276, -0.2301746457815, -1.0794054269791, 0.1141391098499, -0.9901857376099, -0.2988176941872, -0.3725568950176, -0.1800702065229, -0.5438568592072, 0.1031940802932, -0.1359771192074, -0.5353708863258, -0.1398477703333, -0.4049036800861, 0.7070901989937, -1.1753063201904, -0.2046887278557, 0.2400265187025, 1.0191365480423, 1.9030389785767, 1.3856801986694, 0.4677869379520, 0.9965453147888, 0.3341683447361, 0.5535632967949, 0.4990010857582, 0.1386445909739, 0.1409348994493, 0.4833913147449, -0.4299195110798, -0.0374272242188, 0.3640979230404, -0.1999122202396, 0.3790258765221, 1.2901562452316, 1.3097305297852, 1.5433373451233, -0.3303866386414, 0.1279493123293, 0.2480197846889, -0.3255653679371, 0.3209336102009, -0.1317183673382, -0.8434641957283, -0.1877593100071, 0.3593298196793, -0.6401277780533, 0.6650675535202, 0.1774769127369, -0.3572673201561, 0.6792308688164, 0.0002413572656, -0.9401087760925, -1.3496407270432, -1.0627264976501, -0.6506257653236, 0.2098782211542, -0.0509159453213, 0.5298077464104, 0.4781794846058, -0.8287063837051, -0.0411731563509, 0.5058067440987, 0.2357048839331, 1.8372925519943, 0.5227999091148, -0.1099325418472, -1.1607081890106, 0.3143112957478, 1.5527957677841, -0.0057107470930, -0.3486562371254, -1.3009649515152, 0.0933232158422, 0.2970285117626, -0.0682990401983, 0.2800688147545, -1.4550328254700, -0.2730691134930, 2.8309745788574, 0.1610621958971, 0.1178184375167, 0.1989553570747, -3.5593743324280, -0.1742645502090, 1.1177775859833, 0.5577971935272, -0.5863081216812, -1.0852137804031, 0.1728161871433, 0.0914715379477, -1.7995473146439, -0.0204657148570, 0.2670829296112, -0.0320495627820, 0.2781403660774, 0.4037117063999, -0.4436701238155, 0.0491728149354, 0.8024541735649, 1.4516301155090, -0.8446888923645, -0.6697840094566, -0.3133589625359, 1.5552929639816, -0.2376505285501, -0.2487234175205, -1.9030567407608, -0.0824996531010, 0.0612750574946, -1.0270332098007, -0.0996460914612, 0.3540467023849, -1.3906478881836, -0.1748960614204, 0.0328081659973, 0.6511807441711, -0.5098978877068, -0.1509940624237, -2.1182625293732, 1.2261795997620, -0.3980703949928, -0.7814397215843, -0.9195021390915, 0.1496037095785, 0.1201740577817, -0.3922082483768, 0.6493098735809, 0.6125232577324, -0.7140607237816, 1.2514772415161, 0.6309702992439, -0.6326055526733, -0.0220359005034, 0.7619099020958, 0.2229876816273, -0.1484816223383, 1.3170095682144, -1.1339792013168, -0.8608668446541, -0.3763881921768, 0.2947317659855, 0.4886412918568, 1.1010063886642, -0.0242057088763, -0.3788952827454, 0.8892724514008, -0.0547239109874, -0.0785187110305, -0.3270710110664, 0.0664703398943, -0.1997747570276, 0.1083207577467, 0.7237227559090, 0.3656469583511, -0.4270309805870, 0.0198026131839, -1.4593716859818, -0.0610856562853, -0.8167049288750, 0.1641090810299, 0.7413268089294, -0.0506171286106, 0.1887807250023, -0.8926980495453, 0.4753096401691, -0.9925010800362, 0.5900888442993, 0.5289989709854, -0.3321486413479, -0.0909155234694, 0.4748146831989, 0.4706794321537, -0.2391387820244, -0.3357051014900, 0.6621234416962, 0.0238354131579, 0.3055513203144, 0.8583442568779, 3.2225456237793, -0.4195909500122, -0.3262344598770, 1.8559988737106, -0.3072436749935, -2.9332282543182, -0.3781891465187, 2.6484758853912, 0.6616920232773, 0.3701572120190, 0.5731564760208, -0.9188889861107, -0.1912039518356, -0.3742561042309, -0.2477069795132, 0.8191433548927, 0.9677879810333, -0.2903057932854, -0.6143768429756, -0.2798984348774, 0.0206151548773, 2.4876739978790, -0.7727622389793, 1.3155976533890, -0.0489009059966, 0.0476642884314, -0.0391286499798, 0.3447940647602, 0.4949721693993, 0.2232203632593, -0.2391344010830, 1.2026363611221, -0.0006045683403, 0.5918361544609, 1.9193164110184, -1.1844542026520, -0.6606653332710, 0.2118232250214, 0.3366930186749, -0.4591567516327, -0.8550460934639, -0.9752926230431, -0.5901365280151, 2.1156044006348, 0.0709693133831, -0.9610164761543, 1.0160012245178, -0.3137406706810, 0.2392903119326, -0.1594390571117, 0.7749544978142, 0.0872862786055, -0.5765178799629, 0.1381916105747, 0.4026339352131, -0.3696404695511, -0.2002331465483, -0.8009487986565, -0.4945860803127, 0.3479658961296, -0.6015847921371, 0.7507336735725, -0.0471608377993, 0.9794329404831, -0.0046111773700, -0.5925944447517, -0.0052538723685, -0.4737198650837, 0.2411780059338, 0.0621449202299, -0.1383905261755, 0.2198526412249, 1.4606306552887, 0.4498859941959, 1.1945559978485, -0.9616063237190, 0.2565243244171, 0.3966890275478, 0.0387453958392, 0.5818047523499, 0.7310935258865, 0.0222024079412, 0.3955173790455, 0.4552151262760, -0.3406459987164, -0.1869223117828, 0.1559636890888, -0.6690940260887, 2.1590178012848, -0.3708039522171, 0.4101079106331, 0.3037627935410, -1.5340714454651, 0.0481147579849, 1.4634549617767, -0.3811375200748, 0.1515789031982, -0.8074254989624, 0.4178517162800, -0.4758749306202, -0.2932862639427, 1.2381453514099, -0.3064441978931, -0.1775808632374, 0.1311444491148, -0.2837478816509, 0.0613939166069, 1.0916215181351, 1.9106581211090, 0.0751410350204, -1.2321099042892, 0.1612776964903, 1.1457891464233, -1.2347234487534, -0.5162956714630, 0.1658108979464, 0.6024712920189, -0.0851319953799, 0.0309047140181, -0.2511666119099, 0.2865681648254, -0.6810411214828, 0.0702450424433, 0.0532136894763, -0.3347134292126, 0.6204984784126, -0.2447654604912, -0.1134446784854, 0.0428754575551, -0.1452404856682, 0.6065203547478, 0.7334018945694, 0.0354606360197, 0.7999485135078, -0.5596864223480, -2.3102188110352, -0.7686312794685, 0.8169210553169, -0.3390241265297, 0.5687321424484, 0.0049200560898, -0.6320746541023, -0.1344708353281, -0.1054928377271, -1.1914185285568, 0.4184414148331, -1.7114367485046, 0.2944977879524, 0.9949271678925, 2.3129878044128, 3.1761612892151, -0.1822486817837, -0.3373578786850, 0.4156998693943, -3.5632562637329, -1.4923043251038, -0.9272658824921, 0.2768049538136, -0.2131053209305, -0.8258337378502, -2.9739785194397, 0.2072017341852, -0.9104142785072, -0.2763497829437, 0.3537733554840, 0.0798167958856, 0.2229363024235, -1.8584660291672, 0.9050350785255, 0.4152956604958, 1.0974640846252, -0.3510326743126, -0.1689986735582, -0.4388288855553, 0.1380647718906, 0.1813658922911, -0.1973414123058, -0.3114595711231, -0.5326241850853, -0.1350091844797, -0.9201554656029, -1.5176349878311, -0.4630685746670, -0.4226729273796, -2.4200286865234, 0.2219761312008, 0.4525583088398, -3.4279689788818, 0.0189504437149, -0.7294822931290, 3.8041527271271, 0.4772104322910, -0.0358867123723, 0.3870205581188, 0.1645254939795, 2.3875319957733, -0.2273149192333, 0.7956807613373, -0.1867463737726, 0.7451651096344, 0.3785788416862, -0.0319892428815, 0.1349254399538, 1.3505380153656, -0.8513969182968, -0.5371053218842, -1.3361458778381, 0.5889549255371, -2.2883367538452, -0.4774782955647, -0.4896926879883, -0.6962742209435, 0.2491730600595, -0.4333288371563, -0.0337381437421, -0.3555592298508, 0.4800401628017, 1.5841197967529, -0.9952431917191, 2.1961405277252, -0.6222066283226, -0.5684519410133, -0.0651818066835, 0.2033336907625, -0.4902148544788, 1.9559912681580, -5.2868576049805, -0.2915236055851, -1.6447938680649, 0.3794795870781, -0.5478549599648, -0.4556823670864, -0.3212074637413, 0.0567613281310, -0.2088577896357, 0.2317257225513, -0.1965579390526, -0.4222147762775, 1.2788788080215, 0.4212679266930, 0.6563193202019, 0.6602376699448, 0.1718542575836, -0.9272306561470, 0.2722661793232, 0.1583476364613, 0.4478868842125, 0.2430888712406, -0.7214536070824, 1.3929872512817, 2.1682953834534, -0.4516606032848, 0.3940579891205, -1.1232159137726, -0.9229369163513, -0.0803101286292, 0.1759119331837, 0.2159401923418, 0.4576056599617, -0.3496665358543, 0.5448914170265, 0.4044559597969, 0.2775539457798, 0.9408816099167, -0.0374497622252, -0.4787875711918, -0.0156249478459, -0.1865410357714, 0.5445324778557, -0.7033963203430, -0.4557305276394, -0.2981627583504, 0.2751967310905, -0.9345709085464, 0.4800870120525, -0.5818310379982, 0.0118946889415, 0.1763948947191, -0.4871600270271, 0.2944905757904, -0.0098084993660, 0.3394893109798, 0.0522803850472, 0.1842968016863, -0.1058032885194, 0.6300993561745, -0.4284496605396, -0.1270325183868, 0.2210441529751, 0.2706249654293, 0.0823992490768, 0.5425056815147, -0.3760334849358, -1.6438972949982, -0.9450750350952, -1.4483488798141, 0.2361679226160, 0.1935465484858, 0.8486627340317, -0.0463043600321, -2.2452208995819, 0.5613150596619, -3.2378082275391, 0.4271610975266, 0.6294144988060, 0.8817695379257, -0.2012111246586, -2.3709697723389, 0.4185741841793, 0.3299557566643, 0.1071449369192, 0.6042993664742, -0.4845073521137, -0.3301984965801, 0.1405732184649, 0.6115117073059, 0.5203737616539, -0.4689610302448, 0.0700651928782, 0.7408064603806, 0.1683273017406, 2.6463148593903, 0.8628478646278, 0.5103542804718, -1.1766438484192, -0.5264644622803, 0.4905247390270, -0.5910906195641, -1.8228311538696, -0.2098760753870, 0.4346221387386, -0.4341219067574, -0.4733420908451, -0.2480075508356, -0.2734422981739, -0.0049176430330, -0.1503901928663, -0.2577558457851, 1.2199515104294, 0.0207279026508, 2.7123658657074, 0.0790497064590, -0.6851753592491, -0.2783305346966, -0.3222478032112, 1.3874394893646, 1.1842999458313, 2.0281393527985, 0.6533265709877, 0.0804297700524, 1.1886075735092, 1.5416469573975, -0.2453142851591, 0.5170590281487, -1.1631180047989, -0.0124178854749, -0.0244218353182, 0.7590859532356, 0.2750445306301, -0.1545769721270, -0.1440371870995, 0.6502026915550, -0.6115519404411, 0.9835036993027, -0.5846506953239, -0.5030999779701, 0.7900068759918, -0.0520647428930, -0.0071960254572, -0.0153210917488, 0.4076519608498, -0.1438697427511, 0.7821615934372, 5.8960194587708, 0.0006506376085, 0.0739790648222, -1.2041902542114, 1.2340296506882, 0.8309724330902, 0.1393240243196, 1.2779798507690, 0.0812407359481, -0.7976112365723, -0.6346434354782, -0.5282996892929, 0.5706418156624, -0.4941185116768, 0.1260837763548, -1.3133461475372, -0.5677719712257, 0.4188021719456, 0.1806904375553, -0.0258842930198, 0.0599202215672, -0.0357049629092, -0.6189886331558, 0.0594237074256, -1.6332890987396, 0.3366803228855, 0.5800844430923, 0.0178648289293, -0.5975073575974, 0.0204676296562, -0.6580805778503, 0.8260505795479, -1.2472268342972, -0.4826796948910, -0.0160953588784, -0.2945023477077, -0.1969433873892, 0.9744329452515, -0.6016987562180, -0.4199740290642, -0.8099551796913, -0.2586556077003, 0.0090416138992, -0.0286875013262, -0.3046348094940, 0.6554976105690, -0.0630949363112, 0.7632967829704, -0.3686966001987, -0.6343051195145, 0.1234454289079, 0.0698251500726, -0.5414744019508, 0.2837796509266, -0.5792118906975, 0.0471556521952, -2.0444538593292, 1.4267079830170, 0.0302648581564, -0.1958328932524, -0.0000762149211, -0.2741854488850, -2.9847300052643, -1.2842640876770, -0.8451345562935, -0.1189364120364, -0.1248690783978, -0.0279502868652, 0.5967985987663, -2.2745635509491, 0.2574898302555, 0.0071573182940, 0.4590123891830, -0.1973125040531, 0.1960531920195, 0.5108903646469, 0.6588114500046, -0.4938005506992, 1.3042839765549, -0.3499736189842, -0.0762624442577, -0.2332158982754, -1.8149217367172, 0.2463918328285, -0.3895359933376, -0.1384171992540, -0.4225048124790, -0.1769619137049, -0.8625026345253, -0.1870428472757, -0.0746812894940, 0.4401378035545, -0.0721742808819, -0.5609918236732, -0.3174171745777, 0.9831842184067, 0.2206570953131, 0.7812945246696, 0.2210769951344, 0.1686552911997, 0.3634839355946, -0.0090176062658, 0.0625620484352, -0.0835231244564, -0.1973135024309, -0.2579829692841, -0.6359041333199, 0.7841378450394, -0.4738458096981, -0.0904677659273, 0.9896531701088, -0.1580519974232, -0.0920351073146, 0.6940614581108, 0.6063471436501, -0.1205238699913, 0.1419356167316, -0.1615093201399, -0.4894687235355, 1.3852090835571, -0.6105006933212, -0.1708398908377, -0.0461621284485, 0.0080778710544, 1.2280259132385, 0.1546336710453, 0.2989937961102, -0.2751004695892, 0.6888667941093, -0.1525877714157, -0.2269912064075, 2.7098326683044, -0.0253226459026, -0.1946638375521, -0.7591118216515, -0.1218146979809, -0.0889998525381, -2.1496391296387, -5.2943053245544, -0.4921724200249, -0.5622877478600, -0.3633027076721, 0.6307905912399, 1.9523621797562, 0.2239955365658, 0.1598410904408, 0.1405945122242, 0.0556258931756, -0.0066223391332, -0.4403463602066, -0.4373134374619, 0.0630641952157, -0.0591179244220, -0.4259210526943, -0.4432841539383, -0.0402874201536, -0.1990237087011, 0.4044611752033, -0.0246585626155, 0.4033981859684, 0.0618905574083, -0.4463388025761, 0.4063073992729, 0.8292754888535, -0.9625129103661, 0.7610169649124, 0.6466948390007, 0.6654961109161, -0.5152357220650, 0.7990131974220, -0.0290446970612, -0.4510746598244, 0.7952901124954, -0.3403760492802, -0.3754014670849, 0.4140126705170, -0.1853546947241, 0.6057830452919, -0.3068020939827, -0.6911439895630, 0.3110027313232, -0.0391357764602, 0.1330659240484, 0.1809857040644, 0.1163323074579, -0.7716725468636, -0.0080906366929, 1.2631474733353, 0.3683984875679, -0.5245867371559, -0.0276869796216, 0.2844214439392, -4.4653530120850, -0.1479530930519, 0.4611600041389, -0.8398446440697, 0.3531169295311, -0.2460019737482, 0.1592371314764, 0.3855978548527, 0.5490119457245, 0.7305775880814, -0.0145357921720, -0.7412679195404, 0.1920832991600, 0.3744581341743, 0.2268379032612, -0.0982739180326, -2.7420768737793, -0.3532925844193, 1.7767452001572, -0.2378718107939, -0.2518015205860, -0.1598815321922, -0.4453442990780, -0.5705177187920, -0.0379557609558, 0.1508436799049, -0.8350295424461, 0.3464182615280, 0.5750786066055, -0.0357869528234, 0.5131817460060, 0.0144393825904, 0.4674870073795, 0.3319730162621, 0.3213397562504, 0.6600033044815, 0.4991679787636, 0.1442921012640, -0.2990990579128, 0.6355890035629, 0.0494420453906, 0.1267509907484, -0.0243034604937, 0.2852314114571, 0.5401243567467, -0.4221273064613, -0.5517458915710, -0.2356312423944, 0.7336960434914, -0.3575808703899, 0.2154758125544, -0.7257388234138, -0.7786062359810, -0.3807282149792, -0.6645712256432, 0.1418903619051, -0.4053235948086, 0.1288772374392, 0.2501822710037, -0.0897070467472, 0.1919468343258, 0.2997041642666, 0.5321363210678, 0.3665006458759, 0.1928922086954, -0.1902924329042, -0.0374327227473, 0.9280371069908, -0.6475935578346, 0.1372739225626, 0.3814667761326, -0.2473935931921, -0.0404445193708, -0.0418493263423, -0.4196422994137, 0.7631644606590, 0.2270946502686, 0.6137452721596, 0.3152159154415, 0.0639712810516, -0.0030994045082, -0.0656680911779, 0.2919424176216, -0.5751041769981, -0.3821591734886, 0.9149051308632, 0.3375640809536, 0.3988260030746, 0.0670973360538, 1.9930042028427, 0.0259286928922, 0.1430340558290, 0.3477422595024, -0.1811669021845, 0.0840067863464, -0.2755965292454, -0.2169594913721, 0.1069833040237, 0.1667533963919, 0.2902874350548, -0.3834266066551, -0.4770707786083, 0.0500910319388, 0.5029114484787, -0.6747610569000, -0.4548129141331, 0.0655496567488, 1.0566875934601, 0.0198610760272, 0.1026852652431, 0.0385469123721, 0.2622361183167, -0.4189026355743, -0.0754729509354, 0.1772896498442, -0.4251528978348, -0.1931809931993, 0.4346432983875, 0.2207371145487, -0.2458698153496, -0.1221454441547, -0.7413645386696, 0.7024471759796, -0.6212944388390, -0.4687726497650, -0.0896365121007, -0.1191230118275, -0.1680669784546, 0.0020882165991, -0.2551167607307, 1.2856433391571, -0.4178451001644, 0.1927005797625, 0.6110433340073, -0.0948143228889, 0.1783138215542, 0.3782218992710, 0.1964913159609, 0.0343680642545, -0.3281470537186, 0.0041606230661, 0.1562579572201, 0.1364723294973, -0.8327412605286, -1.1225616931915, -0.1232532784343, 0.1112756729126, 0.0179325733334, -1.8033068180084, -0.1667792350054, 0.2574733197689, -0.6801480054855, -0.5751732587814, -0.3847965300083, -0.1655778586864, -0.0756716355681, 0.6286158561707, 0.2986862361431, -0.5075190067291, -0.4740047752857, -0.2062795013189, -1.1305471658707, -0.4280147552490, -0.8286061882973, -0.0053257751279, -0.2674920558929, -0.5933734178543, 0.5654296875000, 0.7873128056526, -0.5336560606956, 0.2764086425304, -0.3206415474415, 0.1059938594699, -0.1118607670069, 0.5108678936958, 0.4101569652557, 0.3428734838963, -0.5320053696632, -0.1504349261522, -0.6712064146996, 0.5045200586319, -1.1860529184341, 0.1688915938139, 0.3193972706795, -0.2908699214458, -0.1402074843645, -0.2969189584255, 0.3719089925289, 0.1056172624230, 0.1038905680180, -0.2493494749069, 0.0393196120858, 0.2717252075672, 0.2763922810555, -0.5547724366188, -0.0399223044515, 0.0684369057417, -1.8945263624191, -0.2807521224022, -0.2272878885269, 0.2045071274042, 0.2908250689507, -0.1153647750616, 0.0375668555498, 0.0642905086279, -0.0188486147672, 0.1163396164775, -0.6740080714226, 0.1874351799488, -0.6155368089676, 0.3224327564240, 0.2836067080498, -0.2916270494461, -1.2784531116486, -0.0873657390475, 0.1868714690208, 0.2907379567623, -0.1076883152127, 0.3319022357464, -0.1424938738346, 0.8941894769669, -0.0722647756338, -0.1471413969994, 0.0365776605904, -0.0167382117361, -0.2352462708950, -0.0754370689392, -0.2130109816790, 0.4510476589203, 0.3655709624290, 0.7190783023834, 0.0780439600348, -0.0788835138083, 0.1386642903090, 0.0773501470685, 0.1066201403737, -0.1634080260992, -0.1917572319508, 0.0839694589376, 0.2569618225098, -0.3651467561722, -0.2232453376055, -2.1370348930359, 0.0000143466395, -0.2139145582914, -0.3085896670818, -0.9103683233261, 0.3184826970100, -3.6252586841583, -0.2987300753593, 0.1321535110474, -0.5511705875397, 0.1215548291802, -0.5272526144981, 0.0905844792724, -0.0779092237353, -0.1347633749247, 0.2548023164272, 5.8721103668213, 0.1678755581379, 0.5217573046684, -0.6956813931465, 0.5711597800255, 0.1787496358156, -0.1029750481248, -0.3251636624336, -0.6306148171425, -0.3053182065487, -0.3550580739975, -1.1165665388107, 0.1285416483879, 0.0596581511199, -0.0722114667296, 0.5582560300827, 0.1539891511202, 0.3057262599468, -0.0591643452644, -0.4073357880116, 5.1428732872009, -0.4355467557907, -0.3608598411083, 0.0984446555376, 0.1213907748461, -0.2279452979565, 0.1054581627250, 0.4233166277409, 0.1993669569492, 0.7812299728394, -0.0847984254360, -0.2241486012936, -0.0983045548201, 0.3086753189564, -0.2261217087507, 0.2682474553585, 0.3272292315960, -0.4493747949600, -0.0486534759402, 0.1110598742962, 0.4976965785027, -0.1519971340895, 0.1568648368120, 0.8057792186737, 0.2792933583260, -0.4939985871315, -1.8863185644150, -0.4466392397881, 0.7765640616417, -0.9133033156395, -0.3500624895096, -0.0836085453629, 0.1669030934572, 0.3962198495865, 1.8402577638626, -0.0650095492601, -0.2189364582300, 0.5072624087334, -4.3141431808472, -1.3151246309280, 0.3490833342075, 0.4010244011879, 0.7865474224091, 0.0117246462032, -0.3668503463268, -0.0412032864988, -0.5143204331398, 0.6450023651123, 0.7886037826538, 1.1073123216629, -0.3416362106800, -0.6153678297997, 1.8424130678177, -0.0755712911487, -0.7745716571808, -0.1997758150101, -0.2254326492548, -0.1857479065657, 0.3599170446396, -1.1906825304031, 0.2180284112692, -0.4451735913754, 1.6159238815308, -0.1656634062529, -1.2360917329788, 0.2448970973492, -0.6582068204880, -0.1171709597111, -0.4987637996674, 0.2821182906628, 3.5298705101013, -0.0362411998212, 0.6984187364578, -0.1850606501102, 1.6022393703461, 0.0862568840384, 0.4401851296425, -0.6571362614632, -0.4224012494087, -0.3427105844021, 0.2671466171741, 0.6303396821022, -2.8063390254974, 0.3362870216370, 0.3399808108807, -0.0651265159249, -3.5959300994873, -0.4756162166595, -0.7434850931168, 1.7237989902496, 1.0032912492752, 0.4601970613003, -0.1804651767015, -0.4581211209297, 0.0612137690187, 0.1668762564659, 0.2375454157591, 0.3208041787148, -1.4321398735046, 0.4302702248096, 0.0297811664641, -0.9172524809837, 0.4208684265614, 0.0942943915725, 0.4253956973553, 0.2189049422741, 0.1857093870640, -0.5547674298286, -0.7360084056854, 1.1623342037201, -0.3226647973061, -0.1074330210686, -0.2836437821388, 0.2516084015369, -0.2496764212847, 0.1493214368820, 0.6971492171288, 0.1685517877340, 1.1087428331375, 0.1339007467031, 0.1449670344591, 0.2294929474592, -0.0424085073173, 0.2906565368176, 0.2997248470783, 0.4105464220047, 0.2928400933743, 0.0115352431312, 0.2142766863108, -0.1475198566914, -0.2757623195648, 0.1656321883202, -0.1035664901137, -0.4367953836918, 1.2005149126053, 0.3369699418545, -1.5014760494232, -0.0113098137081, 0.2489309012890, -0.0740453079343, -0.1608444452286, 1.7193405628204, -2.6154584884644, 0.0272242221981, 0.5527715086937, -0.7104871869087, -0.1045493409038, 0.6662513613701, 0.1979097127914, 0.1387147605419, -0.1146192029119, -0.4030616283417, -0.0603252351284, -1.5376332998276, 0.0875803306699, 0.4969774186611, -0.4349215626717, -0.2305179685354, -0.6683872342110, -0.0833759903908, -0.4776398837566, 0.1465160846710, -0.4602247774601, 0.3160957098007, -0.7957033514977, -0.4890108704567, -0.2526263892651, 0.1377892345190, -0.0548085011542, 0.6288701891899, 0.3775539398193, -0.3023208975792, -4.0633134841919, 0.4665620923042, 1.1688859462738, -0.9048039317131, 0.3100174665451, 0.2245967239141, 0.0487834475935, -0.2299929410219, 0.1574880331755, 0.3634541630745, -0.1881913542747, -0.5274485945702, -0.1097811982036, -0.4570526778698, 0.8287376165390, -0.4611321389675, -0.0174069013447, 0.2186583578587, -0.5202090144157, -0.0449157990515, -0.1838486790657, 0.5770508050919, -0.4162653684616, 0.1767329275608, 1.6210026741028, 0.4492450952530, -0.6275349855423, 0.2457458227873, -0.4525336027145, -0.6721958518028, -2.5426919460297, 0.0510113909841, 0.3749622702599, 0.5693836808205, -0.1247374266386, -0.2173219025135, -0.2263135015965, 0.1983836293221, 0.0093960855156, -0.1048175022006, 0.2351379245520, 0.2548660635948, -0.6546254158020, 0.6886264681816, -0.5685461163521, 0.1944737285376, 0.0526578575373, 0.0001161965702, -0.1190235018730, 0.0558769218624, -0.4596769213676, 0.0589092522860, -1.0102591514587, -0.1140807643533, 0.0098394956440, 0.3893953561783, -0.3384125232697, 1.7997763156891, 0.1598282009363, 3.2538487911224, 0.8242161870003, 0.3511241972446, -0.2707512378693, 0.8638095259666, -0.5197673439980, 0.1127335876226, 0.1040440723300, 1.0919144153595, -1.1724587678909, -0.0790488943458, 0.4580461680889, 1.1799097061157, 0.4986076653004, -0.2951374650002, 0.6561680436134, 0.4806924462318, 1.1832939386368, -0.6386880278587, -0.1631842106581, 0.3699362874031, -0.1843086779118, -0.0093445535749, -3.3599231243134, 0.2840472757816, 0.4336002171040, 0.1015884429216, 0.1908829063177, -0.4621846973896, -1.1832535266876, -0.2266402989626, -0.1750374287367, 0.3202932476997, -0.0378845892847, 0.6003546714783, 0.5264983177185, -0.9692354202271, -0.4037027359009, -0.1204205751419, -1.3058705329895, 1.4144686460495, 0.4112588763237, -0.2503299415112, -0.1565656810999, -0.7976707220078, -2.1461505889893, 0.8862081170082, -0.2452492266893, 0.2454356253147, -0.3101074993610, 0.2369656264782, -0.1441270411015, 0.1058502197266, 0.0655680298805, -0.0371553674340, -0.3626789152622, 0.2978531718254, 1.4368573427200, -1.2726808786392, -0.4446602165699, -0.1556623727083, -0.5031782388687, 0.3648959994316, 0.2370662689209, -0.3041624128819, 0.0377905145288, 0.3100269436836, -0.0974278077483, 1.6465562582016, 0.0042141033337, 0.4714167118073, -3.6912667751312, 0.1287921369076, 0.2829874753952, 0.1310170590878, 0.2924181222916, -0.5992594957352, 0.1767821013927, 0.4469928145409, 1.2915523052216, -0.6380048990250, -0.1441551595926, -0.0235729571432, -0.8568859100342, 0.1247029975057, 1.1044484376907, 0.2193922847509, 0.1527958661318, -0.4717507362366, 0.0593683943152, -2.2693657875061, -0.1174380183220, -0.4424926936626, 0.2105005532503, -0.2609458565712, -0.1966088265181, 1.8267583847046, 0.5216811895370, -0.3068169653416, 0.0641570240259, -0.1321890056133, -0.2588179111481, -0.2853047847748, 0.3099411427975, -0.1770094633102, 0.1907052695751, -0.4155237078667, 0.3825523555279, -0.1551775634289, -0.0944987982512, 0.1091795712709, 0.4116326272488, -0.3075560629368, 1.1483091115952, 0.1300430446863, 0.4795460999012, 0.2455970048904, -0.5158143043518, -0.0250722225755, -0.0136833675206, -1.1144421100616, 1.2264407873154, 1.0463219881058, 0.5947164297104, 0.9869592189789, -0.2244429439306, 0.1698565334082, -0.0339256376028, 0.3365423679352, 0.4741270840168, -0.0642490312457, 0.3775353729725, -0.3178437948227, 0.2353028059006, 0.8321630954742, -0.5000367164612, -0.4095012545586, 0.1152372509241, -0.0317130275071, -0.0833791941404, 0.9503041505814, -0.5275229215622, -0.1865399777889, 0.0565941110253, -0.0519922599196, 0.0348978303373, -0.1720169037580, -0.0360444448888, -0.0433350279927, 0.0438766889274, 0.1630281656981, -0.2457145005465, 0.1653605401516, 0.3048797249794, -0.1502995789051, -0.0790441632271, 2.2163116931915, 0.0455305874348, 3.4446012973785, -1.0721839666367, 1.0728495121002, -1.8723233938217, 0.4150735735893, 0.0036050425842, 0.4768554270267, -0.1749201118946, 0.3130084574223, 0.5555620193481, 0.3784787058830, 0.2289991378784, -1.2609527111053, 0.1167171075940, 0.1006798222661, 1.1965526342392, 0.1824918389320, -2.5348298549652, 2.4264471530914, -0.3994837105274, 0.0040974337608, -0.4137520194054, -0.1902276426554, 0.1016118228436, -0.1960111856461, -0.3071316480637, -0.3528335690498, 1.4764636754990, 0.0645744502544, -1.6095515489578, 0.4729031324387, 1.5311133861542, 0.4439708590508, -0.0072254212573, -0.0696927085519, -0.0735518932343, -0.3366273939610, 0.7337698340416, -0.5482501387596, -0.5826284289360, -0.0787741914392, 0.3627172410488, 0.0671515464783, 0.1690358519554, -0.1883523613214, 0.3769857585430, -0.2777764797211, 1.0349493026733, 0.5883779525757, -0.0619448721409, -0.4045825302601, 0.2465231865644, -0.0885442346334, -0.2245438247919, -0.1685429215431, -0.4889286160469, -0.5634287595749, -1.0458801984787, -0.1487746685743, -0.1334904134274, -1.8561075925827, -3.5803534984589, -0.2844700217247, -1.6868867874146, 0.0457683913410, 0.0196035802364, -0.5407398343086, 0.2081133574247, 0.1504974663258, 0.1242758929729, 0.1666900962591, -0.2748683393002, 0.6556810736656, -0.0537276268005, -0.4579679071903, 0.4855242967606, -0.1742085665464, -0.3117603957653, 0.2308222353458, 1.5018589496613, -0.1831440627575, -0.2961985468864, -0.0452393665910, -0.6581442952156, -0.7625179886818, 0.0290164705366, 0.0961845144629, -0.9726513624191, 0.3970699310303, -4.8021621704102, 0.3305967152119, -0.2122278064489, 0.1416702419519, 0.3614962697029, 0.2114115655422, 0.0189477093518, 0.7818345427513, 0.7706807851791, -0.3412448763847, -0.2175181806087, 0.5277486443520, 0.9625439047813, 0.0915677919984, -0.3034023642540, 0.2817035317421, 0.6730598211288, 0.1014782860875, -0.0971663296223, -0.2081578969955, 1.7317812442780, -0.2908948659897, -0.1822583228350, -0.1929683983326, -0.1457767933607, -0.3715375959873, -1.1014158725739, -0.0919141396880, 0.6704000234604, -0.0928386226296, 0.8249984383583, -1.0087066888809, -0.5179522633553, 0.0400016084313, 0.8562512993813, 0.3295215070248, -0.6636468172073, -0.6284134387970, 0.0307830404490, 0.6787740588188, -1.1499383449554, -0.1926146745682, 0.0657186582685, -0.4871538877487, -0.2162971347570, -0.0588206164539, 0.3458579480648, 0.0324173495173, 0.1702899485826, 0.3832867741585, 0.0420382022858, 0.2452425658703, 0.6522960662842, 0.0127535099164, -0.1390595585108, 0.7172458767891, 1.8645440340042, 0.2366030663252, 0.4271964132786, 0.8299553394318, -1.8624473810196, 0.2030875533819, 0.5752177238464, -0.0481105223298, -0.8760776519775, 1.1721512079239, 0.3510576486588, 0.8696067929268, -0.1232742294669, 0.3952759504318, -0.0808460041881, -0.3384630978107, -0.2593872249126, -0.0498470664024, -0.0200284644961, 0.1243466138840, 1.5614789724350, -1.5371522903442, 0.2659200131893, 0.0095306159928, 0.3171018958092, -0.1095753014088, 2.1290926933289, 0.5723280310631, 0.0487771630287, 0.1276689320803, -0.6311543583870, -1.3615559339523, 0.6729792356491, 0.1387590169907, 0.1001922562718, 0.2105387747288, 1.6037577390671, -0.5638583898544, 0.1364572644234, 0.3667093515396, 0.1162361502647, -0.0956750586629, 0.0909526571631, 1.7149717807770, 0.0224692691118, 0.6755236983299, -0.4016198217869, 0.8482897281647, -0.0188959725201, 0.2034930139780, 0.4299679994583, 0.3227674067020, 0.6819810867310, -0.1234291717410, -1.3821532726288, 0.0239752046764, -0.1425838917494, 0.0118434820324, -0.0612710565329, 0.2410232424736, 0.0891711637378, -0.6817905902863, -0.1872909069061, 0.1426140666008, 1.1680361032486, -0.4204205572605, 0.1737412214279, -0.0619927458465, -0.4324960708618, 0.8860918879509, 0.3707550466061, -0.1498547494411, -0.6492694616318, 0.0744326338172, 0.1906055659056, 0.0783567428589, -0.2880253791809, 0.3879519999027, -0.1169211715460, -1.0526086091995, -0.0154726943001, -1.5413609743118, -0.2201107591391, -2.6398661136627, 1.0798666477203, -0.1837525963783, -0.5735895633698, 0.2077808082104, -0.7467755079269, -0.5123633742332, -0.6029895544052, 2.4867708683014, 0.0380681455135, -0.0041761049069, -0.3361136615276, 0.3844775259495, 1.5152094364166, 1.3871601819992, -0.2846620678902, -0.1674391776323, -0.2978526353836, -0.8155485987663, -0.0424955971539, 0.2196724116802, -0.2457232028246, 0.0644358322024, 0.0315953232348, -0.6445354819298, -0.3313245773315, -0.4758128523827, 0.7454158067703, -0.8158967494965, -1.3660846948624, -0.9909943342209, 0.0820355936885, 0.4195117056370, 0.6196595430374, -0.2800797522068, -0.4464176297188, -0.3835744857788, 0.7198479175568, -0.2065902203321, 0.0943097919226, -0.2284653186798, 2.2268164157867, 0.7074072957039, 0.1077212691307, -0.1874236762524, 0.0865585058928, -0.1335875689983, 0.0510883182287, -7.6846122741699, 0.0863899663091, -0.6111901402473, 0.2216252982616, 0.2972032427788, -0.1481793522835, -2.5932929515839, 0.2415705770254, -0.3384058773518, 0.0859803855419, -0.8117442727089, -0.1843502521515, 0.0655342862010, 0.0797482952476, -0.1271423399448, 0.9028182029724, 0.2336242944002, 0.2138876169920, 0.0007110458682, 0.4792878031731, 0.9033615589142, 1.7654027938843, -0.0551051199436, -0.7826293706894, -0.0058139795437, 2.4288141727448, -0.6008984446526, 0.0040081972256, 0.1521660834551, 0.5441980957985, -0.3713532388210, -0.4007368087769, 0.2464301437140, 0.3455929458141, 0.0316747650504, -3.8160443305969, 0.1947425305843, 0.0917143896222, -0.1157663390040, 0.5606297254562, -0.1408126205206, -0.2746929824352, -0.0183793716133, -0.2389403432608, -0.6979354619980, -0.4003943800926, -0.1765597313643, 0.3020412325859, 0.0459811240435, 0.2916267514229, 0.0888235867023, 0.9690172672272, -0.3526701033115, 0.3497031629086, 0.3793328702450, -0.4376522004604, 0.6476017236710, 0.5206736922264, -0.1581405401230, 0.1868270784616, -0.0324821770191, -0.3827324509621, 0.0543031692505, -0.0780041292310, -0.5077690482140, -0.0940279364586, -0.0563671439886, -0.0362547412515, 0.2867497503757, -1.8538994789124, -0.0331354737282, 0.1206008121371, 0.2094577103853, -0.1310999244452, 0.1149823144078, -0.1983406543732, -0.1222689151764, 0.1506121754646, -0.0108714513481, -0.0576314143836, 0.3681427836418, 2.7566385269165, -1.9034180641174, -1.0800107717514, 0.0747960731387, -0.4906794726849, 0.2814895808697, 4.9827036857605, 0.4673816859722, -0.1826503872871, 0.0946652665734, -0.6338534355164, 0.6806131601334, 0.0265175625682, 0.1434489786625, -0.0045770900324, -2.1947898864746, 0.2565546929836, 0.5267230868340, -0.1519363373518, 0.0472417250276, 0.3508360683918, 0.0417726263404, 1.4830383062363, 0.1974744051695, -0.3319332301617, 0.4390611350536, -0.3014151751995, -0.1019700318575, -0.0532585382462, -1.5377664566040, -0.1391488611698, 1.1417908668518, 0.2354059070349, -0.4231839179993, -1.1478461027145, -0.8125813603401, 0.2385994046926, 0.0203771889210, 0.7212548255920, 0.3019304275513, 1.4369306564331, 0.1219296082854, 0.0352166406810, -0.2076426744461, -0.2898820936680, -0.9091878533363, -0.0699729546905, 1.2657305002213, 0.3664290904999, -0.6251833438873, -0.0244704037905, -0.3078964650631, -0.0971459448338, -0.0306939780712, -0.0076608266681, 0.1618330329657, 0.3087032139301, 0.0829778015614, -0.2027018964291, -0.4007843732834, 0.7687199711800, 0.3318204283714, 0.0096656465903, 0.4749235808849, 0.3110052645206, -0.3165919482708, 0.9260064959526, -0.5989067554474, 0.4424068629742, -0.1208100914955, 0.0451075620949, -0.0482496917248, -0.1638723015785, 0.7479825019836, 0.3688598573208, -0.0334612838924, -1.0999161005020, -1.8910129070282, 0.6280528903008, 0.7585791349411, -0.8017089366913, -0.2314972579479, -0.0047211339697, 0.2636249363422, 1.5193508863449, 0.2236175090075, 0.9973785281181, 0.7991976141930, -0.4269442260265, 0.4606230556965, -0.1823794543743, 0.1956111639738, -0.2673851847649, -0.4206361174583, -0.3222635686398, -0.3125366568565, 0.4000311195850, -0.4514669775963, -0.0265603996813, 0.5250722765923, 0.1108963787556, -4.1463279724121, -2.8501851558685, 0.4423432946205, -0.1240309923887, -2.3242135047913, -0.5003655552864, 0.0462064817548, 0.1463405787945, -0.5757253766060, 0.1889526695013, -0.0639843717217, 0.0470477044582, 0.2350511699915, 0.0476694665849, -0.0756097286940, -1.0572354793549, -0.1086474284530, 0.0044948975556, 0.0117602469400, -1.2684370279312, -0.4332349896431, 2.9129674434662, 2.4721090793610, -0.0202772170305, -0.1223529428244, 0.3062888979912, 0.4133827388287, 0.1996367722750, 0.0416912063956, 0.3022950291634, -0.1757680773735, -0.7545004487038, 0.2774397134781, 0.3146163523197, -0.2731745839119, -0.2441634982824, -0.7627757787704, -0.3927350640297, -0.1565299332142, -0.6716203689575, -0.2358753979206, 0.6850494742393, -1.0496251583099, -0.7301043272018, -0.2108923047781, 1.0449961423874, 0.0631931796670, -0.0317600704730, 0.7293740510941, 1.9772341251373, 0.6601510643959, 0.7154341936111, 0.6104708909988, -0.3147624433041, 0.2886338233948, 1.3375862836838, 0.6654905080795, -0.1670936197042, -0.6342150568962, 0.4493347108364, -0.6006699800491, -0.0176055189222, 0.5525911450386, -0.0188457202166, -0.7389346957207, -0.6071314215660, -0.0897921994328, -0.5456634759903, 0.3065121173859, -0.5311625599861, 0.7124009728432, -0.1644381135702, 0.7523323297501, -0.1200117319822, 0.1719757318497, 0.3052597343922, 0.6134824156761, 0.4899406433105, 4.3830633163452, -0.2863147258759, -1.8521885871887, -0.0920041278005, -2.9138417243958, 0.3977567553520, -0.0971846356988, 0.0467149391770, -0.0291566923261, 0.1218316257000, 0.5109921693802, -0.0404081717134, -0.0225450880826, 0.7682277560234, 0.4351339638233, -0.0732544362545, 0.8612842559814, -0.2334219664335, 0.0373657941818, -0.6189978122711, -0.2582871615887, -0.7638635635376, -0.3656257092953, -0.4225202500820, 0.1416156291962, 0.2152691185474, 0.2920570373535, 0.9590698480606, 0.0858138278127, -0.2164866179228, 0.0569538958371, 0.3956913053989, -0.2953123450279, -0.1820869147778, -0.1687440276146, -0.5657165646553, 0.3588758409023, 1.0701211690903, -0.4290254712105, -0.0574737600982, 0.6530341506004, -0.2407069206238, 2.3087432384491, -1.7795960903168, -0.0348882526159, -0.9031106233597, -0.0415313430130, -0.1217359080911, -0.0409585833549, 0.0119763547555, 0.5163514614105, -0.2508794963360, -0.7946992516518, 0.6345041394234, -0.2384700328112, 0.0103383464739, -1.5676094293594, 0.5904758572578, 0.9816695451736, -0.4514991939068, 0.3794642984867, -0.2033311128616, 0.0685994625092, 0.3601881861687, -0.4006901979446, 0.2849954962730, 2.2699220180511, 0.4295391440392, 0.0924584195018, 0.9215828180313, 1.1156276464462, 0.0181423611939, -0.1293417513371, -0.8518381714821, -1.1990356445312, -0.6440647840500, -0.8647722601891, -0.2738285660744, -0.3676036894321, 0.3647208213806, -0.0749639496207, -0.3494462966919, 0.0342805050313, 0.4755085408688, -1.1512616872787, -0.0780680403113, 1.9265906810760, -0.6363470554352, 0.2503199577332, -1.5632258653641, 0.1489381343126, 4.2040672302246, 0.1508097648621, 0.2864343523979, 0.2173692584038, -0.2539698779583, 0.5913000106812, -0.2817837595940, -2.8925068378448, 0.7021059989929, 0.4499795734882, -0.2577093541622, 0.7477699518204, -0.2618418335915, 0.0442421101034, -1.2492018938065, -0.8596115708351, -0.7505195140839, 1.2328200340271, 0.2824110686779, -0.1507483571768, -0.0566631257534, 0.2135237604380, 0.0394353568554, 1.0095106363297, -0.5283256173134, 0.0236013662070, -1.1383967399597, -0.2285198867321, -1.6664205789566, -0.0943235233426, -0.3013018071651, -0.0710307061672, -0.5430077314377, -1.6401878595352, -0.0699901580811, -0.2395176589489, 0.1454422473907, 0.0044996957295, -0.7816151380539, 0.7636494636536, -0.4850071370602, 0.5699703097343, -0.7852214574814, 0.1496793329716, -0.3801025748253, 0.0089891217649, -1.0276123285294, -0.1676842123270, 0.0070452811196, -0.2502445876598, 0.4323718547821, -0.1960684508085, -1.1369333267212, 0.0805393680930, 0.2582125663757, -0.3108174502850, -0.0932979062200, 0.1547279208899, -0.9152021408081, -0.5602640509605, 0.1002109870315, 0.0880898088217, 0.1615738123655, 0.0288143157959, -0.5559682250023, 0.8963873982430, 1.0445568561554, -0.2422738224268, 0.2234182953835, -0.8751820921898, 0.0698249265552, 0.5740784406662, -0.0813497006893, 0.0504730232060, 0.1800594627857, 0.2400070428848, 0.7239063382149, -0.4916771054268, -0.2553561329842, -0.1943747252226, -0.0735958218575, -0.1174509376287, -0.1674963831902, 0.6429711580276, 0.5401055812836, -0.1169947758317, 0.2917906343937, 0.4471004903316, 0.1040822863579, 0.1896021217108, 0.1841339617968, 0.0044291904196, 0.0596181005239, -0.0443589985371, -0.3471551835537, 0.0287987012416, 0.1155045479536, 0.0439938232303, 0.1634711921215, 1.6226907968521, 0.2967891395092, 1.9904251098633, -0.3680918812752, 0.2203885465860, 1.3641864061356, -0.5424204468727, -0.0184705797583, 0.0763362944126, -0.6524558663368, 0.2952228486538, 0.3271765708923, 0.3313904106617, -0.5390037894249, 0.1244366616011, 0.6878282427788, -4.9528546333313, 0.5416759252548, -0.3427874445915, 0.3968368470669, 0.8479175567627, -0.3820510804653, 0.3008122146130, 1.5788648128510, -0.2555435895920, 2.7996675968170, -0.9107939600945, -0.1891789287329, -0.3865945637226, 1.2899621725082, -0.0430148318410, -0.6109285354614, 0.0002354765311, 3.5327172279358, 0.0889689475298, -0.3944807052612, 2.4681031703949, -0.0609835311770, 0.0407232381403, 2.7764844894409, 0.1978889852762, -1.7457189559937, -0.1705166101456, -0.1180173009634, -0.2284161895514, 0.0627961158752, 0.1307457685471, 5.1368627548218, 0.7380724549294, 0.1586079001427, 0.2775164246559, 0.5364851951599, -0.4266163110733, -0.0253543779254, 2.2906658649445, -0.6746406555176, 0.3118145763874, -0.5411376953125, -0.8735615611076, 0.3058348596096, 0.4870295226574, -0.0533152557909, -0.4829489290714, -1.8016835451126, 0.0509350784123, -0.7992123961449, 0.0042792526074, -0.4761334657669, 0.1657340526581, -0.9837722182274, 0.1277886629105, 0.2108581960201, -0.0261473990977, -0.2017018049955, 0.0141814788803, 0.8102682828903, -0.2755644619465, 0.1294400095940, -0.1660079061985, -0.0003990255354, -0.2528589665890, -0.8024570345879, -0.1780006587505, 0.3008846640587, -0.4871730208397, 0.3854945600033, 0.1314534544945, -0.0056308587082, 0.2439385652542, 0.0192778501660, -0.0367866940796, -0.4336191117764, -0.2767967879772, 0.0750359669328, -0.1063423305750, 0.0860085487366, -0.0578593090177, 0.1948558092117, -1.0429797172546, -0.0897109806538, -0.1852074861526, 0.3490142822266, -0.1037396192551, 1.1811016798019, -0.1713390946388, 0.5362878441811, -0.0024634941947, -0.4912116527557, -5.6226778030396, -0.2117439955473, 0.2113052010536, 0.9737043976784, -0.2658256590366, 0.0872486159205, -0.1778679788113, 1.3966135978699, -0.2595716118813, -0.3290831148624, -0.1693807244301, 0.1893225163221, -0.0608910620213, 0.4529618024826, -2.5930488109589, -3.2466099262238, 0.2522928416729, -0.4290594458580, -0.4836186170578, -0.0732384622097, 0.7852292656898, 0.2785855531693, -0.0915283411741, 0.6010709404945, -0.2739740610123, 0.4878207743168, -0.3668885529041, 0.6793792247772, -0.1738066971302, -0.2513701319695, 0.2561208903790, -0.4550042748451, 2.9359893798828, -0.7558400034904, 0.0363175310194, 0.6545857191086, 0.3268965184689, -0.0945913344622, 0.3708994686604, -1.4133722782135, -0.7148748636246, 1.1752437353134, 0.3164143264294, -2.4477148056030, -0.5893170237541, 0.1680985242128, -0.4705564677715, 0.3484947979450, -0.5281197428703, 0.7914603948593, 0.0278139561415, -0.4026638567448, -0.2255785316229, -0.2717716395855, -1.2569452524185, -0.5213584899902, 0.6398661732674, -0.0725730136037, 0.0414153560996, -0.0547637455165, -0.0338857807219, 0.2131449133158, -0.3294547796249, -0.1874673217535, -0.1308398544788, -0.4625450968742, -0.2127408683300, 0.3485111892223, -0.0296650268137, 0.4206464886665, -0.4818407297134, -0.6576374173164, 0.1990470886230, 0.4763815999031, 4.0737171173096, 0.4202927052975, 0.0312525145710, 0.3795305490494, 0.7995138168335, -0.0299246534705, 0.0507275871933, 0.6788604259491, -0.4511842131615, 0.1580524593592, 0.0130339255556, 1.4415420293808, -0.4733475446701, 0.3615346252918, 1.3917474746704, 0.2059161663055, 0.0340880826116, 0.5266328454018, 0.4773510098457, -0.5395690798759, 5.9725494384766, -1.4446270465851, 0.4180473685265, -0.0942814573646, 0.6994748711586, -0.5810676813126, -0.7499485015869, -0.2464059591293, -0.6171200275421, 0.1633361726999, -0.2428033947945, -1.8164497613907, -0.2481991052628, -0.2032204419374, -0.6669627428055, -0.0196072421968, 0.1434882730246, 0.0648453757167, -0.3515309393406, 0.3951712250710, 0.3037919104099, -0.7230938673019, 1.0923902988434, -0.8329331278801, 0.2572773694992, -0.0179872065783, 0.1314932405949, -0.1253074854612, -2.8050937652588, -0.1911180615425, 0.1018453389406, -0.0275540892035, -0.2333301603794, 0.1720782071352, -0.1251817643642, 0.7243351340294, -0.1526843309402, -0.4064056277275, -0.3547526597977, 0.6001116633415, -0.2654429376125, -0.0616977103055, 1.2229864597321, 0.4367875754833, -0.0907608419657, 0.3211689591408, -0.1437204331160, -0.2848979830742, 0.0174869280308, 0.5961359143257, -0.2432142794132, 0.3758006989956, 0.9233292937279, -0.1375189870596, 0.4403370022774, 3.4798564910889, 0.1470528990030, -3.5028598308563, 0.2996738553047, 1.7985432147980, 0.5223076343536, -1.7722851037979, 0.3398577570915, -0.0062690884806, -0.0982596054673, 0.0607446245849, -0.0453535057604, -0.4611259400845, 0.0526799634099, 1.9227864742279, 0.0480711087584, -0.5155493021011, -0.3485716283321, 0.3293123841286, -0.0731616914272, -0.1317343413830, -0.1709950715303, 0.3148012459278, -0.2425827980042, -0.4698436260223, 0.8196823596954, 0.1699856966734, 0.1427500993013, -0.1581565588713, 0.0872518271208, -0.0702943876386, 0.1261632591486, -1.2541260719299, -0.0679112523794, -0.1691031455994, -0.5231876373291, -0.1904025822878, -0.7064747810364, 0.3045989573002, -0.1342566311359, -0.1978017389774, 0.0100518791005, -0.6079981327057, -0.4506185948849, 0.1825111955404, 0.0219052173197, 1.2668493986130, -0.5627961754799, 0.5152279138565, -0.1007791608572, 1.2967860698700, 0.0474640838802, -0.0919695571065, 0.2318530529737, 0.0609529055655, 0.4771300256252, 0.0592314079404, -0.4793243706226, 0.0897945761681, -0.2493242323399, 0.2524624466896, 0.0368870720267, 0.2814364135265, -0.0665512531996, -0.5882279276848, -0.4285173416138, 0.2078907489777, 0.4119771718979, 0.8806034326553, -0.0184005144984, -0.1591250896454, -0.7560499906540, -0.0876516476274, -0.5770232081413, 0.2865982353687, 0.5901305079460, 0.5692150592804, 0.3862110078335, 0.5319469571114, 0.4939098358154, -0.2556314170361, -0.1306877285242, 0.1177807897329, -0.4627166688442, -0.6283841729164, 0.1101094558835, -0.3559545874596, -0.0730447471142, 0.0962419658899, -0.0988522693515, -0.3259225785732, -0.0680461898446, -0.3092496395111, 0.2583109140396, 0.0217213779688, -0.1718283295631, 0.0326977372169, -0.6013425588608, -0.0596873387694, -0.1417811512947, -0.0181682687253, -0.2838007211685, 0.0721774324775, -0.0013629375026, 0.4206708967686, -0.2881044745445, 0.4025225341320, -0.0760104060173, -0.1286066174507, 0.2394287288189, -0.5735152363777, -0.0158923417330, -2.4297657012939, -0.1954551935196, -0.3894119560719, 0.6603542566299, -5.5665893554688, -0.3149826824665, -0.4945479333401, 0.0972886309028, -0.0117283351719, -0.8223805427551, -0.1121355742216, -1.2221860885620, 0.0911684334278, -0.6463289856911, -2.2457964420319, 1.8282072544098, -0.1516334116459, -0.3256675302982, 0.0748640522361, 0.5563084483147, -0.1641478538513, 0.0114704146981, 0.0926096439362, -0.0479298904538, -0.9154756069183, -0.0405526310205, 0.3810836076736, -0.0056941872463, 0.8274591565132, -0.6976484656334, 0.0131398607045, 4.9062900543213, -0.3242119550705, -0.8412969112396, -0.4244523346424, -0.3607343137264, 0.2211734205484, -0.1793261915445, 0.1774122267962, -0.5332520604134, -0.7158603668213, -0.0895593911409, 1.4487421512604, 0.6571866273880, 0.0172262024134, -0.0597842186689, 1.1934661865234, 0.3916504681110, 0.2892428636551, 1.4502348899841, 0.6177136898041, -1.1467642784119, 0.3548201918602, -0.5348221063614, -0.4628784954548, 0.1374120563269, 0.0025623319671, -1.3869355916977, -2.4877815246582, 0.5444169640541, -1.3837082386017, -1.6472477912903, 0.0459155254066, 0.3847780823708, 0.1906166374683, -0.2931756675243, 0.1411440521479, -0.1720760613680, 0.0936043262482, 0.2365323901176, -1.3743952512741, -0.3179386556149, 0.1626731753349, 0.4006052017212, 0.8371831774712, 0.0662285462022, 0.5447556376457, 0.0157423671335, -0.1785955131054, 0.6533870697021, 0.1478661745787, 0.3049151599407, -0.2837374806404, 0.2352041006088, -0.1834325045347, 0.0677115172148, -0.5588187575340, -0.0120136197656, -0.5998332500458, -0.1434348076582, 0.1983088999987, 0.5231854319572, 0.1603989154100, 0.4652132093906, -0.4032504260540, 0.1227393969893, -0.1829533129930, 1.1856166124344, 0.0446529015899, -0.3089025318623, 0.5768719911575, 0.2667628228664, 0.6697176098824, 0.3478169739246, 0.0456161238253, 0.3266122043133, -0.3813032507896, 0.2532118856907, 0.5905253291130, 0.2524861395359, -0.5882695913315, -0.5878868699074, 1.1560095548630, 0.9933559298515, 0.2872157096863, -0.5044877529144, 0.1348403394222, -0.1302151083946, -0.0325826555490, -0.0379874706268, -0.8020142316818, -0.8391979336739, 0.2019854038954, 0.8215178847313, -0.2230854034424, -0.3888852894306, 0.3476450741291, -0.7710040807724, -0.0748865306377, -0.2641694545746, -0.4101024866104, 0.0779845267534, -0.2904866635799, -0.0717029571533, 0.7100841403008, 0.0650782585144, 0.4021176695824, -0.2634055614471, -0.0779583752155, 0.5233455896378, 1.6281896829605, -0.5278029441833, -1.0535627603531, -0.5428314208984, -0.2002229988575, 0.8744693994522, 0.2726722657681, 0.4866872429848, 0.2138369679451, -0.1914625614882, -0.1572946161032, 0.1480907946825, 0.0353245027363, -0.3996329605579, 0.4025866985321, 0.3695716559887, -0.0784211903811, 0.5820043087006, -0.4141152203083, -0.3120016455650, -3.6163301467896, 0.4076898694038, -0.3851927518845, 0.4050761759281, 0.3219066560268, 1.4537512063980, -0.3385217785835, 0.4385830163956, 0.2676910459995, 6.3403940200806, 0.2586810588837, -0.7275514602661, -0.1083647832274, 0.3168439567089, 0.1899725347757, -0.3086463809013, -0.7046660184860, 0.3587535321712, 0.0165723841637, -1.6804636716843, -0.4726295173168, 0.3592299818993, -0.5623995661736, -0.1957528442144, -0.1855831891298, 0.7931700944901, -0.3463653922081, 0.8067421913147, 0.8518246412277, -0.0366186276078, 1.0918192863464, 0.4334336519241, 0.1054096296430, 0.1300148069859, -0.4447573721409, 0.3686048090458, -0.0793622434139, 0.0613582953811, 6.9130358695984, -0.5956426858902, -0.2749749422073, 0.7645375728607, 0.2528938055038, -0.2492207586765, -0.8960608839989, -0.1296633332968, 0.5503888130188, -0.1988138407469, 0.1317633092403, -0.5484528541565, -1.0573161840439, -0.5657134652138, -0.7602480053902, 0.2438158541918, -1.1937489509583, -0.0743484571576, -0.0706670656800, 0.2510764002800, 0.1292288303375, -0.6143422722816, 0.2487939745188, -0.5577324032784, -0.1749421954155, 0.2096098512411, -0.1628111600876, 0.7334661483765, 0.1733990311623, -0.3278718888760, 0.0709299817681, 0.2222195565701, 0.1293410062790, -0.5441755056381, -0.0280686486512, 0.3416436314583, 0.1481920182705, -0.2477204203606, -0.0860326215625, -0.3311362266541, 0.8162286281586, -0.4179254770279, -0.2439919859171, 0.1798662841320, -0.4987285733223, -0.5551847815514, 0.5429082512856, 0.5092711448669, -0.2168714255095, 0.4719551503658, 0.0462024398148, 0.2317625582218, 0.7054409980774, -0.7014712691307, -0.2835276722908, -0.7771317362785, 0.0651359632611, -2.0139565467834, -0.1820528358221, 0.6256268620491, 0.2024831324816, -0.3402049243450, 3.9220654964447, -0.1736555844545, 0.1442241370678, -0.1886693537235, -0.1443617492914, 0.5184395313263, 0.4090785384178, -2.7221181392670, 0.4587458968163, -0.4274039566517, -0.0105610461906, -0.3341909945011, 0.0831288546324, 0.2717772722244, -0.1218599677086, -0.9277190566063, -0.2949919402599, 0.1196088865399, 0.2227765172720, -0.7490692138672, 0.2931045889854, 0.1867204457521, -0.7266658544540, -1.2492861747742, 0.3243122696877, -0.1256575882435, 0.5644720196724, 0.8042309880257, -0.4031523466110, -0.0941863805056, 0.5889646410942, -0.8351343274117, -0.4685002863407, 2.6078667640686, -0.4682651460171, -0.0279109701514, -0.7039971351624, -0.3548739254475, -0.4624107480049, -0.2435520589352, -0.0230329502374, 0.4538472890854, -0.5654163360596, 6.7605576515198, 0.2819789350033, 2.2523562908173, -0.5829329490662, -0.0745512992144, 0.2546271383762, 4.6740384101868, -0.0363462977111, -0.0824514925480, 0.2359461486340, 0.3270302712917, 0.0356998629868, -0.9172848463058, 0.0399697311223, 0.3041482269764, 1.3908579349518, -0.6428270339966, -0.3843694925308, 0.3194837272167, 0.9158114194870, 0.1163358241320, -0.4193766713142, 0.8139424324036, 0.1269852966070, -0.0562453493476, 0.1579672694206, 0.7933740019798, -0.3947985768318, 0.3243575096130, 0.2922331392765, 0.2388587892056, 0.1261718571186, 0.1707809567451, -0.0026753298007, -0.4432900547981, 0.0882979705930, -0.0045757563785, 0.0024784472771, -0.2277483195066, 0.6858913898468, -0.3191588521004, 0.4596122205257, -0.9253695607185, -0.5983652472496, -0.5895621180534, 0.5163152217865, 0.2927438914776, -0.9738187193871, -0.2470499426126, 1.2139215469360, -0.1005617231131, -0.0959589555860, 0.0775571614504, -2.3110442161560, -0.0425202138722, -0.5827573537827, 0.8933041691780, 0.0330796279013, 0.7660902738571, 0.9363825917244, -0.8701708316803, -0.5044440031052, 0.1648220717907, -0.1022141724825, 0.9686442017555, 0.3767978549004, -0.4385926723480, 0.7608915567398, -0.4814614057541, 0.1176291033626, 0.0753510594368, 0.1943394839764, 0.2052381932735, 0.0147267011926, -0.0344148799777, 0.5925263166428, -0.0606993027031, 0.2264242470264, -0.7676562070847, 0.1781906932592, -0.2323556244373, -0.0537546984851, -0.2772435545921, -0.0617333278060, 0.2585762143135, 0.2765627801418, -0.7735525965691, 0.0115777952597, -0.1172824352980, -0.8806991577148, -0.3360871672630, -0.0592180676758, 0.4338847398758, 1.7225198745728, -0.0674422159791, 0.2199883162975, -0.0843908637762, 0.1665718555450, -0.4976812303066, 0.0358754619956, 0.0865126922727, 0.3346718847752, -2.8860406875610, -0.2100332528353, 0.9912212491035, -1.7980810403824, 0.2916021347046, 0.2967178821564, 0.1791089177132, -0.1386593431234, 0.4271112978458, 0.1192310005426, -0.1009376049042, 0.1383063793182, -0.1040349900723, -0.6198185086250, 0.3818736076355, 0.1621473431587, -1.9225299358368, -0.0188680663705, -0.4333363175392, 2.7552947998047, 0.2287539988756, 0.6279273033142, -0.4849221706390, -0.5544977784157, 0.7393383383751, -0.5523256659508, 0.9167132973671, 0.1174433305860, 0.6024487018585, 0.4662639796734, -0.0844786614180, -0.1412121504545, -0.5105987787247, 0.7966775298119, -0.4780166149139, 0.1751765608788, -0.1688289791346, -0.1258638501167, 0.1067997738719, 0.0154138747603, -0.4016339778900, -1.2260864973068, -2.9545760154724, 0.2611996233463, -3.3607938289642, 0.4149353504181, -0.4781761765480, -0.3641262352467, 0.2616505920887, -0.5159974098206, -0.2682021260262, -0.2424596995115, -0.3814248144627, 0.0496664978564, -0.2504477500916, 0.6439500451088, -0.8659580349922, -0.0955476760864, -0.2494702935219, 0.4706958234310, -0.1701084822416, -0.1504456996918, -0.3843738436699, -0.2265532910824, 0.3996925354004, -0.0705389454961, -0.1541256010532, -0.4334817826748, -0.0595034994185, 1.2427800893784, -0.3857027590275, 0.9307512640953, -0.0183931663632, -1.0823624134064, 0.1345336884260, 1.1119216680527, -0.7483800649643, -0.3606824874878, -0.0976960062981, -0.7547445297241, -0.5762571692467, -0.3008574843407, -0.6309094429016, 0.2222139835358, -0.2060557603836, -0.4215828776360, -0.2374465018511, 0.4516223073006, -0.2117545753717, 0.0562717318535, -0.0808641314507, -1.4369210004807, 0.8204910159111, -0.2193343192339, -0.6709634065628, 1.3893585205078, -0.2803212106228, -0.7604882717133, 0.0938788503408, -0.3447900414467, 0.3101550638676, -0.3937060534954, -0.4983244836330, -0.2840156853199, -0.8325616121292, -0.6318869590759, 1.6629818677902, 0.4107823073864, 0.5524824857712, -5.3322753906250, 2.2006196975708, 0.8853574991226, 4.9062519073486, -0.2705916464329, 0.3928918540478, -0.0407931469381, 0.4330061376095, 0.0643719211221, -1.2574155330658, 0.0417251996696, -1.5762064456940, -0.3071769475937, -0.1988880932331, 0.0230347458273, -1.0846073627472, 0.1605035662651, -0.2429321706295, 0.7517128586769, -0.1567660123110, 0.2070178985596, 0.0067137642764, -0.5279791355133, 0.2794960439205, 1.4169085025787, 0.0582957379520, -2.5132799148560, 0.7211111783981, 1.0736235380173, -1.2742208242416, -0.2028061002493, 0.3193207979202, -0.4307409822941, 0.0550378747284, 0.2847333550453, 1.2243323326111, 0.6781279444695, 0.9490455985069, 0.7622938156128, 0.3693718612194, -0.3125262260437, -0.0228412542492, 0.1434731334448, -0.3535485863686, -0.1764464378357, -1.1238237619400, -0.7363355755806, -0.1847832798958, -0.2363331913948, 0.4309650063515, 0.0183074381202, 0.4392882287502, -0.5776110291481, -0.0736470147967, -0.0729815289378, -2.4107089042664, 0.2674667537212, -0.4347043037415, -1.3833069801331, -0.6246442794800, 0.2118807882071, -1.7289122343063, -0.9361606836319, -0.4561933875084, 0.3658486306667, -0.5160351395607, 3.8980634212494, -0.5568544268608, 0.3635542690754, -0.4302564859390, 0.8049108982086, 0.9107891917229, -0.0498291850090, 0.5211185216904, 0.6567559838295, 1.3403906822205, 0.3949328362942, 0.5653834342957, 0.0484233684838, -0.0943539738655, 1.1463568210602, -0.0054423473775, -0.4340851008892, 0.0728801265359, 0.3461359441280, -0.6913565993309, -0.1757861375809, -0.6698075532913, -0.2264023423195, -0.7297677993774, -0.0502289719880, -0.5552724003792, 0.3017685413361, -0.5660870075226, 0.5270916223526, 0.2637688815594, 1.0708594322205, -0.7405164241791, -0.1745071262121, -0.9125424623489, -0.0563394501805, 0.9416072964668, 0.2592553496361, 0.4116237163544, -3.5310554504395, 0.6663330197334, 0.3860845267773, 0.9834220409393, 0.0841797068715, -0.6466403007507, -0.1916737109423, -0.3952781856060, -0.0975057333708, 0.1814085841179, -0.2590264379978, 0.5711816549301, 0.6113327145576, 0.4966945648193, -0.6421161293983, -0.1384854316711, 0.8560970425606, -0.1221682727337, 0.2230820655823, 0.4191937446594, 0.4192790985107, -0.5341005325317, -0.0183915346861, -0.0524764508009, -0.1932137608528, 1.5173187255859, 0.9620027542114, -0.0920468568802, 0.4103396534920, 0.3531551659107, 0.2627824544907, 0.0430860668421, 0.0646275877953, -0.5047190785408, 1.2913490533829, 0.1419043391943, 0.4188894629478, -0.1736831367016, 0.0851850360632, -0.7956932783127, -0.5018213987350, -0.1337172091007, 0.0745276212692, -0.1470872759819, -0.4013296663761, 0.1254047751427, 0.4379250407219, -0.3028225600719, -0.0279933474958, 0.1295460015535, 0.3772760331631, -0.4340102672577, 0.6851456761360, 0.1402381062508, -0.0408801622689, -0.0030712655280, -0.2052447050810, -0.2397647500038, 0.7959061264992, -0.1997507512569, -0.0513620935380, -1.6556949615479, -0.3638170957565, 0.6523820757866, -0.0669106096029, -0.1237714812160, -1.6566160917282, 0.2559557855129, -0.6988562941551, 0.9338229298592, 0.1376390606165, -0.3334570527077, -0.0593091286719, -0.2782575190067, 0.4791496694088, 0.3404028415680, -0.8392879366875, 0.7606584429741, -0.1123548373580, 0.3765101134777, 0.2522885799408, 0.2385619133711, 0.0694702714682, 0.5504172444344, 0.0040359478444, -4.8312664031982, 0.3904523849487, -1.3215948343277, 0.0516766645014, 1.0415107011795, -0.2077578306198, 0.6737175583839, 0.0551082342863, -0.8770563602448, 0.0059730825014, -0.0761176198721, 0.5484893918037, 0.0672722384334, -2.6962964534760, 0.1683191359043, -0.2619394361973, 0.4177745878696, -0.1364573091269, -0.4161172807217, -0.7927572131157, 0.2275606989861, 0.8315332531929, -0.3087865710258, -0.1683255881071, 0.9015114903450, 0.1394526809454, -0.1811115741730, 0.5168455839157, -0.2737714946270, 0.1330585628748, 0.4096938669682, 0.1755550354719, -0.6401910781860, 1.5355666875839, 0.3703392148018, 0.1255855113268, -0.0802171528339, -0.0234493166208, 0.9223263859749, -1.3762668371201, 0.0483390390873, -0.6693456172943, 0.1714189648628, -0.0689240843058, 0.1742497235537, -0.0660488158464, 0.7176012396812, -0.0522061139345, -0.3428454995155, 0.3231216073036, -0.1286270171404, 0.3500561118126, 0.1391634643078, 0.2619068920612, 0.2523730397224, 0.4382870197296, 0.0162966735661, 0.7370111346245, 2.0793795585632, 0.5301036834717, 0.3034739792347, 0.4586475789547, -0.2671056985855, -2.0795133113861, -0.1793425083160, -0.3416766524315, -0.3037380874157, 0.1157168969512, 0.0314205586910, -0.2668884396553, -0.1653242111206, -0.3426980674267, -0.1045078262687, 1.0547273159027, -0.2897132337093, -0.0630016773939, -0.1498950719833, -0.0279590282589, -0.4640564024448, 0.2846267521381, -0.9455701112747, 0.1188301816583, -0.1403096914291, 0.5555825233459, 3.3356518745422, -0.9713078141212, 0.2679186761379, -0.1603928357363, -0.2952666282654, -0.1944494396448, -0.3913373053074, -0.9508929252625, -0.9051721692085, -0.1127997562289, 0.8789680004120, 1.2001394033432, 0.6908043026924, -0.1247276365757, 0.7890787720680, 0.5937618613243, 0.5726571083069, 0.8814390897751, -0.2134310007095, 0.1211821362376, -0.6382684707642, -3.8997428417206, -0.6407967805862, -0.1367394626141, 0.5939952731133, 0.3021613955498, 0.5974541902542, 0.6348599791527, 0.2083453834057, 0.0841648951173, -0.0138834165409, 0.2682615816593, -0.0387172698975, -0.1458009183407, 0.5041946172714, 0.5201012492180, -1.2233672142029, -0.0877832472324, -0.6771570444107, 0.1603537350893, -0.3127840459347, -0.1305478960276, -0.2022489905357, 0.0215700976551, -0.0385271273553, 0.4876554906368, 0.1353700906038, -0.7175149917603, -0.4078478515148, 0.6684276461601, 0.0531017072499, 0.7567926049232, -0.1338895112276, -0.7322722673416, 0.1176723912358, 0.6297531723976, 0.6484094262123, -0.3102731108665, -0.1393532902002, 0.3889364302158, 0.2921586930752, 0.1992564499378, 0.5354058146477, 0.1094517707825, 0.6292367577553, -0.3850294351578, 0.5200859904289, 0.1420720964670, -0.2942798733711, -0.2011208534241, -0.1302969753742, -0.9671020507812, 0.1752161830664, 0.1801403015852, 0.2780031561852, -0.0629030838609, -0.8288369774818, 0.2201778143644, -0.2786172628403, -0.5297636985779, 0.1418869048357, 0.5402677655220, 0.3125709891319, 0.1120338067412, 0.1715338826180, -0.1225401163101, 0.1890977025032, 0.1108618825674, 0.6656315326691, 0.0476310215890, -0.1371105015278, -1.0656417608261, -0.5695088505745, -0.2200212478638, -0.1893967688084, 0.0114142820239, -1.7070494890213, 0.1416244506836, -1.2588115930557, -0.6298844218254, -0.7256355285645, 0.1959573477507, 0.0682152435184, -0.5500767827034, 0.0124020967633, -1.1450246572495, -0.8658380508423, -0.1043649315834, 0.0300745740533, -0.0892267599702, 0.1569847464561, -0.1996631771326, -0.1060654595494, 0.2340021133423, -0.1911275833845, 0.5166581869125, 0.5250772833824, -0.6802526712418, -0.2111720889807, -0.1678891181946, 0.3638890087605, -1.1618442535400, -0.4771342873573, 0.2430564463139, -0.0857504084706, 0.2550365030766, -0.4787749052048, -0.3200617432594, -0.0196472182870, -1.3065596818924, -0.0267288945615, 0.6135827898979, -0.0118157668039, 0.0629620999098, -0.2380367368460, -0.3974691629410, -0.6889625191689, 0.0759463384748, 0.1195766031742, 0.4404770731926, -0.5040222406387, 0.3147043585777, -0.2120967358351, 0.3312678933144, -0.1304827034473, 0.4170731008053, -0.0013471320271, -0.6255496144295, 0.6702011227608, 0.0273943729699, -0.6633362174034, 0.4570066034794, 1.8660558462143, -1.2465589046478, 0.1094451770186, 1.5255020856857, 0.7257349491119, -0.1272161453962, 0.0373205021024, -0.4640083611012, 0.0760118365288, -0.6038200855255, -1.6343574523926, -0.0143695846200, 0.4732602238655, 1.3759647607803, -0.2171153128147, 1.3309779167175, -0.4003086686134, 0.2971688508987, 1.0840700864792, -0.5680320262909, 0.2752811610699, -0.0091361142695, -1.2356098890305, 1.0657750368118, 0.0025439988822, -0.5111007094383, 0.6959231495857, -0.6441760063171, -0.4753097295761, 0.0612126216292, 0.9290296435356, -1.7024160623550, -0.3317671716213, 0.1740612536669, 0.8388624787331, -0.5932663679123, 0.3257077336311, -0.0843222811818, -0.8823224306107, 0.1826235800982, -0.3705142140388, -0.7257308959961, 0.3312171101570, 0.1826604753733, -0.7903986573219, -0.0768574178219, 0.0550112500787, -0.6541826128960, 0.9633346199989, 0.1646520793438, -1.0370488166809, -1.1359515190125, 0.5524044632912, 1.6100219488144, 0.3773597180843, 0.5276443362236, -0.5271898508072, -0.3679620623589, 0.0670885294676, 0.8669010996819, -0.1558768004179, -0.5660539269447, -0.1184626147151, 0.2944252490997, 0.3813688457012, 0.5502921938896, -0.2934966385365, 0.2030436843634, -0.0262428242713, -0.1185600757599, 1.3159384727478, 0.2040380835533, -0.0442848578095, 0.3028603196144, -0.1028304249048, -0.1500366628170, -0.0176153834909, 0.7679953575134, 0.3441500067711, -0.0476931892335, 0.1329154223204, 0.8392692208290, -0.5618963241577, 2.9604294300079, -0.2060032039881, 0.5938907861710, -0.3537172079086, 3.8997581005096, -0.0058797574602, 0.3040638864040, -0.1867096871138, -0.7562035918236, 0.3798598647118, 0.4586738049984, 0.2646659612656, -0.0724193975329, 0.4382807314396, 0.5059286952019, 0.5662160515785, -0.1250246912241, 0.1697395294905, -0.7848958373070, 0.0406950637698, -0.4640342295170, -0.1539755016565, -0.0963785350323, 0.2108596563339, 0.6235988736153, -0.1724003255367, -0.0478473529220, 0.3992000520229, -0.0601890534163, 0.5562591552734, -0.1523082256317, -0.0824473202229, 0.1082375198603, 0.5985520482063, -1.0674421787262, -0.1867888271809, -1.2580873966217, -0.4479761421680, -0.0199160575867, 0.5158274173737, 0.7660871744156, 0.7517341375351, -0.3478532135487, 0.1817544996738, -0.1504226773977, 0.2321512699127, -0.6409556865692, -1.4170987606049, 0.7210114002228, -0.3475375771523, 0.6014579534531, -1.5922890901566, 0.1659385263920, -0.5583760142326, -0.0374478362501, 0.2951140105724, 0.7140260934830, 0.0466658473015, 0.0380691289902, 0.0101222116500, -0.3607016205788, -1.2090884447098, 0.2228854447603, 0.3730195760727, -0.0599512085319, 0.0201144162565, -0.6765841841698, 0.7117903232574, 0.0991463661194, 0.0670438483357, 0.4151703417301, 0.8416883349419, 0.1959165930748, 1.7542198896408, -0.3613520860672, -0.6066492795944, -1.0373244285583, 0.2566401958466, 1.0275064706802, -0.1451846212149, 0.1412922888994, 0.2241778820753, 0.1836995780468, -0.1197697669268, -0.0570923201740, 0.2398969233036, -0.9412679672241, 0.5244278311729, -0.4271939992905, 1.5965645313263, -0.1582091748714, -0.1173712313175, -0.1422726660967, 0.7851366400719, 1.9452340602875, -0.0873891711235, 0.3077285885811, 0.1817890554667, 1.1958397626877, 0.2703066766262, -2.2038648128510, 0.2135418653488, 1.8899942636490, -0.0548369660974, -0.0235491693020, 2.1641299724579, -0.1526845544577, 5.3332691192627, -0.4375785887241, 0.1929762959480, -0.5693609714508, -0.8547978997231, 0.1058679446578, -1.3933278322220, -0.5679395794868, 0.0614111199975, -0.2535418570042, -0.2832581102848, 0.3315041661263, -0.7049119472504, 0.1190492510796, 0.9972159862518, -0.3405084609985, 0.1283627003431, 0.3255983889103, -0.0230899602175, 0.4421251714230, 1.1932145357132, -0.2200640887022, 0.1196026578546, -0.8820502161980, -1.9706139564514, 0.3027716875076, -0.4490937590599, 0.3877288103104, 0.0827131420374, -0.2298017293215, 1.0372248888016, -0.0201997347176, -0.5222853422165, -0.1814668029547, -0.7084952592850, -0.1224887296557, 0.4208542704582, -0.4346538484097, 0.3617236316204, -0.2365307807922, -0.4787908196449, -0.3212615549564, -0.8317369222641, -0.3398502767086, 0.1618447899818, -0.1488166600466, 0.0703215152025, -0.4386261701584, 0.2035662978888, 0.0693909525871, 0.1940243989229, -0.1612987965345, 0.2453873455524, 0.0619431175292, -0.8089613318443, -0.2059845179319, -0.7680208683014, -0.8449771404266, 0.5136170387268, -0.6425292491913, -4.5332579612732, 0.3624998927116, 0.2277706265450, 0.0484889969230, -0.2113666534424, 0.0943409800529, -0.1141031160951, 0.3030335009098, -0.7634410858154, 0.5493775010109, -0.3534313142300, 0.0256000477821, -0.0709508880973, -0.3093009889126, -0.5021674633026, 2.1996529102325, -0.6224229931831, 0.0186324790120, -1.4847435951233, 1.6877622604370, 1.1102176904678, 0.3402763903141, 0.0872430279851, 0.1011554673314, -0.0048369150609, -0.4656423330307, -0.3751310408115, 0.2527951300144, -0.0719622224569, 0.9502984285355, 0.4023261368275, -0.9284619092941, -0.0529875084758, -0.3845246136189, -0.2271256297827, -0.1012500375509, 0.2711403369904, -0.4653597772121, 0.4511175453663, 1.1233248710632, -0.2353325337172, -0.6474744677544, -0.2550363838673, -0.5626040697098, -0.0902279913425, 1.5414547920227, 2.3438200950623, -1.2999135255814, -0.4506911933422, -0.9768100976944, 0.1029379069805, 0.0556389316916, -0.4396001398563, -1.3147166967392, -0.6388933062553, 1.1865890026093, 0.1186701059341, 0.0748443230987, -0.5940527915955, 0.0034733514767, -0.0502772033215, -0.3104767799377, -4.9010109901428, -0.0106286276132, -0.1613019704819, -0.7740067243576, -3.7750830650330, -0.4798209369183, 0.6102240085602, -0.0366726182401, -0.1825847923756, 0.6127642989159, -0.2898736000061, -0.1475738286972, -1.3288400173187, 0.3741738200188, -0.2553853392601, 1.5902644395828, -0.4006074368954, 0.3280402421951, 0.4462487399578, 0.1510020196438, 1.0277070999146, 0.4366900026798, 0.1484818756580, -0.1924139708281, 0.1737207472324, 0.6116263270378, -1.1380810737610, 0.0637016594410, 0.0160022098571, 0.4832073748112, 0.0217444133013, 0.6869854331017, 0.0869577974081, 0.0004631235497, 0.5081377625465, 0.2230126112700, -0.2464793026447, 1.1184546947479, -0.4764914810658, -0.0317686051130, 0.0755916237831, -0.1541269868612, 2.2457048892975, -0.2962920963764, 0.5030402541161, 0.6224030256271, 0.8430281877518, 1.4020844697952, 0.5414261817932, -0.5745190978050, -0.3938353657722, -0.7231572866440, 0.2349440306425, 0.6809334158897, -0.1365034729242, 0.2220449000597, -0.0420529320836, -0.4841524660587, 0.0408160723746, 1.0024244785309, 1.3383189439774, -0.7041249871254, 0.1074042245746, 0.0348006673157, -0.5027224421501, -0.3422595262527, -2.3997216224670, 1.0288379192352, -0.5725438594818, 0.0331218801439, -0.1571680456400, 2.5727963447571, 0.2571137547493, 0.4559977650642, 0.5334489345551, -0.4811653494835, 1.4907792806625, -0.0019838875160, -0.5453549623489, 0.8341303467751, -0.5699934959412, 0.2424304038286, -0.0611500665545, -0.8262957930565, -2.2195391654968, 0.1859840601683, 0.8676174283028, 1.3821525573730, 0.2231225222349, 0.0665005594492, 0.1684799790382, 0.4182220995426, 0.6897621154785, -0.2465776652098, 0.0235392935574, -0.5261564850807, -1.7600356340408, 0.3049958944321, -0.0078388610855, -1.1198512315750, -0.1646356284618, -0.4686201214790, 0.0364348627627, 0.5187838077545, -0.4945534467697, -0.1702902019024, 0.6702449321747, -0.4172513484955, 0.2655506134033, -0.6559966206551, -0.1397069841623, 0.1464596688747, 0.2075734138489, 0.0267781335860, -0.4463559985161, -0.6938853859901, 0.6778096556664, -0.2378037422895, -1.1785335540771, 0.1998826116323, -1.9151265621185, 0.1588377505541, -0.2783112227917, -0.0811758562922, -5.8593263626099, 0.2099786251783, 0.0866372734308, 0.5514657497406, 0.4281915724277, -1.2649493217468, 0.2120014578104, 0.0496244691312, -0.5738930702209, 0.0017741483171, -0.1570748537779, 0.7143139839172, 0.1931229680777, -0.4129239022732, 0.1521536558867, -0.2404078245163, 0.1031516492367, -0.2735743522644, -0.0539723969996, -0.2749741077423, 0.2168771177530, -1.6346644163132, 0.4272575080395, 0.3170606493950, -1.3982141017914, 0.4942917823792, 0.6063835620880, -3.8256919384003, 0.4672165215015, 0.2485270947218, -0.1700192987919, -5.2486524581909, -0.8950651884079, 0.0232729259878, 0.2143961042166, -0.0174942482263, 0.1318815350533, -0.3198069632053, -1.5132249593735, -0.2037450969219, 0.7258471250534, -0.6736345291138, 0.5224212408066, -3.2772109508514, -0.1444412767887, 0.4241981208324, -0.0101526323706, 0.0170672591776, -0.8634563088417, -0.1652605533600, 0.0761992186308, -0.1599385440350, 0.5213992595673, -0.2274252772331, -0.7571883201599, 0.6598269343376, -0.4503067135811, -0.5776781439781, 0.0823575928807, -0.9745770096779, 0.0198452156037, -0.4460347294807, -0.5459027290344, 0.1906953454018, -2.7068591117859, -0.2264404892921, 0.8477587103844, -0.1575265228748, 0.1387600153685, 0.3303284347057, -1.3272815942764, 0.1643203645945, 0.2289209365845, -0.8144911527634, 0.9485989212990, 0.6111968159676, 0.2462843954563, -0.1846442669630, 0.1586463004351, 0.1333522498608, -0.1692737936974, 0.0865033790469, -0.0647678673267, 0.2515595555305, -0.0650775879622, -0.9140075445175, -0.1708545684814, 0.1109545454383, -0.7017637491226, 0.2993027567863, 0.0581727102399, 0.0603500045836, -0.2666928768158, 0.5712397098541, 0.0226976294070, 0.2850340008736, 0.1624710410833, -0.6661987304688, -0.0597493760288, 0.3406408429146, -0.7948814630508, -0.3332652747631, -0.4307317137718, 0.3761900067329, 0.3631113171577, 1.3451582193375, 0.2449142485857, 0.2928430140018, 0.6359157562256, 1.0093106031418, -0.2816585600376, 1.1147145032883, 0.2113061547279, 0.4444152712822, -0.4198068082333, 0.0150573262945, -0.1183585748076, -0.6286272406578, 0.2076385021210, 0.3376904129982, 0.6083309650421, 0.1644795835018, 0.3413351178169, -0.1769468635321, -0.5809334516525, -0.4954492449760, 1.1484159231186, 0.5812443494797, 0.1228240281343, -0.1258888989687, -0.1401979327202, -0.6909750699997, 0.4075143039227, 0.0582235828042, 0.0071103461087, -0.1798665672541, 0.2429437637329, -0.5401608943939, -0.3585286438465, -1.1449465751648, -0.2113594412804, 0.2995241582394, 0.0653564780951, 3.2730114459991, -0.6524521708488, -1.2819319963455, -0.2573030889034, -0.8719297647476, -0.0537076257169, -0.7664674520493, -0.3344373703003, 0.4107359647751, 1.2213723659515, 0.0629501864314, -0.0988734215498, 0.0703642889857, 0.0661165192723, 0.5685138106346, 0.1446235328913, 0.5424972772598, 0.1659566760063, -0.4823821187019, 0.5380238294601, 0.1537382751703, -0.5173162221909, 0.2124073952436, 0.5925598144531, -0.7140843272209, 1.5717825889587, -0.2871666252613, 4.0282216072083, 0.2499138265848, 0.3080753982067, -0.0348223149776, 1.0031985044479, 0.5476891994476, -0.1596226394176, 0.4751646220684, 0.5483965873718, 0.0652990713716, 0.3007374405861, -0.0757256969810, -0.2504812479019, 0.3285699486732, 0.1719263941050, -0.8377416729927, 0.2578174173832, 0.4039401412010, 0.6494225859642, -0.1100875362754, 0.7430225610733, 0.3255873918533, -0.7090311050415, 1.1416077613831, -0.2103794664145, -0.0369556434453, 2.4013006687164, -0.0707676187158, -0.6956611871719, 0.1004712656140, -0.1807642132044, 1.4731993675232, -0.4110329747200, 0.4529762268066, 0.3054265677929, 0.1306110173464, 0.4498935639858, -2.7471077442169, 0.2341748774052, 0.9838296771049, 0.0433116443455, 1.5669494867325, -0.2434498071671, 0.4395992755890, -0.2806726992130, 0.4469528794289, -0.3554418683052, -1.5010435581207, -0.0613093264401, 2.8834366798401, 0.1291636824608, -0.0885160043836, -0.2826123535633, -0.7046557068825, 1.1365138292313, 0.1425832062960, -0.3983473479748, -0.0187089852989, 0.1465977132320, -0.6284279227257, 0.3152877390385, 0.1461910158396, -0.2331020534039, -0.0024876829702, -0.0661025643349, -0.0872706323862, -0.6541625261307, -0.0081772021949, -0.4168974459171, -0.5337048172951, 0.2512100636959, -0.3725443184376, -0.7869253754616, -0.0546214170754, 0.4387066960335, -0.0791987180710, 0.1693731695414, 0.0321923270822, -0.1735935658216, 0.0786197856069, 0.4107375442982, 0.2408847212791, 0.2851458787918, 0.0225899126381, -1.1792773008347, 1.9716268777847, -1.0891937017441, -0.1371708065271, -0.2259458601475, -0.1754588633776, -0.2466384023428, -0.5275636315346, -0.2654307782650, 0.6223866343498, -2.3572793006897, -0.8489023447037, 0.4345856904984, 0.1263143569231, 0.3340109586716, 0.0523501895368, 1.2069915533066, 0.5072675347328, 0.7571955919266, 0.0576888099313, -1.2842504978180, 0.2073838710785, -0.3271871209145, -1.4253593683243, 0.5098283886909, -0.3965727090836, -1.6130707263947, -0.0139245288447, 0.0899472460151, 0.1028188019991, -0.6049755215645, -0.4096295535564, 0.2174856811762, -0.8806760311127, -0.4044672548771, -0.0038757354487, 0.0058797262609, -0.1099448949099, -0.0879090800881, -0.1652900129557, -0.1171257644892, 0.3713382482529, 0.0375949107111, 0.3135876953602, 0.0859602168202, 0.3250222802162, 0.4893396496773, -0.2488332390785, -0.2688763737679, -0.1426504403353, 0.0009844157612, 0.3947319984436, 0.6066059470177, -1.5226112604141, 0.1446887701750, 0.0151997767389, 0.1799128055573, -0.0141406338662, -0.2711772918701, -0.0536182150245, 1.1148567199707, 0.4169619679451, 0.8155555725098, 0.0961525067687, 0.1259046643972, 0.6384543776512, 0.5053408145905, 0.0872421115637, -0.0783106982708, 0.5759414434433, -0.1446710824966, -0.8188289999962, 0.7250065207481, -0.2276376336813, -0.0583329014480, -0.7047570347786, -3.6012127399445, 0.7825267910957, -1.3631645441055, 0.3148409724236, -0.6237615942955, 0.3273485898972, 0.1497886776924, -0.5317676067352, 0.1469010263681, 1.3263822793961, -0.3753896653652, 0.3448489904404, 0.5136530995369, 0.5628446936607, 0.5689660906792, -0.1450181305408, -0.4773671627045, 0.2600572407246, 0.7436071634293, -0.5799196958542, 0.3363585770130, 0.2929983437061, 0.2010466009378, 0.1869184970856, 0.3798970282078, -1.0127073526382, 0.1960725337267, 0.2803661227226, 0.4173990488052, -0.4114585816860, -0.3596934974194, -0.1018792539835, 0.5105129480362, -0.2169430851936, -0.3733668327332, -0.5177267193794, -0.0225476138294, 0.4735270142555, -0.1326753497124, 1.3202214241028, -0.1633339375257, 0.0234170611948, -0.1536705046892, 0.2181504219770, -0.5409565567970, -1.7504044771194, -0.6046100258827, -0.7772272825241, 0.2604437768459, 1.8355255126953, -0.4280875027180, -1.0602661371231, 0.1249726861715, -0.7639231681824, -1.5719282627106, 0.2651931643486, -0.9021367430687, 0.2299067676067, -0.0410628393292, -0.4550626873970, -0.4047840237617, 0.0712342038751, 0.0921435132623, -0.3382945656776, -0.5281025171280, 0.0013991253218, -0.1759935617447, 0.3256129324436, 0.2337446659803, 0.3915286958218, 0.4036512076855, -0.6106513738632, 0.0817038416862, -0.3482086062431, 1.1595925092697, -1.1953878402710, -1.1408864259720, -2.4042084217072, -0.4171164333820, 0.3993050754070, -0.4583767354488, -0.4982881247997, -0.2892531156540, -0.0696337074041, -0.4815965592861, -0.0051329620183, -0.6785712838173, 0.3350054621696, 0.0723826363683, -0.2783966660500, -0.1658580452204, 0.1744853854179, -0.0177038908005, 0.0524693317711, 1.1733213663101, -0.5115152597427, 0.1982809454203, 0.0109751177952, 0.0159218255430, 0.0741878226399, 0.2012183219194, 0.1344586163759, -1.0874282121658, -0.9364082813263, 0.3156247138977, 0.0349103882909, -0.6005069613457, -2.6489195823669, -0.5916781425476, -0.3004827201366, -0.0747424811125, 0.8093543052673, -1.3675065040588, 0.8039775490761, -0.1502391546965, 0.3437810242176, -0.3851458132267, 0.1349151879549, 0.1314827203751, -0.4792785644531, -0.8781164288521, 1.4417655467987, 0.7566460371017, 7.1048998832703, 0.3579288423061, -0.1312079727650, 0.5244525074959, 1.7679641246796, 0.2641184329987, 0.3634735941887, 0.4292850792408, 0.6837368011475, 0.8966431021690, -0.3200100958347, 0.9016426801682, -0.3725233376026, -1.0417360067368, 2.1263890266418, 0.0533153340220, 0.0325316116214, 3.5193040370941, -0.7047672271729, -0.0683156996965, -0.9195981025696, -0.2583687603474, -0.5122669339180, -0.3790266513824, 0.1661617457867, 2.0638566017151, -0.7374766469002, -0.3129285871983, -0.7168866395950, 2.4421386718750, -0.6030463576317, -0.1827364563942, 0.6698042154312, 0.2175539135933, -0.4258003830910, 0.3617317080498, -2.5287058353424, -0.4199845194817, -0.2195142060518, -0.7585138082504, -0.0348614715040, -0.1539704799652, 0.3221403062344, -0.4408162832260, -0.5900948643684, 0.0072546466254, 0.3356893956661, 3.7697269916534, -0.4003076255322, -0.8508478403091, -0.1112354025245, 0.6916415691376, -1.3946573734283, 0.1128722950816, -0.1841401457787, 0.6002430319786, -0.3114557266235, -0.6480764746666, 0.3019853234291, 0.4214467704296, -0.0735069364309, -0.2097691893578, -0.4357402920723, 0.3652625083923, 0.1281962692738, 0.3717634975910, 0.4107317626476, 0.6980259418488, 0.3912189900875, -0.2836219370365, 1.4878727197647, -1.0321594476700, -0.1567569226027, -0.2109798043966, -0.0369960144162, 0.5639557838440, -0.1545783579350, 1.0257886648178, 0.1762844622135, -0.0314469933510, 0.5218421816826, -0.3448860347271, 0.1709107756615, -0.3030936121941, -1.7581412792206, -0.6768599748611, 0.8060676455498, 0.0865499973297, -0.2308384031057, 0.5484653115273, 0.4173224270344, 0.6464964151382, 0.4881087839603, -2.5115497112274, 0.1324845701456, 0.1175640821457, -0.3592417836189, -0.6109201312065, -0.8814057707787, 0.2928280234337, 0.5820542573929, -0.2079483121634, 0.8563420772552, -0.6912656426430, -0.2985631227493, 0.0367751866579, 0.9656134247780, 0.0325448401272, -0.5080223679543, 0.4042628407478, 0.0759040564299, -0.2818129658699, -0.4639627635479, -0.2606769502163, 0.5032860636711, -0.4769017398357, -1.0529707670212, 0.1137780472636, 0.2900292873383, -0.4375143349171, -2.2012660503387, 0.4867996573448, 0.4935477375984, 0.1422057896852, -1.5545293092728, -0.0165708195418, -0.0698233842850, -0.0930484384298, -0.5796203017235, 0.5651521086693, 0.2939147949219, -2.1412796974182, 2.3046052455902, 0.0878220722079, -0.5441608428955, -0.1177792847157, -1.8622193336487, -0.7660388946533, -0.4529433250427, -1.9222517013550, -0.1196939423680, -0.2012723535299, -0.0541728064418, 0.0249233040959, 0.0255858302116, 0.1364636868238, -0.0869446843863, -0.2714723646641, -0.3752934634686, -0.4198391437531, 1.1988043785095, 0.0543350912631, -0.8856070637703, -1.2113919258118, 0.4206241667271, -0.1551816314459, 0.2055597752333, -0.6779260635376, -0.3506121337414, 0.1165402829647, -0.4056547880173, 1.7482845783234, 0.7113640904427, -4.7169036865234, -0.0049761608243, 0.9730470180511, 1.0836844444275, -0.0673568174243, -0.1104298755527, -0.3948397934437, -0.0371342152357, 1.0726690292358, -0.4080126285553, 0.2275183796883, 0.5118252038956, 0.2505845725536, -0.2602839171886, -0.0547267757356, 0.4886965751648, -0.5308689475060, -0.4826754033566, 0.4225075840950, 0.3697558939457, -0.0017276247963, 0.3118025064468, -0.2000414580107, -0.4436663985252, -0.0242021735758, -0.2005913704634, -0.1587097793818, -0.0846218764782, 0.2071489840746, -0.1100378111005, 1.2132920026779, 0.0146163301542, -0.1973075866699, -0.4311271011829, -0.0135207017884, 4.5942993164062, 0.2757377028465, -0.0865552946925, 0.2008367478848, 1.5716241598129, 0.6010634303093, 0.4743349254131, 0.0840767621994, -0.7157275080681, -0.1823242455721, 0.0439878366888, -0.6504854559898, 0.1914672255516, -0.1773541718721, -0.3107368052006, 0.3908881247044, 0.6410827636719, -0.0402870140970, 0.2972392141819, 0.5225818157196, -0.5452961325645, -0.2443675547838, -0.2582177519798, -0.1094510480762, -0.1310707330704, 0.7618638873100, -0.2918355464935, -0.0182232633233, 0.0608126521111, 0.4595164060593, -0.0536759868264, 0.0393368974328, -0.5611689090729, -2.4068219661713, 0.1616925746202, -0.0100272148848, 0.0704317465425, 1.6718720197678, -0.5754569172859, 1.1692657470703, 0.4254764616489, 0.6381127834320, -0.0651217699051, -0.2497210949659, -0.4774525463581, 0.1756703555584, 0.0321251265705, 0.1352399289608, 0.0181984156370, -1.7993586063385, -0.2979851961136, 0.2791753411293, 1.0992836952209, 0.2158251255751, 3.2064478397369, -0.0487996079028, 0.4843453168869, 0.1737391799688, 0.0988553240895, 0.1469994634390, -0.1191868335009, -0.9865996837616, -0.2714545428753, -0.1615992784500, -0.0099349357188, 1.2560040950775, -0.2574533522129, -0.1360828876495, -0.9813047647476, -0.2756884694099, -0.4640115797520, -0.7749343514442, -0.6009827852249, -0.2343340963125, 0.1382125318050, -0.1144753172994, 0.0916672497988, 0.2209225893021, 0.5974333286285, 0.1017423272133, 0.7517328262329, 0.7095832824707, -0.3343893587589, 0.4757120609283, 0.1828723102808, -1.0899087190628, 0.0220087990165, 1.3369596004486, -0.1570391505957, -0.5849523544312, 0.3631808161736, 0.6407123804092, -0.4490150511265, -0.4647896289825, -0.0163413919508, -2.3220567703247, -0.7076326608658, -0.7675142884254, -0.3318772315979, 0.6001545190811, 0.4333244264126, -1.7186142206192, -0.0583461113274, 0.3058820962906, -0.4213180840015, -0.1162695437670, 0.5729132294655, 0.8237607479095, 0.4515193998814, -3.0281441211700, -0.6529922485352, 1.3466410636902, 1.1442054510117, 0.8691728115082, -1.4572221040726, 0.3124830722809, 0.0051000504754, 1.5968348979950, -1.2458037137985, -0.9033382534981, -0.1791323125362, 0.0182765703648, -0.9218753576279, -0.2876315712929, 0.2894133925438, 0.1007493436337, 0.3685635328293, -0.8142653107643, -0.5424531698227, 0.0949329435825, -0.7433061599731, -0.2780662775040, -0.1173230037093, 0.3297453522682, -0.6893065571785, -0.4649049043655, -0.3418457210064, -0.0207674056292, 0.6019949913025, 0.3697772920132, -0.2419504523277, 0.5812779068947, 0.0903001427650, -0.2077953219414, 0.7587080001831, -0.0875141546130, -1.4774237871170, 0.2017711699009, -0.5065599679947, 0.9477977752686, -0.8689254522324, -1.0744757652283, -0.4379817247391, 0.6238455772400, 0.1994070112705, 1.0617984533310, 1.1093826293945, -0.0630483627319, -1.3469572067261, 0.9969824552536, 0.1625382304192, 0.6504490971565, -0.1030831485987, -0.0965689197183, 2.9982771873474, -0.1152840629220, 0.0454147756100, 0.2493894696236, 0.5052960515022, -4.5594706535339, 1.1573759317398, 0.4717881381512, 0.0630849227309, 0.0859259441495, -0.1195135116577, -2.3411056995392, 0.0902523323894, 0.1029089540243, -0.5461855530739, 0.2949716150761, 0.4328150153160, -0.7937728166580, -0.0258180145174, 0.2417580038309, 0.0249322541058, 0.5881586074829, 0.3127734959126, -0.9056994318962, -0.4905110299587, 0.1414535194635, 0.1752470433712, 0.0612221397460, -0.1064275652170, 0.0466401800513, -0.3553327620029, 0.3029116988182, -0.1791673749685, 6.8455233573914, 0.1397204250097, 0.5304448604584, 1.9435096979141, -0.5116644501686, -3.2776420116425, 0.2068170160055, 3.2263696193695, -0.7327600121498, 0.1651835888624, -0.1689464449883, 0.1684172004461, -0.8350414037704, -1.3184518814087, 0.0544313825667, -0.1929136067629, -0.0186186600477, 0.2709025144577, -0.6007831692696, -0.0941905453801, 0.6520819664001, 3.9995870590210, 0.0342079848051, 0.1511867344379, 0.8889916539192, 0.5271487832069, 1.4621826410294, -0.1162752732635, 1.3413065671921, -0.0917400121689, 0.6361871957779, 1.0483020544052, 0.5992614626884, -0.4816592931747, -2.4690511226654, -1.1163735389709, 0.3797903060913, -0.2832670807838, -0.5021480917931, -0.6930752396584, -1.2523860931396, 0.2993519306183, 0.9583254456520, 0.3935756981373, 0.1330266445875, 0.2245237976313, 0.2128453552723, -0.1310744136572, -0.4756917953491, -0.1167434230447, 0.3605335950851, -0.3882205784321, -0.5683553814888, 0.2632381320000, -0.2724776864052, 0.2825554013252, -0.7393695712090, -0.3294698894024, -0.7777559161186, -0.0585664212704, -0.2568634748459, 0.7480629682541, 0.3447429537773, 0.9723888039589, 0.0714423656464, -0.3376981019974, 0.3379550576210, -1.9018956422806, -0.9717655777931, 0.5441166758537, 0.0854551717639, -0.1222633421421, 0.0439870096743, -1.5071862936020, 0.0096350768581, -0.2902570664883, -0.0143139800057, -0.1130753457546, 0.1073725745082, 0.1084564402699, -0.4497180283070, -0.1108292788267, 1.5142461061478, 0.3639784753323, 0.2543317079544, 0.0186532642692, 0.0479665286839, -0.1159311309457, 0.6268195509911, 0.4858294725418, -0.0750186443329, -0.1615763008595, 0.0853280797601, 0.4634289145470, -0.7478672266006, 0.0622470602393, 0.7016137242317, 0.7396910190582, -0.1716265976429, -0.0633035972714, -0.1784409582615, 0.1699906438589, -0.2019096314907, -0.1671474575996, -0.1745921522379, 0.4125646054745, 0.1003527045250, 0.0734559968114, 0.1343530416489, -0.2211927026510, 0.2245421707630, 0.2163728177547, 0.2305491268635, -0.2853049635887, 0.0769708678126, 0.1380889713764, 0.2600321769714, -0.1169262826443, -0.0944724529982, -0.1786272972822, 0.0066900220700, 0.3648917973042, -0.0814785212278, -0.1048137620091, -0.1629830300808, -0.0260048694909, 