//Numpy array shape (23296,)
//Min -7.845973968506
//Max 11.475416183472
//Number of zeros 0

#ifndef OUT_PROJ_WEIGHT13_H_
#define OUT_PROJ_WEIGHT13_H_

#ifndef __SYNTHESIS__
layers_0_ffn_out_proj_weight_t out_proj_weight13[23296];
#else
layers_0_ffn_out_proj_weight_t out_proj_weight13[23296] = {-0.6644426584244, 0.3244281709194, 0.2950735986233, -0.3128334879875, -0.3651286959648, -0.5731337070465, -0.5672574639320, 0.3020296394825, -0.6959918737411, 0.0946257114410, 0.3402173221111, 0.9690068960190, -0.7913004159927, -0.7393090128899, -0.0780014246702, -1.1527731418610, 0.0869296118617, -1.0909843444824, 0.4853340685368, 0.8513349890709, -0.2977291643620, -0.0050960821100, -0.4682729840279, 0.6728255748749, 0.2259878665209, 0.1786382645369, 0.4482174217701, -2.3073534965515, 0.6493496298790, -1.8749054670334, -1.1199922561646, -0.3526962697506, 0.6891249418259, 0.2916271090508, 0.0812991932034, -0.1024868041277, -0.6270727515221, -0.5096959471703, 0.4107231199741, 0.2323472648859, -0.6014034152031, -0.1062777489424, 0.1595509946346, 0.1684985160828, -0.2398477494717, -0.3198130726814, 2.3256754875183, -0.5753145217896, 0.3598924875259, 0.0942398011684, -0.5289129018784, -0.3594935238361, -0.3148825764656, -0.8302045464516, 0.0294891074300, -0.7038992643356, -0.4737147390842, -0.5824438929558, -0.1053660809994, 0.2960715591908, 0.3073659241199, 0.3235099017620, -0.5270557403564, 1.0271209478378, 0.4919918179512, 1.3202533721924, -0.0206964667886, 0.0266854539514, -0.0601637437940, -1.1086899042130, -0.0738163590431, -0.1019793152809, 0.2959038019180, 1.3623106479645, -0.4743470847607, -0.3059033155441, -0.7256152629852, 1.6097444295883, -0.4469176530838, -0.9103406667709, 0.3764324188232, 0.3454733192921, 0.7664830684662, 0.8447932004929, 0.7898940443993, -0.5188300013542, -0.3131937384605, -0.1847749948502, 0.8546094894409, -0.8726018667221, 0.4611735939980, -0.2392352223396, 0.0349142327905, 0.3365949392319, -0.1030072495341, 0.2227839082479, -0.9553405642509, -0.2457455992699, -0.3259939849377, 0.3893097341061, 0.3772093653679, -0.1278245747089, -0.2681125998497, 0.6658039093018, 0.1895922869444, 0.9100216031075, 0.5539292097092, -0.0164862088859, 1.0094950199127, 0.3726512193680, -0.0316809602082, 0.5320440530777, -0.4424853026867, 0.7273072600365, -0.1051988154650, 0.0937171354890, -0.2205311805010, 0.2841970920563, -1.0309041738510, 0.4565018415451, -0.7785164117813, 0.2050834000111, 0.8289070725441, -0.8062763810158, 0.3587119579315, -0.1576967686415, 0.0807899758220, -0.0850984528661, 0.2668761014938, 0.0978851243854, 0.5775583982468, 0.0980230867863, -0.2836934030056, -1.4844423532486, 0.9218582510948, -0.1917069256306, -0.1628174334764, -0.2790515422821, 1.3408812284470, 0.3517978787422, 0.5533400774002, -0.2695795595646, 0.1904348134995, 0.2167788743973, 0.0760830715299, -0.8776049017906, 0.2345489114523, 0.5647092461586, 0.1600346416235, 0.3406131565571, -0.0839508622885, -0.4541653096676, -0.2569374442101, 0.1301423460245, -0.1603541076183, -0.6102736592293, 0.2218058258295, -0.3689637184143, -0.5735057592392, -0.3164727985859, -0.6875651478767, 0.0020134195220, -0.1475309580564, -0.2832448184490, 0.8270958065987, 0.5302813649178, -0.3944230973721, -0.1310812681913, 0.8961991667747, 0.3129046857357, 0.1186432167888, 0.3613045215607, -0.0091828573495, -0.2146959751844, 0.0120437378064, 0.3346360921860, -0.4592817723751, 0.5803199410439, -0.3990989029408, 0.1912447661161, 0.0149646867067, 1.8729273080826, 0.0387929975986, 0.4733783602715, -0.0456018522382, -0.5750175118446, -0.4124581813812, -0.7482708096504, -0.8945640921593, 0.2247011661530, -0.3290660381317, -0.5925888419151, 0.1872999072075, -0.0034492455889, 0.3971965312958, 0.4743795096874, 0.1881419867277, 0.5158998370171, 0.2296329885721, -0.0085920374840, -0.4180833101273, 0.2335094660521, -0.2805191278458, -0.1088458970189, -0.1157503649592, -0.3200488686562, -0.5414122939110, 0.4337794184685, 0.6234138607979, -1.8126742839813, 0.0277529004961, -3.0245480537415, -0.4877966940403, 0.5127460956573, 0.0581917203963, 0.2110166698694, -0.3858270645142, -0.1375155746937, 0.2193936854601, -0.2654720246792, 0.3632013201714, 0.4060128331184, 0.1588152647018, 0.0192556399852, -0.6751900315285, -0.0625531300902, 0.4018155932426, -0.2746405899525, 2.7970731258392, -0.2000268995762, -0.5642387866974, 0.1109652146697, -0.1056675761938, -0.3860915303230, -0.2126162350178, 0.0694758445024, -0.3571971654892, -0.1541546434164, 0.7633612751961, -0.6947168707848, 0.6529121994972, 0.6026413440704, 0.3469952940941, 0.5426156520844, -0.3029509782791, -0.3014568686485, -0.1666075289249, 1.4664829969406, 0.6111295819283, 0.2887145578861, -0.2329571843147, -0.7152684330940, 0.1822037696838, -0.0090140532702, -0.2189613133669, 0.3293184041977, -0.1155153438449, 0.0738613680005, 0.7063419818878, 0.1366029381752, 0.4402409791946, -1.2663682699203, 0.1743351817131, -0.0763280466199, 0.6513578295708, 0.3156878352165, -0.6873899698257, 0.0846753865480, 0.3492997288704, -0.1904438585043, 0.1336898058653, -0.0322819724679, -0.2461774647236, 0.5625002384186, -0.4173250794411, -0.2362532764673, 0.0216270536184, 0.1613336503506, 0.2699387669563, -0.2414579987526, 0.1712430119514, -0.0563192516565, -0.2237887978554, 0.6569385528564, 0.0555659756064, 0.2469857484102, -0.0835244804621, 0.0117300888523, -0.1419132500887, 0.0085344696417, 0.2685948312283, 0.3451659977436, -0.1784833222628, 0.0720285624266, 0.3704857230186, 0.0787454992533, 0.0572591610253, -0.1572597622871, -0.6028386950493, 0.0119359260425, -0.3028331100941, -0.2018812596798, 0.0597472190857, -0.2461505383253, 1.0331552028656, -1.1823484897614, -0.3078852593899, -0.3450697362423, 0.0831554681063, 0.4084776937962, 0.1664644628763, 0.2081414759159, 0.9406430721283, 0.2807899117470, 0.1701301187277, -0.5348904728889, 0.0046759322286, -0.2888080179691, -0.1326938569546, -0.2687256932259, 0.2605608999729, 0.4061347246170, -0.2855280041695, 0.5959857106209, 0.9961053729057, 1.1026467084885, 0.3471695482731, -0.3363220989704, 0.0793504342437, 0.1161197721958, 0.2399319410324, -0.8270761966705, -0.2331908792257, -0.1894936710596, 0.2066725939512, -0.2484526783228, -0.1420678794384, -1.0987831354141, 0.1424924582243, -0.4732264876366, -0.1423623561859, -0.1243631169200, 0.2481210082769, -0.0273066330701, -0.4524543583393, 0.1958917230368, -0.5917248725891, -0.0321763753891, -0.0530450232327, 0.3601108193398, -0.1439793258905, -0.7090176343918, 0.0477062016726, -0.5366528034210, -0.3144624829292, -0.7350734472275, 0.9560881257057, -0.1092095673084, -1.0254734754562, -0.3096565008163, -0.0889023616910, -0.2007599323988, 0.3058050870895, 1.6461315155029, 0.1591310352087, 0.3970196247101, -0.2344125211239, -0.4065112769604, -0.0746830180287, 0.3124693036079, -0.3249506950378, 0.5510895252228, 0.2847115099430, 0.2353803813457, 0.0235964171588, 0.3522520959377, 0.0400830358267, 0.1689374446869, 0.5739814043045, -0.1149457022548, -0.1527750641108, 0.0428258813918, 0.5164648890495, 0.2270841747522, -0.1433217078447, -0.3791986703873, 0.4486250579357, -0.1699683517218, -0.1538085788488, -0.2569593191147, 0.1537349969149, 0.3642344474792, 0.0344770215452, -0.3040546476841, 0.1444773823023, 0.0501812621951, -0.1178072616458, 0.1750363111496, 0.0592188537121, 0.0454826205969, 0.1012980565429, -0.0721257701516, -0.1773473769426, 0.1504308283329, -0.1570108383894, 0.0969494730234, -0.0812053829432, -0.2992425262928, 0.1887465268373, -0.0940642952919, 0.3575816452503, 0.0426145195961, -0.3617138862610, -0.0107472576201, 0.0788050517440, -0.0827626958489, 0.0044248886406, -0.0197705272585, -0.0247587133199, 0.2335963547230, 0.1493552476168, 0.1208647266030, -0.6013129353523, -0.0116717861965, 0.1106202453375, -0.1316603422165, -0.2897546589375, -0.2802172303200, 0.3980476856232, -0.0770921409130, -0.0749652385712, -0.1437081247568, 0.6427857875824, -0.7572849988937, -0.1072689369321, 0.1064906194806, -0.3809117376804, 0.1596004366875, -0.3691099882126, 0.2165844291449, -0.0076324567199, 0.0217794794589, 0.9967400431633, -0.2280003279448, -0.1964935213327, -0.2122617363930, 0.5092524290085, -0.1271473765373, 0.0779884234071, -0.3143142759800, -0.0983359590173, -0.1945891529322, 0.2162875980139, -0.0757744982839, 0.1716404557228, -0.2988571524620, -0.2024312317371, -0.0517822057009, 0.2230979949236, -0.0261967200786, -0.1514549553394, -0.0034390988294, -0.0380572862923, 0.1598977446556, 0.5204452276230, -0.2194519788027, 0.1853113323450, 0.0061688250862, 0.1030846461654, -0.2409090548754, -0.1059333309531, -0.2465310692787, -0.0180182345212, -0.1506894081831, -0.0053066429682, -0.1191392615438, -0.0207680389285, 0.2896631956100, -0.0801492631435, -0.0120185539126, 0.0517763532698, -0.0395297035575, -0.0319410786033, -0.2401855736971, 0.1546214818954, -0.0858857482672, 0.1497052460909, -0.2744084298611, 0.1848017722368, 0.0162360463291, 0.1137338727713, -0.1722076535225, 0.0124733950943, 0.0435125753284, 0.4408388137817, -0.0300927534699, -0.1462924778461, -0.1552450358868, -0.3669105768204, -0.1542130559683, 0.2780136466026, 0.1719788908958, -0.2980651855469, -0.0880520418286, -0.0124610587955, -0.3090468943119, 0.3248822391033, 0.4769667088985, 0.4036708176136, -0.5230983495712, -0.1414239406586, 0.3097715377808, -0.2096623331308, 0.0679908022285, 0.0593038983643, 0.5704843401909, 0.2415851354599, 0.3898485600948, 0.0322910621762, -0.2780587077141, -0.8825054168701, -0.0292170383036, 0.3070835769176, -0.3951492309570, 0.0630329996347, 0.0261745788157, -0.0499806478620, -0.0821103155613, 0.1981933265924, 0.2341013848782, 0.3794799745083, -0.0190203078091, -0.2084209918976, 0.2952670156956, -0.0484519451857, 0.0675989538431, 0.3853438496590, -0.2018840312958, -0.0453277602792, -0.1099763065577, -0.2242170125246, -0.3885141015053, 0.0235379152000, -0.1703290492296, 0.0455225519836, 0.4830960333347, -0.4224449098110, -0.4153301715851, 0.3422976434231, 0.3129554390907, -0.7145069837570, 0.4677433371544, -0.4370786547661, -0.0238719489425, 0.7238303422928, 0.2543741762638, 0.4703518450260, 0.9008303880692, -1.5117752552032, -0.7455433011055, 0.6412047147751, -0.9124093055725, 0.0553091540933, 0.2605684399605, -0.2827607095242, -0.6667280793190, -0.3567854762077, -0.0481157898903, 1.0692176818848, -0.0363301523030, 0.6736918687820, 0.4726309180260, 0.6265192627907, -0.5868952274323, -0.0041866353713, 0.0520821847022, -0.2600118815899, -0.0034666610882, 0.2200832366943, 0.0201499555260, -0.0731103345752, -0.3626621067524, -0.0023445386905, -0.1708967983723, 0.3988480567932, 0.7355569005013, -0.7392367720604, -0.1637544929981, 0.0165242105722, 0.6147971153259, 0.7308114171028, 0.0296826325357, -0.5335516929626, -0.3313458859921, 0.5271465182304, -0.0167839396745, -0.2412454485893, -0.8287917971611, 0.0871653258801, 0.2958514392376, 0.2923331558704, -0.2580690383911, 0.1832455992699, 0.9044400453568, -0.5179540514946, -0.1133368909359, -0.1311035007238, -0.1315239071846, -0.6357832551003, 0.1876743286848, 0.0795880779624, -0.3900917470455, -0.6301565766335, -0.0869521573186, -0.2842017710209, -0.6282296180725, 0.3974023759365, 0.3947302997112, 0.2133823484182, 0.1985052227974, 0.7713007926941, -0.6920678615570, -0.3462200462818, 0.2608140408993, 0.7590432763100, -0.1191934868693, -0.6141297221184, 0.1913062632084, -0.8492296934128, -1.1937564611435, -0.1933488696814, -0.3572234809399, -0.6446118950844, -0.0747545734048, 0.7820658683777, -0.4062422811985, 0.3730783462524, -0.5884422659874, 0.9616546630859, -0.6056985855103, 1.2595164775848, -0.3162961304188, 0.0694037526846, -0.5434821248055, -0.7331414818764, -0.9450697898865, -0.1979089081287, 0.7621065378189, 0.1918571591377, 0.3798864781857, 1.6769323348999, 0.4102301299572, -0.2488621771336, 0.1391948759556, 1.3620773553848, 0.2633051574230, 0.1446021944284, 0.4376271963120, 0.4149318635464, -0.0120382132009, 1.1270040273666, -0.7775810360909, -0.1768798381090, 0.3651561141014, -1.4770601987839, -0.4771682918072, -0.3663840889931, 0.1993564963341, 0.0316401906312, -0.3182189464569, 1.0754266977310, -1.5061860084534, 0.6209350824356, -0.6678941249847, -0.3289470374584, -0.9549254179001, 0.2534258961678, -0.1558666378260, 0.0305531881750, -0.0874402746558, 0.2875849604607, 0.3984273076057, -0.2227210402489, 1.3392245769501, 0.1492989361286, 0.3040134608746, 0.2381794154644, -0.0214505195618, 0.0319585241377, 0.2485421895981, -0.0966739505529, -0.0459883175790, -0.1161804571748, -0.1113981455564, 0.1698730885983, 0.6345964074135, 0.2854878306389, 1.0841469764709, -0.5707206130028, 0.3893409967422, -0.4860830008984, 0.8671788573265, 0.1942602992058, 0.1511317640543, 0.3280530869961, -0.4069498181343, 0.8460364937782, -0.1475901454687, 0.6612872481346, 0.7308123707771, 0.4885934889317, 0.6006417274475, -1.6045651435852, 0.2009614408016, 0.3036942481995, 0.5646125078201, -0.5808324813843, 0.1060393899679, -0.1313395500183, 0.5495462417603, -0.1518329232931, 0.4360624849796, 0.3437223434448, 0.9059342741966, 0.3049850761890, 0.5095612406731, -0.7776913642883, 0.9974328875542, 0.9678295850754, 0.2783968448639, 0.0776128768921, -0.2993323504925, -0.1474663317204, 0.4236317276955, 0.2172916084528, -0.3680567443371, 0.5881692767143, 0.0166908223182, 0.3384922444820, -0.9586359262466, -0.9184668064117, -0.5232889652252, -0.1891197860241, -1.0191105604172, 2.0217092037201, 0.0390796437860, 0.5930920243263, -0.7615296244621, -0.0704462528229, -1.4623914957047, -1.0046586990356, -0.6445010900497, -0.7335142493248, -0.4786596000195, 0.6092128157616, -0.2430474162102, -0.7679892778397, 0.4150920808315, -0.3440267443657, 0.3933384418488, 0.8974168896675, -1.0724154710770, 0.4430811703205, -1.0478618144989, 0.3183465003967, 0.0923715457320, 0.3667441308498, 0.7579648494720, -0.0527305975556, -0.0869871005416, 0.0481201782823, 0.6980005502701, -0.6837247014046, -0.1493707895279, -0.0759887546301, -1.0701056718826, 0.5870280265808, 0.0748435854912, 0.4559124410152, -0.5226797461510, 0.1108992621303, -0.3235200941563, -0.3795531392097, 0.2862486243248, 0.3419618010521, 0.6135972142220, -0.3357258439064, -0.1111721545458, 0.6431819200516, -0.5511201024055, -0.5035141110420, -0.4400270283222, -0.1149135977030, 0.0555556304753, -0.8265617489815, -0.3965990543365, -0.1424805372953, -0.5087188482285, -0.6669838428497, -0.1332587003708, -0.1612925976515, -0.5936893224716, -0.2145061343908, -0.8401044607162, 0.2854270637035, -0.1795493215322, 0.3262646198273, -0.0982575416565, -0.2798388302326, -0.4137753844261, -1.0107760429382, -0.9720014929771, -0.4566349387169, 0.6802687048912, 0.1093330383301, 0.4118587672710, 0.0428697131574, 0.6640781760216, 0.9270378351212, 0.1104839742184, 0.2587389051914, 0.3674618899822, 0.9400624632835, -0.3154156804085, 0.6902267932892, 0.4316581785679, 1.2887411117554, 0.5425236821175, 0.8416579961777, -0.8431798815727, 0.4478230178356, 0.4589771628380, 1.0405073165894, 0.2553081512451, 0.4152797162533, 0.5987088084221, -0.2776032686234, -0.3934583961964, 0.3843132555485, -0.6208806633949, -0.0771372243762, -0.4339450299740, -0.4628230333328, -0.0077995052561, -0.6663050055504, 0.3697633445263, 0.1138968840241, 0.0950212553144, 0.8422081470490, -0.3900465667248, 0.0540232397616, -1.1941798925400, 1.2741432189941, 0.0170805063099, 0.3088580667973, -0.4872689843178, -0.8977434039116, -1.4170985221863, -0.3977574408054, 0.0833033770323, -0.0208149068058, 0.7648403048515, 0.5779470205307, 0.4619852304459, 1.2185657024384, 1.2852702140808, -1.8659409284592, -0.4170564711094, 0.5933461189270, -0.1504532545805, -0.1490235179663, 0.1861516982317, 0.0597505047917, -0.7161973714828, 0.4854744076729, -0.0141620533541, 0.4471770226955, 0.2649436593056, 0.4870043396950, -0.1395875215530, 0.4863726794720, -0.5239365696907, -0.6305894851685, -0.0045663178898, 1.1992721557617, -0.7676072120667, -0.3835673928261, -0.1281515508890, 0.2970074713230, 0.3283613920212, 1.4426078796387, 0.3630650043488, -0.0905566960573, -0.1795080006123, 0.5679787397385, -1.1725970506668, -1.1038762331009, -0.4711564183235, 0.2408269345760, 0.1127950176597, -1.1708489656448, -0.5611141920090, 0.1860234886408, -0.5615752339363, 0.8621390461922, 0.2793525457382, 0.3086383938789, 0.4366210699081, -0.2534215450287, -0.4809064865112, 0.4716907143593, 0.2859745919704, -0.3541330695152, -0.1117896139622, 0.2942854166031, 0.4401493966579, -0.1662389934063, 0.4656430780888, -0.0200090296566, -0.0543768815696, -0.1565138697624, 0.0165250562131, 0.6001189351082, 0.1766125559807, 0.6258814930916, 0.1816146820784, -0.0799264237285, -0.5632275342941, -0.1906504333019, 0.2150817364454, -0.1924755573273, 0.4261578619480, 0.2584455311298, -0.2509759366512, 0.0464420765638, 0.0890512391925, -0.0364666730165, 0.0987098217010, -0.1768366247416, -0.1396063119173, -0.2271323949099, -0.0964021533728, 0.4414283633232, 0.0045750597492, -0.0951526090503, 0.1725825965405, 0.2670957744122, -0.1290200650692, 0.1562386453152, 0.5389397740364, -0.3020857870579, 0.1026413738728, 0.3037019371986, -0.1006851270795, 0.0700596868992, 0.0746626704931, 0.2012364864349, -0.0333669856191, -0.1088830009103, 0.0297008156776, 0.0304118413478, -0.1434339433908, 0.0094727613032, -0.1486871540546, -0.0794128552079, 0.0545925945044, -0.1257855892181, -0.3070697486401, -0.0285961627960, 0.8888297677040, 0.3412458300591, 0.1951047927141, -0.0903249084949, -0.2385511845350, 0.4093392789364, 0.0827792733908, -0.1101130694151, -0.2454305291176, -0.0060912738554, -0.2653453946114, -0.1180221065879, 0.0526837892830, -0.2588206529617, 0.1937840133905, 0.0739881545305, 0.1124104782939, 0.0920637920499, -0.1031507626176, 0.9865379929543, 0.0827786326408, -0.1226316913962, 0.0551055818796, 0.8091513514519, 0.3608977198601, -0.0795053243637, -0.0142993088812, -0.1113917753100, -0.0665343850851, -0.2456310987473, -0.2455795109272, -0.0799513608217, 0.5096094012260, -0.0155766485259, 0.0369633398950, -0.3214156925678, 0.0431068651378, -0.5003619194031, 0.2857018709183, -0.2210609316826, 0.0454565100372, 0.6327372193336, 0.0018507649656, 0.5121959447861, -0.5976133942604, -0.0270195547491, -0.3744905591011, -0.3074777722359, 0.0012192056747, 0.0146939931437, -0.1126233711839, -0.1272662431002, -0.3479726016521, -0.0036142617464, 1.0187224149704, 0.3488508462906, -0.0650026574731, 0.1024913340807, -0.4291956126690, 0.0900320187211, -0.1357103288174, -0.1184043362737, 0.0367604233325, 0.3053484559059, 0.3484421968460, 0.4253668487072, 0.3307452201843, -0.0951893255115, 0.0685649737716, -0.0150110758841, 1.4034365415573, 0.3195579648018, 0.2712241411209, -0.3752882778645, -0.0204279609025, -0.3071269690990, -0.3397541046143, 0.0343358293176, -0.2091232389212, -0.1758712083101, -0.0979097783566, 0.0282713118941, -0.3258200585842, -0.0816204100847, 0.0669972002506, 0.0196268502623, -0.3132643699646, -0.2747229039669, -0.2689684927464, -0.2038932144642, 0.0126253413036, -0.1023079752922, -0.1654302328825, -0.0679071769118, 0.2002558857203, -0.0548065751791, -0.5595565438271, 0.1268349885941, -0.2347872853279, 0.1900195330381, -0.1813605576754, 0.0708880499005, -0.2846364974976, -0.3855753540993, 0.0882748365402, -0.0644415318966, -0.0609896220267, 0.1651768833399, -0.1926570981741, -0.0888433605433, -0.1437209844589, 0.0673440545797, 0.0595332868397, 0.2043364495039, -0.1492602825165, 0.0647927373648, -0.1837650984526, -0.5476381778717, -0.1960732787848, 0.0918778851628, -0.1285634040833, -0.0110975094140, 0.3717481493950, 0.1454813629389, -0.1529700458050, 0.3968681991100, -0.0170352403075, 0.3181099593639, 0.1744724661112, 0.0088737867773, 0.1607599109411, 1.3759720325470, -0.7179017663002, -0.3413437902927, -0.8899012804031, -0.4196553826332, -0.6750485897064, 0.4311677217484, 0.6586390137672, 0.9001464247704, -0.2155876755714, -0.2229311466217, -0.0419568866491, 0.5048058629036, 0.1077433899045, -0.9956486821175, 0.5485755801201, 0.2246411591768, 0.1016903892159, -0.4144310653210, 0.1510215252638, -0.4518162608147, 0.2947013974190, 0.2597406208515, -0.0117276487872, 0.6282320618629, -0.2339665740728, 0.0816991031170, -0.7186211347580, -0.3198446333408, 0.4983883798122, 0.5560698509216, -0.4521806836128, 0.3539278805256, 0.0530946739018, -0.6131357550621, 0.8465487360954, -0.2993729412556, -0.1027198955417, -0.6004920005798, 0.6251193284988, 0.1035035848618, 0.0398190580308, 0.1107319071889, -0.4162598550320, 0.0198802016675, -0.3312717378139, -0.2425947934389, 0.9569519758224, -0.1251664906740, 0.1360462754965, -1.1171932220459, -0.0766144022346, -0.1184433251619, -0.9795851111412, 0.5747914910316, 0.2710422575474, -0.0206965822726, -0.3286129832268, -0.3642917573452, 0.3623524904251, -0.1428458839655, -0.4711641669273, -1.0350984334946, -0.6579365134239, -0.4333936274052, -1.0035419464111, -0.2339498549700, -0.2077718079090, -0.3783957362175, -0.6711929440498, -0.0304122585803, 0.1127310097218, -0.2217138409615, -0.2303557395935, -0.2959207892418, 0.4933593571186, -0.4431651830673, 0.3523623347282, 0.0856748223305, -0.4748504161835, 0.0976953357458, -0.0890492200851, 0.6949844956398, 0.5921474695206, -1.2931493520737, -0.4288193881512, 0.0817931443453, -0.0787325352430, -0.0442003682256, 0.2827799320221, 0.4789841175079, -0.1481843888760, -1.1392803192139, -0.8734706044197, 1.2199603319168, -0.3964924216270, -0.0996303036809, 0.9438664913177, 0.1231210455298, 0.6060035824776, 0.8882562518120, -0.1222012639046, -0.1712615638971, -0.3667506575584, 0.3583590090275, -0.4897097945213, 0.6808803677559, -0.0359788015485, -0.3021065890789, 0.0408963710070, -0.7620338797569, -0.1475628018379, -0.1206076517701, -0.6046795248985, 0.7422623634338, -0.0484766587615, 0.6019530296326, 0.4359849989414, -0.2840275168419, 0.0826040729880, -0.1803609579802, -0.1200078427792, 0.3180758059025, 0.0248178150505, -0.3192598819733, -0.8804097175598, 0.7998847365379, -0.5638889670372, -0.4750287234783, 0.9607878923416, 0.0638481453061, 0.7791579365730, 0.5516800880432, 0.5573759675026, -0.3344498574734, 0.1509978175163, -0.3135710358620, -0.0843876525760, 0.4403069913387, -0.4528774619102, 0.3095531761646, 0.4913423061371, 0.3912508785725, -0.3255826532841, 0.1359824091196, -0.1918959468603, 0.1431739628315, 0.2629787623882, 0.9230191111565, -0.0331130586565, -0.1640350371599, -0.2588503658772, -0.1719443351030, 1.1123874187469, -0.1003952920437, 0.1682811081409, 0.0415293984115, -0.2800162136555, 0.0971867740154, -0.4811776280403, 0.1086158752441, 0.0609078332782, 0.2720122635365, -0.1494921296835, 0.3535909056664, -0.3580955266953, 0.5121108889580, 0.2588424980640, -0.8601160645485, 0.1106750071049, 0.3718056380749, -0.0563814602792, 0.0497481375933, -0.1699714958668, 0.6733727455139, -0.3612503409386, 0.9161431789398, 0.3895087838173, 0.5998120903969, -0.6444832682610, 0.1357525140047, 0.0729359388351, 0.2804678082466, -0.0065754489042, 0.6543313860893, 0.8214082717896, -0.1639794558287, -0.3972562253475, 0.8718296885490, -0.7518063187599, -0.3103553354740, 0.2253133207560, -0.5773051381111, -0.4969842433929, 0.1033505052328, -1.0649275779724, 0.3023287057877, 1.4840579032898, -0.5696893930435, 1.1404983997345, -0.8831359148026, -0.6139323711395, 0.8443272113800, 0.1902821660042, 0.0217840820551, -0.2131887078285, 0.1318747699261, -0.6423259973526, 0.0279466323555, -0.1702734529972, 0.6108769774437, 0.3253720998764, 0.3340913653374, 0.3167633116245, -0.9582467079163, 0.0557334236801, -0.0387575775385, -0.0693027004600, 0.2769939005375, 0.4533716440201, -0.2388437837362, 0.2576833069324, 0.0461096428335, -0.1901094764471, -0.2816563248634, -0.1862674355507, -0.0762786790729, 0.4495803117752, -0.2466900050640, 0.6064540147781, -0.8792676925659, 0.4457527995110, -0.5330669283867, -0.1613056063652, 0.4700638353825, -1.2887082099915, -0.5160355567932, -0.3185757398605, -0.0723934769630, 0.0629962980747, 0.2655087411404, 0.0949204787612, -0.1022358387709, -1.3707864284515, -0.6557745337486, -0.6067581772804, 0.5856019854546, -0.2062018662691, -0.5770475268364, 0.4794305860996, 0.0724583417177, 0.5358844995499, -0.2359729558229, 0.0411670692265, -0.1687538623810, 0.4756609499454, 0.2802422046661, -0.3803075551987, -0.2711075544357, -0.4540655612946, -0.4004329442978, -0.5907204151154, 0.2718032300472, 0.0766168609262, 0.1697567999363, -1.5230559110641, -0.6966878771782, -0.1987911760807, 1.0896002054214, -0.0388603210449, -0.6840161085129, 0.1726961731911, 0.6250045299530, 0.4074234366417, -0.3562079966068, 0.1755533218384, -0.4564065635204, 0.3089089393616, 0.3543523848057, 1.1881365776062, 0.2697154581547, 0.2191468030214, -0.0315022692084, -0.7115318775177, -0.0263236220926, -1.0479836463928, -0.3977223336697, -1.5655572414398, 0.0447023324668, -0.0656610503793, 0.7505955696106, 0.1102720275521, 0.2526400685310, 0.8231914043427, 0.4029218852520, 0.7858539223671, 0.0504239946604, -1.4290903806686, 0.8684260249138, -0.7255586385727, -0.5991137623787, -0.3434902131557, -0.1524237245321, 0.2729029953480, 1.0087074041367, 0.6165066957474, -0.5965083241463, -0.7175674438477, 0.3275398612022, -1.1341395378113, 0.4881255328655, 0.6020737886429, 0.7649712562561, 0.8496187925339, 0.7257704138756, 0.5875215530396, -0.7789060473442, 0.6865270137787, -0.0301986597478, 0.1497798115015, 0.4077754616737, -0.6403189301491, 0.6624322533607, 0.8426975607872, 1.0246528387070, -0.0126643031836, -0.0859431400895, -0.0927021875978, 0.2999794483185, 1.2932488918304, 0.0510749481618, 1.2675317525864, -0.9936068058014, 0.4332329034805, -0.1454044878483, 0.0512577071786, -0.2645145356655, -0.4956012070179, 1.2090106010437, -0.9657260179520, 0.7720795869827, -0.1563502550125, -0.7626432776451, 0.5198668837547, 0.3122892379761, 0.1030175387859, 0.6688852310181, 0.3442763984203, 0.1048255413771, 0.0911617204547, -1.2179458141327, 0.6273252964020, 0.8077319264412, -0.7223265171051, 0.0465607903898, 1.1714540719986, -0.3074820935726, -0.9062166810036, -0.2113931775093, -0.2233423739672, -0.8186630010605, 0.1478738933802, -0.2797178924084, 1.0031383037567, -0.7301844954491, -0.6003995537758, 1.1409803628922, -0.3776632547379, 0.6035685539246, 0.3173019289970, -0.6836813092232, 0.2534461915493, 0.7168154120445, 0.8437817692757, 2.2013635635376, 0.5156992077827, -0.3821685612202, -0.0468288324773, -1.7591381072998, -1.5629621744156, 0.0777925625443, -1.2847843170166, -0.1450130641460, -2.5018689632416, -0.5660106539726, -1.3159983158112, 0.2930719256401, -0.3292698562145, -0.9737534523010, 0.1047672331333, 0.2223788499832, 0.6923161745071, 0.3651327788830, 0.2056639641523, -0.1993736922741, 0.7508510947227, 0.1051037833095, 0.0592129491270, 0.6090848445892, 0.6101102232933, -0.0603228770196, -0.5748606920242, 1.2700169086456, 0.1841321289539, 0.1802259236574, 0.0101605383679, -0.5355108976364, 0.5371320247650, 0.5348051786423, -0.5601319670677, 0.4809439182281, -1.2577443122864, 0.4149677455425, 0.9825765490532, 0.8313457965851, -0.1309123933315, 0.3210383057594, -0.0842897742987, 0.1744046509266, -1.0859708786011, -0.1971185952425, 0.3114809691906, 1.6999359130859, 0.5870975255966, -0.2707552015781, -1.0841509103775, 0.6019467115402, -0.4156384468079, -1.1592446565628, 0.2984723150730, 0.1687451750040, 0.8949162960052, -1.4721120595932, -0.9385670423508, -0.7202535867691, -1.0218132734299, -1.0012103319168, 0.0426379404962, 0.7515276670456, 0.5268378257751, 0.1474067568779, -0.4450861811638, -1.8955417871475, -0.5144876241684, -0.0567411445081, -1.0909537076950, 0.9687460660934, -0.6163080334663, 0.1418529748917, 0.4068019092083, 0.7726507186890, -0.1089372411370, 0.6520836949348, -0.0852374881506, -0.2554972469807, 0.7137520313263, 1.4488124847412, -1.3384194374084, -0.2990952730179, 0.2709881663322, 0.4999460577965, 0.0651612430811, 0.3625909686089, -0.2628217935562, -0.5704083442688, -0.6906722784042, 0.1702643781900, -0.4915653765202, 0.9860600233078, -1.7174466848373, -0.3301080763340, 0.1141572669148, -0.7455204725266, 0.6753562688828, 1.5973992347717, 1.0869866609573, -0.7546628713608, -0.1347399055958, -0.0063371346332, -1.0239965915680, -0.0393662936985, 0.2045110613108, -1.0752336978912, 0.1293511986732, -0.3822317719460, -0.3348149955273, 0.1847631782293, -0.3071406781673, -1.1573406457901, -0.1337118297815, 1.3578190803528, 0.0568085201085, -0.2064494341612, 0.4979257881641, -0.6967982053757, 0.3350665569305, 0.4320392012596, 1.0974336862564, 1.5497097969055, 1.7641530036926, 0.6021686196327, -0.9499908685684, -0.7392628788948, 0.4756198227406, 0.5228956341743, -0.4630101919174, 0.2432065159082, 0.0905747562647, -0.4767430722713, -0.2137948423624, 0.0423280373216, 0.8793914914131, 0.4787338376045, -1.0491498708725, -0.2355177998543, 0.3419134020805, 0.0280719883740, 0.4212804436684, 0.1689930707216, -0.0137355746701, -0.1735459715128, 0.7543200850487, 1.0258262157440, -0.5258126258850, 1.3711303472519, 1.3524248600006, 0.2083091139793, -1.2330006361008, 0.7032430171967, -0.2193424403667, 0.9917772412300, -0.2360063642263, -1.1191719770432, -0.2973328232765, 0.7307300567627, 0.1616745442152, -0.0241928305477, 1.2475718259811, 0.8320162892342, -0.0330353304744, 0.2310694754124, -0.7562329769135, -0.5054224729538, -1.0198848247528, 0.0295375548303, -0.0065066125244, -0.1336753219366, -0.6124305725098, 0.0693797245622, -0.8801561594009, -0.1035463064909, -0.3316420912743, -0.0929242670536, -0.4259558618069, -0.0036477951799, -0.5239849090576, 0.0395922437310, 0.5604229569435, 0.4642914831638, -0.0025428130757, -0.2795777618885, -0.2009235024452, 0.3538524806499, 0.4741093814373, 0.5306859612465, 0.0843079239130, 0.0894435346127, 0.4843684434891, -0.5289922952652, 0.0675795674324, -0.3422118723392, -0.2638212740421, 0.0871278345585, -0.0614365227520, -0.2468979656696, 0.1146929040551, -0.1113218963146, 0.4080731868744, 0.7685084342957, 0.1153211295605, -0.1919867247343, -0.0737195163965, 1.6446133852005, 0.3599526882172, -0.4227288067341, -0.2381738871336, 0.1582710146904, 0.1015327945352, 0.3306587636471, 1.0740370750427, -0.1126559004188, 0.1162823513150, -0.4917258620262, -0.5969343185425, -0.0871558338404, 0.7820394635201, -1.0818240642548, 0.1000668928027, -0.8272029161453, 1.0036368370056, -0.6739258170128, -0.5486056804657, 0.0625371187925, -0.3074384033680, 0.0177073460072, 0.2134805321693, 0.6166812181473, 0.3354188501835, 0.1529432535172, 0.5335124731064, -0.5681222081184, 0.5437619090080, 0.5165275931358, 0.3297992348671, -0.5538835525513, 1.1275401115417, -1.0538971424103, -0.1592632830143, 0.1886300295591, -0.1741380095482, -0.1617194712162, -0.1291451603174, 0.6274328827858, -0.0832398831844, 0.5473155975342, -1.0453715324402, -0.1301603913307, -0.6408030986786, -1.0758092403412, -0.5384204387665, -0.7648462653160, -0.7388875484467, -0.2882373631001, -0.4770713448524, 0.2081246972084, 0.0327187553048, -0.4984194636345, 1.3048862218857, -0.3473627269268, -0.9408014416695, -0.1882303655148, 0.5922715067863, -0.0786025524139, -0.5118252635002, -0.5404250025749, -0.7653655409813, -0.7040417194366, 0.5764082670212, -0.1652582287788, 0.3068595528603, 0.3227512538433, 0.1254445165396, -0.1269664317369, 0.6639957427979, 0.4834904670715, 0.3615881502628, -0.8155048489571, 1.0167624950409, 0.3159191012383, 0.2749436199665, -1.5040386915207, -0.8830237984657, -0.4592022001743, 0.6609324216843, 0.3383378684521, -0.5782390832901, 1.1802080869675, -0.2731774151325, -0.2031082808971, -0.0712171792984, -0.2112821638584, -0.6036972403526, 0.0277266874909, 0.7231514453888, 0.4231703877449, 0.5699535608292, -0.7158945798874, 1.1617169380188, -0.1392408311367, 1.0166041851044, 0.3643744587898, -0.4687170386314, -0.3505227863789, 0.6800855398178, -0.5072110891342, 0.3891390860081, -0.2513998746872, -0.2372505515814, 0.6134676933289, 0.5685837268829, 0.1402751803398, -0.9054101109505, 0.1464774161577, -0.0263738129288, -0.1370406746864, 0.1610270589590, -0.6022265553474, -0.1632168442011, -0.4980430603027, 0.1816971600056, -0.0829420685768, -0.3309440016747, 0.4258494675159, -0.3029835224152, -0.7835123538971, -0.8822723031044, -0.4986765384674, -1.1669391393661, 0.8680551648140, -1.2578589916229, -0.5613895654678, -0.7789232134819, 0.3877110779285, 0.4567286968231, 0.4503547847271, 1.2052159309387, -0.9978240728378, -0.2568056583405, 0.1350697278976, -0.2129583209753, -0.0048768660054, 0.1250493228436, 0.0810075774789, -1.0768460035324, 0.1766721904278, 0.2774444818497, 1.3219249248505, -0.6397888660431, -0.0519507601857, -0.0106451259926, -0.0229616351426, 0.1860710382462, 0.5126734972000, 0.1339096873999, 0.5964249968529, 0.2241190969944, -0.5216131806374, 0.0468555502594, -0.0598846264184, -0.3622555136681, -0.1409145146608, 0.1269249767065, -0.4015392661095, -0.2331612408161, -0.1125658154488, -0.0194284897298, -0.3905302286148, 2.1737301349640, -0.2313081920147, 0.0041731134988, -0.9938446283340, -0.2313462644815, -0.1463326662779, -0.3991873860359, 0.2787422835827, 0.2654847800732, -0.2465330958366, -0.0780978277326, -0.1332300603390, 0.3462796211243, -0.0073074880056, -0.0901799723506, 0.1106781587005, 0.0186122637242, 0.4108642935753, 0.2265115529299, -0.5512146353722, 0.0055363951251, -0.2493409067392, 0.3722653687000, -0.3621032536030, 0.0073323692195, 0.0528828650713, 0.2422183603048, 0.0509589798748, -0.7931207418442, -0.2248625457287, -0.3338638842106, 0.2032131701708, -0.3722042143345, 0.4743280708790, -0.1359293609858, 0.0203969292343, -0.5659480690956, 0.6497918963432, -0.1296814382076, 0.1679525971413, 0.0677347332239, 3.7172155380249, 0.2818725705147, 0.4434221982956, -0.0230282675475, 0.0945369973779, 0.2974673211575, -0.0655400007963, 0.0870145410299, 0.5065602064133, -0.1828151196241, -0.9160382151604, 0.3595544993877, 0.2467067241669, -0.2110927104950, 0.5858034491539, 0.8417097926140, -0.0480205304921, 0.1112364828587, -0.0768840983510, -0.0970825329423, -0.2961111664772, -0.4164315760136, 0.1572274714708, -0.4929956793785, 0.1518115401268, 0.6204880475998, -0.5664979219437, -0.2921317517757, 0.1376614123583, 0.8725309967995, 0.0623700134456, -0.0904969125986, -0.0542338304222, 0.2269419282675, 0.3384030759335, -0.1542361080647, -0.2972906827927, -0.4424091875553, -0.0437644086778, 0.5085757374763, 0.8738143444061, -0.0403128266335, -0.0722381621599, 0.1282281428576, 0.2271560132504, 0.0553291812539, -0.3194633424282, -0.1661863029003, -0.1315440386534, 0.0622120462358, -0.0064242440276, 0.0193345621228, 0.0013629955938, -0.1662133187056, 0.3241591155529, 0.4892968237400, -0.6174320578575, 0.1737549006939, 0.4924731850624, -0.0540329925716, -0.2153124362230, 0.3893586695194, 0.0743883550167, 0.0540835261345, 0.1562902331352, 0.0228640120476, 0.1688076704741, -0.1255161911249, -0.0121393445879, -0.1554097533226, -0.1595430523157, 0.0692599043250, 0.6452381014824, -0.1502386927605, -0.0578724481165, -0.0849993377924, -0.9813387989998, -1.2472124099731, -0.3323223888874, -0.1165964752436, 0.4125847816467, -0.0131040494889, -0.3647970259190, -0.1512940227985, 0.0544043555856, 0.0837194696069, 0.0773221254349, -0.4560932517052, -0.6645092964172, -0.5721148848534, 0.4741131663322, -0.2807554602623, 0.0031564813107, 0.2473994493484, 0.3312200307846, -0.2641750574112, -0.4284012615681, -0.7221330404282, -0.2262906432152, -0.0623035207391, 0.3421120643616, -0.5947105884552, -0.0336547754705, 0.1118436232209, -0.6267686486244, -0.0947394296527, -0.2876105904579, -0.0117649845779, 0.1124786809087, -0.3839067518711, -0.1638770103455, 0.4855621457100, 0.1995022296906, -0.0208694841713, 0.7706493139267, -0.2041346430779, 3.3811635971069, 0.5025563240051, 0.0634251907468, 0.5122734308243, -0.9636308550835, 0.1132015287876, -0.3685382604599, -1.1786824464798, -0.7522071599960, -1.6390795707703, -0.1473267525434, 1.4048594236374, -0.6217362880707, -0.1230492442846, -1.7050940990448, -0.5034604668617, 1.1071279048920, 0.2211396843195, 0.4347172379494, -2.1342778205872, 0.4115635156631, 1.1040648221970, 0.3543628454208, -0.4724932909012, 0.6080570816994, -0.8117122650146, 0.9904588460922, 0.1118964925408, 0.1652367860079, -0.9243837594986, 1.4079666137695, -0.6162373423576, -0.2875706851482, -0.0696793496609, 2.2461349964142, -0.0505195334554, -0.3125010728836, -1.3720124959946, 2.1539905071259, -0.0807045474648, -0.7049212455750, 1.3365061283112, -1.1875898838043, -0.1559696644545, -0.6082652211189, 1.3365811109543, 0.7331612110138, -0.1494714617729, -0.3634530007839, -0.3092197477818, -1.0613617897034, -0.5897218585014, 0.1084506511688, 0.5896399021149, 2.0632679462433, 0.3260428607464, 0.5964366197586, -0.3637980818748, -0.3704553246498, -1.5727772712708, -1.1186017990112, -0.9674579501152, -0.4175656437874, -0.3090159296989, 0.6026961207390, 1.1046646833420, -0.6288050413132, -0.6955323815346, 0.5481781959534, -0.9837864637375, 1.1210072040558, -3.0428762435913, -0.1599646508694, -1.1558259725571, 0.3636167049408, 0.3477964997292, -0.6096248626709, -0.5918285250664, 1.4270465373993, 1.3203067779541, -1.7753130197525, -1.8909820318222, -0.0312655083835, -0.4688342511654, 0.8913365602493, -0.2681889235973, 0.3745035529137, 0.0955649837852, -0.7760741114616, -0.0000293500198, 1.1200586557388, -0.1079582050443, 0.6945762038231, -1.0707883834839, -0.5510537624359, -0.2992556989193, 0.2839421033859, 3.7009792327881, -1.8101451396942, -1.2534379959106, -0.5561950206757, -0.1451651751995, -2.3253555297852, -0.8083294034004, 0.3474735915661, -0.7812994122505, -0.0184903610498, -1.3963414430618, 1.6131931543350, 1.4526585340500, 0.4211002290249, 0.9185251593590, 0.2329998463392, -0.4931410849094, -2.6040639877319, -0.4866357445717, 1.6413230895996, 0.3508648574352, 1.1366884708405, -1.9104146957397, -1.0383254289627, -2.5155262947083, -0.5029482245445, 0.6423376202583, -0.6031947731972, 0.7127007842064, 0.2813005447388, -0.1650370061398, 0.5782923698425, 0.0390592664480, 0.7147356271744, 1.9746590852737, -0.1998972594738, 0.2940534651279, 1.1241381168365, 0.7218493819237, -1.6126023530960, 2.0034563541412, -1.5936005115509, -0.1238989233971, -1.8013134002686, 2.0504660606384, 0.7029761672020, 0.1771105378866, 1.5614681243896, -0.8092641830444, -1.0622512102127, 0.9704729318619, 0.5920130610466, 0.5679473876953, -0.8923185467720, -0.0471348799765, -1.4717110395432, -0.4780791103840, -3.2271885871887, 1.0856503248215, -2.4573066234589, 0.3864116370678, -1.8171834945679, -2.7001194953918, 0.4962324500084, -0.8531098961830, -0.1994916945696, -0.1580645740032, 0.9298472404480, -1.0264239311218, 3.2928473949432, 1.0594989061356, -1.8742253780365, 0.4236153662205, 0.4106164574623, -0.8427582383156, 0.5358594655991, 2.3632688522339, 0.3275505304337, 0.6588972806931, -0.4417634010315, -0.6489776372910, 0.8111004829407, 0.8647194504738, -0.4158101975918, -0.2580154538155, 0.7197417616844, 0.2045215517282, 0.5575471520424, 0.0869001150131, -0.5071130990982, 0.0997783765197, -0.4010747373104, 0.1800701320171, -0.5866598486900, -0.6267752051353, 1.0574724674225, -0.4688311815262, 0.8231426477432, -0.2359305322170, 1.3435096740723, -0.1883663982153, 0.1196082383394, -0.0045660021715, 0.0851717963815, -1.0514429807663, -0.1132272258401, -0.5014469027519, -1.3802906274796, -1.4684923887253, 1.0289695262909, -0.0324404649436, 0.0516976527870, 0.4489923417568, 0.2182765007019, 1.0591403245926, -0.2746574282646, -0.2503035068512, 0.0098271714523, 0.3856712877750, -1.0421509742737, 0.2118036895990, -0.0063451007009, -0.3986198604107, 0.4668503403664, -0.1306425035000, -0.0548053830862, 1.1315730810165, 0.1886128187180, 0.6753886938095, -0.0639522969723, -0.4905276894569, -0.7177261114120, -0.1397563666105, 0.9397611618042, 0.8333034515381, -0.6018325090408, 0.4403097033501, 0.8754693865776, -0.5655494928360, 0.6221103072166, 0.3080852031708, -0.6426913142204, -0.4518725872040, 0.2691482305527, -0.0517893359065, -0.7104013562202, 1.3985731601715, 0.2969802320004, -0.2076135724783, -0.2035028934479, -0.9212728142738, -0.1877234280109, -0.5729212760925, 0.9409233331680, 0.8379930853844, 0.2029666453600, 0.2406583428383, 0.3979069590569, -0.8219298720360, -0.2454031705856, 0.5299099683762, -0.5652226209641, -0.5151646137238, 0.3097117841244, -0.2689356803894, -0.0438350476325, -1.0576893091202, -0.3854520916939, -0.8149418830872, -0.5793849229813, 0.4659374654293, 0.4853785037994, 0.6993407607079, 0.2394476383924, 0.0980078130960, -0.3865342140198, -1.3998720645905, 0.5962568521500, -0.6076164841652, 0.9548416137695, -0.4492332339287, 0.5411693453789, 1.3030074834824, -0.8493145108223, 1.9022132158279, -1.4095021486282, 1.5217130184174, 0.6504192352295, 0.4919253289700, -0.0511348918080, -0.5740641951561, 0.7782481908798, -0.5730181336403, 0.6562430858612, -0.3461042344570, 0.8865653276443, -0.6824747323990, 0.0518281571567, -0.0783805996180, 0.8496111035347, -0.3281515538692, -0.4492686688900, -1.5490956306458, -1.7257840633392, 1.1728997230530, -0.1057358011603, 0.4927517771721, 1.7996010780334, -0.3002150654793, -0.6017103195190, 1.5578078031540, 1.2295367717743, 0.1852421909571, 0.3452636599541, 0.4236130714417, -0.4212868213654, -0.4568397104740, 0.1489089429379, 0.0007233792567, 0.3027682006359, 1.0438052415848, -0.2822260260582, -0.4789720475674, -0.1020839661360, 0.9677481055260, -0.7265732884407, 0.0541919134557, -0.0811461061239, 0.3984290659428, -0.6794604063034, 0.3711875081062, -1.9779379367828, -1.3556886911392, 0.7229936122894, -0.3103204667568, 0.2162775248289, 0.5785127282143, 0.5981800556183, 0.8823502659798, 0.9453587532043, 0.2706875503063, -1.7950464487076, 0.2740265130997, -0.1049576252699, 2.5331928730011, 0.7995861768723, -1.1851193904877, -0.4467887282372, 1.1436173915863, 0.8436578512192, -0.3078500628471, -0.6804419755936, -0.4925691187382, -0.0853901356459, 0.4848989844322, 0.3049150109291, 0.3726527690887, 0.2931009531021, 0.7064871191978, -0.1642167717218, -0.0925168171525, -2.2426650524139, 0.0441334508359, -0.7946392893791, 0.5980785489082, 0.0446927770972, -0.0424229949713, 0.3958803713322, -1.0876977443695, -0.4037773907185, -0.0322175882757, 2.1065905094147, -4.1930732727051, -0.1227355748415, 0.6734858751297, -0.3894389867783, 0.4847682416439, 0.3279012739658, -0.1733397394419, 0.1223572641611, 0.4775784909725, -0.1501722037792, -0.8681554198265, -0.3451705276966, -0.3209513723850, 0.4307404756546, 0.5246928334236, 0.0809609144926, -0.4370533227921, -0.3624274432659, 0.7972765564919, -0.0599624216557, 1.2803840637207, 0.0607889667153, 0.2637285292149, 0.1388823240995, 0.4637106359005, -0.8824896812439, 0.1286538690329, -0.2494027316570, -0.1404671221972, 0.2039086818695, -0.1320401877165, -0.5106788873672, -0.4890953004360, 0.1526161581278, 0.0741298049688, -0.5409683585167, -0.3191290497780, -1.3132615089417, 0.0111973397434, -1.6750050783157, -0.1745248734951, -0.2855499386787, 0.1006154194474, 0.0086883632466, -0.3370212614536, -0.0797947719693, -0.1711797267199, 0.2465307116508, -0.5485681295395, 0.2580260038376, -0.2819676399231, 1.7941414117813, -0.3996287584305, 0.7351720333099, 0.1223949193954, 0.0831016078591, -0.0144153079018, 1.4597933292389, -0.3365483880043, 0.1720310002565, 0.0145908733830, 2.5565807819366, 0.2285654395819, 0.4745802581310, 0.2400825768709, -0.0801498517394, 0.6186832189560, 0.3175170719624, -0.8577075004578, -0.4239875674248, 0.2611673176289, 0.7777003049850, -0.9954605102539, 0.6336303949356, 0.0908612161875, 0.1821136772633, -0.0488788746297, -1.5000101327896, 0.0477251298726, 0.0868503004313, 0.5209462642670, 0.0271117351949, -0.2508031427860, -0.6090589165688, 1.1233283281326, -0.4548448920250, 0.0046741426922, -0.4795539677143, 0.9546186923981, -0.2089818567038, -0.4434801638126, 0.3891629278660, -0.2375714182854, -0.0535012818873, 0.1828323900700, -0.3827002942562, -0.0039241053164, 0.3970347642899, 0.0377961359918, 0.1201085001230, -0.0881712511182, -0.0461130961776, 0.0037938689347, 0.1055449992418, 1.0348193645477, -0.1012131273746, 0.0454953424633, -0.0427421145141, -0.1706413924694, 0.5664689540863, 0.0315119139850, -0.1070699319243, -0.1810838729143, 0.3852151334286, -0.3424082696438, 0.5862597823143, -0.2015021592379, -0.4635456800461, -0.5595134496689, 0.2625123858452, -0.1498969644308, 0.0274971015751, 1.0599477291107, -2.4870915412903, 0.0667764395475, -0.0998146831989, -0.1826087683439, -0.4916235506535, 0.1957002729177, 0.1264066249132, -0.0584501065314, -0.1582460254431, 0.0525483451784, -0.3939529359341, 0.6129914522171, -0.8985946774483, 0.0939616635442, -1.1725070476532, -0.4653291106224, -0.0561804734170, -0.0851735696197, 0.8158311247826, -0.0565568655729, -0.0103952661157, -0.2444057911634, -0.4423978924751, 0.0848297253251, -0.1042195037007, 1.0274059772491, 1.0163596868515, 0.1225493550301, 0.2013555765152, 0.1702629774809, -0.0032243141904, 0.1768224090338, 0.0263298433274, -0.0854258313775, -0.1689569950104, -0.8523950576782, 0.4454488456249, 0.3461520671844, -0.0867924094200, -0.8767264485359, -0.0112793212757, 0.6460855603218, 0.3768833875656, -0.0025106605608, 0.0961764678359, -0.6976910233498, -0.1437607407570, 0.5432123541832, 1.0628635883331, -0.1297379434109, 0.6974445581436, 0.1033177971840, 0.4672113358974, 0.5756871700287, -0.4957840740681, -0.3200316727161, 0.0695908591151, 0.4964051842690, -0.3488090336323, 0.8096039891243, -0.1740779876709, 0.1247456669807, -0.1165674850345, -0.0346860773861, 0.3478169143200, 0.3156228661537, 0.6300447583199, 0.2448017299175, 0.0570366643369, -0.5680096149445, -0.2378368079662, 0.3594953119755, -0.2831687927246, 0.6240943670273, 0.2557120621204, -0.3571497201920, -0.0210472680628, 0.0425160191953, 0.0968282967806, 0.0919065177441, -0.0339293293655, -0.0889364331961, 0.0441325530410, -0.0467681922019, 0.4640017747879, -0.0417257584631, -0.1325415521860, 0.3420227766037, 0.4009380638599, -0.1111440062523, 0.2571562230587, 0.6332248449326, -0.1849699020386, 0.0083716446534, -0.0614605844021, -0.0631380230188, -0.0661521181464, -0.0476068370044, 0.2270160913467, -0.1927712857723, -0.2733530104160, 0.0403342023492, 0.1772513985634, -0.1711839288473, 0.3143456280231, -0.2629815042019, 0.0175161324441, -0.0518811717629, -0.0362139791250, -0.4754215180874, 0.1620001047850, 0.8543847203255, 0.2916011214256, -0.0306602995843, -0.2497122436762, -0.2850992083549, -0.0325850546360, 0.0092532048002, -0.2725391387939, -0.3460091054440, 0.0694319382310, -0.1259479522705, -0.0532258860767, -0.0201008953154, -0.2411852031946, 0.2352776527405, -0.1645099073648, 0.1190150827169, 0.3641003966331, -0.0096320258453, 0.9145013093948, -0.1802086532116, -0.0576700232923, -0.0874996185303, 0.8933778405190, 0.4664209783077, -0.1464858800173, -0.0131927840412, -0.2444395720959, -0.0494655482471, -0.2886265516281, -0.0589440502226, -0.0826133564115, 0.2111198157072, -0.0203798804432, 0.3274246156216, 0.0241748429835, 0.1250762641430, -0.5790770053864, -0.1220408901572, -0.4104304015636, 0.2816615402699, 0.5758332014084, -0.1015373989940, 0.5062893033028, -0.4599882364273, -0.2215282171965, -0.1698047071695, -0.1214429289103, 0.1125489100814, 0.2561672925949, -0.2407009899616, -0.1010651513934, -0.3552093505859, 0.0587026104331, 0.9704100489616, 0.2238965928555, -0.0625741705298, 0.3265425860882, -0.3157321214676, 0.0862447842956, -0.0302000716329, -0.0596186630428, -0.0594299174845, 0.2295290678740, 0.8902301192284, 0.2982364296913, 0.1212439462543, 0.1052967607975, 0.0465517528355, -0.1219997778535, 1.2616230249405, 0.4526507854462, -0.0312991440296, -0.3243387937546, -0.0392974391580, -0.1467739045620, -0.2540209591389, -0.0943441390991, -0.5467826724052, -0.3901910185814, -0.0790338665247, 0.0121816731989, -0.1848651468754, -0.0994112119079, 0.2502396106720, 0.0461830049753, -0.4343278110027, -0.2586717605591, -0.1375926584005, -0.4167716205120, -0.0375480912626, -0.2275148034096, -0.2393369972706, -0.1369029432535, -0.0284628402442, -0.0205670148134, -0.6844341158867, 0.0512280650437, -0.2151305377483, -0.0164433550090, -0.2155618518591, 0.0730661973357, 0.1189887821674, -0.3592550158501, -0.2243446856737, -0.1215997114778, -0.1519511640072, 0.2048429250717, -0.2161046862602, -0.1615919470787, -0.1333528608084, -0.0730978921056, -0.2590871751308, 0.3653453886509, -0.0902276486158, -0.0484855659306, -0.3129895031452, -0.5005006790161, -0.3395252525806, 0.0925440937281, -0.1390296518803, -0.0455151051283, 0.5149750709534, 0.1919133961201, -2.1510066986084, -0.3563578724861, 0.3110038638115, 0.1893258839846, 0.1226686611772, -0.5691328644753, 0.1684157699347, -0.3384820818901, 0.0221394952387, -0.1753304004669, -0.0839240998030, -1.1918244361877, 0.1331653445959, -0.2844315469265, 0.3879431188107, -0.4548704922199, 0.3733555972576, -0.2194116562605, -0.9801664948463, -0.0979186668992, 0.6254789829254, -0.0490244515240, -0.5697719454765, 0.5706331133842, 0.9206712841988, 0.1967009603977, -1.5563287734985, -0.2083884030581, -2.1155529022217, 0.1276181787252, 0.7083012461662, 0.2052267938852, 1.2086763381958, -0.6966652870178, -0.4345295131207, 0.0392666682601, -0.7759062051773, -0.1353651136160, 0.4378142356873, -0.7103105783463, -0.1429483741522, -0.1725382357836, 0.5119938254356, -0.0201532617211, -0.1025485619903, 1.7037496566772, 0.0880787447095, 0.4042263925076, 0.1917277872562, -1.0686268806458, 0.7047242522240, 0.3052458763123, -0.5717844367027, -0.5509610176086, -0.3164673447609, -0.2841920256615, -0.5877950787544, 0.2058373093605, 0.2005926668644, 1.0131338834763, -0.7754909992218, -0.4207028448582, 0.3767858445644, -0.0286051798612, 1.2032625675201, -0.3032381236553, 0.4875160157681, -0.0571538098156, -0.9029000401497, -0.7589179873466, 0.2349978834391, -0.3250764012337, 0.9198048114777, 0.1690991520882, -0.2811424434185, 0.3258677124977, -0.1431618481874, -0.5317667722702, -0.1760250180960, -0.9100599288940, -0.4233071208000, 1.0949075222015, -0.3463829159737, -1.0456106662750, -0.9740992188454, -1.1185441017151, 0.3413783609867, 0.3149704635143, -0.4723707139492, 0.5538699030876, -0.2368576377630, 0.0830762311816, -0.3374832272530, 0.2547928392887, -0.5107753872871, 0.1465109884739, -0.3880425691605, -0.0193805228919, -1.5193082094193, 0.1922425627708, -0.1216438338161, -0.1374360620975, 0.6248139142990, 1.0179105997086, 0.7214401364326, 0.0383737832308, 0.7864572405815, -0.6621278524399, -0.6323785185814, 0.7378363013268, -0.0714744776487, 0.0841866210103, -0.0460910983384, 0.4037605524063, 0.3001815378666, 0.0070351036265, -0.0864005088806, 1.4513264894485, -0.3698349595070, -0.0721546337008, 0.2908284962177, -0.2395910620689, -0.8113192319870, 0.4489103853703, -0.3693633377552, 1.0434494018555, 0.4913358986378, 1.1997876167297, -0.6479835510254, 0.8186179995537, 0.0379590168595, 0.2903547585011, -0.4674139022827, 0.2809175550938, 0.3724941015244, -0.4971024096012, 1.5929973125458, -0.5560663938522, -0.0257373154163, -0.6108603477478, 0.0881042554975, 0.6661009192467, 1.9665572643280, 0.0018945003394, 0.8123936057091, 0.8313491940498, -0.2700140774250, 0.4458641409874, -0.5084741711617, 2.0748178958893, -0.0926798433065, -0.1155292168260, -0.2529858648777, -0.3005092442036, -1.2247010469437, -0.5319594740868, 0.0219431221485, 0.7520987987518, 0.6617495417595, -0.5245552062988, 0.6125946044922, -0.1586168259382, 0.0611244440079, -0.5848462581635, 0.6286469101906, 0.9661296606064, -0.1895240694284, 0.5780408978462, 1.5019631385803, 0.6318050622940, -0.9038905501366, -0.4167717695236, -0.5428119897842, -0.7391709089279, 0.4738169014454, 0.8941240310669, 0.1579391062260, 0.6863524913788, 0.7486785054207, 0.4306093752384, 2.0739519596100, -1.3292195796967, -0.2013845741749, 1.4758640527725, 0.1188068464398, -0.2958475351334, -0.4106571078300, -0.0385589487851, -0.0318785533309, 0.5682026147842, 0.2585124969482, -1.4014114141464, 0.5674291849136, 0.3279944956303, 0.6124336123466, -0.6421514749527, -2.3120076656342, -0.5806794762611, 0.0906083956361, 0.4427229464054, -0.9467635154724, 0.1536651104689, -0.7812053561211, 0.6233631968498, 0.2772742807865, 1.1085191965103, -1.1107455492020, -0.0859484598041, -0.3439178168774, 0.0031545883976, -0.4707063138485, 0.0337333567441, 0.8316925764084, -0.5623838901520, 0.1079525128007, 0.1108821406960, 0.2883481383324, 0.0351583957672, -0.3684389293194, 0.5730496048927, 0.7398577332497, 0.2842577099800, -0.0940031707287, 1.1173018217087, -0.0404574796557, -0.0960756391287, -0.2475600838661, 0.1540332883596, 0.0003543214698, 1.5020138025284, -0.0614324547350, 0.7719370722771, 0.9276441931725, 1.5630800724030, 0.6263596415520, 0.4470462501049, 0.5811954736710, 0.0736491382122, 0.4268454611301, 0.1618290692568, -0.2958936989307, -1.6492353677750, -0.6177724599838, -1.4819775819778, -0.9759529829025, 0.1834384351969, -0.0235027559102, -0.4101823568344, -0.4993222653866, -0.2507847547531, -0.9233117103577, 1.0592226982117, -0.3133789300919, 0.0025617491920, 0.9997165799141, 0.2685335278511, -0.1801493167877, 0.0284343678504, -0.3038928508759, -0.7124342322350, 0.1684135049582, -1.6513990163803, -0.7940942645073, -1.0411205291748, -0.6681656241417, -0.6192842721939, -1.1230719089508, 0.4225345253944, 0.1034713387489, -0.2244714647532, -0.2790449559689, 0.2037248015404, -0.1865471154451, 0.8423032760620, -0.0501453317702, 0.9469846487045, 0.3642668724060, -0.0913902819157, 0.0118816168979, 0.1647029817104, 0.2100803256035, -0.1420611888170, -0.4214903116226, -0.2510443925858, 0.0372015498579, 0.5767378807068, -0.7053417563438, 0.1653078198433, -0.3431985080242, 0.1795270591974, 0.3636579811573, -0.0732884556055, -0.1484067887068, 1.1046679019928, -0.8611257672310, -0.1408540308475, 0.6163980364799, 0.5892996788025, 0.1931782215834, 0.2785047292709, 0.3224363327026, 0.8542488217354, 0.7059906721115, -0.1522539854050, -1.0823301076889, -0.1280310451984, -0.7938737273216, -0.0759470984340, -0.5755358338356, 0.9277888536453, -1.5205850601196, 0.2519341409206, -0.0009640388307, 0.5539469718933, -0.2768110036850, 1.5176408290863, 0.4724885225296, 0.0968588218093, 1.3522137403488, -0.8962467908859, -0.6416366100311, 0.1549946814775, -0.4898598492146, -1.1361132860184, 0.2722791731358, -0.1578602939844, 0.6986209750175, 0.3788510560989, -0.6250200867653, 0.8650568127632, -1.2694411277771, -0.0085375728086, 0.6417543292046, 0.2862869203091, 0.4557614028454, 1.2830427885056, -0.3300437927246, -0.3631042540073, -0.2419962286949, -1.2344287633896, -0.0307868700475, -0.3982102572918, 0.2909771800041, 0.6271334886551, -0.3503267765045, 1.1422526836395, -0.5151368379593, 0.8480336070061, 0.1970150917768, -1.2647145986557, 0.0778926238418, 1.1108360290527, -0.4503577649593, -0.0532523430884, -0.5046374201775, -0.6768985986710, 0.8643113374710, 0.5371437072754, 1.9797405004501, -1.3366602659225, -0.1891494095325, -0.1646866053343, 0.4548873305321, -1.6416624784470, 0.8524364829063, 0.1027520969510, -0.1484267413616, -1.1466177701950, -0.5422160625458, -0.9533485770226, 0.7742249965668, 0.2020361423492, -0.3555250465870, -0.4524277150631, -0.1229536086321, -0.0696636438370, 1.0858517885208, -0.6837550997734, 0.0265062768012, 0.5076336264610, 0.1190710440278, 0.2759209275246, 0.0483398586512, 0.3625833392143, -0.6089065670967, 0.0775765627623, 1.2577755451202, 0.9973129630089, -0.5808632373810, 0.2475534826517, -0.9372996687889, 0.3319446742535, -2.4429442882538, 0.6080434918404, -0.8443543314934, -0.9123004674911, -0.9546247720718, -0.2864370346069, 0.4681787490845, 0.3419183194637, 1.0797896385193, 0.4113830327988, 1.2185562849045, -0.5162581205368, 0.0229579601437, 0.0656448751688, 0.6674432158470, -0.1168960928917, -0.5214984416962, 0.8943711519241, 0.6720466017723, 1.1497597694397, -0.2336997538805, -0.2237734794617, -0.4392224252224, 0.0128544997424, -0.4268124997616, -0.6144361495972, -0.1061893478036, 0.5408554077148, 1.3986026048660, 0.8285771608353, 0.9547932147980, -0.0401124916971, -0.0702126547694, -0.0183815937489, -1.7785295248032, -0.7694371342659, 0.3708187639713, 0.2112769484520, -0.1685162186623, -0.0513816215098, -0.5438171625137, 0.8199371695518, 0.4472111165524, -0.2483370006084, -0.4891091883183, -0.2350029349327, 1.0809893608093, -0.3910477161407, 0.7613026499748, -0.1974307000637, -0.2644737362862, 0.1182404309511, -0.1679534763098, 0.8732948899269, 0.3212723135948, -0.3686212003231, -0.6391453146935, 1.8285417556763, 0.5418044924736, -0.3099489808083, -0.0707104057074, -0.7422890663147, 0.1972045749426, 0.0208486784250, -0.8353766798973, 0.1127381324768, 1.0060160160065, 1.4893002510071, 0.4787665307522, -0.4608151912689, 0.0049043642357, 1.5312123298645, 1.3476107120514, 0.8996108770370, 0.0777962878346, 1.5495413541794, -0.5429658889771, -0.6169802546501, 0.0829154923558, -2.4624865055084, 1.0571141242981, -0.5607070922852, 0.6604270935059, 1.1613252162933, -0.5845996737480, -0.7231553196907, 0.2757880389690, -1.6482084989548, -0.2466641962528, 0.0535164400935, -0.1701289862394, 0.0234299488366, -0.6981977820396, 1.1967921257019, -0.8985539674759, -0.3408167660236, 0.4755860269070, 0.0122804949060, -1.1289107799530, -0.6233612895012, -1.7958179712296, -0.4670630991459, -0.1383527070284, 1.4419473409653, -0.0600207895041, 0.2825249433517, -0.0689317360520, -0.3896815180779, 1.4443241357803, 0.5646296739578, 0.3281521499157, -0.3408881425858, 0.9441129565239, 0.5641795396805, -0.8409972786903, -0.0226048026234, 0.6765571236610, -0.7423470616341, 0.4028768539429, 0.3934484422207, -0.9577228426933, -1.5288838148117, -0.5367281436920, -0.4303067624569, -0.7061876654625, -0.3698005974293, 0.0594454482198, 0.2149063348770, -1.0668053627014, -0.8446471691132, 0.7152813076973, -0.3395062685013, 1.8393771648407, -0.0811292678118, 0.0810257866979, -0.8942124843597, -0.5062912702560, -1.0299398899078, -0.2698282003403, -0.2008962035179, 0.5805276036263, 0.6341510415077, -0.9685514569283, 0.6960117220879, 0.2046761363745, 1.4741219282150, -0.0920475274324, -1.0304174423218, -0.1300724148750, -0.0773179158568, 0.3235559761524, -0.1929665207863, 1.2667727470398, -0.4634596109390, -0.7119273543358, -0.6364781260490, 1.3109906911850, 0.2390496432781, 0.2737284898758, 0.0490951165557, -0.3023662567139, 0.4809864759445, -0.2174584865570, -0.7684001326561, 0.1279904246330, -0.4734216034412, -0.2687486708164, 1.1605064868927, 0.4451136291027, 0.4232952892780, 0.4889989495277, -0.3132576942444, -0.4501590430737, -0.0784442946315, -0.6620039343834, 0.2094506919384, -0.1347907036543, 0.3333420157433, -0.2546395361423, -0.8130273818970, -1.3821738958359, 0.5619258284569, -1.3459765911102, 1.9737335443497, 0.4883854687214, -0.3353992700577, 0.1949504911900, 0.0012732696487, -0.1947574466467, -0.1547551304102, 0.2651430368423, 0.0776320025325, -0.2513815760612, -0.4614720344543, 0.0293193403631, 0.5559628009796, 0.4246006906033, 0.4759345948696, 0.3933820128441, 0.0768688842654, -0.1398544609547, -0.7698115706444, -0.0164834577590, -0.5903863906860, -0.4813015460968, -0.1817816048861, -0.0134529964998, 0.8512895703316, -1.4259297847748, -0.2995466887951, -0.1472777128220, -0.2353344410658, -0.0172691326588, -0.0670799314976, -0.5361779332161, -0.0202883724123, 0.7316849231720, 0.3355122804642, 0.7529656291008, -0.1781204193830, -0.5930656194687, 0.0978266745806, -0.5550733804703, 0.9459930062294, 0.2381088584661, 0.1124812737107, 0.6598496437073, -0.2955488264561, 0.2224006056786, -0.2314897328615, 0.6374881863594, 0.4170400798321, -0.0164120700210, -0.1265938282013, -0.3867700099945, -0.1175873205066, 0.2654902040958, -0.0221205018461, -0.0566334500909, 0.1146141365170, 0.3322519958019, 0.0957585424185, 0.2271963059902, 0.4757215678692, 1.0614995956421, -0.0326745398343, 0.2866055369377, 0.4948763549328, -0.8401827216148, -0.6484170556068, -0.7142332196236, -0.7415327429771, -1.3797279596329, -0.1486565768719, 0.1044046506286, 0.3999685645103, 0.0374875515699, 0.2535869479179, -0.1949449032545, 0.4554528295994, 0.2838875055313, 0.7981850504875, 0.3345950543880, 0.1036989763379, -0.2703030109406, 0.6096307039261, 0.1129582151771, 0.3277600407600, 0.1781275719404, -0.0334684178233, 0.0250980854034, 0.6422950029373, 0.0009732751641, -0.6160497665405, -0.2956885397434, -0.7070730924606, -0.7809416651726, 0.5078724622726, -0.9119061231613, 1.0039631128311, -0.3848896026611, -0.7350028753281, -0.6356068253517, 2.1286959648132, 0.3421903848648, -0.1525384336710, 0.0054646134377, 0.5928307771683, -0.6563027501106, -0.7725022435188, 1.0131019353867, 0.6006804108620, -0.3577121496201, 0.3509388864040, -0.0589366778731, 0.6274475455284, 0.4867633283138, 0.0395501330495, 1.1679174900055, 0.0552247911692, -1.4098206758499, -0.2995098531246, 0.4115618169308, 1.0141717195511, 1.7509888410568, -0.4924286901951, 0.0374553985894, -0.5585434436798, -0.0401457101107, 0.2447792738676, 0.1167383193970, 1.1231341362000, -1.0665415525436, -0.1780949980021, 0.2213638871908, 0.0784022063017, 0.8128628134727, 0.9853368401527, 0.1332239806652, -1.1752473115921, 0.4595810472965, -0.0726957917213, 1.0195617675781, -0.3873237669468, 0.2238646894693, 0.8366844654083, 0.2825854718685, -0.5806192755699, 0.2123023122549, -0.7682949900627, -0.0162689089775, 0.8439121246338, -0.8382117748260, -0.0778957381845, 1.0022419691086, 1.0702033042908, -0.2909684181213, 1.4346839189529, 0.0732480585575, 0.3741649091244, -0.2640594840050, -0.4468077421188, 0.2504546940327, 0.8522288203239, -0.9719346761703, 0.4662133753300, 1.0835148096085, 0.9463273882866, -0.6997981667519, 2.7465307712555, -0.6389028429985, 0.7505924701691, 0.5680512189865, -0.9644570946693, -0.6624552011490, 0.4009394049644, -0.7461256384850, -0.4156234264374, -0.6470359563828, 0.7114000916481, -0.5143736600876, 0.3254862129688, -0.6374472379684, 0.1546689122915, -0.1163306906819, 0.1898590475321, 0.6643337607384, -0.7515960931778, -0.7018746733665, 0.0316663980484, 0.8450308442116, 0.3053091466427, 0.3925805091858, -1.3942774534225, -1.0427501201630, -0.5229914188385, 0.0643132328987, 1.4284108877182, 0.4474698007107, 0.5632101297379, -0.0338296145201, -0.0061440872960, -0.1563101261854, 1.6364319324493, -0.1198286637664, 0.6053391098976, 0.4504963159561, -0.5338121056557, 0.0540154688060, -0.9258405566216, -1.5587116479874, 0.3283083438873, 0.4217255115509, -0.9193139672279, 0.0665346607566, -0.1972837150097, 0.6475468277931, 0.0924689918756, 0.0388899520040, -0.1439246237278, -0.3668494522572, 0.0289418976754, -1.2547596693039, -0.3835441768169, -1.3222290277481, -0.5069981813431, -1.1382044553757, -0.5720208883286, -0.3743444979191, 1.1151916980743, -0.4037261307240, -0.9466764926910, 0.0222924072295, -0.3710209429264, -0.0488296076655, -0.1130221337080, -0.5450642704964, -0.1123585999012, 0.4638357460499, 1.3591957092285, -0.1520968079567, 0.1208257824183, -0.7688100337982, -0.1102938428521, 0.1179287806153, 0.6309067010880, -0.9814829230309, -0.4549197554588, 0.2997122406960, 2.2355933189392, -0.8771755695343, -0.1521622538567, 0.5772692561150, 0.3539003133774, 0.8488481640816, 0.0378242954612, -0.6300528645515, -0.7029296159744, -0.2476580590010, 0.0841695889831, 0.6053916215897, -0.0946162417531, -0.7539148926735, 0.2916462719440, -0.4571702778339, -0.4575662910938, 0.1367919892073, -0.5692242980003, -0.4074657857418, -0.1570771485567, 0.0302449744195, -0.1889226883650, -1.4741019010544, 0.1221225932240, 0.4823906719685, -0.5776187181473, 0.3944376707077, -0.5133845806122, -0.4561907947063, -0.1582449525595, 0.7897886633873, 0.1723501235247, -0.1292512267828, 0.4534317255020, -0.6952157616615, 0.3984884619713, 1.6964039802551, -0.0715990290046, -1.1542687416077, -0.2038183063269, 0.4705745875835, -0.1372569501400, 1.9847775697708, 0.3384792506695, 0.3783797621727, -0.1647344082594, -1.0673677921295, -2.1016588211060, 1.0859051942825, 0.0940603539348, 1.5899358987808, -2.4374969005585, -0.5221129655838, 1.1126412153244, 0.0403091050684, 1.4662423133850, 0.0411962419748, -1.1922389268875, 1.3847744464874, -0.5702162384987, 0.6994410157204, -0.3845956325531, 0.6585810780525, -0.3101624846458, 0.2118179351091, 0.3038236200809, 0.7157542109489, 0.9159032702446, 0.3706588745117, 1.3227360248566, 0.3913537859917, 0.9809247851372, -0.8456941246986, -0.3100625276566, -0.0710527226329, 0.4934704899788, -0.8670727610588, -0.1957170516253, 0.9593011140823, -0.2546375095844, 0.4494873583317, -2.2443261146545, 2.0372211933136, -0.7292742729187, 0.0860829427838, -0.2146189808846, 1.3674434423447, 0.5119538307190, -0.3869851529598, 0.8658775687218, -0.2402100414038, 0.1481891423464, 0.3679655492306, -0.0421728529036, -0.1638809591532, -0.6628175973892, 0.2603199779987, -0.1896686404943, 0.8442760109901, 0.2030994147062, 0.0764373391867, 1.2081006765366, 0.3464157581329, 0.4990518093109, 0.0564570613205, 0.0256837103516, 0.6677586436272, 0.0223626252264, -0.1410122215748, -0.0911643281579, 0.1918299347162, 0.1663395315409, -0.5795723199844, 1.2525240182877, 0.3556388020515, 0.2008237987757, 0.3682713806629, 0.0111951502040, -0.6544625759125, 0.0182219315320, 0.0621574930847, -0.7641197443008, -0.9401712417603, -0.3177783787251, 0.0172272026539, -0.5601133108139, -1.1858240365982, 0.4935195446014, 0.0759428441525, 0.3756822943687, 0.1987929493189, -0.5559617877007, -0.5329046845436, -0.1672635078430, -0.3269726634026, 0.3910198211670, 0.0699849128723, 0.1285756975412, -0.3670591711998, -0.0751427784562, -0.2973090112209, -0.7328599095345, -0.6628155708313, 0.3098276853561, -1.8862664699554, -0.2946005463600, -0.0181026477367, -0.5917410850525, 0.3014968931675, -0.0008900408866, -0.8849765658379, 0.2242853790522, -0.1052378490567, -0.4265268146992, 0.4346579909325, 0.3106788098812, 0.6393573284149, -0.4144872128963, -0.0470077916980, -0.1372411549091, 0.3406201004982, 0.6221087574959, -0.3661144971848, 0.0312922187150, 0.2678512334824, -0.5162354111671, 0.6857061386108, -0.5670946836472, 0.4219341576099, -0.1588739752769, -0.3429640531540, 0.1227746084332, 0.3257533609867, 0.0718147680163, 0.0791377052665, 0.1940922737122, 0.2159585654736, 0.7769991755486, 0.4200283288956, 0.2042925059795, 0.1292705237865, 0.0128717655316, 0.8289960622787, -0.3545184433460, 0.2956330776215, 0.6356800198555, 0.9093318581581, 0.5097689628601, 1.1057143211365, -0.9909909367561, -0.3874371349812, 0.9285296797752, 0.0959455668926, -0.5503656268120, -0.3116747140884, -0.8656216859818, 0.8949102163315, 0.3265490829945, -0.2913567125797, -0.3262616693974, -0.2799396514893, -0.2891691327095, 0.0733338072896, -0.1747753769159, -0.2916419506073, 0.2353972941637, -0.0447660498321, -0.7367117404938, 0.0095719657838, -1.1471354961395, -0.0120072299615, 0.3661432266235, 0.0253890566528, -0.4295470714569, -0.2513197660446, 0.9007984399796, -0.6681582927704, -0.3081802725792, -0.0141709223390, -1.3351193666458, 0.4043729603291, 1.0452669858932, 0.5375181436539, -0.3334414362907, 0.6002346277237, -0.0647966563702, 0.0172569304705, 0.2745413780212, -0.1029841825366, 0.2527132034302, -0.2340082079172, 0.0291890818626, 1.0023502111435, -0.4622086584568, 0.4723622202873, 0.2504297792912, -0.0092522697523, 0.4651349782944, 0.3540546894073, 0.7433945536613, 0.1692407280207, 0.3669778108597, 0.0961252078414, 0.2383832335472, 1.1225122213364, 0.0582947619259, 0.7561755776405, 0.4444064199924, 1.3634070158005, -0.4624940752983, -0.2938841581345, 0.5345354080200, 0.4885601997375, 0.5725590586662, 0.0799912363291, -0.0881603956223, -0.3173139691353, 0.0651500150561, -0.4375163018703, 0.1528073251247, -0.1739687174559, -0.3072890937328, 0.8929689526558, 0.3080129921436, 1.4922856092453, -0.6106578707695, 0.4341518580914, 0.1040345206857, -0.0568730570376, 0.5988847017288, -0.0105049768463, -0.0561637096107, -0.1212159469724, -0.3618294596672, 0.1730056107044, -0.2958430349827, 0.1427596509457, 0.1237926930189, 0.0103435171768, 0.0162079613656, 0.2523773014545, 0.1876508891582, 0.1529585570097, -0.1181334778666, -0.1518705189228, -0.0689323395491, 0.1336484551430, 0.3349617719650, 0.4015383422375, -0.1228566467762, 0.1514401137829, 0.0284431204200, -0.1224278062582, 0.4790470004082, -0.1071511581540, -0.0786268040538, -3.4773538112640, -0.1666926592588, -7.2660722732544, 0.1963685452938, -0.1571225821972, -0.0135420802981, -0.1711741089821, -0.0249281283468, -0.5130351781845, -0.1859498322010, 0.2841273248196, -0.1642778068781, 0.0254535190761, -0.3830992877483, -0.0225252620876, 0.2308935970068, 0.1256585717201, 0.0530879534781, 0.0359716415405, 10.8878870010376, -0.1605198085308, 0.1390938609838, -0.1994755119085, -0.1841332912445, -0.0529257394373, -0.1233688816428, -0.0940044522285, 0.1766786128283, 0.2834163308144, -0.4710123538971, 0.3338368535042, -0.1874422430992, -0.0565232597291, 0.0339819304645, -0.2090243250132, 0.0165024157614, 0.2073283344507, 0.2604202628136, 11.3105659484863, 0.6326110363007, -0.2253042161465, -0.0631020069122, 0.7005360722542, 0.1400741636753, 0.1870803385973, 0.1641878783703, 0.4767628610134, -0.1679050624371, 0.0686950683594, 0.1242642179132, 0.0846183598042, 0.1729682832956, 0.5958656072617, -0.2002855688334, -0.0432980693877, -0.3253789246082, 0.2251218408346, 0.0924199968576, 0.3581508100033, -0.2585497796535, -0.0502156540751, 0.2797331809998, 0.2912459373474, -0.0116410125047, -0.0645321831107, -0.0903013050556, -0.2751555144787, -0.5235790610313, -0.0238590594381, 0.0379508584738, -0.0537366904318, 0.3101168870926, -0.1573828905821, 0.2455549091101, -0.1495326757431, -0.1765061765909, -0.0940527245402, -0.1390363872051, 0.1026263609529, -0.0036212257110, -0.0984695479274, -0.3384421467781, -0.0372737683356, -0.0505610629916, 0.0307475123554, 0.0804642140865, -0.1147883757949, -0.3414887487888, -0.1567102074623, -0.3223445713520, -0.0595237836242, 0.0011815648759, -0.1884163469076, -0.0936720594764, -0.0732889696956, -0.1521907597780, 0.5227990150452, 0.0110394069925, -0.2103325575590, -0.0588075295091, -0.0768271610141, -0.1254706680775, -2.8370633125305, -0.2109156996012, -0.0155790699646, 0.3286790847778, 0.0315704233944, 0.8045608401299, -0.1295434087515, -0.4728039801121, -0.0755082666874, -0.1137615814805, -0.1396589130163, 0.5555011630058, -0.1288865804672, -0.1748994439840, -0.2123041450977, 0.2035534381866, -0.2133541107178, -0.2664715945721, -0.1061489805579, -0.1409557908773, -0.1193229928613, 0.3347419798374, -0.0289445482194, 0.0721620619297, 0.5558340549469, -0.0895831584930, 0.1124802753329, -0.0562495812774, -0.1016466915607, 0.2257444709539, 0.2403170615435, 0.1203085631132, -0.1060319244862, -0.2327557057142, -0.1131810992956, 0.2053473442793, -0.0211153905839, 0.0674648433924, -0.1403014957905, 0.5157263278961, -0.2925684452057, 0.1154623255134, -0.0443930327892, -0.0456045567989, -0.0120526188985, -0.2081759572029, -0.1664682477713, 0.2930526435375, 0.1947198808193, -0.1208938583732, 0.2795266807079, 0.0185003373772, 0.7534340620041, 0.1383670717478, -0.3440852463245, 0.0689042508602, -0.1935519427061, -0.1300360858440, 0.1941379010677, 0.2530138790607, -0.1097026467323, 0.4315643310547, 0.1066521331668, 0.1116014122963, 0.2691318690777, 0.3871190547943, 0.3676792979240, -0.4758582115173, -0.1581275612116, 0.4948059320450, -0.3763774037361, -0.2525591552258, 0.4580082893372, -0.3513303101063, -0.2501952350140, -0.2261426597834, 0.1679517030716, 0.0746876075864, -0.6162473559380, 0.5144232511520, 0.2569167315960, -0.6623387336731, -0.0229870975018, -0.6771018505096, 0.1982054263353, -0.1694182455540, 1.0256431102753, -0.3537668287754, -0.6526361703873, -0.0793990120292, -0.8626015782356, 0.4417437911034, 0.5328446030617, -0.1092503145337, 0.0616802722216, -0.3824444115162, 0.1334231793880, 0.0346988178790, 0.0092121558264, 0.3164128363132, 0.0031093785074, 0.3334902822971, 0.0376142822206, 0.0130008384585, 0.3579610288143, -0.1622214913368, 0.0524945035577, -0.9845869541168, 0.7181777954102, -0.0971355289221, 0.3647034466267, -0.5852708220482, 0.0391012877226, 0.0579778365791, -0.3580996394157, -0.1294719278812, 0.2670337855816, -0.0079774018377, -0.6700921058655, -0.3477438986301, 0.5894765257835, 0.2648361921310, -0.7837068438530, 0.0981921181083, 0.5691954493523, 0.4034206867218, -1.1194124221802, -0.1077780351043, -0.0264419894665, 0.3819442987442, -0.3437994420528, 0.0263288859278, -0.3381816148758, 0.2438978254795, -0.3939503431320, 0.4631394743919, -0.6178661584854, 0.0034516779706, -0.3904982805252, -0.0072631747462, 0.1291877478361, -0.0609422139823, -0.1138334646821, 0.1348036676645, -0.2941442430019, 0.0985633656383, 0.0693287923932, 0.4744186699390, 0.2108306586742, 0.4882347583771, 0.5462749600410, -0.0194577407092, 0.3404152095318, -0.1198859885335, -0.8077806830406, -0.2060789465904, -0.2317046821117, 0.1665855348110, 0.1976117491722, 0.0958134382963, 0.5336859226227, 1.1827988624573, -0.2333143800497, -0.4322476387024, 0.2126226872206, -0.4715282022953, -0.1749427318573, 0.0510185249150, -0.0971236154437, -0.4381388425827, -0.0092530250549, -1.0950042009354, 0.0934829413891, -0.3107781410217, 0.1742131114006, -0.9155930280685, 0.4081723093987, 0.1800210326910, 0.6801788210869, 0.1093752384186, 0.2716099619865, 0.1224624887109, -0.1139731183648, 0.1935514658689, -0.3546309471130, 0.2592970430851, -0.0621881373227, 0.0763466507196, 0.5262570381165, -0.2862092554569, 2.0993928909302, -0.2814022004604, 0.2838318347931, -0.1585857868195, -0.2085649073124, 0.1409516334534, -0.2423104196787, 0.0244913976640, -0.1592967361212, 0.3736659586430, 0.2376409173012, 0.1166449710727, 0.2770320475101, 0.0273658484221, 0.3399224281311, -0.1865740716457, -0.2522014081478, 0.0858333185315, 0.8768632411957, -0.2449537366629, -0.0880708396435, -0.0498771220446, -0.3601669669151, 0.0709408521652, -0.0209016408771, -0.8072686195374, 0.0556111373007, 0.2748779952526, 0.1058074682951, 0.8377938270569, -0.4339820742607, -0.1289276033640, -0.5136611461639, 0.0199795905501, 0.1874680668116, 0.2508459985256, -0.0732991620898, -0.1437556594610, 0.1395167410374, 0.1729208528996, -0.6180451512337, -0.3095472455025, 0.2351606190205, 0.2216031253338, -0.3175436854362, 2.3458914756775, -0.0973022505641, -0.0856754109263, -0.1912122815847, -0.6355762481689, -0.1717050820589, -0.3567749559879, 0.0818053558469, -0.0097083579749, -0.7246370315552, 1.1613382101059, 0.4530251026154, -0.7333937883377, -0.4171750247478, 1.3261064291000, 0.1436064690351, 0.7459256052971, 0.5538795590401, -1.0015889406204, -0.5020701289177, 1.0394914150238, 0.2081582993269, -0.7549113035202, -0.4588241577148, -0.4269231259823, 1.0340783596039, -0.1388366967440, -0.1814981400967, 0.5678684711456, -0.3799678683281, 0.0681937858462, 0.6894062757492, -0.1416536122561, -0.9431175589561, -0.3856073617935, -0.0085488585755, -0.4983859956264, -0.2767491936684, 0.2677399814129, -1.2081551551819, -0.6922175884247, -0.0130876004696, -0.3269283473492, -0.1186929568648, 0.3344333469868, -0.0426198653877, 0.1183619573712, 0.2200686633587, 0.8254882693291, -0.0989645868540, 0.0119752660394, 1.2276967763901, -0.4832364022732, 0.2769861519337, 0.6865727305412, -0.1753540933132, -0.1961897015572, 1.0794385671616, -1.0847758054733, 0.0256144609302, -0.2944411933422, 0.9773693680763, 0.8359014391899, 0.1636197268963, -0.3075714707375, -0.2469726800919, 0.0484878234565, -0.4845977127552, -0.2071569710970, 0.1472976952791, 1.2094314098358, 0.1734603345394, -0.6135997772217, -0.0849097147584, 0.4807800650597, -0.4750480651855, -0.2613171339035, 0.1422700136900, -0.6664986610413, -0.5035461187363, -0.3356894254684, -0.1258731782436, 0.5084180235863, 0.9544068574905, -0.1822617053986, 0.3631736338139, -0.3044076859951, -0.1038776114583, 0.0668516978621, -0.5758554339409, -1.1208558082581, -1.0029772520065, -0.7131105661392, -0.1028786003590, 0.7425792217255, -0.2522689998150, 0.9213419556618, -0.1014468967915, -0.5503971576691, -0.4478796124458, -0.4650803804398, 0.9297515749931, -0.1788028180599, -0.4816859662533, -0.0570070892572, -0.3570850491524, 0.0353917479515, -0.8370301127434, 0.7975907325745, -0.4828268289566, -0.6377418637276, 0.4966436624527, 0.3211939632893, 0.2598602175713, -0.2378007620573, -0.1475740224123, 0.6537852883339, -0.2895831167698, -0.3749013841152, 1.5495591163635, -0.1500131189823, 0.3916864693165, 0.3272276222706, 0.1463631391525, -0.4516217410564, 0.7149075269699, 0.6228982806206, -0.9602661132812, -0.3681315183640, -0.1255497932434, 0.1883186548948, -0.2189896702766, 0.8096716403961, -0.0583453662694, 0.8830748796463, -0.3825391232967, -0.4368550181389, 0.7424559593201, 0.1300591826439, 0.3616659045219, 0.3684814870358, -0.0871094539762, -0.0813666433096, 0.0020145101007, 0.2663929760456, 1.8723685741425, -1.0990678071976, -0.0227064080536, 0.5769032239914, 0.1041870638728, 0.7123612165451, 0.3089348077774, -0.1094283238053, 0.6433989405632, -0.3294423222542, 1.1603320837021, -0.4113681614399, 0.9498637318611, -1.2173502445221, -0.4929715394974, -0.0197254791856, 0.4843597114086, 0.6059317588806, 0.9307006001472, -0.2544712424278, 0.2311181873083, -0.5834761261940, -0.1381996273994, 0.0504174567759, -0.9234521389008, 0.5340294241905, -1.0808339118958, -0.6683744192123, 0.3073909580708, -0.4965561032295, 0.8549477458000, -0.9467210769653, 0.9991709589958, -0.0909741222858, 0.2971748411655, -0.6356238722801, -0.1212259829044, 0.7437677979469, -0.6145995855331, -0.4415977001190, -0.3756412267685, 0.6861729621887, -0.4987594187260, 0.6271564960480, -0.5380586385727, -0.3365649282932, -0.7707347273827, -0.4510682821274, -0.3748879432678, 0.3051210939884, -0.8037536740303, -0.4271413981915, 0.2771547138691, -0.0260929893702, -0.2762234508991, 0.2399311959743, -0.3236875534058, -0.0036996274721, -0.7587681412697, 0.2408298850060, -0.5204145312309, -0.3610720038414, 0.1331300586462, -0.1047242879868, -0.1255957037210, -0.9415382146835, 0.2348248362541, 0.2213337868452, 0.0730985030532, 0.6716424822807, -0.4666475653648, -1.1138510704041, -0.1668047010899, -0.3930379152298, 0.4452333748341, -0.0561860464513, 0.0349547304213, 0.2117632478476, 0.4435047209263, -0.4451787471771, -0.6544047594070, 0.3951961696148, 0.3721802532673, -0.3221677541733, -0.6269690990448, -0.1059367358685, -0.4006621539593, -0.1129456385970, -0.3281916379929, -0.2296440899372, 0.3721349537373, 0.3278100192547, -0.1344618350267, 0.5895051360130, -0.1476231068373, -0.8232533931732, -0.1686778813601, 0.1462128609419, 1.0227686166763, -0.1164647117257, -0.2407937943935, 0.5798523426056, -1.0171811580658, 0.1130059957504, 0.1770845502615, -0.5357989668846, 1.3998560905457, -0.4643110930920, 1.0423644781113, 0.7526124715805, 1.3215335607529, -0.0936458706856, -0.4559117853642, 0.1731664091349, -0.0633319988847, 0.0099974861369, 1.1639077663422, 0.6408195495605, 0.4071833491325, -0.5265805721283, 0.4983957111835, 0.2011388838291, -0.3095704615116, -0.7802822589874, -0.6914815306664, -0.7926785349846, 0.2675810456276, 0.1937849074602, 0.6203106045723, -0.2170543670654, 0.1994449943304, 0.5642755031586, -0.2925039827824, 0.4695038795471, 0.0811105966568, -0.6261697411537, 1.1210167407990, 0.2014531493187, -0.2478161454201, 0.6377139687538, -0.3888432681561, -0.6255325078964, -0.6598562002182, -0.3139106333256, 0.8142223954201, -0.9256074428558, 0.4580156207085, -0.5241310000420, 0.6663739681244, 0.7154956459999, 0.8914536833763, 0.0034216656350, 1.3428889513016, -0.1246838271618, 0.8563617467880, 0.7392938733101, 0.1968767344952, 0.0473021902144, 0.5287162065506, -0.0386480875313, -1.1210924386978, -0.1781671345234, -1.3774807453156, 0.2549617886543, -0.4102992117405, -0.1327582448721, -0.5382082462311, -1.7767293453217, 0.6046150326729, 0.3960434496403, 1.0417829751968, 0.2673428356647, 0.6408701539040, 0.1543989628553, 0.3604464828968, -0.7963386178017, 0.1650689840317, -0.5737841129303, -0.3190137147903, 0.7230645418167, -0.2735988497734, -0.9691227674484, -0.2488527446985, 0.4889458119869, 0.3064593076706, -0.4254649281502, -0.1741371303797, 0.5556256771088, 0.5065856575966, -0.3725763261318, -0.6585956215858, -0.0008822565433, 0.3096565902233, -0.3887948989868, -0.5766181945801, -0.7834669351578, 0.0418987795711, 0.1304985284805, -0.1235479041934, 0.3404141664505, 0.7255693674088, -1.1229759454727, 0.1841906011105, -0.1941678971052, 0.3111712932587, -0.0336076803505, -0.2545434832573, -1.0709971189499, -1.7282122373581, 0.1969833225012, -0.8392647504807, 0.6400188803673, 0.0152866141871, -0.3574167191982, 1.0550578832626, 0.9696952104568, -0.0571047142148, -0.5288223028183, -0.1467591226101, -0.8459426760674, -0.0013407856459, -0.6689515113831, 0.5746169090271, -0.7681300044060, -0.2930111885071, -0.3360890746117, 0.7065245509148, -0.9963068962097, -0.5637058019638, -0.8149841427803, 0.2983542084694, 0.7507691383362, -1.0818096399307, 0.8975840210915, 0.3059270083904, -0.4404968023300, -0.0541247650981, 0.6570038199425, -0.9963989853859, 0.5812402963638, -2.3864266872406, 0.0233724247664, -1.1098864078522, -1.2885718345642, 1.1895262002945, -1.0963741540909, -1.5901885032654, -0.3000001311302, -1.6303434371948, -0.3344816863537, -0.0454509146512, -1.0446181297302, 0.4847106933594, -0.2337160855532, -0.2039847820997, 0.0192866008729, -0.5711424350739, -0.3045389354229, -0.1681123226881, -0.3942380547523, 0.1904921829700, 0.1107081249356, 0.2450779378414, -0.2769590616226, 0.6029660105705, 1.5331770181656, -1.2679502964020, 0.5259093642235, 0.0547947548330, 0.5072699785233, 0.2098754942417, -0.1897475123405, 0.5341685414314, -0.1168934479356, -0.8211361765862, 0.4139743745327, 0.3791519403458, -0.4981264770031, -0.4334588646889, -0.1616151034832, 0.6119305491447, 0.6704463958740, 1.0897337198257, -0.3361724615097, 0.3461613953114, 0.1814541965723, 0.9500969648361, 0.2153165042400, 0.2319018244743, -0.3637519776821, 0.0770464465022, 0.8289796113968, 2.7403547763824, 0.2996961772442, -0.0350641310215, 0.3541300892830, -0.4653380215168, 0.1994258165359, -0.6781110167503, -0.5398538708687, -0.6582941412926, 0.0528498366475, -1.1013238430023, -0.6278231143951, 0.1696101874113, -0.1731908619404, 0.3633092641830, 0.0281633194536, 0.2192628979683, -0.8582737445831, -0.6409864425659, -0.2066190987825, -0.8671674132347, -0.5366097688675, -0.1418529748917, -1.4942848682404, -0.1583100259304, -0.1291145980358, 1.0425237417221, -0.2819994091988, 0.8981947302818, -1.1390978097916, -0.2895386517048, -1.0044152736664, 0.1335412114859, 1.3027189970016, 0.2653136849403, 0.0283693838865, 0.6866162419319, 0.2523813545704, 0.8377979993820, 0.3105447590351, 0.6234512925148, -0.8447630405426, -0.0906840711832, -0.0606865510345, -0.8402838110924, -0.5824156403542, -1.2405418157578, -0.9340928196907, 0.6330564618111, 0.0266653466970, -0.1367166191339, -0.7870684266090, 0.1435117274523, 1.0713927745819, 1.4129425287247, 0.8534643650055, -0.9398210048676, 0.8407800793648, 0.9057589769363, 0.9097608923912, 0.3935396671295, -1.2181462049484, 0.3864000141621, 0.5263517498970, 0.0112064722925, 0.6389228701591, -0.2060049921274, -0.4889841973782, -0.3952612876892, -0.8376764059067, 1.1004234552383, 0.6369177699089, 1.1496835947037, -0.2719512283802, -0.2530626952648, -0.1241211816669, -1.9587488174438, 0.5206824541092, -0.7720225453377, 0.3431090712547, 0.1753889322281, -0.4715742170811, -0.4978373348713, -0.0257138460875, -0.8934764266014, -0.4860639572144, 0.0513701476157, -0.3594383299351, -0.7618472576141, 0.2545228004456, -0.5596657991409, 0.3045116662979, 0.2098046839237, 0.2403629422188, 0.1739849597216, -0.3097152113914, 0.7012559771538, -0.4629494249821, -0.4406953752041, -0.6722546815872, -0.0447802580893, 1.7092308998108, 0.7002910375595, 0.5588547587395, -0.1814105063677, -0.7688683271408, 1.3610779047012, 0.2595458030701, 1.2378674745560, -0.0380795858800, -0.2391875982285, -0.5612106919289, -0.3106806576252, -0.8743005394936, -0.2899771630764, 1.2630405426025, -0.6367199420929, -0.8039867281914, -0.4264397919178, -0.2243943661451, -0.0731679201126, 0.0889705941081, 0.0701872259378, -0.3165155351162, -0.5390570759773, 0.2858492732048, -0.4081931412220, 0.6150898933411, 1.1631501913071, 0.5097435116768, -0.4650994539261, 0.3484955132008, -0.5154312252998, 1.0487130880356, 0.7109977006912, 0.2166951894760, 0.4523251354694, -0.0127487918362, -0.1003616154194, -0.0696100741625, 0.0846161097288, 1.1061073541641, 1.2095935344696, -0.1556583344936, -0.2245115637779, 0.0570097342134, 0.4259546995163, 0.0762374922633, 0.4704073667526, -0.8560659289360, -0.0214754901826, 0.7309745550156, 0.5621961951256, 0.2494548708200, 0.5478697419167, -0.7785153985023, 0.6358305811882, 0.1546346992254, 0.4104738831520, -0.3666002452374, 0.6271478533745, -0.1916735023260, -0.5087330937386, -1.1340320110321, -0.1467912495136, -0.1543954014778, 0.1459027826786, 1.2201315164566, 0.3598052561283, -0.4073075652122, -0.4550424814224, -0.2162229716778, -0.0811938196421, 0.2397133708000, -0.5065375566483, 0.6293908953667, 0.0881405249238, 1.5415872335434, 0.8999798297882, -0.6756058931351, -0.1674371063709, 0.1951812356710, 0.2010868787766, 0.5777377486229, -0.4697198271751, 0.6942800879478, -1.0034531354904, -1.0808091163635, 0.1199303418398, 0.2186171263456, 0.4294740557671, -0.1246851980686, 0.4220237433910, 0.4536194801331, -0.0994594618678, 0.2959167063236, 0.3021959066391, -0.1292788833380, -0.0877670422196, 0.2975257337093, -0.6303946971893, -0.2016608566046, 0.0876022279263, 0.1060769706964, 1.5658124685287, 0.0276273954660, 0.5937657356262, -0.2013958841562, -0.4914226830006, 0.6750816702843, 0.5708030462265, 0.0112799564376, -0.1146500259638, 0.8308130502701, -0.2684749960899, -0.1314499527216, -0.4103703796864, 0.2514950037003, 0.2341728806496, -0.7723791599274, -1.0523092746735, 0.6706511974335, -1.2324064970016, -0.3339781463146, -1.0865216255188, -0.0310725551099, -0.7277995347977, -0.0654963403940, -1.1302514076233, -0.1171350628138, -0.4853753745556, -0.6353586316109, 0.1549262851477, -0.2352717965841, -0.0612840689719, 0.1441190242767, -0.0336347371340, -0.8105146288872, 0.0926326215267, -0.4967429935932, -0.7066075801849, 0.5778082013130, -0.4685761928558, 0.2645774483681, 1.0498176813126, -0.4974363446236, 0.1347083747387, 0.6092570424080, 0.2529093325138, 0.0975678637624, 0.0584326721728, 0.6686538457870, 0.1332443654537, -0.9732545614243, 0.1231767609715, -0.9027673602104, 0.3959964811802, -1.5373698472977, 0.5647925138474, 0.9561710953712, 0.5127480030060, -0.7928110361099, -0.7910474538803, -0.8536031246185, 0.4579492211342, -0.1445804983377, 0.2607186734676, 0.6276504993439, 0.5019562244415, -0.0175251886249, -0.0600113496184, 0.0280693732202, 0.4618003368378, -0.0626987740397, -0.4694870710373, 0.1064789816737, -0.0511838980019, -0.7676291465759, 0.3331571817398, -0.0672773718834, -1.1218060255051, 0.5020413398743, 0.0823458060622, 0.3107982873917, 0.0486258417368, 0.1799129992723, 0.3032778799534, -0.1473477631807, -0.7549837827682, -1.0425335168839, -0.0628405362368, 0.3158583343029, 0.3976043462753, -0.1337494403124, -1.0684047937393, 0.0394389592111, -0.1909436732531, 2.8181397914886, -4.2894058227539, 0.1416217088699, 0.6029376387596, -0.0743592306972, 0.5297232866287, 0.1127682402730, -0.1543218642473, -0.1253583133221, 0.5316526293755, 0.0534085780382, -0.2744908034801, -0.2629165649414, 0.0601536594331, -0.1226236820221, 0.3261798620224, -0.0308712422848, -0.1957083046436, -0.3906762599945, 0.0778234601021, 0.1978409290314, 0.3359676897526, -0.3681793510914, 0.1575739383698, 0.3934684693813, 0.0828367322683, -1.2303503751755, -0.1292452812195, 0.0684331506491, 0.1843949109316, -0.0145378950983, 0.1431996077299, -0.4374468922615, -0.3487637042999, -0.0810450240970, -0.1229912415147, -0.1963399499655, -0.1860668808222, -1.0612698793411, 0.1331644505262, -0.8132818937302, -0.3468196094036, -0.2990610301495, 0.1776360869408, 0.0367781333625, -0.3515981733799, 0.1758353114128, -0.3284549713135, 0.3940471708775, -0.5833748579025, 0.5981380343437, -0.1952454894781, 1.8059490919113, -0.5337425470352, 0.8712696433067, -0.1637976765633, 0.6138955950737, -0.1397829055786, 0.6061700582504, -0.2352601885796, 0.2360442727804, 0.1207255646586, 1.3646245002747, 0.7902656793594, 0.7875536084175, 0.0925470963120, 0.0029600118287, 0.4337632954121, 0.3490875065327, -0.7785840630531, -0.2721421718597, 0.5535148978233, 0.1884890198708, -0.6733865141869, 0.5902081727982, -0.2509070932865, 0.3161477148533, 0.1866622567177, -1.8124216794968, -0.0729577094316, -0.1025429815054, 0.3376185297966, 0.1915270835161, -0.3290028870106, 0.0685569047928, 0.6286797523499, 0.1637278050184, 0.1229951232672, -0.1982588022947, 0.2882766425610, -0.2717295587063, -0.4170989990234, 0.4364697039127, 0.3081197142601, -0.0125014716759, 0.0787710398436, -0.6539955735207, 0.6522370576859, 0.2762514352798, -0.1061050891876, 0.2157362401485, -0.6184037923813, 0.0537116937339, -0.3735566139221, -0.1355272680521, 0.1206807568669, -0.0694908425212, 0.1146619766951, -0.3665598332882, 0.0585834719241, -0.2792162299156, 0.3115683794022, -0.8393741846085, -0.2178632467985, 0.1351535916328, -0.4630258977413, 0.3934334218502, 0.1091019883752, -0.5268314480782, -0.1904219985008, 0.0949829071760, -0.2465676218271, -0.1316467374563, 1.4534184932709, -2.3687894344330, -0.2726650238037, -0.0875112041831, 0.4224892854691, -0.4465274810791, 0.3574364185333, 0.3228053748608, 0.0670262649655, 0.0110940011218, -0.2209879904985, -0.0723962485790, 0.3941594362259, -0.3679777085781, 0.1443939507008, -1.1506129503250, -0.4423198699951, 0.2359952479601, -0.1960765421391, 0.9551994204521, -0.1510012894869, -0.3387485444546, -0.1650156676769, -0.4361572265625, 0.0945890545845, -0.2482462823391, 1.2068308591843, 0.9409362673759, -0.0776563733816, 0.3978672325611, -0.0714560076594, 0.1135298013687, 0.2258759737015, 0.2751035392284, -0.1334357410669, -0.2073537856340, -0.6402699947357, -0.0025809318759, 0.2647770047188, -0.0996643304825, -0.7314169406891, -0.0497011840343, 0.7820394039154, 0.5536187291145, 0.3250114321709, 0.4394386112690, -0.4345244169235, 0.1364862918854, -0.0048564393073, 1.0208719968796, 0.0083070592955, 0.5182234644890, 0.0225263722241, -0.0900138914585, -0.0634525269270, 1.2180624008179, 1.1021379232407, 0.3031272590160, -1.0694788694382, -0.1033993735909, 0.2595926523209, 0.4415265619755, -0.6023744344711, 0.3004655241966, -1.0027680397034, -1.2479747533798, -0.2763391733170, 0.7453752756119, 0.0376317650080, -0.7740347385406, -0.0769066661596, 0.1374388784170, -0.6223935484886, 0.3229098320007, -0.6169801354408, 0.2275470793247, -0.6597251296043, -0.1083663329482, 0.2413029074669, -1.1782469749451, -1.4051153659821, -0.2710951268673, -0.1267219483852, 0.8787766098976, 0.4936684072018, 0.2640002965927, -1.2076554298401, -0.0399989001453, 0.3072806894779, -0.0333754606545, -0.4349814355373, 0.3996511995792, -1.2045640945435, 0.3318010270596, 0.0048196143471, -0.5206862688065, 0.3013959825039, -0.1382660865784, 0.0168308243155, -0.4563629925251, 0.0400282777846, -0.3844001293182, 0.0487519167364, -0.7003009915352, 0.9442344307899, 0.0731331855059, 1.2011358737946, 0.9777219295502, -0.7294742465019, -0.6575477719307, 0.0695724710822, -0.4764113128185, -0.5215346217155, 0.0020278058946, 0.6106085777283, 0.6001969575882, 0.3423829376698, -0.3484803438187, -0.5793308019638, -0.2241977304220, -0.4592071473598, -0.0991946160793, -0.4934869706631, -0.1056368425488, -0.0619589649141, -0.4254030287266, -0.1678920686245, 0.0495141930878, -0.3139277398586, -0.5414975881577, -0.3622255921364, 0.6919982433319, -0.3146313428879, -0.3792359828949, -0.8744058609009, -0.4283622205257, -0.6879597902298, 0.2940586209297, -0.0929667875171, -0.7758460044861, 0.9981334805489, -0.2190255373716, -0.2141733616590, -0.0743979364634, 0.4209432899952, -0.6211310029030, -0.7218142151833, 1.2357180118561, -0.7068127393723, -0.0163298882544, -0.1043826863170, -0.2096290737391, -0.1049316376448, -0.9502903819084, 0.5025112628937, 0.2306119650602, -0.0313083454967, -0.0917476564646, 0.6678316593170, 0.2122862637043, 0.6779974699020, -0.4050236940384, 0.4649319946766, -0.1497354656458, -0.2393520474434, 0.6305029392242, -0.5954643487930, 0.6430762410164, -0.4703941941261, 0.3895533382893, -0.0346052274108, 0.1494163721800, 0.5744780302048, 0.1189709678292, -0.5925707221031, -0.7529169321060, -0.5049949884415, 0.5498465895653, -0.4692103862762, 0.5769613981247, 0.1712313592434, 1.6265152692795, 0.0572149716318, 0.0561937764287, -0.6361475586891, -0.3649264276028, 0.7491816878319, -0.2806293666363, -0.0913484916091, -0.2739587724209, 0.8625143766403, -1.2829837799072, 0.9117331504822, 0.8231617808342, 0.2483472079039, -0.5402526259422, 0.6365972757339, 0.0177288893610, 0.2968951761723, 0.4158016145229, -0.8428258895874, 0.0678758174181, 0.6709855794907, 1.0853909254074, -0.6930571198463, -0.1600223183632, -0.3706671595573, 0.2460174560547, 0.6231365799904, -0.4565262198448, -0.7479406595230, 0.3616814911366, 0.2904931008816, 0.6103214025497, -0.8901049494743, 0.4001547098160, -0.5505520105362, 0.6704733967781, -0.6562505960464, -0.8983565568924, 0.4325368404388, -0.6310749650002, 0.4799080491066, -0.5661507248878, 0.5447663664818, -0.4363050162792, 0.0094683412462, -0.8707893490791, -0.0419242605567, -0.1477304548025, 1.5010232925415, 1.1239943504333, 0.3484299778938, -0.4420839548111, 1.4539970159531, 0.1213218122721, -0.7446370720863, -0.5928092598915, 0.1259886622429, 0.9495543837547, -0.7703599929810, 2.5357241630554, -1.4387396574020, -0.5187084078789, 0.1438741981983, 1.0405669212341, -0.1926939785480, -1.4338099956512, -1.0847662687302, 0.4661270976067, -0.5916145443916, 0.4686506390572, 0.3779961466789, 0.9172556996346, -0.4918869435787, 0.9664550423622, -0.3559012413025, -0.0201038997620, -1.1357189416885, 0.2774687409401, 0.1319994777441, -0.2151365876198, 0.4847879707813, -0.2018781900406, 0.4064133763313, 0.8834459781647, -0.3726670444012, 0.0247732810676, -0.5309574007988, 0.6444604396820, -0.2890777587891, -0.1260517835617, 0.8699260950089, 0.1864422410727, 0.9306932091713, 0.3022070229053, -0.2378678768873, -0.7091988921165, -0.8305531740189, 0.9669975042343, -0.0710130184889, -0.2323193699121, -0.0644284486771, 0.3235304653645, -0.0238221678883, -0.4720077514648, 0.5859656333923, -0.2000862658024, -0.5556211471558, 0.4486416876316, 0.0366100445390, 0.0487202778459, -0.7927728891373, -0.2393301427364, 0.2050083279610, -0.7004272937775, 0.4464288055897, 1.4466906785965, 0.3316382765770, -0.2604172825813, -0.0717456191778, -0.6624131798744, -0.2365474104881, 1.3812279701233, 0.6599105000496, 0.3234552145004, -1.4797919988632, 0.0993746295571, -0.0226938929409, 0.8201854228973, -1.4089723825455, -0.7039433121681, -0.2765144407749, -0.4405883550644, 0.0525849051774, -0.3224611580372, 0.0674360021949, -0.5763211846352, 0.9247651696205, 0.4746619760990, -0.8742616176605, -1.3167166709900, -0.8239150047302, 0.1406772583723, -0.0644189268351, 1.0056451559067, 0.7990604639053, 0.4680867195129, 1.4264853000641, -0.4332261085510, -1.6084278821945, -0.1535337567329, 0.5587763190269, -0.3997149169445, 0.0989398658276, -0.3187802433968, 0.4243444800377, -0.5708360075951, 0.8272459506989, -0.5933340787888, 0.2381453961134, -0.5053284764290, -0.3562299609184, -1.1540938615799, -0.7406843900681, 0.2380583882332, -0.6981495618820, -0.7851788997650, -0.5327523350716, 0.1776694506407, 1.6450010538101, 1.1384005546570, 0.3128803968430, 1.4097008705139, 0.5636281371117, 0.0897277668118, 0.0257639531046, 0.1206299215555, -0.8128642439842, 0.8400569558144, -0.0621455945075, 0.2689665257931, -0.7470350861549, 1.1994447708130, -1.5385973453522, -0.1432032585144, 1.4939526319504, -0.1950242221355, -0.6514965295792, 0.8906174302101, -0.9128384590149, -0.9326260685921, -0.0452729910612, 0.8108968734741, -0.2158115506172, 0.5282320380211, 0.5966346859932, 2.7093729972839, 0.1197282671928, -2.8190927505493, 1.7283604145050, 1.0980888605118, -0.1700672656298, -0.2445776611567, -0.2653751373291, 0.7601984143257, -0.4977355003357, -0.6424517035484, 0.1050993651152, 0.1849427372217, 0.0880420207977, 0.1329488754272, 0.3100040555000, 0.4119807481766, -0.0559271164238, -1.6380646228790, 0.4352680742741, 1.0593761205673, 0.7071022987366, 0.7933305501938, 0.7896559834480, -0.6879741549492, -1.0726597309113, 0.0555777400732, 0.4441101849079, -1.2685338258743, 0.1434335708618, -0.6088495850563, 1.0422549247742, 1.7175853252411, -0.5204454064369, 0.4300876259804, 0.0132790366188, -0.0518589466810, 0.2761567831039, 0.5566555857658, -0.5055204033852, 0.3231317400932, -0.4506394267082, -0.1161341071129, -0.2340560406446, 0.7136917710304, -0.2372219115496, -0.2716726362705, 0.3456789851189, -0.1228646337986, 0.7910365462303, 0.5223020911217, 0.8470262885094, -0.2373447269201, -0.6004529595375, 0.3385306298733, -0.5163707733154, -0.3969582319260, -0.3185863792896, -0.5747643709183, 0.5825407505035, -0.0699114352465, -0.3674707710743, 0.4610153138638, -0.1175033897161, -0.9112499356270, -0.3973143398762, 0.0968415215611, -2.8358514308929, -0.3777236938477, -6.9190902709961, -0.3195301890373, -0.2212242037058, 0.0706903859973, -0.4466952681541, 0.4224352240562, -0.1508074849844, 0.3522899150848, -0.3198371827602, -0.0825607180595, 0.4004130065441, 0.1552356183529, 0.1834919601679, -0.1163524016738, 0.0476230606437, -0.3270787894726, 0.1726303994656, 7.8158721923828, -0.2810909152031, 0.2133910953999, -0.0493085011840, -0.3387898802757, 0.3232313692570, 0.0405794531107, 0.2575812339783, -0.1001477390528, -0.1054475381970, -0.2393660396338, 0.0272235460579, -0.0250038113445, -0.2666413486004, -1.0262897014618, 0.0455420687795, 0.1532583981752, 0.2333607971668, -0.1552699953318, 7.9357800483704, -0.2108629345894, 0.5190123915672, 0.0643086731434, 0.6876457929611, -0.1603544801474, -0.0691480562091, 0.7544972896576, 0.4154141843319, -0.3999659419060, 0.1065796688199, -0.1186367124319, 0.0481505133212, 0.3625582754612, -0.6609134674072, 0.1308855861425, -0.0444450564682, -0.2574966549873, -0.0473339930177, 0.6794248223305, 0.3159745335579, 0.0574939064682, 0.0105128036812, 0.0195170938969, -0.2937229275703, -0.2861737012863, -0.0138546954840, 0.2237962484360, 0.2070069015026, 0.5473210811615, -0.2715065479279, 0.2673676908016, 0.1890009343624, 0.2533363997936, 0.1286536455154, 0.1970666199923, 0.2638903558254, 0.2113133221865, -0.5002433061600, -0.0358959585428, -0.5249100923538, 0.2289825528860, 0.2735480070114, 0.2357630282640, -0.4670439362526, 0.1312306970358, -0.1359960585833, 0.2912912070751, 0.3314490616322, 0.2388863861561, -0.1122934743762, -0.2443466037512, 0.0663353875279, -0.4278942048550, -0.0133133232594, 0.2102742046118, 0.4914528429508, -0.4702039361000, 0.6815019249916, -0.2609781920910, 0.1984097063541, -0.9043171405792, -0.1908044070005, -0.3013103008270, -2.1636192798615, -0.0356760360301, -0.2306430786848, 0.2796025276184, 0.3185741603374, -0.8055065274239, -0.1988289058208, -0.1611241698265, -0.3529489934444, -0.0628487765789, 0.1855325549841, -0.3711067140102, 0.3377792835236, 0.3664318025112, -0.2954967916012, -0.0840002670884, -0.0076698618941, -0.7135354280472, 0.8522388339043, -0.4023674726486, 0.1764735728502, -0.2116082012653, -0.0362072661519, 0.1165505349636, -0.4612286388874, 0.1609563529491, 0.0904754623771, -0.2662492394447, -0.7779398560524, 0.0343915522099, -0.3502301275730, 0.1524178832769, -0.0312126055360, -0.0121009033173, 0.1947052180767, 0.0519555136561, -0.3256827890873, 0.0988105833530, 0.1148362904787, -0.0443948656321, -0.6459718942642, -0.0135701205581, 0.2384156137705, 0.1941964328289, 0.2275100648403, -0.3401450514793, 0.0100873680785, 0.4726138710976, 0.0669508799911, -0.3532331585884, 0.1101272702217, -0.2389619797468, 0.4106791615486, 0.6229724884033, -0.3388111591339, 2.2526433467865, 0.9179909229279, 0.2520734369755, 0.0113074714318, -0.3435736298561, -0.1052590385079, 0.0855842977762, -0.1145168766379, -0.2746100425720, -0.4965032339096, -2.5932524204254, -0.8388246893883, -0.7710682153702, -1.6050635576248, -0.4152441024780, -0.1894034445286, 0.9569801688194, -0.5930100679398, -0.0771230161190, -0.4019544422626, -0.2818441689014, 0.2178076952696, 0.2123178094625, 1.2099645137787, 1.0475476980209, -1.2823691368103, 1.0651625394821, -0.0595605447888, 0.0145135251805, -0.2587802410126, -0.0480250604451, 0.3264081478119, 1.1352235078812, -0.1155178472400, 1.2560583353043, -0.5710175037384, 1.2976150512695, 0.5429528355598, 0.8479036092758, -0.1347651928663, -0.3438935875893, -0.2249138802290, 0.7390063405037, 0.8771403431892, 0.2379292994738, 0.4277018904686, 0.4113084673882, -0.1410109698772, 1.2466720342636, -0.2838231921196, 