//Numpy array shape [182]
//Min -7.562489509583
//Max 6.921212196350
//Number of zeros 0

#ifndef OUT_PROJ_BIAS19_H_
#define OUT_PROJ_BIAS19_H_

#ifndef __SYNTHESIS__
layers_1_ffn_out_proj_bias_t out_proj_bias19[182];
#else
layers_1_ffn_out_proj_bias_t out_proj_bias19[182] = {-0.42934593558311, -4.55938005447388, -1.73267769813538, -4.05548381805420, 2.20713353157043, -3.92106723785400, 0.64266806840897, 1.73199558258057, -0.82522618770599, 1.56187939643860, -1.33971560001373, 0.12395262718201, 1.74376142024994, 0.91466754674911, 0.33729121088982, 0.24440449476242, 0.10730433464050, -6.71120405197144, 0.19028422236443, 0.25669854879379, -1.20805633068085, -1.40973889827728, -0.14091742038727, 0.65827846527100, -0.40604478120804, -1.24128103256226, -0.67733800411224, -5.35222101211548, -1.57633090019226, -7.56248950958252, -1.08513545989990, -2.35392856597900, 0.09197112917900, 1.95081365108490, -0.85851317644119, 2.28903603553772, 1.23682665824890, -1.53586935997009, 2.11081409454346, 4.42497348785400, 1.74912691116333, -0.96336668729782, -0.08703171461821, -0.67661070823669, -1.04696273803711, -0.64568144083023, 5.72313737869263, 0.74576622247696, -0.01509829238057, 0.74199706315994, 1.26879715919495, -0.71635502576828, 0.06416441500187, 1.27530086040497, 0.27499949932098, 1.21737718582153, -2.48694705963135, -1.85143458843231, 0.05710729584098, -1.42683291435242, 3.58615016937256, 1.30918383598328, -2.73270797729492, -1.64795875549316, 3.83437848091125, 2.39384746551514, 1.53512775897980, -0.90013921260834, 1.89470565319061, 0.55917674303055, 2.28755736351013, -0.38681530952454, -0.19509960711002, 1.12767469882965, 1.11000406742096, -0.38897725939751, 2.09502077102661, 0.74624449014664, -0.52785432338715, -3.22308969497681, -0.62800365686417, -1.02487778663635, 6.40748453140259, 1.60079383850098, -0.36539289355278, 2.09637737274170, 2.81106972694397, -1.33773314952850, -0.87717509269714, -0.76196289062500, 1.23188340663910, 1.20619738101959, 0.24117274582386, -2.25711321830750, 0.86419075727463, 2.75137996673584, -0.28470009565353, -2.06206059455872, 0.32648018002510, -0.55474102497101, -0.08100392669439, -1.37420082092285, 1.00060856342316, 0.04747141897678, -0.04565776139498, -2.17193579673767, -1.77996456623077, 0.22650723159313, 1.70550835132599, -1.07345581054688, 2.19267296791077, -0.54419904947281, 0.45521849393845, 1.69461929798126, 0.16079042851925, 0.23755632340908, 0.68659049272537, 1.16688811779022, -4.56142425537109, -0.67119187116623, -0.69255065917969, -0.58804023265839, 1.95565819740295, 1.81354725360870, -0.91404652595520, 1.53493034839630, -1.03494608402252, -2.14927244186401, -0.05889248475432, 2.68846178054810, 1.81159687042236, -0.55886685848236, 1.28678572177887, 6.02282667160034, -1.44309306144714, 0.27383762598038, 1.23697531223297, 3.09258532524109, 1.82050967216492, 0.52544528245926, -1.73599004745483, 0.12539811432362, -2.19099712371826, 3.83111953735352, -0.57743889093399, -0.09562277793884, -0.82276368141174, -3.02843308448792, -0.99043697118759, -0.55234724283218, -2.73148131370544, 2.21413755416870, -1.28960180282593, 0.53791666030884, -2.03099870681763, -2.13248157501221, -1.69288504123688, 0.38613623380661, -2.26359844207764, -0.44746661186218, -0.57819396257401, 0.37713518738747, -2.21289372444153, 0.48686790466309, -0.39135468006134, 0.63260257244110, -0.55354195833206, 1.35706603527069, -1.06338572502136, 2.58709454536438, -0.49356687068939, -2.20894980430603, 1.09728229045868, 0.94782114028931, 1.46297347545624, -0.49078527092934, 0.61804038286209, 0.30987653136253, -1.00885510444641, -1.33670306205750, -1.36078441143036, 6.92121219635010};
#endif

#endif
