//Numpy array shape (182,)
//Min -3.823431015015
//Max 3.122236490250
//Number of zeros 0

#ifndef OUT_PROJ_BIAS22_H_
#define OUT_PROJ_BIAS22_H_

#ifndef __SYNTHESIS__
layers_2_self_attn_out_proj_bias_t out_proj_bias22[182];
#else
layers_2_self_attn_out_proj_bias_t out_proj_bias22[182] = {0.887754917144775, 0.390631705522537, 0.778344929218292, 1.802587032318115, -0.830234050750732, 1.017634749412537, 0.960508108139038, -0.243004649877548, -0.312736272811890, 0.881613254547119, -1.348919868469238, 2.821091413497925, -0.207835748791695, 1.104134559631348, -0.621063411235809, -0.998019218444824, -2.276643037796021, 0.481442391872406, 0.917400717735291, 0.290993958711624, 0.083800725638866, -1.585458397865295, -0.637416541576385, -0.320057809352875, -0.550109088420868, 0.305135309696198, 0.438721656799316, -0.403018504381180, -0.146288692951202, -3.050897359848022, 3.122236490249634, -0.751415431499481, -0.004164221696556, 1.015709280967712, -0.888567805290222, 1.976444721221924, 0.714872181415558, 0.316140025854111, -1.869397640228271, 0.275450825691223, -0.916922986507416, 2.282576084136963, -1.311115264892578, 0.142527297139168, -3.370411634445190, -1.567805647850037, 1.450903296470642, -0.553726553916931, -0.396099805831909, -0.760507822036743, -1.017672777175903, -0.837470293045044, -0.102820388972759, -0.105689652264118, 1.394825935363770, -0.065727412700653, -0.474155813455582, 0.155887395143509, 0.566535949707031, 0.458692789077759, -1.028385877609253, -1.657756209373474, -1.033641934394836, -3.823431015014648, -0.796320736408234, 1.636818051338196, -1.281778335571289, -0.443128764629364, 2.525679588317871, -0.871981739997864, 1.161795377731323, -0.494224667549133, 1.101414918899536, -0.814621090888977, 0.558625876903534, -0.172374591231346, 0.650106012821198, -0.146164864301682, -0.592513859272003, -1.450188517570496, 0.496851086616516, 0.935266256332397, 1.136692285537720, -0.284609019756317, -2.248295307159424, -0.774169504642487, -0.554268479347229, 0.561432838439941, 0.259121865034103, -2.582506179809570, 0.703091084957123, -0.459887117147446, 0.677056074142456, 1.845693707466125, 1.642898678779602, 2.461869239807129, -0.188054352998734, 0.560796380043030, -1.019163250923157, 0.130091056227684, 0.097502171993256, 0.678367555141449, 0.263031870126724, -0.007816565223038, -0.394405037164688, -0.017688455060124, 1.011551380157471, -0.454769611358643, 1.470208048820496, 2.346070766448975, -0.343575060367584, 1.635976791381836, -0.491528928279877, -1.272825002670288, -0.118283405900002, -0.324205428361893, -0.998789429664612, -0.841622292995453, 0.596133351325989, -0.427429080009460, 1.030699133872986, -0.452766507863998, -0.009956691414118, -0.155695617198944, -0.575305640697479, -0.533338010311127, -0.094372533261776, 0.171024784445763, 1.672978162765503, -0.380402565002441, 0.714391887187958, 0.981568455696106, 0.831300795078278, 1.211724519729614, -0.857282757759094, 0.283606410026550, 0.674984991550446, -0.348087400197983, -0.693310379981995, 1.061519026756287, -0.100223429501057, -0.030704878270626, 0.303781300783157, 2.140105247497559, -1.479584097862244, -0.692354500293732, 0.835699021816254, -3.562576055526733, 0.880498290061951, -0.069336600601673, 2.387036561965942, 1.139957785606384, -0.610471546649933, 0.124499216675758, 1.210129380226135, -1.196975946426392, 0.250078469514847, -3.722912311553955, -0.490736991167068, 1.013908028602600, -0.679800987243652, 0.673328399658203, -0.509616196155548, -0.905953347682953, -1.595586061477661, -0.455718368291855, -0.028764376416802, 0.372260153293610, -0.493596315383911, -1.721206545829773, -0.102344900369644, 0.276305735111237, 0.066550381481647, -0.840465486049652, -0.033637378364801, -1.586556315422058, -0.533303201198578, -0.064947761595249, 3.121536254882812, 0.617355763912201, 0.341590791940689, 1.090745687484741};
#endif

#endif
