-0.21904885768890, 1.55286133289337, -0.23084993660450, 1.38240396976471, -0.15859004855156, -0.29928800463676, 0.70761877298355, -0.77372062206268, -0.82165753841400, 0.81729251146317, -0.29517468810081, 2.13546729087830, 0.41935393214226, 0.45536294579506, -0.04009099677205, 0.06198393553495, -0.78923088312149, 1.00737237930298, -0.89786958694458, 0.05054072663188, -0.38894417881966, -1.35138082504272, -0.79000687599182, -1.11028695106506, -2.02828812599182, 0.81462222337723, 1.51076436042786, -0.45001256465912, 0.07703977823257, 0.32977902889252, -0.96336424350739, -0.19125963747501, 1.12321782112122, -1.12772607803345, -0.90119171142578, -0.75793081521988, -0.86989128589630, -1.36675930023193, -1.70546567440033, 1.50431978702545, -0.71357601881027, -0.67474365234375, 1.39316987991333, -0.22463688254356, -1.58967852592468, -0.49427518248558, 0.57037436962128, -0.34631121158600, -0.43150281906128, -0.45880338549614, 1.54554426670074, 0.01599456369877, 2.19024920463562, 1.36434209346771, 0.56600141525269, 0.34488776326180, -1.19401872158051, 0.28278982639313, -3.01115274429321, 0.12508508563042, 1.18925476074219, -0.24419067800045, 1.32865309715271, 1.20976555347443, -1.31117713451385, 0.27056133747101, -1.03630626201630, 0.40823605656624, -0.21852204203606, -1.19461643695831, 0.77077603340149, 1.41172254085541, -1.76810562610626, -1.58511781692505, -0.24058403074741, 1.79372215270996, 0.31927505135536, 0.32747119665146, -0.58650732040405, -3.13742232322693, -1.49229478836060, -1.04178440570831, 1.30778706073761, 0.61771112680435, 0.17175623774529, 0.27155244350433, 0.40604248642921, 0.97415745258331, 1.10351479053497, -1.29593312740326, 0.93535900115967, 1.20822393894196, 0.98733460903168, -0.39392209053040, 0.05808376148343, -1.07763624191284, -0.60852181911469, -0.55570739507675, -0.68295478820801, -0.00524237845093, -3.02580809593201, -0.37325176596642, -0.59843242168427, -0.82443571090698, 0.09499345719814, 1.75123822689056, 1.00076735019684, 1.16200101375580, 0.66507071256638, -0.82974487543106, -0.47883966565132, -2.17997479438782, -0.84229850769043, -0.34775120019913, -0.80406558513641, -0.44800165295601, -0.11804711073637, -0.60400569438934, 1.73373663425446, -0.52377307415009, -1.80820941925049, 0.71374696493149, -2.43718409538269, 0.27831229567528, 1.82184410095215, 1.13117396831512, 0.22965461015701, 0.41503039002419, -1.13740801811218, 0.39972800016403, 0.95014452934265, -0.55243796110153, -0.73691797256470, -1.32975482940674, 1.30250978469849, -0.88559854030609, 0.48492059111595, -0.24505779147148, 1.39729189872742, 2.62559390068054, -0.53321164846420, 0.33856052160263, 0.28259575366974, 0.20213495194912, -0.64941346645355, 2.09702277183533, -0.40762966871262, -0.15187023580074, -0.87873113155365, -0.46067136526108, 1.12588679790497, 0.82426065206528, -0.14858047664165, 0.15131242573261, -0.96164739131927, -1.44709980487823, -0.96109312772751, -0.46661019325256, 0.69848722219467, 1.43094241619110, 1.09834146499634, -2.33732748031616, 0.10031417012215, -0.70391458272934, -0.30463418364525, 0.49068233370781, -0.38570088148117, -0.33760172128677, 0.73447352647781, 0.47742205858231, -0.79347288608551, 0.65601694583893, 1.61727774143219, 2.56326341629028, -0.77826112508774, -0.56360542774200, 0.21448488533497, 1.71961474418640, 0.51928853988647, 0.14046950638294, -0.55431067943573, -0.10990324616432, 1.43411231040955, -0.78906148672104, -0.41221597790718, 1.07947051525116, -0.16783168911934, -0.92256122827530, 0.12821100652218, -1.29727518558502, 0.38741040229797, -1.70197844505310, 1.63074672222137, -3.76347494125366, -0.20680743455887, 0.26481994986534, -0.12927302718163, 0.30395987629890, -1.60579562187195, -0.97392445802689, 1.55755162239075, -1.75495731830597, -3.31495857238770, -0.35319152474403, 0.06863312423229, -1.36295163631439, -0.14678566157818, -1.82775866985321, -1.30914759635925, -0.90966391563416, 1.19837498664856, 0.77969855070114, 0.02507753856480, -0.30567499995232, 0.06487063318491, -2.18774390220642, -0.26902255415916, -1.16423392295837, 1.30790221691132, 0.07946836203337, 0.12286514043808, 0.63700646162033, -0.52086466550827, -1.34021687507629, 1.23178350925446, -0.58846300840378, 0.30999508500099, 1.49900126457214, -0.64711242914200, -1.30244731903076, 0.36552050709724, -0.22471749782562, 0.55803412199020, -0.94204050302505, -0.10182705521584, -1.16359913349152, -0.98204475641251, -0.81998115777969, 0.60155653953552, 0.15788555145264, 0.30667471885681, -0.28507101535797, -0.04703379422426, -0.61746400594711, -1.45240318775177, -0.24830321967602, -1.00142371654510, 2.59577703475952, 0.49798774719238, 0.62749391794205, 0.38292136788368, 2.70231819152832, 0.43544086813927, 0.84446161985397, 0.49151480197906, 1.33905982971191, -0.90277200937271, -0.96563971042633, 0.94646179676056, -0.07951418310404, 0.74799215793610, 0.81864118576050, 1.06049311161041, 1.39814448356628, -0.25875997543335, 0.89270180463791, -3.29236745834351, 2.43016791343689, -0.04231776669621, -1.11547422409058, 0.95910084247589, 0.18850451707840, -0.40070673823357, -1.55584549903870, 0.91113990545273, -0.36707836389542, 0.38427892327309, 0.83853125572205, -0.15689952671528, 0.01588298380375, -1.16130745410919, 0.32687741518021, 1.48797690868378, 1.08168578147888, 1.10387670993805, 1.84087824821472, -0.73784041404724, -0.46363812685013, -0.17120946943760, -0.26091164350510, -0.37567666172981, -0.00391463888809, -0.87235188484192, -1.84009063243866, -1.90288472175598, 0.24657876789570, 0.93397331237793, -0.79560124874115, 0.45206251740456, -2.11789941787720, 3.66173315048218, -1.37431204319000, 0.66331601142883, 1.00310146808624, 0.58629220724106, 0.32002821564674, 0.13016398251057, 0.42424717545509, 0.31898662447929, -0.65629518032074, 1.04830408096313, -0.08764625340700, -0.20174191892147, 0.05359791591763, -0.66843545436859, 0.28576925396919, 0.62106919288635, 1.90674090385437, -0.22677333652973, -0.84597575664520, 0.35281646251678, -1.03037428855896, 0.46450734138489, 0.21061171591282, 0.44841492176056, 0.03719194605947, -0.20586898922920, -0.22075635194778, 1.35156583786011, -0.18091808259487, -1.85237133502960, 0.25435656309128, -1.22129106521606, 0.23206283152103, 0.53404951095581, -1.78049802780151, -0.40639334917068, 1.34965693950653, -0.25820606946945, 3.25819993019104, 0.82272577285767, 0.28637140989304, -1.15693855285645, 0.77257525920868, -0.26840740442276, -1.52338755130768, 0.30127614736557, 0.48063954710960, 0.40031239390373, 0.87925136089325, 0.81927174329758, 0.41030308604240, -0.54243934154510, -0.37572795152664, -0.39325192570686, -0.32484644651413, -0.17821951210499, -0.47138038277626, -0.61324667930603, 0.82007890939713, 1.76526176929474, 0.43064844608307, 1.79896569252014, 0.70043915510178, 0.93372619152069, -3.32407641410828, -2.62178850173950, -0.88409423828125, -0.48348018527031, -0.04440718516707, -1.56729447841644, 0.04826299101114, 1.03775179386139, -0.32369464635849, -1.53832578659058, -1.11586725711823, 0.08538808673620, 0.42038938403130, 0.99594885110855, -1.94601893424988, -0.25440946221352, -3.08417725563049, 0.98753076791763, -0.06608192622662, -0.71561610698700, -1.32855427265167, -0.46117269992828, -0.44169935584068, -0.83771771192551, -0.07200573384762, -1.21150588989258, 0.18825750052929, -0.27111399173737, -0.53492742776871, 1.47568094730377, 0.03309165686369, 0.66530621051788, 0.41912874579430, 0.57854449748993, -0.62752294540405, -0.72572249174118, -0.76729458570480, 0.42694491147995, -0.85039681196213, -0.55489456653595, -1.49596607685089, -0.68366914987564, 0.73117160797119, -2.04885196685791, 1.05226063728333, -0.23726566135883, 0.32054567337036, -1.22732508182526, -0.55355352163315, 1.93341159820557, -0.62793713808060, -1.44207966327667, 0.97308176755905, 0.13240768015385, 1.03879451751709, -1.36427640914917, -1.22454321384430, -0.04575558751822, 0.26694372296333, -0.25483399629593, 0.62336349487305, -0.65198248624802, 1.07180356979370, 1.24100720882416, -0.64813435077667, -0.44404810667038, 2.05361032485962, -0.86513221263885, -0.44077724218369, -1.19813537597656, 0.85294288396835, 0.36462038755417, 1.59666550159454, -0.34880390763283, 0.49441301822662, -1.07507586479187, 0.42619320750237, 0.14099411666393, 0.32644692063332, -0.34221222996712, 0.61468058824539, -1.02116405963898, 0.80081325769424, -0.02404464781284, -0.17264795303345, 1.46705162525177, 1.81244313716888, 1.07940506935120, 0.04994419962168, -1.49995219707489, -0.21558324992657, -0.74352288246155, 0.08344808965921, -0.29789716005325, 0.50536113977432, 2.39358687400818, -0.73803347349167, -0.38339000940323, 0.92492151260376, -0.07497219741344, 0.42789033055305, 1.29413497447968, 0.57562226057053, -0.80161076784134, 0.46091860532761, -0.88329654932022, -0.23271669447422, 0.49955978989601, -0.07707235962152, -0.57180774211884, 0.27967685461044, -1.85303807258606, 0.12847568094730, -1.48291373252869, 1.40724003314972, -1.97627520561218, 1.28522062301636, -0.92430806159973, 0.23782370984554, 0.74352681636810, -1.01837539672852, 0.99882674217224, 0.42589828372002, -0.54175508022308, 0.36785709857941, -1.26496851444244, -0.27800557017326, 1.89534461498260, -0.54327094554901, -0.46773529052734, 0.34402096271515, 0.49097019433975, -1.70504212379456, 0.54370158910751, -0.96131914854050, 0.26285484433174, 0.21502266824245, 2.12966346740723, -0.49085441231728, -0.06204863637686, 1.26169884204865, 0.96763944625854, 0.04414489120245, 0.42115911841393, -0.82328307628632, -1.46045303344727, 1.20369398593903, -0.04995203018188, 1.83005392551422, -0.84748142957687, 0.11131352186203, 0.03511165827513, -0.79993331432343, -1.23086535930634, -0.10356505215168, -0.96054816246033, -0.31798589229584, 0.66864007711411, 0.42699107527733, 2.25564622879028, 1.12092375755310, -1.12958800792694, 3.33071589469910, -0.21661770343781, -0.01466415543109, 0.11499232053757, 0.37180721759796, 0.46999225020409, 0.33921924233437, -0.06551665067673, -2.05926394462585, 0.79172772169113, -2.29414534568787, -0.31126740574837, -0.11826129257679, -0.24315331876278, 0.74158012866974, 1.76946008205414, 1.11337661743164, -0.71456658840179, 1.01059424877167, 4.29357862472534, -0.77961254119873, -0.11239612102509, 0.03810749948025, -0.66630065441132, 1.05012047290802, 1.10816264152527, -0.41898357868195, -0.54375755786896, 0.68706995248795, 2.21839380264282, -2.72160172462463, -1.18731987476349, -1.13097870349884, -0.12554846704006, -2.10579848289490, 0.88471406698227, -0.10984797030687, 0.56132555007935, 1.27390992641449, -1.03997337818146, -0.40308362245560, -0.04497850313783, -0.27936577796936, -0.12932492792606, -0.16568948328495, 0.75423800945282, -0.29924750328064, 0.63778901100159, 1.27929973602295, 0.42565801739693, -0.71030080318451, 0.86442017555237, 0.98552054166794, 1.51362752914429, 0.84168946743011, 2.22013974189758, 0.06064623594284, 0.18676796555519, -0.10746345669031, -1.09306395053864, 0.17262677848339, 1.24545311927795, 0.06492283195257, 2.14716768264771, -0.69986397027969, -0.71393150091171, -1.06160271167755, 0.51527947187424, -1.16279804706573, -0.89915931224823, 0.08182082325220, -0.50032824277878, 0.92686623334885, 0.02494106069207, -1.26163339614868, -1.28778767585754, -1.04771625995636, 0.49181905388832, -1.33014118671417, 0.01741449534893, 0.45375147461891, -1.24633491039276, -0.05419561639428, 0.23575334250927, -0.49828144907951, -0.69181489944458, -0.89405363798141, 0.95803850889206, -0.28761994838715, -0.27662736177444, 2.65636157989502, -0.17187988758087, 0.58852016925812, 0.02303821034729, 0.09531573951244, -1.65770804882050, 1.00176417827606, 0.68960797786713, -0.59149390459061, 1.10407614707947, 0.29203680157661, -3.10787367820740, -1.63455593585968, 0.90707671642303, -1.01446139812469, -1.36758530139923, -0.26803243160248, 0.03863587975502, 0.05166877433658, -0.59930664300919, 0.92104882001877, -0.48485878109932, 1.23652923107147, 3.07755732536316, 1.29724836349487, 0.64615303277969, -1.89930832386017, -1.57467794418335, 0.70602095127106, -0.33872851729393, 1.15496981143951, 0.26023629307747, -1.12883210182190, 0.86747395992279, 0.95296949148178, 0.13693591952324, 0.78618746995926, -0.62977093458176, 0.50636082887650, -0.27879512310028, 0.15864753723145, 0.92903798818588, -0.29686462879181, -1.91081476211548, 0.29178452491760, -0.28553876280785, -0.89222329854965, 0.33363565802574, 0.82777374982834, 0.14175619184971, -1.04559898376465, -0.65011072158813, 0.16066901385784, 0.10771605372429, -0.93977952003479, -2.69126558303833, 0.64243245124817, -0.77741783857346, 0.57026064395905, -0.25474560260773, 0.20709092915058, 0.84455829858780, 0.23782695829868, -0.46443483233452, 1.05874800682068, 0.81039458513260, -0.40743255615234, 1.26451623439789, -0.65041726827621, 0.87856590747833, -0.40729978680611, -0.70333647727966, -1.18679642677307, 0.78149962425232, -0.97326266765594, -0.47861862182617, -0.84508079290390, -0.99570888280869, 0.57707744836807, -1.54392540454865, -0.75121551752090, -0.58187919855118, -1.53558349609375, 1.43662810325623, -0.86401075124741, -2.33437800407410, -2.21744775772095, 0.34335088729858, -0.99039125442505, -0.83514088392258, -0.46135249733925, 1.60321712493896, -0.17394356429577, -2.68865799903870, 0.02015029080212, -0.58524650335312, -0.16990602016449, 0.10303395986557, -0.08904510736465, 0.69502472877502, 0.43339318037033, 1.31503593921661, 1.12096202373505, 0.69169956445694, 2.25343036651611, 0.42869728803635, 0.03782844170928, 0.34203070402145, 0.44012531638145, 0.23181135952473, -0.11627938598394, -1.37767004966736, 1.66671609878540, 2.98048329353333, -0.54627078771591, 1.71409523487091, -1.36152863502502, 0.26570788025856, 0.81450611352921, -0.54299962520599, -0.59936600923538, -0.11104603111744, 1.16484451293945, 1.48485052585602, -1.12005364894867, 1.35506057739258, -0.68728744983673, 0.19486628472805, -0.94926953315735, -0.78511273860931, 0.53568649291992, 1.87599587440491, -0.23884409666061, 1.21372973918915, -0.12956467270851, 0.50193214416504, 2.68374872207642, 0.82351565361023, -0.19599151611328, -2.04675865173340, 1.31208598613739, -1.11923134326935, 0.35525843501091, 0.66643226146698, -0.67735910415649, 4.53486967086792, -1.78606581687927, 0.65095520019531, -0.02255742065609, -0.67494124174118, -0.38000160455704, 0.77465295791626, 0.32409372925758, -0.53047770261765, 0.38153308629990, 1.23464965820312, -1.49538743495941, -0.45425638556480, 0.60816550254822, 1.24116790294647, -2.63519072532654, 0.82126218080521, 0.70632141828537, 1.50668704509735, -1.57591092586517, 0.43448367714882, 1.18499851226807, 0.49819114804268, 0.32952031493187, 0.55207014083862, -0.02902599051595, -0.73494279384613, -0.17979854345322, -0.05271223187447, -0.45728266239166, 0.32774862647057, -1.20324873924255, -0.96134829521179, 1.04199767112732, -0.15755148231983, 1.31097316741943, -0.71633380651474, -0.17052969336510, -0.06001259759068, -0.43035489320755, -1.05553174018860, -0.21562193334103, -0.71421122550964, 1.15362060070038, 1.21619987487793, 0.65004312992096, 0.26585540175438, 0.77864533662796, 1.36898088455200, -2.52586865425110, -1.05553197860718, 0.18924015760422, 0.29992488026619, -0.28236520290375, 1.04052376747131, -1.74753451347351, 0.60365104675293, 1.03336572647095, 0.23196184635162, -0.31373888254166, -0.27013143897057, -0.85542762279510, 1.26887500286102, 0.67545741796494, -0.59317886829376, -1.45287013053894, 0.58341360092163, -0.12407702207565, 1.44393849372864, 1.57552027702332, 1.60711681842804, -1.38236773014069, -0.53772878646851, 0.51468932628632, -0.70060396194458, 0.46458753943443, -0.95373129844666, 0.55702912807465, 0.39535462856293, 0.25283330678940, 1.99941432476044, -0.80228632688522, 0.12901419401169, -1.48440885543823, 0.01912637241185, -0.62146759033203, -2.09860444068909, -0.47555366158485, 0.07340012490749, -0.09292887151241, 0.18426553905010, -1.53073489665985, -0.90878427028656, -1.57229900360107, -1.04056859016418, 0.02883953414857, -0.14831185340881, -0.61485552787781, 0.82167512178421, 2.21359777450562, 0.45227101445198, 0.93362140655518, -0.44186952710152, 1.53015673160553, -1.84059274196625, 1.15521883964539, 0.65691983699799, 0.49065855145454, -1.56516754627228, -0.75623941421509, -0.44269001483917, 2.22211599349976, -0.22721059620380, 0.35075536370277, -0.02644413337111, 0.92770564556122, 0.60707926750183, -0.03514422848821, -0.48122194409370, -0.69445276260376, -0.68972235918045, 0.55504769086838, -0.71262830495834, -1.93318605422974, -0.67103075981140, 0.60917633771896, 1.43976521492004, -0.54902756214142, -0.54720747470856, 0.32422667741776, 0.43806624412537, 2.20499110221863, 0.93389892578125, 0.10567711293697, 0.20833820104599, 0.08711947500706, 1.29587805271149, 1.27996456623077, -0.57720804214478, -1.63151407241821, -0.09906703978777, 2.70506167411804, 1.66122567653656, 1.14218747615814, -1.14981055259705, -1.54041934013367, -0.96785312891006, 0.36422848701477, 1.83617401123047, -0.93314158916473, -0.77272409200668, 0.10514546185732, 1.38616406917572, -0.13923056423664, -0.72664988040924, -0.63414013385773, 0.50057524442673, 0.32300785183907, -2.20925903320312, 2.82017779350281, -0.86391657590866, 0.93416845798492, 0.24754837155342, 1.83166766166687, 1.12670171260834, -0.57577151060104, -0.21920317411423, 1.70829224586487, 0.58240532875061, 1.34934663772583, -1.00924837589264, 0.15919435024261, 0.77976047992706, 0.00498867919669, 0.72337204217911, -0.90379744768143, 0.07283612340689, -1.13236796855927, -0.59704589843750, -1.52946770191193, -0.96664226055145, 0.39856049418449, -0.57684695720673, -1.50586235523224, 0.93910735845566, -0.60419082641602, -0.06030248478055, 0.11338971555233, -0.54958456754684, 0.10294067114592, -0.60453003644943, 1.13446712493896, -0.10184130817652, -0.14299477636814, -1.33982563018799, -0.51624149084091, -0.39441797137260, 0.23887810111046, -1.40151655673981, 1.77477753162384, 0.50009977817535, 0.47542566061020, 1.22508847713470, -1.01911664009094, -1.57345795631409, -0.10944730043411, 0.59263050556183, 1.17063188552856, -0.22249835729599, 0.63826245069504, 1.29349219799042, 0.53580480813980, 0.78975415229797, -2.67330145835876, -0.61362820863724, -0.34320092201233, 1.09485566616058, -2.70893812179565, -0.04659658670425, 0.41372206807137, 1.26811504364014, -0.85356092453003, 1.32154071331024, -0.04332713410258, -1.43311750888824, 0.97883427143097, -0.44859647750854, 1.92027521133423, -0.31369644403458, 0.83988833427429, -0.46066582202911, 0.73899382352829, -1.51299393177032, -1.28302621841431, 0.12064385414124, -0.59369647502899, 1.05953383445740, 0.87274801731110, 0.20275504887104, -1.60552716255188, -0.76588791608810, 0.52472913265228, -1.37375319004059, 0.05353889986873, -0.17084601521492, 0.91635990142822, 0.35337874293327, -1.16676294803619, -0.87979513406754, 1.13793444633484, -0.53696805238724, 1.66630208492279, -0.66047435998917, 0.45036041736603, 0.38683688640594, -2.34113812446594, -1.02727830410004, -0.52750700712204, 0.97637969255447, -0.86485457420349, -0.01194963138551, -0.74679982662201, -0.40034234523773, -0.03300251439214, -1.40874612331390, 0.42567881941795, -0.45903432369232, 0.84998732805252, -1.13623189926147, -1.68654596805573, -0.87807613611221, -0.59255188703537, -0.15639238059521, -0.76520383358002, -0.32364523410797, 0.70808124542236, -1.03654456138611, 0.25897502899170, -0.33176878094673, 0.46116361021996, -1.44763863086700, -1.82662606239319, -0.19297593832016, -2.08807706832886, 0.59793740510941, 0.12709622085094, -0.78526192903519, -2.20560979843140, -0.23297478258610, 1.15614426136017, -1.84158384799957, -0.17491768300533, -0.31191289424896, 1.42573654651642, -1.04018998146057, 0.67141628265381, -0.50018727779388, -2.32587742805481, -0.50582796335220, -0.76830488443375, -0.36510175466537, 2.25814676284790, 0.75448012351990, 1.04015827178955, 0.52535736560822, 1.53847730159760, 1.02319860458374, -0.02953437343240, -1.36317121982574, 0.22412633895874, -1.12062871456146, -1.70468735694885, -0.94099402427673, 1.37708914279938, 1.26508843898773, -1.93204879760742, -0.03782759234309, -0.06199932843447, -0.02748437784612, -0.62094038724899, -0.93217885494232, 1.22659885883331, 0.51604586839676, -0.39979952573776, 1.54316103458405, 0.26962533593178, 1.88877046108246, 1.66660583019257, 0.69381326436996, -0.16948373615742, 1.02744913101196, 2.63824391365051, 1.54712855815887, 2.03456640243530, -0.45696318149567, -0.73427051305771, 0.12162030488253, -0.62797385454178, -2.74619889259338, 0.68999892473221, -1.29856038093567, -0.08716161549091, -0.60515284538269, 1.31866347789764, 0.83140957355499, 0.46010136604309, 1.29700577259064, -1.97129571437836, -1.60467779636383, 0.26219385862350, -0.28961125016212, -1.66774296760559, 1.27179634571075, 0.45170885324478, -0.54454988241196, 0.52425450086594, 0.35691428184509, 0.43508011102676, 0.55200994014740, 1.82008516788483, -1.88903963565826, 0.02531090937555, 0.54996055364609, 0.54434394836426, 1.39071440696716, -0.60586595535278, 2.18867945671082, 0.01844704151154, -0.79932802915573, -0.87152045965195, -1.15098583698273, -2.29192829132080, -0.13386769592762, 0.56371974945068, 2.36238098144531, -1.54729580879211, -0.58588176965714, -0.53821432590485, -0.01282918639481, -2.30136704444885, -0.12678308784962, -0.17272566258907, -0.41684710979462, 0.67716926336288, -0.60575234889984, 0.31921210885048, 0.59894776344299, 0.84281784296036, -0.19963623583317, -0.82515692710876, -0.06456549465656, 0.66841137409210, -0.92234504222870, 2.45853972434998, 1.40897893905640, 2.11829233169556, 0.83067947626114, 1.65805494785309, 1.58710956573486, 1.87311065196991, -1.29096758365631, 2.84867525100708, -1.05098307132721, -1.54149246215820, 0.77427256107330, 0.13677395880222, 0.63228619098663, 0.18968331813812, -2.49353265762329, -2.83799552917480, -0.55783045291901, -0.66033887863159, 0.06180481612682, -0.27970480918884, 0.90024012327194, -1.33610332012177, 1.09882521629333, -0.49343666434288, 0.17342969775200, -2.51775646209717, -0.97574555873871, 2.44242072105408, 1.44300317764282, -0.06241485476494, 0.51608991622925, -1.05821812152863, -0.46445310115814, 0.17149432003498, -0.12403396517038, -0.55970805883408, 0.78604006767273, -0.90678960084915, -1.53289866447449, 0.46988084912300, -0.86776852607727, -0.15547996759415, -0.21459439396858, -0.52830761671066, 0.53847140073776, 0.73469823598862, -1.00018596649170, -0.47919118404388, 0.16700574755669, -0.97947365045547, -0.67071592807770, -2.36811232566833, -0.59441483020782, -1.58067202568054, -0.76716524362564, -0.04293796792626, -1.61260223388672, 0.46391418576241, 2.59685778617859, -0.15200714766979, 2.01390743255615, -0.88440734148026, 0.20864582061768, -0.56441688537598, 0.34638610482216, -0.24114611744881, 1.78551948070526, 0.74773484468460, 0.74558091163635, 1.98297226428986, -0.24470543861389, 0.96738654375076, -0.32122597098351, -1.56598067283630, 2.31990146636963, -2.07252573966980, -1.05971384048462, -0.35456532239914, 0.07373144477606, 0.00483722332865, 0.24649989604950, -0.27079468965530, -0.76498824357986, -0.42693370580673, -0.46056103706360, -0.44900983572006, 0.31764546036720, 2.39182853698730, -0.08326864242554, 0.87360656261444, 0.75695180892944, -1.55088102817535, 2.35962510108948, -1.15313029289246, 1.21384346485138, -0.90396875143051, 1.01391327381134, -0.35123747587204, -0.00611790455878, -0.85326552391052, -0.72319787740707, 1.35447883605957, -2.52208018302917, 1.14558851718903, 2.06833267211914, -0.34841108322144, -2.41879391670227, 0.05342756956816, 0.09565602988005, 1.01121354103088, -0.01031029503793, -0.06403059512377, 0.75843268632889, -0.14596436917782, -2.09093999862671, 0.23280933499336, -0.48802447319031, 1.00274550914764, -0.10953553020954, -0.85174310207367, 0.77263349294662, -0.09499792009592, 1.25391888618469, -1.22341299057007, 0.34093081951141, -0.51910197734833, -0.07878891378641, -0.63962173461914, -2.41318893432617, -1.47329032421112, 0.37874034047127, 0.25370457768440, 0.35732790827751, -2.36369109153748, 0.62182033061981, -0.52296215295792, 0.23734991252422, 0.28824093937874, 0.02959772385657, -1.55371868610382, 0.25179991126060, -1.14892208576202, -0.00047870186972, 0.46941518783569, -0.60945808887482, -0.73348391056061, -0.21721585094929, -1.74189412593842, -0.22663007676601, 2.63663125038147, 1.83402693271637, -0.91766291856766, -0.25641426444054, -0.94637537002563, 0.17588499188423, -0.39690673351288, -0.01192702539265, -0.89645618200302, 0.76876890659332, -0.14796553552151, 0.59142118692398, 0.30979871749878, -0.02717328071594, -0.49207437038422, 0.19828252494335, -1.13545966148376, -0.46774587035179, 0.01641517318785, 0.20903883874416, 0.12726357579231, 0.93078136444092, 0.74644118547440, 4.18331289291382, 0.67303907871246, 1.45028436183929, -0.04793295636773, 0.21011319756508, -0.42477616667747, -0.24303033947945, -0.57939010858536, 1.32729482650757, -0.87769496440887, 2.26610302925110, 1.47990643978119, 1.46160042285919, -0.23756140470505, -0.69830894470215, -1.17831182479858, -1.94587981700897, -0.24920006096363, 0.05964377522469, 1.24676907062531, 1.34366822242737, 0.32654964923859, 0.67169374227524, 0.77392631769180, 0.26200166344643, 1.73682713508606, -0.26662456989288, 1.41072678565979, 0.32461813092232, -1.47068178653717, -1.33024156093597, -1.05225300788879, 0.89842110872269, 1.63927197456360, 0.93720984458923, 0.66078460216522, -1.82084953784943, -0.17672960460186, -0.29403272271156, 0.11474561691284, 0.16506917774677, -0.39645835757256, -1.07827043533325, 1.61494386196136, 0.45993691682816, 1.34997892379761, 0.72016143798828, 0.98292332887650, 2.30000948905945, 0.92532998323441, -0.78691703081131, -0.64086323976517, 0.17858244478703, -1.03576004505157, 2.15720510482788, -1.07885062694550, -0.23546622693539, 1.58122980594635, -2.76874470710754, 0.10356593132019, -2.26726412773132, -1.24875092506409, -0.49427139759064, -1.85403859615326, -0.94883698225021, 0.25777241587639, -0.11194573342800, 0.89725869894028, 0.36275786161423, -0.24038560688496, -0.18519647419453, 0.01355613116175, 1.07201278209686, -0.94157677888870, -0.87975078821182, 0.99826073646545, -1.48924362659454, -0.28350111842155, -0.13262890279293, -0.32878410816193, -0.21563470363617, -0.89805424213409, -0.13979408144951, 0.19718204438686, 0.01518652494997, -0.52844029664993, -1.17033123970032, 0.55629479885101, -0.67699593305588, -0.24660155177116, 0.18875221908092, -0.65571618080139, 0.20573481917381, 0.34311562776566, 0.00231484090909, 1.87182927131653, -1.02116870880127, -0.39553555846214, 0.26943746209145, 0.67218703031540, 1.31722939014435, -0.47666376829147, -1.31502628326416, -0.13522793352604, -1.69424831867218, -1.19834303855896, -1.23780035972595, -1.26575469970703, -0.23372951149940, -0.34476256370544, -0.25321134924889, 0.74314427375793, -0.00639727944508, 1.34500968456268, -0.22300210595131, 0.25553557276726, 0.64005696773529, 0.03457861021161, 0.31181427836418, 0.03602812439203, 0.12678457796574, -1.35577034950256, 0.83311766386032, 0.19421245157719, -0.03091005422175, 1.24741244316101, 1.17571222782135, 0.47629073262215, -2.94709920883179, -0.71950888633728, -0.39760276675224, 1.71365857124329, 1.74375164508820, 1.15953469276428, 1.20165061950684, 0.07219577580690, 0.11740516871214, -0.22944147884846, -0.89024037122726, 0.58467358350754, -1.26978111267090, -1.17461800575256, 1.59748184680939, 0.25937861204147, -1.52928602695465, 2.02934932708740, 0.32068362832069, 0.22723563015461, 0.74989163875580, 0.54785013198853, 0.93574309349060, -0.35861223936081, -0.28279805183411, 1.26447892189026, -0.94681084156036, 0.86251664161682, 0.25502416491508, -1.69428193569183, 0.32639083266258, 0.35629189014435, 0.72542810440063, 0.06229960173368, 1.22188222408295, -0.75550800561905, -0.76523774862289, -0.16063638031483, 0.09471006691456, -0.15992094576359, -0.71531277894974, 3.45795083045959, -0.02442745864391, -0.33767831325531, -1.55619776248932, -1.22164225578308, 0.78650069236755, -0.25573182106018, -0.43537208437920, 0.17848847806454, -0.03894415870309, -0.13379812240601, -1.48155021667480, 0.49011155962944, 0.07661562412977, 0.55008322000504, 0.02376412972808, 2.36257886886597, -0.40505772829056, -0.42433637380600, 0.29506358504295, -0.23695813119411, -0.91921466588974, 1.01864898204803, 2.53485417366028, 0.39455586671829, 0.58260667324066, -2.79333662986755, -0.08084965497255, 0.29581460356712, 0.39477166533470, 0.05221430212259, -0.87237858772278, -0.19605061411858, 0.37792685627937, 0.08099627494812, 0.14331233501434, -4.24800252914429, 0.80980229377747, 0.19503951072693, -1.28468406200409, 0.87466591596603, 1.69199228286743, 0.76204591989517, 0.50642204284668, -0.31270349025726, 0.94498211145401, -0.76661604642868, 0.81909835338593, 0.19432188570499, -1.91815757751465, -0.06470265984535, -0.41659775376320, -0.04200450703502, 1.13850176334381, 0.54022061824799, 0.36160573363304, -1.82189047336578, -1.07591044902802, 1.10037684440613, 0.23699183762074, -0.60571283102036, 0.06387758255005, -1.19684576988220, 0.02007090486586, -1.33331680297852, -0.58298361301422, 1.46313238143921, 1.23339569568634, -0.22982695698738, -2.41383838653564, -1.08204770088196, 0.28527408838272, 0.96535700559616, 0.50925385951996, -0.52698463201523, 2.53479456901550, 0.20361240208149, -0.91323995590210, -0.95998287200928, 0.42543372511864, -0.49925726652145, 0.22904235124588, 0.42507779598236, -0.51624715328217, -1.65768539905548, -0.95467734336853, -0.58039236068726, 0.92195791006088, -0.56376636028290, -0.95263063907623, 1.34121215343475, -0.78006231784821, -0.40608724951744, 1.14375305175781, -1.69113898277283, 0.18941636383533, 0.96977144479752, 3.90716433525085, -0.74326205253601, -0.18414011597633, 0.75300103425980, -0.61685538291931, -0.39375278353691, -1.15815055370331, -2.27159428596497, 0.47116842865944, -0.02890922687948, 0.06809049844742, -0.20250993967056, -1.07853448390961, -1.97804009914398, -0.24758106470108, -0.37737497687340, 0.72507888078690, -0.79828172922134, -0.17044121026993, -0.58077317476273, 1.00888693332672, 0.01006025169045, -1.46352851390839, -1.01870989799500, 0.40402236580849, 0.67745769023895, 0.22679339349270, 0.26388591527939, 0.32361805438995, 0.80028754472733, 0.35647186636925, 0.03161724284291, -1.05516374111176, -0.18957370519638, -0.16531963646412, 0.86503392457962, 0.25970429182053, -2.20780134201050, -1.18740677833557, 0.83070534467697, -0.67352938652039, -0.25038480758667, 0.69393694400787, 2.22301340103149, -3.51253008842468, 0.43836799263954, 0.40808698534966, 1.18646275997162, -1.81530940532684, -0.37132954597473, 0.34652775526047, -0.89467877149582, -1.41080629825592, -2.26785326004028, 3.83845806121826, -2.68034982681274, -0.48047852516174, -0.25798836350441, -0.10381509363651, 1.51975798606873, 0.63081395626068, -1.03761637210846, 0.25002309679985, 0.55433875322342, 1.65617704391479, 0.50978416204453, 0.26797357201576, -1.57479298114777, 1.19332337379456, -0.10730735212564, 1.10510075092316, 1.58496344089508, -1.00474476814270, -0.16821041703224, 0.26201072335243, 1.43621671199799, 0.15459783375263, 1.01252424716949, 0.40982660651207, -0.46922120451927, -0.99827438592911, 0.41525831818581, 0.10425405949354, -0.13450886309147, 0.59318053722382, 0.87388318777084, 0.39015108346939, -0.20848712325096, 1.45000350475311, 0.49569165706635, 0.13558624684811, -0.36687228083611, -0.20793455839157, 0.18593554198742, 1.33342695236206, 3.33946275711060, -1.92865347862244, -0.43703323602676, -1.42018973827362, 0.91912382841110, 0.15620873868465, -0.02542024105787, 0.64637309312820, 0.01618388667703, 0.43814072012901, 2.19344758987427, -0.56201350688934, 1.59817862510681, -0.51181459426880, -1.91457259654999, 0.37801855802536, 0.14367181062698, 0.65772783756256, 2.45204925537109, -0.54195511341095, -0.47742262482643, -0.66173654794693, 0.23237885534763, 1.33056855201721, -0.13139167428017, 1.06804168224335, 1.17617595195770, -0.33174994587898, -0.33312052488327, -0.99439680576324, -0.34901282191277, 3.39960098266602, -1.71427214145660, -0.31951463222504, 2.39260578155518, 0.24932049214840, 0.80759048461914, -2.27534651756287, 0.29029688239098, -0.34931820631027, -0.22089497745037, -0.10116851329803, -0.44300851225853, 0.03269550576806, -0.70871025323868, 0.44974356889725, -0.76291930675507, -1.43401181697845, -0.17011572420597, 0.77051383256912, 0.41315108537674, 0.70687663555145, -3.34095716476440, 1.23185098171234, 0.67760604619980, -0.14164148271084, -0.50465011596680, 1.85192394256592, 0.15850567817688, -0.11587799340487, -0.55607146024704, -0.70486730337143, 0.97617369890213, -0.43856608867645, 0.17416766285896, -1.22094833850861, 1.64993357658386, -0.34846836328506, -0.58621639013290, 0.67470705509186, 0.42608371376991, 0.13428013026714, -0.81456398963928, -0.42488154768944, -0.01288191881031, 0.14749039709568, -0.53057581186295, -1.20363056659698, -0.46558815240860, -1.44623661041260, -0.61250370740891, -1.66180682182312, -1.60029757022858, -1.23372733592987, 2.50582242012024, -1.24102079868317, -0.09232671558857, 0.12062657624483, -0.13169640302658, 0.08600502461195, 0.72667068243027, 1.28361654281616, -0.54649120569229, 0.48935985565186, 0.92510002851486, -0.71897751092911, 0.44908067584038, -0.01079153455794, 0.04559137299657, -0.22022807598114, -0.55412769317627, 0.07440816611052, 1.65883207321167, 0.19526609778404, -0.27999767661095, -0.58231300115585, -1.08527112007141, 0.75884437561035, -0.72679156064987, -0.29815828800201, -0.16104428470135, 0.94336330890656, 0.37329509854317, 0.42477840185165, 0.22237269580364, -0.54991507530212, -0.13059592247009, 0.59134769439697, -0.21583537757397, 0.85439264774323, -1.44824981689453, 0.29644420742989, 0.51286464929581, -0.27431684732437, 0.60267049074173, -0.05302074179053, 1.49293601512909, -0.00265361019410, 0.16738860309124, 0.00796270184219, -0.16551074385643, -1.04868388175964, -1.02825069427490, 2.92556309700012, -0.63837873935699, -0.48694148659706, 0.30666601657867, -1.45412898063660, 1.90215635299683, -1.81251776218414, 0.22749969363213, -2.37286520004272, -1.12243342399597, 0.48777174949646, 0.64554315805435, -0.85402023792267, -2.68216276168823, -0.54141765832901, -1.59924328327179, -0.65305393934250, -0.29231867194176, -1.80224633216858, 1.43592834472656, 1.52111113071442, -0.68675178289413, 1.29251742362976, -0.79517441987991, 0.19475786387920, -0.74168384075165, -1.02242982387543, 0.82758653163910, 1.76749193668365, 1.65609788894653, -0.43754455447197, 1.22092151641846, 2.72212982177734, -1.33961784839630, -1.16677355766296, 0.86554008722305, -0.57142275571823, -0.81785321235657, -0.16370362043381, 1.20787608623505, 1.94259595870972, 0.07965113222599, -0.90494453907013, 0.34825122356415, 1.30949771404266, 0.59830784797668, 1.30187773704529, -1.72257173061371, -0.30143710970879, -1.20625734329224, 0.02153251506388, 1.31301701068878, 0.92438101768494, 1.30861258506775, -1.19123947620392, -0.63090920448303, -0.59873914718628, 0.40360289812088, 0.49135160446167, 0.86498552560806, -0.63285750150681, -1.76086425781250, 2.70277118682861, -1.92826712131500, 0.60282713174820, 0.91999936103821, -0.43632471561432, -1.56484103202820, 2.09076786041260, 2.18930196762085, -0.53511047363281, 2.30516767501831, -0.53510981798172, 0.21804840862751, 0.10773160308599, -0.97653192281723, -2.31651997566223, 1.03430831432343, -0.35887277126312, -0.26685395836830, 0.13356345891953, 0.37428024411201, 0.83960950374603, 1.85706686973572, -0.14936821162701, -1.05975759029388, -1.05585658550262, -2.17406582832336, 0.24671719968319, -0.90809470415115, 0.31818130612373, -0.61992108821869, 1.10871434211731, -0.93919211626053, -0.06600493192673, -0.59599399566650, 0.68552350997925, -0.34266021847725, 1.08847022056580, 1.03642416000366, 1.63118529319763, -0.81727761030197, -0.23866818845272, -0.49617394804955, 0.49000316858292, 1.95681786537170, 1.99657833576202, 2.75481629371643, 0.18837833404541, -0.56650853157043, 1.74138522148132, -0.31102725863457, -1.61624360084534, -0.65244370698929, 1.96018469333649, 2.15481567382812, -0.93899375200272, -0.43693217635155, 0.14133028686047, -0.55776089429855, 2.65236926078796, 0.61013400554657, -0.39864704012871, 1.00635015964508, -0.49080538749695, 0.20332874357700, -2.82682228088379, -0.67807549238205, 0.74952906370163, -0.53017652034760, -0.14343315362930, 1.12245857715607, -0.10706768929958, -0.36400607228279, -0.79136937856674, 0.55504900217056, 1.31694686412811, 0.20235206186771, -0.60670459270477, -0.22161298990250, 0.69268453121185, -0.47601258754730, 0.34781551361084, -1.65293240547180, 0.12699504196644, 2.09183096885681, -0.61450487375259, -1.69662177562714, 0.78788089752197, -0.19161215424538, 1.42059123516083, -0.83528625965118, -0.87565928697586, 0.46908929944038, -2.20979452133179, 0.49914616346359, 2.13638186454773, -0.09920073300600, -0.48122203350067, 2.37654471397400, -0.09172743558884, 0.57635456323624, -1.41164004802704, 1.95356333255768, 2.36666250228882, 0.97549033164978, 0.07889667153358, -0.97790277004242, 0.51688337326050, 0.02565206773579, -0.30384171009064, -3.08395361900330, -0.33775308728218, 2.60133576393127, 1.41459727287292, 2.34234690666199, 0.12287795543671, -0.43373349308968, 0.04939570650458, -1.33106732368469, 0.74411100149155, -0.43195369839668, 0.31453400850296, -0.22094510495663, -0.22902740538120, -1.03915309906006, -0.72185873985291, -0.37283340096474, 1.22619974613190, -0.39754974842072, 0.26371979713440, -0.58522081375122, -1.65002131462097, -1.22210752964020, -0.52975094318390, -0.90914136171341, -0.51997083425522, -0.49223196506500, 0.05873857438564, -2.31152677536011, 0.40582704544067, 1.55291497707367, 1.80115580558777, -0.33658328652382, -1.44981575012207, -0.98057657480240, -0.07673179358244, -0.12581403553486, -0.01284089311957, -0.30512130260468, 0.66634804010391, -0.43827056884766, -0.58224183320999, -0.98840034008026, -0.29216888546944, -0.83083444833755, 0.85110753774643, -1.32381880283356, 0.87349718809128, 0.27434173226357, -1.87192845344543, 1.41913378238678, -1.00397515296936, 0.13427007198334, 0.30891379714012, 1.64610636234283, -0.78740268945694, -0.31574019789696, -0.73432606458664, 1.18069279193878, -1.51086711883545, 0.60156828165054, 1.63365602493286, 1.07505202293396, -0.18541769683361, 0.09625119715929, -2.01998257637024, -1.11110925674438, -1.47151386737823, -0.87992149591446, -0.65752792358398, -1.03481626510620, -0.76918143033981, 0.13128216564655, 0.42125570774078, 0.12992298603058, -1.04752898216248, -0.29938155412674, -0.39872819185257, 0.51838660240173, -1.63779079914093, 0.02210202440619, -0.25525829195976, -0.74651443958282, -0.38958466053009, 0.37672767043114, 2.12490224838257, -0.59490483999252, 0.30607238411903, 0.49771353602409, -0.88058191537857, -0.13927765190601, 0.41981062293053, -1.84130060672760, 0.59854853153229, 1.59494423866272, -1.00042545795441, -0.85300439596176, -0.16665087640285, 1.24255466461182, -0.65396910905838, -0.27317184209824, 1.23588693141937, -0.24988093972206, 0.58685201406479, -0.89664900302887, -1.81043207645416, -1.00471973419189, -0.07888777554035, 0.72420829534531, -0.81264114379883, 1.30397772789001, -2.79706311225891, -1.51289331912994, -0.12802292406559, -0.55728954076767, 0.79754799604416, -1.00092816352844, 0.50801879167557, 2.08065414428711, 0.37978279590607, 0.48649728298187, -0.74475365877151, -1.49866843223572, -0.47833532094955, 1.51260709762573, -0.32567551732063, -0.47013455629349, -0.49367082118988, -0.22609621286392, -0.57071816921234, 0.83079349994659, 0.56871259212494, -1.55082988739014, 0.24439881742001, -1.27523458003998, -1.68353307247162, -0.88839000463486, -1.20758605003357, 0.88975083827972, -0.77315872907639, -0.43142655491829, -0.76982665061951, -0.94276273250580, 0.27287140488625, -0.76779371500015, -0.56822848320007, -0.28856855630875, -0.64379078149796, 0.63614922761917, 0.86478066444397, -0.77457934617996, 0.08747940510511, 0.60023230314255, -0.37744861841202, 0.42568653821945, 0.07120461761951, -0.12677361071110, 0.80318319797516, -0.70407813787460, 0.11376624554396, 1.01996862888336, 2.30397820472717, 1.03626728057861, -0.81734305620193, 0.45858141779900, -0.71039795875549, 2.66361165046692, 0.06262160092592, -0.50396960973740, -0.69001150131226, 1.08625662326813, 0.83646208047867, 0.16955292224884, -0.45720928907394, 0.79407185316086, 0.10374996811152, 1.39318168163300, 0.51021772623062, 1.21981620788574, -0.49936839938164, 0.24412074685097, 0.34450221061707, -4.01834535598755, 1.46778750419617, 3.09766244888306, 0.08947798609734, 1.89779067039490, 1.15698087215424, 0.47231239080429, 0.20930933952332, -0.60413533449173, 0.17071226239204, -2.00278258323669, 0.06800260394812, 0.90790116786957, -0.58364027738571, -3.14785790443420, -1.21904504299164, -1.02858245372772, -0.69594097137451, -1.91724443435669, -0.34383448958397, -0.25737690925598, -0.22862033545971, -2.22802710533142, -0.26109325885773, 0.79323107004166, -0.21451775729656, 0.32969996333122, 0.65605038404465, 0.13020515441895, 0.36873635649681, 2.28275299072266, 1.85023617744446, 0.55872184038162, -0.07060135155916, 1.07407832145691, 2.60806488990784, -0.41750591993332, 0.45009011030197, 1.26394009590149, 1.71525228023529, -1.51712334156036, -0.10588018596172, 0.80742841959000, -0.05364700779319, 0.48158919811249, 2.01331067085266, 1.27324783802032, -0.38733807206154, 0.93994969129562, -0.12861938774586, -0.41429522633553, 1.35507345199585, 0.62374323606491, -0.04701056703925, 0.96458667516708, 0.94166588783264, -0.14220817387104, 0.31855964660645, 0.42823621630669, 0.83651775121689, 0.10650276392698, 1.76841330528259, -1.24820828437805, -0.36505725979805, -0.50653344392776, -1.53678834438324, -2.02063798904419, -0.19016014039516, 0.49116510152817, -0.20853842794895, 0.56727761030197, -0.54051214456558, -1.45603024959564, -0.09891916066408, -1.52739846706390, -2.11575722694397, -1.83265471458435, 1.14074242115021, -1.56917428970337, 1.68325340747833, 1.03919076919556, 1.58470261096954, -0.02597857266665, -0.22674001753330, -0.06779535114765, 0.62194764614105, 1.27060413360596, -1.47743856906891, 1.07090294361115, -0.05348973721266, -0.05126534029841, 0.67072826623917, 0.16160079836845, 0.71450519561768, 0.92927700281143, 0.51745682954788, -0.96364027261734, 1.78547918796539, -0.81773906946182, -0.77864962816238, -0.81307375431061, -0.23128069937229, 0.14723657071590, 0.03668016567826, -1.24812674522400, 0.45750373601913, -1.26295948028564, 0.60726094245911, -1.74022829532623, -1.27093803882599, 1.85542356967926, -0.91306352615356, -0.40577882528305, -0.08825378865004, 0.69186264276505, 0.01224849186838, 0.56641727685928, -0.04355701431632, 0.08805131167173, -0.02605671435595, -1.48906373977661, -2.05157971382141, 1.74399662017822, 0.17607250809669, -1.04288220405579, -0.25371959805489, -0.60960781574249, -0.68537628650665, -0.31858703494072, 1.38024914264679, 0.95466774702072, -0.19877582788467, 0.52078950405121, 0.31962701678276, -3.06648087501526, -0.94218498468399, 1.12061357498169, -1.55741131305695, 0.60622632503510, 1.40938591957092, 0.53456830978394, 0.10677257925272, 0.16628356277943, 1.45641458034515, 0.15886414051056, 0.89655059576035, 0.53751295804977, 1.07306396961212, 4.04142999649048, -1.72770810127258, 0.29908582568169, 1.11785542964935, -1.24055325984955, 0.00045058879186, -2.88290333747864, 0.27681109309196, -0.18323852121830, 1.42543554306030, 0.25367057323456, -0.14567968249321, 0.63957083225250, 0.12444680184126, -0.64263850450516, -1.02488744258881, 0.28374302387238, -3.06020879745483, -1.65238261222839, -4.12021350860596, 0.07136735320091, -1.04457175731659, -0.51283448934555, 0.43028298020363, -2.13721251487732, -0.55251508951187, -1.39914178848267, 0.30041760206223, -0.50353074073792, 2.84373903274536, -0.40695473551750, -0.40190133452415, 1.30384087562561, 1.44542658329010, -0.91713541746140, -0.24806864559650, -0.07823602110147, -1.41985702514648, 0.90215778350830, -1.02003479003906, -1.03450214862823, 1.59673821926117, -1.37225878238678, -1.38172030448914, 1.05133759975433, -0.86416512727737, -0.49276742339134, -0.29339978098869, 2.09733057022095, -1.39344859123230, -0.18970663845539, -0.74867451190948, 2.03037047386169, -0.69637882709503, -0.94824343919754, 0.06535819172859, -1.33281481266022, -0.08809500932693, 1.56477451324463, -2.75090050697327, -0.36389890313148, -0.06814124435186, 0.68156850337982, -0.86550664901733, -0.46990925073624, -1.24634921550751, 3.38198757171631, -0.50834316015244, -0.45653915405273, -1.86804485321045, 1.24121034145355, 0.92798829078674, -0.68952363729477, -0.82752722501755, -1.95608341693878, -1.57777667045593, 0.24749010801315, 0.65730535984039, 2.95103073120117, -0.52952224016190, -1.75684916973114, -0.24694199860096, -0.08228869736195, -1.74591183662415, 0.74396878480911, 1.08899295330048, -1.01873672008514, -1.00963056087494, -0.08465541899204, -0.67305898666382, -0.89789575338364, 0.74559980630875, -3.18785405158997, 0.61008810997009, -0.35590630769730, -1.21209716796875, 1.24808156490326, -2.27343010902405, -1.70664405822754, 0.62324291467667, -0.58938819169998, 0.12376989424229, 2.32387876510620, 0.53809714317322, 1.01063883304596, 0.91786068677902, 0.77002316713333, -0.92791134119034, -2.48092842102051, -0.18491241335869, -0.31652867794037, 0.96220564842224, 1.57034707069397, -1.20621919631958, -0.38520210981369, 1.35587978363037, -1.17605352401733, 0.33179628849030, -0.04973128810525, 4.95181894302368, 4.48451471328735, -0.35340464115143, -2.00775027275085, -0.26903095841408, -2.14144897460938, -1.35127639770508, -1.07639908790588, 1.50519287586212, 1.30183136463165, 1.22931516170502, 0.12824003398418, 1.70244741439819, 0.31182551383972, -0.69606143236160, -1.02038300037384, 2.05361270904541, 1.21784555912018, -1.30082726478577, 0.28015640377998, 0.81086409091949, 0.69335168600082, -0.32304334640503, 0.18073409795761, 0.12988868355751, 0.73101317882538, 1.58120238780975, 2.15530014038086, -1.10346269607544, 1.64127981662750, 0.59334957599640, 0.57579278945923, -1.15644109249115, 0.08545753359795, 1.25858557224274, 2.64309144020081, -0.35687017440796, -0.52247375249863, -0.43173849582672, 2.13081049919128, 0.40174898505211, -0.30283513665199, -1.70165276527405, 0.17252674698830, 1.00443041324615, -1.54337930679321, 0.26510351896286, 0.49865964055061, 0.28393206000328, 0.86682218313217, -0.52977859973907, -0.36662751436234, 0.10230430960655, 0.66143792867661, -1.21697092056274, 1.96500122547150, -0.09048940241337, 0.51093477010727, 0.81873393058777, 0.87174034118652, 0.60048049688339, -0.10996007174253, -0.10763651877642, 1.44403886795044, -0.67000204324722, -0.65831786394119, 1.51332390308380, 1.93857848644257, -0.41413721442223, 1.71876406669617, -0.53560626506805, -0.21224121749401, -2.65252947807312, -0.76006644964218, 2.17583703994751, -0.16627478599548, -0.36208179593086, 0.95008575916290, 1.21545386314392, -0.06191681697965, 1.03515183925629, -1.78454554080963, -1.32878172397614, 0.26598966121674, -0.20220403373241, -0.54936158657074, 0.61494731903076, 0.17789338529110, 0.07631641626358, -0.01723846048117, -0.69995278120041, -0.34063971042633, -0.86645066738129, 1.53765022754669, -0.59414583444595, 1.49902081489563, -0.22933234274387, -0.68251907825470, -1.48945331573486, 1.88250470161438, -1.37040042877197, -0.16503073275089, 1.38469326496124, -0.62390440702438, 1.35502004623413, 0.50151425600052, 0.09064920991659, -3.73463416099548, 2.99999761581421, -1.57301294803619, -1.35475718975067, 0.45162001252174, -2.87477946281433, -0.10373665392399, -0.77223360538483, -0.98761886358261, 0.59459394216537, -0.22896379232407, 0.15425689518452, 0.75694113969803, -1.39481651782990, -2.11669635772705, -0.07331044226885, -2.31705212593079, -0.14781503379345, -0.16118234395981, -1.02024936676025, -0.65196144580841, 1.80624008178711, 0.91123193502426, -0.08997409790754, -0.20130969583988, -0.00113509490620, 0.03257558494806, -0.14194865524769, 0.19396467506886, 0.59853285551071, 0.01042656693608, -0.63650244474411, 0.79224514961243, 1.80169177055359, -0.77615237236023, 1.32964622974396, -0.38037526607513, -0.02029316686094, -0.57508587837219, 0.52077305316925, -0.71050715446472, -0.16254995763302, 0.78525435924530, 3.68800282478333, -0.91345763206482, 0.03509209677577, -0.62647235393524, -0.52107852697372, 0.24415209889412, -0.42855411767960, 2.36374807357788, 0.45148935914040, -1.19808268547058, 0.40203750133514, 0.40240940451622, 0.68970102071762, -2.78432846069336, 1.60350894927979, 0.06149681285024, 0.04834804311395, -0.44424119591713, 0.66485750675201, 0.57251173257828, 0.72152417898178, 1.05942285060883, -0.80698668956757, -1.48888361454010, -0.09751035273075, -0.97501116991043, -1.40566492080688, 2.23507976531982, 2.15032625198364, -0.81847137212753, 1.12369871139526, -0.24886886775494, 0.14024527370930, 0.27047967910767, -1.23145091533661, -0.46656784415245, 1.16076493263245, 0.14314599335194, -1.19705784320831, 0.12503239512444, -0.26793709397316, 0.69388639926910, -1.28337275981903, -0.83073413372040, -0.44366210699081, 0.01193969324231, 0.36971521377563, 0.26550048589706, -0.90374010801315, -0.65237259864807, 0.18364545702934, -1.67443990707397, 1.26409792900085, 0.41461452841759, 1.03087484836578, 0.61638927459717, 0.76561003923416, -0.11394602805376, 1.59342586994171, 0.33664369583130, 0.37585330009460, -0.41893684864044, 0.56660521030426, -1.11793732643127, -0.82823437452316, 0.44729089736938, -0.62718331813812, -0.66616815328598, 1.17237615585327, 0.25086459517479, 0.43508094549179, -2.30807209014893, -0.12162755429745, 1.26774048805237, -0.71319705247879, 0.01129348762333, 0.02476859278977, 1.04640066623688, 1.72541356086731, -0.11987023055553, 1.04849720001221, 1.28904569149017, -0.10826659947634, -0.48313981294632, -0.65065795183182, -0.70461171865463, -0.69268822669983, -0.72791981697083, 0.13270227611065, 1.22921442985535, 0.08728280663490, -0.90965098142624, 0.04854140058160, 0.12184982746840, 1.32586920261383, 2.14624500274658, 0.69706803560257, -1.37074208259583, 0.20222325623035, 1.32020831108093, 1.45051205158234, -1.57706844806671, -2.18567776679993, 0.12617979943752, 1.05823147296906, -1.37058675289154, -0.29713550209999, -0.31981715559959, -0.35810598731041, -1.41127026081085, 0.18599000573158, -0.16087903082371, 1.31029224395752, 0.71616142988205, 0.18355582654476, -0.19561062753201, -0.04013736173511, 1.28143393993378, 0.53831654787064, 0.79849511384964, 0.04488252848387, -0.00065610825550, 0.98759794235229, -1.03534233570099, -0.74020475149155, 1.84927129745483, 0.19262699782848, 0.60920149087906, -0.27017033100128, -0.63309252262115, -0.05279077216983, 0.28630387783051, 0.30586448311806, 0.44780680537224, 0.99454432725906, 1.91549289226532, -0.93592184782028, 3.84643530845642, 1.39606428146362, 1.04588770866394, 0.17108106613159, 0.83544707298279, 0.65592032670975, -0.13638687133789, -0.67191106081009, 0.14709807932377, 0.41468885540962, 2.91449928283691, -5.26448345184326, 2.85948944091797, 0.12864759564400, -1.21311557292938, -0.98036074638367, -0.30301830172539, 0.15511028468609, -0.75706779956818, 0.06600899249315, 2.57958054542542, -0.33319318294525, 0.73126411437988, -0.95495861768723, 0.02089939638972, -0.22910892963409, 1.05452072620392, 0.94677716493607, -0.11482176184654, -0.97673153877258, -1.19063198566437, -0.51618427038193, 1.59841609001160, -1.61658477783203, 1.65070605278015, -0.58493596315384, -1.18029654026031, -0.67874562740326, -0.18521998822689, -2.05833458900452, -0.88229197263718, -0.43466880917549, -0.39125260710716, -0.18098038434982, 1.10718524456024, -2.12907767295837, 1.58696401119232, 0.10827710479498, 2.77989530563354, -1.31369721889496, 1.81398379802704, 2.06342053413391, -0.38621389865875, -0.07743198424578, -1.77574515342712, -0.41931042075157, -0.72504335641861, -0.61659550666809, -0.13780301809311, 0.17313186824322, -0.59916514158249, 0.26274949312210, 2.35186910629272, 0.60590910911560, 0.11068014055490, -0.19795119762421, 0.20450736582279, -0.76109540462494, 0.10549727082253, 0.81190180778503, 2.43909001350403, 1.29412996768951, -1.46572804450989, -0.61279982328415, -0.59300148487091, -0.20623449981213, 0.42860448360443, 0.45332303643227, -2.30438947677612, -0.70323050022125, -3.57974100112915, -0.35831293463707, 0.01275749132037, -1.93621027469635, 0.71161478757858, 0.66487687826157, -3.82752919197083, -2.16651082038879, 1.19920647144318, -0.15728552639484, -1.79604446887970, -0.31221708655357, -0.13929656147957, 0.33864620327950, 1.24930024147034, 1.16542327404022, -0.34928685426712, -0.88863009214401, 0.47378569841385, 0.67752140760422, -1.02399694919586, 1.50436556339264, -1.76571130752563, -2.32597279548645, -0.20597122609615, 0.39089459180832, -0.45366010069847, 0.31926950812340, 0.67547017335892, -1.43203210830688, 1.57107961177826, 0.91165721416473, -1.51903474330902, 0.59942311048508, 0.67648226022720, -0.87414228916168, -1.33057725429535, -1.36948370933533, 0.51928216218948, -0.88367861509323, 0.52016448974609, -1.92533075809479, 0.92195546627045, -0.00698893098161, 0.67637389898300, 0.89547622203827, 0.16792954504490, 0.65970927476883, -1.21207678318024, 0.21585172414780, 0.36706939339638, -0.34365519881248, -2.46127486228943, 0.01954296603799, -0.07787888497114, 0.30317726731300, -2.79390096664429, -0.12984469532967, 0.01952516846359, -0.74962365627289, -0.35930761694908, -0.95246565341949, 0.73086017370224, 0.42057991027832, 1.88216269016266, -0.68931120634079, -0.65155309438705, -0.27971264719963, 0.74146217107773, 0.30039665102959, -1.06124258041382, 0.90630364418030, -0.31736347079277, -1.08455705642700, -0.47603684663773, -0.78555196523666, 1.07098948955536, 1.49398326873779, 0.88636851310730, 0.08790185302496, 1.93798971176147, -0.62555068731308, -0.65109091997147, 0.64214646816254, 1.86813628673553, -0.56168562173843, 0.37741321325302, 1.28111732006073, -1.12398290634155, 0.07196015119553, -2.27446460723877, 0.58858668804169, -0.39191904664040, -0.28889828920364, 0.60384833812714, 0.19841845333576, 2.09088397026062, 0.28653460741043, -0.42057421803474, 0.23753502964973, -0.82791358232498, 0.30070811510086, 0.79579275846481, -0.35053655505180, 0.11239433288574, 1.49331760406494, -0.65341806411743, 0.15770910680294, 0.83698177337646, 0.12522210180759, 0.51921969652176, -0.50234502553940, -0.08838592469692, -0.53624224662781, 0.60099208354950, -0.83862674236298, -1.68059229850769, 0.04575121402740, 0.62817209959030, -0.52222484350204, 1.32168459892273, 1.33656036853790, 0.31678816676140, 0.50319170951843, -0.53953421115875, 0.77960389852524, 0.61862939596176, -1.63051939010620, 0.70234656333923, -0.65298026800156, -0.04540819674730, -0.55693989992142, 0.33660644292831, 2.90760350227356, -0.74148762226105, -0.54478347301483, -0.46519964933395, 1.21808564662933, 1.75899112224579, 1.59136831760406, 1.51663899421692, 2.57547783851624, 0.89274841547012, 0.53785246610641, -0.41728645563126, 0.59566444158554, -1.29567861557007, 1.53491151332855, 0.36971151828766, -0.09283442795277, -0.48134294152260, -0.58802133798599, 1.00308907032013, -0.55656474828720, -1.11956870555878, -3.73966073989868, 0.90547096729279, -1.34634101390839, 0.03230607882142, -1.47960114479065, -1.14403188228607, 0.61194354295731, 0.46468862891197, 1.79012048244476, -0.50404489040375, 1.62075018882751, 0.31157615780830, -0.22328376770020, 0.89399570226669, -1.41781330108643, 0.90209859609604, 0.02035613171756, -1.01422572135925, -1.23417103290558, -1.50822579860687, 3.22236275672913, 0.20573812723160, -0.26566642522812, -2.39806866645813, 0.70073497295380, -1.73733222484589, 1.46244311332703, -0.50770831108093, -0.28942143917084, 0.86383193731308, -0.04044722765684, -0.84059804677963, 0.03614528104663, 1.31889700889587, -1.97390675544739, 1.08910918235779, -0.53257435560226, 0.78952181339264, -1.82202839851379, 0.22900353372097, -1.54736268520355, 0.23646162450314, 0.28519648313522, -0.64790546894073, 2.16149234771729, 0.98378342390060, 0.34433284401894, 0.47456464171410, -0.71757674217224, 0.98620319366455, -1.18073689937592, -1.42847132682800, -1.10990667343140, -1.70519351959229, -1.35634553432465, -0.02903360314667, 0.12423576414585, 0.03798545151949, 0.11364881694317, 0.93363904953003, -1.43786036968231, 0.94673544168472, 0.24735008180141, 1.65207660198212, 0.33480995893478, -2.26828408241272, -0.37000843882561, 0.35260105133057, 0.04732402041554, 0.95754510164261, 2.27281904220581, -0.61480581760406, 0.44063031673431, -1.87754321098328, 0.55132550001144, 0.78431379795074, 0.40076133608818, 0.55384951829910, -0.98012244701385, -2.32918357849121, -0.02106770873070, -0.57710260152817, 0.03657509386539, -0.28491467237473, -0.12007753551006, -2.36680984497070, -0.28300300240517, 3.85658860206604, 0.04579104855657, 0.93792456388474, -0.38776317238808, -0.30919072031975, 0.68555456399918, 0.26702696084976, 0.37611904740334, -0.83016657829285, -0.61434680223465, -0.47790294885635, -2.23488044738770, 1.19103109836578, -0.73996949195862, -1.33802664279938, -1.17153096199036, -0.36344099044800, -1.26503932476044, 0.86087250709534, -0.83305710554123, 0.27285033464432, 0.34178021550179, 1.13801920413971, 0.44386383891106, 0.59579825401306, -1.06771850585938, 0.89288926124573, 0.30411684513092, -1.06522917747498, -0.49625056982040, 1.25275456905365, -0.68716406822205, -1.31861639022827, 0.41898542642593, 1.76828002929688, 0.26137465238571, -2.30284261703491, -0.85987102985382, -0.14063443243504, -0.65271520614624, -0.76944094896317, 0.28802257776260, 1.00469923019409, 0.74928843975067, -0.28822621703148, 0.93931293487549, -1.95479273796082, -0.11698102205992, 0.55573654174805, 0.59257960319519, 0.82918286323547, 1.06742322444916, -0.83704835176468, -0.81709128618240, 0.44846239686012, 0.63098007440567, 1.41332781314850, -0.53925073146820, -0.87151598930359, -1.05539321899414, 1.05770909786224, 0.65723401308060, 1.31952667236328, 1.74219655990601, -1.56401252746582, 0.62271094322205, 0.70415455102921, -0.31916001439095, 1.32227110862732, 1.66309094429016, 0.72586792707443, 0.37180331349373, -0.95464944839478, 0.15419501066208, 0.88338500261307, -0.53024435043335, 0.26452621817589, 0.71405786275864, 1.07338273525238, -0.92196524143219, -0.87466317415237, -0.11375111341476, -1.31544125080109, 1.24623870849609, 0.70976352691650, 0.55324095487595, 1.01069915294647, 0.76991039514542, -0.09561374038458, 0.25379988551140, 0.08739885687828, -1.71415114402771, 0.77508008480072, 1.14090943336487, -3.27660775184631, 1.37706875801086, -0.15615667402744, 0.28515347838402, 0.01933679357171, 0.60957473516464, 0.67738592624664, -0.77978420257568, -0.47414788603783, 0.60623222589493, 0.73577147722244, -0.54603004455566, 0.03844636306167, -0.54808586835861, -0.20100969076157, 1.02975213527679, 1.38118422031403, 1.73057234287262, -0.58420407772064, -0.71517837047577, 2.31321716308594, 0.29142931103706, -0.21094422042370, -0.71971338987350, -0.09943193942308, -0.72122460603714, -3.90867304801941, -0.72975432872772, -1.78624510765076, 0.00509141851217, -0.95484107732773, -0.92019021511078, -0.01685361564159, -0.01366617437452, -1.77942764759064, -2.23237419128418, -1.58948421478271, 0.83229243755341, -0.89804011583328, 0.96634376049042, -0.22777825593948, 1.57519447803497, -0.96729981899261, 1.16042137145996, -0.82054692506790, 1.03580570220947, 0.76470470428467, 0.35888305306435, 0.42244380712509, -0.94995164871216, 0.86438304185867, 0.48880290985107, -2.16227221488953, 0.92486339807510, 1.01389026641846, 0.32279995083809, 2.35027456283569, -0.06246742233634, 1.34977173805237, -0.48520937561989, -0.41069832444191, 0.02637113444507, -0.46629586815834, 0.18026979267597, 1.89177906513214, -0.35390689969063, -1.06561386585236, -0.55776935815811, 1.04885220527649, -0.28602811694145, -1.05046021938324, 0.09031167626381, -1.34968876838684, -0.08167274296284, -0.58610832691193, 0.23619398474693, 0.90060347318649, -2.18629145622253, 0.28918692469597, -1.43222081661224, -2.72191095352173, -2.19355845451355, -0.14469805359840, -1.30778539180756, -0.25744009017944, -0.62455725669861, 0.06256645172834, 1.71585369110107, 0.31024882197380, 0.31057316064835, -1.01088643074036, -0.73699259757996, 0.28711950778961, 0.23952677845955, 2.18338704109192, 0.67155826091766, -0.39888176321983, 0.05824854597449, 1.67737114429474, -1.29222142696381, 0.47614425420761, 0.65761911869049, 1.23975253105164, 0.49203771352768, -0.99225127696991, 0.55362904071808, 0.32870256900787, -0.08951769769192, -2.22333455085754, 0.13766731321812, -0.34574326872826, -2.13837456703186, 0.13792249560356, 1.27774786949158, -0.02444670349360, 0.05282136797905, 0.66723674535751, -0.76284545660019, -0.06596581637859, 1.15202641487122, 0.20235571265221, -0.42029777169228, 1.38545262813568, -1.66519677639008, 0.76710927486420, -1.31307470798492, -0.79012221097946, 0.37226814031601, -0.47096350789070, 0.26762521266937, -0.56099385023117, -0.95791274309158, -0.15270458161831, 1.47568237781525, 0.83933144807816, -0.52096194028854, -1.34746170043945, 2.24001550674438, 0.99565368890762, 3.42955493927002, 0.76349693536758, 1.16453123092651, -0.50405579805374, -0.52347564697266, -1.98539078235626, 2.13370299339294, 1.72028350830078, 0.79809576272964, 0.89304250478745, 0.97767901420593, -0.08279979228973, 0.98785817623138, 0.04965275898576, 0.79211872816086, 0.45627471804619, 0.48243579268456, -0.54155623912811, -0.38800016045570, 1.37548589706421, -0.37428349256516, -1.59308123588562, 1.97240269184113, -0.38314008712769, -0.35881885886192, -0.42457807064056, 2.15270876884460, -0.28206729888916, 0.55581688880920, -0.08789746463299, -0.99435180425644, 0.37625485658646, 1.42331004142761, -0.69586652517319, -0.33256447315216, -0.59976106882095, 0.32709267735481, -0.69966423511505, 0.60146939754486, -0.53995895385742, -0.12169440835714, 1.02486872673035, 0.37659436464310, 0.27913147211075, 0.51937675476074, -1.14686191082001, 0.63905036449432, -0.18667440116405, 0.70123791694641, -0.23425495624542, 1.30546832084656, -0.09445919096470, 0.47396078705788, 0.26479452848434, -0.92787575721741, -0.25290530920029, -0.20714145898819, -0.06122925505042, -0.70871925354004, -0.59075325727463, 2.53530383110046, 0.46413922309875, -0.00252991332673, -2.30501627922058, 0.19839754700661, 0.59503692388535, -0.16716103255749, -1.96914887428284, -1.22068214416504, 0.14538578689098, 0.65404522418976, -1.03129577636719, 0.56850671768188, -1.16846632957458, 0.88202697038651, 0.48983746767044, 0.26226860284805, -0.84045988321304, 0.31178182363510, -1.10327255725861, 0.23965345323086, 0.25435543060303, 0.95147812366486, 0.42141678929329, -0.94073706865311, -0.37445524334908, -0.81196856498718, 1.15306234359741, -0.88192725181580, 0.04979511350393, 0.30201885104179, 0.66620695590973, 0.64717906713486, 1.05193245410919, 1.08898186683655, 0.25561845302582, -0.15044312179089, -1.08452785015106, -0.53820747137070, 0.58896636962891, 0.26027622818947, 0.03673778474331, -0.03557750955224, 0.31496497988701, 0.92576420307159, 0.14027462899685, 0.72925490140915, 1.00062012672424, -1.10398685932159, -0.87165641784668, -0.18373465538025, -0.26641467213631, 0.83669406175613, 0.37875357270241, 1.45817625522614, 0.12036468088627, -0.40176925063133, -1.29069137573242, 0.09613756090403, 0.35460495948792, -2.49930238723755, 0.14463301002979, -1.20369148254395, 1.07128083705902, 0.50709193944931, 1.35278403759003, -0.15101562440395, -0.59164196252823, -0.41809663176537, -1.16321873664856, 0.35738843679428, 1.30732703208923, 0.88103193044662, -0.39650213718414, -1.35385859012604, 0.08598254621029, 0.96996998786926, -0.88801527023315, -2.09344315528870, 0.65823858976364, -1.18676972389221, 0.89950102567673, 1.06255710124969, -1.29244446754456, 0.32208296656609, -0.55071729421616, -0.98234343528748, -0.29570958018303, 1.82845163345337, 1.43173670768738, 0.63664263486862, -0.95274728536606, 0.50557506084442, -1.08845043182373, -1.17058336734772, -0.36095696687698, 0.92285364866257, 0.03572590276599, 0.59582144021988, -1.16957986354828, 0.57883322238922, 0.74341410398483, 1.00509166717529, 0.38103818893433, 1.20127737522125, 0.44086778163910, -0.66090250015259, 1.29115188121796, -0.22044534981251, -0.41852268576622, -0.28976899385452, -0.51256603002548, 0.63302564620972, 0.70179468393326, 0.10010211169720, 1.33062505722046, -0.32399398088455, 0.93233746290207, -2.07294726371765, 0.11322099715471, 0.24798709154129, 1.24494087696075, -0.70763385295868, -1.56324899196625, -2.63425445556641, 2.03308320045471, -0.08793475478888, -0.31759485602379, 0.33382895588875, 0.73578906059265, 0.03112274408340, 0.32287180423737, -0.53811246156693, 0.87899142503738, 1.08548510074615, 0.21862213313580, -1.61207520961761, -0.05259700864553, 0.06893023848534, 1.15078794956207, -0.22090391814709, 1.12209844589233, 0.70850682258606, -1.78481471538544, -0.12451441586018, -0.71559321880341, -0.93886756896973, -0.57008349895477, 0.74217706918716, -1.14866137504578, -0.41448220610619, -0.80766034126282, -0.87264066934586, 1.63765263557434, -0.07075040042400, 1.50696301460266, -0.37742233276367, 2.30190229415894, -1.07418203353882, 1.06181502342224, -0.78777939081192, 0.75910460948944, 0.66962707042694, 0.97800701856613, -1.55238521099091, -0.44283542037010, -0.24747838079929, -0.97180306911469, -0.72378516197205, 1.32792520523071, 0.14203202724457, 1.15986120700836, -1.11196267604828, -1.12930405139923, 0.06479167193174, 2.77329564094543, 1.66833424568176, 1.83076369762421, 0.12187524884939, -0.35546654462814, 0.57973265647888, 0.85931998491287, 0.26769948005676, -2.14099669456482, -0.02008846402168, -0.56359517574310, 1.08203744888306, 0.58511698246002, 0.30461037158966, 0.14956954121590, -1.37171030044556, -2.49549341201782, -0.19375523924828, -0.90729910135269, -0.28480446338654, -0.20295622944832, 0.32616707682610, 1.30819916725159, 0.71280562877655, -0.10162094235420, -2.45948433876038, -0.11913055926561, 0.34207698702812, 0.48772150278091, 0.00481741316617, -0.33015453815460, -0.48327499628067, -1.07597339153290, -0.54017215967178, 0.63035476207733, 0.99946898221970, 1.05862724781036, -0.86935460567474, -0.25867587327957, -0.65064460039139, -1.33004117012024, -0.76316940784454, -0.83047646284103, -0.68476408720016, 0.35675644874573, 0.24303226172924, 0.11372247338295, -0.61339360475540, 2.13497328758240, -0.37918260693550, -1.62497138977051, -0.65626835823059, -1.29386460781097, 1.33365154266357, -0.63311028480530, -0.35848313570023, 0.64272302389145, -1.86938655376434, -0.91208726167679, -1.14625287055969, 1.24464690685272, 0.30995333194733, 0.81317341327667, -0.75884109735489, 0.15362112224102, 0.03086576797068, -0.40657186508179, 0.54202204942703, -0.61262053251266, 0.31697073578835, -2.47631907463074, -2.75049018859863, -1.31728982925415, 0.18439944088459, -1.16969871520996, 0.03298003971577, 0.59767913818359, -0.02045213431120, -1.95587623119354, -0.81632691621780, 0.99793452024460, 0.63781970739365, -1.18151581287384, -0.52847647666931, 0.41593414545059, 0.78254616260529, 1.51873338222504, -1.45642781257629, -1.31721854209900, -0.37994292378426, -0.56777840852737, 0.78681105375290, 1.09633839130402, 0.03650257736444, 0.62667119503021, 1.02606976032257, 0.57389742136002, 0.94155675172806, -0.95542156696320, -0.24014404416084, -0.40251824259758, -0.05238173902035, 0.59187418222427, -0.24351549148560, 0.18900527060032, -0.59661698341370, -0.50808632373810, -0.54558378458023, 0.11953462660313, -0.68886148929596, -0.50713926553726, 0.19193023443222, 1.17425560951233, -0.05201267451048, -4.04979658126831, 0.17985795438290, 1.00479221343994, -0.11382052302361, -0.93241733312607, -0.75257635116577, 0.16065780818462, 1.04309320449829, -0.99413782358170, -0.37029942870140, -0.10958497226238, -0.39352884888649, -0.92169052362442, -1.62581193447113, -0.01363459601998, 2.44179534912109, 1.24066722393036, -0.30340501666069, -0.60997897386551, -0.03537770360708, 0.12088283896446, 1.07905864715576, -2.10122990608215, -0.21684134006500, 0.86254286766052, -0.92763948440552, -0.18541269004345, 0.56335592269897, 0.53531390428543, 0.76210719347000, -2.33408498764038, -0.26437610387802, -1.48391091823578, 2.78308963775635, -1.23597300052643, -0.60811692476273, -1.24917709827423, -0.14978690445423, -0.94818603992462, -0.40479686856270, 0.77842468023300, -0.24500384926796, -1.33703267574310, -4.18132591247559, 1.01762020587921, 0.63951069116592, 1.88442862033844, -1.29506170749664, -0.21712380647659, -0.47163257002831, 0.18117010593414, -1.03065598011017, 0.65393137931824, -1.11569249629974, 1.15739190578461, -0.62172234058380, 1.08623385429382, -0.67412114143372, 1.81048989295959, 1.67649364471436, -0.45915025472641, -0.37656795978546, -0.57872402667999, -1.82201707363129, -1.41107451915741, 2.84226417541504, -0.57378047704697, 0.63421016931534, 0.12343392521143, -0.44255980849266, 1.12803459167480, -0.97280931472778, 1.14926028251648, -0.13937680423260, 0.57878983020782, 0.07073993980885, -0.03192386776209, 1.90505957603455, -0.99483203887939, -1.16634261608124, 0.26773199439049, 1.05251014232635, 0.42028579115868, -0.00442053563893, 1.81334376335144, -2.02014160156250, 0.02870060876012, 1.17867124080658, -0.65351718664169, -0.02638880349696, -1.04650723934174, 1.09464228153229, 0.07143795490265, -0.16734869778156, 1.42086791992188, -0.75026273727417, 1.56812429428101, 0.62632650136948, -0.28628820180893, -2.24172735214233, 0.23281243443489, 0.20894376933575, -1.09714937210083, -0.95129579305649, 0.51662534475327, 0.69817197322845, -0.14831273257732, 0.86679345369339, 0.93823599815369, 0.30786719918251, -0.35871371626854, -1.13943624496460, -0.93824195861816, -1.59340894222260, 0.35645067691803, 0.95188826322556, -0.04236461594701, 0.50714790821075, 0.58805376291275, -0.50164902210236, 0.78283244371414, 0.00928248651326, 2.36345624923706, -0.58274042606354, 1.94300794601440, -0.44965088367462, 0.05011406168342, 1.54308795928955, 0.43175929784775, 1.44800543785095, 0.04619968309999, -0.84023296833038, 0.00429591629654, 0.21485140919685, 0.94506627321243, 1.26533663272858, 1.59327721595764, -1.78584361076355, -0.36055445671082, 0.99575835466385, -1.11127138137817, -0.11437725275755, -0.98282545804977, -0.41387522220612, -1.32084941864014, -0.82485407590866, 3.05505967140198, -0.68203955888748, -0.23185673356056, 0.64598792791367, 1.52961516380310, 1.25846135616302, 0.21946604549885, -1.26989555358887, 1.67438089847565, -0.03717721253633, -0.45256868004799, 0.48034399747849, 2.53312015533447, 0.36804100871086, -0.86962914466858, -1.89442682266235, 0.40984255075455, -0.14463435113430, 2.07275128364563, 1.36929929256439, 1.74691271781921, -0.61658710241318, -0.97448134422302, -1.09463202953339, -0.20817945897579, -0.19429905712605, -0.11345461755991, -1.25014865398407, -1.13246345520020, -0.18267135322094, 2.51729226112366, -1.39442574977875, 0.27259063720703, 1.04360783100128, 0.97270882129669, 0.83657675981522, 0.04067129641771, -2.36286187171936, 0.89706975221634, -0.23128446936607, 1.20299327373505, -0.94906634092331, -0.65067028999329, 0.14311225712299, 0.07666759938002, -0.24813266098499, -0.39677819609642, 1.03072285652161, 0.88422590494156, -0.54606962203979, 1.14783298969269, -0.33760482072830, 0.26950380206108, -0.69605320692062, 1.52672123908997, 0.65688550472260, -0.63353317975998, -0.14022742211819, -2.49709010124207, 0.76128327846527, -0.42188760638237, -0.58092677593231, -0.52827537059784, -0.45363640785217, 3.05483603477478, 0.25277602672577, -0.96338993310928, 0.26105120778084, 0.26974326372147, -0.33982902765274, -0.51048374176025, -0.01144472137094, 0.02096012420952, -1.48130333423615, -0.78382539749146, -0.09445254504681, -1.70885002613068, 1.33702206611633, -2.58646702766418, 0.70106559991837, -1.88418602943420, 1.39406907558441, 1.57479953765869, 1.77120375633240, -1.57522177696228, 1.58147597312927, 0.91936445236206, -1.01055884361267, 0.58063846826553, -0.29317787289619, 1.14305603504181, -0.33508890867233, 2.03936171531677, 0.02748300880194, -1.04934835433960, -1.36285817623138, -0.90983086824417, 0.91559195518494, 0.35984185338020, 0.82041215896606, 0.26197046041489, -0.91723495721817, -1.29120421409607, 0.17738127708435, -1.48737537860870, 2.77673268318176, 0.00733936810866, -0.68479776382446, 0.29183045029640, 0.71535021066666, 0.08929000049829, 1.30898010730743, -1.58523368835449, -0.01768931373954, -0.12636914849281, -0.06926468759775, -0.55110538005829, 0.12422931194305, 0.03345868736506, -1.28117990493774, -2.09919285774231, -0.05847708508372, -0.77134358882904, 0.47949436306953, -0.83437597751617, -0.03581468015909, -0.03791859373450, 0.81090092658997, -2.58915328979492, -0.64247751235962, -1.30320167541504, -0.76912230253220, 2.21352410316467, -0.55174618959427, -0.78788679838181, -0.68736118078232, -0.90303462743759, 1.98099803924561, 1.70817387104034, -0.91065788269043, 1.13839709758759, 0.24325165152550, -0.92895525693893, 0.36085867881775, 0.13432674109936, 1.77079272270203, -2.48975682258606, -1.69692432880402, 0.58151239156723, -0.35790824890137, 0.00521774822846, -0.41241151094437, -0.79323035478592, -1.13911497592926, -0.62802034616470, -1.98670172691345, 0.17505891621113, 0.64174175262451, 0.30646672844887, 1.20938909053802, -0.22523710131645, -2.56999254226685, -1.25996553897858, -1.00922155380249, 0.27003109455109, 0.20383849740028, -0.50705993175507, 0.04198137298226, -1.11462485790253, 0.74085968732834, -0.18963827192783, 0.96348869800568, -0.54230570793152, -0.10744300484657, -0.94171237945557, 0.33186963200569, -0.02827027440071, 0.15351299941540, -0.55576467514038, 0.28104266524315, -0.82144266366959, 0.85082471370697, 0.19300347566605, -0.37084677815437, -0.01900884509087, -0.68178850412369, 0.07117626816034, -1.55038762092590, -1.49251365661621, 0.38433718681335, 0.96658188104630, 0.63555878400803, -0.16109231114388, -0.86372762918472, -0.02650957182050, -0.05430557951331, -0.30581825971603, 0.92961323261261, -0.04477391019464, 0.62985116243362, 0.52651298046112, 0.24519422650337, 2.09225463867188, 0.07515486329794, -0.62175142765045, 0.48799914121628, -0.97097027301788, 0.26438570022583, -0.28676655888557, 1.68367588520050, -1.39434599876404, 1.70907008647919, -0.90452647209167, -0.19310939311981, 0.59719550609589, 1.03876161575317, -0.20480637252331, -0.97449290752411, -1.03800809383392, 0.56350004673004, 1.60098624229431, 0.26403304934502, -0.26720792055130, -0.48972758650780, 0.07700814306736, -1.67614400386810, 0.74437367916107, 2.34636354446411, -0.34397754073143, 1.47772586345673, 0.89700061082840, -0.49303933978081, 0.79961699247360, 0.74543803930283, -0.09036837518215, -0.62354600429535, 1.35188269615173, 0.66770154237747, -1.32473647594452, 1.98275160789490, -0.74379742145538, 0.81780505180359, -2.00253486633301, 0.72881340980530, -0.26972001791000, 0.62142300605774, -0.23782300949097, 0.25079718232155, -0.16187569499016, 0.29812571406364, 0.57464909553528, -0.92702758312225, -0.18003965914249, 0.59600788354874, 0.14602015912533, -1.84741663932800, -0.65839046239853, -1.21273064613342, -0.47611674666405, 2.82915449142456, -0.23639667034149, 0.79040491580963, 0.67613571882248, -0.05873389914632, 0.35353875160217, 0.87507104873657, -1.03028392791748, 0.51572376489639, 0.99060273170471, -1.34196376800537, -0.47695186734200, -0.67433422803879, 0.50908935070038, -1.18587923049927, 0.20441323518753, -1.55524158477783, 0.46604999899864, 3.42159295082092, -1.13071417808533, 1.33713543415070, -0.89216881990433, -1.32003402709961, -2.41600847244263, -0.98980164527893, -0.11724879592657, -1.01426756381989, 0.38904094696045, 0.42816948890686, -0.42657434940338, 0.57424330711365, 4.19537448883057, 0.67534148693085, -0.18909746408463, 2.37888789176941, 0.83381128311157, -1.32177925109863, 0.19126318395138, 0.67279684543610, -2.31608080863953, -1.49392783641815, -0.09810810536146, 0.20533704757690, 1.49652755260468, 2.11359953880310, -0.83837616443634, -1.07392036914825, -0.64260190725327, 1.08531904220581, 2.33618330955505, -0.80231702327728, 2.03502821922302, 0.56548213958740, -1.44335186481476, 0.74538946151733, -0.00845556054264, 0.04543102532625, -2.24586653709412, -0.04713039845228, 1.15131628513336, 0.11639656126499, -1.07309246063232, -1.06195664405823, 0.48115828633308, -0.43869775533676, 0.03643336519599, 0.16351035237312, 0.53018355369568, 1.18296921253204, -0.13214921951294, -1.33111000061035, -0.27099734544754, -0.69927102327347, 0.52371311187744, -0.94511121511459, 0.17713016271591, -2.85374879837036, 0.38520273566246, 0.72784543037415, 0.61387437582016, -0.38243988156319, -0.81757390499115, -0.93170404434204, -0.03185023739934, -0.15485386550426, 0.59008717536926, 1.29520821571350, 0.44586765766144, -0.78410607576370, 0.20332746207714, -1.53907251358032, -0.05106266587973, 1.76254701614380, -0.12537762522697, -2.77343130111694, 0.27636256814003, 0.51513344049454, 0.06060730665922, -1.23308563232422, 0.09403281658888, -0.83244138956070, 0.59311300516129, -0.15019942820072, -1.15668833255768, -1.01656603813171, -0.92308533191681, 0.95248925685883, 0.06257448345423, 1.30438864231110, -0.99007940292358, -0.21084959805012, -2.89873456954956, 1.48781621456146, -0.89310765266418, 0.01453846320510, -2.49783015251160, 0.54584389925003, 1.39504754543304, 0.74544578790665, 2.45151042938232, -0.14015841484070, -1.44742417335510, -2.32819342613220, -1.26471793651581, -0.53125602006912, -0.16899541020393, 1.01811015605927, -3.43963527679443, -1.08934104442596, -0.85455548763275, 0.06682954728603, 0.33146086335182, -0.47313511371613, -0.61187857389450, 1.45365893840790, 1.51692140102386, -1.06427228450775, 0.20346730947495, 1.65831673145294, 0.15216836333275, -1.33346259593964, 1.68664801120758, -3.22361350059509, 0.58492994308472, 1.40686058998108, -0.36183193325996, 0.58401966094971, -1.10033857822418, 1.24950051307678, -1.25864493846893, -0.04358543455601, -0.64934957027435, 1.54648029804230, -3.27154493331909, 0.83384823799133, 0.09228311479092, 0.92181980609894, 0.25537842512131, 2.88204407691956, 0.49872362613678, 2.12804865837097, -0.79739695787430, -1.29119396209717, -3.54102993011475, -0.14760270714760, -0.26406833529472, 0.66631704568863, -0.89863264560699, -0.68545931577682, 0.13355349004269, 0.25652229785919, 0.40131661295891, -0.53185623884201, -1.02736675739288, 0.50116616487503, 1.46517217159271, -1.23196041584015, -0.03498479723930, 0.67776656150818, 0.56409454345703, 0.70292812585831, 0.13190343976021, 0.33592674136162, 0.42050033807755, 1.97120022773743, -1.21988666057587, 1.85722243785858, 1.17779922485352, -0.52113479375839, 0.37112113833427, 0.02538545057178, 0.24166651070118, -1.07227611541748, 1.66190350055695, 1.74840617179871, 0.62419080734253, 1.06654787063599, 0.13385550677776, -0.97802883386612, -2.46064329147339, 1.24367392063141, 0.36174991726875, 2.25820279121399, 0.47203212976456, -0.67398345470428, 0.68427175283432, 0.15394465625286, -1.97799766063690, -0.28911864757538, -1.69068443775177, 0.81821215152740, -0.54406648874283, 2.08350944519043, 2.22153592109680, -0.34959843754768, 0.98585242033005, 0.40718117356300, -1.86701524257660, 0.27545893192291, -1.29909408092499, -0.11377748101950, 0.29931488633156, -0.41992640495300, 0.43266308307648, -1.94722366333008, -0.95553338527679, 0.68758279085159, -0.64755380153656, 0.19672235846519, -0.23760123550892, -0.97721081972122, 0.65261059999466, -1.33090579509735, -1.81374335289001, 1.41269743442535, -0.06339366734028, -0.57282060384750, 0.48057442903519, -0.48250034451485, 0.69222491979599, -0.19755169749260, 0.65770435333252, -2.08373188972473, -0.59753614664078, -0.16922059655190, -0.41646960377693, -0.86526817083359, 0.11299358308315, -0.86974465847015, -0.16033929586411, -1.21876072883606, 1.15396463871002, 1.75552320480347, -0.97333741188049, -0.56953889131546, 0.56026077270508, -1.83727252483368, -0.23071487247944, -1.21453654766083, 2.05513787269592, 2.15818214416504, 0.17547720670700, 1.22495377063751, -0.63540923595428, -1.30615639686584, 0.54336827993393, -1.77613341808319, -0.05293184891343, 0.75543373823166, 0.87749505043030, -0.96349191665649, 1.27545046806335, -1.44942140579224, 1.86631226539612, -0.63091158866882, -0.77608644962311, 0.41175720095634, -0.25035351514816, -0.69745010137558, -1.01643586158752, 0.48781004548073, -1.82654643058777, -0.39094489812851, -0.99645298719406, 0.66459131240845, -0.94089019298553, -0.37491092085838, 1.06674480438232, 0.71059721708298, -0.19697631895542, 0.66554272174835, 0.04896133765578, 0.02150708250701, 0.00281427218579, -1.22146165370941, 0.10999498516321, 1.20381522178650, 0.99047827720642, 0.71609097719193, -0.63408160209656, -0.62816810607910, 0.77445876598358, -0.07388186454773, 1.45175993442535, -0.43742510676384, 0.44418025016785, -0.28085228800774, 2.39309120178223, 0.30011537671089, -0.72896647453308, -2.34833168983459, -0.67580735683441, -0.95202338695526, -0.91654729843140, -1.22385132312775, -0.78501480817795, -0.08762027323246, 0.07637840509415, 1.69864368438721, -0.01929442957044, 1.17365229129791, 2.17752552032471, 0.10263703763485, 0.50217026472092, 0.17692963778973, 0.11920786648989, -0.62374186515808, -1.19342994689941, 0.30641320347786, 0.68675345182419, -0.93605059385300, 3.24571633338928, 0.24092519283295, -0.48321670293808, -0.67254596948624, 1.83408772945404, -3.40647482872009, -0.58074939250946, -1.54270827770233, 0.30218544602394, -2.21036052703857, -0.75163167715073, -0.55111181735992, 0.72642564773560, 0.30002516508102, 0.91724836826324, 0.43622931838036, 1.23060965538025, -0.51354408264160, 0.64803934097290, 0.69139832258224, -0.80065608024597, -0.12507973611355, 0.21361604332924, 0.00289737945423, -1.75654101371765, 2.29675936698914, -1.06801044940948, -0.91529881954193, 1.41338002681732, 0.41040885448456, 0.34240630269051, -0.40909612178802, -1.21165537834167, 0.28157383203506, -0.31901615858078, -0.53901404142380, -0.12090654671192, -1.09992742538452, 1.68901669979095, 2.48727178573608, -0.07669243216515, 0.19574064016342, -0.18962989747524, -2.07362580299377, -0.11556039005518, 0.47954419255257, -1.10490512847900, -0.87933099269867, -1.56619656085968, -1.01777017116547, -0.29060620069504, -0.26557067036629, -1.74262642860413, 1.10816061496735, 0.28855487704277, 2.87011981010437, -0.96487569808960, -1.59198081493378, -1.06854903697968, 0.23329305648804, -0.52435261011124, -0.19561567902565, -0.71121376752853, -3.45878720283508, -0.52815163135529, -0.76594007015228, -2.31210923194885, -0.68466389179230, 0.72135531902313, -1.47081315517426, 0.05552149564028, -1.35306465625763, 1.49232161045074, 2.03426671028137, -0.46465626358986, -1.20350384712219, -1.93260431289673, 0.77285760641098, -0.93009829521179, 1.16759169101715, 0.14890334010124, 0.67417919635773, 0.76327174901962, -0.82709735631943, 1.04376792907715, -1.49806463718414, 0.59788697957993, 0.62934547662735, -1.68443882465363, 1.00606191158295, -1.66354489326477, 0.24842046201229, -0.61009317636490, 1.85868465900421, 0.23269657790661, 0.33594596385956, 0.29750102758408, 0.26015946269035, -0.72273540496826, 0.72555512189865, -0.69348889589310, 0.45065310597420, -1.72938632965088, -1.59586608409882, 2.16644215583801, 0.79194217920303, -1.24952387809753, 0.26242119073868, 0.10742304474115, -0.10611918568611, 0.21684919297695, 0.14153060317039, 1.31250452995300, 0.83066248893738, -0.64654362201691, -0.17347283661366, -0.68181890249252, -1.76416110992432, -0.69995623826981, -0.24969975650311, 1.24457967281342, -0.51420027017593, -0.04737134277821, -1.07060253620148, -0.65138834714890, 0.98457115888596, -0.78857588768005, -0.73894828557968, -0.01094303186983, 0.89617121219635, -0.12403848767281, 1.88710951805115, -0.10784291476011, -0.61989414691925, -0.45084109902382, -0.26669579744339, 0.74629181623459, -0.08919829130173, -1.16328155994415, 0.55166453123093, 0.06378453969955, 2.49120712280273, 0.13609318435192, -3.03754949569702, 2.09946751594543, -0.59984660148621, -0.16992881894112, 0.25152713060379, -1.08202946186066, 0.64033859968185, 0.30336436629295, 1.66041028499603, 2.10517501831055, -1.44227182865143, -0.20062048733234, -1.88083648681641, -1.46987044811249, 1.87717616558075, 1.05494403839111, 1.37222552299500, 0.75834822654724, 0.07820114493370, -1.05275630950928, 0.58530026674271, 1.31059193611145, -0.51904350519180, 1.75816619396210, 2.18070530891418, -0.02285502664745, -1.47128176689148, 0.50731766223907, 0.66310369968414, 4.23084068298340, 0.22330130636692, -1.24088895320892, -1.43585383892059, -0.00717114657164, -1.64431929588318, 1.05614089965820, -0.71923816204071, 0.14502957463264, 0.57204300165176, -2.23232579231262, 0.47943323850632, -0.58676171302795, -0.51151084899902, 0.11007154732943, -3.07488656044006, 0.70039021968842, -1.30964994430542, 0.73809343576431, 1.55822360515594, -0.61774247884750, 0.69847500324249, 2.36417150497437, -0.06459447741508, -0.59082859754562, 0.75438541173935, -0.16121196746826, -0.82051169872284, -1.72785317897797, -2.03584623336792, 0.32482469081879, 0.82090514898300, -0.29852548241615, -1.09600448608398, -2.56786561012268, -0.58023774623871, -1.65313625335693, 0.34062945842743, 1.24517786502838, -0.47007298469543, 0.50053244829178, -0.25068464875221, -1.60583782196045, 0.23054341971874, -0.29274481534958, 0.00741146923974, -1.16747713088989, -0.31580418348312, -0.99416393041611, 0.58808165788651, 1.46372389793396, 0.50286996364594, 0.95349335670471, -0.62587606906891, -0.06513670086861, 1.73246932029724, -0.76280385255814, 1.15194296836853, -0.15908834338188, -2.27114510536194, 0.17822527885437, -0.44423392415047, -1.69788932800293, 2.13391733169556, 0.57315522432327, -1.46453034877777, -1.08305549621582, 1.02023971080780, 1.98009288311005, 1.29596483707428, -1.05544984340668, 1.75816357135773, -0.76723748445511, 2.06957077980042, -0.03245789930224, -1.14772343635559, -0.76933312416077, 0.68062949180603, 0.43844529986382, 0.23032537102699, -0.51063287258148, 0.93929040431976, 1.13826441764832, -1.50819694995880, 0.56574171781540, 1.56547737121582, 0.24525043368340, 0.50950753688812, 2.91126704216003, -0.62182033061981, 0.63123053312302, 0.23922684788704, 0.01826449297369, 1.67371892929077, 0.21391169726849, 0.94699472188950, 1.24432659149170, -0.47954094409943, -2.18936967849731, 1.65060675144196, 0.35113048553467, -0.54664742946625, 0.29590481519699, 1.29676115512848, 0.18025404214859, -0.03785524889827, 0.49135300517082, -0.85376483201981, 0.07470510900021, 0.78150415420532, -0.37787082791328, -2.17333889007568, -1.25920879840851, 0.02228827960789, 0.46651771664619, -0.17466104030609, -0.35104471445084, -0.79831266403198, -2.83434653282166, 1.90482246875763, -0.68271851539612, 0.61807233095169, -0.09789585322142, 0.63809198141098, 0.13010454177856, -0.81622654199600, 1.24536991119385, 0.01308636926115, -1.55320632457733, 0.44187793135643, 0.43053120374680, 1.62012815475464, 0.98370319604874, -1.33282423019409, 0.26196852326393, 0.40331956744194, 0.28612887859344, 1.19616305828094, -0.80005800724030, -0.60606795549393, 0.77850168943405, 2.42587518692017, 0.12496573477983, -0.32449245452881, 0.02339611575007, -0.19024699926376, 0.79472196102142, 0.62766909599304, -0.10783946514130, 0.46487444639206, 0.01362419314682, -1.76620912551880, 0.06084990501404, -1.01178586483002, 0.69619303941727, 0.44698128104210, -0.35090070962906, 1.81882727146149, -0.20707282423973, 0.31196868419647, 0.75998169183731, 1.02661335468292, -0.25737556815147, -0.87763410806656, -0.60915565490723, 0.59020888805389, 0.74173802137375, -0.36271262168884, -0.30324235558510, -0.85454261302948, 1.07807445526123, -0.03278381004930, -0.23076349496841, 0.43753215670586, 1.07195711135864, -0.27287676930428, 0.09437517821789, 0.72550570964813, 1.00766527652740, 0.60405939817429, -0.99188286066055, -1.53896367549896, 0.78775286674500, -2.30308866500854, 1.91866433620453, -2.15257859230042, -0.52783346176147, 0.77988076210022, 0.33057904243469, -1.43789112567902, 0.56148386001587, 0.54975116252899, 1.42107915878296, -0.59435355663300, -0.59046012163162, -0.10269816964865, -0.58140742778778, 0.13968023657799, -0.14483833312988, 1.44549560546875, 0.94906389713287, -0.10742516070604, -0.31939262151718, 0.95111334323883, -1.67213702201843, 1.45172405242920, 3.22944426536560, -0.63888949155807, 1.48882281780243, -1.68276965618134, -0.26963877677917, 1.05363154411316, -0.64254939556122, -0.44143593311310, -1.14146232604980, -0.19006119668484, 0.12011013925076, -0.65842890739441, -0.35403001308441, -0.48823514580727, -0.45246934890747, 0.31174895167351, -0.41296958923340, 1.05816674232483, -0.10357986390591, -1.59746277332306, -0.66455990076065, 1.13817381858826, -0.14036117494106, 0.95244568586349, -0.76284897327423, -0.74705368280411, -2.26144576072693, 1.42390704154968, 0.28600063920021, 1.26043820381165, 1.13753032684326, -0.12008500844240, 0.92156332731247, 0.28568002581596, 0.69006919860840, -1.02207362651825, 1.56386470794678, 0.27545055747032, -0.80341827869415, -1.14098358154297, 1.19367325305939, -0.65536707639694, 0.80618566274643, -0.47735604643822, -0.62547236680984, 0.95751953125000, 0.31964132189751, 0.26278650760651, 1.54736566543579, 0.59007656574249, -0.32984820008278, -1.52811527252197, -2.02108335494995, 2.48359394073486, 1.43351674079895, -0.10452559590340, 0.21094247698784, -1.18591690063477, -0.27421876788139, -0.55749511718750, -1.16898417472839, -2.07482051849365, -0.84044677019119, 0.62959742546082, 0.02688017301261, -1.80183053016663, 0.67527174949646, 1.94991838932037, -1.11595559120178, 0.54647773504257, 0.38312134146690, 0.16398419439793, 0.93326926231384, 1.20719993114471, -0.04834653809667, 1.11402630805969, 0.03369323536754, 1.23026740550995, 0.79652893543243, 0.78383576869965, -0.12883298099041, -1.17599582672119, -0.74300688505173, -0.82200521230698, -0.47428598999977, -0.36475336551666, -0.21332611143589, 1.40616142749786, 0.11219708621502, -0.84060639142990, 0.56617325544357, -0.23042121529579, -0.93669360876083, 0.67404383420944, 0.08004407584667, -1.54385936260223, 1.07141292095184, -0.56747102737427, -0.08848061412573, 0.92837667465210, 1.17884886264801, -0.19375902414322, 2.96276736259460, -1.02250361442566, 0.75590771436691, -0.35985416173935, -0.38293150067329, 0.79623144865036, -0.40558776259422, 0.38408115506172, 0.40156677365303, -0.77560573816299, 0.23410119116306, -1.57700407505035, 0.97900241613388, 1.17130184173584, 0.64562922716141, -1.83588314056396, -0.57961612939835, 0.19876900315285, 1.27770328521729, 0.65610325336456, 0.60002464056015, -3.79960584640503, 0.40112680196762, -0.38376590609550, 0.42011836171150, 1.01546907424927, 0.32790601253510, -0.72837078571320, -2.91263389587402, -0.67524701356888, 0.27602645754814, -1.10343539714813, 0.05097563192248, 0.55693179368973, -2.87195062637329, -0.12453773617744, -2.80907702445984, -0.59750944375992, 0.07274350523949, -1.43727290630341, -3.15214657783508, 0.84026771783829, 1.30885148048401, -0.40865573287010, 0.14719274640083, 0.47993573546410, -0.43632009625435, 1.05686748027802, -0.10979257524014, -0.15451708436012, -0.62704730033875, 2.07365798950195, 1.44110703468323, 0.55646991729736, -0.19638516008854, 2.20112943649292, 3.70325040817261, -0.66880035400391, -0.45218071341515, 0.82546740770340, -0.71510362625122, -1.20308995246887, 0.88143074512482, -0.08546394109726, -0.34438070654869, -2.33476829528809, -0.84826791286469, 0.42534327507019, 0.98156672716141, -0.41061976552010, -0.17859047651291, 0.58010816574097, -0.76374006271362, -1.08696532249451, -2.10786700248718, 0.65861612558365, -0.90859758853912, -0.82244116067886, -0.62695485353470, 0.53208732604980, -1.09644269943237, -1.23564052581787, -0.27809166908264, 0.39244011044502, -0.51539021730423, 0.08348961919546, -2.09735751152039, -2.41406893730164, -0.39103889465332, 0.29773575067520, 1.49043273925781, -0.71467936038971, -0.21394367516041, -0.67524784803391, -0.46677714586258, -0.09718043357134, 3.95675897598267, 0.79198485612869, -0.42726853489876, 0.25782087445259, 0.15983428061008, 1.88082814216614, 0.28771832585335, 0.41781866550446, 1.41751861572266, 1.43682956695557, -0.88618260622025, 0.39731794595718, -0.04820695891976, -0.06107072904706, 0.12778261303902, 1.38914895057678, 0.10752157121897, 1.31513297557831, -1.94079542160034, -2.62232398986816, 0.94117468595505, 1.07796633243561, 0.46697059273720, -1.04056417942047, 0.11829893290997, -0.71965003013611, -0.85522907972336, 0.22923293709755, 1.20754992961884, 0.00239453278482, -0.81642550230026, 0.07052364200354, 0.72044324874878, -0.30378854274750, -1.66366517543793, 0.00184778368566, -0.29523754119873, 1.30569672584534, -1.50936317443848, 0.59006071090698, 0.11206565052271, -1.12486302852631, 0.85952377319336, -0.51102942228317, 0.72608441114426, -3.72900867462158, 1.55374157428741, 0.59329849481583, -0.54573863744736, -0.56180256605148, -0.65112638473511, -1.86139369010925, -2.02337765693665, 0.72386306524277, 3.58297848701477, -1.21686375141144, 0.09151703119278, 0.90469682216644, -0.60031914710999, 1.80930566787720, -0.24480837583542, 1.27443170547485, 0.39422282576561, -0.05195501074195, 0.56720960140228, 1.28569424152374, 0.84739476442337, 2.85598373413086, -1.20776629447937, 0.01674298383296, 0.54647487401962, -2.46065616607666, 1.59609627723694, -0.58166301250458, 0.82600665092468, -0.05599538981915, -1.60222911834717, -0.02419142052531, -1.14798152446747, -1.99820590019226, -0.37728849053383, -0.69681334495544, 0.94600063562393, -0.83100831508636, -0.51354366540909, 0.15922725200653, 0.15566726028919, -1.43802821636200, -0.04789000004530, 1.63482785224915, -0.87342011928558, 0.21808713674545, 1.23169708251953, 0.14344999194145, -1.28162789344788, -1.16555905342102, -0.01485858205706, 0.43997958302498, -0.45452162623405, -0.32493767142296, -0.86433315277100, -2.15334105491638, -0.32388561964035, 0.25550374388695, 0.62476778030396, -2.96589112281799, 0.08848405629396, 0.77727419137955, 0.06921942532063, -0.72980719804764, 0.16735664010048, -0.70201420783997, -0.91889601945877, -0.14097322523594, -0.75773763656616, -0.63962823152542, 0.38171675801277, 0.45439189672470, -0.66066110134125, 0.17016837000847, -0.56747192144394, 0.76872920989990, 0.07211421430111, 1.34073543548584, -0.45865243673325, -0.57052069902420, -3.65359449386597, 0.12332411110401, 0.41338485479355, -0.08756988495588, 0.98187834024429, 0.45898136496544, 1.43562626838684, -2.12333035469055, -0.46922272443771, 0.58801645040512, 0.09330531209707, -0.87603968381882, -2.40711784362793, -0.51311755180359, 1.44888377189636, -0.94367617368698, 1.57766497135162, -1.02400958538055, -1.17622673511505, 0.95941102504730, 0.44896697998047, 0.08131411671638, -1.12180948257446, -0.30345687270164, 0.36402118206024, -0.27112969756126, -1.09427952766418, -0.22900603711605, 0.69665056467056, -0.36074012517929, -0.95734870433807, 0.38459077477455, 0.24485315382481, 0.38335919380188, -0.06293269246817, 1.69841408729553, -0.19469648599625, -2.44777202606201, 3.62694549560547, 0.36590924859047, 1.78863763809204, 0.76512521505356, -1.82817590236664, 1.58296334743500, 1.12797296047211, -0.05446399748325, 1.44453918933868, -1.53439176082611, -0.46715477108955, -0.81733781099319, 0.86508476734161, -1.78659570217133, 2.92900061607361, 0.56181240081787, -0.15725167095661, 0.54282283782959, 0.08931867778301, -0.25096267461777, 1.72976624965668, -1.53798627853394, 0.57896953821182, 0.04312379658222, 0.57926315069199, -0.62116301059723, -0.77325105667114, 1.15246379375458, 1.18210303783417, -0.03085995279253, -1.56785106658936, -0.80454075336456, -2.32254242897034, 0.27630442380905, -0.05230596289039, -0.64469087123871, -0.27011847496033, -0.55545073747635, 0.30369052290916, 0.84736216068268, -1.22430431842804, 0.05946683511138, -1.62656521797180, -0.26054251194000, 2.54945015907288, 1.35079252719879, 0.85116249322891, -0.90678715705872, 1.39484918117523, -0.70366501808167, -2.00608038902283, 1.36001896858215, -1.19961726665497, -0.56323462724686, 0.86986929178238, -1.46847045421600, 1.57285761833191, -1.46833217144012, 0.83549827337265, 0.23568789660931, -0.50511902570724, 0.86384934186935, -0.25599995255470, 0.34446543455124, 2.58867216110229, 0.06579004973173, -2.61886930465698, 0.47620508074760, -0.18933399021626, 0.64640516042709, 1.13919603824615, -0.19743090867996, 0.07852362096310, 0.67648035287857, -0.24557216465473, 0.33493489027023, -1.14039885997772, -0.31053942441940, -2.14030623435974, -0.47410440444946, -0.81902843713760, -0.42612877488136, 2.98667407035828, -1.14204013347626, -0.66900259256363, 0.20019437372684, 0.72118961811066, 0.51829099655151, -2.34607672691345, -1.33748483657837, 0.67362290620804, 1.36743283271790, 0.06327362358570, 5.55605554580688, 0.54173803329468, -0.63793635368347, 0.06841698288918, 0.34706535935402, 0.98839998245239, -0.38153406977654, -1.65767574310303, 0.38836717605591, 0.08711433410645, 0.75879001617432, -2.56055402755737, -0.04255327954888, 0.35472837090492, -1.22210323810577, 2.56263923645020, -0.71138423681259, 0.03824175521731, -2.18044805526733, 3.14325237274170, 0.42723006010056, -0.16287799179554, -2.48340177536011, -0.73062425851822, -0.45398950576782, 0.33853295445442, 1.07367849349976, 2.70628762245178, 0.00707773724571, -1.61282002925873, 0.53511273860931, -1.40137159824371, -0.41510015726089, -2.63727021217346, 1.17494547367096, -1.92357778549194, -1.30456125736237, 1.02143585681915, -1.51263141632080, 0.00354746473022, 0.43136247992516, -0.81743210554123, 1.02480852603912, 0.34211447834969, 0.20606315135956, -0.75224816799164, 0.39289122819901, -2.17992544174194, -0.93013364076614, -0.41048938035965, 1.49254870414734, 0.55239123106003, 0.85579127073288, 0.15242117643356, -1.24420785903931, -2.28589558601379, 0.15572312474251, -0.13214571774006, 0.99997752904892, -0.15296535193920, -0.44199329614639, 0.59219032526016, -0.69080740213394, 0.28664061427116, -0.62319964170456, -0.31532829999924, 0.49528732895851, -0.07282571494579, -0.78743237257004, 0.94518887996674, 0.08006731420755, -1.88152396678925, 0.36823952198029, 0.94588595628738, 1.05013990402222, -0.72356069087982, 1.09862411022186, -0.49640396237373, -0.26748162508011, 1.50052404403687, 1.49947714805603, 0.36699494719505, -1.31716871261597, -0.01707697845995, 0.84095317125320, -1.07591903209686, 0.15204286575317, -0.24105030298233, -0.14574004709721, 0.97456210851669, 0.44247132539749, -0.75838488340378, 0.30381223559380, 0.46752640604973, -0.58504450321198, -0.73787409067154, 2.58551526069641, 1.69382643699646, -0.77648961544037, -0.79050308465958, -0.30356368422508, 1.33838260173798, 0.20729389786720, 0.83343791961670, 0.05262544751167, -1.29475617408752, 0.63458263874054, 0.94984132051468, -0.57866561412811, 2.84024095535278, -0.81520402431488, 0.86637204885483, -0.59528750181198, 1.86239838600159, 0.11858325451612, 1.14093506336212, 0.84273093938828, 0.54546904563904, -0.36337846517563, -2.19618439674377, 2.26659417152405, -0.13449093699455, -0.05604257062078, 1.67604911327362, -1.66047787666321, -1.98762857913971, 0.29824486374855, -0.55912351608276, -0.37193405628204, -0.25134250521660, -0.27336168289185, 0.39005640149117, 0.46103236079216, 0.14412105083466, -0.48465365171432, 0.28648909926414, -0.46664780378342, -1.35072350502014, -2.76364612579346, 0.60084009170532, 1.66656196117401, -0.23709520697594, 0.31013211607933, -0.58874130249023, -0.59636420011520, 0.69360607862473, -0.46813112497330, -1.00268208980560, 0.10399131476879, 1.49366044998169, -0.83609229326248, -0.21756780147552, 0.23335017263889, 1.36235785484314, 0.40590727329254, -1.00900280475616, 0.45134198665619, 0.04615897312760, -0.14716690778732, 2.21570754051208, -0.68129253387451, 0.04015596956015, 0.94566136598587, 0.67435610294342, -1.39827680587769, -0.28831496834755, 1.03745150566101, -2.16509842872620, -1.21268010139465, -0.65142852067947, -2.31830525398254, 1.08228218555450, 0.52251350879669, -0.56737279891968, 0.94109827280045, -0.22353912889957, 0.15440472960472, 0.85513567924500, 0.91411256790161, 0.06052794679999, -0.41196703910828, -1.18194091320038, 0.00031155007309, -0.20592238008976, 0.31054276227951, 0.95225656032562, 1.23688149452209, 0.94818526506424, 0.27899479866028, -0.77311509847641, -1.34678184986115, -1.29382336139679, -0.06272135674953, 0.38854262232780, -0.17904564738274, 1.18355643749237, -0.33869794011116, -0.72514802217484, 0.86693722009659, 1.79796087741852, 0.79164767265320, 0.56384342908859, 