0.84211260080338, 0.45789894461632, -0.01939718611538, -1.72547292709351, 0.38963842391968, 0.21197663247585, 1.49215066432953, -0.67315310239792, -0.04193324595690, 1.23178219795227, -0.27759593725204, 0.96057909727097, 2.26768875122070, 0.03671505302191, 3.06569838523865, 0.17362757027149, -0.91347765922546, -1.27532601356506, 0.73230254650116, -1.60079443454742, -0.50357985496521, -0.45638799667358, -0.31250107288361, 0.11076815426350, -2.81004643440247, -0.11816608160734, 0.07778211683035, 0.98226469755173, -0.32231649756432, -4.80736351013184, 0.10589467734098, -0.91029357910156, -0.25165462493896, 0.83214306831360, -0.75267034769058, 3.42126417160034, 0.24947912991047, -0.32269763946533, 0.29495453834534, 1.54491496086121, 0.49963194131851, 0.19581189751625, -0.62581229209900, -1.03226912021637, -4.42816448211670, -1.18291413784027, 0.63153350353241, 0.02961547113955, 0.55283516645432, -1.14589536190033, 0.48228958249092, -0.26049667596817, 0.20709480345249, 0.01268199924380, -0.29225051403046, -0.51763170957565, 0.83871263265610, -1.55048799514771, 0.51002269983292, -0.41222947835922, 0.32909634709358, 0.62183231115341, -0.56405162811279, -1.88906264305115, 1.49386167526245, -0.85457175970078, 0.97864216566086, -2.19700360298157, 3.67596840858459, -0.85109990835190, 1.63463914394379, -1.05797016620636, -0.27198806405067, 1.12042307853699, 0.96019041538239, -0.84790539741516, 0.81754642724991, 0.29374223947525, -0.40761038661003, -1.79912292957306, 0.50398868322372, 0.35773402452469, 5.49121284484863, 1.53692638874054, -0.76790678501129, -0.13352884352207, 1.05246257781982, -0.08348447829485, 0.40060752630234, -0.69026798009872, -0.24885155260563, 0.39082464575768, -0.61884802579880, -0.52438348531723, 0.78245121240616, 1.82848227024078, -1.50039196014404, -0.23903483152390, -0.34731438755989, -0.86220115423203, -0.84854871034622, -0.45312708616257, 0.30142393708229, -1.52990400791168, 0.65659856796265, -0.19717168807983, -0.35927918553352, 0.40250462293625, 1.80315804481506, 0.65930587053299, 1.71634054183960, 0.58182555437088, -0.04016688466072, 0.78147959709167, -0.57285672426224, 0.39757359027863, -0.65084552764893, 1.22367250919342, -1.50737941265106, 0.19541664421558, 0.33108842372894, -0.71645593643188, 0.95261055231094, 0.03390566259623, -0.15942601859570, 1.10963237285614, 1.83206772804260, -0.66430622339249, 1.01611018180847, 1.89210903644562, 1.56437242031097, 1.04757630825043, -0.02233482338488, 2.74702334403992, -1.81567537784576, -0.41207605600357, 1.13889718055725, 2.85252070426941, -0.85600191354752, -0.14242461323738, -0.18465745449066, -0.20203681290150, -1.06282937526703, 1.39689731597900, -1.78590440750122, -0.13949477672577, 0.14075584709644, -3.61771082878113, 0.70059758424759, 0.38027486205101, 1.43449652194977, 1.25777280330658, -0.57586002349854, -0.15111118555069, -0.13398770987988, -0.37533605098724, -0.42349466681480, -1.70176362991333, -0.26689463853836, -0.44513058662415, -0.58615314960480, 1.24867534637451, 0.16766855120659, -0.46340125799179, -0.66729789972305, -0.68312853574753, -0.39589765667915, 0.53740811347961, -0.91748660802841, -0.13932223618031, -0.58260810375214, -0.03452663496137, 0.18697923421860, 0.32165575027466, 1.41906464099884, 0.47582882642746, -0.02166001312435, 0.06833848357201, 1.43797898292542, -0.45636239647865, 0.03726123273373, 3.55816578865051