//Numpy array shape (182,)
//Min -3.877199172974
//Max 6.730657577515
//Number of zeros 0

#ifndef OUT_PROJ_BIAS28_H_
#define OUT_PROJ_BIAS28_H_

#ifndef __SYNTHESIS__
layers_3_self_attn_out_proj_bias_t out_proj_bias28[182];
#else
layers_3_self_attn_out_proj_bias_t out_proj_bias28[182] = {1.14546954631805, -1.46758210659027, 3.30747318267822, 0.32862702012062, 0.70457851886749, 0.95533162355423, 4.16956853866577, -3.82829356193542, -1.31242370605469, 1.22828483581543, 0.00034036074067, 0.61290150880814, 1.82428443431854, -0.04051459953189, 2.00214982032776, 1.49347722530365, -2.49059438705444, -0.88531649112701, 1.74341475963593, -2.08910942077637, -0.06275593489408, 1.02414357662201, 0.84434449672699, 1.44245886802673, -2.12571930885315, 0.37903553247452, 0.72514420747757, 3.69325089454651, 0.12241575121880, 1.36959326267242, -0.78825867176056, -0.57880228757858, -1.18220794200897, 2.46210145950317, 0.24133318662643, 2.65105986595154, 0.97710090875626, 0.83152055740356, -2.96036219596863, -1.97320330142975, -0.46070870757103, 1.54332315921783, -1.95253491401672, -0.31815806031227, -3.39657711982727, -0.45184022188187, -2.54597306251526, -1.15503239631653, -0.02069987356663, -2.22787213325500, -0.48570549488068, 0.16668456792831, -0.57435846328735, 0.07947919517756, 0.94280421733856, 1.40234446525574, 2.52757120132446, -1.64607155323029, 1.27636325359344, 0.77797698974609, 0.03459476307034, -0.20823085308075, 0.66246354579926, -1.40905439853668, 1.15718102455139, -2.43680834770203, -1.29051017761230, -1.30252361297607, 4.62360572814941, 1.27104663848877, 1.81774508953094, 0.68882316350937, 1.34443163871765, -0.72544032335281, 1.24522471427917, -2.54745793342590, -0.98900157213211, 1.21742749214172, -0.84381389617920, -0.70241218805313, 1.45093870162964, 1.61098909378052, 2.78536319732666, -1.38918042182922, -2.11176395416260, -1.96371459960938, -3.39443421363831, 2.41337943077087, -1.20798075199127, -0.82726675271988, -0.51653420925140, -0.44266504049301, 1.28115916252136, 0.88860094547272, 0.94597566127777, -0.29046601057053, -1.31891047954559, 1.26998209953308, -3.87719917297363, -0.82198429107666, -0.32793170213699, -0.23308481276035, -0.88560199737549, 0.08533307909966, -1.01404762268066, 0.82797229290009, 3.66890239715576, -0.82946580648422, 0.93302309513092, 2.25432085990906, -1.32670700550079, 2.25998735427856, -2.38929748535156, -2.25121045112610, -0.79999226331711, -0.49779796600342, -2.15120291709900, 0.35838681459427, -0.41966921091080, -0.24548952281475, 2.21305680274963, -0.05868099257350, 1.46753191947937, -0.56997448205948, 0.36222538352013, -1.87475299835205, 3.05732250213623, 0.94941228628159, 0.28868991136551, -0.34456965327263, -2.00367879867554, 1.27075219154358, -0.57343155145645, -1.96956062316895, -3.00616049766541, -0.58736062049866, 1.35730743408203, 0.36193835735321, 0.60535377264023, -1.50016593933105, 0.70798486471176, 1.21917736530304, 3.24734997749329, -2.18809533119202, -3.18719625473022, 0.31701985001564, 3.06863903999329, -0.45972067117691, 4.63925361633301, -0.94392216205597, 2.01470804214478, -1.94091975688934, -0.76423239707947, -2.14890336990356, 0.01466792915016, 0.99766999483109, 2.30329942703247, -0.10933298617601, 0.37739691138268, -1.26322281360626, 0.08517953753471, -1.21214568614960, 1.45319747924805, -0.50779771804810, -1.69036960601807, -1.31114256381989, 1.28268742561340, -0.67520928382874, -2.39361143112183, -3.33723688125610, -0.95801138877869, 0.12455113977194, -0.51596373319626, -0.79488068819046, 0.09440362453461, 1.58627235889435, 0.16978025436401, -1.35897505283356, 6.73065757751465, -1.02647936344147, 2.79793429374695, -1.91967535018921};
#endif

#endif
