-0.51839244365692, -1.36075806617737, -0.61650353670120, -1.16876316070557, -0.20943802595139, -0.65967917442322, 2.18982243537903, -1.69352304935455, 0.10464886575937, -0.20187112689018, -0.39697989821434, -0.70597940683365, 0.01303808763623, -0.22655487060547, -0.50366532802582, -0.29841765761375, -0.03906190395355, -0.39629152417183, -0.37266471982002, -0.43185082077980, -0.28464367985725, -1.92337536811829, -0.35628035664558, 0.16316148638725, -0.41803115606308, -0.12615284323692, -0.42511451244354, -1.42287027835846, -0.30051961541176, -2.01505565643311, -0.82804954051971, -0.48873254656792, -0.03123197518289, -0.33477228879929, 0.11988489329815, 0.02677374891937, 0.02364008314908, -0.01382137369365, -0.08647990971804, -0.09080316126347, 0.04852644726634, 0.04807565361261, 0.22409382462502, -0.21046219766140, 0.15684454143047, 0.15180158615112, 0.83001679182053, 0.16387829184532, 0.04135686531663, 0.14266252517700, -0.17131026089191, -0.15212452411652, 0.22249722480774, 0.15769304335117, -0.32770389318466, -0.10659871995449, -0.18623539805412, -0.04139196127653, -0.11570194363594, 0.33942857384682, 0.20253385603428, -0.39271482825279, -0.26069176197052, -0.18894924223423, 1.73345410823822, -0.89568388462067, -0.02392312139273, -0.16979493200779, 2.85349798202515, -1.32080113887787, 0.02110326290131, -0.78234851360321, 0.07072546333075, -0.11927557736635, 0.01408560480922, -0.25361704826355, -0.01665055565536, -0.04989929869771, 1.68664920330048, -0.84564626216888, -0.24537153542042, -0.32955953478813, 0.78138381242752, 0.04129342734814, -0.15858522057533, -0.20527030527592, -0.21595083177090, -0.04567655920982, -0.48288598656654, -0.06647822260857, -0.27314120531082, -0.51690888404846, 0.13273638486862, 0.29666337370872, 2.83549213409424, 1.49738562107086, -0.14649862051010, 0.49621221423149, -0.17462053894997, -0.21549050509930, -0.18978106975555, -0.36104637384415, 0.14538976550102, -0.11685745418072, -0.09339228272438, 0.27137702703476, -0.13601225614548, -0.19077457487583, 0.70540052652359, -0.05088906362653, 0.46666353940964, -0.08794832974672, -0.02904246002436, -0.06049822643399, -0.18967661261559, -0.29616612195969, -0.42131605744362, -0.05234405398369, -0.01060665305704, -0.56803935766220, -0.17459882795811, -0.53612905740738, 0.13080741465092, -0.09149400889874, -0.14554704725742, -0.27418100833893, -0.22322949767113, -0.42173302173615, -0.28319895267487, -0.22514456510544, 0.97903579473495, 1.26537358760834, -0.04117714613676, 0.03035535849631, 0.10628792643547, 0.07780165970325, 0.45643016695976, 6.35655593872070, 0.05809694528580, 1.18625223636627, -0.17004610598087, 0.88061904907227, -0.27435556054115, 3.32611703872681, -1.86997175216675, 1.09247446060181, 0.26657885313034, -1.05495882034302, -0.16456486284733, 0.79946964979172, -0.34395346045494, 1.38197302818298, -0.87812870740891, 0.69042873382568, 0.40136343240738, 1.45210933685303, -0.05503692105412, 0.64054155349731, -0.25411492586136, 0.38938245177269, -0.31926301121712, 1.32949113845825, -0.03069104999304, 1.13875102996826, -0.16388367116451, 0.56402885913849, -0.31081935763359, 0.78961360454559, -0.82041597366333, 0.85276764631271, -0.65878391265869, 0.53059405088425, 0.05365178361535, 1.00756371021271, 0.40143367648125, 0.96712470054626, 0.18812343478203, 1.04934227466583, -0.45066386461258, 0.91973286867142, -0.22890432178974, 4.05401992797852