2.6754784584045, -1.5723253488541, -1.9408131837845, 1.1447610855103, -0.2490880042315, -2.9258263111115, -1.5527145862579, 2.3104205131531, 0.8985167145729, 2.6784844398499, 1.0963851213455, -0.2943276762962, 3.3374476432800, -0.7096779346466, 1.6951062679291, 1.3406990766525, 0.9445619583130, -1.9024633169174, 2.8906247615814, 0.2904711365700, -0.4887225627899, -1.1561477184296, 1.8956357240677, 2.4413402080536, -1.2958471775055, -2.6434543132782, -4.8623881340027, -5.4461450576782, 0.4349562227726, -7.6173810958862, -1.3023358583450, -1.1828172206879, 2.4803938865662, -3.1395645141602, 1.8940135240555, 2.1370055675507, 0.8159518241882, 0.3126943707466, 0.9002681970596, 0.9344891905785, 0.9708320498466, -2.7009301185608, -0.0531738661230, -0.7537669539452, -3.5443627834320, 2.5868554115295, 8.6560497283936, 3.1089870929718, -1.8151847124100, 3.3279809951782, 1.6152665615082, -0.2690908312798, -0.5258274674416, 0.3958306908607, 2.9188635349274, 1.2024601697922, -0.4374505877495, -2.2462413311005, -0.1122704893351, -1.8599187135696, 1.0269225835800, 1.7240413427353, -1.5164157152176, 0.4428636729717, 1.2597692012787, 5.6922564506531, 2.7753386497498, -1.7423328161240, -1.0544174909592, 0.4270163178444, 3.1212871074677, -2.0888414382935, 0.9532417654991, 2.1345460414886, -2.6000363826752, -2.5176424980164, 0.7952671051025, 2.5559968948364, -0.3444910347462, -0.6247236728668, -1.5633308887482, -1.0505967140198, 0.2615150809288, 3.4181766510010, -1.7837029695511, 0.8276376724243, 1.4836914539337, -1.7055188417435, 1.2410206794739, 1.2206726074219, -0.7478723526001, -1.8313530683517, -0.8353171944618, -0.8741101026535, 1.2906138896942, 4.2643327713013, -1.8274633884430, -1.9752992391586, 1.8783549070358, -1.7632039785385, -0.7503868937492, -0.1820467263460, -0.2013163864613, -2.3079166412354, -1.9047048091888, 0.1782221347094, -2.7646014690399, -0.3661998808384, 0.0966648012400, -1.6808115243912, 0.4903710484505, -2.3277697563171, -0.6261052489281, 2.6041421890259, -3.0681920051575, -2.0526084899902, 0.1614049971104, -1.1751198768616, -0.9723271131516, -2.8661179542542, -2.1266677379608, -0.3784499466419, -0.2442582100630, 2.1624975204468, -0.7790464162827, -1.3635485172272, -1.0531963109970, -1.6448394060135, 1.0485765933990, -4.3343949317932, 3.8736615180969, -0.7586495876312, 3.2843317985535, 5.8697991371155, 0.7830010652542, -1.4539883136749, -1.3254871368408, 1.5948055982590, -0.4395859837532, 1.7233967781067, 0.0261972211301, -2.6349077224731, -1.3311722278595, -0.7872555851936, 1.7591907978058, 1.2312822341919, 0.8955913782120, -2.0675354003906, -0.0689400359988, -0.6319798827171, -0.0960869044065, 1.1508470773697, 1.9079470634460, 1.5932896137238, -1.2735497951508, 0.5439276695251, -2.5862290859222, -1.7720412015915, 0.1560083329678, -0.1556302160025, 0.5058500170708, -1.9231203794479, -0.1445687413216, 2.4751553535461, 0.7484743595123, 1.4830901622772, 0.1648530364037, 1.5364315509796, -2.0590186119080, 2.2264714241028, -2.2637505531311, -1.9460513591766, 1.3159083127975, 1.2114068269730, 1.1367961168289, 0.1630999147892, 0.7423310875893, -0.2442543655634, 4.9130220413208, -1.4764789342880, 1.8492324352264, 3.7168757915497