//Numpy array shape (33124,)
//Min -6.279921054840
//Max 6.389223575592
//Number of zeros 0

#ifndef OUT_PROJ_WEIGHT16_H_
#define OUT_PROJ_WEIGHT16_H_

#ifndef __SYNTHESIS__
layers_1_self_attn_out_proj_weight_t out_proj_weight16[33124];
#else
layers_1_self_attn_out_proj_weight_t out_proj_weight16[33124] = {-0.45340320467949, 0.40348935127258, 0.32594737410545, -1.11140143871307, -1.04636001586914, -0.71306562423706, 0.75258922576904, -0.45859533548355, 0.13500343263149, -1.05903494358063, 0.43898668885231, -0.51003003120422, 0.44156125187874, -0.21143421530724, 0.70488190650940, -0.42987149953842, -0.21902737021446, -0.98500496149063, -0.43396067619324, -0.93831276893616, -0.36656948924065, -0.81240808963776, 0.14248497784138, -0.94606286287308, -0.09059869498014, 1.26466810703278, 0.41876280307770, 1.66667389869690, 0.10530617088079, -0.68720149993896, -1.39135074615479, 0.20379114151001, 0.85432994365692, 0.20236560702324, 1.92223930358887, -0.67053508758545, -0.17245094478130, -0.86449795961380, 2.28668069839478, -0.47046288847923, 0.84400439262390, 2.20701384544373, 0.21051998436451, 0.74782162904739, -1.04788136482239, -0.20071363449097, -0.52150827646255, -0.51700568199158, -1.22957599163055, -0.99937444925308, 0.12523058056831, -0.14944313466549, 0.28790456056595, -0.37051087617874, -0.37986928224564, 0.14141152799129, 0.31147032976151, 0.39253640174866, 0.08520840853453, -0.11631506681442, -0.04892555251718, -1.06448256969452, -0.75155121088028, 0.93132829666138, -2.42615818977356, -0.57724827528000, -0.24104529619217, 0.48796626925468, 0.52414548397064, 0.00489597348496, 2.12132859230042, -1.47680687904358, -0.10974373668432, -0.08298700302839, -0.65246063470840, 0.21502991020679, 0.96689271926880, -1.07162666320801, 1.22139441967010, 0.11538794636726, -0.77526193857193, 0.55939263105392, -1.88825738430023, -0.47651070356369, -0.48825937509537, -0.61347484588623, 0.14911115169525, -0.84248697757721, 0.39113500714302, 0.42110547423363, 0.90810942649841, -0.11179534345865, 0.36369290947914, 0.08038847893476, 0.97496908903122, 0.16744726896286, 0.67226433753967, -0.62538284063339, 0.45041245222092, 0.43932777643204, -0.65062618255615, -0.33370721340179, 0.86221903562546, 0.10906421393156, -0.55589157342911, 0.42651766538620, -1.37266719341278, -1.00736510753632, 0.14051911234856, -1.19474005699158, 0.79633271694183, 0.29770815372467, 0.60667115449905, 0.11679731309414, 2.27878999710083, -0.66232323646545, 1.04639351367950, -1.15439438819885, -0.26712989807129, 1.03663694858551, 1.53933358192444, -0.27491965889931, -1.27060925960541, -0.77750730514526, -0.92217874526978, -1.06741321086884, 0.83386033773422, 0.30250102281570, -0.68618726730347, 0.40372028946877, -0.90555584430695, 0.02474728971720, -0.16718800365925, -1.27269494533539, 0.71494609117508, -0.73620426654816, -0.15957485139370, 0.23714956641197, -0.68616849184036, -1.08326911926270, -1.64006769657135, 1.07755231857300, -0.22898516058922, 1.34598398208618, -0.27528303861618, 0.08562619984150, 0.62484854459763, 0.12967166304588, 0.09010412544012, 0.49428504705429, -0.52885293960571, 0.79823666810989, 1.58585500717163, 0.70567584037781, -0.17803378403187, -0.03692923486233, 0.40801998972893, 0.33349773287773, -0.72791391611099, 0.15972779691219, -0.75124531984329, -0.13057188689709, -0.54076290130615, 0.29746121168137, -0.38148450851440, -0.57950818538666, -0.64778578281403, 0.38915142416954, -0.77813184261322, -0.02607848122716, 0.28313380479813, 0.19670753180981, -0.92906624078751, 1.35454535484314, -0.02550520375371, 0.26365241408348, 0.42678546905518, 0.25579154491425, -0.87432837486267, 0.04362256079912, 0.33638739585876, 0.05452999100089, -2.22208881378174, -0.50802761316299, -1.79282224178314, 1.07004821300507, 0.40434029698372, 0.32262778282166, 0.11996757239103, -0.58507537841797, -0.55243933200836, 0.08057939261198, 0.15775503218174, -0.47217544913292, 1.16404545307159, 0.44425448775291, -0.14793246984482, -0.03140934929252, -0.22317384183407, -0.34477177262306, 0.72491818666458, -0.53206747770309, 0.01662931032479, 1.64330005645752, -0.86243450641632, -1.07627594470978, -0.14849618077278, 0.36975106596947, 0.28754606842995, 0.35226234793663, -0.11151968687773, -0.79675990343094, 0.96875041723251, 0.76745605468750, 0.50011831521988, 0.95321959257126, -1.95236396789551, 0.91130352020264, 1.22760319709778, -0.51802581548691, -2.00847625732422, -0.78894913196564, 0.40467920899391, 0.05044412612915, -0.56457877159119, 0.04202997311950, -0.18141108751297, -0.21355193853378, -0.23001284897327, 0.37014704942703, -0.01418497972190, 1.13911628723145, -0.73938876390457, 0.35790196061134, -0.38842511177063, 0.06004223227501, 0.89887273311615, -0.67548322677612, -0.08936940878630, -0.53740620613098, 0.23137205839157, -0.81327617168427, 0.72472238540649, -0.34756067395210, -1.59947133064270, -0.42998054623604, 0.53831773996353, 0.50887084007263, 0.06373920291662, 0.19034992158413, 0.60494887828827, 1.37827610969543, 0.05808153375983, -0.67901617288589, 0.91160684823990, 0.23009298741817, 0.37396839261055, 0.90157371759415, 1.35912787914276, 1.14777362346649, -0.32792997360229, -0.26552948355675, 0.34528830647469, 0.53731745481491, 1.68648731708527, 0.64362961053848, 0.04577353969216, -0.68968749046326, -1.33479428291321, 2.81042027473450, 0.93246001005173, 0.44340613484383, 0.25053477287292, -0.97785496711731, -0.81834936141968, 1.05759930610657, 0.73418259620667, -1.16792643070221, -0.33791244029999, 1.54166901111603, 0.82083302736282, 0.79934412240982, -0.91787779331207, -0.37207469344139, -0.24788875877857, -0.60301864147186, -0.79212474822998, -0.53474259376526, 0.20114962756634, 0.23171298205853, -0.68263024091721, -0.29894503951073, -0.67282634973526, 0.16266538202763, 0.87262958288193, 0.73395204544067, -0.66099518537521, 0.34448385238647, -0.45171469449997, 1.33954477310181, -0.42714312672615, -0.60184508562088, 0.13048793375492, -0.70668661594391, -0.11109255254269, 0.09300218522549, 0.58350962400436, 1.24483859539032, -0.06294164806604, -1.15658795833588, -1.08715999126434, -0.02360133081675, 0.52162218093872, 0.21885904669762, -0.52207881212234, 1.37351167201996, -0.79974704980850, 0.23954029381275, -0.24410133063793, 0.24405202269554, 0.64250183105469, -0.35755059123039, -0.30201947689056, 1.23225545883179, 1.28334498405457, -0.78068482875824, -0.27774399518967, -0.45025226473808, -0.34803232550621, 0.54563271999359, 1.01820826530457, -0.16054277122021, -0.00175987358671, -0.83696979284286, 0.07757259905338, 0.23433774709702, -0.37393856048584, 0.39830708503723, 1.98275709152222, 0.03839864581823, 0.25561761856079, 0.33783581852913, -1.03474426269531, 0.65841031074524, -0.10554415732622, -0.22796683013439, 0.99090075492859, 0.39513149857521, 0.18695458769798, 0.09216987341642, -0.60072022676468, 1.28732573986053, -0.13084825873375, -1.44882404804230, 0.19935901463032, -1.04394447803497, -1.79176652431488, 1.82334470748901, 0.81053090095520, -0.40109747648239, 1.25344359874725, -0.42551252245903, 0.41651943325996, -0.47406992316246, 0.31985822319984, 0.80015802383423, -0.35938066244125, 0.79497861862183, 1.38537120819092, 0.69135630130768, -0.74102395772934, 0.08034991472960, 0.10609104484320, 1.25195252895355, 0.97554004192352, -1.41328907012939, -0.93541580438614, 1.18470776081085, 1.33477294445038, 0.70321124792099, 0.21074119210243, -1.09385669231415, 0.77336698770523, 2.03469181060791, 0.05445060878992, -0.03788355365396, 0.44280648231506, -0.12856233119965, -1.11117851734161, -0.93895620107651, 1.63988852500916, -0.18660791218281, -1.32476592063904, 0.64487588405609, 1.40098237991333, -0.34161570668221, -0.64216679334641, 0.14077705144882, -0.08594577759504, -0.93179464340210, 0.30718174576759, 0.67853546142578, 0.74145686626434, -0.56280803680420, -1.13497543334961, -0.91938394308090, 0.40400418639183, -0.70805013179779, -0.89535325765610, -0.31512153148651, -0.12022930383682, -0.48106896877289, 1.83546090126038, -0.77871906757355, 0.65200555324554, -0.27647209167480, 1.92138016223907, -0.13568621873856, -0.89671915769577, -0.08841100335121, -0.10124104470015, 0.01342625543475, 0.07881999015808, -1.12150430679321, 0.61122310161591, 1.01812934875488, 0.07081782072783, 1.13628220558167, 1.33700156211853, -0.85449564456940, 0.16844876110554, 0.58204835653305, 0.67285579442978, -0.14271780848503, -2.45978045463562, 0.10755242407322, 1.46062338352203, 0.50538641214371, -0.25825536251068, 0.31411924958229, -0.78673559427261, 1.66890883445740, 1.47751963138580, 1.50254106521606, -0.35174995660782, 0.70886141061783, -0.44199848175049, -0.55532938241959, -0.28784975409508, -0.26118269562721, 0.46733111143112, 0.94849658012390, 1.06237936019897, -1.36610865592957, -0.20455069839954, 1.89006137847900, -0.11820667237043, -0.50794541835785, 0.80220276117325, 0.77430683374405, -0.64760118722916, -0.04949140548706, 0.88074582815170, -1.19739735126495, -1.46495449542999, -1.44917118549347, -0.34534260630608, -0.46323257684708, -1.64742946624756, 0.07750266790390, -0.23413580656052, -0.07339318096638, 0.36663007736206, -0.72710174322128, -0.62304264307022, -0.66641992330551, -0.73737949132919, -0.79765605926514, 1.53581953048706, -0.52136576175690, 0.48746117949486, -0.13003508746624, -0.79400646686554, 0.79094654321671, -0.59782564640045, -2.18689227104187, 0.23408740758896, -0.65853852033615, -1.29104459285736, 1.49139606952667, -0.53379482030869, -0.68448317050934, -0.48102322220802, -0.03008201345801, 1.22578859329224, -0.53526669740677, 0.22764012217522, 0.88309377431870, 0.12923625111580, -0.18884924054146, 0.08771706372499, 0.80728942155838, -0.62846750020981, -1.05508065223694, 0.21956759691238, 0.03678562119603, -0.51244944334030, 0.76296561956406, 0.04950333386660, 0.69851708412170, -1.39736127853394, -0.09320221096277, -0.87178719043732, -1.86414456367493, 0.28406485915184, 1.58655393123627, 0.14666226506233, -1.01740431785583, -0.98141509294510, 0.55424457788467, 0.03115645051003, 0.14332422614098, 0.87331843376160, 0.60421538352966, -0.12331917881966, -1.89791274070740, 1.52754914760590, -1.65775799751282, -1.05032396316528, -1.72349154949188, 0.74683189392090, 0.25373429059982, -0.19432781636715, 0.85276371240616, 0.21917261183262, 0.59575420618057, -0.25593429803848, 0.55198061466217, 1.34998321533203, -0.68539440631866, -0.23576620221138, -0.47227793931961, -2.19799327850342, 0.85266262292862, -0.41821438074112, 0.04831086471677, 1.03588986396790, 0.33384755253792, -0.19480624794960, 0.95543479919434, 1.21530425548553, -1.97950828075409, 0.86156517267227, -0.68944263458252, 0.79177933931351, 0.75661760568619, 1.04914343357086, -0.19101221859455, 0.68483048677444, 0.63776308298111, 0.52596604824066, 1.07414567470551, 0.17093291878700, -0.22014047205448, 1.31043279170990, 0.10281998664141, -0.34675464034081, -0.01245118025690, 0.61771917343140, -1.01697480678558, 0.67949378490448, -0.92387259006500, -0.28903216123581, 1.06313824653625, 0.32793474197388, 0.34093725681305, -0.62019717693329, 1.62718141078949, -0.27676796913147, 1.19877123832703, 1.63813626766205, -0.85737556219101, 0.00907397177070, -2.34334754943848, -1.42420315742493, -0.86602443456650, 0.92249727249146, -1.13141906261444, 0.61741560697556, -0.55743265151978, -0.59655040502548, -0.10626526176929, 0.23017328977585, -0.61457645893097, 0.56974416971207, 0.17901232838631, -1.40148770809174, -0.23247928917408, -0.71081912517548, 0.72516608238220, 0.45014667510986, 0.99259674549103, 0.13062866032124, 0.09717566519976, 0.21394474804401, 0.36698198318481, -0.48691481351852, 0.01549079176039, 0.17277416586876, 1.53920698165894, -0.34075742959976, 0.40792724490166, -0.11483985930681, -0.26354998350143, 1.11760795116425, 0.19694325327873, 0.46015575528145, 0.65818303823471, 0.04322957992554, 0.32343944907188, -0.04024925082922, 0.24122440814972, -0.65286803245544, -0.56194204092026, 1.00437927246094, -0.38107970356941, 0.86841958761215, -0.55307483673096, -1.13598847389221, 1.22285175323486, 1.44648706912994, 1.20520257949829, -0.91445392370224, -0.47366961836815, -1.25956451892853, -0.31304758787155, 0.16990856826305, -0.16482825577259, 1.07932913303375, -0.18230439722538, -0.23613631725311, 1.04219007492065, -0.05844199657440, 0.02843394316733, -0.10828637331724, 0.91913980245590, 0.19632261991501, 0.19379064440727, 0.08604332804680, -0.29395788908005, -0.72336792945862, 0.51247400045395, -0.06812706589699, 0.26193869113922, 0.02924277819693, 0.27162468433380, 0.72391259670258, 0.80450785160065, 1.01281166076660, -0.53404653072357, 0.26796427369118, -0.88717526197433, -0.23117713630199, -0.54120498895645, -0.95821076631546, 0.35287594795227, -0.20207712054253, -0.20787134766579, -0.19377307593822, 0.52615880966187, 0.13768793642521, 0.87128102779388, -0.90328556299210, -1.06997776031494, -1.81789898872375, 0.06480347365141, -0.97782170772552, 0.47711306810379, -0.35192134976387, 0.32255366444588, 0.34823006391525, 0.99568635225296, -0.25758248567581, -0.01876958832145, 0.33789664506912, 0.06651326268911, 0.41065746545792, 0.21615366637707, -0.48102447390556, -0.27340745925903, -0.51074689626694, 0.86889040470123, -0.67103099822998, 0.16478705406189, -1.04447913169861, -0.64170140028000, 0.28744155168533, -0.41650411486626, 0.15823505818844, -0.62319099903107, -0.92826390266418, -0.32518666982651, -1.54629719257355, 0.70312392711639, -0.14320684969425, -0.53183966875076, 0.09207080304623, -1.51383924484253, 0.03023553267121, 0.28986856341362, -0.47220775485039, -0.18587805330753, -0.47565186023712, -0.54038363695145, -0.11596912890673, 0.30569875240326, 1.39640903472900, 0.00654744356871, 0.15720206499100, 0.57663810253143, -3.49658536911011, -1.14671027660370, 0.77212870121002, 0.89170777797699, -0.92580640316010, -0.69959408044815, -0.15475183725357, 0.39507961273193, -0.20939360558987, -0.99763244390488, 0.83430546522141, 0.59242951869965, 0.17730198800564, 0.55924654006958, -1.57028305530548, -1.43527162075043, 1.52087616920471, 1.50030469894409, 0.02656852453947, -0.10995771735907, 1.02429091930389, 0.76406586170197, 0.70051658153534, -2.18344736099243, 1.07454240322113, -0.42482462525368, -0.74632728099823, 0.64777469635010, 0.29951959848404, 0.01918047107756, 0.76518464088440, 1.57951414585114, 0.44538643956184, -0.16039364039898, 1.14771580696106, 0.64068806171417, 0.10551904141903, -0.90808379650116, -0.38289144635201, 0.49431928992271, -0.70702511072159, -0.29509368538857, -0.13653013110161, 2.15878295898438, -0.06822364032269, -0.20053726434708, 0.70100182294846, -0.01523823849857, 0.77288162708282, -0.03758139908314, -0.16055816411972, -0.28975883126259, -0.42679029703140, -0.09633033722639, -0.30284053087234, -0.22333467006683, -2.48269438743591, -0.14366453886032, -0.94117981195450, -0.42233502864838, -0.99396187067032, 0.02261897362769, 0.51489382982254, -0.01912643201649, -0.28398478031158, 0.44858580827713, -0.77235978841782, -0.14974665641785, 0.19330619275570, -0.74361050128937, -1.13405871391296, 0.07296796888113, 0.57265615463257, -0.08052115142345, -0.07181339710951, 0.49499404430389, 1.98551416397095, 0.54276823997498, 0.41697084903717, 0.35776543617249, -0.26952853798866, 0.14234161376953, 0.19456213712692, 0.44969177246094, -0.21210587024689, 0.55738532543182, -1.81063008308411, -1.64201736450195, -0.63435745239258, 0.46427139639854, -0.09539829939604, -0.24503126740456, 1.88176214694977, -0.18480944633484, 0.72584295272827, -0.10430329293013, -1.72997236251831, -0.35340189933777, -0.61458420753479, -0.32876303792000, -0.46758231520653, -0.37109380960464, 0.24426548182964, -0.01558983232826, -0.79871493577957, 0.11769958585501, 0.06257985532284, 0.58910942077637, 0.54359436035156, 0.01497609447688, 0.41844761371613, 0.60877466201782, 0.18256908655167, -0.11831548064947, 0.92313879728317, -0.22989456355572, -0.60055238008499, -0.50094884634018, 0.20269668102264, 0.42579630017281, -0.68285316228867, 0.31241655349731, -1.45468068122864, -0.45413276553154, 0.44455704092979, 0.56117516756058, -0.85615593194962, -1.00122070312500, -1.05358338356018, 1.27188467979431, 0.56407779455185, 0.41443404555321, 1.42638480663300, 0.37938851118088, 0.15018561482430, 0.57370555400848, 0.44756695628166, -0.67627799510956, 0.70378655195236, 0.06657163798809, 0.76836419105530, -0.76160705089569, 0.33992993831635, 1.59186387062073, 0.56928759813309, 0.33747470378876, 0.33872899413109, 1.55575227737427, -0.87536531686783, -0.20890831947327, 1.29712009429932, 1.99128067493439, -0.52015793323517, -1.67565870285034, -0.36130318045616, 1.12162435054779, 0.55600500106812, 0.34334567189217, -0.33327543735504, 0.36265900731087, -0.14393272995949, -0.75288164615631, -0.20357587933540, 0.18209655582905, -1.00842702388763, -1.87412452697754, 0.81427431106567, -0.46794643998146, 1.30019044876099, -0.72848790884018, -0.07385781407356, -0.15738596022129, 0.67738127708435, 0.10112404823303, 1.03019917011261, 0.42721951007843, 0.13627366721630, 0.91792005300522, 0.22166369855404, -0.48403108119965, 0.79253721237183, -4.44137907028198, -0.11287081241608, 0.26531270146370, 0.87425655126572, 0.54748624563217, -0.20489074289799, 0.10611142963171, -0.03516263514757, -0.23381574451923, 0.21656268835068, 1.96988224983215, -0.89306330680847, 0.10166237503290, 0.70330482721329, -0.28364658355713, 0.05753201246262, -1.19650959968567, 0.38897812366486, -0.62778604030609, -1.18349182605743, -0.16990986466408, 0.94631385803223, -0.11727733910084, -1.00671076774597, 1.03457665443420, 0.30452293157578, -0.75242614746094, -0.94164669513702, -0.36640322208405, 1.28226566314697, 1.44416987895966, 0.55155098438263, -0.69628393650055, -1.33350121974945, 0.25513264536858, -1.58092963695526, -1.07293510437012, 0.92401367425919, -1.36615121364594, 0.19090260565281, -0.46608436107635, 0.40059351921082, -0.18112683296204, 1.59540355205536, 0.54373848438263, -0.20326682925224, 0.88896661996841, 0.64545685052872, 0.02735249511898, -0.90418910980225, -0.19536998867989, 1.29293680191040, -0.22656334936619, 0.12284040451050, -0.47133380174637, -0.03911963477731, -0.50905662775040, -1.44144773483276, -0.87956762313843, -1.72615504264832, 0.03444614633918, -0.10094272345304, -0.54275619983673, -0.34016168117523, -0.32585826516151, -0.61705309152603, -0.95125496387482, 0.38098376989365, 0.30855455994606, -2.25722479820251, -0.77250158786774, -0.52726888656616, 0.31019288301468, -0.10648345202208, -0.35606688261032, 0.80941146612167, -0.52146464586258, 0.26383605599403, -1.02644085884094, -0.89374542236328, -0.03119916282594, -1.13370323181152, 0.15765763819218, -0.06375310570002, -0.73223191499710, 0.75492304563522, -0.11018161475658, 0.54928773641586, -1.58057975769043, 0.06975164264441, -0.71205621957779, 2.11061573028564, -0.76052588224411, 2.40564227104187, 0.10717969387770, -0.02746756933630, 0.26217833161354, 0.25484853982925, 0.40431210398674, 0.69696938991547, -0.09095816314220, 0.57809239625931, -0.77046781778336, 0.49484315514565, 0.78972131013870, -0.58067953586578, 0.71817803382874, 0.25223824381828, 0.17668206989765, 0.19371369481087, 0.20809313654900, 1.17447793483734, -0.76409071683884, -0.92322176694870, 0.30706274509430, 0.67699307203293, 0.02391141466796, -0.79075574874878, -0.12818904221058, 0.98380249738693, -0.81239336729050, -0.32059720158577, 0.41942310333252, -0.55121123790741, 0.30261468887329, 0.20700097084045, -0.01172036305070, 0.42022415995598, -0.39702859520912, -0.39234125614166, -0.96306890249252, -0.88473218679428, 0.13554361462593, -0.94324040412903, -0.42082965373993, 0.04120808094740, -0.40185010433197, -2.55456519126892, -0.88896632194519, 0.12928314507008, 0.60764646530151, -0.03862853720784, -0.94103145599365, -0.70967495441437, -0.04446174576879, 0.30663642287254, -0.27994698286057, -0.23091727495193, -0.71169173717499, 0.34786987304688, 0.23503912985325, -0.26837915182114, 0.93824052810669, 0.71540188789368, 0.50435072183609, -0.38007560372353, 0.21776744723320, 0.82060009241104, 0.33964109420776, -0.68478035926819, 0.06744427233934, -0.43072193861008, -0.41849553585052, -0.03188411891460, 0.82843285799026, 0.59068173170090, -0.13698558509350, -0.99236178398132, 0.16709552705288, 1.61193394660950, 0.08848306536674, -0.81700593233109, 0.77604264020920, 0.26286128163338, 0.22473716735840, 0.56720924377441, 0.50709700584412, 0.30208984017372, 0.60179996490479, -0.55755770206451, -0.32184457778931, -1.24967443943024, -0.22417226433754, 0.83937925100327, 1.16844856739044, -0.38719367980957, 0.36303195357323, -0.70008069276810, -0.35852211713791, 0.05342083051801, -0.05770481005311, 0.17813420295715, -0.49571564793587, 2.02341222763062, 0.61108589172363, 0.48679277300835, -0.61969959735870, -1.65447056293488, 0.58147996664047, -0.06333591789007, -0.70782738924026, -1.36330747604370, -0.38786140084267, 1.11425209045410, -0.04257032647729, 0.00486567895859, 1.60693550109863, 0.78355824947357, -0.95536798238754, 0.36752727627754, 0.43288022279739, 0.12063714116812, 0.59916758537292, 1.14634847640991, 0.56329655647278, -0.89037847518921, -0.11359628289938, -0.78471726179123, 1.96962022781372, 2.68530511856079, -2.02277517318726, 0.59242385625839, 0.74144995212555, -0.25552266836166, -0.37080323696136, -0.63177490234375, -1.80871081352234, 0.67188555002213, 0.38767942786217, 0.05262676626444, 0.14408481121063, -1.17918455600739, 0.66791194677353, 0.87317287921906, -0.10556340217590, 0.10025672614574, -0.41722655296326, -0.03052349016070, -0.25134354829788, -1.89477658271790, -0.64263486862183, -0.13102917373180, -0.59647971391678, 0.69137048721313, -0.02856206893921, 0.58746498823166, 0.24045147001743, -0.02788047865033, 0.07205773144960, 0.52973306179047, 1.57034909725189, 1.10595047473907, 0.52398407459259, -0.40934634208679, 0.72465151548386, 0.58370149135590, 0.24439603090286, -1.04240202903748, -0.52141785621643, 1.02879393100739, -0.40363124012947, 2.27041268348694, -0.11806958168745, 1.17255294322968, 0.29145327210426, 0.85615092515945, 0.08726844936609, -2.03456807136536, -0.33990705013275, -1.42619931697845, -0.08946224302053, -1.25268828868866, -0.35730266571045, 0.19829252362251, 0.77367031574249, 0.61823886632919, -0.53104650974274, -0.86106950044632, 0.10908897966146, -3.32945942878723, 0.50145274400711, -1.18862414360046, 0.40290856361389, -0.87848907709122, -0.63536655902863, -0.41078567504883, 0.10372713208199, -0.22197151184082, -1.24970936775208, -0.63539284467697, -0.10442891716957, 0.84263569116592, -0.28905397653580, -0.08890283107758, -0.11365896463394, 0.64904129505157, -0.44577074050903, 0.17173255980015, 0.92407083511353, 1.31749868392944, -0.04206992313266, -0.33488780260086, 0.05216620862484, 0.83265709877014, -0.44579884409904, 0.71139168739319, 0.72559654712677, -0.72628760337830, 0.00757516641170, -0.19597786664963, 0.82334744930267, -0.03349158912897, -0.36985594034195, 2.92997932434082, -0.29429310560226, -0.08653768897057, -0.17370857298374, -0.43907317519188, -0.41319715976715, 1.15650951862335, 0.23898933827877, 1.20663154125214, -0.40629085898399, -1.02914261817932, -0.28919574618340, -1.12082827091217, 0.15650768578053, 0.03775222972035, -0.74577188491821, 0.67846596240997, 0.15658868849277, 0.68634688854218, -0.30093574523926, 0.70853644609451, 0.14518842101097, 0.30176344513893, -0.77825450897217, 1.35070562362671, -1.55607986450195, 0.26889967918396, 0.83306711912155, -2.13188862800598, 0.87554538249969, -0.71869570016861, 0.30660268664360, 0.67089653015137, 1.01311421394348, 0.19019001722336, 0.58013135194778, -0.73349523544312, -1.76721334457397, 0.01057843025774, 0.50572043657303, -0.20223250985146, -0.52076590061188, 0.16151484847069, -0.04673890769482, 0.50453084707260, 0.30473181605339, -1.44730257987976, 0.05716951936483, -0.82575440406799, 0.59435737133026, 0.17631070315838, -0.14738285541534, -0.74767589569092, -0.11174280941486, -1.11768329143524, -0.48776692152023, 1.15169656276703, -0.39873704314232, -0.44398292899132, -0.15314765274525, 1.70381832122803, 0.39414376020432, -1.35728859901428, -0.62475472688675, -0.49755850434303, 0.32134574651718, -1.61141479015350, 0.06824453175068, 0.74160206317902, -0.01752627268434, -0.16370400786400, -0.52810245752335, 0.21966916322708, -0.05847527086735, -0.39260634779930, -0.45987477898598, 0.06031327322125, -0.16332668066025, 0.70270001888275, -0.72926002740860, 0.73615759611130, -1.01847100257874, -0.03784432262182, 0.13081216812134, -0.36039498448372, 0.65859353542328, -0.12230172753334, -0.28162494301796, 0.51138168573380, 0.52802187204361, -0.02583983913064, 0.60260742902756, -0.45913138985634, -1.43629980087280, 0.88667738437653, 1.00937449932098, 0.58634734153748, 0.71204787492752, -0.41079008579254, 0.81327086687088, -0.73251634836197, 0.55217117071152, -0.24211509525776, -0.73116290569305, -0.78189349174500, 0.06168169528246, -0.35140579938889, -0.03223482146859, 0.75836062431335, -0.35589712858200, 0.20126807689667, -0.26031884551048, 0.46926036477089, 2.13093376159668, -1.14393866062164, 0.50620406866074, 1.16454219818115, 0.00000008233587, -0.65862792730331, 0.36195918917656, 0.39274725317955, -1.74080836772919, -0.37245529890060, 0.11943947523832, -0.96400386095047, -0.72659432888031, -0.32007378339767, -0.13622231781483, -0.61578065156937, 0.13222748041153, -0.20456510782242, 0.99592632055283, -0.33836963772774, -0.28148910403252, 1.20136404037476, 0.25628578662872, 1.27362799644470, 2.21172165870667, 0.32456713914871, 0.71638405323029, -0.01947110705078, 0.96268582344055, -0.22218503057957, 1.07018625736237, -0.85034173727036, 2.12828564643860, 0.26308017969131, 1.33544898033142, -0.46207401156425, -0.33500668406487, 0.87420761585236, 1.32949078083038, 0.20156879723072, -0.09141536802053, -0.15637479722500, -0.08142267912626, -0.59483546018600, 0.07034183293581, 0.11970912665129, 0.92702800035477, -0.18320737779140, -0.36615705490112, -0.30952236056328, -0.31297242641449, -0.34941673278809, 0.08189007639885, -0.06296546757221, 0.00741520430893, -0.54453504085541, -0.90169012546539, 0.65379434823990, -0.01274798717350, 0.48031142354012, -0.04599968716502, -0.63128840923309, -0.02895450592041, -0.10887718200684, -1.42510211467743, 0.54763960838318, 1.48957896232605, -0.52061349153519, -0.64171391725540, -0.10168261080980, -0.39625254273415, -0.73297566175461, -0.25451293587685, -1.04560148715973, 0.16769129037857, 0.95571839809418, -0.95075422525406, 0.19074387848377, 0.35659477114677, -0.65475767850876, 0.12371258437634, 0.00628719525412, -0.03543413802981, -0.14408127963543, -0.74480235576630, 0.97285759449005, -0.46748852729797, 0.43837213516235, -0.39057272672653, 1.85211884975433, -1.24449503421783, -0.36326086521149, 0.61244565248489, 0.12642967700958, -0.21534165740013, 0.07134882360697, 0.43859353661537, -0.95209920406342, 0.79311871528625, 0.75102353096008, 1.22272908687592, -0.74901813268661, -1.93189942836761, -0.12706662714481, -0.54906749725342, 0.00284578022547, 0.13069924712181, 0.07447610795498, 0.58524888753891, -0.87361341714859, 0.75224530696869, 0.38770261406898, -0.66283446550369, 0.85968297719955, 0.09092485904694, 0.19991697371006, -0.29960304498672, -0.19246137142181, 0.82857406139374, 0.90610414743423, -0.30714273452759, 1.65540230274200, 0.91538363695145, -0.22903634607792, -0.49904817342758, 1.51070237159729, -0.18854500353336, 0.82468938827515, -1.00037872791290, 1.08678579330444, -0.09341444075108, 1.58426415920258, 1.53509259223938, 0.09298288822174, 0.18373191356659, -1.43024468421936, 0.08919223397970, -0.54421901702881, -0.95056104660034, 1.06035649776459, 0.47718107700348, -0.53490346670151, 0.56736338138580, 2.11290192604065, -0.85335028171539, -1.55346441268921, 0.76584345102310, 0.92956477403641, -1.67193698883057, -0.41727504134178, -0.01877113245428, 0.84379154443741, -0.85531765222549, -0.14464175701141, -0.01859796792269, 0.33139643073082, -0.99798035621643, 0.30265316367149, -3.01651215553284, -1.50661635398865, -0.10496164113283, 0.18596968054771, 0.45140510797501, 2.90445303916931, 1.53458333015442, 0.43016448616982, 0.43826088309288, 0.71164500713348, 0.13411866128445, 0.02623279020190, 2.10126638412476, 0.01870862394571, -0.50771045684814, 0.53902643918991, 0.03004521690309, -0.77410250902176, 0.09067572653294, 0.12935037910938, 0.63294053077698, -0.19617892801762, 1.05232679843903, 0.37897852063179, 0.95293664932251, 0.33440732955933, -0.06355565786362, 1.31080448627472, 0.67612278461456, -0.09624728560448, -0.12414998561144, -0.26586273312569, -0.23916889727116, -0.60700428485870, -0.03062274120748, 1.11751163005829, 0.04527592286468, -0.60597050189972, -0.40840029716492, 1.11435902118683, -0.75916403532028, -1.80846798419952, -0.10343135893345, -0.04537395387888, 0.48016402125359, -0.72116786241531, -0.35270693898201, -0.03250773996115, -0.68823546171188, 1.41923940181732, 2.26546144485474, -0.70645183324814, 0.67597842216492, 2.02667069435120, 0.20738573372364, -0.00195779278874, -0.45302259922028, 0.31294372677803, -0.34378921985626, 1.49803674221039, -0.16119357943535, 0.89963620901108, -0.36645838618279, -0.93042868375778, 0.07333181053400, 1.13321948051453, 0.40804570913315, -0.94201076030731, -0.52536600828171, -0.57753092050552, 0.18116205930710, -1.83625745773315, -0.17128486931324, 0.23593240976334, -0.38765189051628, 0.92546176910400, -0.17576120793819, 0.58998805284500, -0.02340497635305, -0.93217778205872, 0.58168160915375, -0.46624022722244, -0.61147457361221, -0.76979333162308, -0.30655989050865, 0.56328010559082, 0.48980328440666, -0.27469265460968, -0.12548287212849, -1.72813224792480, -0.79674977064133, -0.93947315216064, -0.98804730176926, 0.25831955671310, 0.81472295522690, -1.66356658935547, 0.02294407598674, -1.55931687355042, 0.11682674288750, -2.41178560256958, 0.51510250568390, 0.71078759431839, 0.57945114374161, -0.43661496043205, 1.23142659664154, 0.68889391422272, 0.34312298893929, 0.77339696884155, -0.11497124284506, -1.54969239234924, -1.64847707748413, -0.07046435773373, -0.64448881149292, 0.32435441017151, -0.75191813707352, 3.32180047035217, -0.87745028734207, -2.46188616752625, 0.48819264769554, -0.13732206821442, -0.42504161596298, 0.71623843908310, -0.31861475110054, 2.05840134620667, -1.06970989704132, -0.57782369852066, 0.55728679895401, -0.24629266560078, -0.97295624017715, 0.21033996343613, 0.34189757704735, -1.56938183307648, 0.77391129732132, -0.07016045600176, -0.11806227266788, 0.50533336400986, -0.61451196670532, -0.80519551038742, 0.08015643060207, 1.88148427009583, -1.36935114860535, 1.46115267276764, 0.02022704482079, 0.45954689383507, 1.67004692554474, -1.89251816272736, -0.60456508398056, 0.05919498950243, 0.27754345536232, -1.85474848747253, -0.88868212699890, -0.68665015697479, -0.00624323589727, 1.31359553337097, -1.10937809944153, 0.84364402294159, 0.19583195447922, 1.52303671836853, -0.17304670810699, -0.48800390958786, -1.70388805866241, 0.79781138896942, -0.40577813982964, 1.16807329654694, -1.94333827495575, 1.56384122371674, -0.31176739931107, 0.56016582250595, -1.21743464469910, 0.10194623470306, 0.04744174331427, -1.01675784587860, 1.32401657104492, -0.52360582351685, -1.11632919311523, -1.80011320114136, 0.32959884405136, -0.54366153478622, 0.73706936836243, -0.81035727262497, -0.13302622735500, -1.30015707015991, 1.11138272285461, 1.29983651638031, 0.21331866085529, 0.13571415841579, -0.16884320974350, -1.14186370372772, 0.79563564062119, 0.25012326240540, 0.79429125785828, -0.91850018501282, -0.94553154706955, 0.03559233993292, 0.82871377468109, 0.71802610158920, 0.57991480827332, -1.14545154571533, 0.80843442678452, 0.56195908784866, -1.22045290470123, 0.56699436903000, 1.40420866012573, 0.04928560554981, -0.26616868376732, -0.20200520753860, 0.94055128097534, 0.13170932233334, 1.59746122360229, -0.74278694391251, 0.09222629666328, 0.58676809072495, -0.22098648548126, 0.95314735174179, 0.49218657612801, -1.03703927993774, 0.96387755870819, -0.78958821296692, -0.77675676345825, -1.84694933891296, 0.09073800593615, -0.96998834609985, 0.36279428005219, -0.01365414075553, 0.14607910811901, 0.29193112254143, 0.90094220638275, 2.03607153892517, -0.60591942071915, -0.26471096277237, 2.67300486564636, 0.96656072139740, -0.84662902355194, -0.06342513859272, 0.30712595582008, -0.48066312074661, 3.84105062484741, 1.16560387611389, -1.78272032737732, 0.79534959793091, -0.86834746599197, 0.61901462078094, -0.55738496780396, 0.25334540009499, -0.36889135837555, 0.15066878497601, 0.40515100955963, 0.33934301137924, -0.66053551435471, -0.33278638124466, -0.44376251101494, 0.62301725149155, -0.02790516801178, 0.10412464290857, 0.56935691833496, 1.09692656993866, -1.04872238636017, -0.23182713985443, 0.11551235616207, 0.64368176460266, 0.32861119508743, -0.82163792848587, -0.37315216660500, -0.30624800920486, -0.78304553031921, 1.85035181045532, 1.03576588630676, -0.46013203263283, -0.04670134186745, -0.59167784452438, -0.30620840191841, 0.24127660691738, 0.38586398959160, -0.34655404090881, -0.56135249137878, -1.00890815258026, 0.73830473423004, 0.80189692974091, -0.53154325485229, 0.48647823929787, 0.09226281940937, -1.06500208377838, -0.21761141717434, 0.11387656629086, 0.32689252495766, -1.00275599956512, 0.30989563465118, 0.54477298259735, 0.22523742914200, 0.39580738544464, 0.45840463042259, -0.39327844977379, 0.76449340581894, 1.18660688400269, 0.05106541514397, -0.33901131153107, 0.28600731492043, 0.74891781806946, -0.19146637618542, -0.81692028045654, -0.74809032678604, 1.01192176342010, -0.46932303905487, -0.14313149452209, -0.43351450562477, 1.05150008201599, 0.82582116127014, 1.05215907096863, -0.37105923891068, -0.53363430500031, 0.69625383615494, 0.99872362613678, 0.48140877485275, 0.54893171787262, -1.07152032852173, -1.42702651023865, -0.10445468872786, 0.40028330683708, -0.18673622608185, -1.08952629566193, -0.04460541531444, -0.99646425247192, -0.12827387452126, -0.58029055595398, 0.18551705777645, 0.00514962570742, 0.11664821952581, -1.55566585063934, -1.78968274593353, 0.93972790241241, 0.41966992616653, -0.46555754542351, 0.92508310079575, -0.16905547678471, 0.14440509676933, 0.15489643812180, 1.53177428245544, -0.53714746236801, 0.69504499435425, 1.32492530345917, -0.55642867088318, -0.71249127388000, -0.20229545235634, 0.02000411972404, -1.05315041542053, -0.31510484218597, 0.68951636552811, 0.06001777201891, -0.62645316123962, -0.67933154106140, -0.76519292593002, -0.70704776048660, -0.95218032598495, 0.64906138181686, 0.13182359933853, 0.00689895916730, -0.36116802692413, -0.56029343605042, 0.83922404050827, 0.26335930824280, -0.26106944680214, -1.17123126983643, -1.33215165138245, 3.39596199989319, 0.89196217060089, -0.28479748964310, 0.26063090562820, 0.07521104067564, -0.35747322440147, -0.57724672555923, -1.30164635181427, 0.09792682528496, 1.04240405559540, -0.86962974071503, 0.66400635242462, -0.99322724342346, 0.83020734786987, 0.52689349651337, 0.25945761799812, -0.14791356027126, 0.66980832815170, -0.39715224504471, -1.27207994461060, -1.27217447757721, 0.81881421804428, 0.07362637668848, 0.45132964849472, -0.07975090295076, 0.06493537127972, 1.24519276618958, 0.73398751020432, 0.65164446830750, 1.02166152000427, -0.06717881560326, 1.85447919368744, 0.28198200464249, -0.25842824578285, 0.42422720789909, -0.92908382415771, -0.34275230765343, 1.27610468864441, -0.32534807920456, -0.08448622375727, -0.36340022087097, -0.44911667704582, 1.62589073181152, 0.47363898158073, -0.22152996063232, 0.63356423377991, 0.47960561513901, -0.66475665569305, -0.87385392189026, 0.32163333892822, -0.83442407846451, -1.10787308216095, 0.11863297224045, 0.21972566843033, 0.47106406092644, 1.61935579776764, 0.26639559864998, -0.72987711429596, -0.46820101141930, -0.62922936677933, -3.08047342300415, 0.00592595199123, 1.39281332492828, -0.35404253005981, -0.48257866501808, -2.08908581733704, -0.80746769905090, -1.46755957603455, -0.61179870367050, 0.06474336236715, -0.30116900801659, 0.04453668743372, -0.33277606964111, 0.01401976309717, -0.23138038814068, -0.43487223982811, -0.59167879819870, -0.27007833123207, -0.84920668601990, 0.49150526523590, -0.43137803673744, -1.80375766754150, -0.95993900299072, 0.63323748111725, -0.97579795122147, 1.85733175277710, -1.00075721740723, 0.76936769485474, 0.32028079032898, 0.90857237577438, -0.69765782356262, 0.46503826975822, 0.27953264117241, 0.36670798063278, -0.72937101125717, 0.21519899368286, 0.63943088054657, 1.15575218200684, -0.37234422564507, 0.35617640614510, -0.32667624950409, -2.00331950187683, -0.66506737470627, -1.42444407939911, -0.08189930766821, 0.08354523777962, -0.73198038339615, -1.50221979618073, 0.62408518791199, -0.09378320723772, -1.84249162673950, 0.40867200493813, 1.31866860389709, 0.11119166016579, 1.40940272808075, 0.77991062402725, 1.20383286476135, -0.26474484801292, 0.22116421163082, 0.66665506362915, 0.17610481381416, -0.04203497990966, -0.02048950269818, -0.48186674714088, 0.73481905460358, -0.76977598667145, -0.71295499801636, -0.32686710357666, -0.85352611541748, 1.38189208507538, 1.11876404285431, 0.01245919987559, -0.72091913223267, 1.18410003185272, 0.59812289476395, 0.32597848773003, 1.24668538570404, 0.72280722856522, 0.13726899027824, 0.67915618419647, 0.62398755550385, 0.93974727392197, -0.76099473237991, -0.63619691133499, 0.78151386976242, 0.61583864688873, -0.43004977703094, -0.26398614048958, 0.75112098455429, 0.90905833244324, 0.71080195903778, -0.64240443706512, 0.35440486669540, -0.21232612431049, 0.79572254419327, -2.45743012428284, -0.71224576234818, -0.38362079858780, 0.19310027360916, -0.05389536917210, -0.36249122023582, -0.89130431413651, 0.70016974210739, 0.31819298863411, -1.02421271800995, 0.72127002477646, -0.07162518054247, 0.89051842689514, 0.56220495700836, 1.06639683246613, 0.69836473464966, -0.48401910066605, -0.44265565276146, -1.44546365737915, -0.13609245419502, -0.56928491592407, -0.40699434280396, -1.10911381244659, -0.67178863286972, -1.14585113525391, 0.75907123088837, 0.71595567464828, -1.42305076122284, -0.12584349513054, 0.01856710948050, 0.11650108546019, 1.11591148376465, -0.55575293302536, -0.74303454160690, 0.28300759196281, 0.71311986446381, 0.72002238035202, 1.14396333694458, 1.14525187015533, 0.24639360606670, 0.83108925819397, 0.47261941432953, -0.45068514347076, -0.16136357188225, -0.33409976959229, -0.44980958104134, -0.62167155742645, 0.04194382578135, -0.64550369977951, 0.03166966885328, -0.23573800921440, 0.50159019231796, 1.38404178619385, -0.96387380361557, 0.41177791357040, 0.64417082071304, -0.53488254547119, 0.98992323875427, 0.22699049115181, 1.89113962650299, -1.33324599266052, 0.16176716983318, -0.62354981899261, -0.19531613588333, -1.65647995471954, 0.75218886137009, -0.10013812035322, -0.74517440795898, 0.36796236038208, -0.50550061464310, 1.00318896770477, -0.18858957290649, -0.68870210647583, 0.00641056383029, 0.13191926479340, -1.90214014053345, 2.10249280929565, 1.48782122135162, 0.11334190517664, -0.50178450345993, -0.53046631813049, -0.18042071163654, 0.56202811002731, -0.86293601989746, 0.54740500450134, 0.03840687498450, 0.12188396602869, 0.39221817255020, -0.43461626768112, -0.30855637788773, 1.04263830184937, 0.39611160755157, 0.96242588758469, -0.39743202924728, -0.21707180142403, 1.17893540859222, 0.07219082862139, -0.46245089173317, 0.52035987377167, -0.42520463466644, -1.19932329654694, -0.61488425731659, -0.80641722679138, 0.27067184448242, -0.25491535663605, 0.51327550411224, 0.00491171749309, 0.43248766660690, -0.52172374725342, 0.64204174280167, 0.04132814332843, 0.33581909537315, -1.42503917217255, -0.11957656592131, -0.29993376135826, -0.86499047279358, -0.46078801155090, -0.64375859498978, 0.94064390659332, -0.87120205163956, -0.24965578317642, 0.50184535980225, -0.05034440010786, -0.36058226227760, 0.31306600570679, 0.16868644952774, -0.31204393506050, -0.59116077423096, 1.27455222606659, 0.17508485913277, -0.26919674873352, -0.37730640172958, -0.70725578069687, 0.51033246517181, 1.30361735820770, 0.09380867332220, -0.32511734962463, -0.31721767783165, 0.57497537136078, -0.21157082915306, -0.61173474788666, 0.71669781208038, -0.23324273526669, -1.03605937957764, 0.26557040214539, -0.41011869907379, 0.40153220295906, 0.53409856557846, 1.02580058574677, -0.32332041859627, -0.27501419186592, 0.21912373602390, 1.30984175205231, 0.02466662041843, -0.89158356189728, -0.73156553506851, 1.37369263172150, 0.07358684390783, 0.13357658684254, 0.25903546810150, -1.13847637176514, 0.52568668127060, -0.67728698253632, 0.46383833885193, 0.06140322983265, 1.11479723453522, 1.85805785655975, -0.24917210638523, 0.47560003399849, 0.64104187488556, -0.65060740709305, 0.12108431756496, 0.01072335429490, -1.36498928070068, 0.68691605329514, -0.65279018878937, -0.58217352628708, -0.11380635201931, 0.26147922873497, 0.37013038992882, -1.01622569561005, 0.01364958006889, 1.80864584445953, 3.19175910949707, -0.66998654603958, -0.17120459675789, 0.86439359188080, -1.34398639202118, 0.01524409186095, -0.83804267644882, 1.05200612545013, 1.17614138126373, 0.81897222995758, -0.01018189452589, -0.85644710063934, -0.94103509187698, 0.06139592453837, 0.56878906488419, -1.11765468120575, 0.11049296706915, -0.94307577610016, 0.06481660902500, -0.59125787019730, -0.05497198924422, 0.78399062156677, 0.01926488056779, 2.36959505081177, -0.07730469107628, 2.95555830001831, 2.24234008789062, 1.07356071472168, -0.32485535740852, 0.49818271398544, -0.32371929287910, -0.92681533098221, 1.61175215244293, -0.09098718315363, 0.49411782622337, 0.29278993606567, 0.54089504480362, 0.32559567689896, 0.81060397624969, -1.20686876773834, 0.48287507891655, -0.62041848897934, -1.76800775527954, -0.30799868702888, -0.79272866249084, 0.20008401572704, -2.10905718803406, -0.72781515121460, -0.49175718426704, -0.49518591165543, -0.40533185005188, 1.62594294548035, 0.26988691091537, -0.48142004013062, -0.37020775675774, 1.86639034748077, -0.73350733518600, -1.55941426753998, -0.35223588347435, -0.36091253161430, -1.08131504058838, -0.34895110130310, -0.32647997140884, 0.10836073011160, -0.32577380537987, 0.19345888495445, -0.14520837366581, -0.96941953897476, 0.70371568202972, -0.28915241360664, -0.16699585318565, 1.32087826728821, 0.22443750500679, -0.04644196480513, -0.05477042123675, -0.11670705676079, -1.67444574832916, -0.23772323131561, 0.11573426425457, -0.97930282354355, -1.51744651794434, -0.61569893360138, 0.64533185958862, 1.37271428108215, -0.77064639329910, -1.48653030395508, -1.58100509643555, 2.26760005950928, -0.72446507215500, -0.22064687311649, 0.53658711910248, 1.36300170421600, -0.06041472032666, -0.50887686014175, 0.33728146553040, -0.19608634710312, -0.48180949687958, -0.46042943000793, -0.86596697568893, 0.70705002546310, 0.32219743728638, 0.60997122526169, -0.36699575185776, -0.97887879610062, 0.67489618062973, 0.26514846086502, 0.65106314420700, 0.12448367476463, -0.37016910314560, 0.49754798412323, 0.48213088512421, 0.05461094528437, -0.79094582796097, -0.39793413877487, 0.70677435398102, -0.75346362590790, -0.90734112262726, 0.83859962224960, 0.26357525587082, 0.83986783027649, -0.35728296637535, 0.54641896486282, -0.80093801021576, -0.02173178642988, -0.29866555333138, -0.29948282241821, -0.84722447395325, 0.50096148252487, -0.03417272493243, 0.81469768285751, -1.10996878147125, 1.12584662437439, 0.75818675756454, 0.40873599052429, 0.32914870977402, 0.42221063375473, -0.53570914268494, -0.63996380567551, 0.63121825456619, 0.75705820322037, -0.29413828253746, -0.49429920315742, 0.85574930906296, 1.52133858203888, 0.41430515050888, -1.84523081779480, -0.04812322184443, -0.37882030010223, 0.00873919297010, -0.00691036367789, 1.22833752632141, 0.95279300212860, 0.16181544959545, -0.23425380885601, 0.10050287097692, -1.08835494518280, 0.03242739662528, 0.88752651214600, 0.20481917262077, 0.13863405585289, 0.31851166486740, -0.99093705415726, 0.06551549583673, 0.10565540939569, -0.36972087621689, 0.65176486968994, -0.09142173081636, 0.88049441576004, -0.63602876663208, -0.80185699462891, 1.00187039375305, 2.41082644462585, 0.23907995223999, -0.02702547982335, 1.14793729782104, -0.13167950510979, -1.57279622554779, 0.28754118084908, 0.13788518309593, 0.04724927991629, -0.30998054146767, -1.46489691734314, -0.30604499578476, -0.07872256636620, -0.40209707617760, 0.65997236967087, 0.60820329189301, -1.90216064453125, -0.52652800083160, -0.97315037250519, 0.07327414304018, -0.28815281391144, 0.02715085260570, 1.27343177795410, -0.75998771190643, -0.27730074524879, -0.17859375476837, -0.44503962993622, 0.21485963463783, -0.20829743146896, -0.55277591943741, 0.52561187744141, 0.72111040353775, 0.27412012219429, 0.15895394980907, -0.83482187986374, 0.56144875288010, 0.56754362583160, -0.89761024713516, 0.86908739805222, -1.87169086933136, -0.45208328962326, -0.17693540453911, -0.21312521398067, 0.48510822653770, 1.15061414241791, 1.04012632369995, -1.55353510379791, 0.76403915882111, 1.69963002204895, 0.35549724102020, 1.12488555908203, -0.22434420883656, 0.90722256898880, -0.36751142144203, -0.44344177842140, -1.47187900543213, 0.11670946329832, 0.63028228282928, -0.04727501422167, -2.01988244056702, -1.68416857719421, -0.94585680961609, -0.26868543028831, 0.09372397512197, 0.29490178823471, 0.02475215680897, -0.08045305311680, 0.13054136931896, -1.28137600421906, -0.31291615962982, -0.20436017215252, -0.28851565718651, 0.88893079757690, 0.27248793840408, 0.21473146975040, -0.15233549475670, -1.23258244991302, 0.33800116181374, 0.11867959797382, -1.18553853034973, -0.40228915214539, -0.09091657400131, -0.54453200101852, 0.23860353231430, -0.55054175853729, 2.00120735168457, -1.76582074165344, 2.89315462112427, 2.58569717407227, -0.30889055132866, -0.15505689382553, 0.30764624476433, -1.17127144336700, 1.20886528491974, 0.26703277230263, 0.21137620508671, 0.34050947427750, 0.91098153591156, -0.74778455495834, 0.06568349897861, -0.03975026682019, 0.77910584211349, -0.95797693729401, -0.51256048679352, -0.29263558983803, 0.70278972387314, -0.73198038339615, 0.55139678716660, -0.32255473732948, 0.60162132978439, 0.34979686141014, 0.47554373741150, -0.84529703855515, 0.63464182615280, 0.42596775293350, -0.91407912969589, -0.36451965570450, -0.49662560224533, -0.48137935996056, 1.71361720561981, -0.41793599724770, -0.30736115574837, -0.74299049377441, 0.32124662399292, -0.15390275418758, 0.56374657154083, -0.22588677704334, 0.74323242902756, -1.01105248928070, 0.34901887178421, -0.27541711926460, 0.93124312162399, 0.70841145515442, -0.27195712924004, -0.25021746754646, 0.76706171035767, 1.04954135417938, -0.72814500331879, 0.39499622583389, -0.15168567001820, 0.13996353745461, -0.01737383753061, 0.23728178441525, -1.18249571323395, 1.40974998474121, -0.45099675655365, 0.89700382947922, -0.52994185686111, -0.03352877125144, 0.33136713504791, 0.70429527759552, 1.05123054981232, 0.35214352607727, -0.51206308603287, 0.05854775011539, -0.12041738629341, -0.62052446603775, 0.05919988825917, -1.03744351863861, 0.19092179834843, 0.85778832435608, -0.27759516239166, -0.16537745296955, 0.29266425967216, 0.69023132324219, -0.26122236251831, -1.10124623775482, -0.25655415654182, -0.56350582838058, 0.61390632390976, -0.16651447117329, -0.85774475336075, 0.29661428928375, 0.34382939338684, -0.25437593460083, 0.82537406682968, 0.15850584208965, 0.60663676261902, -0.22140513360500, 0.28811308741570, 0.08281645178795, 0.16885542869568, -0.08689007163048, 1.35712087154388, -1.91714060306549, 0.24864158034325, 1.04397773742676, -0.13241021335125, -0.94815510511398, 0.47263991832733, 0.28516796231270, 0.29487904906273, -0.72273641824722, 0.72430765628815, 0.13098488748074, 1.18545889854431, -0.14909321069717, -0.67613625526428, -0.43315851688385, 0.73081064224243, 0.43258604407310, -0.13092614710331, 1.31420397758484, 0.54613471031189, 0.10912158340216, -1.21088767051697, -2.14627695083618, 0.50991195440292, 0.18398134410381, -0.20667707920074, 0.15098153054714, 0.66335505247116, 0.23638983070850, -0.82271909713745, 0.26839524507523, -0.09406173974276, -0.09718833863735, -1.11302340030670, -1.05634808540344, 1.97528231143951, 1.85677731037140, -0.52469336986542, 0.51495921611786, -0.88460499048233, -0.62489932775497, 0.25576210021973, -1.61701738834381, -0.39138382673264, 0.53804659843445, 0.57152700424194, -0.19590607285500, -2.29996848106384, 0.78218919038773, -0.02624235115945, -0.05859824270010, 0.86369949579239, -0.78738194704056, -0.18974646925926, -0.86329406499863, -0.80486530065536, 0.20123699307442, 1.64909720420837, 0.14818340539932, 1.17419803142548, -1.43633913993835, -0.32848507165909, -1.23107194900513, -0.75309270620346, -0.46007212996483, -1.52177894115448, -0.55446600914001, 0.33621349930763, -0.47956052422523, 0.10102298110723, 0.08912057429552, -0.02058357559144, -0.13951203227043, 0.01002574525774, 0.00094607635401, 0.99410587549210, -0.49360808730125, 0.14548248052597, -0.15407060086727, 1.57457530498505, 0.07945952564478, -0.98228597640991, 0.44549959897995, 1.54269003868103, 0.43619805574417, 0.24915614724159, 0.22725430130959, -0.11727268248796, -0.81533592939377, 0.97220355272293, 0.48446381092072, 0.34739440679550, -1.61745071411133, 0.92491948604584, -0.71152168512344, -1.81445729732513, 1.63268435001373, 1.47154200077057, 0.10807393491268, 0.19001229107380, 1.15042650699615, 0.98250013589859, -0.20552970468998, -0.47963792085648, 0.36598140001297, -1.10934364795685, 0.25593340396881, -0.65064805746078, 1.07396483421326, -0.50705140829086, -0.39887863397598, 0.10039094835520, 1.17434191703796, 1.20376849174500, -1.23956370353699, -1.36647570133209, -1.11876380443573, -0.76057898998260, -0.19730187952518, -1.72970020771027, -0.35694944858551, 0.06633954495192, 1.27141106128693, -0.23790235817432, -0.32620301842690, -1.33228337764740, 0.45679765939713, -0.34348276257515, 1.12282288074493, 0.83221018314362, -0.33907449245453, -0.30674526095390, 0.25874260067940, -0.25102227926254, -0.99953919649124, 1.18017923831940, 1.10064756870270, 1.48958504199982, 0.77695202827454, 0.74140399694443, -0.42535200715065, -0.58311390876770, -0.94109588861465, 0.61437296867371, 0.10923238843679, 0.02172175608575, 1.86932456493378, -0.50905728340149, 0.72217428684235, -1.51931118965149, 0.33321833610535, -0.09896143525839, 0.06630858033895, -0.59341150522232, 0.18558734655380, 0.20856727659702, 0.34833535552025, -1.61709940433502, -0.40882828831673, -0.26084098219872, 0.18868289887905, -0.09250096231699, 0.07976545393467, -1.51971995830536, 1.05973029136658, 0.60718071460724, -1.20999825000763, 0.13168238103390, -0.82324963808060, -0.92904406785965, -0.60329920053482, -0.29807421565056, -0.09091990441084, 0.97486019134521, 0.60092467069626, 0.63319724798203, -0.80439406633377, -0.13349266350269, 0.15282557904720, -1.46722531318665, -0.91016393899918, 0.12932159006596, 0.08871706575155, 0.13220684230328, -0.67474603652954, -0.46892070770264, 1.25838446617126, 0.87864905595779, 1.50444900989532, 2.40255522727966, -0.92592221498489, -0.16461773216724, -0.58003818988800, -0.48857137560844, 0.80595409870148, 0.79410487413406, 0.68248146772385, 1.05495941638947, -0.14033764600754, -0.01816498860717, 0.67851501703262, 0.81949871778488, -0.38069614768028, 1.39605164527893, 1.01860499382019, -0.34623369574547, 0.26112002134323, -1.09625589847565, 0.71285897493362, -0.09877440333366, -0.56141370534897, 1.02737569808960, 2.02644419670105, -0.03123697265983, 1.07311522960663, 0.29525744915009, 1.42660498619080, 1.09535050392151, -0.07894489914179, -0.34656751155853, -0.19533443450928, 0.14320878684521, 1.21694433689117, 0.42518243193626, -0.11211314797401, -1.40523540973663, -0.84146243333817, 0.73455190658569, 0.16649883985519, -0.86363339424133, -0.20032145082951, 1.24013328552246, 0.41804862022400, 0.56499201059341, 0.23540414869785, -0.17443589866161, 0.83644443750381, 0.24266040325165, -1.45322346687317, 1.12250852584839, -0.46838310360909, -0.67107820510864, -1.02671456336975, -0.73172467947006, -0.39830332994461, -0.62890458106995, -0.05332212522626, -0.75556373596191, -0.38812732696533, 0.97178208827972, -0.59065210819244, -0.74287021160126, -1.93862640857697, 0.88835752010345, 0.79159915447235, -0.18290892243385, -0.16373363137245, 1.18990182876587, 0.06073561310768, 1.83153963088989, -0.74221563339233, -0.14988332986832, -0.44780486822128, -0.26335239410400, -0.90728855133057, -1.73874044418335, 0.51538962125778, 0.98094713687897, -1.00929081439972, -0.88445580005646, -0.78534525632858, -0.89855778217316, 0.21989585459232, -1.16624248027802, 0.99432104825974, 0.30181065201759, 0.78432059288025, 0.35589253902435, 0.93392044305801, 0.36464756727219, 0.54486763477325, 0.35889235138893, 0.56538045406342, 0.90191227197647, 0.67492508888245, -0.04255754873157, -0.53500145673752, 0.75861972570419, 0.08593743294477, 1.38004255294800, -0.68902707099915, -0.40557923913002, 0.21090959012508, 0.78462469577789, -0.54685360193253, -1.17069876194000, 0.58804786205292, -0.95151996612549, -0.59724122285843, -1.16608977317810, 0.54405105113983, 0.44610714912415, 0.33733028173447, -0.16931876540184, 0.06926240026951, 0.94966030120850, -1.33009588718414, -0.38665601611137, -1.17261028289795, -1.05264127254486, 1.27513945102692, -0.67473942041397, -0.20343948900700, -0.29778543114662, -0.28680458664894, 0.23902082443237, -0.54010546207428, -0.18436619639397, 1.32257640361786, -0.07409912347794, 0.08642456680536, 0.29207351803780, 0.01683413609862, 0.82175338268280, -0.34165054559708, 0.49803817272186, 0.94153904914856, 0.69785600900650, 0.05278889462352, -0.54636067152023, -0.39730626344681, 0.52264541387558, 0.39764329791069, -0.34140166640282, -0.42229270935059, 0.28591859340668, -0.17675407230854, 0.33897876739502, 0.59200757741928, 0.41287860274315, 0.28260862827301, -0.33381852507591, 0.48189339041710, 0.56357860565186, 0.67925441265106, -0.26598545908928, -0.77159881591797, -0.74805593490601, 1.14647042751312, -0.19239538908005, -0.35196772217751, -1.75235009193420, 0.46772161126137, -0.26960560679436, 0.11029303818941, 0.08485611528158, -0.31038403511047, -0.26654338836670, 1.18435490131378, -0.96930754184723, 0.68481957912445, 0.77384585142136, 0.66787242889404, -2.58332872390747, 1.27402794361115, 0.97527289390564, -0.96764773130417, 0.33328494429588, -1.46937441825867, -0.47369584441185, 0.82991480827332, 1.43100070953369, -0.31230765581131, 0.81694835424423, 2.97122573852539, 0.00620955182239, 0.08046251535416, 0.76041805744171, -0.27344772219658, 0.24407547712326, 0.53707557916641, -1.26914203166962, 0.57534891366959, 1.90999686717987, 0.30884978175163, 0.81637531518936, 0.46572875976562, -0.32705831527710, -0.29331037402153, -0.49374127388000, 0.57732754945755, -1.32073259353638, -0.19473840296268, -0.31226325035095, -0.36284720897675, -0.17688547074795, 1.34044837951660, -1.68593370914459, 0.25232443213463, 1.61432063579559, -0.06262931227684, -0.06451316177845, 0.42293831706047, 1.25637137889862, -0.63399881124496, -0.08711423724890, -0.57019907236099, 0.67947411537170, 0.02842231094837, -0.33563789725304, -0.66589397192001, 1.26355135440826, -1.19225597381592, -0.60850471258163, -0.47063627839088, -0.34044554829597, -0.66125690937042, -0.52765136957169, 0.47973743081093, 0.06477675586939, -0.16182915866375, 0.68601649999619, 0.52696305513382, 0.27023670077324, -0.45175915956497, -1.12940621376038, 1.28701913356781, 1.30287837982178, -0.39140796661377, -1.22575569152832, 1.02484321594238, -0.35443544387817, -0.27805760502815, 0.62592703104019, -0.09788367897272, 1.87886154651642, -0.42234987020493, -0.57999038696289, 0.14070597290993, 0.11476871371269, 0.42892226576805, -0.76993024349213, 0.41246682405472, -0.46780645847321, -0.01212480477989, -0.50081264972687, 0.73657464981079, 1.02720975875854, -0.55766016244888, -0.17091588675976, -2.06597304344177, -0.18590150773525, -0.16678506135941, -0.53001797199249, 0.49061867594719, -1.24367284774780, -0.05183402076364, 0.24378615617752, 0.26352337002754, 0.87224084138870, -1.36671340465546, 0.90343582630157, 0.14469283819199, 1.05341339111328, -1.18463003635406, 0.25111696124077, -0.35042679309845, 0.61130881309509, -0.28094309568405, -0.42169082164764, -0.55697017908096, 0.84712755680084, 0.43336054682732, 0.05763924494386, -0.17879615724087, -1.03104126453400, 0.06614699959755, 1.32014501094818, -0.02302779071033, -0.90804123878479, 0.13904798030853, -1.13979995250702, -0.16753852367401, -0.88766938447952, 0.42057555913925, -1.27037858963013, -0.03953193873167, -0.35224226117134, 0.02540630102158, -0.05558026582003, -0.06076607853174, -0.89961928129196, -0.44189637899399, -0.91140824556351, 0.66300851106644, 0.64624089002609, 0.07046313583851, -0.18291774392128, 0.21821324527264, -1.58737719058990, 2.37937903404236, 1.48479032516479, -1.14576292037964, -0.56929361820221, 0.25982567667961, 0.59313499927521, -0.63997507095337, 0.22985915839672, 0.50510275363922, -2.01715564727783, 2.15622949600220, -1.94928145408630, 0.35951760411263, 0.07080502063036, -0.83815556764603, 0.57521700859070, 0.62478440999985, 0.82866871356964, 0.04929684475064, 0.39085626602173, 0.61842715740204, 0.22604197263718, 0.26021322607994, -1.16607856750488, 0.24066482484341, 0.14999122917652, -0.42612677812576, -1.14339876174927, 0.41081109642982, 1.32625091075897, -0.61377501487732, 1.03080415725708, 0.34629964828491, 1.84325110912323, -0.69090563058853, 0.38206201791763, 1.54895651340485, 0.20707193017006, -0.38224208354950, 1.14325237274170, 0.61760401725769, 0.82368338108063, -1.33208239078522, 0.60873830318451, -0.33826640248299, -0.32285889983177, 0.16496834158897, 0.46417996287346, -0.59290444850922, 0.89713096618652, -1.45141649246216, -0.88229858875275, 0.34895676374435, -0.28809830546379, 0.48324766755104, 0.97530871629715, 0.43391403555870, -0.50154304504395, -0.95970416069031, -1.05457913875580, 0.39944240450859, 0.08601391315460, -0.73362934589386, 0.68898957967758, -0.79628658294678, 0.22743940353394, -0.22819837927818, 1.04335010051727, -0.05511292815208, -0.73647433519363, -0.86414682865143, -0.23281109333038, 0.54743874073029, 0.31824547052383, -0.19195613265038, 0.36075779795647, 0.01680406741798, -1.61240804195404, 0.26390337944031, 0.35874477028847, 0.08698964118958, -1.65126419067383, 0.41469278931618, 0.03406904637814, 0.00049211166333, 0.58942425251007, -0.31631475687027, -0.70512712001801, 0.82225990295410, -0.26540467143059, -0.05650730431080, 0.56138420104980, -0.73080015182495, -0.07043615728617, 0.15447512269020, -0.79283422231674, -1.08239698410034, 0.03872188553214, 0.02942560426891, 0.01662019826472, -0.56732863187790, -0.56564396619797, -1.31072080135345, 2.68180799484253, -0.68458819389343, 1.14159381389618, 0.19416859745979, -1.01839745044708, 2.22673344612122, 0.01242767553777, 0.28506407141685, 0.11159703135490, 0.74284446239471, 0.61473113298416, 0.01217223703861, -1.16057455539703, 0.23090523481369, 1.76702237129211, -0.05226478353143, -0.69864159822464, 0.20700672268867, 0.17760179936886, 0.65113788843155, -0.74474662542343, 0.08642718195915, 0.50930166244507, 0.59381711483002, 0.26220825314522, -0.17251759767532, 0.48462897539139, -0.69906675815582, 0.90746027231216, -0.04641498625278, 0.42290449142456, 0.88446319103241, 2.40977215766907, -0.10290781408548, -0.30891004204750, 3.69094443321228, 2.04175424575806, -1.38907659053802, 0.63597857952118, 0.02131500095129, -0.08649291098118, -0.11990188062191, 0.06463141739368, -0.40216323733330, 1.04341149330139, 0.41720131039619, -0.70620340108871, 1.23825442790985, -0.53878724575043, -0.43494588136673, -0.23756399750710, -0.86261230707169, 1.11524105072021, 1.96719038486481, -0.61939257383347, -0.10408607870340, 0.74116951227188, -0.54384481906891, -1.84121131896973, -0.51828843355179, 0.80752360820770, 1.19583642482758, 0.36130458116531, -0.35596397519112, 0.48013845086098, 0.30284562706947, -0.53567093610764, 0.15093891322613, -0.18540981411934, -0.82339632511139, 0.57890176773071, -0.07800547778606, 0.21013714373112, 0.07892066240311, -0.48100093007088, -0.31743854284286, -0.83261322975159, 0.95576637983322, -0.01196829322726, -0.30670741200447, -0.22690129280090, 0.25454321503639, -0.00085277965991, 0.29621398448944, -0.35900130867958, -1.05604434013367, -1.01956343650818, 0.51355791091919, -0.06070530042052, 0.02834162861109, -0.33456251025200, 0.27338501811028, 0.89401686191559, 0.47823271155357, 0.55790257453918, 0.23746329545975, -0.11830853670835, -0.38241103291512, 0.23563438653946, -0.67709070444107, -0.20319251716137, -0.25235015153885, 0.23739966750145, -0.11397041380405, -0.26597067713737, -0.09044570475817, 0.96686387062073, 0.30381339788437, -0.01270426623523, -0.41168984770775, -0.67059659957886, -0.34125196933746, -0.79588776826859, 0.26283270120621, -0.78225243091583, 0.40062540769577, 0.75548726320267, -0.58654290437698, 1.13212442398071, 0.11609651893377, -0.03399582579732, -0.29681980609894, -0.61464214324951, -0.31224495172501, 1.46019995212555, -2.20007586479187, -1.27332675457001, -0.20902441442013, -0.90898877382278, 0.28350284695625, -0.24250127375126, -0.44779717922211, 1.32481467723846, 0.17695495486259, -0.79501581192017, -1.22096621990204, 0.15768560767174, 1.07980883121490, -1.50558722019196, 0.26337903738022, -0.12915277481079, -1.77801513671875, -0.14774239063263, -1.51573395729065, 0.46742737293243, 1.60170102119446, 0.46661606431007, -0.56722992658615, 0.40555945038795, -0.59714853763580, 0.21536563336849, 1.58220994472504, 0.36793246865273, 0.16169582307339, -1.42360246181488, -0.83242481946945, -1.20171833038330, -1.38757729530334, 1.68641448020935, 1.88838350772858, 1.28932964801788, 1.01101052761078, 0.81674140691757, -0.75500881671906, -0.01154939737171, -0.17217962443829, 0.00819796510041, -1.82148480415344, -0.11945525556803, 0.18224689364433, 0.54428088665009, 1.09908401966095, -0.13587935268879, -1.09301507472992, -0.03402921929955, -0.86473137140274, -0.20968818664551, -0.89288818836212, 0.02790533006191, 1.21396219730377, -1.87632668018341, 0.51854562759399, -1.31573331356049, 0.92087566852570, -1.56705272197723, 0.48669672012329, 1.29450309276581, -1.51483190059662, 0.50087553262711, 1.17129969596863, -0.89248520135880, -0.75937575101852, 0.43655315041542, 0.01400194410235, 0.05380703881383, 0.68016809225082, 0.52244627475739, 0.58370077610016, 0.19118686020374, -0.12510123848915, 0.23905810713768, -1.27284538745880, 1.55762839317322, -0.03045053221285, 0.35790404677391, 0.72742122411728, 0.83320307731628, -1.28162431716919, -0.47950315475464, 0.19804798066616, -0.18256464600563, -0.83152300119400, 1.12608158588409, -0.86921131610870, 1.01386415958405, -0.11234953999519, -0.82674032449722, 0.15474015474319, -1.06845009326935, -1.25789582729340, -2.15324497222900, 0.61608582735062, 0.73129761219025, -1.08108508586884, 0.05924909189343, -0.11941143870354, 0.69963395595551, -0.21320652961731, 0.15692795813084, -0.27022057771683, -0.31038641929626, 0.10483885556459, 0.30346840620041, -0.60313278436661, -1.18206250667572, 0.13494081795216, 0.23842814564705, 0.53311032056808, 0.10335212200880, 0.32947164773941, 0.18811747431755, -0.79330903291702, 0.36152356863022, -0.57686710357666, 1.27779603004456, 1.36733663082123, -0.68081021308899, 0.78666990995407, -0.43269947171211, -0.02536589279771, -1.26874840259552, 0.73764884471893, -0.01738241128623, 0.03384170681238, -0.46091482043266, -0.07995020598173, 0.95324730873108, 0.15548354387283, -0.18246830999851, 1.06446027755737, -0.15561364591122, -0.39639791846275, 0.52892428636551, 0.40082737803459, -1.82931733131409, 0.30444392561913, 0.93732738494873, 0.70781797170639, -0.02551241591573, 0.01698926277459, -0.32682675123215, 0.45766383409500, -0.17353747785091, -0.91895395517349, -0.02683409862220, -0.57321316003799, -0.72373771667480, -0.14988408982754, 0.43224868178368, 1.17401778697968, -0.08969889581203, 0.36049529910088, -0.12047628313303, -0.05116585642099, 0.55996668338776, -0.80184930562973, -1.89858651161194, -0.11089605838060, -1.95255768299103, -0.63499879837036, -1.11058545112610, 0.60953426361084, 0.96014320850372, 0.46224486827850, -0.35829913616180, -0.01158297993243, 0.32500514388084, -2.23876905441284, 0.37535142898560, 0.15146626532078, 1.05354118347168, -0.76755756139755, -0.99035710096359, -0.02939759939909, -0.68982136249542, 0.79355251789093, 0.13129346072674, -0.28085759282112, 0.95798474550247, 1.02407121658325, -0.89817035198212, -0.64258432388306, -0.44374260306358, 1.68184423446655, 1.80710375308990, 0.13879849016666, 0.60197871923447, -0.08727415651083, 0.07693320512772, -0.84705460071564, -0.45836484432220, 0.22344981133938, -0.69152081012726, -1.42387580871582, -1.26060235500336, 0.42822402715683, 0.03247804194689, 0.15498499572277, -0.22826185822487, 0.98586821556091, -0.09982135146856, -0.85051584243774, 0.26447129249573, 0.18806856870651, -1.29073739051819, 0.80329000949860, 0.75060546398163, 0.19558727741241, 1.35630607604980, 0.78155338764191, -0.90110111236572, 0.45329874753952, -0.07653726637363, 0.67406058311462, 0.01238299161196, -0.63178527355194, 0.44588893651962, -0.06681314855814, -0.22634780406952, -0.36666327714920, 0.00066913373303, -0.75344127416611, 0.51053345203400, 1.54640603065491, 1.39303755760193, 0.12856568396091, 0.40233591198921, 0.24923706054688, 0.54133784770966, -0.44437828660011, -0.19162316620350, -0.15940608084202, -0.98584449291229, -0.03618294000626, 0.88286668062210, 0.83211141824722, 0.31002184748650, 0.08367804437876, 0.11858532577753, -0.31105163693428, -1.03683352470398, 0.67532837390900, 0.65841865539551, 0.68621033430099, -0.88721513748169, 0.77342081069946, 0.79358917474747, 0.65145593881607, -0.63703531026840, -0.03970300033689, 0.00512854941189, -1.02450525760651, -0.30810591578484, -0.11647287756205, 0.20559532940388, -0.48233062028885, 0.26058387756348, 0.64165931940079, 0.35098648071289, -0.25365173816681, -0.61510783433914, 0.58575975894928, -0.09400697797537, 1.24210417270660, -0.49559426307678, 0.26694655418396, 0.37279722094536, -0.22524076700211, -0.85450601577759, -0.20219705998898, 1.20383822917938, 1.71988844871521, 0.50573301315308, -0.30484524369240, 0.86000043153763, 0.67613703012466, -0.19994077086449, -1.17629110813141, -0.35249367356300, 0.30877655744553, 1.07682299613953, 0.46682170033455, 0.45761656761169, -1.49677228927612, 0.19814477860928, 0.41132551431656, -0.82124596834183, 1.56605923175812, -0.35603198409081, -0.40417397022247, -0.04287502542138, -0.28683909773827, 1.53815281391144, 1.43083655834198, -0.21420411765575, -0.22056417167187, 0.64892280101776, -0.15801945328712, 0.21982346475124, 1.17323958873749, 0.48618343472481, -0.62591040134430, 1.02460229396820, 0.25607341527939, -0.87492734193802, -0.33744090795517, -0.98388087749481, 0.36793157458305, -0.90182703733444, 0.74081194400787, 0.52797061204910, -0.25846803188324, -1.17562890052795, 0.37508851289749, -1.19896817207336, -1.02571833133698, 0.08356562256813, 0.89243888854980, 0.87132525444031, -1.07592952251434, -0.60386258363724, -0.71489226818085, 1.13460016250610, -1.09375131130219, -0.25003054738045, -0.18171119689941, 0.36718934774399, -1.03594613075256, -0.78987413644791, -0.30524712800980, 0.35814982652664, -0.06075162813067, 0.18142068386078, -0.82701188325882, 0.03739397972822, -0.92176055908203, -0.04559493809938, 1.05864250659943, -0.03679593279958, -0.59937876462936, -0.58033490180969, -1.43732118606567, -0.32258623838425, 0.99312788248062, -1.52551901340485, -1.09819221496582, -0.45439314842224, 0.96738642454147, 0.85367184877396, -0.37163785099983, -1.45611965656281, 0.05179831758142, 0.38757598400116, 0.93679887056351, 0.21899113059044, -0.32546034455299, -0.11537192761898, 0.31765806674957, 0.33321666717529, 1.41629695892334, 0.66507381200790, -1.33746337890625, 0.22965225577354, 0.22704359889030, 0.80757182836533, 1.15616726875305, 0.83116632699966, -0.74649089574814, 0.07286987453699, -1.19814503192902, 0.81168282032013, -1.02329874038696, 0.61750751733780, -1.02894389629364, -0.20624710619450, 1.07062602043152, 0.71144837141037, -0.14896142482758, -1.00222444534302, 0.47627392411232, 0.17224006354809, -1.17920207977295, 1.01193296909332, 1.08260083198547, 0.80754953622818, 0.05233008414507, 0.52687889337540, -0.76990658044815, -0.16000987589359, -1.11258697509766, 1.94175219535828, -0.06595516949892, 1.29299342632294, -0.58091777563095, 0.54305130243301, 1.15770256519318, 1.25612711906433, 1.06754362583160, -0.17992351949215, -0.68818241357803, 2.39527940750122, -1.51539969444275, 0.05071844160557, -0.57470411062241, 0.17136885225773, 0.04078353941441, -0.84747618436813, -1.52472162246704, -0.42427438497543, 0.76265799999237, -0.47528865933418, 0.39894220232964, -1.07917189598083, -0.02596938610077, -2.58072328567505, 0.11406094580889, 0.50210732221603, -0.02783500775695, -0.72197568416595, -0.91248303651810, -0.44630727171898, 1.75443530082703, -0.38000616431236, 0.04882897436619, 0.58479809761047, 0.06706395745277, -0.72288560867310, 0.72342669963837, -0.72497808933258, -0.60149675607681, 0.36088779568672, -1.77959704399109, -0.85811519622803, -0.69941627979279, 0.11170089244843, 0.54217112064362, 0.21025317907333, 0.75418502092361, 0.82175952196121, 0.21795932948589, -0.98971700668335, 0.68743366003036, 0.80500882863998, -1.03017628192902, 0.30256795883179, -0.40314823389053, 0.51368343830109, 0.74062877893448, 0.16610759496689, -0.47853758931160, 0.92959439754486, -0.05242868885398, 0.19053485989571, 0.56441479921341, 0.13121503591537, 0.40369725227356, 0.20731230080128, -0.92359650135040, -0.83553338050842, -0.99041217565536, 0.07841717451811, -0.91020023822784, 1.26741254329681, -0.87016701698303, 0.20760400593281, -0.17497754096985, -0.80509305000305, 0.43402591347694, -1.59668469429016, -1.22605764865875, 0.38473740220070, 0.35567438602448, -0.88823717832565, -0.26470670104027, 0.43224641680717, 0.32187810540199, -1.13278710842133, -0.57231533527374, 0.16688510775566, -0.00693186791614, -2.33786439895630, -0.10851646959782, 0.38408711552620, 0.17061693966389, -0.11106858402491, 0.01519309822470, -0.13297474384308, 1.34025466442108, 1.05318748950958, 1.15913105010986, 0.92067569494247, 0.75745671987534, -0.32708302140236, 0.88619345426559, 0.32515913248062, 2.49602365493774, -0.72699892520905, -0.50952529907227, -0.71442890167236, 0.64804792404175, -0.46493330597878, -0.22496591508389, 0.01329298503697, 0.33608764410019, -2.33294892311096, 3.09811043739319, -1.15489637851715, -0.13795799016953, 0.43365031480789, 0.75983715057373, -0.53484153747559, 0.97564345598221, -0.81450617313385, -0.90520387887955, -0.09102381765842, -0.22249917685986, -0.18550008535385, -0.86344587802887, -1.69244325160980, 0.13750056922436, 0.68775594234467, -0.63447195291519, -0.82434278726578, -0.68537676334381, -0.99792611598969, 0.84252893924713, -0.06928469240665, 0.76938444375992, 0.04758327826858, -0.75119143724442, 1.72722411155701, -1.13424968719482, 0.22373312711716, -0.60109418630600, 1.72009551525116, -0.14281550049782, 0.00690372334793, 0.93465417623520, 0.48524630069733, -0.56719547510147, -1.36464834213257, 0.15761210024357, -1.09123516082764, 1.22717106342316, 1.92129361629486, -0.53848242759705, -0.96533125638962, -1.08652830123901, 0.59411853551865, -1.68812334537506, -0.12677443027496, -0.47126454114914, -0.34180179238319, 0.14039714634418, 0.11686428636312, -0.06261207163334, -0.99003088474274, 0.02754611894488, -0.89178186655045, -0.26358750462532, -0.16488848626614, 0.27355262637138, 1.15302634239197, -1.00890278816223, -0.96351593732834, -0.14332167804241, -0.44401136040688, -0.17211487889290, 0.51854741573334, -0.31221050024033, -0.24625577032566, -0.15589292347431, -1.17943465709686, 1.08746945858002, 0.21556301414967, 1.22478222846985, 0.89059513807297, 0.93655639886856, -0.42740735411644, -0.45748722553253, -0.10696438699961, -1.07921636104584, 1.05840218067169, -0.92398178577423, 0.06011694297194, -0.70648872852325, -0.61717778444290, -0.98248821496964, 0.51113188266754, 1.47749841213226, 0.79542452096939, 0.59773802757263, -0.58708900213242, 0.28307446837425, -0.80859190225601, -0.01485802978277, 0.35871785879135, -0.31369626522064, -0.30631747841835, 1.07134342193604, -0.53776180744171, 1.42516994476318, -0.25754228234291, -0.28035885095596, 0.00229819538072, -0.10796115547419, -0.55658185482025, 0.69149321317673, -0.20680513978004, -0.48123791813850, 1.71491110324860, -0.13851632177830, -1.41434371471405, 0.06514482200146, 0.39567941427231, -1.36535108089447, 0.23266641795635, 0.30824866890907, 0.97182232141495, 1.13039398193359, -0.29192450642586, -0.41341710090637, 0.64764177799225, 0.23555730283260, -0.32510697841644, 0.41336786746979, 3.17802762985229, -1.51954936981201, 1.09697794914246, -0.57353806495667, -1.12006843090057, -2.00822520256042, -0.26146093010902, -0.78904473781586, 0.48255336284637, -0.22503308951855, -0.60019189119339, -0.34623336791992, -1.03629875183105, -0.16829645633698, 0.35064977407455, 1.52993381023407, -0.06519602239132, 0.01043297536671, 0.45734766125679, 0.04658560454845, 1.15679681301117, 0.78460556268692, 0.87773162126541, 0.04483117908239, 1.84895026683807, 0.07082476466894, 0.64751321077347, -0.66599571704865, -0.20629663765430, -1.13133227825165, -0.85002177953720, -0.37011462450027, 0.22231571376324, -0.65577328205109, -0.14893317222595, -0.43022891879082, 0.24263511598110, 0.11226984858513, 0.20682978630066, -0.18910677731037, 0.68052333593369, 0.80134546756744, -0.73575663566589, 0.99021047353745, 0.46599954366684, -0.22021220624447, 0.17592893540859, 0.58652144670486, -0.05723046511412, 0.69689112901688, 0.81521975994110, 2.60082936286926, 0.37517344951630, 0.72342085838318, -0.86181157827377, -0.18833236396313, 1.47020018100739, 0.00931608397514, -0.11406850069761, -0.58432692289352, -0.37967669963837, -0.52566933631897, 0.78437179327011, 0.14029303193092, -0.26211562752724, 0.61270070075989, 0.49430176615715, -0.10043492913246, -0.95544880628586, 0.10655008256435, -0.84946781396866, -0.73683696985245, -0.40180438756943, 1.75561416149139, -0.79948616027832, 0.73587787151337, 0.94270324707031, 0.14053361117840, -0.91923338174820, -0.56770032644272, -0.29045215249062, -0.07273308932781, 0.78428483009338, 1.56405246257782, -0.51380383968353, 0.09243350476027, 1.32588148117065, -0.24161952733994, 0.83012193441391, -0.31671029329300, 0.87818825244904, 0.28545174002647, -0.87271988391876, -0.24592526257038, -0.52104222774506, -0.29606467485428, 0.54232025146484, -0.39361897110939, -0.90632677078247, -0.84425336122513, -0.39060148596764, 0.29598754644394, -0.39726698398590, 0.04654355347157, 0.48437646031380, 0.13723324239254, 0.53109526634216, -0.75549781322479, 0.17707018554211, -0.14398680627346, 0.46964746713638, -0.71499544382095, 0.96137160062790, 0.36823078989983, -0.57109296321869, 0.09817230701447, 0.97721534967422, -0.37415525317192, -0.11160234361887, -0.29261407256126, -0.12850874662399, 0.41459956765175, -1.15406799316406, 0.67569655179977, 0.74188637733459, -0.90481454133987, -1.03939986228943, 0.50521421432495, 1.04646480083466, -0.19788654148579, -1.09364640712738, 0.09595903009176, 0.24653948843479, 0.24532623589039, -1.66329681873322, 0.43055492639542, -1.97536218166351, -0.32804650068283, 1.10136246681213, -0.69252848625183, -0.78881829977036, 0.18229989707470, -1.28172147274017, -0.53485167026520, 0.14659067988396, 0.94931995868683, 0.61220312118530, -0.07654759287834, -0.28815430402756, -0.61649787425995, 0.39318221807480, -0.19141091406345, -0.60462522506714, -1.28021454811096, -1.08055591583252, -0.75270664691925, -0.27803254127502, 0.07247053086758, 0.17946159839630, 0.05324327200651, -0.80506747961044, -0.65793961286545, -0.08036097139120, -1.21946942806244, -1.41330373287201, -0.99071019887924, -0.17059972882271, -0.74914979934692, -0.48850709199905, 0.66849011182785, -1.13358521461487, 0.20879630744457, 0.59156686067581, 0.02130352333188, 0.01851842366159, -1.00122642517090, 0.28751581907272, 0.26217648386955, -0.68394750356674, -0.01548066735268, 0.82311165332794, 0.64574432373047, 0.85157662630081, 0.26902672648430, 0.27366566658020, -0.16420163214207, 1.50921332836151, 0.52183413505554, 0.28068304061890, 0.27958890795708, 1.04740953445435, 0.72955799102783, -0.70776653289795, 0.97129112482071, 2.13762140274048, -0.47688907384872, -0.10905931144953, 1.40836977958679, -0.09464439004660, -0.25193464756012, 0.26987838745117, 1.13709104061127, 2.28760790824890, -0.26794275641441, -0.50971990823746, 1.07779741287231, -0.09780469536781, 0.17906890809536, 0.56440234184265, 0.55133986473083, -1.17529046535492, 0.65518331527710, 0.14407083392143, -0.69065564870834, -0.62848716974258, 0.70454949140549, 0.08845847100019, -0.60810345411301, 0.32430350780487, -1.01846909523010, -0.46966707706451, -0.27416631579399, 0.46012464165688, 1.13482046127319, 0.30207076668739, 0.30389389395714, 0.82783681154251, -0.52318614721298, -0.14010453224182, -0.50277864933014, -0.95030510425568, -1.17634570598602, 2.05754709243774, 1.40509688854218, 0.09845052659512, 0.38891437649727, 1.83354234695435, 0.39204251766205, 1.64246106147766, 0.24708823859692, 0.46061155200005, 0.70420449972153, -0.96192008256912, 0.06277962028980, -0.70915830135345, -0.43218007683754, 0.69444018602371, 0.40085929632187, 0.17482511699200, -1.21217715740204, 0.97198557853699, -0.75327193737030, -1.05852532386780, 0.13754713535309, 0.81091421842575, 1.02639508247375, 0.18093787133694, 0.70441830158234, 0.16767609119415, -1.26897871494293, -0.85557031631470, 0.19291272759438, -0.86691766977310, 0.25430819392204, 0.28063708543777, -0.49785372614861, -0.67869043350220, -0.58989006280899, 2.77212166786194, 1.91943657398224, -0.41553983092308, 0.16915272176266, 0.64600688219070, -0.40593025088310, -0.11861753463745, 0.66025692224503, -0.30852237343788, 0.15894879400730, 0.51349520683289, 0.48670339584351, -0.18125042319298, -0.87726700305939, 1.41684937477112, 1.27906465530396, 1.20762062072754, -0.18043330311775, 0.19784142076969, -1.06826686859131, -1.28779566287994, -0.83095639944077, 0.48273587226868, 0.90335887670517, 0.42236942052841, -0.17452204227448, 0.41461840271950, 0.45848968625069, -0.75041663646698, -0.80905330181122, 1.34038734436035, 0.15804727375507, 0.71225082874298, -0.49278005957603, -0.12673807144165, 0.85698384046555, -0.59092313051224, 0.85306483507156, 1.17546200752258, -1.13458883762360, 0.05989374220371, -0.30820593237877, -0.13819637894630, -0.65770292282104, 0.03215066343546, -1.30286633968353, -0.39419206976891, 0.93232041597366, -0.67725133895874, -0.13157773017883, 0.29616212844849, 0.53182196617126, 1.40891134738922, 0.83367675542831, -0.12763711810112, -0.71267336606979, -1.05902004241943, -0.39420121908188, 0.71440267562866, 0.47611683607101, 1.41813719272614, -0.74925267696381, 0.29097911715508, 0.35360327363014, 0.13442401587963, 1.28031396865845, 0.00553382141516, -0.29055872559547, -0.16006217896938, -1.20940625667572, 0.22066912055016, -1.47008168697357, -0.20831197500229, 0.59703820943832, 1.72117924690247, 0.65390527248383, 0.51366156339645, 0.27891549468040, 0.49835932254791, -0.03066561371088, 0.01146242488176, -0.95010524988174, 1.36568224430084, 0.11851262301207, 0.31171211600304, -0.55762344598770, -0.71236008405685, -0.68278676271439, -0.92806094884872, -0.62186419963837, -0.23424857854843, 0.30314949154854, -0.91420155763626, -0.29447945952415, 0.07943397015333, -0.15718144178391, -0.11051614582539, -0.22213163971901, -0.32832393050194, -0.30555212497711, 2.64610362052917, -0.98551976680756, 0.74580270051956, -0.28089326620102, -1.04565858840942, 0.17892168462276, -0.63128989934921, -0.30392733216286, -0.14019073545933, 0.03317385911942, 0.84273672103882, 0.82145142555237, 0.28346720337868, 0.58389878273010, 0.11911199241877, -0.40019395947456, -0.28767314553261, 0.31385296583176, -1.06751394271851, 0.46906578540802, 1.33993482589722, 0.45636361837387, -0.19670243561268, 0.27976283431053, 0.75844824314117, -1.05587899684906, -1.19377493858337, -0.82127410173416, -1.00901341438293, 0.31502982974052, 0.94622009992599, 0.83482789993286, -0.73701447248459, -0.98643440008163, -0.22127921879292, -1.11811661720276, -0.16019344329834, 0.25829362869263, -0.28836321830750, 0.36931064724922, -0.34087595343590, 0.74327933788300, 0.57378178834915, 0.18035541474819, -0.43862995505333, 0.49813392758369, 0.82854121923447, 1.26938033103943, 0.08726722747087, 0.39608952403069, -0.96722590923309, -0.45353233814240, 0.65831452608109, 0.37391653656960, -0.38458171486855, 0.17761923372746, 0.50272697210312, -0.39873957633972, -2.10127544403076, -0.40465497970581, 0.42186427116394, -0.32952141761780, -0.41321864724159, 0.14676859974861, 0.25139287114143, 0.96524488925934, 1.20109164714813, -0.56064534187317, -1.27766871452332, -1.66270661354065, -0.78104120492935, 0.53926879167557, -0.11952810734510, -0.18840950727463, 2.19268727302551, -1.54538869857788, -0.09134145081043, 0.40987801551819, -0.25422260165215, -0.02859592810273, -0.07569655030966, 0.20015870034695, -0.69578796625137, -0.31050261855125, 0.43446800112724, -0.30404222011566, 0.28493180871010, 0.37705790996552, 0.15481631457806, 0.60174059867859, -0.71979284286499, 1.64878118038177, 0.05698915198445, 2.30820322036743, -0.46859219670296, 0.14712412655354, 0.75394123792648, -0.87698054313660, -0.39980578422546, 0.21836447715759, 0.43219527602196, -0.36345642805099, 0.01407103799284, 2.65941238403320, 0.59961205720901, -0.83671051263809, 0.52963882684708, 1.57414340972900, 0.35941445827484, 0.83548158407211, -0.73204439878464, -0.12136390805244, 1.60764884948730, -1.72802996635437, 0.24098512530327, 2.45695805549622, -0.79697144031525, 0.85754746198654, 1.39519929885864, -1.50688183307648, 0.10586060583591, 0.30289801955223, -0.49112907052040, -0.79428035020828, 0.66480100154877, -0.10169507563114, 1.14790439605713, 0.38936051726341, 1.03262352943420, -0.43722134828568, -1.32238578796387, -0.15568238496780, 0.38513851165771, -0.01598235592246, 0.45920571684837, 2.50683069229126, 0.35256603360176, -1.02269113063812, 1.37861168384552, 0.87562990188599, -2.27365350723267, -0.41257363557816, -0.52118211984634, -0.40204113721848, -0.64786267280579, -0.15500265359879, -0.04344011470675, 0.32109761238098, -0.47639900445938, -1.24263930320740, 0.95464420318604, -0.52216082811356, -0.52960789203644, 0.11420153826475, 0.36440828442574, -0.44906422495842, -1.37831830978394, -1.10533547401428, 0.17158268392086, 0.84689629077911, -1.32421636581421, 0.32489636540413, -0.51284283399582, -0.80899810791016, 0.93672227859497, -0.89823472499847, -0.89297062158585, 0.18598881363869, -0.80916124582291, -0.33087980747223, 1.82370638847351, -0.09928416460752, 1.52011179924011, 0.32640233635902, -0.25479057431221, -0.90585976839066, 0.56604415178299, -0.08566454797983, -0.44348484277725, -0.72186642885208, 0.38507661223412, -0.03056170791388, 0.89539742469788, 1.71021473407745, 0.43891918659210, 0.57373833656311, 0.31900522112846, -0.46471053361893, -3.55612540245056, 0.20878277719021, 0.22891201078892, -1.08431315422058, -0.34687972068787, -0.36718082427979, -1.19380617141724, -0.44570359587669, 0.16259409487247, -0.62477409839630, 0.18876801431179, 0.09064781665802, -0.16457083821297, 0.19575102627277, 0.36305430531502, -0.31977984309196, -0.19632790982723, 1.42925608158112, -0.17354673147202, -0.97955411672592, -0.18024089932442, -0.23895008862019, -0.17794993519783, 0.58652561903000, 2.84499716758728, 0.40623837709427, -1.01603817939758, 0.75854098796844, -0.65083277225494, -0.50404673814774, 0.32989448308945, 0.96159327030182, -0.36009228229523, 0.14966416358948, 0.02190754003823, 0.60937654972076, 1.14818763732910, 0.05207158625126, 0.03782352805138, 0.26311823725700, 0.26507347822189, -0.36061951518059, -0.82761675119400, -0.15864035487175, 1.09833753108978, 0.27790951728821, 0.01323083322495, -0.03113300912082, 0.00532971601933, -0.80813449621201, -0.20352974534035, -1.23509776592255, -0.52911031246185, -0.00632326118648, 0.03149226307869, 0.72086459398270, -0.28410223126411, -1.87092554569244, -0.10080263018608, -0.02841628715396, -0.83516144752502, -0.10090944916010, 0.95306038856506, 1.32845187187195, -0.67056280374527, -0.05447943136096, -0.40533879399300, 0.01505389716476, -1.74011456966400, 0.65996444225311, 1.09401619434357, -0.05298144742846, 1.17984664440155, 0.60911929607391, -0.24202047288418, -1.35648798942566, 1.32583093643188, 0.11041661351919, 1.43849182128906, 0.52021312713623, -0.31194096803665, 0.00583301205188, -0.27154725790024, -0.27939829230309, -0.76123225688934, 1.66740262508392, -0.06057718023658, -0.34920924901962, 0.16505450010300, -0.65232098102570, -1.53646719455719, 0.77871668338776, 0.37326088547707, 0.88509297370911, -0.43948146700859, 1.14964663982391, 0.53705054521561, -0.43824237585068, -0.81188875436783, 0.58256900310516, -0.02629939094186, 0.18419305980206, -0.90320968627930, -1.45976912975311, 0.08451793342829, 0.26802149415016, 0.32617783546448, -0.32082375884056, -0.16775217652321, 0.56098520755768, 0.01269853021950, 0.16443578898907, -0.06537950783968, 0.74411988258362, 0.18002521991730, -0.31087240576744, 0.75178909301758, 0.33596441149712, 1.10010540485382, -0.84114205837250, -1.02981472015381, 0.85872602462769, -1.22123205661774, 1.61128425598145, -1.38539874553680, -0.01896776445210, -0.83075493574142, -0.24875202775002, 1.10024166107178, -0.48768875002861, -0.10618183016777, -0.79548245668411, -1.11501336097717, -0.70383113622665, -0.90302264690399, -0.65247464179993, -1.49375855922699, 1.06155014038086, -0.37003132700920, -0.32035574316978, -1.28613972663879, 0.22929380834103, 0.16845525801182, 0.96850550174713, 0.78233963251114, -1.21036601066589, 0.45442143082619, -0.34333691000938, 0.22947405278683, 1.02602660655975, -0.33785089850426, 0.15067747235298, -0.10193850845098, -0.40284693241119, 1.78172624111176, -0.45158651471138, 1.59081685543060, 0.18532836437225, -1.40059792995453, 0.36535075306892, 0.05557451769710, 1.58632111549377, 0.41550907492638, -0.48948353528976, -0.16583155095577, 0.28040650486946, 0.60886913537979, -0.75166070461273, -0.25983026623726, 0.04225096479058, -0.05940992012620, 0.74680984020233, 1.55723547935486, 1.54909276962280, 1.33012938499451, -0.34205266833305, -1.92342114448547, 0.84914481639862, -1.16929578781128, 1.73971951007843, -1.41751360893250, 0.07046027481556, 0.18545480072498, -1.28182458877563, 0.36588168144226, -0.57714885473251, 1.05267441272736, -0.07438841462135, -0.07375762611628, -0.02325349673629, -0.37038198113441, 0.03317528590560, 0.58058828115463, 0.44369921088219, -1.05047225952148, 0.09588240087032, 0.89921206235886, -0.67688864469528, 0.04943149164319, -0.50288408994675, -2.01170849800110, -0.04811243712902, 0.73065423965454, -0.32758077979088, -0.15215152502060, -0.20875993371010, 0.14136303961277, -0.10459770262241, -0.24913461506367, -0.05820521339774, 0.99972712993622, 0.37452661991119, 0.05000706017017, -0.00844111386687, -0.71115875244141, -1.60474979877472, 1.11053538322449, 0.08581884950399, -0.50914692878723, -0.05062837898731, 0.25621834397316, 0.24195545911789, -1.83315718173981, 1.30243194103241, 0.29618066549301, 0.75878173112869, 1.23685872554779, 0.64452254772186, -0.18297815322876, -0.79223400354385, -1.51186299324036, 0.55583405494690, 1.04098463058472, 0.06319703161716, 0.06450468301773, -0.59460282325745, 0.35361802577972, -0.57461059093475, 0.07812492549419, -0.16253624856472, 0.67930895090103, 0.02529691159725, -0.26025101542473, -0.25881364941597, 0.63652527332306, -1.36063814163208, 0.21797572076321, -0.98363512754440, -0.21905955672264, 0.22226788103580, -1.50673949718475, 1.04145038127899, 0.49568131566048, 0.29433667659760, -0.39184293150902, 0.63523942232132, -0.83614927530289, 0.89598280191422, -0.04157113656402, -0.21606424450874, 0.20606736838818, 0.21329621970654, 0.86012899875641, 1.89561021327972, -0.76327174901962, -0.36000820994377, -0.76175594329834, 0.09216132760048, -1.11589014530182, -0.25666540861130, -0.54981791973114, -0.18376737833023, 0.35239872336388, 0.01256054081023, -0.48628696799278, -0.38242763280869, 0.02503206767142, 1.41771960258484, -1.10950410366058, -0.02289858087897, 0.09860334545374, -0.55945730209351, -0.36154159903526, 0.02687662281096, -0.78907400369644, -0.97365969419479, 0.65971684455872, -0.51123505830765, -0.24689811468124, -0.96483051776886, 0.24953076243401, 0.63458150625229, 0.62934571504593, -0.34228044748306, 0.66755700111389, -0.37768650054932, -0.09779589623213, -0.27524486184120, 0.00919362809509, 0.08206661790609, 0.61567854881287, -0.07902756333351, 1.58504986763000, 0.95571684837341, 2.63602781295776, -2.09288311004639, -1.03839814662933, 0.54137611389160, 0.12051376700401, -0.62296098470688, -1.30220150947571, -1.51137363910675, -0.93799936771393, 0.23031200468540, 0.97492337226868, -1.38248383998871, -0.25166738033295, 1.25822126865387, -0.38031765818596, -0.20398610830307, -1.35259985923767, 0.68518424034119, -0.80416929721832, -0.11837399750948, -3.76104521751404, 0.30818328261375, -0.59320968389511, -0.25855800509453, -0.34792435169220, 0.68769478797913, -0.28062352538109, 0.98354959487915, 0.62375807762146, -0.10206951200962, -0.96671110391617, 1.28462576866150, -0.00725426245481, 0.43117102980614, -0.14568550884724, 0.52640020847321, 0.27825593948364, -0.26230239868164, 0.27500051259995, 0.06290747970343, 0.25558415055275, 0.02316110581160, 0.33888632059097, -2.30472850799561, 0.75985175371170, -0.05240015685558, -0.46619236469269, 0.99810951948166, -0.28537803888321, 0.08554986864328, 2.05997896194458, 0.08096669614315, 0.37014696002007, 0.06485002487898, -0.68722945451736, -0.31693127751350, 0.25260049104691, -0.60185784101486, -0.17742185294628, 0.06042836606503, -1.81411647796631, -0.97363406419754, 0.01159383915365, 0.54156064987183, 0.80041432380676, -0.79184812307358, -0.09239239245653, 0.05205636844039, 0.01149982400239, 0.18310211598873, -0.03306286409497, 1.02436316013336, 0.49280112981796, 0.57758659124374, -0.47117358446121, -0.06227647140622, 0.80590659379959, -0.01389973610640, 0.52451819181442, 1.30289363861084, -0.90822291374207, 0.25156283378601, -0.48037838935852, 0.38182601332664, -0.07989291846752, 0.43094086647034, -0.95934832096100, -0.22918827831745, -0.03394365310669, 0.16555610299110, -0.62446546554565, 0.34145188331604, -0.31294736266136, -0.91995012760162, -0.30755081772804, -0.91116219758987, -0.08728577941656, 0.25908926129341, -1.01245677471161, 0.08198694884777, 0.06683102995157, -0.18195439875126, 0.90236014127731, -0.40497347712517, -0.13753648102283, -0.29302304983139, -1.00961196422577, -0.88923013210297, 1.10491275787354, -0.61999273300171, -0.95135241746902, -1.28655457496643, -0.69257676601410, 0.19330337643623, -0.13040851056576, -0.73385864496231, 0.34140792489052, 0.07662535458803, -0.78933912515640, -0.39443957805634, 0.18567313253880, 0.46062654256821, 0.91413140296936, 0.08511517196894, 0.06873505562544, 0.04246531799436, -0.67278277873993, 0.01973676122725, -0.27867430448532, 0.38938379287720, 0.34299173951149, 0.71358966827393, 0.74418288469315, 0.47134697437286, 0.02989038825035, 0.75493580102921, 0.99591904878616, 0.70204102993011, 0.48863777518272, 0.06565708667040, -0.33388286828995, -1.25971841812134, 0.92701536417007, -0.16464807093143, 1.15320134162903, 2.49526953697205, 0.06924366205931, -0.61532944440842, -0.29778656363487, -0.54328143596649, -0.65687662363052, -1.05500960350037, -0.56921958923340, 0.37153479456902, -1.58552360534668, -2.68035101890564, 0.60136747360229, 0.12963920831680, 0.43923598527908, 0.37531247735023, 1.64043331146240, -0.29419624805450, 0.25512984395027, 0.97291290760040, -0.10763179510832, -2.25642180442810, 1.00124442577362, 0.31023728847504, -0.10981144756079, -1.13396322727203, 0.52639198303223, 0.25319796800613, 0.02701316028833, -0.52968114614487, 0.44996505975723, -0.81719100475311, -0.08625930547714, 0.03145266324282, -0.99664759635925, 0.11858887970448, 0.29012608528137, -0.54059869050980, 0.41995632648468, 1.84615612030029, -0.08166462928057, -0.20632733404636, -0.05607794597745, 0.30020368099213, 2.18352150917053, 0.58888268470764, -0.61961168050766, 0.76646888256073, 0.92833489179611, -0.39470309019089, 1.48530638217926, 0.38798686861992, -1.54551458358765, -1.34156775474548, -0.16528424620628, -0.04908738657832, 0.68894255161285, -0.14838445186615, -0.19221532344818, 0.97058582305908, -3.38585162162781, -0.92129731178284, -0.50712144374847, 0.10243370383978, -0.37492433190346, 0.77662104368210, 0.41307359933853, -0.08701675385237, -0.38006711006165, -0.08611388504505, -0.68618041276932, -0.78336066007614, -1.21921777725220, -0.74601757526398, 0.90015387535095, 0.17466504871845, -0.43964987993240, 0.65399277210236, -0.74224936962128, 0.86994802951813, 0.62509131431580, -1.06072616577148, -0.09641727060080, 0.67748016119003, -0.16523490846157, 0.21920269727707, -0.87193769216537, 1.89152705669403, 4.17417049407959, -0.00797275267541, -0.83678615093231, 0.90170532464981, -1.50326371192932, 1.10361254215240, 2.11463689804077, -0.24145518243313, 1.43108439445496, 0.53540736436844, 0.59611970186234, -0.27281630039215, 0.35215139389038, -0.31367531418800, 0.85846924781799, -0.10993450880051, 0.43732631206512, -0.44716817140579, -0.11606077849865, -0.07181648910046, 1.09542298316956, 0.04464960843325, -0.20974089205265, 0.35454723238945, 0.10700666904449, 0.05470598116517, 0.17294086515903, 0.22080852091312, -0.16074483096600, 0.29479512572289, -1.74823808670044, 0.56775951385498, 0.77441394329071, 1.00347137451172, -0.13811014592648, -0.46738779544830, 0.11266902834177, -0.07287747412920, -0.47571045160294, -0.91088163852692, 0.02778193168342, 0.35186567902565, 0.39915481209755, -0.22453768551350, -0.02727380022407, 0.80848205089569, 1.28321409225464, -0.14126640558243, 0.43805369734764, 0.29681876301765, -1.65878653526306, -0.28823396563530, 0.17774540185928, -0.12093355506659, -0.44285392761230, 1.23764181137085, 1.27599596977234, 0.00901177152991, 0.01259737648070, -0.02160119265318, 1.15602195262909, 0.09194035083055, -0.86888384819031, 0.45118737220764, 0.81461936235428, -0.90109723806381, -0.08045564591885, -0.11233586072922, -0.50902831554413, 0.07864011824131, -0.56935846805573, -0.73318690061569, 0.28372719883919, -0.28273904323578, 0.71089833974838, 0.22605301439762, 0.52389222383499, -0.69024729728699, -0.71543067693710, 0.28508335351944, -1.05009484291077, -0.43304410576820, 0.00528511311859, 0.28908714652061, -0.07458198815584, -0.45380595326424, -0.12306617200375, 0.10488366335630, -0.38444203138351, -0.69541555643082, 0.35051217675209, -0.32357022166252, 0.23932170867920, 0.50693315267563, -0.42701745033264, -0.28156423568726, -0.50621217489243, 0.60034525394440, -0.80215907096863, -0.09603652358055, -0.35148519277573, -0.31045413017273, 0.17124789953232, -0.48177894949913, -0.41736298799515, -2.47368597984314, -0.24742652475834, 0.11212621629238, 0.43452864885330, -0.44800150394440, -1.62793183326721, 1.55847847461700, 1.09077930450439, -0.26912420988083, -0.74916219711304, 0.68684166669846, 0.54429519176483, -0.71563404798508, -1.22356200218201, 0.78358906507492, -0.41425895690918, 0.51062142848969, 0.48945584893227, 0.51690834760666, -0.20741645991802, -0.06654441356659, 0.68854230642319, -1.77287554740906, -0.01345949620008, -1.69933152198792, -0.66834920644760, -1.20051002502441, -0.58422136306763, 0.40665155649185, -1.56158375740051, 0.10539265722036, -0.17402416467667, -0.00371594307944, 2.21770930290222, 0.41772186756134, 0.16526255011559, 1.09534406661987, -0.04345737397671, 1.54632437229156, 0.15285111963749, -0.46448874473572, -0.36744090914726, 2.15069127082825, 0.12352067232132, -1.81027901172638, -1.03622949123383, 0.21544434130192, 0.72540473937988, 0.79819136857986, 0.43953225016594, 0.66060924530029, 0.83825534582138, -0.10335849970579, 1.30773520469666, 0.58605653047562, -0.44838923215866, 0.08365280926228, 0.52001607418060, 1.10701465606689, 0.26584276556969, 0.47221288084984, -0.17355622351170, 0.84501665830612, -0.32836449146271, 0.83570790290833, -0.03355195373297, 1.13736879825592, 0.51453262567520, -0.36242777109146, -0.61054313182831, -1.85143601894379, -0.79103124141693, -0.17067828774452, 0.73645532131195, -0.17193949222565, -0.14694218337536, 0.49556022882462, -1.42369830608368, -1.20797419548035, 1.37910759449005, 0.03555357083678, -0.83469742536545, 1.49724566936493, -0.11512432247400, 0.37417373061180, 1.00354254245758, 0.36076182126999, -0.09773840755224, 0.71591675281525, 0.52663981914520, -1.27668356895447, -0.52298581600189, -1.63443672657013, 0.92458677291870, -1.09846162796021, -0.03068727813661, 0.42308473587036, 0.55547165870667, -0.61423122882843, -0.01404817588627, -0.39113765954971, -0.56058293581009, 0.33297637104988, 1.17652952671051, -0.78835594654083, -0.25786077976227, 0.71680456399918, -0.22345870733261, 0.48947042226791, 0.48737660050392, -0.19500911235809, 0.30094501376152, -1.52956593036652, -0.39418914914131, -0.56799244880676, 0.14318360388279, -1.15540385246277, -0.14569590985775, 0.53123164176941, 0.87683290243149, 0.06491629779339, 0.52524828910828, -1.81014466285706, 1.33054363727570, -0.32354483008385, 1.37530291080475, 0.45013654232025, -0.13185167312622, 0.10567820072174, -1.17790794372559, -0.94250887632370, 0.86303782463074, 0.95836609601974, 0.70584213733673, -0.00247442140244, -0.07806752622128, -0.38280633091927, 0.39279371500015, 0.68729329109192, 0.09554502367973, 0.16843311488628, 0.96717661619186, 0.04732325300574, -0.79489439725876, -0.04454077035189, 0.23690338432789, -0.30695736408234, -0.32737207412720, 0.87313586473465, -0.46988543868065, -1.10100924968719, -1.00118660926819, 0.30662405490875, -0.81607127189636, -0.02711663953960, 0.10641395300627, 0.03718261048198, 0.43201187252998, 0.09463075548410, 0.73540663719177, 0.36834153532982, 0.54831963777542, -0.19072510302067, 0.30378198623657, -0.86423707008362, -0.02110108174384, 0.67246317863464, 0.34246116876602, 0.52255362272263, 0.20007556676865, 0.45851981639862, -1.79301989078522, -0.74703198671341, 0.76590144634247, 0.17900258302689, -0.09882004559040, -0.27907690405846, 0.52448195219040, 2.22626328468323, -0.31805244088173, -1.08179759979248, 1.22394990921021, -0.26758545637131, -1.88336265087128, -1.09425795078278, -0.69636702537537, 0.10675025731325, -1.73424077033997, 1.12918686866760, 1.29136574268341, 0.08032803237438, -0.59711140394211, 0.93769437074661, -1.39732301235199, 1.64810752868652, -0.57677310705185, -0.87405467033386, 0.64772629737854, -0.49167224764824, 0.42625269293785, -0.56305748224258, -1.37921750545502, -0.05001233518124, -0.10431526601315, -0.65672063827515, 0.55522185564041, 0.59965121746063, 0.28771218657494, -0.57713168859482, -0.28704428672791, 0.43143573403358, 0.02660989202559, -0.33856937289238, -0.07467624545097, -0.17641669511795, -0.45746812224388, -0.83681237697601, 0.15017744898796, -0.77403914928436, 1.10800623893738, -0.11063909530640, -1.19151067733765, 0.71070432662964, -1.60497963428497, 0.38048183917999, 0.46613788604736, 0.05504371225834, 0.46935668587685, -0.19298861920834, -0.73931407928467, -0.20080697536469, 0.46674662828445, 0.25672006607056, -0.75717431306839, -0.73918265104294, 0.88492536544800, 0.27808383107185, -0.11966022104025, 0.84285473823547, -0.15923079848289, -0.19271285831928, 0.24251396954060, -1.06458330154419, 0.95094490051270, -1.87623345851898, 0.50988066196442, -0.35127907991409, 0.57690453529358, 0.17732685804367, 0.18175923824310, 0.15974032878876, 0.26772379875183, 0.14800173044205, -0.75167328119278, 0.81993776559830, 0.35856777429581, -0.37695100903511, -1.62561762332916, -0.88803428411484, -1.99601697921753, 0.74909234046936, 0.01679098606110, -0.29789313673973, -1.71093451976776, -2.24474096298218, -1.75101530551910, -0.03309830650687, -1.38723313808441, -0.36730617284775, 0.33100721240044, -0.47973513603210, 0.03416875004768, 0.37461709976196, -0.78587877750397, 0.52425783872604, -0.39286652207375, -0.67023247480392, 0.68367087841034, 0.11222047358751, 0.36879107356071, -0.11058524250984, 0.49545258283615, 0.47223287820816, 0.32558795809746, 1.68949043750763, -0.74458026885986, -0.47787699103355, -0.47685286402702, 0.68913662433624, 0.69992071390152, -0.29201042652130, -0.45916834473610, 