-0.461122035980225, -1.218922615051270, -0.721789658069611, -0.688267052173615, 0.154391691088676, -0.788149833679199, -0.138384222984314, 0.222161605954170, -0.012723911553621, 0.193871796131134, -0.152034029364586, -0.051511079072952, -0.208195149898529, 0.158582687377930, -0.230819553136826, -0.154551282525063, 0.149663969874382, -0.016192337498069, 0.074970349669456, -0.302018135786057, 0.045979555696249, -0.260923117399216, 0.158830240368843, 0.336533516645432, -0.110757559537888, 0.007080650888383, -0.249851182103157, -0.058958355337381, 0.045481171458960, -0.230316594243050, 0.013559694401920, -0.252891659736633, -0.199111536145210, -0.025301057845354, -0.066532514989376, -0.024910377338529, -0.119788065552711, 0.099061049520969, -0.104197226464748, -0.005614676047117, 0.015878105536103, -0.003246524836868, 0.106918767094612, -0.095963746309280, -0.131684392690659, 0.097064703702927, 0.049194116145372, 0.023545684292912, 0.150363191962242, -0.016143515706062, 0.129070445895195, -0.014190653339028, -0.153676092624664, 0.063086114823818, 0.242249965667725, 0.466444194316864, -0.114938877522945, 0.056223899126053, -0.268790632486343, -0.057525757700205, 0.213563472032547, 0.111811578273773, -0.188009828329086, -0.160455897450447, -0.373831748962402, -0.290486812591553, 0.117509514093399, -0.033373881131411, -0.175501897931099, -0.422178059816360, 0.063257761299610, -0.091827839612961, 0.248675152659416, 0.044980540871620, -0.076867081224918, 0.054422281682491, 0.481793969869614, 0.157553777098656, -0.219067975878716, -0.143300220370293, 0.214091569185257, -0.083431467413902, 0.373033344745636, 0.260996401309967, -0.112807042896748, 0.107078827917576, 0.068903319537640, 0.058085765689611, -0.037456538528204, -0.004847427364439, 0.131155699491501, 0.115988813340664, 0.431757450103760, -0.308623731136322, 0.780731976032257, 1.044892072677612, 0.097705215215683, -0.571322441101074, 0.045489259064198, -0.317653536796570, -0.328301846981049, -0.161655470728874, 0.170062392950058, -0.092941015958786, -0.222868457436562, 0.051358968019485, 0.033425483852625, -0.162541538476944, 0.488011747598648, 0.149840950965881, 0.687326610088348, 0.054070666432381, 0.069433279335499, 0.252119570970535, 0.103335537016392, -0.058234576135874, -0.107419274747372, 0.191357672214508, -0.318278700113297, -0.159640386700630, -0.022867761552334, 0.001961761387065, -0.073944844305515, 0.551247239112854, -0.263583630323410, -0.130034029483795, -0.153285056352615, 0.081995964050293, -0.292146176099777, -0.064635694026947, 0.067228078842163, -0.457422971725464, 0.110128976404667, 0.221319660544395, 0.154347315430641, 0.075187452137470, 0.213148996233940, 2.211958885192871, 0.561869502067566, 0.277650237083435, -0.469366908073425, 0.287219047546387, -0.317250549793243, -0.271490991115570, 0.329774707555771, 0.529990077018738, -0.000811690581031, 0.587001562118530, -0.233510464429855, 0.231510370969772, -0.822268664836884, 0.739733695983887, 0.026429418474436, 0.373115479946136, -0.027733014896512, 0.117864049971104, -0.781567633152008, 0.175825968384743, -0.191185742616653, 0.161473020911217, 0.090695686638355, 0.187405556440353, -0.385519564151764, 0.387370318174362, -0.054349660873413, 0.504185914993286, -0.328628629446030, 0.641378819942474, -0.379688203334808, 0.579884111881256, 0.019039910286665, 0.396728098392487, 0.057296942919493, 0.596377432346344, 0.109962850809097, 0.154294580221176, 0.291047185659409, -0.120751418173313, 0.225659847259521, 0.141019523143768, -0.258455783128738, 0.107025705277920